/* Species #8 : (Size 1) (AF 0.000) (Age 18)  */
/* Organism #0 Fitness: 0.000 Error: 0.000 */
genomestart 0
trait 1 0.1 0 0 0 0 0 0 0
trait 2 0.2 0 0 0 0 0 0 0
trait 3 0.3 0 0 0 0 0 0 0
trait 4 0.4 0 0 0 0 0 0 0
trait 5 0.5 0.21432459062011575 0 0.46386359440456865 0 0 0.43763517547644715 0
trait 6 0.6 0 0 0 0 0 0 0
trait 7 0.7 0 0 0 0 0 0 0
trait 8 0.8 0 0 0 0 0 0 0
trait 9 0.9 0 0 0 0 0 0 0
trait 10 1 0 0 0 0 0 0 0
trait 11 1.1 0 0 0 0 0 0 0
trait 12 1.2 0 0 0 0.1168404327952012 0 0 0
trait 13 1.3 0 0 0 0 0 0 0
trait 14 1.4 0 0 0 0 0 0 0
trait 15 1.5 0 0 0 0 0 0 0
node 1 1 1 3 NullActivation
node 2 1 1 1 NullActivation
node 3 1 1 1 NullActivation
node 4 1 1 1 NullActivation
node 5 1 1 1 NullActivation
node 6 1 1 1 NullActivation
node 7 1 1 1 NullActivation
node 8 1 1 1 NullActivation
node 9 1 1 1 NullActivation
node 10 1 1 1 NullActivation
node 11 1 1 1 NullActivation
node 12 1 1 1 NullActivation
node 13 1 1 1 NullActivation
node 14 1 1 1 NullActivation
node 15 1 1 1 NullActivation
node 16 1 1 1 NullActivation
node 17 1 1 1 NullActivation
node 18 1 1 1 NullActivation
node 19 1 1 1 NullActivation
node 20 1 1 1 NullActivation
node 21 1 1 1 NullActivation
node 22 1 1 1 NullActivation
node 23 1 1 1 NullActivation
node 24 1 1 1 NullActivation
node 25 1 1 1 NullActivation
node 26 1 1 1 NullActivation
node 27 1 1 1 NullActivation
node 28 1 1 1 NullActivation
node 29 1 1 1 NullActivation
node 30 1 1 1 NullActivation
node 31 1 1 1 NullActivation
node 32 1 1 1 NullActivation
node 33 1 1 1 NullActivation
node 34 1 1 1 NullActivation
node 35 1 1 1 NullActivation
node 36 1 1 1 NullActivation
node 37 1 1 1 NullActivation
node 38 1 1 1 NullActivation
node 39 1 1 1 NullActivation
node 40 1 1 1 NullActivation
node 41 1 1 1 NullActivation
node 42 1 1 1 NullActivation
node 43 1 1 1 NullActivation
node 44 1 1 1 NullActivation
node 45 1 1 1 NullActivation
node 46 1 1 1 NullActivation
node 47 1 1 1 NullActivation
node 48 1 1 1 NullActivation
node 49 1 1 1 NullActivation
node 50 1 1 1 NullActivation
node 51 1 1 1 NullActivation
node 52 1 1 1 NullActivation
node 53 1 1 1 NullActivation
node 54 1 1 1 NullActivation
node 55 1 1 1 NullActivation
node 56 1 0 2 SigmoidBipolarActivation
gene 1 1 56 4.748410778868471 false 1 4.748410778868471 true
gene 5 45 56 -8.48252615506813 false 41 -8.48252615506813 true
gene 5 48 56 -2.99735269396033 false 79 -2.99735269396033 true
gene 5 16 56 2.6029171099982618 false 162 2.6029171099982618 true
gene 9 36 56 -0.03850803191415286 false 511 -0.03850803191415286 true
gene 5 4 56 9.474888587341878 false 963 9.474888587341878 true
gene 5 19 56 -4.684436298509363 false 1344 -4.684436298509363 true
gene 12 35 56 -0.22312430401885136 false 1643 -0.22312430401885136 true
gene 15 51 56 -6.317058569070766 false 1919 -6.317058569070766 true
gene 2 53 56 6.242197172575278 false 2172 0 true
gene 13 3 56 -5.948212831820968 false 2295 -5.948212831820968 true
genomeend 0
/* Species #15 : (Size 2) (AF 1.000) (Age 17)  */
/* Organism #2 Fitness: 1.000 Error: 0.000 */
genomestart 2
trait 1 0.1 0 0 0 0 0 0 0
trait 2 0.2 0 0 0 0 0 0 0
trait 3 0.3 0 0 0 0 0 0 0
trait 4 0.4 0 0 0 0 0 0 0
trait 5 0.5 0 0 0 0 0 0 0
trait 6 0.6 0 0 0 0 0 0 0
trait 7 0.7 0 0 0 0 0 0 0
trait 8 0.8 0 0 0 0 0 0 0
trait 9 0.9 0 0 0 0 0 0 0
trait 10 1 0 0 0 0 0.3548234947870653 0.30569408305570944 0.4514355795605398
trait 11 1.1 0 0 0 0 0 0 0
trait 12 1.2 0 0 0 0 0 0 0
trait 13 1.3 0 0 0 0 0 0 0
trait 14 1.4 0 0 0 0 0 0 0
trait 15 1.5 0 0 0 0 0 0 0
node 1 1 1 3 NullActivation
node 2 1 1 1 NullActivation
node 3 1 1 1 NullActivation
node 4 7 1 1 NullActivation
node 5 1 1 1 NullActivation
node 6 1 1 1 NullActivation
node 7 1 1 1 NullActivation
node 8 1 1 1 NullActivation
node 9 1 1 1 NullActivation
node 10 1 1 1 NullActivation
node 11 1 1 1 NullActivation
node 12 1 1 1 NullActivation
node 13 1 1 1 NullActivation
node 14 1 1 1 NullActivation
node 15 1 1 1 NullActivation
node 16 1 1 1 NullActivation
node 17 2 1 1 NullActivation
node 18 1 1 1 NullActivation
node 19 1 1 1 NullActivation
node 20 1 1 1 NullActivation
node 21 1 1 1 NullActivation
node 22 1 1 1 NullActivation
node 23 1 1 1 NullActivation
node 24 1 1 1 NullActivation
node 25 1 1 1 NullActivation
node 26 1 1 1 NullActivation
node 27 1 1 1 NullActivation
node 28 1 1 1 NullActivation
node 29 1 1 1 NullActivation
node 30 1 1 1 NullActivation
node 31 1 1 1 NullActivation
node 32 1 1 1 NullActivation
node 33 1 1 1 NullActivation
node 34 1 1 1 NullActivation
node 35 1 1 1 NullActivation
node 36 1 1 1 NullActivation
node 37 1 1 1 NullActivation
node 38 1 1 1 NullActivation
node 39 1 1 1 NullActivation
node 40 1 1 1 NullActivation
node 41 1 1 1 NullActivation
node 42 1 1 1 NullActivation
node 43 4 1 1 NullActivation
node 44 1 1 1 NullActivation
node 45 1 1 1 NullActivation
node 46 1 1 1 NullActivation
node 47 1 1 1 NullActivation
node 48 1 1 1 NullActivation
node 49 1 1 1 NullActivation
node 50 1 1 1 NullActivation
node 51 1 1 1 NullActivation
node 52 1 1 1 NullActivation
node 53 1 1 1 NullActivation
node 54 1 1 1 NullActivation
node 55 1 1 1 NullActivation
node 56 1 0 2 SigmoidBipolarActivation
gene 11 1 56 -1.4922319703137163 false 1 -1.4922319703137163 true
gene 13 29 56 -1.3489092232426168 false 15 -1.3489092232426168 true
gene 15 51 56 -1.449883082985179 false 61 -1.449883082985179 true
gene 2 32 56 -1.4469504002779563 false 103 -1.4469504002779563 true
gene 4 39 56 -8.043655343290453 false 678 -8.043655343290453 true
gene 8 38 56 0.4996521632820469 false 1381 0.4996521632820469 true
gene 8 25 56 0.26798619899542764 false 1630 0.26798619899542764 true
gene 2 37 56 8.194561175929092 false 1800 8.194561175929092 true
genomeend 2
/* Organism #1 Fitness: 1.000 Error: 0.000 */
genomestart 1
trait 1 0.1 0 0 0 0 0 0 0
trait 2 0.2 0 0 0 0 0 0 0
trait 3 0.3 0 0 0 0 0 0 0
trait 4 0.4 0 0 0 0 0 0 0
trait 5 0.5 0 0 0 0 0 0 0
trait 6 0.6 0 0 0 0 0 0 0
trait 7 0.7 0 0 0 0 0 0 0
trait 8 0.8 0 0 0 0 0 0 0
trait 9 0.9 0 0 0 0 0 0 0
trait 10 1 0 0 0 0 0.3548234947870653 0.30569408305570944 0.4514355795605398
trait 11 1.1 0 0 0 0 0 0 0
trait 12 1.2 0 0 0 0 0 0 0
trait 13 1.3 0 0 0 0 0 0 0
trait 14 1.4 0 0 0 0 0 0 0
trait 15 1.5 0 0 0 0 0 0 0
node 1 1 1 3 NullActivation
node 2 1 1 1 NullActivation
node 3 1 1 1 NullActivation
node 4 7 1 1 NullActivation
node 5 1 1 1 NullActivation
node 6 1 1 1 NullActivation
node 7 1 1 1 NullActivation
node 8 1 1 1 NullActivation
node 9 1 1 1 NullActivation
node 10 1 1 1 NullActivation
node 11 1 1 1 NullActivation
node 12 1 1 1 NullActivation
node 13 1 1 1 NullActivation
node 14 1 1 1 NullActivation
node 15 1 1 1 NullActivation
node 16 1 1 1 NullActivation
node 17 1 1 1 NullActivation
node 18 1 1 1 NullActivation
node 19 1 1 1 NullActivation
node 20 1 1 1 NullActivation
node 21 1 1 1 NullActivation
node 22 1 1 1 NullActivation
node 23 1 1 1 NullActivation
node 24 1 1 1 NullActivation
node 25 1 1 1 NullActivation
node 26 1 1 1 NullActivation
node 27 1 1 1 NullActivation
node 28 1 1 1 NullActivation
node 29 1 1 1 NullActivation
node 30 1 1 1 NullActivation
node 31 1 1 1 NullActivation
node 32 1 1 1 NullActivation
node 33 1 1 1 NullActivation
node 34 1 1 1 NullActivation
node 35 1 1 1 NullActivation
node 36 1 1 1 NullActivation
node 37 1 1 1 NullActivation
node 38 1 1 1 NullActivation
node 39 1 1 1 NullActivation
node 40 1 1 1 NullActivation
node 41 1 1 1 NullActivation
node 42 1 1 1 NullActivation
node 43 4 1 1 NullActivation
node 44 1 1 1 NullActivation
node 45 1 1 1 NullActivation
node 46 1 1 1 NullActivation
node 47 1 1 1 NullActivation
node 48 1 1 1 NullActivation
node 49 1 1 1 NullActivation
node 50 1 1 1 NullActivation
node 51 1 1 1 NullActivation
node 52 1 1 1 NullActivation
node 53 1 1 1 NullActivation
node 54 1 1 1 NullActivation
node 55 1 1 1 NullActivation
node 56 1 0 2 SigmoidBipolarActivation
gene 11 1 56 2.6421310095576103 false 1 2.6421310095576103 true
gene 13 29 56 -1.4464994168565575 false 15 -1.4464994168565575 true
gene 15 51 56 -0.6546734172463506 false 61 -0.6546734172463506 true
gene 2 32 56 -2.9801001208450524 false 103 -2.9801001208450524 true
gene 4 39 56 -7.998300984053509 false 678 -7.998300984053509 true
gene 8 38 56 2.090603234939264 false 1381 2.090603234939264 true
gene 8 25 56 0.12398203287705223 false 1630 0.12398203287705223 true
gene 2 37 56 4.876282098063571 false 1800 4.876282098063571 true
genomeend 1
/* Species #31 : (Size 1) (AF 1.000) (Age 14)  */
/* Organism #3 Fitness: 1.000 Error: 0.000 */
genomestart 3
trait 1 0.1 0 0 0 0 0 0 0
trait 2 0.2 0 0 0 0 0 0 0
trait 3 0.3 0 0 0 0 0 0 0
trait 4 0.4 0 0 0 0 0 0 0
trait 5 0.5 0 0 0 0 0 0 0
trait 6 0.6 0 0 0 0 0 0 0
trait 7 0.7 0 0 0 0 0 0 0
trait 8 0.8 0 0 0 0 0 0 0
trait 9 0.9 0 0 0 0 0 0 0
trait 10 1 0 0 0 0 0 0 0
trait 11 1.1 0 0 0 0 0 0 0
trait 12 1.2 0 0 0 0 0 0 0
trait 13 1.3 0 0 0 0 0 0 0
trait 14 0.41648498654855803 0 0 0.42556942359238903 0.2544320018895947 0 0.3524311800410251 0
trait 15 1.5 0 0 0 0 0 0 0
node 1 1 1 3 NullActivation
node 2 1 1 1 NullActivation
node 3 1 1 1 NullActivation
node 4 1 1 1 NullActivation
node 5 1 1 1 NullActivation
node 6 1 1 1 NullActivation
node 7 1 1 1 NullActivation
node 8 1 1 1 NullActivation
node 9 1 1 1 NullActivation
node 10 8 1 1 NullActivation
node 11 1 1 1 NullActivation
node 12 1 1 1 NullActivation
node 13 1 1 1 NullActivation
node 14 1 1 1 NullActivation
node 15 1 1 1 NullActivation
node 16 1 1 1 NullActivation
node 17 1 1 1 NullActivation
node 18 1 1 1 NullActivation
node 19 1 1 1 NullActivation
node 20 1 1 1 NullActivation
node 21 1 1 1 NullActivation
node 22 1 1 1 NullActivation
node 23 10 1 1 NullActivation
node 24 1 1 1 NullActivation
node 25 1 1 1 NullActivation
node 26 1 1 1 NullActivation
node 27 1 1 1 NullActivation
node 28 1 1 1 NullActivation
node 29 1 1 1 NullActivation
node 30 1 1 1 NullActivation
node 31 1 1 1 NullActivation
node 32 1 1 1 NullActivation
node 33 1 1 1 NullActivation
node 34 1 1 1 NullActivation
node 35 1 1 1 NullActivation
node 36 1 1 1 NullActivation
node 37 1 1 1 NullActivation
node 38 1 1 1 NullActivation
node 39 1 1 1 NullActivation
node 40 1 1 1 NullActivation
node 41 1 1 1 NullActivation
node 42 9 1 1 NullActivation
node 43 1 1 1 NullActivation
node 44 1 1 1 NullActivation
node 45 1 1 1 NullActivation
node 46 1 1 1 NullActivation
node 47 1 1 1 NullActivation
node 48 1 1 1 NullActivation
node 49 1 1 1 NullActivation
node 50 1 1 1 NullActivation
node 51 1 1 1 NullActivation
node 52 1 1 1 NullActivation
node 53 1 1 1 NullActivation
node 54 1 1 1 NullActivation
node 55 1 1 1 NullActivation
node 56 1 0 2 SigmoidBipolarActivation
node 58 1 0 0 SigmoidSteepenedActivation
gene 1 1 56 0.567895000885522 false 1 0.567895000885522 true
gene 15 36 56 0.7118237162981697 false 32 0.7118237162981697 true
gene 13 36 58 3.761489609526947 false 75 3.761489609526947 true
gene 13 58 56 2.1495104798327813 false 76 2.1495104798327813 true
gene 6 20 56 2.67733854185023 false 122 2.67733854185023 true
gene 15 20 58 -12.594630789399195 false 123 -12.594630789399195 true
gene 4 24 56 -6.566533128489209 false 1027 -6.566533128489209 true
gene 13 22 56 2.514565640520164 false 1132 2.514565640520164 true
gene 5 46 56 1.4432713843796545 false 1421 1.4432713843796545 true
gene 3 46 58 12.502657318392059 false 1422 12.502657318392059 true
gene 8 10 56 -1.1231357295251254 false 1880 -1.1231357295251254 true
gene 13 10 58 4.1840403103198485 false 1908 4.1840403103198485 true
gene 5 51 56 -7.630629347792153 false 2102 -7.630629347792153 true
gene 1 51 58 -2.5005246209195042 false 2143 -2.5005246209195042 true
genomeend 3
/* Species #35 : (Size 1) (AF 0.000) (Age 14)  */
/* Organism #4 Fitness: 0.000 Error: 0.000 */
genomestart 4
trait 1 0.1 0 0 0 0 0 0 0
trait 2 0.2 0 0 0 0 0 0 0
trait 3 0.3 0 0 0 0 0 0 0
trait 4 0.4 0 0 0 0 0 0 0
trait 5 0.5 0 0 0 0 0 0 0
trait 6 0.6267947242884679 0 0 0 0 0 0 0
trait 7 0.7 0 0 0 0 0 0 0
trait 8 0.8 0 0 0 0 0 0 0
trait 9 0.9 0 0 0 0 0 0 0
trait 10 1 0 0 0 0 0 0 0
trait 11 1.1 0 0 0 0 0 0 0
trait 12 0.6730366297484083 0.13782709579926014 0.47309569981328825 0 0 0 0 0
trait 13 1.3 0 0 0 0 0 0 0
trait 14 1.4 0 0 0 0 0 0 0
trait 15 1.5 0 0 0 0 0 0 0
node 1 1 1 3 NullActivation
node 2 1 1 1 NullActivation
node 3 1 1 1 NullActivation
node 4 1 1 1 NullActivation
node 5 1 1 1 NullActivation
node 6 1 1 1 NullActivation
node 7 1 1 1 NullActivation
node 8 1 1 1 NullActivation
node 9 1 1 1 NullActivation
node 10 1 1 1 NullActivation
node 11 1 1 1 NullActivation
node 12 1 1 1 NullActivation
node 13 1 1 1 NullActivation
node 14 1 1 1 NullActivation
node 15 1 1 1 NullActivation
node 16 1 1 1 NullActivation
node 17 1 1 1 NullActivation
node 18 1 1 1 NullActivation
node 19 1 1 1 NullActivation
node 20 1 1 1 NullActivation
node 21 1 1 1 NullActivation
node 22 1 1 1 NullActivation
node 23 1 1 1 NullActivation
node 24 1 1 1 NullActivation
node 25 1 1 1 NullActivation
node 26 1 1 1 NullActivation
node 27 1 1 1 NullActivation
node 28 1 1 1 NullActivation
node 29 1 1 1 NullActivation
node 30 1 1 1 NullActivation
node 31 1 1 1 NullActivation
node 32 1 1 1 NullActivation
node 33 1 1 1 NullActivation
node 34 1 1 1 NullActivation
node 35 1 1 1 NullActivation
node 36 1 1 1 NullActivation
node 37 1 1 1 NullActivation
node 38 1 1 1 NullActivation
node 39 1 1 1 NullActivation
node 40 1 1 1 NullActivation
node 41 1 1 1 NullActivation
node 42 1 1 1 NullActivation
node 43 1 1 1 NullActivation
node 44 1 1 1 NullActivation
node 45 1 1 1 NullActivation
node 46 1 1 1 NullActivation
node 47 1 1 1 NullActivation
node 48 1 1 1 NullActivation
node 49 1 1 1 NullActivation
node 50 1 1 1 NullActivation
node 51 1 1 1 NullActivation
node 52 1 1 1 NullActivation
node 53 1 1 1 NullActivation
node 54 1 1 1 NullActivation
node 55 1 1 1 NullActivation
node 56 1 0 2 SigmoidBipolarActivation
node 63 1 0 0 SigmoidSteepenedActivation
gene 1 1 56 -1.3635214178608102 false 1 -1.3635214178608102 true
gene 13 29 56 -2.2123424207828872 false 15 -2.2123424207828872 true
gene 5 2 56 -2.664599766378048 false 50 -2.664599766378048 true
gene 13 29 63 2.2697804448193204 false 171 2.2697804448193204 true
gene 13 63 56 0.1693079433163697 false 172 0.1693079433163697 true
gene 5 4 56 -8.516293061961953 false 406 -8.516293061961953 true
gene 12 4 63 -0.719520903549026 false 407 -0.719520903549026 true
gene 13 13 63 -0.03337412208404933 false 521 -0.03337412208404933 true
gene 4 23 56 -2.0662024976845172 false 564 -2.0662024976845172 true
gene 3 23 63 2.3838494787227935 false 566 2.3838494787227935 true
gene 3 42 56 7.931502291137884 false 772 7.931502291137884 true
gene 7 42 63 -0.535401505885855 false 774 -0.535401505885855 true
gene 2 19 56 4.62461560223171 false 1139 4.62461560223171 true
gene 9 19 63 -3.9799135317203875 false 1140 -3.9799135317203875 true
gene 2 33 56 3.008436265623523 false 1445 3.008436265623523 true
gene 6 33 63 -6.3637863796526375 false 1446 -6.3637863796526375 true
gene 13 6 56 -3.1050089721208405 false 2299 -3.1050089721208405 true
genomeend 4
/* Species #39 : (Size 2) (AF 0.500) (Age 14)  */
/* Organism #5 Fitness: 1.000 Error: 0.000 */
genomestart 5
trait 1 0.1 0 0 0 0 0 0 0
trait 2 0.2 0 0 0 0 0 0 0
trait 3 0.3 0 0 0 0 0 0 0
trait 4 0.4 0 0 0 0 0 0 0
trait 5 0.5 0 0 0 0 0 0 0
trait 6 0.6 0 0 0 0 0 0 0
trait 7 0.7 0 0 0 0 0 0 0
trait 8 0.8 0 0 0 0 0 0 0
trait 9 0.9 0 0 0 0 0 0 0
trait 10 1 0 0 0 0 0 0 0
trait 11 1.1 0 0 0 0 0 0 0
trait 12 1.2 0 0 0 0 0 0 0
trait 13 1.3 0 0 0 0 0 0 0
trait 14 1.4 0 0 0 0 0 0 0
trait 15 1.5 0 0 0 0 0 0 0
node 1 1 1 3 NullActivation
node 2 1 1 1 NullActivation
node 3 1 1 1 NullActivation
node 4 1 1 1 NullActivation
node 5 1 1 1 NullActivation
node 6 1 1 1 NullActivation
node 7 1 1 1 NullActivation
node 8 1 1 1 NullActivation
node 9 14 1 1 NullActivation
node 10 1 1 1 NullActivation
node 11 1 1 1 NullActivation
node 12 1 1 1 NullActivation
node 13 1 1 1 NullActivation
node 14 1 1 1 NullActivation
node 15 1 1 1 NullActivation
node 16 1 1 1 NullActivation
node 17 1 1 1 NullActivation
node 18 1 1 1 NullActivation
node 19 1 1 1 NullActivation
node 20 1 1 1 NullActivation
node 21 1 1 1 NullActivation
node 22 1 1 1 NullActivation
node 23 1 1 1 NullActivation
node 24 1 1 1 NullActivation
node 25 1 1 1 NullActivation
node 26 1 1 1 NullActivation
node 27 1 1 1 NullActivation
node 28 1 1 1 NullActivation
node 29 1 1 1 NullActivation
node 30 1 1 1 NullActivation
node 31 1 1 1 NullActivation
node 32 1 1 1 NullActivation
node 33 1 1 1 NullActivation
node 34 1 1 1 NullActivation
node 35 1 1 1 NullActivation
node 36 1 1 1 NullActivation
node 37 1 1 1 NullActivation
node 38 1 1 1 NullActivation
node 39 1 1 1 NullActivation
node 40 1 1 1 NullActivation
node 41 1 1 1 NullActivation
node 42 1 1 1 NullActivation
node 43 1 1 1 NullActivation
node 44 1 1 1 NullActivation
node 45 1 1 1 NullActivation
node 46 1 1 1 NullActivation
node 47 1 1 1 NullActivation
node 48 1 1 1 NullActivation
node 49 1 1 1 NullActivation
node 50 1 1 1 NullActivation
node 51 1 1 1 NullActivation
node 52 1 1 1 NullActivation
node 53 1 1 1 NullActivation
node 54 6 1 1 NullActivation
node 55 1 1 1 NullActivation
node 56 1 0 2 SigmoidBipolarActivation
node 75 1 0 0 SigmoidSteepenedActivation
gene 1 1 56 3.5594854514724052 false 1 3.5594854514724052 true
gene 11 6 56 -0.30755105927024495 false 12 -0.30755105927024495 true
gene 4 25 56 2.3368884990790524 false 108 2.3368884990790524 true
gene 10 5 56 -4.840010353622382 false 251 -4.840010353622382 true
gene 4 25 75 -1.7989807088455763 false 339 -1.7989807088455763 true
gene 4 75 56 6.067110863549162 false 340 6.067110863549162 true
gene 15 45 56 0.6976849776211858 false 358 0.6976849776211858 true
gene 13 45 75 3.3821149926132525 false 359 3.3821149926132525 true
gene 8 47 56 -0.31598288138871133 false 522 -0.31598288138871133 true
gene 14 47 75 -0.6376848123889305 false 523 -0.6376848123889305 true
gene 7 14 56 4.43866685749904 false 1353 4.43866685749904 true
gene 8 51 56 -3.2264121838079807 false 1461 -3.2264121838079807 true
gene 9 51 75 12.75822669926815 false 1462 12.75822669926815 true
gene 9 48 56 5.897779913665566 false 2063 5.897779913665566 true
gene 6 48 75 3.8960045788836823 false 2064 3.8960045788836823 true
gene 9 49 56 4.270469273714059 false 2277 4.270469273714059 true
gene 8 49 75 0.6468788584093133 false 2278 0.6468788584093133 true
genomeend 5
/* Organism #6 Fitness: 0.000 Error: 0.000 */
genomestart 6
trait 1 0.1 0 0 0 0 0 0 0
trait 2 0.2 0 0 0 0 0 0 0
trait 3 0.3 0 0 0 0 0 0 0
trait 4 0.4 0 0 0 0 0 0 0
trait 5 0.5 0 0 0 0 0 0 0
trait 6 0.6 0 0 0 0 0 0 0
trait 7 0.7 0 0 0 0 0 0 0
trait 8 0.8 0 0 0 0 0 0 0
trait 9 0.9 0 0 0 0 0 0 0
trait 10 1 0 0 0 0 0 0 0
trait 11 1.1 0 0 0 0 0 0 0
trait 12 1.2 0 0 0 0 0 0 0
trait 13 1.3 0 0 0 0 0 0 0
trait 14 1.4 0 0 0 0 0 0 0
trait 15 1.5 0 0 0 0 0 0 0
node 1 1 1 3 NullActivation
node 2 1 1 1 NullActivation
node 3 1 1 1 NullActivation
node 4 1 1 1 NullActivation
node 5 1 1 1 NullActivation
node 6 1 1 1 NullActivation
node 7 1 1 1 NullActivation
node 8 1 1 1 NullActivation
node 9 14 1 1 NullActivation
node 10 1 1 1 NullActivation
node 11 1 1 1 NullActivation
node 12 1 1 1 NullActivation
node 13 1 1 1 NullActivation
node 14 1 1 1 NullActivation
node 15 1 1 1 NullActivation
node 16 1 1 1 NullActivation
node 17 1 1 1 NullActivation
node 18 1 1 1 NullActivation
node 19 1 1 1 NullActivation
node 20 1 1 1 NullActivation
node 21 1 1 1 NullActivation
node 22 1 1 1 NullActivation
node 23 1 1 1 NullActivation
node 24 1 1 1 NullActivation
node 25 1 1 1 NullActivation
node 26 1 1 1 NullActivation
node 27 1 1 1 NullActivation
node 28 1 1 1 NullActivation
node 29 1 1 1 NullActivation
node 30 1 1 1 NullActivation
node 31 1 1 1 NullActivation
node 32 1 1 1 NullActivation
node 33 1 1 1 NullActivation
node 34 1 1 1 NullActivation
node 35 1 1 1 NullActivation
node 36 1 1 1 NullActivation
node 37 1 1 1 NullActivation
node 38 1 1 1 NullActivation
node 39 1 1 1 NullActivation
node 40 1 1 1 NullActivation
node 41 1 1 1 NullActivation
node 42 1 1 1 NullActivation
node 43 1 1 1 NullActivation
node 44 1 1 1 NullActivation
node 45 1 1 1 NullActivation
node 46 1 1 1 NullActivation
node 47 1 1 1 NullActivation
node 48 1 1 1 NullActivation
node 49 1 1 1 NullActivation
node 50 1 1 1 NullActivation
node 51 1 1 1 NullActivation
node 52 1 1 1 NullActivation
node 53 1 1 1 NullActivation
node 54 6 1 1 NullActivation
node 55 1 1 1 NullActivation
node 56 1 0 2 SigmoidBipolarActivation
node 75 1 0 0 SigmoidSteepenedActivation
gene 1 1 56 3.5594854514724052 false 1 3.5594854514724052 true
gene 11 6 56 -0.30755105927024495 false 12 -0.30755105927024495 true
gene 4 25 56 2.3368884990790524 false 108 2.3368884990790524 true
gene 10 5 56 -4.840010353622382 false 251 -4.840010353622382 true
gene 4 25 75 -1.7989807088455763 false 339 -1.7989807088455763 true
gene 4 75 56 6.067110863549162 false 340 6.067110863549162 true
gene 15 45 56 0.6976849776211858 false 358 0.6976849776211858 true
gene 13 45 75 3.3821149926132525 false 359 3.3821149926132525 true
gene 8 47 56 -0.31598288138871133 false 522 -0.31598288138871133 true
gene 14 47 75 -0.6376848123889305 false 523 -0.6376848123889305 true
gene 7 14 56 4.43866685749904 false 1353 4.43866685749904 true
gene 8 51 56 -3.2264121838079807 false 1461 -3.2264121838079807 true
gene 9 51 75 12.75822669926815 false 1462 12.75822669926815 true
gene 9 48 56 5.897779913665566 false 2063 5.897779913665566 true
gene 6 48 75 3.8960045788836823 false 2064 3.8960045788836823 true
gene 14 40 56 -0.4643398005186944 false 2279 -0.4643398005186944 true
gene 13 40 75 6.638705638878588 false 2280 6.638705638878588 true
genomeend 6
/* Species #42 : (Size 2) (AF 0.500) (Age 14)  */
/* Organism #8 Fitness: 1.000 Error: 0.000 */
genomestart 8
trait 1 0.1 0 0 0 0 0 0 0
trait 2 0.2 0 0 0 0 0 0 0
trait 3 0.3 0 0 0 0 0 0 0
trait 4 0.4 0 0 0 0 0 0 0
trait 5 1.5141337426485857 0 0 0 0.8887178686250549 0 0 0
trait 6 0.6 0 0 0 0 0 0 0
trait 7 0.7 0 0 0 0 0 0 0
trait 8 0.8 0 0 0 0 0 0 0
trait 9 0.9 0 0 0 0 0 0 0
trait 10 1 0 0 0 0 0 0 0
trait 11 1.1 0 0 0 0 0 0 0
trait 12 1.2 0 0 0 0 0 0 0
trait 13 1.3 0 0 0 0 0 0 0
trait 14 1.4 0 0 0 0 0 0 0
trait 15 1.5 0 0 0 0 0 0 0
node 1 1 1 3 NullActivation
node 2 1 1 1 NullActivation
node 3 1 1 1 NullActivation
node 4 1 1 1 NullActivation
node 5 1 1 1 NullActivation
node 6 1 1 1 NullActivation
node 7 1 1 1 NullActivation
node 8 1 1 1 NullActivation
node 9 1 1 1 NullActivation
node 10 1 1 1 NullActivation
node 11 1 1 1 NullActivation
node 12 1 1 1 NullActivation
node 13 1 1 1 NullActivation
node 14 1 1 1 NullActivation
node 15 1 1 1 NullActivation
node 16 1 1 1 NullActivation
node 17 1 1 1 NullActivation
node 18 1 1 1 NullActivation
node 19 1 1 1 NullActivation
node 20 1 1 1 NullActivation
node 21 1 1 1 NullActivation
node 22 1 1 1 NullActivation
node 23 1 1 1 NullActivation
node 24 1 1 1 NullActivation
node 25 1 1 1 NullActivation
node 26 1 1 1 NullActivation
node 27 1 1 1 NullActivation
node 28 1 1 1 NullActivation
node 29 1 1 1 NullActivation
node 30 1 1 1 NullActivation
node 31 1 1 1 NullActivation
node 32 1 1 1 NullActivation
node 33 1 1 1 NullActivation
node 34 1 1 1 NullActivation
node 35 1 1 1 NullActivation
node 36 1 1 1 NullActivation
node 37 1 1 1 NullActivation
node 38 1 1 1 NullActivation
node 39 1 1 1 NullActivation
node 40 1 1 1 NullActivation
node 41 1 1 1 NullActivation
node 42 1 1 1 NullActivation
node 43 1 1 1 NullActivation
node 44 1 1 1 NullActivation
node 45 1 1 1 NullActivation
node 46 1 1 1 NullActivation
node 47 1 1 1 NullActivation
node 48 1 1 1 NullActivation
node 49 1 1 1 NullActivation
node 50 1 1 1 NullActivation
node 51 1 1 1 NullActivation
node 52 1 1 1 NullActivation
node 53 1 1 1 NullActivation
node 54 1 1 1 NullActivation
node 55 1 1 1 NullActivation
node 56 1 0 2 SigmoidBipolarActivation
node 77 1 0 0 SigmoidSteepenedActivation
gene 1 1 56 -3.459632284890468 false 1 -3.459632284890468 true
gene 5 45 56 0.8379713231791596 false 41 0.8379713231791596 true
gene 13 48 56 -0.098235506133451 false 79 -0.098235506133451 true
gene 5 16 56 -3.5825836521193377 false 162 -3.5825836521193377 true
gene 7 37 56 1.8204202398437155 false 234 1.8204202398437155 true
gene 5 45 77 1.7229627619867023 false 363 1.7229627619867023 true
gene 5 77 56 1.3179266088542032 false 364 1.3179266088542032 true
gene 4 26 56 -5.228391449401585 false 688 -5.228391449401585 true
gene 8 26 77 -3.507733040608252 false 768 -3.507733040608252 true
gene 9 5 56 -0.7726653312632804 false 847 -0.7726653312632804 true
gene 3 5 77 -3.3188910635574045 false 848 -3.3188910635574045 true
gene 9 20 56 -3.9952739974946976 false 941 -3.9952739974946976 true
gene 7 20 77 11.668914334398243 false 1002 11.668914334398243 true
gene 15 54 56 -0.3698910994023812 false 1043 -0.3698910994023812 true
gene 8 54 77 1.1461188952348103 false 1044 1.1461188952348103 true
gene 7 53 56 -2.3531709011338955 false 1423 -2.3531709011338955 true
gene 12 46 56 -1.6607321498634846 false 1962 -1.6607321498634846 true
gene 3 46 77 0.1675278575988275 false 2091 0.1675278575988275 true
genomeend 8
/* Organism #7 Fitness: 0.000 Error: 0.000 */
genomestart 7
trait 1 0.1 0 0 0 0 0 0 0
trait 2 0.2 0 0 0 0 0 0 0
trait 3 0.3 0 0 0 0 0 0 0
trait 4 0.4 0 0 0 0 0 0 0
trait 5 1.2685447480798346 0 0 0 0 0 0 0
trait 6 0.6 0 0 0 0 0 0 0
trait 7 0.7 0 0 0 0 0 0 0
trait 8 0.8 0 0 0 0 0 0 0
trait 9 0.9 0 0 0 0 0 0 0
trait 10 1 0 0 0 0 0 0 0
trait 11 1.1 0 0 0 0 0 0 0
trait 12 1.2 0 0 0 0 0 0 0
trait 13 1.3 0 0 0 0 0 0 0
trait 14 1.4 0 0 0 0 0 0 0
trait 15 1.5 0 0 0 0 0 0 0
node 1 1 1 3 NullActivation
node 2 1 1 1 NullActivation
node 3 1 1 1 NullActivation
node 4 1 1 1 NullActivation
node 5 1 1 1 NullActivation
node 6 1 1 1 NullActivation
node 7 1 1 1 NullActivation
node 8 1 1 1 NullActivation
node 9 1 1 1 NullActivation
node 10 1 1 1 NullActivation
node 11 1 1 1 NullActivation
node 12 1 1 1 NullActivation
node 13 1 1 1 NullActivation
node 14 1 1 1 NullActivation
node 15 1 1 1 NullActivation
node 16 1 1 1 NullActivation
node 17 1 1 1 NullActivation
node 18 1 1 1 NullActivation
node 19 1 1 1 NullActivation
node 20 1 1 1 NullActivation
node 21 1 1 1 NullActivation
node 22 1 1 1 NullActivation
node 23 1 1 1 NullActivation
node 24 1 1 1 NullActivation
node 25 1 1 1 NullActivation
node 26 1 1 1 NullActivation
node 27 1 1 1 NullActivation
node 28 1 1 1 NullActivation
node 29 1 1 1 NullActivation
node 30 1 1 1 NullActivation
node 31 1 1 1 NullActivation
node 32 1 1 1 NullActivation
node 33 1 1 1 NullActivation
node 34 1 1 1 NullActivation
node 35 1 1 1 NullActivation
node 36 1 1 1 NullActivation
node 37 1 1 1 NullActivation
node 38 1 1 1 NullActivation
node 39 1 1 1 NullActivation
node 40 1 1 1 NullActivation
node 41 1 1 1 NullActivation
node 42 1 1 1 NullActivation
node 43 1 1 1 NullActivation
node 44 1 1 1 NullActivation
node 45 1 1 1 NullActivation
node 46 1 1 1 NullActivation
node 47 1 1 1 NullActivation
node 48 1 1 1 NullActivation
node 49 1 1 1 NullActivation
node 50 1 1 1 NullActivation
node 51 1 1 1 NullActivation
node 52 1 1 1 NullActivation
node 53 1 1 1 NullActivation
node 54 1 1 1 NullActivation
node 55 1 1 1 NullActivation
node 56 1 0 2 SigmoidBipolarActivation
node 77 1 0 0 SigmoidSteepenedActivation
gene 1 1 56 -3.1448431036313282 false 1 -3.1448431036313282 true
gene 5 45 56 -0.6245078823490421 false 41 -0.6245078823490421 true
gene 13 48 56 -1.5636947916738138 false 79 -1.5636947916738138 true
gene 5 16 56 -1.2577409347199613 false 162 -1.2577409347199613 true
gene 7 37 56 -1.6486218504363226 false 234 -1.6486218504363226 true
gene 5 45 77 -0.032835205823082136 false 363 -0.032835205823082136 true
gene 5 77 56 -3.351108921667495 false 364 -3.351108921667495 true
gene 4 26 56 -3.498645882878356 false 688 -3.498645882878356 true
gene 8 26 77 -1.179759507271256 false 768 -1.179759507271256 true
gene 9 5 56 0.35439115156489265 false 847 0.35439115156489265 true
gene 3 5 77 -3.3188910635574045 false 848 -3.3188910635574045 true
gene 9 20 56 -6.153982750575416 false 941 -6.153982750575416 true
gene 7 20 77 10.487023957255019 false 1002 10.487023957255019 true
gene 15 54 56 -0.3698910994023812 false 1043 -0.3698910994023812 true
gene 8 54 77 1.1461188952348103 false 1044 1.1461188952348103 true
gene 7 53 56 -2.3531709011338955 false 1423 -2.3531709011338955 true
gene 12 46 56 -5.282040364583025 false 1962 -5.282040364583025 true
gene 3 46 77 0.1675278575988275 false 2091 0.1675278575988275 true
gene 8 22 56 -1.3822601023667613 false 2300 0 true
gene 9 22 77 -9.471965572915286 false 2319 -9.471965572915286 true
genomeend 7
/* Species #44 : (Size 1) (AF 0.000) (Age 14)  */
/* Organism #9 Fitness: 0.000 Error: 0.000 */
genomestart 9
trait 1 0.1 0 0 0 0 0 0 0
trait 2 0.2 0 0 0 0 0 0 0
trait 3 0.3 0 0 0 0 0 0 0
trait 4 0.4 0 0 0 0 0 0 0
trait 5 0.5 0 0 0 0 0 0 0
trait 6 0.6 0 0 0 0 0 0 0
trait 7 0.7 0 0 0 0 0 0 0
trait 8 0.8 0 0 0 0 0 0 0
trait 9 0.9 0 0.8785624327096359 0.49307721237591057 0 0.7620714531914332 0 0
trait 10 1 0 0 0 0 0 0 0
trait 11 1.1 0 0 0 0 0 0 0
trait 12 1.2 0 0 0 0 0 0 0
trait 13 1.3 0 0 0 0 0 0 0
trait 14 1.4 0 0 0 0 0 0 0
trait 15 1.5 0 0 0 0 0 0 0
node 1 1 1 3 NullActivation
node 2 1 1 1 NullActivation
node 3 1 1 1 NullActivation
node 4 1 1 1 NullActivation
node 5 1 1 1 NullActivation
node 6 1 1 1 NullActivation
node 7 1 1 1 NullActivation
node 8 1 1 1 NullActivation
node 9 1 1 1 NullActivation
node 10 1 1 1 NullActivation
node 11 1 1 1 NullActivation
node 12 1 1 1 NullActivation
node 13 1 1 1 NullActivation
node 14 1 1 1 NullActivation
node 15 1 1 1 NullActivation
node 16 1 1 1 NullActivation
node 17 1 1 1 NullActivation
node 18 1 1 1 NullActivation
node 19 1 1 1 NullActivation
node 20 1 1 1 NullActivation
node 21 1 1 1 NullActivation
node 22 1 1 1 NullActivation
node 23 1 1 1 NullActivation
node 24 1 1 1 NullActivation
node 25 1 1 1 NullActivation
node 26 1 1 1 NullActivation
node 27 1 1 1 NullActivation
node 28 1 1 1 NullActivation
node 29 1 1 1 NullActivation
node 30 1 1 1 NullActivation
node 31 1 1 1 NullActivation
node 32 1 1 1 NullActivation
node 33 1 1 1 NullActivation
node 34 9 1 1 NullActivation
node 35 1 1 1 NullActivation
node 36 1 1 1 NullActivation
node 37 1 1 1 NullActivation
node 38 1 1 1 NullActivation
node 39 1 1 1 NullActivation
node 40 1 1 1 NullActivation
node 41 1 1 1 NullActivation
node 42 1 1 1 NullActivation
node 43 1 1 1 NullActivation
node 44 13 1 1 NullActivation
node 45 1 1 1 NullActivation
node 46 1 1 1 NullActivation
node 47 1 1 1 NullActivation
node 48 1 1 1 NullActivation
node 49 1 1 1 NullActivation
node 50 1 1 1 NullActivation
node 51 1 1 1 NullActivation
node 52 1 1 1 NullActivation
node 53 1 1 1 NullActivation
node 54 1 1 1 NullActivation
node 55 1 1 1 NullActivation
node 56 1 0 2 SigmoidBipolarActivation
node 63 1 0 0 SigmoidSteepenedActivation
gene 1 1 56 8.59741272957307 false 1 8.59741272957307 true
gene 14 29 56 -0.5051470037706285 false 15 -0.5051470037706285 true
gene 5 2 56 -0.13849094563774314 false 50 -0.13849094563774314 true
gene 13 29 63 0.973409813858173 false 171 0.973409813858173 true
gene 13 63 56 -0.7574370785839062 false 172 -0.7574370785839062 true
gene 7 37 56 0.13925830874425582 false 234 0.13925830874425582 true
gene 5 37 63 -2.3613278185002327 false 249 -2.3613278185002327 true
gene 14 6 56 1.3473179011001553 false 285 1.3473179011001553 true
gene 7 6 63 0.8545818804183356 false 313 0.8545818804183356 true
gene 5 24 56 1.063758330221773 false 397 1.063758330221773 true
gene 11 24 63 4.685810174143601 false 456 4.685810174143601 true
gene 8 4 56 -4.208974457847134 false 712 -4.208974457847134 true
gene 5 4 63 -2.4671640077270927 false 713 -2.4671640077270927 true
gene 7 14 56 -3.773789746792376 false 2158 0 true
gene 13 14 63 1.4818721332380413 false 2159 0 true
gene 13 38 56 4.6137741543998505 false 2339 4.6137741543998505 true
gene 4 38 63 1.3507158290383239 false 2340 1.3507158290383239 true
genomeend 9
/* Species #45 : (Size 2) (AF 1.000) (Age 14)  */
/* Organism #11 Fitness: 1.000 Error: 0.000 */
genomestart 11
trait 1 0.1 0 0 0 0 0 0 0
trait 2 0.2 0 0 0 0 0 0 0
trait 3 0.3 0 0 0 0 0 0 0
trait 4 0.4 0 0 0 0 0 0 0
trait 5 0.5 0 0 0 0 0 0 0
trait 6 0.6 0 0 0 0 0 0 0
trait 7 0.7 0 0 0 0 0 0 0
trait 8 0.8 0 0 0 0 0 0 0
trait 9 0.9 0 0 0 0 0 0 0
trait 10 1 0 0 0 0 0 0 0
trait 11 1.1 0 0 0 0 0 0 0
trait 12 1.2 0 0 0 0 0 0 0
trait 13 1.3 0 0 0 0 0 0 0
trait 14 1.4 0 0 0 0 0 0 0
trait 15 1.5 0 0 0 0 0 0 0
node 1 1 1 3 NullActivation
node 2 1 1 1 NullActivation
node 3 1 1 1 NullActivation
node 4 1 1 1 NullActivation
node 5 1 1 1 NullActivation
node 6 1 1 1 NullActivation
node 7 1 1 1 NullActivation
node 8 1 1 1 NullActivation
node 9 1 1 1 NullActivation
node 10 1 1 1 NullActivation
node 11 1 1 1 NullActivation
node 12 1 1 1 NullActivation
node 13 1 1 1 NullActivation
node 14 1 1 1 NullActivation
node 15 1 1 1 NullActivation
node 16 1 1 1 NullActivation
node 17 1 1 1 NullActivation
node 18 1 1 1 NullActivation
node 19 1 1 1 NullActivation
node 20 1 1 1 NullActivation
node 21 1 1 1 NullActivation
node 22 1 1 1 NullActivation
node 23 1 1 1 NullActivation
node 24 1 1 1 NullActivation
node 25 1 1 1 NullActivation
node 26 1 1 1 NullActivation
node 27 1 1 1 NullActivation
node 28 1 1 1 NullActivation
node 29 1 1 1 NullActivation
node 30 1 1 1 NullActivation
node 31 1 1 1 NullActivation
node 32 1 1 1 NullActivation
node 33 1 1 1 NullActivation
node 34 9 1 1 NullActivation
node 35 1 1 1 NullActivation
node 36 1 1 1 NullActivation
node 37 1 1 1 NullActivation
node 38 1 1 1 NullActivation
node 39 1 1 1 NullActivation
node 40 1 1 1 NullActivation
node 41 1 1 1 NullActivation
node 42 1 1 1 NullActivation
node 43 1 1 1 NullActivation
node 44 1 1 1 NullActivation
node 45 1 1 1 NullActivation
node 46 1 1 1 NullActivation
node 47 1 1 1 NullActivation
node 48 1 1 1 NullActivation
node 49 1 1 1 NullActivation
node 50 1 1 1 NullActivation
node 51 1 1 1 NullActivation
node 52 1 1 1 NullActivation
node 53 1 1 1 NullActivation
node 54 1 1 1 NullActivation
node 55 1 1 1 NullActivation
node 56 1 0 2 SigmoidBipolarActivation
node 63 1 0 0 SigmoidSteepenedActivation
gene 1 1 56 3.153947456921139 false 1 3.153947456921139 true
gene 13 29 56 -1.5975919064808106 false 15 -1.5975919064808106 true
gene 5 2 56 2.983545631261329 false 50 2.983545631261329 true
gene 13 29 63 1.736695437856762 false 171 1.736695437856762 true
gene 13 63 56 -3.0855625779068045 false 172 -3.0855625779068045 true
gene 7 37 56 -2.454375674451458 false 234 -2.454375674451458 true
gene 5 37 63 -3.710539811761185 false 249 -3.710539811761185 true
gene 14 6 56 -3.7253183134505843 false 285 -3.7253183134505843 true
gene 7 6 63 7.031297240382692 false 313 7.031297240382692 true
gene 13 26 56 9.406440638426014 false 440 9.406440638426014 true
gene 10 26 63 0.6582933269181733 false 454 0.6582933269181733 true
gene 5 44 56 -3.0772177845123103 false 562 -3.0772177845123103 true
gene 1 44 63 -0.6316355873705399 false 651 -0.6316355873705399 true
gene 9 51 56 -0.6943462272300052 false 1461 -0.6943462272300052 true
gene 11 51 63 0.15664124183843353 false 1564 0.15664124183843353 true
gene 10 21 56 -1.883362234919519 false 1572 -1.883362234919519 true
gene 4 21 63 0.9462459184954399 false 1578 0.9462459184954399 true
gene 9 31 63 6.407492096711062 false 1975 6.407492096711062 true
gene 7 7 56 7.131134924632397 false 2092 7.131134924632397 true
gene 5 7 63 1.9168862828157138 false 2093 1.9168862828157138 true
genomeend 11
/* Organism #10 Fitness: 1.000 Error: 0.000 */
genomestart 10
trait 1 0.1 0 0 0 0 0 0 0
trait 2 0.2 0 0 0 0 0 0 0
trait 3 0.3 0 0 0 0 0 0 0
trait 4 0.4 0 0 0 0 0 0 0
trait 5 0.5 0 0 0 0 0 0 0
trait 6 0.6 0 0 0 0 0 0 0
trait 7 0.7 0 0 0 0 0 0 0
trait 8 0.8 0 0 0 0 0 0 0
trait 9 0.9 0 0 0 0 0 0 0
trait 10 1 0 0 0 0 0 0 0
trait 11 1.1 0 0 0 0 0 0 0
trait 12 1.2 0 0 0 0 0 0 0
trait 13 1.3 0 0 0 0 0 0 0
trait 14 1.4 0 0 0 0 0 0 0
trait 15 1.5 0 0 0 0 0 0 0
node 1 1 1 3 NullActivation
node 2 1 1 1 NullActivation
node 3 1 1 1 NullActivation
node 4 1 1 1 NullActivation
node 5 1 1 1 NullActivation
node 6 1 1 1 NullActivation
node 7 1 1 1 NullActivation
node 8 1 1 1 NullActivation
node 9 1 1 1 NullActivation
node 10 1 1 1 NullActivation
node 11 1 1 1 NullActivation
node 12 1 1 1 NullActivation
node 13 1 1 1 NullActivation
node 14 1 1 1 NullActivation
node 15 1 1 1 NullActivation
node 16 1 1 1 NullActivation
node 17 1 1 1 NullActivation
node 18 1 1 1 NullActivation
node 19 1 1 1 NullActivation
node 20 1 1 1 NullActivation
node 21 1 1 1 NullActivation
node 22 1 1 1 NullActivation
node 23 1 1 1 NullActivation
node 24 1 1 1 NullActivation
node 25 1 1 1 NullActivation
node 26 1 1 1 NullActivation
node 27 1 1 1 NullActivation
node 28 1 1 1 NullActivation
node 29 1 1 1 NullActivation
node 30 1 1 1 NullActivation
node 31 1 1 1 NullActivation
node 32 1 1 1 NullActivation
node 33 1 1 1 NullActivation
node 34 9 1 1 NullActivation
node 35 1 1 1 NullActivation
node 36 1 1 1 NullActivation
node 37 1 1 1 NullActivation
node 38 1 1 1 NullActivation
node 39 1 1 1 NullActivation
node 40 1 1 1 NullActivation
node 41 1 1 1 NullActivation
node 42 1 1 1 NullActivation
node 43 1 1 1 NullActivation
node 44 1 1 1 NullActivation
node 45 1 1 1 NullActivation
node 46 1 1 1 NullActivation
node 47 1 1 1 NullActivation
node 48 1 1 1 NullActivation
node 49 1 1 1 NullActivation
node 50 1 1 1 NullActivation
node 51 1 1 1 NullActivation
node 52 1 1 1 NullActivation
node 53 1 1 1 NullActivation
node 54 1 1 1 NullActivation
node 55 1 1 1 NullActivation
node 56 1 0 2 SigmoidBipolarActivation
node 63 1 0 0 SigmoidSteepenedActivation
gene 1 1 56 1.7301365674763463 false 1 1.7301365674763463 true
gene 13 29 56 -3.126994546991362 false 15 -3.126994546991362 true
gene 5 2 56 1.1712668840367804 false 50 1.1712668840367804 true
gene 13 29 63 1.9054087032332672 false 171 1.9054087032332672 true
gene 13 63 56 -3.749526661625925 false 172 -3.749526661625925 true
gene 7 37 56 -6.449560985293011 false 234 -6.449560985293011 true
gene 5 37 63 -3.8549161215082077 false 249 -3.8549161215082077 true
gene 14 6 56 -4.110440080945102 false 285 -4.110440080945102 true
gene 7 6 63 6.181002232302482 false 313 6.181002232302482 true
gene 13 26 56 9.068805174587176 false 440 9.068805174587176 true
gene 10 26 63 -1.0611249544837713 false 454 -1.0611249544837713 true
gene 5 44 56 -2.2440327512622456 false 562 -2.2440327512622456 true
gene 1 44 63 -1.1475961842404776 false 651 -1.1475961842404776 true
gene 8 51 56 2.3989997406043893 false 1461 2.3989997406043893 true
gene 11 51 63 4.629470002633825 false 1564 4.629470002633825 true
gene 10 21 56 0.7148576783344281 false 1572 0.7148576783344281 true
gene 4 21 63 2.7360555064170073 false 1578 2.7360555064170073 true
gene 9 31 63 1.4706742127058068 false 1975 1.4706742127058068 true
gene 7 7 56 10.309191417619408 false 2092 10.309191417619408 true
gene 5 7 63 -6.177092510677267 false 2093 -6.177092510677267 true
genomeend 10
/* Species #53 : (Size 1) (AF 0.000) (Age 13)  */
/* Organism #12 Fitness: 0.000 Error: 0.000 */
genomestart 12
trait 1 0.1 0 0 0 0 0 0 0
trait 2 0.2 0 0 0 0 0 0 0
trait 3 0.3 0 0 0 0 0 0 0
trait 4 0.4 0 0 0 0 0 0 0
trait 5 0.5 0 0 0 0 0 0 0
trait 6 0.6 0 0 0 0 0 0 0
trait 7 0.7 0 0 0 0 0 0 0
trait 8 0.6451015843254087 0 0 0.17224445805002475 0 0.09946024252279947 0 0
trait 9 0.9 0 0 0 0 0 0 0
trait 10 1 0 0 0 0 0 0 0
trait 11 1.1 0 0 0 0 0 0 0
trait 12 1.2 0 0 0 0 0 0 0
trait 13 2.1488135090197567 0 0 0.18230467823533975 0.7209355367461046 0 0 0
trait 14 1.4 0 0 0 0 0 0 0
trait 15 1.5 0 0 0 0 0 0 0
node 1 1 1 3 NullActivation
node 2 1 1 1 NullActivation
node 3 1 1 1 NullActivation
node 4 1 1 1 NullActivation
node 5 1 1 1 NullActivation
node 6 1 1 1 NullActivation
node 7 1 1 1 NullActivation
node 8 1 1 1 NullActivation
node 9 1 1 1 NullActivation
node 10 1 1 1 NullActivation
node 11 1 1 1 NullActivation
node 12 1 1 1 NullActivation
node 13 1 1 1 NullActivation
node 14 1 1 1 NullActivation
node 15 1 1 1 NullActivation
node 16 1 1 1 NullActivation
node 17 1 1 1 NullActivation
node 18 1 1 1 NullActivation
node 19 1 1 1 NullActivation
node 20 1 1 1 NullActivation
node 21 1 1 1 NullActivation
node 22 1 1 1 NullActivation
node 23 1 1 1 NullActivation
node 24 1 1 1 NullActivation
node 25 1 1 1 NullActivation
node 26 1 1 1 NullActivation
node 27 1 1 1 NullActivation
node 28 1 1 1 NullActivation
node 29 1 1 1 NullActivation
node 30 1 1 1 NullActivation
node 31 1 1 1 NullActivation
node 32 1 1 1 NullActivation
node 33 1 1 1 NullActivation
node 34 1 1 1 NullActivation
node 35 1 1 1 NullActivation
node 36 1 1 1 NullActivation
node 37 1 1 1 NullActivation
node 38 1 1 1 NullActivation
node 39 1 1 1 NullActivation
node 40 1 1 1 NullActivation
node 41 1 1 1 NullActivation
node 42 1 1 1 NullActivation
node 43 1 1 1 NullActivation
node 44 1 1 1 NullActivation
node 45 1 1 1 NullActivation
node 46 1 1 1 NullActivation
node 47 1 1 1 NullActivation
node 48 1 1 1 NullActivation
node 49 1 1 1 NullActivation
node 50 1 1 1 NullActivation
node 51 1 1 1 NullActivation
node 52 1 1 1 NullActivation
node 53 1 1 1 NullActivation
node 54 1 1 1 NullActivation
node 55 1 1 1 NullActivation
node 56 1 0 2 SigmoidBipolarActivation
node 63 1 0 0 SigmoidSteepenedActivation
gene 1 1 56 -0.06137280331198255 false 1 -0.06137280331198255 true
gene 13 29 56 -1.053988856774298 false 15 -1.053988856774298 true
gene 5 2 56 -4.512358294972617 false 50 -4.512358294972617 true
gene 13 29 63 1.4153052186115576 false 171 1.4153052186115576 true
gene 13 63 56 1.3683115429865067 false 172 1.3683115429865067 true
gene 7 37 56 -1.213421067882078 false 234 -1.213421067882078 true
gene 5 37 63 0.6425585763267958 false 249 0.6425585763267958 true
gene 14 6 56 -2.91708633083955 false 285 -2.91708633083955 true
gene 7 6 63 0.455176041905494 false 313 0.455176041905494 true
gene 10 24 56 2.2907502845851093 false 397 2.2907502845851093 true
gene 11 24 63 1.2363694036094146 false 456 1.2363694036094146 true
gene 2 17 56 -1.8463763008985197 false 492 -1.8463763008985197 true
gene 8 17 63 1.8455260519606798 false 508 1.8455260519606798 true
gene 12 46 56 -0.39832590473170437 false 584 -0.39832590473170437 true
gene 5 53 56 2.424319789411538 false 1382 2.424319789411538 true
gene 15 53 63 7.501520303364541 false 1383 7.501520303364541 true
gene 13 34 56 3.05308605587305 false 1447 3.05308605587305 true
gene 12 34 63 -4.842015883640483 false 1448 -4.842015883640483 true
gene 3 4 56 1.229532779758646 false 1866 1.229532779758646 true
gene 3 4 63 -1.4500569954980813 false 1867 -1.4500569954980813 true
gene 8 41 56 -9.503219372925077 false 2132 -9.503219372925077 true
gene 2 41 63 -9.937895628420733 false 2133 -9.937895628420733 true
gene 13 5 56 5.612285045597313 false 2358 5.612285045597313 true
gene 9 5 63 3.901555865354423 false 2359 3.901555865354423 true
genomeend 12
/* Species #66 : (Size 1) (AF 1.000) (Age 11)  */
/* Organism #13 Fitness: 1.000 Error: 0.000 */
genomestart 13
trait 1 0.1 0 0 0 0 0 0 0
trait 2 0.2 0 0 0 0 0 0 0
trait 3 0.3 0 0 0 0 0 0 0
trait 4 0.4 0 0 0 0 0 0 0
trait 5 0.5 0 0 0 0 0 0 0
trait 6 0.6 0 0 0 0 0 0 0
trait 7 0.7 0 0 0 0 0 0 0
trait 8 0.8 0 0 0 0 0 0 0
trait 9 0.9 0 0 0 0 0 0 0
trait 10 1 0 0 0 0 0 0 0
trait 11 1.1 0 0 0 0 0 0 0
trait 12 1.2 0 0 0 0 0 0 0
trait 13 1.3 0 0 0 0 0 0 0
trait 14 1.4 0 0 0 0 0 0 0
trait 15 1.5 0 0 0 0 0 0 0
node 1 1 1 3 NullActivation
node 2 1 1 1 NullActivation
node 3 1 1 1 NullActivation
node 4 1 1 1 NullActivation
node 5 1 1 1 NullActivation
node 6 1 1 1 NullActivation
node 7 1 1 1 NullActivation
node 8 1 1 1 NullActivation
node 9 14 1 1 NullActivation
node 10 1 1 1 NullActivation
node 11 1 1 1 NullActivation
node 12 1 1 1 NullActivation
node 13 1 1 1 NullActivation
node 14 1 1 1 NullActivation
node 15 1 1 1 NullActivation
node 16 1 1 1 NullActivation
node 17 1 1 1 NullActivation
node 18 1 1 1 NullActivation
node 19 1 1 1 NullActivation
node 20 1 1 1 NullActivation
node 21 1 1 1 NullActivation
node 22 1 1 1 NullActivation
node 23 1 1 1 NullActivation
node 24 1 1 1 NullActivation
node 25 1 1 1 NullActivation
node 26 1 1 1 NullActivation
node 27 1 1 1 NullActivation
node 28 1 1 1 NullActivation
node 29 1 1 1 NullActivation
node 30 1 1 1 NullActivation
node 31 1 1 1 NullActivation
node 32 4 1 1 NullActivation
node 33 1 1 1 NullActivation
node 34 1 1 1 NullActivation
node 35 1 1 1 NullActivation
node 36 1 1 1 NullActivation
node 37 4 1 1 NullActivation
node 38 1 1 1 NullActivation
node 39 1 1 1 NullActivation
node 40 1 1 1 NullActivation
node 41 1 1 1 NullActivation
node 42 1 1 1 NullActivation
node 43 1 1 1 NullActivation
node 44 1 1 1 NullActivation
node 45 1 1 1 NullActivation
node 46 1 1 1 NullActivation
node 47 1 1 1 NullActivation
node 48 1 1 1 NullActivation
node 49 1 1 1 NullActivation
node 50 1 1 1 NullActivation
node 51 1 1 1 NullActivation
node 52 1 1 1 NullActivation
node 53 1 1 1 NullActivation
node 54 6 1 1 NullActivation
node 55 1 1 1 NullActivation
node 56 1 0 2 SigmoidBipolarActivation
node 75 1 0 0 SigmoidSteepenedActivation
gene 1 1 56 0.8205014517728431 false 1 0.8205014517728431 true
gene 11 6 56 0.11541159015284541 false 12 0.11541159015284541 true
gene 4 25 56 6.335079576077475 false 108 6.335079576077475 true
gene 10 5 56 -9.138083705000875 false 251 -9.138083705000875 true
gene 4 25 75 0.6142054654171037 false 339 0.6142054654171037 true
gene 4 75 56 -1.8930934671870945 false 340 -1.8930934671870945 true
gene 15 45 56 -5.238936980680719 false 358 -5.238936980680719 true
gene 13 45 75 10.044430860109403 false 359 10.044430860109403 true
gene 9 47 56 -2.055648059500314 false 522 -2.055648059500314 true
gene 14 47 75 1.7238232739276307 false 523 1.7238232739276307 true
gene 9 9 75 -0.2786500570352569 false 739 -0.2786500570352569 true
gene 12 24 56 6.742065022653588 false 815 6.742065022653588 true
gene 5 24 75 -8.571402414128698 false 816 -8.571402414128698 true
gene 3 2 56 -9.311658154193413 false 927 -9.311658154193413 true
gene 10 2 75 -1.8502570227427668 false 928 -1.8502570227427668 true
gene 4 38 56 7.660960435099196 false 1151 7.660960435099196 true
gene 5 38 75 6.009932107736118 false 1255 6.009932107736118 true
gene 4 12 75 2.1288710536527162 false 1485 2.1288710536527162 true
gene 4 21 56 3.940021745671926 false 2202 0 true
gene 5 21 75 -3.3460727456360697 false 2218 -3.3460727456360697 true
gene 15 13 56 -8.344155485981897 false 2320 0 true
gene 13 13 75 5.066307021627217 false 2374 5.066307021627217 true
genomeend 13
/* Species #69 : (Size 1) (AF 0.000) (Age 11)  */
/* Organism #14 Fitness: 0.000 Error: 0.000 */
genomestart 14
trait 1 0.1 0 0 0 0 0 0 0
trait 2 0.2 0 0 0 0 0 0 0
trait 3 0.3 0 0 0 0 0 0 0
trait 4 0.4 0 0 0 0 0 0 0
trait 5 0.5 0 0 0 0 0 0 0
trait 6 0.6 0 0 0 0 0 0 0
trait 7 0.7 0 0 0 0 0 0 0
trait 8 0.8 0 0 0 0 0 0 0
trait 9 0.42392155914226165 0.3710508896883933 0 0 0 0.5898394436515979 0 0
trait 10 1 0 0 0 0 0 0 0
trait 11 1.1 0 0 0 0 0 0 0
trait 12 1.2 0 0 0 0 0 0 0
trait 13 1.3 0 0 0 0 0 0 0
trait 14 1.4 0 0 0 0 0 0 0
trait 15 1.5 0 0 0 0 0 0 0
node 1 1 1 3 NullActivation
node 2 1 1 1 NullActivation
node 3 1 1 1 NullActivation
node 4 1 1 1 NullActivation
node 5 1 1 1 NullActivation
node 6 1 1 1 NullActivation
node 7 1 1 1 NullActivation
node 8 1 1 1 NullActivation
node 9 1 1 1 NullActivation
node 10 1 1 1 NullActivation
node 11 1 1 1 NullActivation
node 12 1 1 1 NullActivation
node 13 1 1 1 NullActivation
node 14 1 1 1 NullActivation
node 15 1 1 1 NullActivation
node 16 1 1 1 NullActivation
node 17 1 1 1 NullActivation
node 18 1 1 1 NullActivation
node 19 1 1 1 NullActivation
node 20 1 1 1 NullActivation
node 21 1 1 1 NullActivation
node 22 1 1 1 NullActivation
node 23 1 1 1 NullActivation
node 24 1 1 1 NullActivation
node 25 1 1 1 NullActivation
node 26 1 1 1 NullActivation
node 27 1 1 1 NullActivation
node 28 1 1 1 NullActivation
node 29 1 1 1 NullActivation
node 30 1 1 1 NullActivation
node 31 1 1 1 NullActivation
node 32 1 1 1 NullActivation
node 33 1 1 1 NullActivation
node 34 1 1 1 NullActivation
node 35 1 1 1 NullActivation
node 36 1 1 1 NullActivation
node 37 1 1 1 NullActivation
node 38 1 1 1 NullActivation
node 39 1 1 1 NullActivation
node 40 1 1 1 NullActivation
node 41 1 1 1 NullActivation
node 42 1 1 1 NullActivation
node 43 1 1 1 NullActivation
node 44 1 1 1 NullActivation
node 45 1 1 1 NullActivation
node 46 1 1 1 NullActivation
node 47 1 1 1 NullActivation
node 48 1 1 1 NullActivation
node 49 1 1 1 NullActivation
node 50 1 1 1 NullActivation
node 51 1 1 1 NullActivation
node 52 1 1 1 NullActivation
node 53 1 1 1 NullActivation
node 54 1 1 1 NullActivation
node 55 1 1 1 NullActivation
node 56 1 0 2 SigmoidBipolarActivation
node 63 1 0 0 SigmoidSteepenedActivation
gene 1 1 56 -1.049664930234802 false 1 -1.049664930234802 true
gene 13 29 56 0.17074309910957686 false 15 0.17074309910957686 true
gene 5 2 56 -1.7250427542054192 false 50 -1.7250427542054192 true
gene 13 29 63 -0.8080243894201647 false 171 -0.8080243894201647 true
gene 13 63 56 -7.426948938857738 false 172 -7.426948938857738 true
gene 7 37 56 1.0766823724447103 false 234 1.0766823724447103 true
gene 5 37 63 -0.7812137253594192 false 249 -0.7812137253594192 true
gene 14 6 56 2.4804416182023963 false 285 2.4804416182023963 true
gene 7 6 63 7.373327236526156 false 313 7.373327236526156 true
gene 13 26 56 0.8244090317461155 false 440 0.8244090317461155 true
gene 10 26 63 -3.186653362680838 false 454 -3.186653362680838 true
gene 3 7 56 -0.10424907008250481 false 694 -0.10424907008250481 true
gene 12 7 63 11.76620544252043 false 695 11.76620544252043 true
gene 5 9 56 0.06109345334305072 false 866 0.06109345334305072 true
gene 11 9 63 1.7838959705389783 false 890 1.7838959705389783 true
gene 5 52 56 5.519780157698067 false 891 5.519780157698067 true
gene 6 52 63 -2.433534349029334 false 892 -2.433534349029334 true
gene 12 55 56 6.367783232924907 false 1294 6.367783232924907 true
gene 13 55 63 1.877684359756583 false 1347 1.877684359756583 true
gene 4 43 56 -0.8427622779756365 false 2130 -0.8427622779756365 true
gene 3 43 63 9.96737006812197 false 2131 9.96737006812197 true
gene 6 34 56 2.1816538295956796 false 2349 0 true
gene 1 34 63 -0.07634937323926203 false 2350 0 true
genomeend 14
/* Species #73 : (Size 2) (AF 1.000) (Age 10)  */
/* Organism #16 Fitness: 2.000 Error: 0.000 */
genomestart 16
trait 1 0.1 0 0 0 0 0 0 0
trait 2 0.2 0 0 0 0 0 0 0
trait 3 0.3 0 0 0 0 0 0 0
trait 4 0.4 0 0 0 0 0 0 0
trait 5 0.5 0 0 0 0 0 0 0
trait 6 0.6 0 0 0 0 0 0 0
trait 7 0.7 0 0 0 0 0 0 0
trait 8 0.8 0 0 0 0 0 0 0
trait 9 0.9 0 0 0 0 0 0 0
trait 10 1 0 0 0 0 0 0 0
trait 11 1.1 0 0 0 0 0 0 0
trait 12 1.2 0 0 0 0 0 0 0
trait 13 1.3 0 0 0 0 0 0 0
trait 14 0.41648498654855803 0 0 0 0.41109835778168435 0 0.5085585298220722 0
trait 15 1.5 0 0 0 0 0 0 0
node 1 1 1 3 NullActivation
node 2 1 1 1 NullActivation
node 3 1 1 1 NullActivation
node 4 1 1 1 NullActivation
node 5 1 1 1 NullActivation
node 6 1 1 1 NullActivation
node 7 1 1 1 NullActivation
node 8 11 1 1 NullActivation
node 9 1 1 1 NullActivation
node 10 1 1 1 NullActivation
node 11 1 1 1 NullActivation
node 12 1 1 1 NullActivation
node 13 1 1 1 NullActivation
node 14 1 1 1 NullActivation
node 15 1 1 1 NullActivation
node 16 1 1 1 NullActivation
node 17 1 1 1 NullActivation
node 18 1 1 1 NullActivation
node 19 1 1 1 NullActivation
node 20 1 1 1 NullActivation
node 21 1 1 1 NullActivation
node 22 1 1 1 NullActivation
node 23 1 1 1 NullActivation
node 24 1 1 1 NullActivation
node 25 1 1 1 NullActivation
node 26 1 1 1 NullActivation
node 27 1 1 1 NullActivation
node 28 1 1 1 NullActivation
node 29 1 1 1 NullActivation
node 30 1 1 1 NullActivation
node 31 1 1 1 NullActivation
node 32 1 1 1 NullActivation
node 33 1 1 1 NullActivation
node 34 1 1 1 NullActivation
node 35 1 1 1 NullActivation
node 36 1 1 1 NullActivation
node 37 1 1 1 NullActivation
node 38 1 1 1 NullActivation
node 39 1 1 1 NullActivation
node 40 1 1 1 NullActivation
node 41 1 1 1 NullActivation
node 42 9 1 1 NullActivation
node 43 1 1 1 NullActivation
node 44 1 1 1 NullActivation
node 45 1 1 1 NullActivation
node 46 1 1 1 NullActivation
node 47 1 1 1 NullActivation
node 48 1 1 1 NullActivation
node 49 1 1 1 NullActivation
node 50 1 1 1 NullActivation
node 51 1 1 1 NullActivation
node 52 1 1 1 NullActivation
node 53 1 1 1 NullActivation
node 54 1 1 1 NullActivation
node 55 1 1 1 NullActivation
node 56 1 0 2 SigmoidBipolarActivation
node 58 1 0 0 SigmoidSteepenedActivation
gene 1 1 56 -5.681893487941311 false 1 -5.681893487941311 true
gene 13 36 56 -2.1194103359808065 false 32 -2.1194103359808065 true
gene 13 36 58 2.0185974592496634 false 75 2.0185974592496634 true
gene 13 58 56 -1.1388397849631855 false 76 -1.1388397849631855 true
gene 5 20 56 -7.088970126963208 false 122 -7.088970126963208 true
gene 15 20 58 -9.532357718519394 false 123 -9.532357718519394 true
gene 14 21 56 0.7273340010119657 false 280 0.7273340010119657 true
gene 10 21 58 -5.645495127693094 false 298 -5.645495127693094 true
gene 7 37 56 9.264171652381654 false 377 9.264171652381654 true
gene 1 37 58 3.5983443883087753 false 452 3.5983443883087753 true
gene 2 38 56 -2.080008452522282 false 507 -2.080008452522282 true
gene 10 33 56 -3.4891788758065942 false 679 -3.4891788758065942 true
gene 3 33 58 6.611916678856961 false 680 6.611916678856961 true
gene 3 16 56 2.1795584330387316 false 850 2.1795584330387316 true
gene 7 16 58 -1.68122010402707 false 851 -1.68122010402707 true
gene 5 51 56 -11.097689336211351 false 939 -11.097689336211351 true
gene 12 51 58 -7.842112943749694 false 940 -7.842112943749694 true
gene 13 49 56 -3.1611807973103825 false 1171 -3.1611807973103825 true
gene 11 49 58 10.910650454578542 false 1172 10.910650454578542 true
gene 12 55 56 5.549918555846517 false 1294 5.549918555846517 true
gene 3 55 58 4.936624706601462 false 1295 4.936624706601462 true
gene 8 50 56 9.819687466322986 false 1637 9.819687466322986 true
gene 14 50 58 7.5720864427544505 false 1698 7.5720864427544505 true
gene 5 48 58 2.514147012118022 false 1941 2.514147012118022 true
gene 10 31 56 -0.6178052027915426 false 2128 -0.6178052027915426 true
gene 14 31 58 -5.585367101763694 false 2129 -5.585367101763694 true
genomeend 16
/* Organism #15 Fitness: 0.000 Error: 0.000 */
genomestart 15
trait 1 0.1 0 0 0 0 0 0 0
trait 2 0.2 0 0 0 0 0 0 0
trait 3 0.3 0 0 0 0 0 0 0
trait 4 0.4 0 0 0 0 0 0 0
trait 5 0.5 0 0 0 0 0 0 0
trait 6 0.6 0 0 0 0 0 0 0
trait 7 0.7 0 0 0 0 0 0 0
trait 8 0.8 0 0 0 0 0 0 0
trait 9 0.9 0 0 0 0 0 0 0
trait 10 1 0 0 0 0 0 0 0
trait 11 1.1 0 0 0 0 0 0 0
trait 12 1.2 0 0 0 0 0 0 0
trait 13 1.3 0 0 0 0 0 0 0
trait 14 0.41648498654855803 0 0 0 0.41109835778168435 0 0.5085585298220722 0
trait 15 1.5 0 0 0 0 0 0 0
node 1 1 1 3 NullActivation
node 2 1 1 1 NullActivation
node 3 1 1 1 NullActivation
node 4 1 1 1 NullActivation
node 5 1 1 1 NullActivation
node 6 1 1 1 NullActivation
node 7 1 1 1 NullActivation
node 8 1 1 1 NullActivation
node 9 1 1 1 NullActivation
node 10 1 1 1 NullActivation
node 11 1 1 1 NullActivation
node 12 1 1 1 NullActivation
node 13 1 1 1 NullActivation
node 14 1 1 1 NullActivation
node 15 1 1 1 NullActivation
node 16 1 1 1 NullActivation
node 17 1 1 1 NullActivation
node 18 1 1 1 NullActivation
node 19 1 1 1 NullActivation
node 20 1 1 1 NullActivation
node 21 1 1 1 NullActivation
node 22 1 1 1 NullActivation
node 23 1 1 1 NullActivation
node 24 1 1 1 NullActivation
node 25 1 1 1 NullActivation
node 26 1 1 1 NullActivation
node 27 1 1 1 NullActivation
node 28 1 1 1 NullActivation
node 29 1 1 1 NullActivation
node 30 1 1 1 NullActivation
node 31 1 1 1 NullActivation
node 32 1 1 1 NullActivation
node 33 1 1 1 NullActivation
node 34 1 1 1 NullActivation
node 35 1 1 1 NullActivation
node 36 1 1 1 NullActivation
node 37 1 1 1 NullActivation
node 38 1 1 1 NullActivation
node 39 1 1 1 NullActivation
node 40 1 1 1 NullActivation
node 41 1 1 1 NullActivation
node 42 9 1 1 NullActivation
node 43 1 1 1 NullActivation
node 44 1 1 1 NullActivation
node 45 1 1 1 NullActivation
node 46 1 1 1 NullActivation
node 47 1 1 1 NullActivation
node 48 1 1 1 NullActivation
node 49 1 1 1 NullActivation
node 50 1 1 1 NullActivation
node 51 1 1 1 NullActivation
node 52 1 1 1 NullActivation
node 53 1 1 1 NullActivation
node 54 1 1 1 NullActivation
node 55 1 1 1 NullActivation
node 56 1 0 2 SigmoidBipolarActivation
node 58 1 0 0 SigmoidSteepenedActivation
gene 1 1 56 -5.724793038189657 false 1 -5.724793038189657 true
gene 13 36 56 -1.8831224534438205 false 32 -1.8831224534438205 true
gene 13 36 58 -0.34404163299578094 false 75 -0.34404163299578094 true
gene 13 58 56 -2.626322973194652 false 76 -2.626322973194652 true
gene 5 20 56 -2.756973330062843 false 122 -2.756973330062843 true
gene 15 20 58 -11.181149778207873 false 123 -11.181149778207873 true
gene 14 21 56 -5.18152930260184 false 280 -5.18152930260184 true
gene 10 21 58 -8.669241865886143 false 298 -8.669241865886143 true
gene 7 37 56 7.546566030027553 false 377 7.546566030027553 true
gene 1 37 58 3.8722397110652995 false 452 3.8722397110652995 true
gene 2 38 56 -4.52607446220532 false 507 -4.52607446220532 true
gene 10 33 56 -6.159408188547785 false 679 -6.159408188547785 true
gene 3 33 58 4.116516694950253 false 680 4.116516694950253 true
gene 3 16 56 1.163808959213993 false 850 1.163808959213993 true
gene 7 16 58 -9.904059335253951 false 851 -9.904059335253951 true
gene 5 51 56 -9.600424102363908 false 939 -9.600424102363908 true
gene 12 51 58 -6.214980800007435 false 940 -6.214980800007435 true
gene 13 49 56 -4.262699488021289 false 1171 -4.262699488021289 true
gene 11 49 58 8.027952382586651 false 1172 8.027952382586651 true
gene 12 55 56 7.295715574476372 false 1294 7.295715574476372 true
gene 3 55 58 5.303838325948057 false 1295 5.303838325948057 true
gene 8 50 56 10.41156783563387 false 1637 10.41156783563387 true
gene 14 50 58 5.832063900567993 false 1698 5.832063900567993 true
gene 5 48 58 4.087798717859263 false 1941 4.087798717859263 true
gene 10 31 56 0.7299518855240889 false 2128 0.7299518855240889 true
gene 14 31 58 0.899903809655041 false 2129 0.899903809655041 true
genomeend 15
/* Species #90 : (Size 2) (AF 0.000) (Age 9)  */
/* Organism #18 Fitness: 0.000 Error: 0.000 */
genomestart 18
trait 1 0.1 0 0 0 0 0.3434932168856891 0 0
trait 2 0.2 0 0 0 0 0 0 0
trait 3 0.3 0 0 0 0 0 0 0
trait 4 0.4 0.43206122069759645 0 0 0 0 0 0
trait 5 0.5 0 0 0 0 0 0 0
trait 6 0.6 0 0 0 0 0 0 0
trait 7 0.7 0 0 0 0 0 0 0
trait 8 0.8 0 0 0 0 0 0 0
trait 9 0.9 0 0 0 0 0 0 0
trait 10 1 0 0 0 0 0 0 0
trait 11 1.1 0 0 0 0 0 0 0
trait 12 1.2 0 0 0 0 0 0 0
trait 13 1.3 0 0 0 0 0 0 0
trait 14 1.4 0 0 0 0 0 0 0
trait 15 1.189466148321645 0 0.3069045063726382 0 0 0 0.013447110308969858 0.1817802501647811
node 1 1 1 3 NullActivation
node 2 1 1 1 NullActivation
node 3 1 1 1 NullActivation
node 4 1 1 1 NullActivation
node 5 1 1 1 NullActivation
node 6 1 1 1 NullActivation
node 7 1 1 1 NullActivation
node 8 1 1 1 NullActivation
node 9 1 1 1 NullActivation
node 10 1 1 1 NullActivation
node 11 1 1 1 NullActivation
node 12 1 1 1 NullActivation
node 13 1 1 1 NullActivation
node 14 1 1 1 NullActivation
node 15 1 1 1 NullActivation
node 16 1 1 1 NullActivation
node 17 1 1 1 NullActivation
node 18 1 1 1 NullActivation
node 19 1 1 1 NullActivation
node 20 1 1 1 NullActivation
node 21 1 1 1 NullActivation
node 22 1 1 1 NullActivation
node 23 1 1 1 NullActivation
node 24 1 1 1 NullActivation
node 25 1 1 1 NullActivation
node 26 1 1 1 NullActivation
node 27 1 1 1 NullActivation
node 28 1 1 1 NullActivation
node 29 1 1 1 NullActivation
node 30 1 1 1 NullActivation
node 31 1 1 1 NullActivation
node 32 1 1 1 NullActivation
node 33 1 1 1 NullActivation
node 34 1 1 1 NullActivation
node 35 1 1 1 NullActivation
node 36 1 1 1 NullActivation
node 37 1 1 1 NullActivation
node 38 1 1 1 NullActivation
node 39 1 1 1 NullActivation
node 40 1 1 1 NullActivation
node 41 1 1 1 NullActivation
node 42 1 1 1 NullActivation
node 43 1 1 1 NullActivation
node 44 1 1 1 NullActivation
node 45 1 1 1 NullActivation
node 46 1 1 1 NullActivation
node 47 1 1 1 NullActivation
node 48 1 1 1 NullActivation
node 49 1 1 1 NullActivation
node 50 1 1 1 NullActivation
node 51 1 1 1 NullActivation
node 52 1 1 1 NullActivation
node 53 1 1 1 NullActivation
node 54 1 1 1 NullActivation
node 55 1 1 1 NullActivation
node 56 1 0 2 SigmoidBipolarActivation
node 63 1 0 0 SigmoidSteepenedActivation
node 143 1 0 0 SigmoidSteepenedActivation
gene 1 1 56 1.9064309775325234 false 1 1.9064309775325234 true
gene 13 29 56 0.8196817280246383 false 15 0.8196817280246383 true
gene 5 2 56 -0.4769054744921247 false 50 -0.4769054744921247 true
gene 5 29 63 -0.5889906407868518 false 171 -0.5889906407868518 true
gene 13 63 56 -3.880999587032235 false 172 -3.880999587032235 true
gene 7 37 56 -7.106442426293029 false 234 -7.106442426293029 true
gene 5 37 63 -3.266476294025999 false 249 -3.266476294025999 true
gene 14 6 56 1.1639527118105355 false 285 1.1639527118105355 true
gene 7 6 63 -5.300076856957155 false 313 -5.300076856957155 true
gene 13 26 56 -2.3248422828055 false 440 -2.3248422828055 true
gene 10 26 63 -11.583699891102718 false 454 -11.583699891102718 true
gene 12 48 56 0.3256677880746621 false 533 0.3256677880746621 true
gene 7 48 63 -1.7432169623474747 false 534 -1.7432169623474747 true
gene 10 11 56 0.20967664869115799 false 792 0.20967664869115799 true
gene 14 11 63 4.062488374990398 false 793 4.062488374990398 true
gene 6 12 56 -11.876950571406583 false 1048 -11.876950571406583 true
gene 3 12 63 2.1974973491633314 false 1049 2.1974973491633314 true
gene 15 39 56 -2.998313055546373 false 1267 -2.998313055546373 true
gene 12 39 63 2.1998361561756736 false 1299 2.1998361561756736 true
gene 12 31 56 3.868560615048365 false 1590 3.868560615048365 true
gene 14 31 63 -8.000491807322163 false 1591 -8.000491807322163 true
gene 10 11 143 -0.18989389875768703 false 2138 -0.18989389875768703 true
gene 10 143 56 0.6906206202616597 false 2139 0.6906206202616597 true
genomeend 18
/* Organism #17 Fitness: 0.000 Error: 0.000 */
genomestart 17
trait 1 0.1 0 0 0 0 0.3434932168856891 0 0
trait 2 0.2 0 0 0 0 0 0 0
trait 3 0.3 0 0 0 0 0 0 0
trait 4 0.4 0.43206122069759645 0 0 0 0 0 0
trait 5 0.5 0 0 0 0 0 0 0
trait 6 0.6 0 0 0 0 0 0 0
trait 7 0.7 0 0 0 0 0 0 0
trait 8 0.8 0 0 0 0 0 0 0
trait 9 0.9 0 0 0 0 0 0 0
trait 10 1 0 0 0 0 0 0 0
trait 11 1.1 0 0 0 0 0 0 0
trait 12 1.2 0 0 0 0 0 0 0
trait 13 1.3 0 0 0 0 0 0 0
trait 14 1.4 0 0 0 0 0 0 0
trait 15 1.189466148321645 0 0.3069045063726382 0 0 0 0.013447110308969858 0.1817802501647811
node 1 1 1 3 NullActivation
node 2 1 1 1 NullActivation
node 3 1 1 1 NullActivation
node 4 1 1 1 NullActivation
node 5 1 1 1 NullActivation
node 6 1 1 1 NullActivation
node 7 1 1 1 NullActivation
node 8 1 1 1 NullActivation
node 9 1 1 1 NullActivation
node 10 1 1 1 NullActivation
node 11 1 1 1 NullActivation
node 12 1 1 1 NullActivation
node 13 1 1 1 NullActivation
node 14 1 1 1 NullActivation
node 15 1 1 1 NullActivation
node 16 1 1 1 NullActivation
node 17 1 1 1 NullActivation
node 18 1 1 1 NullActivation
node 19 1 1 1 NullActivation
node 20 1 1 1 NullActivation
node 21 1 1 1 NullActivation
node 22 1 1 1 NullActivation
node 23 1 1 1 NullActivation
node 24 1 1 1 NullActivation
node 25 1 1 1 NullActivation
node 26 1 1 1 NullActivation
node 27 1 1 1 NullActivation
node 28 1 1 1 NullActivation
node 29 1 1 1 NullActivation
node 30 1 1 1 NullActivation
node 31 1 1 1 NullActivation
node 32 1 1 1 NullActivation
node 33 1 1 1 NullActivation
node 34 1 1 1 NullActivation
node 35 1 1 1 NullActivation
node 36 1 1 1 NullActivation
node 37 1 1 1 NullActivation
node 38 1 1 1 NullActivation
node 39 1 1 1 NullActivation
node 40 1 1 1 NullActivation
node 41 1 1 1 NullActivation
node 42 1 1 1 NullActivation
node 43 1 1 1 NullActivation
node 44 1 1 1 NullActivation
node 45 1 1 1 NullActivation
node 46 1 1 1 NullActivation
node 47 1 1 1 NullActivation
node 48 1 1 1 NullActivation
node 49 1 1 1 NullActivation
node 50 1 1 1 NullActivation
node 51 1 1 1 NullActivation
node 52 1 1 1 NullActivation
node 53 1 1 1 NullActivation
node 54 1 1 1 NullActivation
node 55 1 1 1 NullActivation
node 56 1 0 2 SigmoidBipolarActivation
node 63 1 0 0 SigmoidSteepenedActivation
node 143 1 0 0 SigmoidSteepenedActivation
node 157 1 0 0 SigmoidSteepenedActivation
gene 1 1 56 3.2480605218395437 false 1 3.2480605218395437 true
gene 13 29 56 -1.0633041000418146 false 15 -1.0633041000418146 true
gene 5 2 56 0.268234248136225 false 50 0.268234248136225 true
gene 5 29 63 2.437277392969919 false 171 2.437277392969919 true
gene 13 63 56 -3.880999587032235 false 172 -3.880999587032235 true
gene 7 37 56 -9.323905434054403 false 234 -9.323905434054403 true
gene 5 37 63 -3.266476294025999 false 249 -3.266476294025999 false
gene 14 6 56 1.1639527118105355 false 285 1.1639527118105355 true
gene 7 6 63 -2.8605617939104757 false 313 -2.8605617939104757 true
gene 13 26 56 -3.9909936800857375 false 440 -3.9909936800857375 true
gene 10 26 63 -9.100454574030445 false 454 -9.100454574030445 true
gene 12 48 56 -0.7669041663843732 false 533 -0.7669041663843732 true
gene 7 48 63 -1.991349120934191 false 534 -1.991349120934191 true
gene 10 11 56 -0.7237792591658051 false 792 -0.7237792591658051 true
gene 14 11 63 1.9903252079330862 false 793 1.9903252079330862 true
gene 6 12 56 -10.418233126800082 false 1048 -10.418233126800082 true
gene 3 12 63 3.372457220395873 false 1049 3.372457220395873 true
gene 15 39 56 -4.9217238644737105 false 1267 -4.9217238644737105 true
gene 12 39 63 2.8001890861196403 false 1299 2.8001890861196403 true
gene 12 31 56 1.5770199640869302 false 1590 1.5770199640869302 true
gene 14 31 63 -6.5770300830785455 false 1591 -6.5770300830785455 true
gene 10 11 143 1 false 2138 0 true
gene 10 143 56 -0.7237792591658051 false 2139 0 true
gene 5 37 157 1 false 2455 0 true
gene 5 157 63 -3.266476294025999 false 2456 0 true
genomeend 17
/* Species #94 : (Size 2) (AF 1.000) (Age 8)  */
/* Organism #19 Fitness: 1.000 Error: 0.000 */
genomestart 19
trait 1 0.1 0 0 0 0 0 0 0
trait 2 0.2 0 0 0 0 0 0 0
trait 3 0.3 0 0 0 0 0 0 0
trait 4 0.4 0 0 0 0 0 0 0
trait 5 0.5453516870693897 0.9475287487231885 0.11370987953456119 0 0 0.2414899893749185 0 0
trait 6 0.6 0 0 0 0 0 0 0
trait 7 0.7 0 0 0 0 0 0 0
trait 8 0.8 0 0 0 0 0 0 0
trait 9 0.9 0 0 0 0 0 0 0
trait 10 1 0 0 0 0 0 0 0
trait 11 1.1 0.26091342741388013 0 0.22841204510062685 0 0.7825831052892346 0 0.9052906021534097
trait 12 1.2 0 0 0 0 0 0 0
trait 13 1.3 0 0 0 0 0 0 0
trait 14 1.4 0 0 0 0 0 0 0
trait 15 1.5 0 0 0 0 0 0 0
node 1 1 1 3 NullActivation
node 2 1 1 1 NullActivation
node 3 1 1 1 NullActivation
node 4 1 1 1 NullActivation
node 5 1 1 1 NullActivation
node 6 1 1 1 NullActivation
node 7 1 1 1 NullActivation
node 8 1 1 1 NullActivation
node 9 1 1 1 NullActivation
node 10 1 1 1 NullActivation
node 11 1 1 1 NullActivation
node 12 1 1 1 NullActivation
node 13 1 1 1 NullActivation
node 14 1 1 1 NullActivation
node 15 1 1 1 NullActivation
node 16 1 1 1 NullActivation
node 17 1 1 1 NullActivation
node 18 1 1 1 NullActivation
node 19 1 1 1 NullActivation
node 20 1 1 1 NullActivation
node 21 1 1 1 NullActivation
node 22 1 1 1 NullActivation
node 23 1 1 1 NullActivation
node 24 1 1 1 NullActivation
node 25 1 1 1 NullActivation
node 26 1 1 1 NullActivation
node 27 1 1 1 NullActivation
node 28 1 1 1 NullActivation
node 29 1 1 1 NullActivation
node 30 1 1 1 NullActivation
node 31 1 1 1 NullActivation
node 32 1 1 1 NullActivation
node 33 1 1 1 NullActivation
node 34 1 1 1 NullActivation
node 35 1 1 1 NullActivation
node 36 1 1 1 NullActivation
node 37 1 1 1 NullActivation
node 38 1 1 1 NullActivation
node 39 1 1 1 NullActivation
node 40 1 1 1 NullActivation
node 41 1 1 1 NullActivation
node 42 1 1 1 NullActivation
node 43 1 1 1 NullActivation
node 44 1 1 1 NullActivation
node 45 1 1 1 NullActivation
node 46 1 1 1 NullActivation
node 47 1 1 1 NullActivation
node 48 1 1 1 NullActivation
node 49 1 1 1 NullActivation
node 50 1 1 1 NullActivation
node 51 1 1 1 NullActivation
node 52 1 1 1 NullActivation
node 53 10 1 1 NullActivation
node 54 1 1 1 NullActivation
node 55 1 1 1 NullActivation
node 56 1 0 2 SigmoidBipolarActivation
node 77 1 0 0 SigmoidSteepenedActivation
gene 1 1 56 -7.515500922493086 false 1 -7.515500922493086 true
gene 5 45 56 -0.9984860830243453 false 41 -0.9984860830243453 true
gene 5 48 56 -0.898681220231462 false 79 -0.898681220231462 true
gene 5 16 56 -5.450140882279422 false 162 -5.450140882279422 true
gene 7 37 56 -12.493097320594226 false 234 -12.493097320594226 true
gene 5 45 77 -3.6442733052020686 false 363 -3.6442733052020686 true
gene 5 77 56 -4.057129910151771 false 364 -4.057129910151771 true
gene 14 42 56 -0.8773882233018879 false 728 -0.8773882233018879 true
gene 13 42 77 -5.857106655359369 false 767 -5.857106655359369 true
gene 5 38 56 16.357803139686265 false 802 16.357803139686265 true
gene 9 38 77 -0.02515119574175184 false 803 -0.02515119574175184 true
gene 3 31 56 -0.5286481021924713 false 1176 -0.5286481021924713 true
gene 13 31 77 4.772583023787451 false 1177 4.772583023787451 true
gene 12 54 56 -10.421654248084389 false 1276 -10.421654248084389 true
gene 11 54 77 -0.5525219906314046 false 1392 -0.5525219906314046 true
gene 2 40 56 -4.131888648593836 false 1576 -4.131888648593836 true
gene 11 40 77 1.201910396142037 false 1706 1.201910396142037 true
genomeend 19
/* Organism #20 Fitness: 1.000 Error: 0.000 */
genomestart 20
trait 1 0.1 0 0 0 0 0 0 0
trait 2 0.2 0 0 0 0 0 0 0
trait 3 0.3 0 0 0 0 0 0 0
trait 4 0.4 0 0 0 0 0 0 0
trait 5 0.5 0 0 0 0 0 0 0
trait 6 0.6 0 0 0 0 0 0 0
trait 7 0.7 0 0 0 0 0 0 0
trait 8 0.8 0 0 0 0 0 0 0
trait 9 0.9 0 0 0 0 0 0 0
trait 10 1 0 0 0 0 0 0 0
trait 11 1.1 0.26091342741388013 0 0.22841204510062685 0 0.7825831052892346 0 0.9052906021534097
trait 12 1.2 0 0 0 0 0 0 0
trait 13 1.3 0 0 0 0 0 0 0
trait 14 1.4 0 0 0 0 0 0 0
trait 15 1.5 0 0 0 0 0 0 0
node 1 1 1 3 NullActivation
node 2 1 1 1 NullActivation
node 3 1 1 1 NullActivation
node 4 1 1 1 NullActivation
node 5 1 1 1 NullActivation
node 6 1 1 1 NullActivation
node 7 1 1 1 NullActivation
node 8 1 1 1 NullActivation
node 9 1 1 1 NullActivation
node 10 1 1 1 NullActivation
node 11 1 1 1 NullActivation
node 12 1 1 1 NullActivation
node 13 1 1 1 NullActivation
node 14 1 1 1 NullActivation
node 15 1 1 1 NullActivation
node 16 1 1 1 NullActivation
node 17 1 1 1 NullActivation
node 18 1 1 1 NullActivation
node 19 1 1 1 NullActivation
node 20 1 1 1 NullActivation
node 21 1 1 1 NullActivation
node 22 1 1 1 NullActivation
node 23 1 1 1 NullActivation
node 24 1 1 1 NullActivation
node 25 1 1 1 NullActivation
node 26 1 1 1 NullActivation
node 27 1 1 1 NullActivation
node 28 1 1 1 NullActivation
node 29 1 1 1 NullActivation
node 30 1 1 1 NullActivation
node 31 1 1 1 NullActivation
node 32 1 1 1 NullActivation
node 33 1 1 1 NullActivation
node 34 1 1 1 NullActivation
node 35 1 1 1 NullActivation
node 36 1 1 1 NullActivation
node 37 1 1 1 NullActivation
node 38 1 1 1 NullActivation
node 39 1 1 1 NullActivation
node 40 1 1 1 NullActivation
node 41 1 1 1 NullActivation
node 42 1 1 1 NullActivation
node 43 1 1 1 NullActivation
node 44 1 1 1 NullActivation
node 45 1 1 1 NullActivation
node 46 1 1 1 NullActivation
node 47 1 1 1 NullActivation
node 48 1 1 1 NullActivation
node 49 1 1 1 NullActivation
node 50 1 1 1 NullActivation
node 51 1 1 1 NullActivation
node 52 1 1 1 NullActivation
node 53 1 1 1 NullActivation
node 54 1 1 1 NullActivation
node 55 1 1 1 NullActivation
node 56 1 0 2 SigmoidBipolarActivation
node 77 1 0 0 SigmoidSteepenedActivation
gene 1 1 56 -7.515500922493086 false 1 -7.515500922493086 true
gene 5 45 56 -0.9984860830243453 false 41 -0.9984860830243453 true
gene 5 48 56 -0.898681220231462 false 79 -0.898681220231462 true
gene 5 16 56 -5.450140882279422 false 162 -5.450140882279422 true
gene 7 37 56 -12.493097320594226 false 234 -12.493097320594226 true
gene 5 45 77 -3.6442733052020686 false 363 -3.6442733052020686 true
gene 5 77 56 -4.057129910151771 false 364 -4.057129910151771 true
gene 14 42 56 -0.8773882233018879 false 728 -0.8773882233018879 true
gene 13 42 77 -5.857106655359369 false 767 -5.857106655359369 true
gene 5 38 56 16.357803139686265 false 802 16.357803139686265 true
gene 9 38 77 -0.02515119574175184 false 803 -0.02515119574175184 true
gene 3 31 56 -0.5286481021924713 false 1176 -0.5286481021924713 true
gene 13 31 77 4.772583023787451 false 1177 4.772583023787451 true
gene 12 54 56 -10.421654248084389 false 1276 -10.421654248084389 true
gene 11 54 77 -0.5525219906314046 false 1392 -0.5525219906314046 true
gene 2 40 56 -4.131888648593836 false 1576 -4.131888648593836 true
gene 11 40 77 1.201910396142037 false 1706 1.201910396142037 true
gene 10 29 56 -1.6993907106652903 false 2379 -1.6993907106652903 true
gene 12 29 77 -6.263219958546974 false 2380 -6.263219958546974 true
genomeend 20
/* Species #111 : (Size 2) (AF 0.000) (Age 7)  */
/* Organism #22 Fitness: 0.000 Error: 0.000 */
genomestart 22
trait 1 0.1 0 0 0 0 0 0 0
trait 2 0.2 0 0 0 0 0 0 0
trait 3 0.3 0 0 0 0 0 0 0
trait 4 0.4 0 0 0 0 0 0 0
trait 5 0.5 0 0 0 0 0 0 0
trait 6 0.6 0 0 0 0 0 0 0
trait 7 0.7 0 0 0 0 0 0 0
trait 8 0.8 0 0 0 0 0 0 0
trait 9 0.9 0 0 0 0 0 0 0
trait 10 1 0 0 0 0 0 0 0
trait 11 1.1 0 0 0 0 0 0 0
trait 12 0.6730366297484083 0.13782709579926014 0.47309569981328825 0 0 0 0 0
trait 13 1.3 0 0 0 0 0 0 0
trait 14 1.4 0 0 0 0 0.7532897536551785 0 0
trait 15 1.5 0 0 0 0 0 0 0
node 1 1 1 3 NullActivation
node 2 1 1 1 NullActivation
node 3 1 1 1 NullActivation
node 4 1 1 1 NullActivation
node 5 1 1 1 NullActivation
node 6 1 1 1 NullActivation
node 7 1 1 1 NullActivation
node 8 1 1 1 NullActivation
node 9 1 1 1 NullActivation
node 10 1 1 1 NullActivation
node 11 1 1 1 NullActivation
node 12 1 1 1 NullActivation
node 13 1 1 1 NullActivation
node 14 1 1 1 NullActivation
node 15 1 1 1 NullActivation
node 16 1 1 1 NullActivation
node 17 1 1 1 NullActivation
node 18 1 1 1 NullActivation
node 19 1 1 1 NullActivation
node 20 1 1 1 NullActivation
node 21 1 1 1 NullActivation
node 22 1 1 1 NullActivation
node 23 1 1 1 NullActivation
node 24 1 1 1 NullActivation
node 25 1 1 1 NullActivation
node 26 1 1 1 NullActivation
node 27 1 1 1 NullActivation
node 28 1 1 1 NullActivation
node 29 1 1 1 NullActivation
node 30 1 1 1 NullActivation
node 31 1 1 1 NullActivation
node 32 1 1 1 NullActivation
node 33 1 1 1 NullActivation
node 34 1 1 1 NullActivation
node 35 1 1 1 NullActivation
node 36 7 1 1 NullActivation
node 37 1 1 1 NullActivation
node 38 1 1 1 NullActivation
node 39 1 1 1 NullActivation
node 40 1 1 1 NullActivation
node 41 1 1 1 NullActivation
node 42 1 1 1 NullActivation
node 43 1 1 1 NullActivation
node 44 1 1 1 NullActivation
node 45 1 1 1 NullActivation
node 46 1 1 1 NullActivation
node 47 1 1 1 NullActivation
node 48 1 1 1 NullActivation
node 49 1 1 1 NullActivation
node 50 1 1 1 NullActivation
node 51 1 1 1 NullActivation
node 52 1 1 1 NullActivation
node 53 1 1 1 NullActivation
node 54 1 1 1 NullActivation
node 55 1 1 1 NullActivation
node 56 1 0 2 SigmoidBipolarActivation
node 63 1 0 0 SigmoidSteepenedActivation
gene 1 1 56 -7.625189434581556 false 1 -7.625189434581556 true
gene 13 29 56 -2.6932413629822722 false 15 -2.6932413629822722 true
gene 5 2 56 3.141614598587282 false 50 3.141614598587282 true
gene 13 29 63 -3.2450470391461357 false 171 -3.2450470391461357 true
gene 13 63 56 -7.258724185620871 false 172 -7.258724185620871 true
gene 13 25 63 -8.666500275206388 false 394 -8.666500275206388 true
gene 7 18 56 -8.71705147835966 false 517 -8.71705147835966 true
gene 11 18 63 12.917183027075723 false 518 12.917183027075723 true
gene 9 34 56 -3.071796992282898 false 664 -3.071796992282898 true
gene 6 34 63 2.299728616359001 false 708 2.299728616359001 true
gene 3 13 56 4.440694658649948 false 777 4.440694658649948 true
gene 10 13 63 -0.8506335091477397 false 779 -0.8506335091477397 true
gene 15 44 56 -6.8806150828968216 false 964 -6.8806150828968216 true
gene 3 44 63 0.08560255267841665 false 978 0.08560255267841665 true
gene 9 30 56 -3.8651504486980373 false 1161 -3.8651504486980373 true
gene 14 30 63 -4.499699438622769 false 1162 -4.499699438622769 true
gene 12 55 56 -3.127375972698764 false 1294 -3.127375972698764 true
gene 13 55 63 -1.0793936369704165 false 1347 -1.0793936369704165 true
genomeend 22
/* Organism #21 Fitness: 0.000 Error: 0.000 */
genomestart 21
trait 1 0.1 0 0 0 0 0 0 0
trait 2 0.2 0 0 0 0 0 0 0
trait 3 0.3 0 0 0 0 0 0 0
trait 4 0.4 0 0 0 0 0 0 0
trait 5 0.5 0 0 0 0 0 0 0
trait 6 0.6 0 0 0 0 0 0 0
trait 7 0.7 0 0 0 0 0 0 0
trait 8 0.8 0 0 0 0 0 0 0
trait 9 0.9 0 0 0 0 0 0 0
trait 10 1 0 0 0 0 0 0 0
trait 11 1.1 0 0 0 0 0 0 0
trait 12 0.6730366297484083 0.13782709579926014 0.47309569981328825 0 0 0 0 0
trait 13 1.3 0 0 0 0 0 0 0
trait 14 1.4 0 0 0 0 0.7532897536551785 0 0
trait 15 1.5 0 0 0 0 0 0 0
node 1 1 1 3 NullActivation
node 2 1 1 1 NullActivation
node 3 1 1 1 NullActivation
node 4 1 1 1 NullActivation
node 5 1 1 1 NullActivation
node 6 1 1 1 NullActivation
node 7 1 1 1 NullActivation
node 8 1 1 1 NullActivation
node 9 1 1 1 NullActivation
node 10 1 1 1 NullActivation
node 11 1 1 1 NullActivation
node 12 1 1 1 NullActivation
node 13 1 1 1 NullActivation
node 14 1 1 1 NullActivation
node 15 1 1 1 NullActivation
node 16 1 1 1 NullActivation
node 17 1 1 1 NullActivation
node 18 1 1 1 NullActivation
node 19 1 1 1 NullActivation
node 20 1 1 1 NullActivation
node 21 1 1 1 NullActivation
node 22 1 1 1 NullActivation
node 23 1 1 1 NullActivation
node 24 1 1 1 NullActivation
node 25 1 1 1 NullActivation
node 26 1 1 1 NullActivation
node 27 1 1 1 NullActivation
node 28 1 1 1 NullActivation
node 29 1 1 1 NullActivation
node 30 1 1 1 NullActivation
node 31 1 1 1 NullActivation
node 32 1 1 1 NullActivation
node 33 1 1 1 NullActivation
node 34 1 1 1 NullActivation
node 35 1 1 1 NullActivation
node 36 7 1 1 NullActivation
node 37 1 1 1 NullActivation
node 38 1 1 1 NullActivation
node 39 1 1 1 NullActivation
node 40 1 1 1 NullActivation
node 41 1 1 1 NullActivation
node 42 1 1 1 NullActivation
node 43 1 1 1 NullActivation
node 44 1 1 1 NullActivation
node 45 1 1 1 NullActivation
node 46 1 1 1 NullActivation
node 47 1 1 1 NullActivation
node 48 1 1 1 NullActivation
node 49 1 1 1 NullActivation
node 50 1 1 1 NullActivation
node 51 1 1 1 NullActivation
node 52 1 1 1 NullActivation
node 53 1 1 1 NullActivation
node 54 1 1 1 NullActivation
node 55 1 1 1 NullActivation
node 56 1 0 2 SigmoidBipolarActivation
node 63 1 0 0 SigmoidSteepenedActivation
gene 1 1 56 -5.4651998705271785 false 1 -5.4651998705271785 true
gene 13 29 56 -0.6741293803766513 false 15 -0.6741293803766513 true
gene 5 2 56 3.7941243815029386 false 50 3.7941243815029386 true
gene 13 29 63 -5.058706950947824 false 171 -5.058706950947824 true
gene 13 63 56 -5.272753305905519 false 172 -5.272753305905519 true
gene 13 25 63 -8.33733857281175 false 394 -8.33733857281175 true
gene 7 18 56 -6.565334431191161 false 517 -6.565334431191161 true
gene 11 18 63 11.90569065042088 false 518 11.90569065042088 true
gene 9 34 56 -4.436054995565381 false 664 -4.436054995565381 true
gene 6 34 63 0.2934195171305176 false 708 0.2934195171305176 true
gene 3 13 56 3.294259074814438 false 777 3.294259074814438 true
gene 10 13 63 -1.9681189519432905 false 779 -1.9681189519432905 true
gene 15 44 56 -6.852959220002604 false 964 -6.852959220002604 true
gene 3 44 63 0.5635896472729874 false 978 0.5635896472729874 true
gene 9 30 56 -6.2317526899055915 false 1161 -6.2317526899055915 true
gene 14 30 63 -4.499699438622769 false 1162 -4.499699438622769 true
gene 12 55 56 -1.4593326539724967 false 1294 -1.4593326539724967 true
gene 13 55 63 -1.0793936369704165 false 1347 -1.0793936369704165 true
gene 15 16 56 2.4866032447393325 false 2371 0 true
genomeend 21
/* Species #124 : (Size 3) (AF 2.000) (Age 7)  */
/* Organism #24 Fitness: 3.000 Error: 0.000 */
genomestart 24
trait 1 0.1 0 0 0 0 0 0 0
trait 2 0.2 0 0 0 0 0 0 0
trait 3 0.3 0 0 0 0 0 0 0
trait 4 0.4 0 0 0 0 0 0 0
trait 5 0.5 0 0 0 0 0 0 0
trait 6 0.6 0 0 0 0 0 0 0
trait 7 0.7 0 0 0 0 0 0 0
trait 8 0.8 0 0 0 0 0 0 0
trait 9 0.9 0 0 0 0 0 0 0
trait 10 1 0 0 0 0 0 0 0
trait 11 1.1 0 0 0 0 0 0 0
trait 12 1.2 0 0 0 0 0 0 0
trait 13 1.3 0 0 0 0 0 0 0
trait 14 1.4 0 0 0 0 0 0 0
trait 15 1.5 0 0 0 0 0 0 0
node 1 1 1 3 NullActivation
node 2 1 1 1 NullActivation
node 3 1 1 1 NullActivation
node 4 1 1 1 NullActivation
node 5 1 1 1 NullActivation
node 6 1 1 1 NullActivation
node 7 1 1 1 NullActivation
node 8 1 1 1 NullActivation
node 9 1 1 1 NullActivation
node 10 1 1 1 NullActivation
node 11 1 1 1 NullActivation
node 12 1 1 1 NullActivation
node 13 1 1 1 NullActivation
node 14 1 1 1 NullActivation
node 15 1 1 1 NullActivation
node 16 1 1 1 NullActivation
node 17 1 1 1 NullActivation
node 18 1 1 1 NullActivation
node 19 1 1 1 NullActivation
node 20 1 1 1 NullActivation
node 21 1 1 1 NullActivation
node 22 1 1 1 NullActivation
node 23 1 1 1 NullActivation
node 24 1 1 1 NullActivation
node 25 1 1 1 NullActivation
node 26 1 1 1 NullActivation
node 27 1 1 1 NullActivation
node 28 1 1 1 NullActivation
node 29 1 1 1 NullActivation
node 30 1 1 1 NullActivation
node 31 1 1 1 NullActivation
node 32 1 1 1 NullActivation
node 33 1 1 1 NullActivation
node 34 1 1 1 NullActivation
node 35 1 1 1 NullActivation
node 36 1 1 1 NullActivation
node 37 1 1 1 NullActivation
node 38 1 1 1 NullActivation
node 39 1 1 1 NullActivation
node 40 1 1 1 NullActivation
node 41 1 1 1 NullActivation
node 42 1 1 1 NullActivation
node 43 1 1 1 NullActivation
node 44 1 1 1 NullActivation
node 45 1 1 1 NullActivation
node 46 1 1 1 NullActivation
node 47 1 1 1 NullActivation
node 48 1 1 1 NullActivation
node 49 1 1 1 NullActivation
node 50 1 1 1 NullActivation
node 51 1 1 1 NullActivation
node 52 1 1 1 NullActivation
node 53 1 1 1 NullActivation
node 54 1 1 1 NullActivation
node 55 1 1 1 NullActivation
node 56 1 0 2 SigmoidBipolarActivation
node 77 1 0 0 SigmoidSteepenedActivation
gene 1 1 56 -1.0638897549648902 false 1 -1.0638897549648902 true
gene 5 45 56 3.856490916683369 false 41 3.856490916683369 true
gene 5 48 56 -1.8076733465058625 false 79 -1.8076733465058625 true
gene 5 16 56 -3.4748659553912664 false 162 -3.4748659553912664 true
gene 7 37 56 -8.025479409803834 false 234 -8.025479409803834 true
gene 5 45 77 -0.9200857816617066 false 363 -0.9200857816617066 true
gene 5 77 56 -1.8076958049635694 false 364 -1.8076958049635694 true
gene 4 26 56 -5.643225465871803 false 688 -5.643225465871803 true
gene 8 26 77 3.3083535459021465 false 768 3.3083535459021465 true
gene 9 5 56 4.197009521625937 false 847 4.197009521625937 true
gene 3 5 77 2.2238598688267133 false 848 2.2238598688267133 true
gene 9 20 56 -9.608396511378151 false 941 -9.608396511378151 true
gene 7 20 77 4.30737768815961 false 1002 4.30737768815961 true
gene 15 54 56 10.228279930278795 false 1043 10.228279930278795 true
gene 8 54 77 -10.42835735857675 false 1044 -10.42835735857675 true
gene 7 7 56 -7.793821798332478 false 1157 -7.793821798332478 true
gene 11 7 77 -1.0630077226942716 false 1225 -1.0630077226942716 true
gene 2 38 56 0.1590981593476304 false 1739 0.1590981593476304 true
gene 12 38 77 -3.6241205483651493 false 1740 -3.6241205483651493 true
gene 8 44 56 -4.801433096280878 false 2112 -4.801433096280878 true
gene 11 44 77 -7.8004316805571525 false 2113 -7.8004316805571525 true
gene 9 47 56 -2.4384023210337187 false 2419 -2.4384023210337187 true
gene 13 47 77 -4.099246877015234 false 2420 -4.099246877015234 true
genomeend 24
/* Organism #23 Fitness: 2.000 Error: 0.000 */
genomestart 23
trait 1 0.1 0 0 0 0 0 0 0
trait 2 0.2 0 0 0 0 0 0 0
trait 3 0.3 0 0 0 0 0 0 0
trait 4 0.4 0 0 0 0 0 0 0
trait 5 0.5 0 0 0 0 0 0 0
trait 6 0.6 0 0 0 0 0 0 0
trait 7 0.7 0 0 0 0 0 0 0
trait 8 0.8 0 0 0 0 0 0 0
trait 9 0.9 0 0 0 0 0 0 0
trait 10 1 0 0 0 0 0 0 0
trait 11 1.1 0 0 0 0 0 0 0
trait 12 1.2 0 0 0 0 0 0 0
trait 13 1.3 0 0 0 0 0 0 0
trait 14 1.4 0 0 0 0 0 0 0
trait 15 1.5 0 0 0 0 0 0 0
node 1 1 1 3 NullActivation
node 2 1 1 1 NullActivation
node 3 1 1 1 NullActivation
node 4 1 1 1 NullActivation
node 5 1 1 1 NullActivation
node 6 1 1 1 NullActivation
node 7 1 1 1 NullActivation
node 8 1 1 1 NullActivation
node 9 1 1 1 NullActivation
node 10 1 1 1 NullActivation
node 11 1 1 1 NullActivation
node 12 1 1 1 NullActivation
node 13 1 1 1 NullActivation
node 14 1 1 1 NullActivation
node 15 1 1 1 NullActivation
node 16 1 1 1 NullActivation
node 17 1 1 1 NullActivation
node 18 1 1 1 NullActivation
node 19 1 1 1 NullActivation
node 20 1 1 1 NullActivation
node 21 1 1 1 NullActivation
node 22 1 1 1 NullActivation
node 23 1 1 1 NullActivation
node 24 1 1 1 NullActivation
node 25 1 1 1 NullActivation
node 26 1 1 1 NullActivation
node 27 1 1 1 NullActivation
node 28 1 1 1 NullActivation
node 29 1 1 1 NullActivation
node 30 1 1 1 NullActivation
node 31 1 1 1 NullActivation
node 32 1 1 1 NullActivation
node 33 1 1 1 NullActivation
node 34 1 1 1 NullActivation
node 35 1 1 1 NullActivation
node 36 1 1 1 NullActivation
node 37 1 1 1 NullActivation
node 38 1 1 1 NullActivation
node 39 1 1 1 NullActivation
node 40 1 1 1 NullActivation
node 41 1 1 1 NullActivation
node 42 1 1 1 NullActivation
node 43 1 1 1 NullActivation
node 44 1 1 1 NullActivation
node 45 1 1 1 NullActivation
node 46 1 1 1 NullActivation
node 47 1 1 1 NullActivation
node 48 1 1 1 NullActivation
node 49 1 1 1 NullActivation
node 50 1 1 1 NullActivation
node 51 1 1 1 NullActivation
node 52 1 1 1 NullActivation
node 53 1 1 1 NullActivation
node 54 1 1 1 NullActivation
node 55 1 1 1 NullActivation
node 56 1 0 2 SigmoidBipolarActivation
node 77 1 0 0 SigmoidSteepenedActivation
gene 1 1 56 -1.0638897549648902 false 1 -1.0638897549648902 true
gene 5 45 56 3.856490916683369 false 41 3.856490916683369 true
gene 5 48 56 -1.8076733465058625 false 79 -1.8076733465058625 true
gene 5 16 56 -3.4748659553912664 false 162 -3.4748659553912664 true
gene 7 37 56 -8.025479409803834 false 234 -8.025479409803834 true
gene 5 45 77 -0.9200857816617066 false 363 -0.9200857816617066 true
gene 5 77 56 -1.8076958049635694 false 364 -1.8076958049635694 true
gene 4 26 56 -5.643225465871803 false 688 -5.643225465871803 true
gene 8 26 77 3.3083535459021465 false 768 3.3083535459021465 true
gene 9 5 56 4.197009521625937 false 847 4.197009521625937 true
gene 3 5 77 2.2238598688267133 false 848 2.2238598688267133 true
gene 9 20 56 -9.608396511378151 false 941 -9.608396511378151 true
gene 7 20 77 4.30737768815961 false 1002 4.30737768815961 true
gene 15 54 56 10.228279930278795 false 1043 10.228279930278795 true
gene 8 54 77 -10.42835735857675 false 1044 -10.42835735857675 true
gene 7 7 56 -7.793821798332478 false 1157 -7.793821798332478 true
gene 11 7 77 -1.0630077226942716 false 1225 -1.0630077226942716 true
gene 2 38 56 0.1590981593476304 false 1739 0.1590981593476304 true
gene 12 38 77 -3.6241205483651493 false 1740 -3.6241205483651493 true
gene 8 44 56 -4.801433096280878 false 2112 -4.801433096280878 true
gene 11 44 77 -7.8004316805571525 false 2113 -7.8004316805571525 true
gene 4 4 56 -9.127161154280401 false 2288 0 true
gene 11 4 77 -0.5333554273456473 false 2414 -0.5333554273456473 true
genomeend 23
/* Organism #25 Fitness: 1.000 Error: 0.000 */
genomestart 25
trait 1 0.1 0 0 0 0 0 0 0
trait 2 0.2 0 0 0 0 0 0 0
trait 3 0.3 0 0 0 0 0 0 0
trait 4 0.4 0 0 0 0 0 0 0
trait 5 0.5 0 0 0 0 0 0 0
trait 6 0.6 0 0 0 0 0 0 0
trait 7 0.7 0 0 0 0 0 0 0
trait 8 0.8 0 0 0 0 0 0 0
trait 9 0.9 0 0 0 0 0 0 0
trait 10 1 0 0 0 0 0 0 0
trait 11 1.1 0 0 0 0 0 0 0
trait 12 1.2 0 0 0 0 0 0 0
trait 13 1.3 0 0 0 0 0 0 0
trait 14 1.4 0 0 0 0 0 0 0
trait 15 1.26144164106137 0.4204464630294259 0.07295445540290071 0 0.48119988102641365 0 0 0
node 1 1 1 3 NullActivation
node 2 1 1 1 NullActivation
node 3 1 1 1 NullActivation
node 4 1 1 1 NullActivation
node 5 1 1 1 NullActivation
node 6 1 1 1 NullActivation
node 7 1 1 1 NullActivation
node 8 1 1 1 NullActivation
node 9 1 1 1 NullActivation
node 10 1 1 1 NullActivation
node 11 1 1 1 NullActivation
node 12 1 1 1 NullActivation
node 13 1 1 1 NullActivation
node 14 1 1 1 NullActivation
node 15 1 1 1 NullActivation
node 16 1 1 1 NullActivation
node 17 1 1 1 NullActivation
node 18 1 1 1 NullActivation
node 19 1 1 1 NullActivation
node 20 1 1 1 NullActivation
node 21 1 1 1 NullActivation
node 22 1 1 1 NullActivation
node 23 1 1 1 NullActivation
node 24 1 1 1 NullActivation
node 25 1 1 1 NullActivation
node 26 1 1 1 NullActivation
node 27 1 1 1 NullActivation
node 28 1 1 1 NullActivation
node 29 1 1 1 NullActivation
node 30 1 1 1 NullActivation
node 31 1 1 1 NullActivation
node 32 1 1 1 NullActivation
node 33 1 1 1 NullActivation
node 34 1 1 1 NullActivation
node 35 1 1 1 NullActivation
node 36 1 1 1 NullActivation
node 37 1 1 1 NullActivation
node 38 1 1 1 NullActivation
node 39 1 1 1 NullActivation
node 40 1 1 1 NullActivation
node 41 1 1 1 NullActivation
node 42 1 1 1 NullActivation
node 43 1 1 1 NullActivation
node 44 1 1 1 NullActivation
node 45 1 1 1 NullActivation
node 46 1 1 1 NullActivation
node 47 1 1 1 NullActivation
node 48 1 1 1 NullActivation
node 49 1 1 1 NullActivation
node 50 1 1 1 NullActivation
node 51 1 1 1 NullActivation
node 52 1 1 1 NullActivation
node 53 1 1 1 NullActivation
node 54 1 1 1 NullActivation
node 55 1 1 1 NullActivation
node 56 1 0 2 SigmoidBipolarActivation
node 77 1 0 0 SigmoidSteepenedActivation
gene 1 1 56 -3.538512098586395 false 1 -3.538512098586395 true
gene 5 45 56 4.2289353784812445 false 41 4.2289353784812445 true
gene 5 48 56 -0.7055966466162502 false 79 -0.7055966466162502 true
gene 5 16 56 -5.353098559631646 false 162 -5.353098559631646 true
gene 7 37 56 -6.229716808555027 false 234 -6.229716808555027 true
gene 5 45 77 0.2962811067528274 false 363 0.2962811067528274 true
gene 5 77 56 -1.8558654997387694 false 364 -1.8558654997387694 true
gene 4 26 56 -2.470061548733194 false 688 -2.470061548733194 true
gene 8 26 77 -0.7466742886593186 false 768 -0.7466742886593186 true
gene 9 5 56 6.121748934848183 false 847 6.121748934848183 true
gene 3 5 77 3.818085756372729 false 848 3.818085756372729 true
gene 9 20 56 -9.608396511378151 false 941 -9.608396511378151 true
gene 7 20 77 5.205287442058515 false 1002 5.205287442058515 true
gene 15 54 56 10.228279930278795 false 1043 10.228279930278795 true
gene 8 54 77 -9.987080303385156 false 1044 -9.987080303385156 true
gene 7 7 56 -5.799287408450119 false 1157 -5.799287408450119 true
gene 11 7 77 -2.0880992130803433 false 1225 -2.0880992130803433 true
gene 2 38 56 0.1590981593476304 false 1739 0.1590981593476304 true
gene 12 38 77 -5.08937463825297 false 1740 -5.08937463825297 true
gene 8 44 56 -3.8002969910942532 false 2112 -3.8002969910942532 true
gene 11 44 77 1.8906459266559632 false 2113 1.8906459266559632 true
genomeend 25
/* Species #125 : (Size 4) (AF 0.500) (Age 7)  */
/* Organism #28 Fitness: 2.000 Error: 0.000 */
genomestart 28
trait 1 0.1 0 0 0 0 0 0 0
trait 2 0.2 0 0 0 0 0 0 0
trait 3 0.3 0 0 0 0 0 0 0
trait 4 0.4 0 0 0 0 0 0 0
trait 5 0.5 0 0 0 0 0 0 0
trait 6 0.6 0 0 0 0 0 0 0
trait 7 0.7 0 0 0 0 0 0 0
trait 8 0.8 0 0 0 0 0 0 0
trait 9 0.9 0 0 0 0 0 0 0
trait 10 1 0 0 0 0 0 0 0
trait 11 1.1 0 0 0 0 0 0 0
trait 12 1.2 0 0 0 0 0 0 0
trait 13 1.3 0 0 0 0 0 0 0
trait 14 1.4 0 0 0 0 0 0 0
trait 15 1.5 0 0 0 0 0 0 0
node 1 1 1 3 NullActivation
node 2 1 1 1 NullActivation
node 3 1 1 1 NullActivation
node 4 1 1 1 NullActivation
node 5 1 1 1 NullActivation
node 6 1 1 1 NullActivation
node 7 1 1 1 NullActivation
node 8 1 1 1 NullActivation
node 9 1 1 1 NullActivation
node 10 1 1 1 NullActivation
node 11 1 1 1 NullActivation
node 12 1 1 1 NullActivation
node 13 1 1 1 NullActivation
node 14 1 1 1 NullActivation
node 15 1 1 1 NullActivation
node 16 1 1 1 NullActivation
node 17 1 1 1 NullActivation
node 18 1 1 1 NullActivation
node 19 1 1 1 NullActivation
node 20 1 1 1 NullActivation
node 21 1 1 1 NullActivation
node 22 1 1 1 NullActivation
node 23 1 1 1 NullActivation
node 24 1 1 1 NullActivation
node 25 1 1 1 NullActivation
node 26 1 1 1 NullActivation
node 27 1 1 1 NullActivation
node 28 1 1 1 NullActivation
node 29 1 1 1 NullActivation
node 30 1 1 1 NullActivation
node 31 1 1 1 NullActivation
node 32 1 1 1 NullActivation
node 33 1 1 1 NullActivation
node 34 1 1 1 NullActivation
node 35 1 1 1 NullActivation
node 36 1 1 1 NullActivation
node 37 1 1 1 NullActivation
node 38 1 1 1 NullActivation
node 39 1 1 1 NullActivation
node 40 1 1 1 NullActivation
node 41 1 1 1 NullActivation
node 42 1 1 1 NullActivation
node 43 1 1 1 NullActivation
node 44 1 1 1 NullActivation
node 45 1 1 1 NullActivation
node 46 1 1 1 NullActivation
node 47 1 1 1 NullActivation
node 48 1 1 1 NullActivation
node 49 1 1 1 NullActivation
node 50 1 1 1 NullActivation
node 51 1 1 1 NullActivation
node 52 1 1 1 NullActivation
node 53 1 1 1 NullActivation
node 54 1 1 1 NullActivation
node 55 1 1 1 NullActivation
node 56 1 0 2 SigmoidBipolarActivation
node 77 1 0 0 SigmoidSteepenedActivation
gene 1 1 56 0.8866394902555759 false 1 0.8866394902555759 true
gene 5 45 56 -0.8220735851977601 false 41 -0.8220735851977601 true
gene 5 48 56 -2.9555344450043854 false 79 -2.9555344450043854 true
gene 5 16 56 -3.708084623920702 false 162 -3.708084623920702 true
gene 7 37 56 -2.9604120069536917 false 234 -2.9604120069536917 true
gene 5 45 77 -1.59437303750143 false 363 -1.59437303750143 true
gene 5 77 56 -0.3111266838102061 false 364 -0.3111266838102061 true
gene 4 26 56 -8.827439684071807 false 688 -8.827439684071807 true
gene 8 26 77 -0.2391022615152354 false 768 -0.2391022615152354 true
gene 9 5 56 0.9889080884356054 false 847 0.9889080884356054 true
gene 3 5 77 -0.558937669445982 false 848 -0.558937669445982 true
gene 9 20 56 0.9966707495097954 false 941 0.9966707495097954 true
gene 7 20 77 2.2396083273186065 false 1002 2.2396083273186065 true
gene 15 54 56 -1.6376735984340527 false 1043 -1.6376735984340527 true
gene 8 54 77 1.2817154885479614 false 1044 1.2817154885479614 true
gene 7 7 56 -4.272833892631876 false 1157 -4.272833892631876 true
gene 11 7 77 -1.7874850796290511 false 1225 -1.7874850796290511 true
gene 15 27 56 1.955525696714707 false 1321 1.955525696714707 true
gene 8 27 77 10.060753749933177 false 1322 10.060753749933177 true
gene 9 47 56 -5.9357149506386495 false 1473 -5.9357149506386495 true
gene 5 29 56 0.17966156660783833 false 2045 0.17966156660783833 true
gene 14 29 77 -8.64695424516529 false 2046 -8.64695424516529 true
gene 11 4 56 6.256013315297047 false 2121 6.256013315297047 true
gene 4 4 77 2.788202962734032 false 2122 2.788202962734032 true
gene 14 2 56 1.935950781951943 false 2440 1.935950781951943 true
genomeend 28
/* Organism #29 Fitness: 0.000 Error: 0.000 */
genomestart 29
trait 1 0.1 0 0 0 0 0 0 0
trait 2 0.2 0 0 0 0 0 0 0
trait 3 0.3 0 0 0 0 0 0 0
trait 4 0.4 0 0 0 0 0 0 0
trait 5 0.5 0 0 0 0 0 0 0
trait 6 0.6 0 0 0 0 0 0 0
trait 7 0.7 0 0 0 0 0 0 0
trait 8 0.8 0 0 0 0 0 0 0
trait 9 0.9 0 0 0 0 0 0 0
trait 10 1 0 0 0 0 0 0 0
trait 11 1.1 0 0 0 0 0 0 0
trait 12 1.2 0 0 0 0 0 0 0
trait 13 1.3 0 0 0 0 0 0 0
trait 14 1.4 0 0 0 0 0 0 0
trait 15 1.5 0 0 0 0 0 0 0
node 1 1 1 3 NullActivation
node 2 1 1 1 NullActivation
node 3 1 1 1 NullActivation
node 4 1 1 1 NullActivation
node 5 1 1 1 NullActivation
node 6 1 1 1 NullActivation
node 7 1 1 1 NullActivation
node 8 1 1 1 NullActivation
node 9 1 1 1 NullActivation
node 10 1 1 1 NullActivation
node 11 1 1 1 NullActivation
node 12 1 1 1 NullActivation
node 13 1 1 1 NullActivation
node 14 1 1 1 NullActivation
node 15 1 1 1 NullActivation
node 16 1 1 1 NullActivation
node 17 1 1 1 NullActivation
node 18 1 1 1 NullActivation
node 19 1 1 1 NullActivation
node 20 1 1 1 NullActivation
node 21 1 1 1 NullActivation
node 22 1 1 1 NullActivation
node 23 1 1 1 NullActivation
node 24 1 1 1 NullActivation
node 25 1 1 1 NullActivation
node 26 1 1 1 NullActivation
node 27 1 1 1 NullActivation
node 28 1 1 1 NullActivation
node 29 1 1 1 NullActivation
node 30 1 1 1 NullActivation
node 31 1 1 1 NullActivation
node 32 1 1 1 NullActivation
node 33 1 1 1 NullActivation
node 34 1 1 1 NullActivation
node 35 1 1 1 NullActivation
node 36 1 1 1 NullActivation
node 37 1 1 1 NullActivation
node 38 1 1 1 NullActivation
node 39 1 1 1 NullActivation
node 40 1 1 1 NullActivation
node 41 1 1 1 NullActivation
node 42 1 1 1 NullActivation
node 43 1 1 1 NullActivation
node 44 1 1 1 NullActivation
node 45 1 1 1 NullActivation
node 46 1 1 1 NullActivation
node 47 1 1 1 NullActivation
node 48 1 1 1 NullActivation
node 49 1 1 1 NullActivation
node 50 1 1 1 NullActivation
node 51 1 1 1 NullActivation
node 52 1 1 1 NullActivation
node 53 1 1 1 NullActivation
node 54 1 1 1 NullActivation
node 55 1 1 1 NullActivation
node 56 1 0 2 SigmoidBipolarActivation
node 77 1 0 0 SigmoidSteepenedActivation
gene 1 1 56 0.8866394902555759 false 1 0.8866394902555759 true
gene 5 45 56 -0.8220735851977601 false 41 -0.8220735851977601 true
gene 5 48 56 -2.9555344450043854 false 79 -2.9555344450043854 true
gene 5 16 56 -3.708084623920702 false 162 -3.708084623920702 true
gene 7 37 56 -2.9604120069536917 false 234 -2.9604120069536917 true
gene 5 45 77 -1.59437303750143 false 363 -1.59437303750143 true
gene 5 77 56 -0.3111266838102061 false 364 -0.3111266838102061 true
gene 4 26 56 -8.827439684071807 false 688 -8.827439684071807 true
gene 8 26 77 -0.2391022615152354 false 768 -0.2391022615152354 true
gene 9 5 56 0.9889080884356054 false 847 0.9889080884356054 true
gene 3 5 77 -0.558937669445982 false 848 -0.558937669445982 true
gene 9 20 56 0.9966707495097954 false 941 0.9966707495097954 true
gene 7 20 77 2.2396083273186065 false 1002 2.2396083273186065 true
gene 15 54 56 -1.6376735984340527 false 1043 -1.6376735984340527 true
gene 8 54 77 1.2817154885479614 false 1044 1.2817154885479614 true
gene 7 7 56 -4.272833892631876 false 1157 -4.272833892631876 true
gene 11 7 77 -1.7874850796290511 false 1225 -1.7874850796290511 true
gene 15 27 56 1.955525696714707 false 1321 1.955525696714707 true
gene 8 27 77 10.060753749933177 false 1322 10.060753749933177 true
gene 9 47 56 -5.9357149506386495 false 1473 -5.9357149506386495 true
gene 5 29 56 0.17966156660783833 false 2045 0.17966156660783833 true
gene 14 29 77 -8.64695424516529 false 2046 -8.64695424516529 true
gene 11 4 56 6.256013315297047 false 2121 6.256013315297047 true
gene 4 4 77 2.788202962734032 false 2122 2.788202962734032 true
genomeend 29
/* Organism #26 Fitness: 0.000 Error: 0.000 */
genomestart 26
trait 1 0.1 0 0 0 0 0 0 0
trait 2 0.2 0 0 0 0 0 0 0
trait 3 0.3 0 0 0 0 0 0 0
trait 4 0.4 0 0 0 0 0 0 0
trait 5 0.5 0 0 0 0 0 0 0
trait 6 0.6 0 0 0 0 0 0 0
trait 7 0.7 0 0 0 0 0 0 0
trait 8 0.8 0 0 0 0 0 0 0
trait 9 0.9 0 0 0 0 0 0 0
trait 10 1 0 0 0 0 0 0 0
trait 11 1.1 0 0 0 0 0 0 0
trait 12 1.2 0 0 0 0 0 0 0
trait 13 1.3 0 0 0 0 0 0 0
trait 14 1.4 0 0 0 0 0 0 0
trait 15 1.5 0 0 0 0 0 0 0
node 1 1 1 3 NullActivation
node 2 1 1 1 NullActivation
node 3 1 1 1 NullActivation
node 4 1 1 1 NullActivation
node 5 1 1 1 NullActivation
node 6 1 1 1 NullActivation
node 7 1 1 1 NullActivation
node 8 1 1 1 NullActivation
node 9 1 1 1 NullActivation
node 10 1 1 1 NullActivation
node 11 1 1 1 NullActivation
node 12 1 1 1 NullActivation
node 13 1 1 1 NullActivation
node 14 1 1 1 NullActivation
node 15 1 1 1 NullActivation
node 16 1 1 1 NullActivation
node 17 1 1 1 NullActivation
node 18 1 1 1 NullActivation
node 19 1 1 1 NullActivation
node 20 1 1 1 NullActivation
node 21 1 1 1 NullActivation
node 22 1 1 1 NullActivation
node 23 1 1 1 NullActivation
node 24 1 1 1 NullActivation
node 25 1 1 1 NullActivation
node 26 1 1 1 NullActivation
node 27 1 1 1 NullActivation
node 28 1 1 1 NullActivation
node 29 1 1 1 NullActivation
node 30 1 1 1 NullActivation
node 31 1 1 1 NullActivation
node 32 1 1 1 NullActivation
node 33 1 1 1 NullActivation
node 34 1 1 1 NullActivation
node 35 1 1 1 NullActivation
node 36 1 1 1 NullActivation
node 37 1 1 1 NullActivation
node 38 1 1 1 NullActivation
node 39 1 1 1 NullActivation
node 40 1 1 1 NullActivation
node 41 1 1 1 NullActivation
node 42 1 1 1 NullActivation
node 43 1 1 1 NullActivation
node 44 1 1 1 NullActivation
node 45 1 1 1 NullActivation
node 46 1 1 1 NullActivation
node 47 1 1 1 NullActivation
node 48 1 1 1 NullActivation
node 49 1 1 1 NullActivation
node 50 1 1 1 NullActivation
node 51 1 1 1 NullActivation
node 52 1 1 1 NullActivation
node 53 1 1 1 NullActivation
node 54 1 1 1 NullActivation
node 55 1 1 1 NullActivation
node 56 1 0 2 SigmoidBipolarActivation
