/* Species #1 : (Size 256) (AF 0.652) (Age 1)  */
/* Organism #237 Fitness: 3.000 Error: 0.000 */
genomestart 237
trait 1 0.1 0 0 0 0 0 0 0
trait 2 0.2 0 0 0 0 0 0 0
trait 3 0.3 0 0 0 0 0 0 0
trait 4 0.4 0 0 0 0 0 0 0
trait 5 0.5 0 0 0 0 0 0 0
trait 6 0.6 0 0 0 0 0 0 0
trait 7 0.7 0 0 0 0 0 0 0
trait 8 0.8 0 0 0 0 0 0 0
trait 9 0.9 0 0 0 0 0 0 0
trait 10 1 0 0 0 0 0 0 0
trait 11 1.1 0 0 0 0 0 0 0
trait 12 1.2 0 0 0 0 0 0 0
trait 13 1.3 0 0 0 0 0 0 0
trait 14 1.4 0 0 0 0 0 0 0
trait 15 1.5 0 0 0 0 0 0 0
node 1 0 1 3 NullActivation
node 2 0 1 1 NullActivation
node 3 0 1 1 NullActivation
node 4 0 1 1 NullActivation
node 5 0 1 1 NullActivation
node 6 0 1 1 NullActivation
node 7 0 1 1 NullActivation
node 8 0 1 1 NullActivation
node 9 0 1 1 NullActivation
node 10 0 1 1 NullActivation
node 11 0 1 1 NullActivation
node 12 0 1 1 NullActivation
node 13 0 1 1 NullActivation
node 14 0 1 1 NullActivation
node 15 0 1 1 NullActivation
node 16 0 1 1 NullActivation
node 17 0 1 1 NullActivation
node 18 0 1 1 NullActivation
node 19 0 1 1 NullActivation
node 20 0 1 1 NullActivation
node 21 0 1 1 NullActivation
node 22 0 1 1 NullActivation
node 23 0 1 1 NullActivation
node 24 0 1 1 NullActivation
node 25 0 1 1 NullActivation
node 26 0 1 1 NullActivation
node 27 0 1 1 NullActivation
node 28 0 1 1 NullActivation
node 29 0 1 1 NullActivation
node 30 0 1 1 NullActivation
node 31 0 1 1 NullActivation
node 32 0 1 1 NullActivation
node 33 0 1 1 NullActivation
node 34 0 1 1 NullActivation
node 35 0 1 1 NullActivation
node 36 0 1 1 NullActivation
node 37 0 1 1 NullActivation
node 38 0 1 1 NullActivation
node 39 0 1 1 NullActivation
node 40 0 1 1 NullActivation
node 41 0 1 1 NullActivation
node 42 0 1 1 NullActivation
node 43 0 1 1 NullActivation
node 44 0 1 1 NullActivation
node 45 0 1 1 NullActivation
node 46 0 1 1 NullActivation
node 47 0 1 1 NullActivation
node 48 0 1 1 NullActivation
node 49 0 1 1 NullActivation
node 50 0 1 1 NullActivation
node 51 0 1 1 NullActivation
node 52 0 1 1 NullActivation
node 53 0 1 1 NullActivation
node 54 0 1 1 NullActivation
node 55 0 1 1 NullActivation
node 56 0 0 2 SigmoidBipolarActivation
gene 1 1 56 -0.886620111996958 false 1 -0.886620111996958 true
genomeend 237
/* Organism #202 Fitness: 3.000 Error: 0.000 */
/* ## $ WINNER ORGANISM FOR SPECIES #1 $ ## */
genomestart 202
trait 1 0.1 0 0 0 0 0 0 0
trait 2 0.2 0 0 0 0 0 0 0
trait 3 0.3 0 0 0 0 0 0 0
trait 4 0.4 0 0 0 0 0 0 0
trait 5 0.5 0 0 0 0 0 0 0
trait 6 0.6 0 0 0 0 0 0 0
trait 7 0.7 0 0 0 0 0 0 0
trait 8 0.8 0 0 0 0 0 0 0
trait 9 0.9 0 0 0 0 0 0 0
trait 10 1 0 0 0 0 0 0 0
trait 11 1.1 0 0 0 0 0 0 0
trait 12 1.2 0 0 0 0 0 0 0
trait 13 1.3 0 0 0 0 0 0 0
trait 14 1.4 0 0 0 0 0 0 0
trait 15 1.5 0 0 0 0 0 0 0
node 1 0 1 3 NullActivation
node 2 0 1 1 NullActivation
node 3 0 1 1 NullActivation
node 4 0 1 1 NullActivation
node 5 0 1 1 NullActivation
node 6 0 1 1 NullActivation
node 7 0 1 1 NullActivation
node 8 0 1 1 NullActivation
node 9 0 1 1 NullActivation
node 10 0 1 1 NullActivation
node 11 0 1 1 NullActivation
node 12 0 1 1 NullActivation
node 13 0 1 1 NullActivation
node 14 0 1 1 NullActivation
node 15 0 1 1 NullActivation
node 16 0 1 1 NullActivation
node 17 0 1 1 NullActivation
node 18 0 1 1 NullActivation
node 19 0 1 1 NullActivation
node 20 0 1 1 NullActivation
node 21 0 1 1 NullActivation
node 22 0 1 1 NullActivation
node 23 0 1 1 NullActivation
node 24 0 1 1 NullActivation
node 25 0 1 1 NullActivation
node 26 0 1 1 NullActivation
node 27 0 1 1 NullActivation
node 28 0 1 1 NullActivation
node 29 0 1 1 NullActivation
node 30 0 1 1 NullActivation
node 31 0 1 1 NullActivation
node 32 0 1 1 NullActivation
node 33 0 1 1 NullActivation
node 34 0 1 1 NullActivation
node 35 0 1 1 NullActivation
node 36 0 1 1 NullActivation
node 37 0 1 1 NullActivation
node 38 0 1 1 NullActivation
node 39 0 1 1 NullActivation
node 40 0 1 1 NullActivation
node 41 0 1 1 NullActivation
node 42 0 1 1 NullActivation
node 43 0 1 1 NullActivation
node 44 0 1 1 NullActivation
node 45 0 1 1 NullActivation
node 46 0 1 1 NullActivation
node 47 0 1 1 NullActivation
node 48 0 1 1 NullActivation
node 49 0 1 1 NullActivation
node 50 0 1 1 NullActivation
node 51 0 1 1 NullActivation
node 52 0 1 1 NullActivation
node 53 0 1 1 NullActivation
node 54 0 1 1 NullActivation
node 55 0 1 1 NullActivation
node 56 0 0 2 SigmoidBipolarActivation
gene 1 1 56 0.6869546159276575 false 1 0.6869546159276575 true
genomeend 202
/* Organism #183 Fitness: 3.000 Error: 0.000 */
genomestart 183
trait 1 0.1 0 0 0 0 0 0 0
trait 2 0.2 0 0 0 0 0 0 0
trait 3 0.3 0 0 0 0 0 0 0
trait 4 0.4 0 0 0 0 0 0 0
trait 5 0.5 0 0 0 0 0 0 0
trait 6 0.6 0 0 0 0 0 0 0
trait 7 0.7 0 0 0 0 0 0 0
trait 8 0.8 0 0 0 0 0 0 0
trait 9 0.9 0 0 0 0 0 0 0
trait 10 1 0 0 0 0 0 0 0
trait 11 1.1 0 0 0 0 0 0 0
trait 12 1.2 0 0 0 0 0 0 0
trait 13 1.3 0 0 0 0 0 0 0
trait 14 1.4 0 0 0 0 0 0 0
trait 15 1.5 0 0 0 0 0 0 0
node 1 0 1 3 NullActivation
node 2 0 1 1 NullActivation
node 3 0 1 1 NullActivation
node 4 0 1 1 NullActivation
node 5 0 1 1 NullActivation
node 6 0 1 1 NullActivation
node 7 0 1 1 NullActivation
node 8 0 1 1 NullActivation
node 9 0 1 1 NullActivation
node 10 0 1 1 NullActivation
node 11 0 1 1 NullActivation
node 12 0 1 1 NullActivation
node 13 0 1 1 NullActivation
node 14 0 1 1 NullActivation
node 15 0 1 1 NullActivation
node 16 0 1 1 NullActivation
node 17 0 1 1 NullActivation
node 18 0 1 1 NullActivation
node 19 0 1 1 NullActivation
node 20 0 1 1 NullActivation
node 21 0 1 1 NullActivation
node 22 0 1 1 NullActivation
node 23 0 1 1 NullActivation
node 24 0 1 1 NullActivation
node 25 0 1 1 NullActivation
node 26 0 1 1 NullActivation
node 27 0 1 1 NullActivation
node 28 0 1 1 NullActivation
node 29 0 1 1 NullActivation
node 30 0 1 1 NullActivation
node 31 0 1 1 NullActivation
node 32 0 1 1 NullActivation
node 33 0 1 1 NullActivation
node 34 0 1 1 NullActivation
node 35 0 1 1 NullActivation
node 36 0 1 1 NullActivation
node 37 0 1 1 NullActivation
node 38 0 1 1 NullActivation
node 39 0 1 1 NullActivation
node 40 0 1 1 NullActivation
node 41 0 1 1 NullActivation
node 42 0 1 1 NullActivation
node 43 0 1 1 NullActivation
node 44 0 1 1 NullActivation
node 45 0 1 1 NullActivation
node 46 0 1 1 NullActivation
node 47 0 1 1 NullActivation
node 48 0 1 1 NullActivation
node 49 0 1 1 NullActivation
node 50 0 1 1 NullActivation
node 51 0 1 1 NullActivation
node 52 0 1 1 NullActivation
node 53 0 1 1 NullActivation
node 54 0 1 1 NullActivation
node 55 0 1 1 NullActivation
node 56 0 0 2 SigmoidBipolarActivation
gene 1 1 56 0.7503873825787197 false 1 0.7503873825787197 true
genomeend 183
/* Organism #229 Fitness: 2.000 Error: 0.000 */
genomestart 229
trait 1 0.1 0 0 0 0 0 0 0
trait 2 0.2 0 0 0 0 0 0 0
trait 3 0.3 0 0 0 0 0 0 0
trait 4 0.4 0 0 0 0 0 0 0
trait 5 0.5 0 0 0 0 0 0 0
trait 6 0.6 0 0 0 0 0 0 0
trait 7 0.7 0 0 0 0 0 0 0
trait 8 0.8 0 0 0 0 0 0 0
trait 9 0.9 0 0 0 0 0 0 0
trait 10 1 0 0 0 0 0 0 0
trait 11 1.1 0 0 0 0 0 0 0
trait 12 1.2 0 0 0 0 0 0 0
trait 13 1.3 0 0 0 0 0 0 0
trait 14 1.4 0 0 0 0 0 0 0
trait 15 1.5 0 0 0 0 0 0 0
node 1 0 1 3 NullActivation
node 2 0 1 1 NullActivation
node 3 0 1 1 NullActivation
node 4 0 1 1 NullActivation
node 5 0 1 1 NullActivation
node 6 0 1 1 NullActivation
node 7 0 1 1 NullActivation
node 8 0 1 1 NullActivation
node 9 0 1 1 NullActivation
node 10 0 1 1 NullActivation
node 11 0 1 1 NullActivation
node 12 0 1 1 NullActivation
node 13 0 1 1 NullActivation
node 14 0 1 1 NullActivation
node 15 0 1 1 NullActivation
node 16 0 1 1 NullActivation
node 17 0 1 1 NullActivation
node 18 0 1 1 NullActivation
node 19 0 1 1 NullActivation
node 20 0 1 1 NullActivation
node 21 0 1 1 NullActivation
node 22 0 1 1 NullActivation
node 23 0 1 1 NullActivation
node 24 0 1 1 NullActivation
node 25 0 1 1 NullActivation
node 26 0 1 1 NullActivation
node 27 0 1 1 NullActivation
node 28 0 1 1 NullActivation
node 29 0 1 1 NullActivation
node 30 0 1 1 NullActivation
node 31 0 1 1 NullActivation
node 32 0 1 1 NullActivation
node 33 0 1 1 NullActivation
node 34 0 1 1 NullActivation
node 35 0 1 1 NullActivation
node 36 0 1 1 NullActivation
node 37 0 1 1 NullActivation
node 38 0 1 1 NullActivation
node 39 0 1 1 NullActivation
node 40 0 1 1 NullActivation
node 41 0 1 1 NullActivation
node 42 0 1 1 NullActivation
node 43 0 1 1 NullActivation
node 44 0 1 1 NullActivation
node 45 0 1 1 NullActivation
node 46 0 1 1 NullActivation
node 47 0 1 1 NullActivation
node 48 0 1 1 NullActivation
node 49 0 1 1 NullActivation
node 50 0 1 1 NullActivation
node 51 0 1 1 NullActivation
node 52 0 1 1 NullActivation
node 53 0 1 1 NullActivation
node 54 0 1 1 NullActivation
node 55 0 1 1 NullActivation
node 56 0 0 2 SigmoidBipolarActivation
gene 1 1 56 -0.15649567038445542 false 1 -0.15649567038445542 true
genomeend 229
/* Organism #224 Fitness: 2.000 Error: 0.000 */
genomestart 224
trait 1 0.1 0 0 0 0 0 0 0
trait 2 0.2 0 0 0 0 0 0 0
trait 3 0.3 0 0 0 0 0 0 0
trait 4 0.4 0 0 0 0 0 0 0
trait 5 0.5 0 0 0 0 0 0 0
trait 6 0.6 0 0 0 0 0 0 0
trait 7 0.7 0 0 0 0 0 0 0
trait 8 0.8 0 0 0 0 0 0 0
trait 9 0.9 0 0 0 0 0 0 0
trait 10 1 0 0 0 0 0 0 0
trait 11 1.1 0 0 0 0 0 0 0
trait 12 1.2 0 0 0 0 0 0 0
trait 13 1.3 0 0 0 0 0 0 0
trait 14 1.4 0 0 0 0 0 0 0
trait 15 1.5 0 0 0 0 0 0 0
node 1 0 1 3 NullActivation
node 2 0 1 1 NullActivation
node 3 0 1 1 NullActivation
node 4 0 1 1 NullActivation
node 5 0 1 1 NullActivation
node 6 0 1 1 NullActivation
node 7 0 1 1 NullActivation
node 8 0 1 1 NullActivation
node 9 0 1 1 NullActivation
node 10 0 1 1 NullActivation
node 11 0 1 1 NullActivation
node 12 0 1 1 NullActivation
node 13 0 1 1 NullActivation
node 14 0 1 1 NullActivation
node 15 0 1 1 NullActivation
node 16 0 1 1 NullActivation
node 17 0 1 1 NullActivation
node 18 0 1 1 NullActivation
node 19 0 1 1 NullActivation
node 20 0 1 1 NullActivation
node 21 0 1 1 NullActivation
node 22 0 1 1 NullActivation
node 23 0 1 1 NullActivation
node 24 0 1 1 NullActivation
node 25 0 1 1 NullActivation
node 26 0 1 1 NullActivation
node 27 0 1 1 NullActivation
node 28 0 1 1 NullActivation
node 29 0 1 1 NullActivation
node 30 0 1 1 NullActivation
node 31 0 1 1 NullActivation
node 32 0 1 1 NullActivation
node 33 0 1 1 NullActivation
node 34 0 1 1 NullActivation
node 35 0 1 1 NullActivation
node 36 0 1 1 NullActivation
node 37 0 1 1 NullActivation
node 38 0 1 1 NullActivation
node 39 0 1 1 NullActivation
node 40 0 1 1 NullActivation
node 41 0 1 1 NullActivation
node 42 0 1 1 NullActivation
node 43 0 1 1 NullActivation
node 44 0 1 1 NullActivation
node 45 0 1 1 NullActivation
node 46 0 1 1 NullActivation
node 47 0 1 1 NullActivation
node 48 0 1 1 NullActivation
node 49 0 1 1 NullActivation
node 50 0 1 1 NullActivation
node 51 0 1 1 NullActivation
node 52 0 1 1 NullActivation
node 53 0 1 1 NullActivation
node 54 0 1 1 NullActivation
node 55 0 1 1 NullActivation
node 56 0 0 2 SigmoidBipolarActivation
gene 1 1 56 0.4271766277039 false 1 0.4271766277039 true
genomeend 224
/* Organism #223 Fitness: 2.000 Error: 0.000 */
genomestart 223
trait 1 0.1 0 0 0 0 0 0 0
trait 2 0.2 0 0 0 0 0 0 0
trait 3 0.3 0 0 0 0 0 0 0
trait 4 0.4 0 0 0 0 0 0 0
trait 5 0.5 0 0 0 0 0 0 0
trait 6 0.6 0 0 0 0 0 0 0
trait 7 0.7 0 0 0 0 0 0 0
trait 8 0.8 0 0 0 0 0 0 0
trait 9 0.9 0 0 0 0 0 0 0
trait 10 1 0 0 0 0 0 0 0
trait 11 1.1 0 0 0 0 0 0 0
trait 12 1.2 0 0 0 0 0 0 0
trait 13 1.3 0 0 0 0 0 0 0
trait 14 1.4 0 0 0 0 0 0 0
trait 15 1.5 0 0 0 0 0 0 0
node 1 0 1 3 NullActivation
node 2 0 1 1 NullActivation
node 3 0 1 1 NullActivation
node 4 0 1 1 NullActivation
node 5 0 1 1 NullActivation
node 6 0 1 1 NullActivation
node 7 0 1 1 NullActivation
node 8 0 1 1 NullActivation
node 9 0 1 1 NullActivation
node 10 0 1 1 NullActivation
node 11 0 1 1 NullActivation
node 12 0 1 1 NullActivation
node 13 0 1 1 NullActivation
node 14 0 1 1 NullActivation
node 15 0 1 1 NullActivation
node 16 0 1 1 NullActivation
node 17 0 1 1 NullActivation
node 18 0 1 1 NullActivation
node 19 0 1 1 NullActivation
node 20 0 1 1 NullActivation
node 21 0 1 1 NullActivation
node 22 0 1 1 NullActivation
node 23 0 1 1 NullActivation
node 24 0 1 1 NullActivation
node 25 0 1 1 NullActivation
node 26 0 1 1 NullActivation
node 27 0 1 1 NullActivation
node 28 0 1 1 NullActivation
node 29 0 1 1 NullActivation
node 30 0 1 1 NullActivation
node 31 0 1 1 NullActivation
node 32 0 1 1 NullActivation
node 33 0 1 1 NullActivation
node 34 0 1 1 NullActivation
node 35 0 1 1 NullActivation
node 36 0 1 1 NullActivation
node 37 0 1 1 NullActivation
node 38 0 1 1 NullActivation
node 39 0 1 1 NullActivation
node 40 0 1 1 NullActivation
node 41 0 1 1 NullActivation
node 42 0 1 1 NullActivation
node 43 0 1 1 NullActivation
node 44 0 1 1 NullActivation
node 45 0 1 1 NullActivation
node 46 0 1 1 NullActivation
node 47 0 1 1 NullActivation
node 48 0 1 1 NullActivation
node 49 0 1 1 NullActivation
node 50 0 1 1 NullActivation
node 51 0 1 1 NullActivation
node 52 0 1 1 NullActivation
node 53 0 1 1 NullActivation
node 54 0 1 1 NullActivation
node 55 0 1 1 NullActivation
node 56 0 0 2 SigmoidBipolarActivation
gene 1 1 56 0.45067261108425843 false 1 0.45067261108425843 true
genomeend 223
/* Organism #221 Fitness: 2.000 Error: 0.000 */
genomestart 221
trait 1 0.1 0 0 0 0 0 0 0
trait 2 0.2 0 0 0 0 0 0 0
trait 3 0.3 0 0 0 0 0 0 0
trait 4 0.4 0 0 0 0 0 0 0
trait 5 0.5 0 0 0 0 0 0 0
trait 6 0.6 0 0 0 0 0 0 0
trait 7 0.7 0 0 0 0 0 0 0
trait 8 0.8 0 0 0 0 0 0 0
trait 9 0.9 0 0 0 0 0 0 0
trait 10 1 0 0 0 0 0 0 0
trait 11 1.1 0 0 0 0 0 0 0
trait 12 1.2 0 0 0 0 0 0 0
trait 13 1.3 0 0 0 0 0 0 0
trait 14 1.4 0 0 0 0 0 0 0
trait 15 1.5 0 0 0 0 0 0 0
node 1 0 1 3 NullActivation
node 2 0 1 1 NullActivation
node 3 0 1 1 NullActivation
node 4 0 1 1 NullActivation
node 5 0 1 1 NullActivation
node 6 0 1 1 NullActivation
node 7 0 1 1 NullActivation
node 8 0 1 1 NullActivation
node 9 0 1 1 NullActivation
node 10 0 1 1 NullActivation
node 11 0 1 1 NullActivation
node 12 0 1 1 NullActivation
node 13 0 1 1 NullActivation
node 14 0 1 1 NullActivation
node 15 0 1 1 NullActivation
node 16 0 1 1 NullActivation
node 17 0 1 1 NullActivation
node 18 0 1 1 NullActivation
node 19 0 1 1 NullActivation
node 20 0 1 1 NullActivation
node 21 0 1 1 NullActivation
node 22 0 1 1 NullActivation
node 23 0 1 1 NullActivation
node 24 0 1 1 NullActivation
node 25 0 1 1 NullActivation
node 26 0 1 1 NullActivation
node 27 0 1 1 NullActivation
node 28 0 1 1 NullActivation
node 29 0 1 1 NullActivation
node 30 0 1 1 NullActivation
node 31 0 1 1 NullActivation
node 32 0 1 1 NullActivation
node 33 0 1 1 NullActivation
node 34 0 1 1 NullActivation
node 35 0 1 1 NullActivation
node 36 0 1 1 NullActivation
node 37 0 1 1 NullActivation
node 38 0 1 1 NullActivation
node 39 0 1 1 NullActivation
node 40 0 1 1 NullActivation
node 41 0 1 1 NullActivation
node 42 0 1 1 NullActivation
node 43 0 1 1 NullActivation
node 44 0 1 1 NullActivation
node 45 0 1 1 NullActivation
node 46 0 1 1 NullActivation
node 47 0 1 1 NullActivation
node 48 0 1 1 NullActivation
node 49 0 1 1 NullActivation
node 50 0 1 1 NullActivation
node 51 0 1 1 NullActivation
node 52 0 1 1 NullActivation
node 53 0 1 1 NullActivation
node 54 0 1 1 NullActivation
node 55 0 1 1 NullActivation
node 56 0 0 2 SigmoidBipolarActivation
gene 1 1 56 -0.2918630951281016 false 1 -0.2918630951281016 true
genomeend 221
/* Organism #213 Fitness: 2.000 Error: 0.000 */
genomestart 213
trait 1 0.1 0 0 0 0 0 0 0
trait 2 0.2 0 0 0 0 0 0 0
trait 3 0.3 0 0 0 0 0 0 0
trait 4 0.4 0 0 0 0 0 0 0
trait 5 0.5 0 0 0 0 0 0 0
trait 6 0.6 0 0 0 0 0 0 0
trait 7 0.7 0 0 0 0 0 0 0
trait 8 0.8 0 0 0 0 0 0 0
trait 9 0.9 0 0 0 0 0 0 0
trait 10 1 0 0 0 0 0 0 0
trait 11 1.1 0 0 0 0 0 0 0
trait 12 1.2 0 0 0 0 0 0 0
trait 13 1.3 0 0 0 0 0 0 0
trait 14 1.4 0 0 0 0 0 0 0
trait 15 1.5 0 0 0 0 0 0 0
node 1 0 1 3 NullActivation
node 2 0 1 1 NullActivation
node 3 0 1 1 NullActivation
node 4 0 1 1 NullActivation
node 5 0 1 1 NullActivation
node 6 0 1 1 NullActivation
node 7 0 1 1 NullActivation
node 8 0 1 1 NullActivation
node 9 0 1 1 NullActivation
node 10 0 1 1 NullActivation
node 11 0 1 1 NullActivation
node 12 0 1 1 NullActivation
node 13 0 1 1 NullActivation
node 14 0 1 1 NullActivation
node 15 0 1 1 NullActivation
node 16 0 1 1 NullActivation
node 17 0 1 1 NullActivation
node 18 0 1 1 NullActivation
node 19 0 1 1 NullActivation
node 20 0 1 1 NullActivation
node 21 0 1 1 NullActivation
node 22 0 1 1 NullActivation
node 23 0 1 1 NullActivation
node 24 0 1 1 NullActivation
node 25 0 1 1 NullActivation
node 26 0 1 1 NullActivation
node 27 0 1 1 NullActivation
node 28 0 1 1 NullActivation
node 29 0 1 1 NullActivation
node 30 0 1 1 NullActivation
node 31 0 1 1 NullActivation
node 32 0 1 1 NullActivation
node 33 0 1 1 NullActivation
node 34 0 1 1 NullActivation
node 35 0 1 1 NullActivation
node 36 0 1 1 NullActivation
node 37 0 1 1 NullActivation
node 38 0 1 1 NullActivation
node 39 0 1 1 NullActivation
node 40 0 1 1 NullActivation
node 41 0 1 1 NullActivation
node 42 0 1 1 NullActivation
node 43 0 1 1 NullActivation
node 44 0 1 1 NullActivation
node 45 0 1 1 NullActivation
node 46 0 1 1 NullActivation
node 47 0 1 1 NullActivation
node 48 0 1 1 NullActivation
node 49 0 1 1 NullActivation
node 50 0 1 1 NullActivation
node 51 0 1 1 NullActivation
node 52 0 1 1 NullActivation
node 53 0 1 1 NullActivation
node 54 0 1 1 NullActivation
node 55 0 1 1 NullActivation
node 56 0 0 2 SigmoidBipolarActivation
gene 1 1 56 0.09860889941825092 false 1 0.09860889941825092 true
genomeend 213
/* Organism #190 Fitness: 2.000 Error: 0.000 */
genomestart 190
trait 1 0.1 0 0 0 0 0 0 0
trait 2 0.2 0 0 0 0 0 0 0
trait 3 0.3 0 0 0 0 0 0 0
trait 4 0.4 0 0 0 0 0 0 0
trait 5 0.5 0 0 0 0 0 0 0
trait 6 0.6 0 0 0 0 0 0 0
trait 7 0.7 0 0 0 0 0 0 0
trait 8 0.8 0 0 0 0 0 0 0
trait 9 0.9 0 0 0 0 0 0 0
trait 10 1 0 0 0 0 0 0 0
trait 11 1.1 0 0 0 0 0 0 0
trait 12 1.2 0 0 0 0 0 0 0
trait 13 1.3 0 0 0 0 0 0 0
trait 14 1.4 0 0 0 0 0 0 0
trait 15 1.5 0 0 0 0 0 0 0
node 1 0 1 3 NullActivation
node 2 0 1 1 NullActivation
node 3 0 1 1 NullActivation
node 4 0 1 1 NullActivation
node 5 0 1 1 NullActivation
node 6 0 1 1 NullActivation
node 7 0 1 1 NullActivation
node 8 0 1 1 NullActivation
node 9 0 1 1 NullActivation
node 10 0 1 1 NullActivation
node 11 0 1 1 NullActivation
node 12 0 1 1 NullActivation
node 13 0 1 1 NullActivation
node 14 0 1 1 NullActivation
node 15 0 1 1 NullActivation
node 16 0 1 1 NullActivation
node 17 0 1 1 NullActivation
node 18 0 1 1 NullActivation
node 19 0 1 1 NullActivation
node 20 0 1 1 NullActivation
node 21 0 1 1 NullActivation
node 22 0 1 1 NullActivation
node 23 0 1 1 NullActivation
node 24 0 1 1 NullActivation
node 25 0 1 1 NullActivation
node 26 0 1 1 NullActivation
node 27 0 1 1 NullActivation
node 28 0 1 1 NullActivation
node 29 0 1 1 NullActivation
node 30 0 1 1 NullActivation
node 31 0 1 1 NullActivation
node 32 0 1 1 NullActivation
node 33 0 1 1 NullActivation
node 34 0 1 1 NullActivation
node 35 0 1 1 NullActivation
node 36 0 1 1 NullActivation
node 37 0 1 1 NullActivation
node 38 0 1 1 NullActivation
node 39 0 1 1 NullActivation
node 40 0 1 1 NullActivation
node 41 0 1 1 NullActivation
node 42 0 1 1 NullActivation
node 43 0 1 1 NullActivation
node 44 0 1 1 NullActivation
node 45 0 1 1 NullActivation
node 46 0 1 1 NullActivation
node 47 0 1 1 NullActivation
node 48 0 1 1 NullActivation
node 49 0 1 1 NullActivation
node 50 0 1 1 NullActivation
node 51 0 1 1 NullActivation
node 52 0 1 1 NullActivation
node 53 0 1 1 NullActivation
node 54 0 1 1 NullActivation
node 55 0 1 1 NullActivation
node 56 0 0 2 SigmoidBipolarActivation
gene 1 1 56 0.08636331954498791 false 1 0.08636331954498791 true
genomeend 190
/* Organism #184 Fitness: 2.000 Error: 0.000 */
genomestart 184
trait 1 0.1 0 0 0 0 0 0 0
trait 2 0.2 0 0 0 0 0 0 0
trait 3 0.3 0 0 0 0 0 0 0
trait 4 0.4 0 0 0 0 0 0 0
trait 5 0.5 0 0 0 0 0 0 0
trait 6 0.6 0 0 0 0 0 0 0
trait 7 0.7 0 0 0 0 0 0 0
trait 8 0.8 0 0 0 0 0 0 0
trait 9 0.9 0 0 0 0 0 0 0
trait 10 1 0 0 0 0 0 0 0
trait 11 1.1 0 0 0 0 0 0 0
trait 12 1.2 0 0 0 0 0 0 0
trait 13 1.3 0 0 0 0 0 0 0
trait 14 1.4 0 0 0 0 0 0 0
trait 15 1.5 0 0 0 0 0 0 0
node 1 0 1 3 NullActivation
node 2 0 1 1 NullActivation
node 3 0 1 1 NullActivation
node 4 0 1 1 NullActivation
node 5 0 1 1 NullActivation
node 6 0 1 1 NullActivation
node 7 0 1 1 NullActivation
node 8 0 1 1 NullActivation
node 9 0 1 1 NullActivation
node 10 0 1 1 NullActivation
node 11 0 1 1 NullActivation
node 12 0 1 1 NullActivation
node 13 0 1 1 NullActivation
node 14 0 1 1 NullActivation
node 15 0 1 1 NullActivation
node 16 0 1 1 NullActivation
node 17 0 1 1 NullActivation
node 18 0 1 1 NullActivation
node 19 0 1 1 NullActivation
node 20 0 1 1 NullActivation
node 21 0 1 1 NullActivation
node 22 0 1 1 NullActivation
node 23 0 1 1 NullActivation
node 24 0 1 1 NullActivation
node 25 0 1 1 NullActivation
node 26 0 1 1 NullActivation
node 27 0 1 1 NullActivation
node 28 0 1 1 NullActivation
node 29 0 1 1 NullActivation
node 30 0 1 1 NullActivation
node 31 0 1 1 NullActivation
node 32 0 1 1 NullActivation
node 33 0 1 1 NullActivation
node 34 0 1 1 NullActivation
node 35 0 1 1 NullActivation
node 36 0 1 1 NullActivation
node 37 0 1 1 NullActivation
node 38 0 1 1 NullActivation
node 39 0 1 1 NullActivation
node 40 0 1 1 NullActivation
node 41 0 1 1 NullActivation
node 42 0 1 1 NullActivation
node 43 0 1 1 NullActivation
node 44 0 1 1 NullActivation
node 45 0 1 1 NullActivation
node 46 0 1 1 NullActivation
node 47 0 1 1 NullActivation
node 48 0 1 1 NullActivation
node 49 0 1 1 NullActivation
node 50 0 1 1 NullActivation
node 51 0 1 1 NullActivation
node 52 0 1 1 NullActivation
node 53 0 1 1 NullActivation
node 54 0 1 1 NullActivation
node 55 0 1 1 NullActivation
node 56 0 0 2 SigmoidBipolarActivation
gene 1 1 56 0.5416387104084778 false 1 0.5416387104084778 true
genomeend 184
/* Organism #175 Fitness: 2.000 Error: 0.000 */
genomestart 175
trait 1 0.1 0 0 0 0 0 0 0
trait 2 0.2 0 0 0 0 0 0 0
trait 3 0.3 0 0 0 0 0 0 0
trait 4 0.4 0 0 0 0 0 0 0
trait 5 0.5 0 0 0 0 0 0 0
trait 6 0.6 0 0 0 0 0 0 0
trait 7 0.7 0 0 0 0 0 0 0
trait 8 0.8 0 0 0 0 0 0 0
trait 9 0.9 0 0 0 0 0 0 0
trait 10 1 0 0 0 0 0 0 0
trait 11 1.1 0 0 0 0 0 0 0
trait 12 1.2 0 0 0 0 0 0 0
trait 13 1.3 0 0 0 0 0 0 0
trait 14 1.4 0 0 0 0 0 0 0
trait 15 1.5 0 0 0 0 0 0 0
node 1 0 1 3 NullActivation
node 2 0 1 1 NullActivation
node 3 0 1 1 NullActivation
node 4 0 1 1 NullActivation
node 5 0 1 1 NullActivation
node 6 0 1 1 NullActivation
node 7 0 1 1 NullActivation
node 8 0 1 1 NullActivation
node 9 0 1 1 NullActivation
node 10 0 1 1 NullActivation
node 11 0 1 1 NullActivation
node 12 0 1 1 NullActivation
node 13 0 1 1 NullActivation
node 14 0 1 1 NullActivation
node 15 0 1 1 NullActivation
node 16 0 1 1 NullActivation
node 17 0 1 1 NullActivation
node 18 0 1 1 NullActivation
node 19 0 1 1 NullActivation
node 20 0 1 1 NullActivation
node 21 0 1 1 NullActivation
node 22 0 1 1 NullActivation
node 23 0 1 1 NullActivation
node 24 0 1 1 NullActivation
node 25 0 1 1 NullActivation
node 26 0 1 1 NullActivation
node 27 0 1 1 NullActivation
node 28 0 1 1 NullActivation
node 29 0 1 1 NullActivation
node 30 0 1 1 NullActivation
node 31 0 1 1 NullActivation
node 32 0 1 1 NullActivation
node 33 0 1 1 NullActivation
node 34 0 1 1 NullActivation
node 35 0 1 1 NullActivation
node 36 0 1 1 NullActivation
node 37 0 1 1 NullActivation
node 38 0 1 1 NullActivation
node 39 0 1 1 NullActivation
node 40 0 1 1 NullActivation
node 41 0 1 1 NullActivation
node 42 0 1 1 NullActivation
node 43 0 1 1 NullActivation
node 44 0 1 1 NullActivation
node 45 0 1 1 NullActivation
node 46 0 1 1 NullActivation
node 47 0 1 1 NullActivation
node 48 0 1 1 NullActivation
node 49 0 1 1 NullActivation
node 50 0 1 1 NullActivation
node 51 0 1 1 NullActivation
node 52 0 1 1 NullActivation
node 53 0 1 1 NullActivation
node 54 0 1 1 NullActivation
node 55 0 1 1 NullActivation
node 56 0 0 2 SigmoidBipolarActivation
gene 1 1 56 -0.8999048062725744 false 1 -0.8999048062725744 true
genomeend 175
/* Organism #168 Fitness: 2.000 Error: 0.000 */
genomestart 168
trait 1 0.1 0 0 0 0 0 0 0
trait 2 0.2 0 0 0 0 0 0 0
trait 3 0.3 0 0 0 0 0 0 0
trait 4 0.4 0 0 0 0 0 0 0
trait 5 0.5 0 0 0 0 0 0 0
trait 6 0.6 0 0 0 0 0 0 0
trait 7 0.7 0 0 0 0 0 0 0
trait 8 0.8 0 0 0 0 0 0 0
trait 9 0.9 0 0 0 0 0 0 0
trait 10 1 0 0 0 0 0 0 0
trait 11 1.1 0 0 0 0 0 0 0
trait 12 1.2 0 0 0 0 0 0 0
trait 13 1.3 0 0 0 0 0 0 0
trait 14 1.4 0 0 0 0 0 0 0
trait 15 1.5 0 0 0 0 0 0 0
node 1 0 1 3 NullActivation
node 2 0 1 1 NullActivation
node 3 0 1 1 NullActivation
node 4 0 1 1 NullActivation
node 5 0 1 1 NullActivation
node 6 0 1 1 NullActivation
node 7 0 1 1 NullActivation
node 8 0 1 1 NullActivation
node 9 0 1 1 NullActivation
node 10 0 1 1 NullActivation
node 11 0 1 1 NullActivation
node 12 0 1 1 NullActivation
node 13 0 1 1 NullActivation
node 14 0 1 1 NullActivation
node 15 0 1 1 NullActivation
node 16 0 1 1 NullActivation
node 17 0 1 1 NullActivation
node 18 0 1 1 NullActivation
node 19 0 1 1 NullActivation
node 20 0 1 1 NullActivation
node 21 0 1 1 NullActivation
node 22 0 1 1 NullActivation
node 23 0 1 1 NullActivation
node 24 0 1 1 NullActivation
node 25 0 1 1 NullActivation
node 26 0 1 1 NullActivation
node 27 0 1 1 NullActivation
node 28 0 1 1 NullActivation
node 29 0 1 1 NullActivation
node 30 0 1 1 NullActivation
node 31 0 1 1 NullActivation
node 32 0 1 1 NullActivation
node 33 0 1 1 NullActivation
node 34 0 1 1 NullActivation
node 35 0 1 1 NullActivation
node 36 0 1 1 NullActivation
node 37 0 1 1 NullActivation
node 38 0 1 1 NullActivation
node 39 0 1 1 NullActivation
node 40 0 1 1 NullActivation
node 41 0 1 1 NullActivation
node 42 0 1 1 NullActivation
node 43 0 1 1 NullActivation
node 44 0 1 1 NullActivation
node 45 0 1 1 NullActivation
node 46 0 1 1 NullActivation
node 47 0 1 1 NullActivation
node 48 0 1 1 NullActivation
node 49 0 1 1 NullActivation
node 50 0 1 1 NullActivation
node 51 0 1 1 NullActivation
node 52 0 1 1 NullActivation
node 53 0 1 1 NullActivation
node 54 0 1 1 NullActivation
node 55 0 1 1 NullActivation
node 56 0 0 2 SigmoidBipolarActivation
gene 1 1 56 -0.019874919118590722 false 1 -0.019874919118590722 true
genomeend 168
/* Organism #163 Fitness: 2.000 Error: 0.000 */
genomestart 163
trait 1 0.1 0 0 0 0 0 0 0
trait 2 0.2 0 0 0 0 0 0 0
trait 3 0.3 0 0 0 0 0 0 0
trait 4 0.4 0 0 0 0 0 0 0
trait 5 0.5 0 0 0 0 0 0 0
trait 6 0.6 0 0 0 0 0 0 0
trait 7 0.7 0 0 0 0 0 0 0
trait 8 0.8 0 0 0 0 0 0 0
trait 9 0.9 0 0 0 0 0 0 0
trait 10 1 0 0 0 0 0 0 0
trait 11 1.1 0 0 0 0 0 0 0
trait 12 1.2 0 0 0 0 0 0 0
trait 13 1.3 0 0 0 0 0 0 0
trait 14 1.4 0 0 0 0 0 0 0
trait 15 1.5 0 0 0 0 0 0 0
node 1 0 1 3 NullActivation
node 2 0 1 1 NullActivation
node 3 0 1 1 NullActivation
node 4 0 1 1 NullActivation
node 5 0 1 1 NullActivation
node 6 0 1 1 NullActivation
node 7 0 1 1 NullActivation
node 8 0 1 1 NullActivation
node 9 0 1 1 NullActivation
node 10 0 1 1 NullActivation
node 11 0 1 1 NullActivation
node 12 0 1 1 NullActivation
node 13 0 1 1 NullActivation
node 14 0 1 1 NullActivation
node 15 0 1 1 NullActivation
node 16 0 1 1 NullActivation
node 17 0 1 1 NullActivation
node 18 0 1 1 NullActivation
node 19 0 1 1 NullActivation
node 20 0 1 1 NullActivation
node 21 0 1 1 NullActivation
node 22 0 1 1 NullActivation
node 23 0 1 1 NullActivation
node 24 0 1 1 NullActivation
node 25 0 1 1 NullActivation
node 26 0 1 1 NullActivation
node 27 0 1 1 NullActivation
node 28 0 1 1 NullActivation
node 29 0 1 1 NullActivation
node 30 0 1 1 NullActivation
node 31 0 1 1 NullActivation
node 32 0 1 1 NullActivation
node 33 0 1 1 NullActivation
node 34 0 1 1 NullActivation
node 35 0 1 1 NullActivation
node 36 0 1 1 NullActivation
node 37 0 1 1 NullActivation
node 38 0 1 1 NullActivation
node 39 0 1 1 NullActivation
node 40 0 1 1 NullActivation
node 41 0 1 1 NullActivation
node 42 0 1 1 NullActivation
node 43 0 1 1 NullActivation
node 44 0 1 1 NullActivation
node 45 0 1 1 NullActivation
node 46 0 1 1 NullActivation
node 47 0 1 1 NullActivation
node 48 0 1 1 NullActivation
node 49 0 1 1 NullActivation
node 50 0 1 1 NullActivation
node 51 0 1 1 NullActivation
node 52 0 1 1 NullActivation
node 53 0 1 1 NullActivation
node 54 0 1 1 NullActivation
node 55 0 1 1 NullActivation
node 56 0 0 2 SigmoidBipolarActivation
gene 1 1 56 0.7952958350147334 false 1 0.7952958350147334 true
genomeend 163
/* Organism #155 Fitness: 2.000 Error: 0.000 */
genomestart 155
trait 1 0.1 0 0 0 0 0 0 0
trait 2 0.2 0 0 0 0 0 0 0
trait 3 0.3 0 0 0 0 0 0 0
trait 4 0.4 0 0 0 0 0 0 0
trait 5 0.5 0 0 0 0 0 0 0
trait 6 0.6 0 0 0 0 0 0 0
trait 7 0.7 0 0 0 0 0 0 0
trait 8 0.8 0 0 0 0 0 0 0
trait 9 0.9 0 0 0 0 0 0 0
trait 10 1 0 0 0 0 0 0 0
trait 11 1.1 0 0 0 0 0 0 0
trait 12 1.2 0 0 0 0 0 0 0
trait 13 1.3 0 0 0 0 0 0 0
trait 14 1.4 0 0 0 0 0 0 0
trait 15 1.5 0 0 0 0 0 0 0
node 1 0 1 3 NullActivation
node 2 0 1 1 NullActivation
node 3 0 1 1 NullActivation
node 4 0 1 1 NullActivation
node 5 0 1 1 NullActivation
node 6 0 1 1 NullActivation
node 7 0 1 1 NullActivation
node 8 0 1 1 NullActivation
node 9 0 1 1 NullActivation
node 10 0 1 1 NullActivation
node 11 0 1 1 NullActivation
node 12 0 1 1 NullActivation
node 13 0 1 1 NullActivation
node 14 0 1 1 NullActivation
node 15 0 1 1 NullActivation
node 16 0 1 1 NullActivation
node 17 0 1 1 NullActivation
node 18 0 1 1 NullActivation
node 19 0 1 1 NullActivation
node 20 0 1 1 NullActivation
node 21 0 1 1 NullActivation
node 22 0 1 1 NullActivation
node 23 0 1 1 NullActivation
node 24 0 1 1 NullActivation
node 25 0 1 1 NullActivation
node 26 0 1 1 NullActivation
node 27 0 1 1 NullActivation
node 28 0 1 1 NullActivation
node 29 0 1 1 NullActivation
node 30 0 1 1 NullActivation
node 31 0 1 1 NullActivation
node 32 0 1 1 NullActivation
node 33 0 1 1 NullActivation
node 34 0 1 1 NullActivation
node 35 0 1 1 NullActivation
node 36 0 1 1 NullActivation
node 37 0 1 1 NullActivation
node 38 0 1 1 NullActivation
node 39 0 1 1 NullActivation
node 40 0 1 1 NullActivation
node 41 0 1 1 NullActivation
node 42 0 1 1 NullActivation
node 43 0 1 1 NullActivation
node 44 0 1 1 NullActivation
node 45 0 1 1 NullActivation
node 46 0 1 1 NullActivation
node 47 0 1 1 NullActivation
node 48 0 1 1 NullActivation
node 49 0 1 1 NullActivation
node 50 0 1 1 NullActivation
node 51 0 1 1 NullActivation
node 52 0 1 1 NullActivation
node 53 0 1 1 NullActivation
node 54 0 1 1 NullActivation
node 55 0 1 1 NullActivation
node 56 0 0 2 SigmoidBipolarActivation
gene 1 1 56 -0.6135903952940208 false 1 -0.6135903952940208 true
genomeend 155
/* Organism #147 Fitness: 2.000 Error: 0.000 */
genomestart 147
trait 1 0.1 0 0 0 0 0 0 0
trait 2 0.2 0 0 0 0 0 0 0
trait 3 0.3 0 0 0 0 0 0 0
trait 4 0.4 0 0 0 0 0 0 0
trait 5 0.5 0 0 0 0 0 0 0
trait 6 0.6 0 0 0 0 0 0 0
trait 7 0.7 0 0 0 0 0 0 0
trait 8 0.8 0 0 0 0 0 0 0
trait 9 0.9 0 0 0 0 0 0 0
trait 10 1 0 0 0 0 0 0 0
trait 11 1.1 0 0 0 0 0 0 0
trait 12 1.2 0 0 0 0 0 0 0
trait 13 1.3 0 0 0 0 0 0 0
trait 14 1.4 0 0 0 0 0 0 0
trait 15 1.5 0 0 0 0 0 0 0
node 1 0 1 3 NullActivation
node 2 0 1 1 NullActivation
node 3 0 1 1 NullActivation
node 4 0 1 1 NullActivation
node 5 0 1 1 NullActivation
node 6 0 1 1 NullActivation
node 7 0 1 1 NullActivation
node 8 0 1 1 NullActivation
node 9 0 1 1 NullActivation
node 10 0 1 1 NullActivation
node 11 0 1 1 NullActivation
node 12 0 1 1 NullActivation
node 13 0 1 1 NullActivation
node 14 0 1 1 NullActivation
node 15 0 1 1 NullActivation
node 16 0 1 1 NullActivation
node 17 0 1 1 NullActivation
node 18 0 1 1 NullActivation
node 19 0 1 1 NullActivation
node 20 0 1 1 NullActivation
node 21 0 1 1 NullActivation
node 22 0 1 1 NullActivation
node 23 0 1 1 NullActivation
node 24 0 1 1 NullActivation
node 25 0 1 1 NullActivation
node 26 0 1 1 NullActivation
node 27 0 1 1 NullActivation
node 28 0 1 1 NullActivation
node 29 0 1 1 NullActivation
node 30 0 1 1 NullActivation
node 31 0 1 1 NullActivation
node 32 0 1 1 NullActivation
node 33 0 1 1 NullActivation
node 34 0 1 1 NullActivation
node 35 0 1 1 NullActivation
node 36 0 1 1 NullActivation
node 37 0 1 1 NullActivation
node 38 0 1 1 NullActivation
node 39 0 1 1 NullActivation
node 40 0 1 1 NullActivation
node 41 0 1 1 NullActivation
node 42 0 1 1 NullActivation
node 43 0 1 1 NullActivation
node 44 0 1 1 NullActivation
node 45 0 1 1 NullActivation
node 46 0 1 1 NullActivation
node 47 0 1 1 NullActivation
node 48 0 1 1 NullActivation
node 49 0 1 1 NullActivation
node 50 0 1 1 NullActivation
node 51 0 1 1 NullActivation
node 52 0 1 1 NullActivation
node 53 0 1 1 NullActivation
node 54 0 1 1 NullActivation
node 55 0 1 1 NullActivation
node 56 0 0 2 SigmoidBipolarActivation
gene 1 1 56 0.13817455711021298 false 1 0.13817455711021298 true
genomeend 147
/* Organism #142 Fitness: 2.000 Error: 0.000 */
genomestart 142
trait 1 0.1 0 0 0 0 0 0 0
trait 2 0.2 0 0 0 0 0 0 0
trait 3 0.3 0 0 0 0 0 0 0
trait 4 0.4 0 0 0 0 0 0 0
trait 5 0.5 0 0 0 0 0 0 0
trait 6 0.6 0 0 0 0 0 0 0
trait 7 0.7 0 0 0 0 0 0 0
trait 8 0.8 0 0 0 0 0 0 0
trait 9 0.9 0 0 0 0 0 0 0
trait 10 1 0 0 0 0 0 0 0
trait 11 1.1 0 0 0 0 0 0 0
trait 12 1.2 0 0 0 0 0 0 0
trait 13 1.3 0 0 0 0 0 0 0
trait 14 1.4 0 0 0 0 0 0 0
trait 15 1.5 0 0 0 0 0 0 0
node 1 0 1 3 NullActivation
node 2 0 1 1 NullActivation
node 3 0 1 1 NullActivation
node 4 0 1 1 NullActivation
node 5 0 1 1 NullActivation
node 6 0 1 1 NullActivation
node 7 0 1 1 NullActivation
node 8 0 1 1 NullActivation
node 9 0 1 1 NullActivation
node 10 0 1 1 NullActivation
node 11 0 1 1 NullActivation
node 12 0 1 1 NullActivation
node 13 0 1 1 NullActivation
node 14 0 1 1 NullActivation
node 15 0 1 1 NullActivation
node 16 0 1 1 NullActivation
node 17 0 1 1 NullActivation
node 18 0 1 1 NullActivation
node 19 0 1 1 NullActivation
node 20 0 1 1 NullActivation
node 21 0 1 1 NullActivation
node 22 0 1 1 NullActivation
node 23 0 1 1 NullActivation
node 24 0 1 1 NullActivation
node 25 0 1 1 NullActivation
node 26 0 1 1 NullActivation
node 27 0 1 1 NullActivation
node 28 0 1 1 NullActivation
node 29 0 1 1 NullActivation
node 30 0 1 1 NullActivation
node 31 0 1 1 NullActivation
node 32 0 1 1 NullActivation
node 33 0 1 1 NullActivation
node 34 0 1 1 NullActivation
node 35 0 1 1 NullActivation
node 36 0 1 1 NullActivation
node 37 0 1 1 NullActivation
node 38 0 1 1 NullActivation
node 39 0 1 1 NullActivation
node 40 0 1 1 NullActivation
node 41 0 1 1 NullActivation
node 42 0 1 1 NullActivation
node 43 0 1 1 NullActivation
node 44 0 1 1 NullActivation
node 45 0 1 1 NullActivation
node 46 0 1 1 NullActivation
node 47 0 1 1 NullActivation
node 48 0 1 1 NullActivation
node 49 0 1 1 NullActivation
node 50 0 1 1 NullActivation
node 51 0 1 1 NullActivation
node 52 0 1 1 NullActivation
node 53 0 1 1 NullActivation
node 54 0 1 1 NullActivation
node 55 0 1 1 NullActivation
node 56 0 0 2 SigmoidBipolarActivation
gene 1 1 56 0.6947663381383937 false 1 0.6947663381383937 true
genomeend 142
/* Organism #140 Fitness: 2.000 Error: 0.000 */
genomestart 140
trait 1 0.1 0 0 0 0 0 0 0
trait 2 0.2 0 0 0 0 0 0 0
trait 3 0.3 0 0 0 0 0 0 0
trait 4 0.4 0 0 0 0 0 0 0
trait 5 0.5 0 0 0 0 0 0 0
trait 6 0.6 0 0 0 0 0 0 0
trait 7 0.7 0 0 0 0 0 0 0
trait 8 0.8 0 0 0 0 0 0 0
trait 9 0.9 0 0 0 0 0 0 0
trait 10 1 0 0 0 0 0 0 0
trait 11 1.1 0 0 0 0 0 0 0
trait 12 1.2 0 0 0 0 0 0 0
trait 13 1.3 0 0 0 0 0 0 0
trait 14 1.4 0 0 0 0 0 0 0
trait 15 1.5 0 0 0 0 0 0 0
node 1 0 1 3 NullActivation
node 2 0 1 1 NullActivation
node 3 0 1 1 NullActivation
node 4 0 1 1 NullActivation
node 5 0 1 1 NullActivation
node 6 0 1 1 NullActivation
node 7 0 1 1 NullActivation
node 8 0 1 1 NullActivation
node 9 0 1 1 NullActivation
node 10 0 1 1 NullActivation
node 11 0 1 1 NullActivation
node 12 0 1 1 NullActivation
node 13 0 1 1 NullActivation
node 14 0 1 1 NullActivation
node 15 0 1 1 NullActivation
node 16 0 1 1 NullActivation
node 17 0 1 1 NullActivation
node 18 0 1 1 NullActivation
node 19 0 1 1 NullActivation
node 20 0 1 1 NullActivation
node 21 0 1 1 NullActivation
node 22 0 1 1 NullActivation
node 23 0 1 1 NullActivation
node 24 0 1 1 NullActivation
node 25 0 1 1 NullActivation
node 26 0 1 1 NullActivation
node 27 0 1 1 NullActivation
node 28 0 1 1 NullActivation
node 29 0 1 1 NullActivation
node 30 0 1 1 NullActivation
node 31 0 1 1 NullActivation
node 32 0 1 1 NullActivation
node 33 0 1 1 NullActivation
node 34 0 1 1 NullActivation
node 35 0 1 1 NullActivation
node 36 0 1 1 NullActivation
node 37 0 1 1 NullActivation
node 38 0 1 1 NullActivation
node 39 0 1 1 NullActivation
node 40 0 1 1 NullActivation
node 41 0 1 1 NullActivation
node 42 0 1 1 NullActivation
node 43 0 1 1 NullActivation
node 44 0 1 1 NullActivation
node 45 0 1 1 NullActivation
node 46 0 1 1 NullActivation
node 47 0 1 1 NullActivation
node 48 0 1 1 NullActivation
node 49 0 1 1 NullActivation
node 50 0 1 1 NullActivation
node 51 0 1 1 NullActivation
node 52 0 1 1 NullActivation
node 53 0 1 1 NullActivation
node 54 0 1 1 NullActivation
node 55 0 1 1 NullActivation
node 56 0 0 2 SigmoidBipolarActivation
gene 1 1 56 0.472300900550716 false 1 0.472300900550716 true
genomeend 140
/* Organism #131 Fitness: 2.000 Error: 0.000 */
genomestart 131
trait 1 0.1 0 0 0 0 0 0 0
trait 2 0.2 0 0 0 0 0 0 0
trait 3 0.3 0 0 0 0 0 0 0
trait 4 0.4 0 0 0 0 0 0 0
trait 5 0.5 0 0 0 0 0 0 0
trait 6 0.6 0 0 0 0 0 0 0
trait 7 0.7 0 0 0 0 0 0 0
trait 8 0.8 0 0 0 0 0 0 0
trait 9 0.9 0 0 0 0 0 0 0
trait 10 1 0 0 0 0 0 0 0
trait 11 1.1 0 0 0 0 0 0 0
trait 12 1.2 0 0 0 0 0 0 0
trait 13 1.3 0 0 0 0 0 0 0
trait 14 1.4 0 0 0 0 0 0 0
trait 15 1.5 0 0 0 0 0 0 0
node 1 0 1 3 NullActivation
node 2 0 1 1 NullActivation
node 3 0 1 1 NullActivation
node 4 0 1 1 NullActivation
node 5 0 1 1 NullActivation
node 6 0 1 1 NullActivation
node 7 0 1 1 NullActivation
node 8 0 1 1 NullActivation
node 9 0 1 1 NullActivation
node 10 0 1 1 NullActivation
node 11 0 1 1 NullActivation
node 12 0 1 1 NullActivation
node 13 0 1 1 NullActivation
node 14 0 1 1 NullActivation
node 15 0 1 1 NullActivation
node 16 0 1 1 NullActivation
node 17 0 1 1 NullActivation
node 18 0 1 1 NullActivation
node 19 0 1 1 NullActivation
node 20 0 1 1 NullActivation
node 21 0 1 1 NullActivation
node 22 0 1 1 NullActivation
node 23 0 1 1 NullActivation
node 24 0 1 1 NullActivation
node 25 0 1 1 NullActivation
node 26 0 1 1 NullActivation
node 27 0 1 1 NullActivation
node 28 0 1 1 NullActivation
node 29 0 1 1 NullActivation
node 30 0 1 1 NullActivation
node 31 0 1 1 NullActivation
node 32 0 1 1 NullActivation
node 33 0 1 1 NullActivation
node 34 0 1 1 NullActivation
node 35 0 1 1 NullActivation
node 36 0 1 1 NullActivation
node 37 0 1 1 NullActivation
node 38 0 1 1 NullActivation
node 39 0 1 1 NullActivation
node 40 0 1 1 NullActivation
node 41 0 1 1 NullActivation
node 42 0 1 1 NullActivation
node 43 0 1 1 NullActivation
node 44 0 1 1 NullActivation
node 45 0 1 1 NullActivation
node 46 0 1 1 NullActivation
node 47 0 1 1 NullActivation
node 48 0 1 1 NullActivation
node 49 0 1 1 NullActivation
node 50 0 1 1 NullActivation
node 51 0 1 1 NullActivation
node 52 0 1 1 NullActivation
node 53 0 1 1 NullActivation
node 54 0 1 1 NullActivation
node 55 0 1 1 NullActivation
node 56 0 0 2 SigmoidBipolarActivation
gene 1 1 56 0 false 1 0 true
genomeend 131
/* Organism #99 Fitness: 2.000 Error: 0.000 */
genomestart 99
trait 1 0.1 0 0 0 0 0 0 0
trait 2 0.2 0 0 0 0 0 0 0
trait 3 0.3 0 0 0 0 0 0 0
trait 4 0.4 0 0 0 0 0 0 0
trait 5 0.5 0 0 0 0 0 0 0
trait 6 0.6 0 0 0 0 0 0 0
trait 7 0.7 0 0 0 0 0 0 0
trait 8 0.8 0 0 0 0 0 0 0
trait 9 0.9 0 0 0 0 0 0 0
trait 10 1 0 0 0 0 0 0 0
trait 11 1.1 0 0 0 0 0 0 0
trait 12 1.2 0 0 0 0 0 0 0
trait 13 1.3 0 0 0 0 0 0 0
trait 14 1.4 0 0 0 0 0 0 0
trait 15 1.5 0 0 0 0 0 0 0
node 1 0 1 3 NullActivation
node 2 0 1 1 NullActivation
node 3 0 1 1 NullActivation
node 4 0 1 1 NullActivation
node 5 0 1 1 NullActivation
node 6 0 1 1 NullActivation
node 7 0 1 1 NullActivation
node 8 0 1 1 NullActivation
node 9 0 1 1 NullActivation
node 10 0 1 1 NullActivation
node 11 0 1 1 NullActivation
node 12 0 1 1 NullActivation
node 13 0 1 1 NullActivation
node 14 0 1 1 NullActivation
node 15 0 1 1 NullActivation
node 16 0 1 1 NullActivation
node 17 0 1 1 NullActivation
node 18 0 1 1 NullActivation
node 19 0 1 1 NullActivation
node 20 0 1 1 NullActivation
node 21 0 1 1 NullActivation
node 22 0 1 1 NullActivation
node 23 0 1 1 NullActivation
node 24 0 1 1 NullActivation
node 25 0 1 1 NullActivation
node 26 0 1 1 NullActivation
node 27 0 1 1 NullActivation
node 28 0 1 1 NullActivation
node 29 0 1 1 NullActivation
node 30 0 1 1 NullActivation
node 31 0 1 1 NullActivation
node 32 0 1 1 NullActivation
node 33 0 1 1 NullActivation
node 34 0 1 1 NullActivation
node 35 0 1 1 NullActivation
node 36 0 1 1 NullActivation
node 37 0 1 1 NullActivation
node 38 0 1 1 NullActivation
node 39 0 1 1 NullActivation
node 40 0 1 1 NullActivation
node 41 0 1 1 NullActivation
node 42 0 1 1 NullActivation
node 43 0 1 1 NullActivation
node 44 0 1 1 NullActivation
node 45 0 1 1 NullActivation
node 46 0 1 1 NullActivation
node 47 0 1 1 NullActivation
node 48 0 1 1 NullActivation
node 49 0 1 1 NullActivation
node 50 0 1 1 NullActivation
node 51 0 1 1 NullActivation
node 52 0 1 1 NullActivation
node 53 0 1 1 NullActivation
node 54 0 1 1 NullActivation
node 55 0 1 1 NullActivation
node 56 0 0 2 SigmoidBipolarActivation
gene 1 1 56 -0.24858283553819602 false 1 -0.24858283553819602 true
genomeend 99
/* Organism #98 Fitness: 2.000 Error: 0.000 */
genomestart 98
trait 1 0.1 0 0 0 0 0 0 0
trait 2 0.2 0 0 0 0 0 0 0
trait 3 0.3 0 0 0 0 0 0 0
trait 4 0.4 0 0 0 0 0 0 0
trait 5 0.5 0 0 0 0 0 0 0
trait 6 0.6 0 0 0 0 0 0 0
trait 7 0.7 0 0 0 0 0 0 0
trait 8 0.8 0 0 0 0 0 0 0
trait 9 0.9 0 0 0 0 0 0 0
trait 10 1 0 0 0 0 0 0 0
trait 11 1.1 0 0 0 0 0 0 0
trait 12 1.2 0 0 0 0 0 0 0
trait 13 1.3 0 0 0 0 0 0 0
trait 14 1.4 0 0 0 0 0 0 0
trait 15 1.5 0 0 0 0 0 0 0
node 1 0 1 3 NullActivation
node 2 0 1 1 NullActivation
node 3 0 1 1 NullActivation
node 4 0 1 1 NullActivation
node 5 0 1 1 NullActivation
node 6 0 1 1 NullActivation
node 7 0 1 1 NullActivation
node 8 0 1 1 NullActivation
node 9 0 1 1 NullActivation
node 10 0 1 1 NullActivation
node 11 0 1 1 NullActivation
node 12 0 1 1 NullActivation
node 13 0 1 1 NullActivation
node 14 0 1 1 NullActivation
node 15 0 1 1 NullActivation
node 16 0 1 1 NullActivation
node 17 0 1 1 NullActivation
node 18 0 1 1 NullActivation
node 19 0 1 1 NullActivation
node 20 0 1 1 NullActivation
node 21 0 1 1 NullActivation
node 22 0 1 1 NullActivation
node 23 0 1 1 NullActivation
node 24 0 1 1 NullActivation
node 25 0 1 1 NullActivation
node 26 0 1 1 NullActivation
node 27 0 1 1 NullActivation
node 28 0 1 1 NullActivation
node 29 0 1 1 NullActivation
node 30 0 1 1 NullActivation
node 31 0 1 1 NullActivation
node 32 0 1 1 NullActivation
node 33 0 1 1 NullActivation
node 34 0 1 1 NullActivation
node 35 0 1 1 NullActivation
node 36 0 1 1 NullActivation
node 37 0 1 1 NullActivation
node 38 0 1 1 NullActivation
node 39 0 1 1 NullActivation
node 40 0 1 1 NullActivation
node 41 0 1 1 NullActivation
node 42 0 1 1 NullActivation
node 43 0 1 1 NullActivation
node 44 0 1 1 NullActivation
node 45 0 1 1 NullActivation
node 46 0 1 1 NullActivation
node 47 0 1 1 NullActivation
node 48 0 1 1 NullActivation
node 49 0 1 1 NullActivation
node 50 0 1 1 NullActivation
node 51 0 1 1 NullActivation
node 52 0 1 1 NullActivation
node 53 0 1 1 NullActivation
node 54 0 1 1 NullActivation
node 55 0 1 1 NullActivation
node 56 0 0 2 SigmoidBipolarActivation
gene 1 1 56 -0.7425908573712917 false 1 -0.7425908573712917 true
genomeend 98
/* Organism #96 Fitness: 2.000 Error: 0.000 */
genomestart 96
trait 1 0.1 0 0 0 0 0 0 0
trait 2 0.2 0 0 0 0 0 0 0
trait 3 0.3 0 0 0 0 0 0 0
trait 4 0.4 0 0 0 0 0 0 0
trait 5 0.5 0 0 0 0 0 0 0
trait 6 0.6 0 0 0 0 0 0 0
trait 7 0.7 0 0 0 0 0 0 0
trait 8 0.8 0 0 0 0 0 0 0
trait 9 0.9 0 0 0 0 0 0 0
trait 10 1 0 0 0 0 0 0 0
trait 11 1.1 0 0 0 0 0 0 0
trait 12 1.2 0 0 0 0 0 0 0
trait 13 1.3 0 0 0 0 0 0 0
trait 14 1.4 0 0 0 0 0 0 0
trait 15 1.5 0 0 0 0 0 0 0
node 1 0 1 3 NullActivation
node 2 0 1 1 NullActivation
node 3 0 1 1 NullActivation
node 4 0 1 1 NullActivation
node 5 0 1 1 NullActivation
node 6 0 1 1 NullActivation
node 7 0 1 1 NullActivation
node 8 0 1 1 NullActivation
node 9 0 1 1 NullActivation
node 10 0 1 1 NullActivation
node 11 0 1 1 NullActivation
node 12 0 1 1 NullActivation
node 13 0 1 1 NullActivation
node 14 0 1 1 NullActivation
node 15 0 1 1 NullActivation
node 16 0 1 1 NullActivation
node 17 0 1 1 NullActivation
node 18 0 1 1 NullActivation
node 19 0 1 1 NullActivation
node 20 0 1 1 NullActivation
node 21 0 1 1 NullActivation
node 22 0 1 1 NullActivation
node 23 0 1 1 NullActivation
node 24 0 1 1 NullActivation
node 25 0 1 1 NullActivation
node 26 0 1 1 NullActivation
node 27 0 1 1 NullActivation
node 28 0 1 1 NullActivation
node 29 0 1 1 NullActivation
node 30 0 1 1 NullActivation
node 31 0 1 1 NullActivation
node 32 0 1 1 NullActivation
node 33 0 1 1 NullActivation
node 34 0 1 1 NullActivation
node 35 0 1 1 NullActivation
node 36 0 1 1 NullActivation
node 37 0 1 1 NullActivation
node 38 0 1 1 NullActivation
node 39 0 1 1 NullActivation
node 40 0 1 1 NullActivation
node 41 0 1 1 NullActivation
node 42 0 1 1 NullActivation
node 43 0 1 1 NullActivation
node 44 0 1 1 NullActivation
node 45 0 1 1 NullActivation
node 46 0 1 1 NullActivation
node 47 0 1 1 NullActivation
node 48 0 1 1 NullActivation
node 49 0 1 1 NullActivation
node 50 0 1 1 NullActivation
node 51 0 1 1 NullActivation
node 52 0 1 1 NullActivation
node 53 0 1 1 NullActivation
node 54 0 1 1 NullActivation
node 55 0 1 1 NullActivation
node 56 0 0 2 SigmoidBipolarActivation
gene 1 1 56 -0.4234737796578878 false 1 -0.4234737796578878 true
genomeend 96
/* Organism #87 Fitness: 2.000 Error: 0.000 */
genomestart 87
trait 1 0.1 0 0 0 0 0 0 0
trait 2 0.2 0 0 0 0 0 0 0
trait 3 0.3 0 0 0 0 0 0 0
trait 4 0.4 0 0 0 0 0 0 0
trait 5 0.5 0 0 0 0 0 0 0
trait 6 0.6 0 0 0 0 0 0 0
trait 7 0.7 0 0 0 0 0 0 0
trait 8 0.8 0 0 0 0 0 0 0
trait 9 0.9 0 0 0 0 0 0 0
trait 10 1 0 0 0 0 0 0 0
trait 11 1.1 0 0 0 0 0 0 0
trait 12 1.2 0 0 0 0 0 0 0
trait 13 1.3 0 0 0 0 0 0 0
trait 14 1.4 0 0 0 0 0 0 0
trait 15 1.5 0 0 0 0 0 0 0
node 1 0 1 3 NullActivation
node 2 0 1 1 NullActivation
node 3 0 1 1 NullActivation
node 4 0 1 1 NullActivation
node 5 0 1 1 NullActivation
node 6 0 1 1 NullActivation
node 7 0 1 1 NullActivation
node 8 0 1 1 NullActivation
node 9 0 1 1 NullActivation
node 10 0 1 1 NullActivation
node 11 0 1 1 NullActivation
node 12 0 1 1 NullActivation
node 13 0 1 1 NullActivation
node 14 0 1 1 NullActivation
node 15 0 1 1 NullActivation
node 16 0 1 1 NullActivation
node 17 0 1 1 NullActivation
node 18 0 1 1 NullActivation
node 19 0 1 1 NullActivation
node 20 0 1 1 NullActivation
node 21 0 1 1 NullActivation
node 22 0 1 1 NullActivation
node 23 0 1 1 NullActivation
node 24 0 1 1 NullActivation
node 25 0 1 1 NullActivation
node 26 0 1 1 NullActivation
node 27 0 1 1 NullActivation
node 28 0 1 1 NullActivation
node 29 0 1 1 NullActivation
node 30 0 1 1 NullActivation
node 31 0 1 1 NullActivation
node 32 0 1 1 NullActivation
node 33 0 1 1 NullActivation
node 34 0 1 1 NullActivation
node 35 0 1 1 NullActivation
node 36 0 1 1 NullActivation
node 37 0 1 1 NullActivation
node 38 0 1 1 NullActivation
node 39 0 1 1 NullActivation
node 40 0 1 1 NullActivation
node 41 0 1 1 NullActivation
node 42 0 1 1 NullActivation
node 43 0 1 1 NullActivation
node 44 0 1 1 NullActivation
node 45 0 1 1 NullActivation
node 46 0 1 1 NullActivation
node 47 0 1 1 NullActivation
node 48 0 1 1 NullActivation
node 49 0 1 1 NullActivation
node 50 0 1 1 NullActivation
node 51 0 1 1 NullActivation
node 52 0 1 1 NullActivation
node 53 0 1 1 NullActivation
node 54 0 1 1 NullActivation
node 55 0 1 1 NullActivation
node 56 0 0 2 SigmoidBipolarActivation
gene 1 1 56 0.3389773883954362 false 1 0.3389773883954362 true
genomeend 87
/* Organism #83 Fitness: 2.000 Error: 0.000 */
genomestart 83
trait 1 0.1 0 0 0 0 0 0 0
trait 2 0.2 0 0 0 0 0 0 0
trait 3 0.3 0 0 0 0 0 0 0
trait 4 0.4 0 0 0 0 0 0 0
trait 5 0.5 0 0 0 0 0 0 0
trait 6 0.6 0 0 0 0 0 0 0
trait 7 0.7 0 0 0 0 0 0 0
trait 8 0.8 0 0 0 0 0 0 0
trait 9 0.9 0 0 0 0 0 0 0
trait 10 1 0 0 0 0 0 0 0
trait 11 1.1 0 0 0 0 0 0 0
trait 12 1.2 0 0 0 0 0 0 0
trait 13 1.3 0 0 0 0 0 0 0
trait 14 1.4 0 0 0 0 0 0 0
trait 15 1.5 0 0 0 0 0 0 0
node 1 0 1 3 NullActivation
node 2 0 1 1 NullActivation
node 3 0 1 1 NullActivation
node 4 0 1 1 NullActivation
node 5 0 1 1 NullActivation
node 6 0 1 1 NullActivation
node 7 0 1 1 NullActivation
node 8 0 1 1 NullActivation
node 9 0 1 1 NullActivation
node 10 0 1 1 NullActivation
node 11 0 1 1 NullActivation
node 12 0 1 1 NullActivation
node 13 0 1 1 NullActivation
node 14 0 1 1 NullActivation
node 15 0 1 1 NullActivation
node 16 0 1 1 NullActivation
node 17 0 1 1 NullActivation
node 18 0 1 1 NullActivation
node 19 0 1 1 NullActivation
node 20 0 1 1 NullActivation
node 21 0 1 1 NullActivation
node 22 0 1 1 NullActivation
node 23 0 1 1 NullActivation
node 24 0 1 1 NullActivation
node 25 0 1 1 NullActivation
node 26 0 1 1 NullActivation
node 27 0 1 1 NullActivation
node 28 0 1 1 NullActivation
node 29 0 1 1 NullActivation
node 30 0 1 1 NullActivation
node 31 0 1 1 NullActivation
node 32 0 1 1 NullActivation
node 33 0 1 1 NullActivation
node 34 0 1 1 NullActivation
node 35 0 1 1 NullActivation
node 36 0 1 1 NullActivation
node 37 0 1 1 NullActivation
node 38 0 1 1 NullActivation
node 39 0 1 1 NullActivation
node 40 0 1 1 NullActivation
node 41 0 1 1 NullActivation
node 42 0 1 1 NullActivation
node 43 0 1 1 NullActivation
node 44 0 1 1 NullActivation
node 45 0 1 1 NullActivation
node 46 0 1 1 NullActivation
node 47 0 1 1 NullActivation
node 48 0 1 1 NullActivation
node 49 0 1 1 NullActivation
node 50 0 1 1 NullActivation
node 51 0 1 1 NullActivation
node 52 0 1 1 NullActivation
node 53 0 1 1 NullActivation
node 54 0 1 1 NullActivation
node 55 0 1 1 NullActivation
node 56 0 0 2 SigmoidBipolarActivation
gene 1 1 56 0.9626242011438862 false 1 0.9626242011438862 true
genomeend 83
/* Organism #69 Fitness: 2.000 Error: 0.000 */
genomestart 69
trait 1 0.1 0 0 0 0 0 0 0
trait 2 0.2 0 0 0 0 0 0 0
trait 3 0.3 0 0 0 0 0 0 0
trait 4 0.4 0 0 0 0 0 0 0
trait 5 0.5 0 0 0 0 0 0 0
trait 6 0.6 0 0 0 0 0 0 0
trait 7 0.7 0 0 0 0 0 0 0
trait 8 0.8 0 0 0 0 0 0 0
trait 9 0.9 0 0 0 0 0 0 0
trait 10 1 0 0 0 0 0 0 0
trait 11 1.1 0 0 0 0 0 0 0
trait 12 1.2 0 0 0 0 0 0 0
trait 13 1.3 0 0 0 0 0 0 0
trait 14 1.4 0 0 0 0 0 0 0
trait 15 1.5 0 0 0 0 0 0 0
node 1 0 1 3 NullActivation
node 2 0 1 1 NullActivation
node 3 0 1 1 NullActivation
node 4 0 1 1 NullActivation
node 5 0 1 1 NullActivation
node 6 0 1 1 NullActivation
node 7 0 1 1 NullActivation
node 8 0 1 1 NullActivation
node 9 0 1 1 NullActivation
node 10 0 1 1 NullActivation
node 11 0 1 1 NullActivation
node 12 0 1 1 NullActivation
node 13 0 1 1 NullActivation
node 14 0 1 1 NullActivation
node 15 0 1 1 NullActivation
node 16 0 1 1 NullActivation
node 17 0 1 1 NullActivation
node 18 0 1 1 NullActivation
node 19 0 1 1 NullActivation
node 20 0 1 1 NullActivation
node 21 0 1 1 NullActivation
node 22 0 1 1 NullActivation
node 23 0 1 1 NullActivation
node 24 0 1 1 NullActivation
node 25 0 1 1 NullActivation
node 26 0 1 1 NullActivation
node 27 0 1 1 NullActivation
node 28 0 1 1 NullActivation
node 29 0 1 1 NullActivation
node 30 0 1 1 NullActivation
node 31 0 1 1 NullActivation
node 32 0 1 1 NullActivation
node 33 0 1 1 NullActivation
node 34 0 1 1 NullActivation
node 35 0 1 1 NullActivation
node 36 0 1 1 NullActivation
node 37 0 1 1 NullActivation
node 38 0 1 1 NullActivation
node 39 0 1 1 NullActivation
node 40 0 1 1 NullActivation
node 41 0 1 1 NullActivation
node 42 0 1 1 NullActivation
node 43 0 1 1 NullActivation
node 44 0 1 1 NullActivation
node 45 0 1 1 NullActivation
node 46 0 1 1 NullActivation
node 47 0 1 1 NullActivation
node 48 0 1 1 NullActivation
node 49 0 1 1 NullActivation
node 50 0 1 1 NullActivation
node 51 0 1 1 NullActivation
node 52 0 1 1 NullActivation
node 53 0 1 1 NullActivation
node 54 0 1 1 NullActivation
node 55 0 1 1 NullActivation
node 56 0 0 2 SigmoidBipolarActivation
gene 1 1 56 -0.9532587542503518 false 1 -0.9532587542503518 true
genomeend 69
/* Organism #68 Fitness: 2.000 Error: 0.000 */
genomestart 68
trait 1 0.1 0 0 0 0 0 0 0
trait 2 0.2 0 0 0 0 0 0 0
trait 3 0.3 0 0 0 0 0 0 0
trait 4 0.4 0 0 0 0 0 0 0
trait 5 0.5 0 0 0 0 0 0 0
trait 6 0.6 0 0 0 0 0 0 0
trait 7 0.7 0 0 0 0 0 0 0
trait 8 0.8 0 0 0 0 0 0 0
trait 9 0.9 0 0 0 0 0 0 0
trait 10 1 0 0 0 0 0 0 0
trait 11 1.1 0 0 0 0 0 0 0
trait 12 1.2 0 0 0 0 0 0 0
trait 13 1.3 0 0 0 0 0 0 0
trait 14 1.4 0 0 0 0 0 0 0
trait 15 1.5 0 0 0 0 0 0 0
node 1 0 1 3 NullActivation
node 2 0 1 1 NullActivation
node 3 0 1 1 NullActivation
node 4 0 1 1 NullActivation
node 5 0 1 1 NullActivation
node 6 0 1 1 NullActivation
node 7 0 1 1 NullActivation
node 8 0 1 1 NullActivation
node 9 0 1 1 NullActivation
node 10 0 1 1 NullActivation
node 11 0 1 1 NullActivation
node 12 0 1 1 NullActivation
node 13 0 1 1 NullActivation
node 14 0 1 1 NullActivation
node 15 0 1 1 NullActivation
node 16 0 1 1 NullActivation
node 17 0 1 1 NullActivation
node 18 0 1 1 NullActivation
node 19 0 1 1 NullActivation
node 20 0 1 1 NullActivation
node 21 0 1 1 NullActivation
node 22 0 1 1 NullActivation
node 23 0 1 1 NullActivation
node 24 0 1 1 NullActivation
node 25 0 1 1 NullActivation
node 26 0 1 1 NullActivation
node 27 0 1 1 NullActivation
node 28 0 1 1 NullActivation
node 29 0 1 1 NullActivation
node 30 0 1 1 NullActivation
node 31 0 1 1 NullActivation
node 32 0 1 1 NullActivation
node 33 0 1 1 NullActivation
node 34 0 1 1 NullActivation
node 35 0 1 1 NullActivation
node 36 0 1 1 NullActivation
node 37 0 1 1 NullActivation
node 38 0 1 1 NullActivation
node 39 0 1 1 NullActivation
node 40 0 1 1 NullActivation
node 41 0 1 1 NullActivation
node 42 0 1 1 NullActivation
node 43 0 1 1 NullActivation
node 44 0 1 1 NullActivation
node 45 0 1 1 NullActivation
node 46 0 1 1 NullActivation
node 47 0 1 1 NullActivation
node 48 0 1 1 NullActivation
node 49 0 1 1 NullActivation
node 50 0 1 1 NullActivation
node 51 0 1 1 NullActivation
node 52 0 1 1 NullActivation
node 53 0 1 1 NullActivation
node 54 0 1 1 NullActivation
node 55 0 1 1 NullActivation
node 56 0 0 2 SigmoidBipolarActivation
gene 1 1 56 -0.807941080954808 false 1 -0.807941080954808 true
genomeend 68
/* Organism #51 Fitness: 2.000 Error: 0.000 */
genomestart 51
trait 1 0.1 0 0 0 0 0 0 0
trait 2 0.2 0 0 0 0 0 0 0
trait 3 0.3 0 0 0 0 0 0 0
trait 4 0.4 0 0 0 0 0 0 0
trait 5 0.5 0 0 0 0 0 0 0
trait 6 0.6 0 0 0 0 0 0 0
trait 7 0.7 0 0 0 0 0 0 0
trait 8 0.8 0 0 0 0 0 0 0
trait 9 0.9 0 0 0 0 0 0 0
trait 10 1 0 0 0 0 0 0 0
trait 11 1.1 0 0 0 0 0 0 0
trait 12 1.2 0 0 0 0 0 0 0
trait 13 1.3 0 0 0 0 0 0 0
trait 14 1.4 0 0 0 0 0 0 0
trait 15 1.5 0 0 0 0 0 0 0
node 1 0 1 3 NullActivation
node 2 0 1 1 NullActivation
node 3 0 1 1 NullActivation
node 4 0 1 1 NullActivation
node 5 0 1 1 NullActivation
node 6 0 1 1 NullActivation
node 7 0 1 1 NullActivation
node 8 0 1 1 NullActivation
node 9 0 1 1 NullActivation
node 10 0 1 1 NullActivation
node 11 0 1 1 NullActivation
node 12 0 1 1 NullActivation
node 13 0 1 1 NullActivation
node 14 0 1 1 NullActivation
node 15 0 1 1 NullActivation
node 16 0 1 1 NullActivation
node 17 0 1 1 NullActivation
node 18 0 1 1 NullActivation
node 19 0 1 1 NullActivation
node 20 0 1 1 NullActivation
node 21 0 1 1 NullActivation
node 22 0 1 1 NullActivation
node 23 0 1 1 NullActivation
node 24 0 1 1 NullActivation
node 25 0 1 1 NullActivation
node 26 0 1 1 NullActivation
node 27 0 1 1 NullActivation
node 28 0 1 1 NullActivation
node 29 0 1 1 NullActivation
node 30 0 1 1 NullActivation
node 31 0 1 1 NullActivation
node 32 0 1 1 NullActivation
node 33 0 1 1 NullActivation
node 34 0 1 1 NullActivation
node 35 0 1 1 NullActivation
node 36 0 1 1 NullActivation
node 37 0 1 1 NullActivation
node 38 0 1 1 NullActivation
node 39 0 1 1 NullActivation
node 40 0 1 1 NullActivation
node 41 0 1 1 NullActivation
node 42 0 1 1 NullActivation
node 43 0 1 1 NullActivation
node 44 0 1 1 NullActivation
node 45 0 1 1 NullActivation
node 46 0 1 1 NullActivation
node 47 0 1 1 NullActivation
node 48 0 1 1 NullActivation
node 49 0 1 1 NullActivation
node 50 0 1 1 NullActivation
node 51 0 1 1 NullActivation
node 52 0 1 1 NullActivation
node 53 0 1 1 NullActivation
node 54 0 1 1 NullActivation
node 55 0 1 1 NullActivation
node 56 0 0 2 SigmoidBipolarActivation
gene 1 1 56 0.9777634773577185 false 1 0.9777634773577185 true
genomeend 51
/* Organism #45 Fitness: 2.000 Error: 0.000 */
genomestart 45
trait 1 0.1 0 0 0 0 0 0 0
trait 2 0.2 0 0 0 0 0 0 0
trait 3 0.3 0 0 0 0 0 0 0
trait 4 0.4 0 0 0 0 0 0 0
trait 5 0.5 0 0 0 0 0 0 0
trait 6 0.6 0 0 0 0 0 0 0
trait 7 0.7 0 0 0 0 0 0 0
trait 8 0.8 0 0 0 0 0 0 0
trait 9 0.9 0 0 0 0 0 0 0
trait 10 1 0 0 0 0 0 0 0
trait 11 1.1 0 0 0 0 0 0 0
trait 12 1.2 0 0 0 0 0 0 0
trait 13 1.3 0 0 0 0 0 0 0
trait 14 1.4 0 0 0 0 0 0 0
trait 15 1.5 0 0 0 0 0 0 0
node 1 0 1 3 NullActivation
node 2 0 1 1 NullActivation
node 3 0 1 1 NullActivation
node 4 0 1 1 NullActivation
node 5 0 1 1 NullActivation
node 6 0 1 1 NullActivation
node 7 0 1 1 NullActivation
node 8 0 1 1 NullActivation
node 9 0 1 1 NullActivation
node 10 0 1 1 NullActivation
node 11 0 1 1 NullActivation
node 12 0 1 1 NullActivation
node 13 0 1 1 NullActivation
node 14 0 1 1 NullActivation
node 15 0 1 1 NullActivation
node 16 0 1 1 NullActivation
node 17 0 1 1 NullActivation
node 18 0 1 1 NullActivation
node 19 0 1 1 NullActivation
node 20 0 1 1 NullActivation
node 21 0 1 1 NullActivation
node 22 0 1 1 NullActivation
node 23 0 1 1 NullActivation
node 24 0 1 1 NullActivation
node 25 0 1 1 NullActivation
node 26 0 1 1 NullActivation
node 27 0 1 1 NullActivation
node 28 0 1 1 NullActivation
node 29 0 1 1 NullActivation
node 30 0 1 1 NullActivation
node 31 0 1 1 NullActivation
node 32 0 1 1 NullActivation
node 33 0 1 1 NullActivation
node 34 0 1 1 NullActivation
node 35 0 1 1 NullActivation
node 36 0 1 1 NullActivation
node 37 0 1 1 NullActivation
node 38 0 1 1 NullActivation
node 39 0 1 1 NullActivation
node 40 0 1 1 NullActivation
node 41 0 1 1 NullActivation
node 42 0 1 1 NullActivation
node 43 0 1 1 NullActivation
node 44 0 1 1 NullActivation
node 45 0 1 1 NullActivation
node 46 0 1 1 NullActivation
node 47 0 1 1 NullActivation
node 48 0 1 1 NullActivation
node 49 0 1 1 NullActivation
node 50 0 1 1 NullActivation
node 51 0 1 1 NullActivation
node 52 0 1 1 NullActivation
node 53 0 1 1 NullActivation
node 54 0 1 1 NullActivation
node 55 0 1 1 NullActivation
node 56 0 0 2 SigmoidBipolarActivation
gene 1 1 56 0.021533783325605065 false 1 0.021533783325605065 true
genomeend 45
/* Organism #36 Fitness: 2.000 Error: 0.000 */
genomestart 36
trait 1 0.1 0 0 0 0 0 0 0
trait 2 0.2 0 0 0 0 0 0 0
trait 3 0.3 0 0 0 0 0 0 0
trait 4 0.4 0 0 0 0 0 0 0
trait 5 0.5 0 0 0 0 0 0 0
trait 6 0.6 0 0 0 0 0 0 0
trait 7 0.7 0 0 0 0 0 0 0
trait 8 0.8 0 0 0 0 0 0 0
trait 9 0.9 0 0 0 0 0 0 0
trait 10 1 0 0 0 0 0 0 0
trait 11 1.1 0 0 0 0 0 0 0
trait 12 1.2 0 0 0 0 0 0 0
trait 13 1.3 0 0 0 0 0 0 0
trait 14 1.4 0 0 0 0 0 0 0
trait 15 1.5 0 0 0 0 0 0 0
node 1 0 1 3 NullActivation
node 2 0 1 1 NullActivation
node 3 0 1 1 NullActivation
node 4 0 1 1 NullActivation
node 5 0 1 1 NullActivation
node 6 0 1 1 NullActivation
node 7 0 1 1 NullActivation
node 8 0 1 1 NullActivation
node 9 0 1 1 NullActivation
node 10 0 1 1 NullActivation
node 11 0 1 1 NullActivation
node 12 0 1 1 NullActivation
node 13 0 1 1 NullActivation
node 14 0 1 1 NullActivation
node 15 0 1 1 NullActivation
node 16 0 1 1 NullActivation
node 17 0 1 1 NullActivation
node 18 0 1 1 NullActivation
node 19 0 1 1 NullActivation
node 20 0 1 1 NullActivation
node 21 0 1 1 NullActivation
node 22 0 1 1 NullActivation
node 23 0 1 1 NullActivation
node 24 0 1 1 NullActivation
node 25 0 1 1 NullActivation
node 26 0 1 1 NullActivation
node 27 0 1 1 NullActivation
node 28 0 1 1 NullActivation
node 29 0 1 1 NullActivation
node 30 0 1 1 NullActivation
node 31 0 1 1 NullActivation
node 32 0 1 1 NullActivation
node 33 0 1 1 NullActivation
node 34 0 1 1 NullActivation
node 35 0 1 1 NullActivation
node 36 0 1 1 NullActivation
node 37 0 1 1 NullActivation
node 38 0 1 1 NullActivation
node 39 0 1 1 NullActivation
node 40 0 1 1 NullActivation
node 41 0 1 1 NullActivation
node 42 0 1 1 NullActivation
node 43 0 1 1 NullActivation
node 44 0 1 1 NullActivation
node 45 0 1 1 NullActivation
node 46 0 1 1 NullActivation
node 47 0 1 1 NullActivation
node 48 0 1 1 NullActivation
node 49 0 1 1 NullActivation
node 50 0 1 1 NullActivation
node 51 0 1 1 NullActivation
node 52 0 1 1 NullActivation
node 53 0 1 1 NullActivation
node 54 0 1 1 NullActivation
node 55 0 1 1 NullActivation
node 56 0 0 2 SigmoidBipolarActivation
gene 1 1 56 0.3152080853201245 false 1 0.3152080853201245 true
genomeend 36
/* Organism #0 Fitness: 2.000 Error: 0.000 */
genomestart 0
trait 1 0.1 0 0 0 0 0 0 0
trait 2 0.2 0 0 0 0 0 0 0
trait 3 0.3 0 0 0 0 0 0 0
trait 4 0.4 0 0 0 0 0 0 0
trait 5 0.5 0 0 0 0 0 0 0
trait 6 0.6 0 0 0 0 0 0 0
trait 7 0.7 0 0 0 0 0 0 0
trait 8 0.8 0 0 0 0 0 0 0
trait 9 0.9 0 0 0 0 0 0 0
trait 10 1 0 0 0 0 0 0 0
trait 11 1.1 0 0 0 0 0 0 0
trait 12 1.2 0 0 0 0 0 0 0
trait 13 1.3 0 0 0 0 0 0 0
trait 14 1.4 0 0 0 0 0 0 0
trait 15 1.5 0 0 0 0 0 0 0
node 1 0 1 3 NullActivation
node 2 0 1 1 NullActivation
node 3 0 1 1 NullActivation
node 4 0 1 1 NullActivation
node 5 0 1 1 NullActivation
node 6 0 1 1 NullActivation
node 7 0 1 1 NullActivation
node 8 0 1 1 NullActivation
node 9 0 1 1 NullActivation
node 10 0 1 1 NullActivation
node 11 0 1 1 NullActivation
node 12 0 1 1 NullActivation
node 13 0 1 1 NullActivation
node 14 0 1 1 NullActivation
node 15 0 1 1 NullActivation
node 16 0 1 1 NullActivation
node 17 0 1 1 NullActivation
node 18 0 1 1 NullActivation
node 19 0 1 1 NullActivation
node 20 0 1 1 NullActivation
node 21 0 1 1 NullActivation
node 22 0 1 1 NullActivation
node 23 0 1 1 NullActivation
node 24 0 1 1 NullActivation
node 25 0 1 1 NullActivation
node 26 0 1 1 NullActivation
node 27 0 1 1 NullActivation
node 28 0 1 1 NullActivation
node 29 0 1 1 NullActivation
node 30 0 1 1 NullActivation
node 31 0 1 1 NullActivation
node 32 0 1 1 NullActivation
node 33 0 1 1 NullActivation
node 34 0 1 1 NullActivation
node 35 0 1 1 NullActivation
node 36 0 1 1 NullActivation
node 37 0 1 1 NullActivation
node 38 0 1 1 NullActivation
node 39 0 1 1 NullActivation
node 40 0 1 1 NullActivation
node 41 0 1 1 NullActivation
node 42 0 1 1 NullActivation
node 43 0 1 1 NullActivation
node 44 0 1 1 NullActivation
node 45 0 1 1 NullActivation
node 46 0 1 1 NullActivation
node 47 0 1 1 NullActivation
node 48 0 1 1 NullActivation
node 49 0 1 1 NullActivation
node 50 0 1 1 NullActivation
node 51 0 1 1 NullActivation
node 52 0 1 1 NullActivation
node 53 0 1 1 NullActivation
node 54 0 1 1 NullActivation
node 55 0 1 1 NullActivation
node 56 0 0 2 SigmoidBipolarActivation
gene 1 1 56 0.6645600532184904 false 1 0.6645600532184904 true
genomeend 0
/* Organism #255 Fitness: 1.000 Error: 0.000 */
genomestart 255
trait 1 0.1 0 0 0 0 0 0 0
trait 2 0.2 0 0 0 0 0 0 0
trait 3 0.3 0 0 0 0 0 0 0
trait 4 0.4 0 0 0 0 0 0 0
trait 5 0.5 0 0 0 0 0 0 0
trait 6 0.6 0 0 0 0 0 0 0
trait 7 0.7 0 0 0 0 0 0 0
trait 8 0.8 0 0 0 0 0 0 0
trait 9 0.9 0 0 0 0 0 0 0
trait 10 1 0 0 0 0 0 0 0
trait 11 1.1 0 0 0 0 0 0 0
trait 12 1.2 0 0 0 0 0 0 0
trait 13 1.3 0 0 0 0 0 0 0
trait 14 1.4 0 0 0 0 0 0 0
trait 15 1.5 0 0 0 0 0 0 0
node 1 0 1 3 NullActivation
node 2 0 1 1 NullActivation
node 3 0 1 1 NullActivation
node 4 0 1 1 NullActivation
node 5 0 1 1 NullActivation
node 6 0 1 1 NullActivation
node 7 0 1 1 NullActivation
node 8 0 1 1 NullActivation
node 9 0 1 1 NullActivation
node 10 0 1 1 NullActivation
node 11 0 1 1 NullActivation
node 12 0 1 1 NullActivation
node 13 0 1 1 NullActivation
node 14 0 1 1 NullActivation
node 15 0 1 1 NullActivation
node 16 0 1 1 NullActivation
node 17 0 1 1 NullActivation
node 18 0 1 1 NullActivation
node 19 0 1 1 NullActivation
node 20 0 1 1 NullActivation
node 21 0 1 1 NullActivation
node 22 0 1 1 NullActivation
node 23 0 1 1 NullActivation
node 24 0 1 1 NullActivation
node 25 0 1 1 NullActivation
node 26 0 1 1 NullActivation
node 27 0 1 1 NullActivation
node 28 0 1 1 NullActivation
node 29 0 1 1 NullActivation
node 30 0 1 1 NullActivation
node 31 0 1 1 NullActivation
node 32 0 1 1 NullActivation
node 33 0 1 1 NullActivation
node 34 0 1 1 NullActivation
node 35 0 1 1 NullActivation
node 36 0 1 1 NullActivation
node 37 0 1 1 NullActivation
node 38 0 1 1 NullActivation
node 39 0 1 1 NullActivation
node 40 0 1 1 NullActivation
node 41 0 1 1 NullActivation
node 42 0 1 1 NullActivation
node 43 0 1 1 NullActivation
node 44 0 1 1 NullActivation
node 45 0 1 1 NullActivation
node 46 0 1 1 NullActivation
node 47 0 1 1 NullActivation
node 48 0 1 1 NullActivation
node 49 0 1 1 NullActivation
node 50 0 1 1 NullActivation
node 51 0 1 1 NullActivation
node 52 0 1 1 NullActivation
node 53 0 1 1 NullActivation
node 54 0 1 1 NullActivation
node 55 0 1 1 NullActivation
node 56 0 0 2 SigmoidBipolarActivation
gene 1 1 56 0.2914205990607264 false 1 0.2914205990607264 true
genomeend 255
/* Organism #252 Fitness: 1.000 Error: 0.000 */
genomestart 252
trait 1 0.1 0 0 0 0 0 0 0
trait 2 0.2 0 0 0 0 0 0 0
trait 3 0.3 0 0 0 0 0 0 0
trait 4 0.4 0 0 0 0 0 0 0
trait 5 0.5 0 0 0 0 0 0 0
trait 6 0.6 0 0 0 0 0 0 0
trait 7 0.7 0 0 0 0 0 0 0
trait 8 0.8 0 0 0 0 0 0 0
trait 9 0.9 0 0 0 0 0 0 0
trait 10 1 0 0 0 0 0 0 0
trait 11 1.1 0 0 0 0 0 0 0
trait 12 1.2 0 0 0 0 0 0 0
trait 13 1.3 0 0 0 0 0 0 0
trait 14 1.4 0 0 0 0 0 0 0
trait 15 1.5 0 0 0 0 0 0 0
node 1 0 1 3 NullActivation
node 2 0 1 1 NullActivation
node 3 0 1 1 NullActivation
node 4 0 1 1 NullActivation
node 5 0 1 1 NullActivation
node 6 0 1 1 NullActivation
node 7 0 1 1 NullActivation
node 8 0 1 1 NullActivation
node 9 0 1 1 NullActivation
node 10 0 1 1 NullActivation
node 11 0 1 1 NullActivation
node 12 0 1 1 NullActivation
node 13 0 1 1 NullActivation
node 14 0 1 1 NullActivation
node 15 0 1 1 NullActivation
node 16 0 1 1 NullActivation
node 17 0 1 1 NullActivation
node 18 0 1 1 NullActivation
node 19 0 1 1 NullActivation
node 20 0 1 1 NullActivation
node 21 0 1 1 NullActivation
node 22 0 1 1 NullActivation
node 23 0 1 1 NullActivation
node 24 0 1 1 NullActivation
node 25 0 1 1 NullActivation
node 26 0 1 1 NullActivation
node 27 0 1 1 NullActivation
node 28 0 1 1 NullActivation
node 29 0 1 1 NullActivation
node 30 0 1 1 NullActivation
node 31 0 1 1 NullActivation
node 32 0 1 1 NullActivation
node 33 0 1 1 NullActivation
node 34 0 1 1 NullActivation
node 35 0 1 1 NullActivation
node 36 0 1 1 NullActivation
node 37 0 1 1 NullActivation
node 38 0 1 1 NullActivation
node 39 0 1 1 NullActivation
node 40 0 1 1 NullActivation
node 41 0 1 1 NullActivation
node 42 0 1 1 NullActivation
node 43 0 1 1 NullActivation
node 44 0 1 1 NullActivation
node 45 0 1 1 NullActivation
node 46 0 1 1 NullActivation
node 47 0 1 1 NullActivation
node 48 0 1 1 NullActivation
node 49 0 1 1 NullActivation
node 50 0 1 1 NullActivation
node 51 0 1 1 NullActivation
node 52 0 1 1 NullActivation
node 53 0 1 1 NullActivation
node 54 0 1 1 NullActivation
node 55 0 1 1 NullActivation
node 56 0 0 2 SigmoidBipolarActivation
gene 1 1 56 0.7750979313969972 false 1 0.7750979313969972 true
genomeend 252
/* Organism #250 Fitness: 1.000 Error: 0.000 */
genomestart 250
trait 1 0.1 0 0 0 0 0 0 0
trait 2 0.2 0 0 0 0 0 0 0
trait 3 0.3 0 0 0 0 0 0 0
trait 4 0.4 0 0 0 0 0 0 0
trait 5 0.5 0 0 0 0 0 0 0
trait 6 0.6 0 0 0 0 0 0 0
trait 7 0.7 0 0 0 0 0 0 0
trait 8 0.8 0 0 0 0 0 0 0
trait 9 0.9 0 0 0 0 0 0 0
trait 10 1 0 0 0 0 0 0 0
trait 11 1.1 0 0 0 0 0 0 0
trait 12 1.2 0 0 0 0 0 0 0
trait 13 1.3 0 0 0 0 0 0 0
trait 14 1.4 0 0 0 0 0 0 0
trait 15 1.5 0 0 0 0 0 0 0
node 1 0 1 3 NullActivation
node 2 0 1 1 NullActivation
node 3 0 1 1 NullActivation
node 4 0 1 1 NullActivation
node 5 0 1 1 NullActivation
node 6 0 1 1 NullActivation
node 7 0 1 1 NullActivation
node 8 0 1 1 NullActivation
node 9 0 1 1 NullActivation
node 10 0 1 1 NullActivation
node 11 0 1 1 NullActivation
node 12 0 1 1 NullActivation
node 13 0 1 1 NullActivation
node 14 0 1 1 NullActivation
node 15 0 1 1 NullActivation
node 16 0 1 1 NullActivation
node 17 0 1 1 NullActivation
node 18 0 1 1 NullActivation
node 19 0 1 1 NullActivation
node 20 0 1 1 NullActivation
node 21 0 1 1 NullActivation
node 22 0 1 1 NullActivation
node 23 0 1 1 NullActivation
node 24 0 1 1 NullActivation
node 25 0 1 1 NullActivation
node 26 0 1 1 NullActivation
node 27 0 1 1 NullActivation
node 28 0 1 1 NullActivation
node 29 0 1 1 NullActivation
node 30 0 1 1 NullActivation
node 31 0 1 1 NullActivation
node 32 0 1 1 NullActivation
node 33 0 1 1 NullActivation
node 34 0 1 1 NullActivation
node 35 0 1 1 NullActivation
node 36 0 1 1 NullActivation
node 37 0 1 1 NullActivation
node 38 0 1 1 NullActivation
node 39 0 1 1 NullActivation
node 40 0 1 1 NullActivation
node 41 0 1 1 NullActivation
node 42 0 1 1 NullActivation
node 43 0 1 1 NullActivation
node 44 0 1 1 NullActivation
node 45 0 1 1 NullActivation
node 46 0 1 1 NullActivation
node 47 0 1 1 NullActivation
node 48 0 1 1 NullActivation
node 49 0 1 1 NullActivation
node 50 0 1 1 NullActivation
node 51 0 1 1 NullActivation
node 52 0 1 1 NullActivation
node 53 0 1 1 NullActivation
node 54 0 1 1 NullActivation
node 55 0 1 1 NullActivation
node 56 0 0 2 SigmoidBipolarActivation
gene 1 1 56 -0.02044665638899436 false 1 -0.02044665638899436 true
genomeend 250
/* Organism #249 Fitness: 1.000 Error: 0.000 */
genomestart 249
trait 1 0.1 0 0 0 0 0 0 0
trait 2 0.2 0 0 0 0 0 0 0
trait 3 0.3 0 0 0 0 0 0 0
trait 4 0.4 0 0 0 0 0 0 0
trait 5 0.5 0 0 0 0 0 0 0
trait 6 0.6 0 0 0 0 0 0 0
trait 7 0.7 0 0 0 0 0 0 0
trait 8 0.8 0 0 0 0 0 0 0
trait 9 0.9 0 0 0 0 0 0 0
trait 10 1 0 0 0 0 0 0 0
trait 11 1.1 0 0 0 0 0 0 0
trait 12 1.2 0 0 0 0 0 0 0
trait 13 1.3 0 0 0 0 0 0 0
trait 14 1.4 0 0 0 0 0 0 0
trait 15 1.5 0 0 0 0 0 0 0
node 1 0 1 3 NullActivation
node 2 0 1 1 NullActivation
node 3 0 1 1 NullActivation
node 4 0 1 1 NullActivation
node 5 0 1 1 NullActivation
node 6 0 1 1 NullActivation
node 7 0 1 1 NullActivation
node 8 0 1 1 NullActivation
node 9 0 1 1 NullActivation
node 10 0 1 1 NullActivation
node 11 0 1 1 NullActivation
node 12 0 1 1 NullActivation
node 13 0 1 1 NullActivation
node 14 0 1 1 NullActivation
node 15 0 1 1 NullActivation
node 16 0 1 1 NullActivation
node 17 0 1 1 NullActivation
node 18 0 1 1 NullActivation
node 19 0 1 1 NullActivation
node 20 0 1 1 NullActivation
node 21 0 1 1 NullActivation
node 22 0 1 1 NullActivation
node 23 0 1 1 NullActivation
node 24 0 1 1 NullActivation
node 25 0 1 1 NullActivation
node 26 0 1 1 NullActivation
node 27 0 1 1 NullActivation
node 28 0 1 1 NullActivation
node 29 0 1 1 NullActivation
node 30 0 1 1 NullActivation
node 31 0 1 1 NullActivation
node 32 0 1 1 NullActivation
node 33 0 1 1 NullActivation
node 34 0 1 1 NullActivation
node 35 0 1 1 NullActivation
node 36 0 1 1 NullActivation
node 37 0 1 1 NullActivation
node 38 0 1 1 NullActivation
node 39 0 1 1 NullActivation
node 40 0 1 1 NullActivation
node 41 0 1 1 NullActivation
node 42 0 1 1 NullActivation
node 43 0 1 1 NullActivation
node 44 0 1 1 NullActivation
node 45 0 1 1 NullActivation
node 46 0 1 1 NullActivation
node 47 0 1 1 NullActivation
node 48 0 1 1 NullActivation
node 49 0 1 1 NullActivation
node 50 0 1 1 NullActivation
node 51 0 1 1 NullActivation
node 52 0 1 1 NullActivation
node 53 0 1 1 NullActivation
node 54 0 1 1 NullActivation
node 55 0 1 1 NullActivation
node 56 0 0 2 SigmoidBipolarActivation
gene 1 1 56 -0.3978107243486015 false 1 -0.3978107243486015 true
genomeend 249
/* Organism #248 Fitness: 1.000 Error: 0.000 */
genomestart 248
trait 1 0.1 0 0 0 0 0 0 0
trait 2 0.2 0 0 0 0 0 0 0
trait 3 0.3 0 0 0 0 0 0 0
trait 4 0.4 0 0 0 0 0 0 0
trait 5 0.5 0 0 0 0 0 0 0
trait 6 0.6 0 0 0 0 0 0 0
trait 7 0.7 0 0 0 0 0 0 0
trait 8 0.8 0 0 0 0 0 0 0
trait 9 0.9 0 0 0 0 0 0 0
trait 10 1 0 0 0 0 0 0 0
trait 11 1.1 0 0 0 0 0 0 0
trait 12 1.2 0 0 0 0 0 0 0
trait 13 1.3 0 0 0 0 0 0 0
trait 14 1.4 0 0 0 0 0 0 0
trait 15 1.5 0 0 0 0 0 0 0
node 1 0 1 3 NullActivation
node 2 0 1 1 NullActivation
node 3 0 1 1 NullActivation
node 4 0 1 1 NullActivation
node 5 0 1 1 NullActivation
node 6 0 1 1 NullActivation
node 7 0 1 1 NullActivation
node 8 0 1 1 NullActivation
node 9 0 1 1 NullActivation
node 10 0 1 1 NullActivation
node 11 0 1 1 NullActivation
node 12 0 1 1 NullActivation
node 13 0 1 1 NullActivation
node 14 0 1 1 NullActivation
node 15 0 1 1 NullActivation
node 16 0 1 1 NullActivation
node 17 0 1 1 NullActivation
node 18 0 1 1 NullActivation
node 19 0 1 1 NullActivation
node 20 0 1 1 NullActivation
node 21 0 1 1 NullActivation
node 22 0 1 1 NullActivation
node 23 0 1 1 NullActivation
node 24 0 1 1 NullActivation
node 25 0 1 1 NullActivation
node 26 0 1 1 NullActivation
node 27 0 1 1 NullActivation
node 28 0 1 1 NullActivation
node 29 0 1 1 NullActivation
node 30 0 1 1 NullActivation
node 31 0 1 1 NullActivation
node 32 0 1 1 NullActivation
node 33 0 1 1 NullActivation
node 34 0 1 1 NullActivation
node 35 0 1 1 NullActivation
node 36 0 1 1 NullActivation
node 37 0 1 1 NullActivation
node 38 0 1 1 NullActivation
node 39 0 1 1 NullActivation
node 40 0 1 1 NullActivation
node 41 0 1 1 NullActivation
node 42 0 1 1 NullActivation
node 43 0 1 1 NullActivation
node 44 0 1 1 NullActivation
node 45 0 1 1 NullActivation
node 46 0 1 1 NullActivation
node 47 0 1 1 NullActivation
node 48 0 1 1 NullActivation
node 49 0 1 1 NullActivation
node 50 0 1 1 NullActivation
node 51 0 1 1 NullActivation
node 52 0 1 1 NullActivation
node 53 0 1 1 NullActivation
node 54 0 1 1 NullActivation
node 55 0 1 1 NullActivation
node 56 0 0 2 SigmoidBipolarActivation
gene 1 1 56 -0.22128983282692316 false 1 -0.22128983282692316 true
genomeend 248
/* Organism #247 Fitness: 1.000 Error: 0.000 */
genomestart 247
trait 1 0.1 0 0 0 0 0 0 0
trait 2 0.2 0 0 0 0 0 0 0
trait 3 0.3 0 0 0 0 0 0 0
trait 4 0.4 0 0 0 0 0 0 0
trait 5 0.5 0 0 0 0 0 0 0
trait 6 0.6 0 0 0 0 0 0 0
trait 7 0.7 0 0 0 0 0 0 0
trait 8 0.8 0 0 0 0 0 0 0
trait 9 0.9 0 0 0 0 0 0 0
trait 10 1 0 0 0 0 0 0 0
trait 11 1.1 0 0 0 0 0 0 0
trait 12 1.2 0 0 0 0 0 0 0
trait 13 1.3 0 0 0 0 0 0 0
trait 14 1.4 0 0 0 0 0 0 0
trait 15 1.5 0 0 0 0 0 0 0
node 1 0 1 3 NullActivation
node 2 0 1 1 NullActivation
node 3 0 1 1 NullActivation
node 4 0 1 1 NullActivation
node 5 0 1 1 NullActivation
node 6 0 1 1 NullActivation
node 7 0 1 1 NullActivation
node 8 0 1 1 NullActivation
node 9 0 1 1 NullActivation
node 10 0 1 1 NullActivation
node 11 0 1 1 NullActivation
node 12 0 1 1 NullActivation
node 13 0 1 1 NullActivation
node 14 0 1 1 NullActivation
node 15 0 1 1 NullActivation
node 16 0 1 1 NullActivation
node 17 0 1 1 NullActivation
node 18 0 1 1 NullActivation
node 19 0 1 1 NullActivation
node 20 0 1 1 NullActivation
node 21 0 1 1 NullActivation
node 22 0 1 1 NullActivation
node 23 0 1 1 NullActivation
node 24 0 1 1 NullActivation
node 25 0 1 1 NullActivation
node 26 0 1 1 NullActivation
node 27 0 1 1 NullActivation
node 28 0 1 1 NullActivation
node 29 0 1 1 NullActivation
node 30 0 1 1 NullActivation
node 31 0 1 1 NullActivation
node 32 0 1 1 NullActivation
node 33 0 1 1 NullActivation
node 34 0 1 1 NullActivation
node 35 0 1 1 NullActivation
node 36 0 1 1 NullActivation
node 37 0 1 1 NullActivation
node 38 0 1 1 NullActivation
node 39 0 1 1 NullActivation
node 40 0 1 1 NullActivation
node 41 0 1 1 NullActivation
node 42 0 1 1 NullActivation
node 43 0 1 1 NullActivation
node 44 0 1 1 NullActivation
node 45 0 1 1 NullActivation
node 46 0 1 1 NullActivation
node 47 0 1 1 NullActivation
node 48 0 1 1 NullActivation
node 49 0 1 1 NullActivation
node 50 0 1 1 NullActivation
node 51 0 1 1 NullActivation
node 52 0 1 1 NullActivation
node 53 0 1 1 NullActivation
node 54 0 1 1 NullActivation
node 55 0 1 1 NullActivation
node 56 0 0 2 SigmoidBipolarActivation
gene 1 1 56 -0.9035787339244058 false 1 -0.9035787339244058 true
genomeend 247
/* Organism #241 Fitness: 1.000 Error: 0.000 */
genomestart 241
trait 1 0.1 0 0 0 0 0 0 0
trait 2 0.2 0 0 0 0 0 0 0
trait 3 0.3 0 0 0 0 0 0 0
trait 4 0.4 0 0 0 0 0 0 0
trait 5 0.5 0 0 0 0 0 0 0
trait 6 0.6 0 0 0 0 0 0 0
trait 7 0.7 0 0 0 0 0 0 0
trait 8 0.8 0 0 0 0 0 0 0
trait 9 0.9 0 0 0 0 0 0 0
trait 10 1 0 0 0 0 0 0 0
trait 11 1.1 0 0 0 0 0 0 0
trait 12 1.2 0 0 0 0 0 0 0
trait 13 1.3 0 0 0 0 0 0 0
trait 14 1.4 0 0 0 0 0 0 0
trait 15 1.5 0 0 0 0 0 0 0
node 1 0 1 3 NullActivation
node 2 0 1 1 NullActivation
node 3 0 1 1 NullActivation
node 4 0 1 1 NullActivation
node 5 0 1 1 NullActivation
node 6 0 1 1 NullActivation
node 7 0 1 1 NullActivation
node 8 0 1 1 NullActivation
node 9 0 1 1 NullActivation
node 10 0 1 1 NullActivation
node 11 0 1 1 NullActivation
node 12 0 1 1 NullActivation
node 13 0 1 1 NullActivation
node 14 0 1 1 NullActivation
node 15 0 1 1 NullActivation
node 16 0 1 1 NullActivation
node 17 0 1 1 NullActivation
node 18 0 1 1 NullActivation
node 19 0 1 1 NullActivation
node 20 0 1 1 NullActivation
node 21 0 1 1 NullActivation
node 22 0 1 1 NullActivation
node 23 0 1 1 NullActivation
node 24 0 1 1 NullActivation
node 25 0 1 1 NullActivation
node 26 0 1 1 NullActivation
node 27 0 1 1 NullActivation
node 28 0 1 1 NullActivation
node 29 0 1 1 NullActivation
node 30 0 1 1 NullActivation
node 31 0 1 1 NullActivation
node 32 0 1 1 NullActivation
node 33 0 1 1 NullActivation
node 34 0 1 1 NullActivation
node 35 0 1 1 NullActivation
node 36 0 1 1 NullActivation
node 37 0 1 1 NullActivation
node 38 0 1 1 NullActivation
node 39 0 1 1 NullActivation
node 40 0 1 1 NullActivation
node 41 0 1 1 NullActivation
node 42 0 1 1 NullActivation
node 43 0 1 1 NullActivation
node 44 0 1 1 NullActivation
node 45 0 1 1 NullActivation
node 46 0 1 1 NullActivation
node 47 0 1 1 NullActivation
node 48 0 1 1 NullActivation
node 49 0 1 1 NullActivation
node 50 0 1 1 NullActivation
node 51 0 1 1 NullActivation
node 52 0 1 1 NullActivation
node 53 0 1 1 NullActivation
node 54 0 1 1 NullActivation
node 55 0 1 1 NullActivation
node 56 0 0 2 SigmoidBipolarActivation
gene 1 1 56 -0.3689658395947147 false 1 -0.3689658395947147 true
genomeend 241
/* Organism #240 Fitness: 1.000 Error: 0.000 */
genomestart 240
trait 1 0.1 0 0 0 0 0 0 0
trait 2 0.2 0 0 0 0 0 0 0
trait 3 0.3 0 0 0 0 0 0 0
trait 4 0.4 0 0 0 0 0 0 0
trait 5 0.5 0 0 0 0 0 0 0
trait 6 0.6 0 0 0 0 0 0 0
trait 7 0.7 0 0 0 0 0 0 0
trait 8 0.8 0 0 0 0 0 0 0
trait 9 0.9 0 0 0 0 0 0 0
trait 10 1 0 0 0 0 0 0 0
trait 11 1.1 0 0 0 0 0 0 0
trait 12 1.2 0 0 0 0 0 0 0
trait 13 1.3 0 0 0 0 0 0 0
trait 14 1.4 0 0 0 0 0 0 0
trait 15 1.5 0 0 0 0 0 0 0
node 1 0 1 3 NullActivation
node 2 0 1 1 NullActivation
node 3 0 1 1 NullActivation
node 4 0 1 1 NullActivation
node 5 0 1 1 NullActivation
node 6 0 1 1 NullActivation
node 7 0 1 1 NullActivation
node 8 0 1 1 NullActivation
node 9 0 1 1 NullActivation
node 10 0 1 1 NullActivation
node 11 0 1 1 NullActivation
node 12 0 1 1 NullActivation
node 13 0 1 1 NullActivation
node 14 0 1 1 NullActivation
node 15 0 1 1 NullActivation
node 16 0 1 1 NullActivation
node 17 0 1 1 NullActivation
node 18 0 1 1 NullActivation
node 19 0 1 1 NullActivation
node 20 0 1 1 NullActivation
node 21 0 1 1 NullActivation
node 22 0 1 1 NullActivation
node 23 0 1 1 NullActivation
node 24 0 1 1 NullActivation
node 25 0 1 1 NullActivation
node 26 0 1 1 NullActivation
node 27 0 1 1 NullActivation
node 28 0 1 1 NullActivation
node 29 0 1 1 NullActivation
node 30 0 1 1 NullActivation
node 31 0 1 1 NullActivation
node 32 0 1 1 NullActivation
node 33 0 1 1 NullActivation
node 34 0 1 1 NullActivation
node 35 0 1 1 NullActivation
node 36 0 1 1 NullActivation
node 37 0 1 1 NullActivation
node 38 0 1 1 NullActivation
node 39 0 1 1 NullActivation
node 40 0 1 1 NullActivation
node 41 0 1 1 NullActivation
node 42 0 1 1 NullActivation
node 43 0 1 1 NullActivation
node 44 0 1 1 NullActivation
node 45 0 1 1 NullActivation
node 46 0 1 1 NullActivation
node 47 0 1 1 NullActivation
node 48 0 1 1 NullActivation
node 49 0 1 1 NullActivation
node 50 0 1 1 NullActivation
node 51 0 1 1 NullActivation
node 52 0 1 1 NullActivation
node 53 0 1 1 NullActivation
node 54 0 1 1 NullActivation
node 55 0 1 1 NullActivation
node 56 0 0 2 SigmoidBipolarActivation
gene 1 1 56 0.3921277898932235 false 1 0.3921277898932235 true
genomeend 240
/* Organism #235 Fitness: 1.000 Error: 0.000 */
genomestart 235
trait 1 0.1 0 0 0 0 0 0 0
trait 2 0.2 0 0 0 0 0 0 0
trait 3 0.3 0 0 0 0 0 0 0
trait 4 0.4 0 0 0 0 0 0 0
trait 5 0.5 0 0 0 0 0 0 0
trait 6 0.6 0 0 0 0 0 0 0
trait 7 0.7 0 0 0 0 0 0 0
trait 8 0.8 0 0 0 0 0 0 0
trait 9 0.9 0 0 0 0 0 0 0
trait 10 1 0 0 0 0 0 0 0
trait 11 1.1 0 0 0 0 0 0 0
trait 12 1.2 0 0 0 0 0 0 0
trait 13 1.3 0 0 0 0 0 0 0
trait 14 1.4 0 0 0 0 0 0 0
trait 15 1.5 0 0 0 0 0 0 0
node 1 0 1 3 NullActivation
node 2 0 1 1 NullActivation
node 3 0 1 1 NullActivation
node 4 0 1 1 NullActivation
node 5 0 1 1 NullActivation
node 6 0 1 1 NullActivation
node 7 0 1 1 NullActivation
node 8 0 1 1 NullActivation
node 9 0 1 1 NullActivation
node 10 0 1 1 NullActivation
node 11 0 1 1 NullActivation
node 12 0 1 1 NullActivation
node 13 0 1 1 NullActivation
node 14 0 1 1 NullActivation
node 15 0 1 1 NullActivation
node 16 0 1 1 NullActivation
node 17 0 1 1 NullActivation
node 18 0 1 1 NullActivation
node 19 0 1 1 NullActivation
node 20 0 1 1 NullActivation
node 21 0 1 1 NullActivation
node 22 0 1 1 NullActivation
node 23 0 1 1 NullActivation
node 24 0 1 1 NullActivation
node 25 0 1 1 NullActivation
node 26 0 1 1 NullActivation
node 27 0 1 1 NullActivation
node 28 0 1 1 NullActivation
node 29 0 1 1 NullActivation
node 30 0 1 1 NullActivation
node 31 0 1 1 NullActivation
node 32 0 1 1 NullActivation
node 33 0 1 1 NullActivation
node 34 0 1 1 NullActivation
node 35 0 1 1 NullActivation
node 36 0 1 1 NullActivation
node 37 0 1 1 NullActivation
node 38 0 1 1 NullActivation
node 39 0 1 1 NullActivation
node 40 0 1 1 NullActivation
node 41 0 1 1 NullActivation
node 42 0 1 1 NullActivation
node 43 0 1 1 NullActivation
node 44 0 1 1 NullActivation
node 45 0 1 1 NullActivation
node 46 0 1 1 NullActivation
node 47 0 1 1 NullActivation
node 48 0 1 1 NullActivation
node 49 0 1 1 NullActivation
node 50 0 1 1 NullActivation
node 51 0 1 1 NullActivation
node 52 0 1 1 NullActivation
node 53 0 1 1 NullActivation
node 54 0 1 1 NullActivation
node 55 0 1 1 NullActivation
node 56 0 0 2 SigmoidBipolarActivation
gene 1 1 56 0.2930417441986804 false 1 0.2930417441986804 true
genomeend 235
/* Organism #234 Fitness: 1.000 Error: 0.000 */
genomestart 234
trait 1 0.1 0 0 0 0 0 0 0
trait 2 0.2 0 0 0 0 0 0 0
trait 3 0.3 0 0 0 0 0 0 0
trait 4 0.4 0 0 0 0 0 0 0
trait 5 0.5 0 0 0 0 0 0 0
trait 6 0.6 0 0 0 0 0 0 0
trait 7 0.7 0 0 0 0 0 0 0
trait 8 0.8 0 0 0 0 0 0 0
trait 9 0.9 0 0 0 0 0 0 0
trait 10 1 0 0 0 0 0 0 0
trait 11 1.1 0 0 0 0 0 0 0
trait 12 1.2 0 0 0 0 0 0 0
trait 13 1.3 0 0 0 0 0 0 0
trait 14 1.4 0 0 0 0 0 0 0
trait 15 1.5 0 0 0 0 0 0 0
node 1 0 1 3 NullActivation
node 2 0 1 1 NullActivation
node 3 0 1 1 NullActivation
node 4 0 1 1 NullActivation
node 5 0 1 1 NullActivation
node 6 0 1 1 NullActivation
node 7 0 1 1 NullActivation
node 8 0 1 1 NullActivation
node 9 0 1 1 NullActivation
node 10 0 1 1 NullActivation
node 11 0 1 1 NullActivation
node 12 0 1 1 NullActivation
node 13 0 1 1 NullActivation
node 14 0 1 1 NullActivation
node 15 0 1 1 NullActivation
node 16 0 1 1 NullActivation
node 17 0 1 1 NullActivation
node 18 0 1 1 NullActivation
node 19 0 1 1 NullActivation
node 20 0 1 1 NullActivation
node 21 0 1 1 NullActivation
node 22 0 1 1 NullActivation
node 23 0 1 1 NullActivation
node 24 0 1 1 NullActivation
node 25 0 1 1 NullActivation
node 26 0 1 1 NullActivation
node 27 0 1 1 NullActivation
node 28 0 1 1 NullActivation
node 29 0 1 1 NullActivation
node 30 0 1 1 NullActivation
node 31 0 1 1 NullActivation
node 32 0 1 1 NullActivation
node 33 0 1 1 NullActivation
node 34 0 1 1 NullActivation
node 35 0 1 1 NullActivation
node 36 0 1 1 NullActivation
node 37 0 1 1 NullActivation
node 38 0 1 1 NullActivation
node 39 0 1 1 NullActivation
node 40 0 1 1 NullActivation
node 41 0 1 1 NullActivation
node 42 0 1 1 NullActivation
node 43 0 1 1 NullActivation
node 44 0 1 1 NullActivation
node 45 0 1 1 NullActivation
node 46 0 1 1 NullActivation
node 47 0 1 1 NullActivation
node 48 0 1 1 NullActivation
node 49 0 1 1 NullActivation
node 50 0 1 1 NullActivation
node 51 0 1 1 NullActivation
node 52 0 1 1 NullActivation
node 53 0 1 1 NullActivation
node 54 0 1 1 NullActivation
node 55 0 1 1 NullActivation
node 56 0 0 2 SigmoidBipolarActivation
gene 1 1 56 -0.002251109357318951 false 1 -0.002251109357318951 true
genomeend 234
/* Organism #230 Fitness: 1.000 Error: 0.000 */
genomestart 230
trait 1 0.1 0 0 0 0 0 0 0
trait 2 0.2 0 0 0 0 0 0 0
trait 3 0.3 0 0 0 0 0 0 0
trait 4 0.4 0 0 0 0 0 0 0
trait 5 0.5 0 0 0 0 0 0 0
trait 6 0.6 0 0 0 0 0 0 0
trait 7 0.7 0 0 0 0 0 0 0
trait 8 0.8 0 0 0 0 0 0 0
trait 9 0.9 0 0 0 0 0 0 0
trait 10 1 0 0 0 0 0 0 0
trait 11 1.1 0 0 0 0 0 0 0
trait 12 1.2 0 0 0 0 0 0 0
trait 13 1.3 0 0 0 0 0 0 0
trait 14 1.4 0 0 0 0 0 0 0
trait 15 1.5 0 0 0 0 0 0 0
node 1 0 1 3 NullActivation
node 2 0 1 1 NullActivation
node 3 0 1 1 NullActivation
node 4 0 1 1 NullActivation
node 5 0 1 1 NullActivation
node 6 0 1 1 NullActivation
node 7 0 1 1 NullActivation
node 8 0 1 1 NullActivation
node 9 0 1 1 NullActivation
node 10 0 1 1 NullActivation
node 11 0 1 1 NullActivation
node 12 0 1 1 NullActivation
node 13 0 1 1 NullActivation
node 14 0 1 1 NullActivation
node 15 0 1 1 NullActivation
node 16 0 1 1 NullActivation
node 17 0 1 1 NullActivation
node 18 0 1 1 NullActivation
node 19 0 1 1 NullActivation
node 20 0 1 1 NullActivation
node 21 0 1 1 NullActivation
node 22 0 1 1 NullActivation
node 23 0 1 1 NullActivation
node 24 0 1 1 NullActivation
node 25 0 1 1 NullActivation
node 26 0 1 1 NullActivation
node 27 0 1 1 NullActivation
node 28 0 1 1 NullActivation
node 29 0 1 1 NullActivation
node 30 0 1 1 NullActivation
node 31 0 1 1 NullActivation
node 32 0 1 1 NullActivation
node 33 0 1 1 NullActivation
node 34 0 1 1 NullActivation
node 35 0 1 1 NullActivation
node 36 0 1 1 NullActivation
node 37 0 1 1 NullActivation
node 38 0 1 1 NullActivation
node 39 0 1 1 NullActivation
node 40 0 1 1 NullActivation
node 41 0 1 1 NullActivation
node 42 0 1 1 NullActivation
node 43 0 1 1 NullActivation
node 44 0 1 1 NullActivation
node 45 0 1 1 NullActivation
node 46 0 1 1 NullActivation
node 47 0 1 1 NullActivation
node 48 0 1 1 NullActivation
node 49 0 1 1 NullActivation
node 50 0 1 1 NullActivation
node 51 0 1 1 NullActivation
node 52 0 1 1 NullActivation
node 53 0 1 1 NullActivation
node 54 0 1 1 NullActivation
node 55 0 1 1 NullActivation
node 56 0 0 2 SigmoidBipolarActivation
gene 1 1 56 0 false 1 0 true
genomeend 230
/* Organism #228 Fitness: 1.000 Error: 0.000 */
genomestart 228
trait 1 0.1 0 0 0 0 0 0 0
trait 2 0.2 0 0 0 0 0 0 0
trait 3 0.3 0 0 0 0 0 0 0
trait 4 0.4 0 0 0 0 0 0 0
trait 5 0.5 0 0 0 0 0 0 0
trait 6 0.6 0 0 0 0 0 0 0
trait 7 0.7 0 0 0 0 0 0 0
trait 8 0.8 0 0 0 0 0 0 0
trait 9 0.9 0 0 0 0 0 0 0
trait 10 1 0 0 0 0 0 0 0
trait 11 1.1 0 0 0 0 0 0 0
trait 12 1.2 0 0 0 0 0 0 0
trait 13 1.3 0 0 0 0 0 0 0
trait 14 1.4 0 0 0 0 0 0 0
trait 15 1.5 0 0 0 0 0 0 0
node 1 0 1 3 NullActivation
node 2 0 1 1 NullActivation
node 3 0 1 1 NullActivation
node 4 0 1 1 NullActivation
node 5 0 1 1 NullActivation
node 6 0 1 1 NullActivation
node 7 0 1 1 NullActivation
node 8 0 1 1 NullActivation
node 9 0 1 1 NullActivation
node 10 0 1 1 NullActivation
node 11 0 1 1 NullActivation
node 12 0 1 1 NullActivation
node 13 0 1 1 NullActivation
node 14 0 1 1 NullActivation
node 15 0 1 1 NullActivation
node 16 0 1 1 NullActivation
node 17 0 1 1 NullActivation
node 18 0 1 1 NullActivation
node 19 0 1 1 NullActivation
node 20 0 1 1 NullActivation
node 21 0 1 1 NullActivation
node 22 0 1 1 NullActivation
node 23 0 1 1 NullActivation
node 24 0 1 1 NullActivation
node 25 0 1 1 NullActivation
node 26 0 1 1 NullActivation
node 27 0 1 1 NullActivation
node 28 0 1 1 NullActivation
node 29 0 1 1 NullActivation
node 30 0 1 1 NullActivation
node 31 0 1 1 NullActivation
node 32 0 1 1 NullActivation
node 33 0 1 1 NullActivation
node 34 0 1 1 NullActivation
node 35 0 1 1 NullActivation
node 36 0 1 1 NullActivation
node 37 0 1 1 NullActivation
node 38 0 1 1 NullActivation
node 39 0 1 1 NullActivation
node 40 0 1 1 NullActivation
node 41 0 1 1 NullActivation
node 42 0 1 1 NullActivation
node 43 0 1 1 NullActivation
node 44 0 1 1 NullActivation
node 45 0 1 1 NullActivation
node 46 0 1 1 NullActivation
node 47 0 1 1 NullActivation
node 48 0 1 1 NullActivation
node 49 0 1 1 NullActivation
node 50 0 1 1 NullActivation
node 51 0 1 1 NullActivation
node 52 0 1 1 NullActivation
node 53 0 1 1 NullActivation
node 54 0 1 1 NullActivation
node 55 0 1 1 NullActivation
node 56 0 0 2 SigmoidBipolarActivation
gene 1 1 56 -0.4078995438783604 false 1 -0.4078995438783604 true
genomeend 228
/* Organism #227 Fitness: 1.000 Error: 0.000 */
genomestart 227
trait 1 0.1 0 0 0 0 0 0 0
trait 2 0.2 0 0 0 0 0 0 0
trait 3 0.3 0 0 0 0 0 0 0
trait 4 0.4 0 0 0 0 0 0 0
trait 5 0.5 0 0 0 0 0 0 0
trait 6 0.6 0 0 0 0 0 0 0
trait 7 0.7 0 0 0 0 0 0 0
trait 8 0.8 0 0 0 0 0 0 0
trait 9 0.9 0 0 0 0 0 0 0
trait 10 1 0 0 0 0 0 0 0
trait 11 1.1 0 0 0 0 0 0 0
trait 12 1.2 0 0 0 0 0 0 0
trait 13 1.3 0 0 0 0 0 0 0
trait 14 1.4 0 0 0 0 0 0 0
trait 15 1.5 0 0 0 0 0 0 0
node 1 0 1 3 NullActivation
node 2 0 1 1 NullActivation
node 3 0 1 1 NullActivation
node 4 0 1 1 NullActivation
node 5 0 1 1 NullActivation
node 6 0 1 1 NullActivation
node 7 0 1 1 NullActivation
node 8 0 1 1 NullActivation
node 9 0 1 1 NullActivation
node 10 0 1 1 NullActivation
node 11 0 1 1 NullActivation
node 12 0 1 1 NullActivation
node 13 0 1 1 NullActivation
node 14 0 1 1 NullActivation
node 15 0 1 1 NullActivation
node 16 0 1 1 NullActivation
node 17 0 1 1 NullActivation
node 18 0 1 1 NullActivation
node 19 0 1 1 NullActivation
node 20 0 1 1 NullActivation
node 21 0 1 1 NullActivation
node 22 0 1 1 NullActivation
node 23 0 1 1 NullActivation
node 24 0 1 1 NullActivation
node 25 0 1 1 NullActivation
node 26 0 1 1 NullActivation
node 27 0 1 1 NullActivation
node 28 0 1 1 NullActivation
node 29 0 1 1 NullActivation
node 30 0 1 1 NullActivation
node 31 0 1 1 NullActivation
node 32 0 1 1 NullActivation
node 33 0 1 1 NullActivation
node 34 0 1 1 NullActivation
node 35 0 1 1 NullActivation
node 36 0 1 1 NullActivation
node 37 0 1 1 NullActivation
node 38 0 1 1 NullActivation
node 39 0 1 1 NullActivation
node 40 0 1 1 NullActivation
node 41 0 1 1 NullActivation
node 42 0 1 1 NullActivation
node 43 0 1 1 NullActivation
node 44 0 1 1 NullActivation
node 45 0 1 1 NullActivation
node 46 0 1 1 NullActivation
node 47 0 1 1 NullActivation
node 48 0 1 1 NullActivation
node 49 0 1 1 NullActivation
node 50 0 1 1 NullActivation
node 51 0 1 1 NullActivation
node 52 0 1 1 NullActivation
node 53 0 1 1 NullActivation
node 54 0 1 1 NullActivation
node 55 0 1 1 NullActivation
node 56 0 0 2 SigmoidBipolarActivation
gene 1 1 56 0.13733159253790328 false 1 0.13733159253790328 true
genomeend 227
/* Organism #217 Fitness: 1.000 Error: 0.000 */
genomestart 217
trait 1 0.1 0 0 0 0 0 0 0
trait 2 0.2 0 0 0 0 0 0 0
trait 3 0.3 0 0 0 0 0 0 0
trait 4 0.4 0 0 0 0 0 0 0
trait 5 0.5 0 0 0 0 0 0 0
trait 6 0.6 0 0 0 0 0 0 0
trait 7 0.7 0 0 0 0 0 0 0
trait 8 0.8 0 0 0 0 0 0 0
trait 9 0.9 0 0 0 0 0 0 0
trait 10 1 0 0 0 0 0 0 0
trait 11 1.1 0 0 0 0 0 0 0
trait 12 1.2 0 0 0 0 0 0 0
trait 13 1.3 0 0 0 0 0 0 0
trait 14 1.4 0 0 0 0 0 0 0
trait 15 1.5 0 0 0 0 0 0 0
node 1 0 1 3 NullActivation
node 2 0 1 1 NullActivation
node 3 0 1 1 NullActivation
node 4 0 1 1 NullActivation
node 5 0 1 1 NullActivation
node 6 0 1 1 NullActivation
node 7 0 1 1 NullActivation
node 8 0 1 1 NullActivation
node 9 0 1 1 NullActivation
node 10 0 1 1 NullActivation
node 11 0 1 1 NullActivation
node 12 0 1 1 NullActivation
node 13 0 1 1 NullActivation
node 14 0 1 1 NullActivation
node 15 0 1 1 NullActivation
node 16 0 1 1 NullActivation
node 17 0 1 1 NullActivation
node 18 0 1 1 NullActivation
node 19 0 1 1 NullActivation
node 20 0 1 1 NullActivation
node 21 0 1 1 NullActivation
node 22 0 1 1 NullActivation
node 23 0 1 1 NullActivation
node 24 0 1 1 NullActivation
node 25 0 1 1 NullActivation
node 26 0 1 1 NullActivation
node 27 0 1 1 NullActivation
node 28 0 1 1 NullActivation
node 29 0 1 1 NullActivation
node 30 0 1 1 NullActivation
node 31 0 1 1 NullActivation
node 32 0 1 1 NullActivation
node 33 0 1 1 NullActivation
node 34 0 1 1 NullActivation
node 35 0 1 1 NullActivation
node 36 0 1 1 NullActivation
node 37 0 1 1 NullActivation
node 38 0 1 1 NullActivation
node 39 0 1 1 NullActivation
node 40 0 1 1 NullActivation
node 41 0 1 1 NullActivation
node 42 0 1 1 NullActivation
node 43 0 1 1 NullActivation
node 44 0 1 1 NullActivation
node 45 0 1 1 NullActivation
node 46 0 1 1 NullActivation
node 47 0 1 1 NullActivation
node 48 0 1 1 NullActivation
node 49 0 1 1 NullActivation
node 50 0 1 1 NullActivation
node 51 0 1 1 NullActivation
node 52 0 1 1 NullActivation
node 53 0 1 1 NullActivation
node 54 0 1 1 NullActivation
node 55 0 1 1 NullActivation
node 56 0 0 2 SigmoidBipolarActivation
gene 1 1 56 -0.7864308302242744 false 1 -0.7864308302242744 true
genomeend 217
/* Organism #214 Fitness: 1.000 Error: 0.000 */
genomestart 214
trait 1 0.1 0 0 0 0 0 0 0
trait 2 0.2 0 0 0 0 0 0 0
trait 3 0.3 0 0 0 0 0 0 0
trait 4 0.4 0 0 0 0 0 0 0
trait 5 0.5 0 0 0 0 0 0 0
trait 6 0.6 0 0 0 0 0 0 0
trait 7 0.7 0 0 0 0 0 0 0
trait 8 0.8 0 0 0 0 0 0 0
trait 9 0.9 0 0 0 0 0 0 0
trait 10 1 0 0 0 0 0 0 0
trait 11 1.1 0 0 0 0 0 0 0
trait 12 1.2 0 0 0 0 0 0 0
trait 13 1.3 0 0 0 0 0 0 0
trait 14 1.4 0 0 0 0 0 0 0
trait 15 1.5 0 0 0 0 0 0 0
node 1 0 1 3 NullActivation
node 2 0 1 1 NullActivation
node 3 0 1 1 NullActivation
node 4 0 1 1 NullActivation
node 5 0 1 1 NullActivation
node 6 0 1 1 NullActivation
node 7 0 1 1 NullActivation
node 8 0 1 1 NullActivation
node 9 0 1 1 NullActivation
node 10 0 1 1 NullActivation
node 11 0 1 1 NullActivation
node 12 0 1 1 NullActivation
node 13 0 1 1 NullActivation
node 14 0 1 1 NullActivation
node 15 0 1 1 NullActivation
node 16 0 1 1 NullActivation
node 17 0 1 1 NullActivation
node 18 0 1 1 NullActivation
node 19 0 1 1 NullActivation
node 20 0 1 1 NullActivation
node 21 0 1 1 NullActivation
node 22 0 1 1 NullActivation
node 23 0 1 1 NullActivation
node 24 0 1 1 NullActivation
node 25 0 1 1 NullActivation
node 26 0 1 1 NullActivation
node 27 0 1 1 NullActivation
node 28 0 1 1 NullActivation
node 29 0 1 1 NullActivation
node 30 0 1 1 NullActivation
node 31 0 1 1 NullActivation
node 32 0 1 1 NullActivation
node 33 0 1 1 NullActivation
node 34 0 1 1 NullActivation
node 35 0 1 1 NullActivation
node 36 0 1 1 NullActivation
node 37 0 1 1 NullActivation
node 38 0 1 1 NullActivation
node 39 0 1 1 NullActivation
node 40 0 1 1 NullActivation
node 41 0 1 1 NullActivation
node 42 0 1 1 NullActivation
node 43 0 1 1 NullActivation
node 44 0 1 1 NullActivation
node 45 0 1 1 NullActivation
node 46 0 1 1 NullActivation
node 47 0 1 1 NullActivation
node 48 0 1 1 NullActivation
node 49 0 1 1 NullActivation
node 50 0 1 1 NullActivation
node 51 0 1 1 NullActivation
node 52 0 1 1 NullActivation
node 53 0 1 1 NullActivation
node 54 0 1 1 NullActivation
node 55 0 1 1 NullActivation
node 56 0 0 2 SigmoidBipolarActivation
gene 1 1 56 -0.34666228052534326 false 1 -0.34666228052534326 true
genomeend 214
/* Organism #211 Fitness: 1.000 Error: 0.000 */
genomestart 211
trait 1 0.1 0 0 0 0 0 0 0
trait 2 0.2 0 0 0 0 0 0 0
trait 3 0.3 0 0 0 0 0 0 0
trait 4 0.4 0 0 0 0 0 0 0
trait 5 0.5 0 0 0 0 0 0 0
trait 6 0.6 0 0 0 0 0 0 0
trait 7 0.7 0 0 0 0 0 0 0
trait 8 0.8 0 0 0 0 0 0 0
trait 9 0.9 0 0 0 0 0 0 0
trait 10 1 0 0 0 0 0 0 0
trait 11 1.1 0 0 0 0 0 0 0
trait 12 1.2 0 0 0 0 0 0 0
trait 13 1.3 0 0 0 0 0 0 0
trait 14 1.4 0 0 0 0 0 0 0
trait 15 1.5 0 0 0 0 0 0 0
node 1 0 1 3 NullActivation
node 2 0 1 1 NullActivation
node 3 0 1 1 NullActivation
node 4 0 1 1 NullActivation
node 5 0 1 1 NullActivation
node 6 0 1 1 NullActivation
node 7 0 1 1 NullActivation
node 8 0 1 1 NullActivation
node 9 0 1 1 NullActivation
node 10 0 1 1 NullActivation
node 11 0 1 1 NullActivation
node 12 0 1 1 NullActivation
node 13 0 1 1 NullActivation
node 14 0 1 1 NullActivation
node 15 0 1 1 NullActivation
node 16 0 1 1 NullActivation
node 17 0 1 1 NullActivation
node 18 0 1 1 NullActivation
node 19 0 1 1 NullActivation
node 20 0 1 1 NullActivation
node 21 0 1 1 NullActivation
node 22 0 1 1 NullActivation
node 23 0 1 1 NullActivation
node 24 0 1 1 NullActivation
node 25 0 1 1 NullActivation
node 26 0 1 1 NullActivation
node 27 0 1 1 NullActivation
node 28 0 1 1 NullActivation
node 29 0 1 1 NullActivation
node 30 0 1 1 NullActivation
node 31 0 1 1 NullActivation
node 32 0 1 1 NullActivation
node 33 0 1 1 NullActivation
node 34 0 1 1 NullActivation
node 35 0 1 1 NullActivation
node 36 0 1 1 NullActivation
node 37 0 1 1 NullActivation
node 38 0 1 1 NullActivation
node 39 0 1 1 NullActivation
node 40 0 1 1 NullActivation
node 41 0 1 1 NullActivation
node 42 0 1 1 NullActivation
node 43 0 1 1 NullActivation
node 44 0 1 1 NullActivation
node 45 0 1 1 NullActivation
node 46 0 1 1 NullActivation
node 47 0 1 1 NullActivation
node 48 0 1 1 NullActivation
node 49 0 1 1 NullActivation
node 50 0 1 1 NullActivation
node 51 0 1 1 NullActivation
node 52 0 1 1 NullActivation
node 53 0 1 1 NullActivation
node 54 0 1 1 NullActivation
node 55 0 1 1 NullActivation
node 56 0 0 2 SigmoidBipolarActivation
gene 1 1 56 0.021115013810616368 false 1 0.021115013810616368 true
genomeend 211
/* Organism #209 Fitness: 1.000 Error: 0.000 */
genomestart 209
trait 1 0.1 0 0 0 0 0 0 0
trait 2 0.2 0 0 0 0 0 0 0
trait 3 0.3 0 0 0 0 0 0 0
trait 4 0.4 0 0 0 0 0 0 0
trait 5 0.5 0 0 0 0 0 0 0
trait 6 0.6 0 0 0 0 0 0 0
trait 7 0.7 0 0 0 0 0 0 0
trait 8 0.8 0 0 0 0 0 0 0
trait 9 0.9 0 0 0 0 0 0 0
trait 10 1 0 0 0 0 0 0 0
trait 11 1.1 0 0 0 0 0 0 0
trait 12 1.2 0 0 0 0 0 0 0
trait 13 1.3 0 0 0 0 0 0 0
trait 14 1.4 0 0 0 0 0 0 0
trait 15 1.5 0 0 0 0 0 0 0
node 1 0 1 3 NullActivation
node 2 0 1 1 NullActivation
node 3 0 1 1 NullActivation
node 4 0 1 1 NullActivation
node 5 0 1 1 NullActivation
node 6 0 1 1 NullActivation
node 7 0 1 1 NullActivation
node 8 0 1 1 NullActivation
node 9 0 1 1 NullActivation
node 10 0 1 1 NullActivation
node 11 0 1 1 NullActivation
node 12 0 1 1 NullActivation
node 13 0 1 1 NullActivation
node 14 0 1 1 NullActivation
node 15 0 1 1 NullActivation
node 16 0 1 1 NullActivation
node 17 0 1 1 NullActivation
node 18 0 1 1 NullActivation
node 19 0 1 1 NullActivation
node 20 0 1 1 NullActivation
node 21 0 1 1 NullActivation
node 22 0 1 1 NullActivation
node 23 0 1 1 NullActivation
node 24 0 1 1 NullActivation
node 25 0 1 1 NullActivation
node 26 0 1 1 NullActivation
node 27 0 1 1 NullActivation
node 28 0 1 1 NullActivation
node 29 0 1 1 NullActivation
node 30 0 1 1 NullActivation
node 31 0 1 1 NullActivation
node 32 0 1 1 NullActivation
node 33 0 1 1 NullActivation
node 34 0 1 1 NullActivation
node 35 0 1 1 NullActivation
node 36 0 1 1 NullActivation
node 37 0 1 1 NullActivation
node 38 0 1 1 NullActivation
node 39 0 1 1 NullActivation
node 40 0 1 1 NullActivation
node 41 0 1 1 NullActivation
node 42 0 1 1 NullActivation
node 43 0 1 1 NullActivation
node 44 0 1 1 NullActivation
node 45 0 1 1 NullActivation
node 46 0 1 1 NullActivation
node 47 0 1 1 NullActivation
node 48 0 1 1 NullActivation
node 49 0 1 1 NullActivation
node 50 0 1 1 NullActivation
node 51 0 1 1 NullActivation
node 52 0 1 1 NullActivation
node 53 0 1 1 NullActivation
node 54 0 1 1 NullActivation
node 55 0 1 1 NullActivation
node 56 0 0 2 SigmoidBipolarActivation
gene 1 1 56 0.41166931340181084 false 1 0.41166931340181084 true
genomeend 209
/* Organism #208 Fitness: 1.000 Error: 0.000 */
genomestart 208
trait 1 0.1 0 0 0 0 0 0 0
trait 2 0.2 0 0 0 0 0 0 0
trait 3 0.3 0 0 0 0 0 0 0
trait 4 0.4 0 0 0 0 0 0 0
trait 5 0.5 0 0 0 0 0 0 0
trait 6 0.6 0 0 0 0 0 0 0
trait 7 0.7 0 0 0 0 0 0 0
trait 8 0.8 0 0 0 0 0 0 0
trait 9 0.9 0 0 0 0 0 0 0
trait 10 1 0 0 0 0 0 0 0
trait 11 1.1 0 0 0 0 0 0 0
trait 12 1.2 0 0 0 0 0 0 0
trait 13 1.3 0 0 0 0 0 0 0
trait 14 1.4 0 0 0 0 0 0 0
trait 15 1.5 0 0 0 0 0 0 0
node 1 0 1 3 NullActivation
node 2 0 1 1 NullActivation
node 3 0 1 1 NullActivation
node 4 0 1 1 NullActivation
