genomestart 255
trait 1 0.47565944930113124 0.25734100172310637 0.1255793523041312 0.18000259657565743 0.27677454631097953 0.30825091997812715 0.18564694304152418 0.3000662615123206
trait 2 0.3725239828871466 0.29290337668160193 0.45373398520155866 0.4726285338880286 0.6310814560896024 0.5632039429670703 0.4972662406624828 0.38206408612850806
trait 3 0.6197082882700368 0.18972603427983004 0.40278015607769363 0.21074166765532573 0.2709581529198865 0.3233379492602354 0.1388925760760122 0.2950315167808317
trait 4 0.5083454549665908 0.249208072001186 0.11091689987985606 0.31337575341522705 0.2446364733045974 0.08602640503641304 0.2764840225438634 0.18900999521869774
trait 5 0.3589165999469539 0.2569520085887579 0.2202999977043098 0.43511433450557496 0.5187523116707828 0.21580528922405956 0.26999656624768364 0.3406344530030574
trait 6 0.5984773956290825 0.21429430861228368 0.08552395439329832 0.11220390676665493 0.12483495009902763 0.2122980268104939 0.20667441615130155 0.10468457588451328
trait 7 0.9541125977079136 0.8847309180598194 0.40556350546411246 0.854486077077584 0.29543673061296993 0.2492861564236076 0.7146437835359323 0.08018097780433367
trait 8 0.7521225694713605 0.30415297350691417 0.23819049631997308 0.3749105824576636 0.23980343075894273 0.3103876508762079 0.3129074599300221 0.40936243391792987
trait 9 0.9116764066356591 0.24719680968250812 0.29228493540091116 0.176977098308812 0.2396700845928838 0.750179315382224 0.20780828056283168 0.25065207521249144
trait 10 0.49258745700074763 0.4047564740534806 0.7509883684723515 0.5040786687119907 0.37141314851823515 0.20246910496892373 0.20295851016195962 0.4777004194135408
trait 11 1.4294462063014648 0.27268185094700054 0.08779043767568531 0.10462380662667826 0.37976667245714246 0.5360463328829298 0.2682877859708086 0.30618667949287487
trait 12 1.0255000247494388 0.1916497300154692 0.3536329398784164 0.31852055128357093 0.3320137414085475 0.060829465744898885 0.17409300128454774 0.527326753817664
trait 13 0.4815132178927939 0.6407913713313103 0.231114930751965 0.23023356358843675 0.25404075375477153 0.7283591623685178 0.4130740661902589 0.6919777207773545
trait 14 0.45497225092268756 0.5241551991333233 0.04514351315591175 0.11762496796493317 0.06417832278057292 0.42400603162268335 0.07271892492345566 1.2377197633409511
trait 15 1.546049645652821 0.20156561658446012 0.3673828489568254 0.15302435353245075 0.3212836782989382 0.12880132766309824 0.39096049775699016 0.29492435482284834
node 1 1 1 3 NullActivation
node 2 12 1 1 NullActivation
node 3 1 1 1 NullActivation
node 4 1 1 1 NullActivation
node 5 1 1 1 NullActivation
node 6 4 1 1 NullActivation
node 7 11 1 1 NullActivation
node 8 1 1 1 NullActivation
node 9 1 1 1 NullActivation
node 10 2 1 1 NullActivation
node 11 1 1 1 NullActivation
node 12 8 1 1 NullActivation
node 13 1 1 1 NullActivation
node 14 5 1 1 NullActivation
node 15 1 1 1 NullActivation
node 16 1 1 1 NullActivation
node 17 1 1 1 NullActivation
node 18 1 1 1 NullActivation
node 19 4 1 1 NullActivation
node 20 1 1 1 NullActivation
node 21 15 1 1 NullActivation
node 22 1 1 1 NullActivation
node 23 5 1 1 NullActivation
node 24 1 1 1 NullActivation
node 25 1 1 1 NullActivation
node 26 1 1 1 NullActivation
node 27 5 1 1 NullActivation
node 28 1 1 1 NullActivation
node 29 1 1 1 NullActivation
node 30 1 1 1 NullActivation
node 31 1 1 1 NullActivation
node 32 11 1 1 NullActivation
node 33 1 1 1 NullActivation
node 34 1 1 1 NullActivation
node 35 1 1 1 NullActivation
node 36 8 1 1 NullActivation
node 37 1 1 1 NullActivation
node 38 1 1 1 NullActivation
node 39 15 1 1 NullActivation
node 40 6 1 1 NullActivation
node 41 6 1 1 NullActivation
node 42 1 1 1 NullActivation
node 43 9 1 1 NullActivation
node 44 8 1 1 NullActivation
node 45 1 1 1 NullActivation
node 46 10 1 1 NullActivation
node 47 1 1 1 NullActivation
node 48 2 1 1 NullActivation
node 49 1 1 1 NullActivation
node 50 1 1 1 NullActivation
node 51 2 1 1 NullActivation
node 52 2 1 1 NullActivation
node 53 1 1 1 NullActivation
node 54 1 1 1 NullActivation
node 55 9 1 1 NullActivation
node 56 10 0 2 SigmoidSteepenedActivation
node 250 1 0 0 SigmoidSteepenedActivation
node 291 1 0 0 SigmoidSteepenedActivation
node 324 12 0 0 SigmoidSteepenedActivation
node 396 4 0 0 SigmoidSteepenedActivation
node 487 1 0 0 SigmoidSteepenedActivation
node 540 1 0 0 SigmoidSteepenedActivation
node 879 1 0 0 SigmoidSteepenedActivation
node 914 1 0 0 SigmoidSteepenedActivation
node 1062 1 0 0 SigmoidSteepenedActivation
node 1073 1 0 0 SigmoidSteepenedActivation
node 1930 9 0 0 SigmoidSteepenedActivation
node 2873 1 0 0 SigmoidSteepenedActivation
node 2888 1 0 0 SigmoidSteepenedActivation
node 2923 1 0 0 SigmoidSteepenedActivation
node 3200 1 0 0 SigmoidSteepenedActivation
node 3276 1 0 0 SigmoidSteepenedActivation
node 3347 1 0 0 SigmoidSteepenedActivation
node 3369 7 0 0 SigmoidSteepenedActivation
node 3550 15 0 0 SigmoidSteepenedActivation
node 3802 1 0 0 SigmoidSteepenedActivation
node 3829 1 0 0 SigmoidSteepenedActivation
node 3844 1 0 0 SigmoidSteepenedActivation
node 3849 1 0 0 SigmoidSteepenedActivation
node 3931 15 0 0 SigmoidSteepenedActivation
node 3949 1 0 0 SigmoidSteepenedActivation
node 3950 1 0 0 SigmoidSteepenedActivation
node 4397 1 0 0 SigmoidSteepenedActivation
node 4411 1 0 0 SigmoidSteepenedActivation
node 4441 1 0 0 SigmoidSteepenedActivation
node 4524 1 0 0 SigmoidSteepenedActivation
node 4654 1 0 0 SigmoidSteepenedActivation
node 4747 1 0 0 SigmoidSteepenedActivation
node 4944 1 0 0 SigmoidSteepenedActivation
node 5115 12 0 0 SigmoidSteepenedActivation
node 5250 1 0 0 SigmoidSteepenedActivation
node 5261 1 0 0 SigmoidSteepenedActivation
node 6098 1 0 0 SigmoidSteepenedActivation
node 6122 1 0 0 SigmoidSteepenedActivation
node 6515 1 0 0 SigmoidSteepenedActivation
node 6590 1 0 0 SigmoidSteepenedActivation
node 6619 1 0 0 SigmoidSteepenedActivation
node 6879 1 0 0 SigmoidSteepenedActivation
gene 1 1 56 -1.7378762179697693 false 1 -1.7378762179697693 true
gene 12 38 56 5.763846408949638 false 1708 5.763846408949638 true
gene 5 51 56 -67.42067090573906 false 1843 -67.42067090573906 true
gene 2 21 56 0.1599441021378617 false 1888 0.1599441021378617 true
gene 9 22 56 -1.4069188483286608 false 2173 -1.4069188483286608 true
gene 4 55 56 5.904965321867987 false 2227 5.904965321867987 true
gene 9 9 56 -0.7437741114448707 false 2336 -0.7437741114448707 true
gene 3 17 56 -0.4107766851111012 false 2512 -0.4107766851111012 true
gene 3 6 56 0.8507665549491572 false 2561 0.8507665549491572 true
gene 9 36 56 -1.2696380138011822 false 2684 -1.2696380138011822 true
gene 13 12 56 -1.5628009499643882 false 2726 -1.5628009499643882 true
gene 8 5 56 -0.2795884325649011 false 2802 -0.2795884325649011 true
gene 5 29 56 -0.8815233493935336 false 3323 -0.8815233493935336 true
gene 15 10 56 0.414794394617636 false 3884 0.414794394617636 true
gene 14 10 250 0.41727220407588606 false 3932 0.41727220407588606 true
gene 6 23 56 -0.4001005993746801 false 3972 -0.4001005993746801 true
gene 12 23 250 -0.6471692240678446 false 3986 -0.6471692240678446 true
gene 5 51 291 -2.3389729492736673 false 4042 -2.3389729492736673 true
gene 11 291 56 -0.25073442649036004 false 4043 -0.25073442649036004 true
gene 13 50 250 2.2804456561383564 false 4629 2.2804456561383564 true
gene 1 50 291 -2.240620618449031 false 4630 -2.240620618449031 true
gene 13 47 56 -2.973119849051396 false 5388 -2.973119849051396 true
gene 15 47 250 -0.27120122250969547 false 5389 -0.27120122250969547 true
gene 4 47 291 0.4859601354839413 false 5390 0.4859601354839413 true
gene 11 47 324 2.1530994833214234 false 5406 2.1530994833214234 true
gene 15 19 56 -0.7401306148834008 false 5549 -0.7401306148834008 true
gene 6 19 250 0.2465781824317816 false 5550 0.2465781824317816 true
gene 2 19 291 0.39890444392226654 false 5551 0.39890444392226654 true
gene 10 19 324 0.04665124624159386 false 5552 0.04665124624159386 true
gene 14 53 291 2.0883652664653756 false 6101 2.0883652664653756 true
gene 3 25 56 0.5895863971926123 false 6475 0.5895863971926123 true
gene 6 25 250 -0.5489346479004089 false 6476 -0.5489346479004089 true
gene 12 25 291 -0.7579881269561456 false 6477 -0.7579881269561456 true
gene 10 25 324 -1.105265860790164 false 6478 -1.105265860790164 true
gene 1 27 56 0.6283790931748632 false 6693 0.6283790931748632 true
gene 7 27 250 2.889263629601868 false 6694 2.889263629601868 true
gene 11 27 291 0.2890770877399971 false 6695 0.2890770877399971 true
gene 3 27 324 -0.7224339601004424 false 6696 -0.7224339601004424 true
gene 3 50 396 -3.710854640981748 false 7046 -3.710854640981748 true
gene 1 396 291 -0.3807280110042225 false 7047 -0.3807280110042225 true
gene 9 4 56 -0.1441431693935894 false 7215 -0.1441431693935894 true
gene 2 4 250 -1.7218032517112816 false 7216 -1.7218032517112816 true
gene 6 4 291 -1.2649022421534446 false 7217 -1.2649022421534446 true
gene 15 4 324 -2.5682095566963206 false 7218 -2.5682095566963206 true
gene 5 4 396 -0.883376279472175 false 7219 -0.883376279472175 true
gene 6 44 56 0.8197559673364985 false 7554 0.8197559673364985 true
gene 9 44 250 -0.018263589069262065 false 7555 -0.018263589069262065 true
gene 10 44 291 0.5391790371491443 false 7556 0.5391790371491443 true
gene 8 44 324 -3.503241711734947 false 7657 -3.503241711734947 true
gene 5 44 396 1.45530909383744 false 7658 1.45530909383744 true
gene 1 54 56 4.683616648765343 false 8229 4.683616648765343 true
gene 4 54 250 -1.3670810399015663 false 8230 -1.3670810399015663 true
gene 11 54 291 -1.4742990805378804 false 8231 -1.4742990805378804 true
gene 7 54 324 -0.24620720286544667 false 8232 -0.24620720286544667 true
gene 8 54 396 0.5692251394244405 false 8233 0.5692251394244405 true
gene 7 46 56 -0.3689863772300418 false 8507 -0.3689863772300418 true
gene 8 46 250 1.9193744086845737 false 8525 1.9193744086845737 true
gene 1 46 291 0.36191771686319435 false 8526 0.36191771686319435 true
gene 5 46 324 1.8793235507167365 false 8527 1.8793235507167365 true
gene 3 46 396 -1.669787610399729 false 8528 -1.669787610399729 true
gene 4 52 56 5.4390100955764975 false 8725 5.4390100955764975 true
gene 9 52 250 3.390064233949354 false 8726 3.390064233949354 true
gene 9 52 291 0.7106010258733386 false 8727 0.7106010258733386 true
gene 3 52 324 -2.3483178269002174 false 8728 -2.3483178269002174 true
gene 15 52 396 1.6062316434837252 false 8729 1.6062316434837252 true
gene 9 15 324 2.886943907469271 false 9338 2.886943907469271 true
gene 1 49 56 0.8052852796305892 false 9551 0.8052852796305892 true
gene 7 49 250 0.33449703117622526 false 9552 0.33449703117622526 true
gene 11 49 291 -0.5327273834165864 false 9554 -0.5327273834165864 true
gene 13 49 324 -3.536449869797769 false 9556 -3.536449869797769 true
gene 11 49 396 2.6877415686560497 false 9558 2.6877415686560497 true
gene 11 20 56 -2.5318833655479955 false 10688 -2.5318833655479955 true
gene 7 20 250 0.8123437635467387 false 10689 0.8123437635467387 true
gene 15 20 291 -1.8804074645482043 false 10690 -1.8804074645482043 true
gene 3 20 324 2.44825275366825 false 10768 2.44825275366825 true
gene 13 20 396 0.9370275794371923 false 10863 0.9370275794371923 true
gene 13 10 487 -2.7029628735178335 false 11062 -2.7029628735178335 true
gene 13 487 56 0.5569715886268793 false 11063 0.5569715886268793 true
gene 4 38 250 0.4630726342686231 false 11354 0.4630726342686231 true
gene 10 14 56 2.3046370372810654 false 12239 2.3046370372810654 true
gene 11 14 250 0.7389091537105028 false 12276 0.7389091537105028 true
gene 6 14 291 -1.2113867404233878 false 12277 -1.2113867404233878 true
gene 10 14 324 -0.44854662366350806 false 12278 -0.44854662366350806 true
gene 13 14 396 0.15482452314507378 false 12279 0.15482452314507378 true
gene 8 14 487 -1.2048536197305473 false 12379 -1.2048536197305473 true
gene 6 14 540 -5.2426600816213975 false 13167 -5.2426600816213975 true
gene 6 540 291 -0.34743974708589526 false 13168 -0.34743974708589526 true
gene 5 28 487 0.7391044454592958 false 13371 0.7391044454592958 true
gene 10 8 56 -0.7374773064952895 false 13700 -0.7374773064952895 true
gene 6 8 250 0.9201534418358078 false 13701 0.9201534418358078 true
gene 4 8 291 1.1514062272846735 false 13702 1.1514062272846735 true
gene 1 8 324 0.020708155309538755 false 13703 0.020708155309538755 true
gene 14 8 396 -2.679236665262215 false 13704 -2.679236665262215 true
gene 2 8 487 -0.7294724107024688 false 13705 -0.7294724107024688 true
gene 6 8 540 -0.5786914467321531 false 13706 -0.5786914467321531 true
gene 2 54 487 -1.029534284727915 false 15149 -1.029534284727915 true
gene 1 24 291 0.6671070558990828 false 16396 0.6671070558990828 true
gene 13 11 56 -0.5913664040085254 false 16656 -0.5913664040085254 true
gene 3 3 56 2.0645117593390436 false 17020 2.0645117593390436 true
gene 14 3 250 2.5636178353665597 false 17021 2.5636178353665597 true
gene 6 3 291 0.6061042099016672 false 17022 0.6061042099016672 true
gene 8 3 324 1.4239036191518109 false 17023 1.4239036191518109 true
gene 9 3 396 1.9040786712212443 false 17024 1.9040786712212443 true
gene 9 3 487 -0.8143720475511644 false 17025 -0.8143720475511644 true
gene 1 3 540 -3.4540909969117344 false 17026 -3.4540909969117344 true
gene 9 36 487 3.7293525279667104 false 17483 3.7293525279667104 true
gene 7 35 487 1.9602825032064 false 19659 1.9602825032064 true
gene 4 37 56 2.2948655249011645 false 19888 2.2948655249011645 true
gene 9 37 250 -3.5325997377170832 false 19889 -3.5325997377170832 true
gene 2 37 291 -0.12670606066261528 false 19890 -0.12670606066261528 true
gene 6 37 324 -0.12184850221703247 false 19891 -0.12184850221703247 true
gene 12 37 396 -2.186496248798563 false 19892 -2.186496248798563 true
gene 9 37 487 1.3917431031242677 false 19893 1.3917431031242677 true
gene 15 37 540 -2.956612452329 false 19894 -2.956612452329 true
gene 12 30 56 1.3427766958382013 false 20639 1.3427766958382013 true
gene 12 30 250 -0.780324552532938 false 20640 -0.780324552532938 true
gene 2 30 291 -0.817833415813978 false 20641 -0.817833415813978 true
gene 9 30 324 -3.112112176883625 false 20739 -3.112112176883625 true
gene 6 30 396 -0.3538058049021699 false 20740 -0.3538058049021699 true
gene 3 30 487 1.6817481792971651 false 20863 1.6817481792971651 true
gene 3 30 540 -3.5850453504088398 false 20864 -3.5850453504088398 true
gene 13 16 56 -0.2696125473473232 false 21852 -0.2696125473473232 true
gene 11 16 250 1.563905601502367 false 21934 1.563905601502367 true
gene 8 16 291 1.9339091630688123 false 21935 1.9339091630688123 true
gene 4 16 324 1.7178481584230842 false 21936 1.7178481584230842 true
gene 1 16 396 -1.2590467268679775 false 21937 -1.2590467268679775 true
gene 4 16 487 -1.5041404528764948 false 21938 -1.5041404528764948 true
gene 6 16 540 -0.13607587555176698 false 21939 -0.13607587555176698 true
gene 5 48 56 -0.21392791116382767 false 22320 -0.21392791116382767 true
gene 5 48 250 2.9915973795257806 false 22321 2.9915973795257806 true
gene 5 48 291 3.9833203789426976 false 22322 3.9833203789426976 true
gene 12 48 324 1.1467372660921047 false 22323 1.1467372660921047 true
gene 1 48 396 -2.404692991232398 false 22324 -2.404692991232398 true
gene 8 48 487 0.45766417773749374 false 22325 0.45766417773749374 true
gene 4 48 540 -0.36976572724022405 false 22326 -0.36976572724022405 true
gene 7 42 56 -2.245049365321354 false 22480 -2.245049365321354 true
gene 2 42 250 -0.5672864035611714 false 22481 -0.5672864035611714 true
gene 7 42 291 2.226382325257809 false 22482 2.226382325257809 true
gene 10 42 324 1.3233677093168033 false 22483 1.3233677093168033 true
gene 11 42 396 -0.4751202873348215 false 22484 -0.4751202873348215 true
gene 3 42 487 -1.0454832717379192 false 22485 -1.0454832717379192 true
gene 11 42 540 0.7518530216431443 false 22486 0.7518530216431443 true
gene 12 39 56 -1.177669818521011 false 22830 -1.177669818521011 true
gene 11 39 250 2.0178817740637136 false 22831 2.0178817740637136 true
gene 1 39 291 0.6097098101839128 false 22832 0.6097098101839128 true
gene 4 39 324 -1.1946866773885947 false 22833 -1.1946866773885947 true
gene 2 39 396 -3.923683427055508 false 22834 -3.923683427055508 true
gene 1 39 487 0.5537480544226994 false 22835 0.5537480544226994 true
gene 3 39 540 -0.2534372331265777 false 22836 -0.2534372331265777 true
gene 15 34 56 3.3130086684038362 false 23336 3.3130086684038362 true
gene 10 34 250 -2.816790042298675 false 23337 -2.816790042298675 true
gene 12 34 291 -0.33214442546164885 false 23338 -0.33214442546164885 true
gene 12 34 324 -0.6328351844726711 false 23339 -0.6328351844726711 true
gene 3 34 396 2.1764049918603674 false 23340 2.1764049918603674 true
gene 2 34 487 0.34755577326630005 false 23341 0.34755577326630005 true
gene 15 34 540 2.359743041484622 false 23342 2.359743041484622 true
gene 10 18 56 -0.6599167800038234 false 23495 -0.6599167800038234 true
gene 14 18 250 0.7862118319193179 false 23496 0.7862118319193179 true
gene 2 18 291 1.6276507751403606 false 23497 1.6276507751403606 true
gene 4 18 324 4.945970528732538 false 23498 4.945970528732538 true
gene 8 18 396 -0.3956667322946742 false 23499 -0.3956667322946742 true
gene 11 18 487 2.0059762243020756 false 23500 2.0059762243020756 true
gene 5 18 540 1.5204842379336712 false 23501 1.5204842379336712 true
gene 4 2 56 -1.4938505534975408 false 23705 -1.4938505534975408 true
gene 7 2 250 0.1776924115776637 false 23706 0.1776924115776637 true
gene 8 2 291 1.8614397132494538 false 23707 1.8614397132494538 true
gene 4 2 324 -1.6444094797257967 false 23708 -1.6444094797257967 true
gene 3 2 396 -1.1465974281992222 false 23709 -1.1465974281992222 true
gene 11 2 487 -2.4446716894327483 false 23710 -2.4446716894327483 true
gene 13 2 540 -0.7259966074284356 false 23711 -0.7259966074284356 true
gene 11 43 56 -1.596173516658455 false 23994 -1.596173516658455 true
gene 10 43 250 2.3751141388199093 false 23995 2.3751141388199093 true
gene 9 43 291 0.9874587273088979 false 23996 0.9874587273088979 true
gene 4 43 324 -2.2588859889304236 false 23997 -2.2588859889304236 true
gene 14 43 396 1.3665422952040802 false 23998 1.3665422952040802 true
gene 5 43 487 0.44838834618211765 false 23999 0.44838834618211765 true
gene 13 43 540 3.16010735013165 false 24000 3.16010735013165 true
gene 7 41 56 -0.6321353024107765 false 24136 -0.6321353024107765 true
gene 14 41 250 -0.8290287925112212 false 24137 -0.8290287925112212 true
gene 9 41 291 -0.5584296932906626 false 24138 -0.5584296932906626 true
gene 5 41 324 1.7429175352350437 false 24139 1.7429175352350437 true
gene 10 41 396 -0.5195107558704212 false 24140 -0.5195107558704212 true
gene 3 41 487 1.1017742480459602 false 24141 1.1017742480459602 true
gene 4 41 540 1.0910987024719259 false 24142 1.0910987024719259 true
gene 8 33 56 0.09192231345115875 false 24333 0.09192231345115875 true
gene 3 33 250 -0.805672309215753 false 24334 -0.805672309215753 true
gene 15 33 291 1.4187248450028869 false 24335 1.4187248450028869 true
gene 15 33 324 -0.5864738347685649 false 24336 -0.5864738347685649 true
gene 5 33 396 -1.6963427858950393 false 24337 -1.6963427858950393 true
gene 10 33 487 -1.041609778465618 false 24375 -1.041609778465618 true
gene 10 33 540 2.785598458766491 false 24376 2.785598458766491 true
gene 3 31 56 4.580165883096701 false 24506 4.580165883096701 true
gene 4 31 250 -1.3827114658990853 false 24507 -1.3827114658990853 true
gene 11 31 291 -2.244295754387935 false 24508 -2.244295754387935 true
gene 8 31 324 -0.31138402254683645 false 24509 -0.31138402254683645 true
gene 11 31 396 2.771659536589691 false 24510 2.771659536589691 true
gene 5 31 487 -0.6938851356421181 false 24511 -0.6938851356421181 true
gene 6 31 540 -0.2647044131426116 false 24512 -0.2647044131426116 true
gene 5 13 56 -1.837009739302076 false 24801 -1.837009739302076 true
gene 9 13 250 -2.268837555306119 false 24802 -2.268837555306119 true
gene 13 13 291 1.9948300759842037 false 24803 1.9948300759842037 true
gene 4 13 324 1.890203834016496 false 24804 1.890203834016496 true
gene 5 13 396 -0.7778135036472247 false 24805 -0.7778135036472247 true
gene 13 13 487 -1.0053792621628235 false 24806 -1.0053792621628235 true
gene 9 13 540 2.4836879135016714 false 24807 2.4836879135016714 true
gene 6 45 324 1.0303102398481214 false 25045 1.0303102398481214 true
gene 2 26 56 -2.068727760125987 false 25299 -2.068727760125987 true
gene 9 26 250 0.27311188537561365 false 25300 0.27311188537561365 true
gene 5 26 291 -1.1436812322613759 false 25301 -1.1436812322613759 true
gene 1 26 324 3.2724517341091452 false 25302 3.2724517341091452 true
gene 9 26 396 1.7758392030165977 false 25303 1.7758392030165977 true
gene 10 26 487 2.249213979112655 false 25304 2.249213979112655 true
gene 8 26 540 1.0076826642297543 false 25305 1.0076826642297543 true
gene 1 32 56 -1.6288734660796818 false 26090 -1.6288734660796818 true
gene 9 32 250 1.7589524991093062 false 26091 1.7589524991093062 true
gene 1 32 291 -0.1915823705190699 false 26092 -0.1915823705190699 true
gene 13 32 324 -0.8200979298564034 false 26093 -0.8200979298564034 true
gene 9 32 396 -0.06702167280515073 false 26094 -0.06702167280515073 true
gene 7 32 487 -1.3283972740822463 false 26096 -1.3283972740822463 true
gene 9 32 540 -0.513916389224089 false 26097 -0.513916389224089 true
gene 14 10 291 -3.098383457510474 false 26610 -3.098383457510474 true
gene 14 7 56 1.4071990086670805 false 26703 1.4071990086670805 true
gene 8 7 250 0.7137828726758626 false 26704 0.7137828726758626 true
gene 15 7 291 -0.5398054052622372 false 26705 -0.5398054052622372 true
gene 7 7 324 -0.009453417715067802 false 26706 -0.009453417715067802 true
gene 15 7 396 -1.6236084558592596 false 26707 -1.6236084558592596 true
gene 8 7 487 -1.4950033139489163 false 26708 -1.4950033139489163 true
gene 14 7 540 -1.8008956398383213 false 26709 -1.8008956398383213 true
gene 1 396 879 1.22980713109998 false 27317 1.22980713109998 true
gene 1 879 291 0.9454890375489822 false 27318 0.9454890375489822 true
gene 11 40 56 -0.9247883432845738 false 27423 -0.9247883432845738 true
gene 3 40 250 -1.2843212532507962 false 27424 -1.2843212532507962 true
gene 8 40 291 -0.6831268584459973 false 27425 -0.6831268584459973 true
gene 13 40 324 -1.8759073242863153 false 27426 -1.8759073242863153 true
gene 9 40 396 -0.8630504885094641 false 27427 -0.8630504885094641 true
gene 7 40 487 -0.5255303487159493 false 27428 -0.5255303487159493 true
gene 10 40 540 1.7650161603022025 false 27429 1.7650161603022025 true
gene 8 40 879 -2.4345837514300372 false 27529 -2.4345837514300372 true
gene 5 49 879 -0.5333706787415613 false 27751 -0.5333706787415613 true
gene 4 38 914 0.6587291647302904 false 28179 0.6587291647302904 true
gene 4 914 250 2.972805463346039 false 28180 2.972805463346039 true
gene 7 26 1062 1.3711363307208164 false 31298 1.3711363307208164 true
gene 7 1062 324 2.315294058439196 false 31299 2.315294058439196 true
gene 9 41 1073 -1.7100092199730272 false 31408 -1.7100092199730272 true
gene 9 1073 291 -0.8264658239998715 false 31409 -0.8264658239998715 true
gene 15 43 879 3.6499162071182063 false 31471 3.6499162071182063 true
gene 9 1062 250 1.1742875004777495 false 31816 1.1742875004777495 true
gene 6 9 324 1.5759812282306223 false 34244 1.5759812282306223 true
gene 15 23 291 2.623107821215915 false 35337 2.623107821215915 true
gene 15 49 1930 1.3775721080044065 false 35761 1.3775721080044065 true
gene 8 29 1062 -0.7848926285035325 false 35856 -0.7848926285035325 true
gene 1 33 1930 -2.1805487991067336 false 36304 -2.1805487991067336 true
gene 2 14 1062 0.27637240407701935 false 36343 0.27637240407701935 true
gene 3 1 250 0.7811992874959537 false 36806 0.7811992874959537 true
gene 2 41 1062 2.0863846997989306 false 39866 2.0863846997989306 true
gene 11 49 2873 1.43078143551281 false 39906 1.43078143551281 true
gene 11 2873 396 -0.7951486133229828 false 39907 -0.7951486133229828 true
gene 8 27 914 -1.571410347848641 false 39958 -1.571410347848641 true
gene 14 43 2888 3.5385289586816384 false 39985 3.5385289586816384 true
gene 14 2888 396 0.32769532526340683 false 39986 0.32769532526340683 true
gene 10 33 2923 -5.226054795128755 false 40116 -5.226054795128755 true
gene 8 2923 56 -3.3356684927253935 false 40117 -3.3356684927253935 true
gene 9 11 3200 -2.6069170675785722 false 41577 -2.6069170675785722 true
gene 10 4 1930 -0.8840496390453061 false 41590 -0.8840496390453061 true
gene 3 52 3276 4.121827166865988 false 41753 4.121827166865988 true
gene 3 3276 324 0.8510865535815775 false 41754 0.8510865535815775 true
gene 14 18 3347 -0.5764826758987165 false 42186 -0.5764826758987165 true
gene 14 3347 250 -0.4460493882545836 false 42187 -0.4460493882545836 true
gene 14 43 2923 -3.50457851829778 false 42221 -3.50457851829778 true
gene 10 27 3369 2.4305431150858854 false 42271 2.4305431150858854 true
gene 10 3369 250 1.7883797114877975 false 42272 1.7883797114877975 true
gene 9 30 3550 -1.8798796577143424 false 43195 -1.8798796577143424 true
gene 12 3550 324 -0.26176661292035297 false 43196 -0.26176661292035297 true
gene 7 39 914 0.8416975366840118 false 43297 0.8416975366840118 true
gene 6 6 914 3.6775925326475765 false 44299 3.6775925326475765 true
gene 12 20 2873 -7.1596265090976825 false 44346 -7.1596265090976825 true
gene 14 250 879 0.903791688059421 false 44403 0.903791688059421 true
gene 4 54 3802 2.2454403414653292 false 44420 2.2454403414653292 true
gene 4 3802 250 3.005675553385972 false 44421 3.005675553385972 true
gene 1 46 3829 0.12742036829609485 false 44518 0.12742036829609485 true
gene 1 3829 291 2.436392339933751 false 44519 2.436392339933751 true
gene 11 54 3844 0.7989276425246078 false 44573 0.7989276425246078 true
gene 11 3844 291 0.6871599177194414 false 44574 0.6871599177194414 true
gene 12 30 3849 0.5703494308692172 false 44610 0.5703494308692172 true
gene 12 3849 56 -0.31239056199875637 false 44611 -0.31239056199875637 true
gene 12 28 3276 0.021111816593880173 false 44737 0.021111816593880173 true
gene 7 33 3931 0.31947896327480474 false 44985 0.31947896327480474 true
gene 8 3931 2923 -3.3197007932399685 false 44986 -3.3197007932399685 true
gene 1 32 3949 -0.4804092804815171 false 45070 -0.4804092804815171 true
gene 1 3949 291 0.75167564111917 false 45071 0.75167564111917 true
gene 4 54 3950 -0.7831566685763935 false 45072 -0.7831566685763935 true
gene 4 3950 3802 0.5342537255871677 false 45073 0.5342537255871677 true
gene 13 3950 56 -1.0964227033078582 false 46720 -1.0964227033078582 true
gene 3 42 4397 -0.07075987645152504 false 47205 -0.07075987645152504 true
gene 3 4397 487 -1.5684677989760847 false 47206 -1.5684677989760847 true
gene 14 1930 3200 -3.1376573723129586 false 47264 -3.1376573723129586 true
gene 7 3 4411 0.2322495540351427 false 47269 0.2322495540351427 true
gene 9 4411 487 0.12219075937019463 false 47270 0.12219075937019463 true
gene 8 31 3276 -0.1836389908810857 false 47329 -0.1836389908810857 true
gene 1 3949 4441 0.43004120677185226 false 47410 0.43004120677185226 true
gene 1 4441 291 0.17488307515406457 false 47411 0.17488307515406457 true
gene 7 20 4524 -0.1978712796206925 false 47766 -0.1978712796206925 true
gene 7 4524 250 1.7093378361751381 false 47767 1.7093378361751381 true
gene 12 5 3949 1.179636236340608 false 47885 1.179636236340608 true
gene 4 6 879 -0.3251882040252019 false 48002 -0.3251882040252019 true
gene 7 2923 540 -1.0410191100452417 false 48152 -1.0410191100452417 true
gene 1 1 4397 -0.8851826644030345 false 48291 -0.8851826644030345 true
gene 7 3369 4654 1.524061477087515 false 48415 1.524061477087515 true
gene 7 4654 250 -0.26177385819147286 false 48416 -0.26177385819147286 true
gene 8 5 3200 1.3265357724288875 false 48916 1.3265357724288875 true
gene 11 47 4747 -1.355763275940066 false 48932 -1.355763275940066 true
gene 11 4747 324 -1.6336083444126228 false 48933 -1.6336083444126228 true
gene 6 3949 1062 -0.6344190030969155 false 49035 -0.6344190030969155 true
gene 4 7 4944 -0.8329413909438355 false 49842 -0.8329413909438355 true
gene 15 4944 291 1.6366612414585686 false 49843 1.6366612414585686 true
gene 7 4944 487 -1.1551532523107149 false 49910 -1.1551532523107149 true
gene 11 20 1930 -1.907594009144069 false 49958 -1.907594009144069 true
gene 14 914 3200 -0.4784385723590945 false 49980 -0.4784385723590945 true
gene 8 53 3369 1.4715316519906134 false 50667 1.4715316519906134 true
gene 7 4524 5115 -1.0831202778630025 false 50684 -1.0831202778630025 true
gene 7 5115 250 0.9194091738316863 false 50685 0.9194091738316863 true
gene 12 45 2873 1.2631591293667332 false 50854 1.2631591293667332 true
gene 11 31 5250 3.2025410397286143 false 51339 3.2025410397286143 true
gene 11 5250 396 -0.6259402500096745 false 51340 -0.6259402500096745 true
gene 10 3931 4747 0.7884186029287111 false 51374 0.7884186029287111 true
gene 13 1073 5261 0.552246442954227 false 51391 0.552246442954227 true
gene 4 5261 291 -0.6892732119007331 false 51392 -0.6892732119007331 true
gene 4 3931 396 1.2924478366233394 false 51509 1.2924478366233394 true
gene 2 15 4411 -0.0014651621303449491 false 53083 -0.0014651621303449491 true
gene 2 3369 56 -0.388241948067677 false 54216 -0.388241948067677 true
gene 8 40 6098 1.2352358549346094 false 55481 1.2352358549346094 true
gene 8 6098 291 -0.09359082026161497 false 55482 -0.09359082026161497 true
gene 9 32 3347 1.1388749149757118 false 55537 1.1388749149757118 true
gene 4 3802 4747 -0.8358086928548172 false 55580 -0.8358086928548172 true
gene 11 42 6122 0.06544525071053264 false 55585 0.06544525071053264 true
gene 11 6122 540 0.5113068233276779 false 55586 0.5113068233276779 true
gene 7 3369 1930 0.9392384163233699 false 57383 0.9392384163233699 true
gene 1 16 6515 0.6286041344311422 false 57440 0.6286041344311422 true
gene 1 6515 396 -1.4060887035711314 false 57441 -1.4060887035711314 true
gene 11 2 914 0.256198459330626 false 57773 0.256198459330626 true
gene 9 37 4944 0.4100475613107387 false 57815 0.4100475613107387 true
gene 13 20 6590 0.7091983655201406 false 57827 0.7091983655201406 true
gene 13 6590 396 -0.8876641996536017 false 57828 -0.8876641996536017 true
gene 3 30 6619 0.8891648117042208 false 57945 0.8891648117042208 true
gene 3 6619 487 -0.9630874766368025 false 57946 -0.9630874766368025 true
gene 3 6122 4654 -1.754654906378907 false 58931 -1.754654906378907 true
gene 14 41 6879 -3.382863839253228 false 59265 -3.382863839253228 true
gene 14 6879 250 0.7406985556977586 false 59266 0.7406985556977586 true
gene 5 4944 3950 -0.0883520848613899 false 61871 -0.0883520848613899 true
genomeend 255
