genomestart 127
trait 1 0.1 0 0 0 0 0 0 0
trait 2 0.2 0 0 0 0 0 0 0
trait 3 0.3 0 0 0 0 0 0 0
trait 4 0.4 0 0 0 0 0 0 0
trait 5 0.5 0 0 0 0 0 0 0
trait 6 0.6 0 0 0 0 0 0 0
trait 7 0.7 0 0 0 0 0 0 0
trait 8 0.8 0 0 0 0 0 0 0
trait 9 0.9 0 0 0 0 0 0 0
trait 10 1 0 0 0 0 0 0 0
trait 11 1.1 0 0 0 0 0 0 0
trait 12 1.2 0 0 0 0 0 0 0
trait 13 1.3 0 0 0 0 0 0 0
trait 14 1.2454241607887033 0 0 0 0.296921835591912 0.651613827927143 0.5816621748207856 0.3251906899681743
trait 15 1.5 0 0 0 0 0 0 0
node 1 1 1 3 NullActivation
node 2 9 1 1 NullActivation
node 3 1 1 1 NullActivation
node 4 1 1 1 NullActivation
node 5 1 1 1 NullActivation
node 6 1 1 1 NullActivation
node 7 1 1 1 NullActivation
node 8 1 1 1 NullActivation
node 9 1 1 1 NullActivation
node 10 1 1 1 NullActivation
node 11 1 1 1 NullActivation
node 12 1 1 1 NullActivation
node 13 1 1 1 NullActivation
node 14 1 1 1 NullActivation
node 15 1 1 1 NullActivation
node 16 1 1 1 NullActivation
node 17 1 1 1 NullActivation
node 18 1 1 1 NullActivation
node 19 1 1 1 NullActivation
node 20 1 1 1 NullActivation
node 21 1 1 1 NullActivation
node 22 1 1 1 NullActivation
node 23 1 1 1 NullActivation
node 24 1 1 1 NullActivation
node 25 14 1 1 NullActivation
node 26 1 1 1 NullActivation
node 27 1 1 1 NullActivation
node 28 1 1 1 NullActivation
node 29 1 1 1 NullActivation
node 30 1 1 1 NullActivation
node 31 1 1 1 NullActivation
node 32 1 1 1 NullActivation
node 33 1 1 1 NullActivation
node 34 1 1 1 NullActivation
node 35 1 1 1 NullActivation
node 36 12 1 1 NullActivation
node 37 1 1 1 NullActivation
node 38 1 1 1 NullActivation
node 39 1 1 1 NullActivation
node 40 1 1 1 NullActivation
node 41 1 1 1 NullActivation
node 42 1 1 1 NullActivation
node 43 1 1 1 NullActivation
node 44 1 1 1 NullActivation
node 45 1 1 1 NullActivation
node 46 1 1 1 NullActivation
node 47 1 1 1 NullActivation
node 48 1 1 1 NullActivation
node 49 1 1 1 NullActivation
node 50 1 1 1 NullActivation
node 51 1 1 1 NullActivation
node 52 11 1 1 NullActivation
node 53 1 1 1 NullActivation
node 54 1 1 1 NullActivation
node 55 1 0 2 SigmoidBipolarActivation
node 62 1 0 0 SigmoidSteepenedActivation
node 83 1 0 0 SigmoidSteepenedActivation
node 679 1 0 0 SigmoidSteepenedActivation
gene 1 1 55 -2.179621064667688 false 1 -2.179621064667688 true
gene 14 47 55 -1.250727477492545 false 22 -1.250727477492545 true
gene 9 9 55 0.3683850714469605 false 76 0.3683850714469605 true
gene 14 47 62 0.04349190393144675 false 207 0.04349190393144675 true
gene 14 62 55 4.967574520533064 false 208 4.967574520533064 true
gene 7 35 55 -5.300364511795953 false 340 -5.300364511795953 true
gene 12 35 62 1.565046861157805 false 380 1.565046861157805 true
gene 5 47 83 0.8724471997205121 false 556 0.8724471997205121 true
gene 14 83 55 1.0931094338094343 false 557 1.0931094338094343 true
gene 3 28 55 1.728109945875135 false 633 1.728109945875135 true
gene 9 28 62 -2.075191662533909 false 694 -2.075191662533909 true
gene 8 28 83 -4.001310539146197 false 695 -4.001310539146197 true
gene 14 50 55 -28.618806112039234 false 822 -28.618806112039234 true
gene 6 50 62 -1.730789155833922 false 823 -1.730789155833922 true
gene 13 50 83 -0.4510628146699909 false 824 -0.4510628146699909 true
gene 3 17 55 3.4044439152882555 false 1008 3.4044439152882555 true
gene 9 17 62 -1.3066547688316033 false 1009 -1.3066547688316033 true
gene 11 17 83 5.533923385009261 false 1010 5.533923385009261 true
gene 12 11 55 0.5879138156026502 false 1329 0.5879138156026502 true
gene 11 11 62 -3.6447366370696774 false 1330 -3.6447366370696774 true
gene 4 11 83 7.483105076120404 false 1331 7.483105076120404 true
gene 1 38 55 3.925607890567274 false 1718 3.925607890567274 true
gene 9 38 62 1.2906842384330668 false 1719 1.2906842384330668 true
gene 1 38 83 -3.647046052303801 false 1720 -3.647046052303801 true
gene 5 48 55 -1.303844536882873 false 2354 -1.303844536882873 true
gene 5 48 62 -3.5215808512874047 false 2355 -3.5215808512874047 true
gene 13 48 83 -2.925216458253151 false 2356 -2.925216458253151 true
gene 10 19 55 2.6013917626799667 false 2537 2.6013917626799667 true
gene 10 19 62 1.9183512003450387 false 2618 1.9183512003450387 true
gene 3 19 83 -2.7716533049111334 false 2670 -2.7716533049111334 true
gene 1 32 55 -0.020645412076998992 false 2747 -0.020645412076998992 true
gene 7 32 62 6.8890094242405535 false 2967 6.8890094242405535 true
gene 9 32 83 0.8009995242756469 false 2968 0.8009995242756469 true
gene 15 22 55 -5.3473292071368395 false 3150 -5.3473292071368395 true
gene 8 22 62 0.07193000236284908 false 3175 0.07193000236284908 true
gene 8 22 83 4.868148290750016 false 3176 4.868148290750016 true
gene 6 30 55 -4.022007220472679 false 3582 -4.022007220472679 true
gene 12 30 62 5.081628149233933 false 3583 5.081628149233933 true
gene 10 30 83 5.854684319211366 false 3584 5.854684319211366 true
gene 13 25 55 -3.6264063899312498 false 3865 -3.6264063899312498 true
gene 7 25 62 -1.4636339150148574 false 3866 -1.4636339150148574 true
gene 13 25 83 3.9391745568299217 false 3867 3.9391745568299217 true
gene 7 24 55 2.059317134118335 false 4039 2.059317134118335 true
gene 8 24 62 3.6318484815875545 false 4040 3.6318484815875545 true
gene 3 24 83 -0.6705709786430688 false 4041 -0.6705709786430688 true
gene 15 36 55 7.183485735536086 false 4665 7.183485735536086 true
gene 2 36 62 -0.8748458002093606 false 4666 -0.8748458002093606 true
gene 12 36 83 1.2618132345078474 false 4667 1.2618132345078474 true
gene 11 18 55 -4.447790100391528 false 5090 -4.447790100391528 true
gene 9 18 62 -5.571972955114269 false 5142 -5.571972955114269 true
gene 15 18 83 2.0314900962111704 false 5143 2.0314900962111704 true
gene 1 39 55 -5.4179082643381165 false 5588 -5.4179082643381165 true
gene 3 39 62 -1.9550124280188397 false 5589 -1.9550124280188397 true
gene 2 39 83 3.7609797940342156 false 5590 3.7609797940342156 true
gene 5 2 55 -1.6817993149565722 false 6141 -1.6817993149565722 true
gene 8 2 62 1.3184477074685088 false 6142 1.3184477074685088 true
gene 2 2 83 -4.470196027988322 false 6143 -4.470196027988322 true
gene 1 54 55 5.095372953271216 false 6707 5.095372953271216 true
gene 8 54 62 2.0472513160136474 false 6708 2.0472513160136474 true
gene 3 54 83 -0.12745458024689982 false 6709 -0.12745458024689982 true
gene 14 12 55 3.9970567278516027 false 7131 3.9970567278516027 true
gene 9 12 62 3.799458876524125 false 7132 3.799458876524125 true
gene 8 12 83 -4.632179620943731 false 7133 -4.632179620943731 true
gene 15 33 55 9.342883436888663 false 7640 9.342883436888663 true
gene 13 33 62 3.8555267901068517 false 7641 3.8555267901068517 true
gene 12 33 83 -1.8191832097031788 false 7642 -1.8191832097031788 true
gene 9 43 55 -3.110117715609081 false 8236 -3.110117715609081 true
gene 3 43 62 14.194591110375356 false 8237 14.194591110375356 true
gene 15 43 83 -0.555994468458491 false 8238 -0.555994468458491 true
gene 14 23 55 -0.6494487829578628 false 8470 -0.6494487829578628 true
gene 11 23 62 2.150405756989378 false 8471 2.150405756989378 true
gene 5 23 83 -1.6462422153950227 false 8472 -1.6462422153950227 true
gene 12 3 55 -8.6450919117358 false 8825 -8.6450919117358 true
gene 15 3 62 -0.8683763056857643 false 8831 -0.8683763056857643 true
gene 14 3 83 0.9494481405370107 false 8832 0.9494481405370107 true
gene 12 37 55 3.988376282428257 false 9202 3.988376282428257 true
gene 14 37 62 8.36704879506024 false 9203 8.36704879506024 true
gene 1 37 83 -3.7361375633169667 false 9204 -3.7361375633169667 true
gene 6 5 55 -1.2043566784035187 false 9996 -1.2043566784035187 true
gene 1 5 62 0.8343380412228856 false 9997 0.8343380412228856 true
gene 4 5 83 -0.1777579044695239 false 9998 -0.1777579044695239 true
gene 3 7 55 0.2632413774184479 false 10342 0.2632413774184479 true
gene 5 7 62 -0.5471224057303523 false 10343 -0.5471224057303523 true
gene 9 7 83 0.07427883149154896 false 10344 0.07427883149154896 true
gene 10 49 55 4.8046623275407185 false 10665 4.8046623275407185 true
gene 14 49 62 0.23605903961371555 false 10666 0.23605903961371555 true
gene 2 49 83 6.725252803583088 false 10667 6.725252803583088 true
gene 5 20 55 -0.5931140138056659 false 11087 -0.5931140138056659 true
gene 13 20 62 4.790434191426685 false 11088 4.790434191426685 true
gene 11 20 83 3.2519101787841667 false 11089 3.2519101787841667 true
gene 14 52 55 -0.8417139261375284 false 12163 -0.8417139261375284 true
gene 14 52 62 -1.3750800859106855 false 12164 -1.3750800859106855 true
gene 9 52 83 -3.7479452405654263 false 12165 -3.7479452405654263 true
gene 15 29 55 0.5444333126616674 false 12500 0.5444333126616674 true
gene 2 29 62 -2.5425479774244866 false 12501 -2.5425479774244866 true
gene 8 29 83 -1.0862521308712612 false 12502 -1.0862521308712612 true
gene 8 13 55 2.0732100196820547 false 12879 2.0732100196820547 true
gene 9 13 62 -3.1592872830907326 false 12880 -3.1592872830907326 true
gene 8 13 83 3.2677096852763947 false 12881 3.2677096852763947 true
gene 1 40 55 0.7189953292867722 false 13003 0.7189953292867722 true
gene 15 40 62 5.394504677039669 false 13004 5.394504677039669 true
gene 5 40 83 11.244397287692776 false 13005 11.244397287692776 true
gene 14 10 55 -4.867378276387209 false 13327 -4.867378276387209 true
gene 3 10 62 2.4899572549112525 false 13328 2.4899572549112525 true
gene 1 10 83 -2.7525447125385964 false 13329 -2.7525447125385964 true
gene 13 53 62 -9.193900431015612 false 13446 -9.193900431015612 true
gene 4 53 55 3.880963708397409 false 13447 3.880963708397409 true
gene 4 53 83 3.0531100904560358 false 13448 3.0531100904560358 true
gene 2 14 55 -0.07133174405838871 false 13571 -0.07133174405838871 true
gene 1 14 62 -4.838716641770931 false 13572 -4.838716641770931 true
gene 6 14 83 -4.331602566580387 false 13573 -4.331602566580387 true
gene 11 8 55 -1.3778385688114607 false 13849 -1.3778385688114607 true
gene 10 8 62 -2.025488353782406 false 13850 -2.025488353782406 true
gene 1 8 83 4.1534995108870785 false 13851 4.1534995108870785 true
gene 14 4 55 0.9869123239742711 false 13943 0.9869123239742711 true
gene 6 4 62 -0.6046426099593369 false 13944 -0.6046426099593369 true
gene 14 4 83 -2.065260522775017 false 13945 -2.065260522775017 true
gene 14 34 55 1.07810634934931 false 14563 1.07810634934931 true
gene 14 34 62 2.8167221681682806 false 14564 2.8167221681682806 true
gene 13 34 83 2.602874339649847 false 14565 2.602874339649847 true
gene 9 21 55 0.8441364590534309 false 15076 0.8441364590534309 true
gene 2 21 62 1.5039473735196076 false 15077 1.5039473735196076 true
gene 9 21 83 0.7556094531422073 false 15078 0.7556094531422073 true
gene 10 27 62 2.3094732704782936 false 15269 2.3094732704782936 true
gene 10 44 55 -0.6052098289563637 false 15456 -0.6052098289563637 true
gene 14 44 62 -10.13567736857219 false 15457 -10.13567736857219 true
gene 10 44 83 -2.3576506013508296 false 15458 -2.3576506013508296 true
gene 13 41 55 -4.265326662722284 false 16033 -4.265326662722284 true
gene 5 41 62 2.2793105108239113 false 16034 2.2793105108239113 true
gene 5 41 83 4.4098175495842185 false 16035 4.4098175495842185 true
gene 8 6 55 5.3955185155842695 false 16555 5.3955185155842695 true
gene 8 6 62 -2.9451252492554456 false 16556 -2.9451252492554456 true
gene 4 6 83 8.255052795742532 false 16557 8.255052795742532 true
gene 8 2 679 1 false 16806 0 true
gene 8 679 62 1.3184477074685088 false 16807 0 true
gene 13 51 55 7.369197882665484 false 16843 0 true
gene 12 51 62 8.251090351221267 false 16844 0 true
gene 15 51 83 -3.6939565347223366 false 16845 0 true
gene 4 51 679 8.03074250541461 false 16936 8.03074250541461 true
gene 4 39 679 -6.790259461258281 false 17128 -6.790259461258281 true
genomeend 127
