genomestart 133
trait 1 0.1 0 0 0 0 0 0 0
trait 2 0.2 0 0 0 0 0 0 0
trait 3 0.3 0 0 0 0 0 0 0
trait 4 0.4 0 0 0 0 0 0 0
trait 5 0.5 0 0 0 0 0 0 0
trait 6 0.6 0 0 0 0 0 0 0
trait 7 0.7 0 0 0 0 0 0 0
trait 8 0.8 0 0 0 0 0 0 0
trait 9 0.9 0 0 0 0 0 0 0
trait 10 1 0 0.20554917889084218 0 0.2542792649110361 0 0 0
trait 11 1.1 0 0 0 0 0 0 0
trait 12 1.2 0 0 0 0 0 0 0
trait 13 1.3 0 0 0 0 0 0 0
trait 14 1.4 0 0 0 0 0 0 0
trait 15 1.5 0 0 0 0 0 0 0
node 1 1 1 3 NullActivation
node 2 1 1 1 NullActivation
node 3 1 1 1 NullActivation
node 4 1 1 1 NullActivation
node 5 1 1 1 NullActivation
node 6 1 1 1 NullActivation
node 7 1 1 1 NullActivation
node 8 1 1 1 NullActivation
node 9 1 1 1 NullActivation
node 10 1 1 1 NullActivation
node 11 1 1 1 NullActivation
node 12 1 1 1 NullActivation
node 13 1 1 1 NullActivation
node 14 1 1 1 NullActivation
node 15 1 1 1 NullActivation
node 16 1 1 1 NullActivation
node 17 1 1 1 NullActivation
node 18 1 1 1 NullActivation
node 19 1 1 1 NullActivation
node 20 1 1 1 NullActivation
node 21 1 1 1 NullActivation
node 22 1 1 1 NullActivation
node 23 1 1 1 NullActivation
node 24 1 1 1 NullActivation
node 25 1 1 1 NullActivation
node 26 1 1 1 NullActivation
node 27 1 1 1 NullActivation
node 28 1 1 1 NullActivation
node 29 1 1 1 NullActivation
node 30 1 1 1 NullActivation
node 31 1 1 1 NullActivation
node 32 1 1 1 NullActivation
node 33 1 1 1 NullActivation
node 34 1 1 1 NullActivation
node 35 1 1 1 NullActivation
node 36 1 1 1 NullActivation
node 37 1 1 1 NullActivation
node 38 1 1 1 NullActivation
node 39 1 1 1 NullActivation
node 40 1 1 1 NullActivation
node 41 1 1 1 NullActivation
node 42 1 1 1 NullActivation
node 43 1 1 1 NullActivation
node 44 1 1 1 NullActivation
node 45 1 1 1 NullActivation
node 46 1 1 1 NullActivation
node 47 1 1 1 NullActivation
node 48 1 1 1 NullActivation
node 49 1 1 1 NullActivation
node 50 1 1 1 NullActivation
node 51 1 1 1 NullActivation
node 52 1 1 1 NullActivation
node 53 1 1 1 NullActivation
node 54 1 1 1 NullActivation
node 55 1 0 2 SigmoidBipolarActivation
node 71 1 0 0 SigmoidSteepenedActivation
node 79 1 0 0 SigmoidSteepenedActivation
gene 1 1 55 0.7273177138664406 false 1 0.7273177138664406 true
gene 15 3 55 3.7400716171725192 false 17 3.7400716171725192 true
gene 6 36 55 -3.7755306932270596 false 59 -3.7755306932270596 true
gene 12 33 55 -3.609279786634122 false 124 -3.609279786634122 true
gene 1 32 55 1.7546985210145836 false 316 1.7546985210145836 true
gene 15 3 71 -0.17992358149618304 false 371 -0.17992358149618304 true
gene 15 71 55 -1.201821539654112 false 372 -1.201821539654112 true
gene 15 3 79 0.19508391200135122 false 479 0.19508391200135122 true
gene 1 40 55 -0.6730234532846977 false 491 -0.6730234532846977 true
gene 9 40 71 -4.95720276562476 false 492 -4.95720276562476 true
gene 2 7 55 -2.044886805095352 false 524 -2.044886805095352 true
gene 10 7 71 -2.384272060742076 false 571 -2.384272060742076 true
gene 7 7 79 2.3849993999412806 false 572 2.3849993999412806 true
gene 12 43 55 -3.0746488570717565 false 726 -3.0746488570717565 true
gene 15 43 71 -7.760098478856649 false 770 -7.760098478856649 true
gene 2 43 79 0.9116675007271708 false 771 0.9116675007271708 true
gene 2 38 55 -0.0772011052065025 false 971 -0.0772011052065025 true
gene 11 38 71 0.8704206822954319 false 1026 0.8704206822954319 true
gene 1 38 79 -3.871946316617854 false 1027 -3.871946316617854 true
gene 8 48 55 6.09019196799636 false 1125 6.09019196799636 true
gene 5 48 71 -2.107700270903122 false 1225 -2.107700270903122 true
gene 14 48 79 1.8535720266244886 false 1226 1.8535720266244886 true
gene 3 54 55 5.992767168631374 false 1460 5.992767168631374 true
gene 7 54 71 0.4647204774634982 false 1552 0.4647204774634982 true
gene 6 54 79 -1.033573723334191 false 1553 -1.033573723334191 true
gene 2 44 79 -6.19579241076198 false 1739 -6.19579241076198 true
gene 15 46 55 -3.261045104606266 false 2051 -3.261045104606266 true
gene 14 46 71 -4.849797935697348 false 2108 -4.849797935697348 true
gene 1 46 79 7.467185641996139 false 2109 7.467185641996139 true
gene 9 51 55 5.7194438611833345 false 2744 5.7194438611833345 true
gene 4 51 71 -2.3563969618341885 false 2745 -2.3563969618341885 true
gene 8 51 79 -1.4181752406295587 false 2746 -1.4181752406295587 true
gene 12 5 55 -1.2848383356237967 false 2991 -1.2848383356237967 true
gene 4 5 71 -1.015498129627459 false 2992 -1.015498129627459 true
gene 10 5 79 6.547254525413665 false 2993 6.547254525413665 true
gene 7 41 55 -5.238127192004324 false 3095 -5.238127192004324 true
gene 3 41 71 -6.444251975399363 false 3150 -6.444251975399363 true
gene 6 41 79 -3.610184870446159 false 3151 -3.610184870446159 true
gene 9 24 55 6.553418546498216 false 3498 6.553418546498216 true
gene 1 24 71 7.42574137408383 false 3499 7.42574137408383 true
gene 3 24 79 -1.2329089469544292 false 3500 -1.2329089469544292 true
gene 6 12 55 -2.418534223262188 false 3634 -2.418534223262188 true
gene 3 12 71 8.536315369530245 false 3753 8.536315369530245 true
gene 14 12 79 -1.3276680014516862 false 3754 -1.3276680014516862 true
genomeend 133
