genomestart 17
trait 1 0.1 0 0 0 0 0 0 0
trait 2 0.2 0 0 0 0 0 0 0
trait 3 0.3 0 0 0 0 0 0 0
trait 4 0.4 0 0 0 0 0 0 0
trait 5 0.5 0 0 0 0 0 0 0
trait 6 0.6 0 0 0 0 0 0 0
trait 7 0.7 0 0 0 0 0 0 0
trait 8 0.8 0 0 0 0 0 0 0
trait 9 0.9 0 0 0 0 0 0 0
trait 10 1 0 0 0 0 0 0 0
trait 11 1.1 0 0 0 0 0 0 0
trait 12 1.2 0 0 0 0 0 0 0
trait 13 1.3 0 0 0 0 0 0 0
trait 14 1.4 0 0 0 0 0 0 0
trait 15 1.5 0 0 0 0 0 0 0
node 1 1 1 3 NullActivation
node 2 1 1 1 NullActivation
node 3 1 1 1 NullActivation
node 4 1 1 1 NullActivation
node 5 1 1 1 NullActivation
node 6 1 1 1 NullActivation
node 7 1 1 1 NullActivation
node 8 1 1 1 NullActivation
node 9 1 1 1 NullActivation
node 10 1 1 1 NullActivation
node 11 1 1 1 NullActivation
node 12 1 1 1 NullActivation
node 13 1 1 1 NullActivation
node 14 1 1 1 NullActivation
node 15 1 1 1 NullActivation
node 16 1 1 1 NullActivation
node 17 1 1 1 NullActivation
node 18 1 1 1 NullActivation
node 19 1 1 1 NullActivation
node 20 1 1 1 NullActivation
node 21 1 1 1 NullActivation
node 22 1 1 1 NullActivation
node 23 1 1 1 NullActivation
node 24 1 1 1 NullActivation
node 25 1 1 1 NullActivation
node 26 1 1 1 NullActivation
node 27 1 1 1 NullActivation
node 28 1 1 1 NullActivation
node 29 1 1 1 NullActivation
node 30 1 1 1 NullActivation
node 31 1 1 1 NullActivation
node 32 1 1 1 NullActivation
node 33 1 1 1 NullActivation
node 34 1 1 1 NullActivation
node 35 1 1 1 NullActivation
node 36 1 1 1 NullActivation
node 37 1 1 1 NullActivation
node 38 1 1 1 NullActivation
node 39 1 1 1 NullActivation
node 40 1 1 1 NullActivation
node 41 1 1 1 NullActivation
node 42 1 1 1 NullActivation
node 43 1 1 1 NullActivation
node 44 1 1 1 NullActivation
node 45 1 1 1 NullActivation
node 46 1 1 1 NullActivation
node 47 1 1 1 NullActivation
node 48 1 1 1 NullActivation
node 49 1 1 1 NullActivation
node 50 1 1 1 NullActivation
node 51 1 1 1 NullActivation
node 52 1 1 1 NullActivation
node 53 1 1 1 NullActivation
node 54 1 1 1 NullActivation
node 55 1 0 2 SigmoidBipolarActivation
node 59 1 0 0 SigmoidSteepenedActivation
gene 1 1 55 -0.4335577191086717 false 1 -0.4335577191086717 true
gene 3 47 55 -3.82665145363998 false 12 -3.82665145363998 true
gene 3 47 59 3.6966013276378056 false 97 3.6966013276378056 true
gene 3 59 55 -4.61494617153811 false 98 -4.61494617153811 true
gene 11 7 59 0.3218452788452466 false 199 0.3218452788452466 true
gene 3 20 55 0.16530165462720126 false 290 0.16530165462720126 true
gene 6 20 59 -2.009264035354687 false 392 -2.009264035354687 true
gene 5 25 55 -6.461565486994978 false 401 -6.461565486994978 true
gene 12 25 59 -2.9330473253501186 false 458 -2.9330473253501186 true
gene 5 31 55 -2.9338271461438574 false 513 -2.9338271461438574 true
gene 7 31 59 -3.8641627558434175 false 586 -3.8641627558434175 true
gene 12 46 55 -8.300704955826617 false 730 -8.300704955826617 true
gene 10 46 59 1.5440876991600185 false 778 1.5440876991600185 true
gene 12 6 55 3.1528505807728244 false 825 3.1528505807728244 true
gene 7 6 59 3.6359903037137893 false 901 3.6359903037137893 true
gene 6 4 55 -3.7760516992909317 false 998 -3.7760516992909317 true
gene 5 4 59 3.7888523952177975 false 1080 3.7888523952177975 true
gene 13 30 55 8.034144442829497 false 1203 8.034144442829497 true
gene 9 30 59 -0.785193233981309 false 1232 -0.785193233981309 true
gene 3 48 55 8.352299200199994 false 1812 0 true
gene 14 48 59 -6.292333655668313 false 1839 -6.292333655668313 true
genomeend 17
