genomestart 104
trait 1 0.1 0 0 0 0 0 0 0
trait 2 0.2 0 0 0 0 0 0 0
trait 3 0.3 0 0 0 0 0 0 0
trait 4 0.4 0 0 0 0 0 0 0
trait 5 0.5 0 0 0 0 0 0 0
trait 6 0.6 0 0 0 0 0 0 0
trait 7 0.7 0 0 0 0 0 0 0
trait 8 0.8 0 0 0 0 0 0 0
trait 9 0.9 0 0 0 0 0 0 0
trait 10 1 0 0 0 0 0 0 0
trait 11 1.1 0 0 0 0 0 0 0
trait 12 1.2 0 0 0 0 0 0 0
trait 13 1.3 0 0 0 0 0 0 0
trait 14 1.4 0 0 0.2936444880179013 0 0 0 0
trait 15 1.5 0 0 0 0 0 0 0
node 1 1 1 3 NullActivation
node 2 1 1 1 NullActivation
node 3 1 1 1 NullActivation
node 4 1 1 1 NullActivation
node 5 1 1 1 NullActivation
node 6 1 1 1 NullActivation
node 7 1 1 1 NullActivation
node 8 1 1 1 NullActivation
node 9 1 1 1 NullActivation
node 10 1 1 1 NullActivation
node 11 1 1 1 NullActivation
node 12 1 1 1 NullActivation
node 13 1 1 1 NullActivation
node 14 1 1 1 NullActivation
node 15 1 1 1 NullActivation
node 16 1 1 1 NullActivation
node 17 1 1 1 NullActivation
node 18 1 1 1 NullActivation
node 19 1 1 1 NullActivation
node 20 1 1 1 NullActivation
node 21 1 1 1 NullActivation
node 22 1 1 1 NullActivation
node 23 1 1 1 NullActivation
node 24 1 1 1 NullActivation
node 25 1 1 1 NullActivation
node 26 1 1 1 NullActivation
node 27 1 1 1 NullActivation
node 28 1 1 1 NullActivation
node 29 1 1 1 NullActivation
node 30 1 1 1 NullActivation
node 31 1 1 1 NullActivation
node 32 1 1 1 NullActivation
node 33 1 1 1 NullActivation
node 34 1 1 1 NullActivation
node 35 1 1 1 NullActivation
node 36 1 1 1 NullActivation
node 37 1 1 1 NullActivation
node 38 1 1 1 NullActivation
node 39 1 1 1 NullActivation
node 40 1 1 1 NullActivation
node 41 1 1 1 NullActivation
node 42 5 1 1 NullActivation
node 43 1 1 1 NullActivation
node 44 1 1 1 NullActivation
node 45 1 1 1 NullActivation
node 46 1 1 1 NullActivation
node 47 1 1 1 NullActivation
node 48 1 1 1 NullActivation
node 49 1 1 1 NullActivation
node 50 1 1 1 NullActivation
node 51 1 1 1 NullActivation
node 52 1 1 1 NullActivation
node 53 1 1 1 NullActivation
node 54 1 1 1 NullActivation
node 55 1 0 2 SigmoidBipolarActivation
node 57 1 0 0 SigmoidSteepenedActivation
node 68 1 0 0 SigmoidSteepenedActivation
gene 1 1 55 3.4393236520759274 false 1 3.4393236520759274 true
gene 5 54 55 6.694130580035365 false 12 6.694130580035365 true
gene 5 54 57 2.3868675439394886 false 85 2.3868675439394886 true
gene 5 57 55 1.8138668724385725 false 86 1.8138668724385725 true
gene 15 21 55 -0.9996657147877703 false 117 -0.9996657147877703 true
gene 6 21 57 -6.228983251559856 false 186 -6.228983251559856 true
gene 8 35 55 -0.8577069444295611 false 215 -0.8577069444295611 true
gene 2 35 57 -3.088398517939246 false 216 -3.088398517939246 true
gene 6 48 55 -0.052517776523986925 false 293 -0.052517776523986925 true
gene 10 48 57 -1.8712175524725732 false 294 -1.8712175524725732 true
gene 5 54 68 -2.26884885833431 false 426 -2.26884885833431 true
gene 5 68 55 -0.6622361179622518 false 427 -0.6622361179622518 true
gene 10 49 55 5.809325561183252 false 620 5.809325561183252 true
gene 7 49 57 3.093366746187498 false 651 3.093366746187498 true
gene 4 49 68 -7.032483434518991 false 652 -7.032483434518991 true
gene 3 50 55 -17.457416930563696 false 699 -17.457416930563696 true
gene 3 50 57 4.7274764610821185 false 722 4.7274764610821185 true
gene 9 50 68 1.778652672046453 false 790 1.778652672046453 true
gene 5 52 68 -1.2350137395978131 false 1097 -1.2350137395978131 true
gene 2 8 55 6.928630032356738 false 1379 6.928630032356738 true
gene 2 8 57 -7.044862346079692 false 1380 -7.044862346079692 true
gene 1 8 68 -0.06904430771920955 false 1381 -0.06904430771920955 true
gene 6 29 57 2.110246706633893 false 1686 2.110246706633893 true
gene 13 33 55 1.0356118477656695 false 1919 1.0356118477656695 true
gene 14 33 57 1.9576147344197863 false 1920 1.9576147344197863 true
gene 9 33 68 -6.011033461838916 false 1921 -6.011033461838916 true
gene 13 9 55 -8.459909292517553 false 2115 -8.459909292517553 true
gene 15 9 57 13.118901139503537 false 2116 13.118901139503537 true
gene 9 9 68 14.405529960908854 false 2117 14.405529960908854 true
gene 1 51 55 6.249592898940066 false 2452 6.249592898940066 true
gene 3 51 57 -2.788500497863558 false 2453 -2.788500497863558 true
gene 4 51 68 2.554233292906015 false 2454 2.554233292906015 true
gene 2 26 55 1.5719483011245643 false 2606 1.5719483011245643 true
gene 7 26 57 -0.02363023525359842 false 2607 -0.02363023525359842 true
gene 9 26 68 5.765630548865191 false 2608 5.765630548865191 true
gene 8 5 55 -2.9339765155504525 false 2911 -2.9339765155504525 true
gene 7 5 57 1.5471154222213235 false 2912 1.5471154222213235 true
gene 5 5 68 0.7656409451787751 false 2913 0.7656409451787751 true
gene 11 34 55 -4.534082095334605 false 3654 -4.534082095334605 true
gene 4 34 57 1.5915595688212771 false 3655 1.5915595688212771 true
gene 13 34 68 1.1989248841458497 false 3656 1.1989248841458497 true
gene 8 7 55 -1.363905167236565 false 4304 -1.363905167236565 true
gene 4 7 57 3.064535468019124 false 4305 3.064535468019124 true
gene 14 7 68 -0.19896366389477493 false 4306 -0.19896366389477493 true
gene 8 2 55 0.22816514076711325 false 4817 0.22816514076711325 true
gene 5 2 57 0.24117198445503701 false 4818 0.24117198445503701 true
gene 14 2 68 1.6367948950659712 false 4819 1.6367948950659712 true
gene 13 22 55 4.807759118897857 false 4959 4.807759118897857 true
gene 15 22 57 -3.1494560537152974 false 4960 -3.1494560537152974 true
gene 7 22 68 -2.6690052414199528 false 4982 -2.6690052414199528 true
gene 11 44 68 0.20827169121036193 false 5336 0.20827169121036193 true
gene 13 44 55 0.5263103390567778 false 5386 0.5263103390567778 true
gene 13 44 57 -3.4028042883189733 false 5401 -3.4028042883189733 true
gene 14 36 55 -0.40390849183856914 false 5812 -0.40390849183856914 true
gene 11 36 57 -5.650569001953167 false 5813 -5.650569001953167 true
gene 13 36 68 -4.300135600765426 false 5814 -4.300135600765426 true
gene 13 25 55 -1.3318040297139067 false 6455 -1.3318040297139067 true
gene 15 25 57 8.273996129486607 false 6456 8.273996129486607 true
gene 13 25 68 -1.338783908343445 false 6457 -1.338783908343445 true
gene 10 16 55 2.935899641135855 false 6980 2.935899641135855 true
gene 8 16 57 8.241212615524553 false 6981 8.241212615524553 true
gene 4 16 68 8.840071015099472 false 6982 8.840071015099472 true
gene 4 10 55 -5.234407897004008 false 7175 0 true
gene 4 10 57 7.765469602717834 false 7176 0 true
gene 13 10 68 0.4464538059206459 false 7177 0 true
genomeend 104
