genomestart 177
trait 1 0.1 0 0 0 0 0 0 0
trait 2 0.2 0 0 0 0 0 0 0
trait 3 0.3 0 0 0 0 0 0 0
trait 4 0.4 0 0 0 0 0 0 0
trait 5 0.5 0 0 0 0 0 0 0
trait 6 0.6 0 0 0 0 0 0 0
trait 7 0.7 0 0 0 0 0 0 0
trait 8 0.8 0 0 0 0 0 0 0
trait 9 0.9 0 0 0 0 0 0 0
trait 10 1.041220659498751 0 0 0 0 0.606929344570776 0 0
trait 11 1.1 0 0 0 0 0 0 0
trait 12 1.2 0 0 0 0 0 0 0
trait 13 1.6544446017715624 0 0 0.08502658541678289 0 0 0.7742738735185977 0.754136517518122
trait 14 1.4 0 0 0 0 0 0 0
trait 15 1.5 0 0 0 0 0 0 0
node 1 1 1 3 NullActivation
node 2 1 1 1 NullActivation
node 3 1 1 1 NullActivation
node 4 1 1 1 NullActivation
node 5 1 1 1 NullActivation
node 6 1 1 1 NullActivation
node 7 1 1 1 NullActivation
node 8 1 1 1 NullActivation
node 9 1 1 1 NullActivation
node 10 1 1 1 NullActivation
node 11 1 1 1 NullActivation
node 12 1 1 1 NullActivation
node 13 1 1 1 NullActivation
node 14 1 1 1 NullActivation
node 15 1 1 1 NullActivation
node 16 1 1 1 NullActivation
node 17 1 1 1 NullActivation
node 18 1 1 1 NullActivation
node 19 12 1 1 NullActivation
node 20 1 1 1 NullActivation
node 21 1 1 1 NullActivation
node 22 1 1 1 NullActivation
node 23 7 1 1 NullActivation
node 24 1 1 1 NullActivation
node 25 1 1 1 NullActivation
node 26 1 1 1 NullActivation
node 27 1 1 1 NullActivation
node 28 1 1 1 NullActivation
node 29 1 1 1 NullActivation
node 30 13 1 1 NullActivation
node 31 1 1 1 NullActivation
node 32 7 1 1 NullActivation
node 33 1 1 1 NullActivation
node 34 1 1 1 NullActivation
node 35 1 1 1 NullActivation
node 36 1 1 1 NullActivation
node 37 1 1 1 NullActivation
node 38 1 1 1 NullActivation
node 39 1 1 1 NullActivation
node 40 1 1 1 NullActivation
node 41 1 1 1 NullActivation
node 42 1 1 1 NullActivation
node 43 1 1 1 NullActivation
node 44 1 1 1 NullActivation
node 45 1 1 1 NullActivation
node 46 1 1 1 NullActivation
node 47 1 1 1 NullActivation
node 48 1 1 1 NullActivation
node 49 1 1 1 NullActivation
node 50 1 1 1 NullActivation
node 51 1 1 1 NullActivation
node 52 1 1 1 NullActivation
node 53 1 1 1 NullActivation
node 54 1 1 1 NullActivation
node 55 1 0 2 SigmoidBipolarActivation
node 61 1 0 0 SigmoidSteepenedActivation
node 84 1 0 0 SigmoidSteepenedActivation
node 404 1 0 0 SigmoidSteepenedActivation
gene 1 1 55 -3.844118246575092 false 1 -3.844118246575092 true
gene 10 30 55 1.027238108645644 false 51 1.027238108645644 true
gene 10 30 61 0.3549828660551948 false 112 0.3549828660551948 true
gene 10 61 55 -1.6358974864284708 false 113 -1.6358974864284708 true
gene 8 49 55 5.978308433562735 false 203 5.978308433562735 true
gene 6 49 61 4.329283857601337 false 281 4.329283857601337 true
gene 10 30 84 1.2328018526736484 false 538 1.2328018526736484 true
gene 10 84 61 1.6917328106693714 false 539 1.6917328106693714 true
gene 13 43 55 -1.6561990093733214 false 657 -1.6561990093733214 true
gene 3 43 61 -1.3049641702810513 false 658 -1.3049641702810513 true
gene 11 43 84 0.07544208253311246 false 659 0.07544208253311246 true
gene 6 21 55 2.5494126643699957 false 850 2.5494126643699957 true
gene 14 21 61 -2.3991406210804227 false 851 -2.3991406210804227 true
gene 9 21 84 17.08794260063187 false 852 17.08794260063187 true
gene 8 33 55 0.6344216710758765 false 889 0.6344216710758765 true
gene 13 33 61 2.4508920901849756 false 1015 2.4508920901849756 true
gene 4 33 84 -0.5537436539110385 false 1016 -0.5537436539110385 true
gene 13 54 55 0.7935653376202438 false 1611 0.7935653376202438 true
gene 7 54 61 -1.2402182778817545 false 1677 -1.2402182778817545 true
gene 4 54 84 0.38908634833816147 false 1678 0.38908634833816147 true
gene 6 25 55 -6.114361219119577 false 1854 -6.114361219119577 true
gene 14 25 61 -0.44482711724176116 false 1950 -0.44482711724176116 true
gene 6 25 84 -2.0798826284782033 false 1951 -2.0798826284782033 true
gene 8 45 61 1.1660224875338607 false 2083 1.1660224875338607 true
gene 1 53 61 -1.7990754374607474 false 2859 -1.7990754374607474 true
gene 13 51 55 12.71352972323851 false 3058 12.71352972323851 true
gene 3 51 61 1.1775089877783236 false 3059 1.1775089877783236 true
gene 14 51 84 -2.665894640744084 false 3060 -2.665894640744084 true
gene 13 32 61 5.206433633845176 false 3313 5.206433633845176 true
gene 2 10 84 7.014767700178535 false 3535 7.014767700178535 true
gene 11 2 84 -1.8659032324467992 false 3659 -1.8659032324467992 true
gene 9 2 55 2.129940518662542 false 3678 2.129940518662542 true
gene 7 2 61 2.468349309007959 false 3679 2.468349309007959 true
gene 14 6 55 -0.6286834557500283 false 4120 -0.6286834557500283 true
gene 14 6 61 1.3681997879733854 false 4138 1.3681997879733854 true
gene 11 6 84 -0.26879938133528136 false 4139 -0.26879938133528136 true
gene 9 29 55 5.8352236400848145 false 4567 5.8352236400848145 true
gene 13 29 61 -0.42363527567598724 false 4568 -0.42363527567598724 true
gene 6 29 84 -1.037494986203362 false 4569 -1.037494986203362 true
gene 11 41 55 -0.05547591621420753 false 4873 -0.05547591621420753 true
gene 5 41 61 -3.956720347574053 false 4874 -3.956720347574053 true
gene 3 41 84 3.462916894615863 false 4875 3.462916894615863 true
gene 7 35 55 6.002955559051811 false 5257 6.002955559051811 true
gene 13 35 61 -5.2277683263154975 false 5258 -5.2277683263154975 true
gene 3 35 84 4.769946366461933 false 5259 4.769946366461933 true
gene 3 3 55 -5.710518610151368 false 5773 -5.710518610151368 true
gene 10 3 61 -1.0905795078705456 false 5774 -1.0905795078705456 true
gene 12 3 84 -0.3569281818594055 false 5775 -0.3569281818594055 true
gene 11 38 55 3.7642388676902057 false 6209 3.7642388676902057 true
gene 4 38 61 -1.9840350698913674 false 6210 -1.9840350698913674 true
gene 5 38 84 -7.4043576291483655 false 6211 -7.4043576291483655 true
gene 9 31 84 -1.4081919518969463 false 6366 -1.4081919518969463 true
gene 2 26 55 -1.058872099289059 false 6676 -1.058872099289059 true
gene 13 26 61 14.740310264572864 false 6677 14.740310264572864 true
gene 9 26 84 5.893118544139355 false 6678 5.893118544139355 true
gene 6 23 55 1.8676047594565957 false 7327 1.8676047594565957 true
gene 14 23 61 1.5431482907325922 false 7328 1.5431482907325922 true
gene 3 23 84 7.099521450162376 false 7329 7.099521450162376 true
gene 1 47 55 1.9954976827211581 false 7995 1.9954976827211581 true
gene 7 47 61 3.8689370631973627 false 7996 3.8689370631973627 true
gene 3 47 84 -8.011232787791926 false 7997 -8.011232787791926 true
gene 7 24 55 -9.734386405697975 false 8256 0 true
gene 15 24 61 2.313704151904529 false 8257 0 true
gene 9 24 84 -4.719671759237503 false 8258 0 true
gene 11 22 55 3.5195856229035805 false 8519 0 true
gene 14 22 61 9.817762561001512 false 8560 9.817762561001512 true
gene 3 22 84 -3.484252297942802 false 8561 -3.484252297942802 true
gene 2 8 55 1.576264067606571 false 8600 0 true
gene 14 8 61 4.281298721535639 false 8601 0 true
gene 8 8 84 -6.9074072725763225 false 8602 0 true
gene 8 20 55 2.50548699528081 false 9277 2.50548699528081 true
gene 14 20 61 9.401045008809968 false 9278 9.401045008809968 true
gene 1 20 84 8.253465252591992 false 9279 8.253465252591992 true
gene 15 5 55 2.3857607931420595 false 9453 0 true
gene 2 5 61 8.276067962709309 false 9454 0 true
gene 1 5 84 4.742966982500681 false 9455 0 true
gene 6 25 404 1 false 9730 0 true
gene 6 404 84 -2.0798826284782033 false 9731 0 true
gene 2 9 55 -5.391472587520071 false 9753 0 true
gene 5 9 61 -2.9665555114913507 false 9754 0 true
gene 14 9 84 1.6490404701863581 false 9755 0 true
gene 9 9 404 8.3958612075175 false 9842 8.3958612075175 true
genomeend 177
