genomestart 100
trait 1 0 0 0 0 0.3614077519189699 0 0 0
trait 2 0.2 0 0 0 0 0 0 0
trait 3 0.3 0 0 0 0 0 0 0
trait 4 0.4 0 0 0 0 0 0 0
trait 5 0.5 0 0 0 0 0 0 0
trait 6 0.6 0 0 0 0 0 0 0
trait 7 0.7 0 0 0 0 0 0 0
trait 8 0.8 0 0 0 0 0 0 0
trait 9 0.9 0 0 0.9930511956184813 0 0 0 0
trait 10 1 0 0 0 0 0 0 0
trait 11 1.1 0 0 0 0 0 0 0
trait 12 1.2 0 0 0 0 0 0 0
trait 13 1.3 0 0 0 0 0 0 0
trait 14 1.4 0 0 0 0 0 0 0
trait 15 1.5 0 0 0 0 0 0 0
node 1 1 1 3 NullActivation
node 2 12 1 1 NullActivation
node 3 1 1 1 NullActivation
node 4 1 1 1 NullActivation
node 5 1 1 1 NullActivation
node 6 1 1 1 NullActivation
node 7 1 1 1 NullActivation
node 8 1 1 1 NullActivation
node 9 15 1 1 NullActivation
node 10 1 1 1 NullActivation
node 11 1 1 1 NullActivation
node 12 8 1 1 NullActivation
node 13 1 1 1 NullActivation
node 14 1 1 1 NullActivation
node 15 1 1 1 NullActivation
node 16 1 1 1 NullActivation
node 17 1 1 1 NullActivation
node 18 1 1 1 NullActivation
node 19 1 1 1 NullActivation
node 20 1 1 1 NullActivation
node 21 1 1 1 NullActivation
node 22 1 1 1 NullActivation
node 23 1 1 1 NullActivation
node 24 1 1 1 NullActivation
node 25 1 1 1 NullActivation
node 26 1 1 1 NullActivation
node 27 1 1 1 NullActivation
node 28 9 1 1 NullActivation
node 29 1 1 1 NullActivation
node 30 1 1 1 NullActivation
node 31 1 1 1 NullActivation
node 32 1 1 1 NullActivation
node 33 1 1 1 NullActivation
node 34 1 1 1 NullActivation
node 35 1 1 1 NullActivation
node 36 1 1 1 NullActivation
node 37 1 1 1 NullActivation
node 38 1 1 1 NullActivation
node 39 1 1 1 NullActivation
node 40 1 1 1 NullActivation
node 41 1 1 1 NullActivation
node 42 1 1 1 NullActivation
node 43 1 1 1 NullActivation
node 44 1 1 1 NullActivation
node 45 1 1 1 NullActivation
node 46 1 1 1 NullActivation
node 47 1 1 1 NullActivation
node 48 1 1 1 NullActivation
node 49 1 1 1 NullActivation
node 50 1 1 1 NullActivation
node 51 1 1 1 NullActivation
node 52 1 1 1 NullActivation
node 53 1 1 1 NullActivation
node 54 1 1 1 NullActivation
node 55 1 0 2 SigmoidBipolarActivation
node 59 1 0 0 SigmoidSteepenedActivation
node 63 1 0 0 SigmoidSteepenedActivation
node 127 1 0 0 SigmoidSteepenedActivation
node 269 1 0 0 SigmoidSteepenedActivation
node 437 1 0 0 SigmoidSteepenedActivation
node 512 1 0 0 SigmoidSteepenedActivation
gene 1 1 55 -6.880138326020521 false 1 -6.880138326020521 true
gene 7 49 55 -0.8731378008322614 false 37 -0.8731378008322614 true
gene 7 49 59 7.567333391405468 false 101 7.567333391405468 true
gene 7 59 55 -1.0631625356427716 false 102 -1.0631625356427716 true
gene 12 18 55 1.6360879349851754 false 110 1.6360879349851754 true
gene 5 18 59 2.85750520251832 false 190 2.85750520251832 true
gene 7 49 63 0.3040815555695396 false 286 0.3040815555695396 true
gene 1 63 55 -0.07378935586548793 false 287 -0.07378935586548793 true
gene 3 23 55 -5.919398828153943 false 303 -5.919398828153943 true
gene 14 23 59 -2.601915288736711 false 387 -2.601915288736711 true
gene 8 23 63 4.654394038098419 false 400 4.654394038098419 true
gene 6 50 55 1.4705305543621736 false 445 1.4705305543621736 true
gene 11 50 59 -1.8998988712905356 false 521 -1.8998988712905356 true
gene 6 50 63 18.73149558074193 false 522 18.73149558074193 true
gene 12 44 59 0.6897264791429519 false 582 0.6897264791429519 true
gene 2 44 55 1.5877664213839735 false 588 1.5877664213839735 true
gene 7 44 63 -19.184667207986873 false 651 -19.184667207986873 true
gene 14 28 55 -2.722864967021409 false 710 -2.722864967021409 true
gene 3 28 59 -1.123958858534896 false 842 -1.123958858534896 true
gene 5 28 63 1.1080375208965116 false 843 1.1080375208965116 true
gene 11 37 55 1.0033221946818893 false 1016 1.0033221946818893 true
gene 4 37 59 3.5579313345441124 false 1112 3.5579313345441124 true
gene 4 37 63 -4.493984687299669 false 1113 -4.493984687299669 true
gene 2 11 55 0.6250048971869226 false 1323 0.6250048971869226 true
gene 4 17 55 0.5185712271489792 false 1613 0.5185712271489792 true
gene 8 17 59 3.5242426227679484 false 1614 3.5242426227679484 true
gene 7 17 63 -4.954824243644337 false 1615 -4.954824243644337 true
gene 10 51 55 22.598973502082103 false 1777 22.598973502082103 true
gene 5 51 59 -2.837541223815099 false 1778 -2.837541223815099 true
gene 6 51 63 2.2934845301679156 false 1779 2.2934845301679156 true
gene 8 17 127 0.9432714226206658 false 2095 0.9432714226206658 true
gene 8 127 59 -0.7293588698802833 false 2096 -0.7293588698802833 true
gene 15 52 55 6.90527548816027 false 2346 6.90527548816027 true
gene 5 52 59 -0.7876501205993476 false 2347 -0.7876501205993476 true
gene 2 52 63 2.3522570099326763 false 2348 2.3522570099326763 true
gene 3 52 127 0.09671071410528409 false 2349 0.09671071410528409 true
gene 15 54 55 5.844641809365365 false 3111 5.844641809365365 true
gene 13 54 59 2.522117423119482 false 3112 2.522117423119482 true
gene 14 54 63 0.6920123245041823 false 3113 0.6920123245041823 true
gene 15 54 127 -2.028849236827882 false 3114 -2.028849236827882 true
gene 8 32 55 1.0219428678711648 false 3516 1.0219428678711648 true
gene 7 32 59 -1.3726308062809058 false 3517 -1.3726308062809058 true
gene 13 32 63 1.6972438605182303 false 3518 1.6972438605182303 true
gene 3 32 127 -3.3337108955041823 false 3529 -3.3337108955041823 true
gene 10 26 55 -4.215836784814806 false 3789 -4.215836784814806 true
gene 6 26 59 2.831917073225924 false 3790 2.831917073225924 true
gene 10 26 63 -1.8037744803202647 false 3791 -1.8037744803202647 true
gene 6 26 127 0.001926390437069137 false 3792 0.001926390437069137 true
gene 12 10 55 4.60421883279396 false 4030 4.60421883279396 true
gene 2 10 59 -4.388154664282874 false 4031 -4.388154664282874 true
gene 1 10 63 1.6952961511506286 false 4032 1.6952961511506286 true
gene 7 10 127 -1.8917117404504165 false 4033 -1.8917117404504165 true
gene 7 43 55 1.0911732770340214 false 4089 1.0911732770340214 true
gene 14 43 59 2.476014399984365 false 4090 2.476014399984365 true
gene 2 43 63 -2.375856452784448 false 4091 -2.375856452784448 true
gene 6 43 127 -1.8353351278531322 false 4105 -1.8353351278531322 true
gene 4 50 127 -1.6627912313152213 false 4484 -1.6627912313152213 true
gene 10 27 55 2.1176973209960126 false 4498 2.1176973209960126 true
gene 5 27 59 0.5861521086615213 false 4616 0.5861521086615213 true
gene 14 27 63 -3.2877183131940204 false 4617 -3.2877183131940204 true
gene 3 27 127 -6.8951847217688815 false 4618 -6.8951847217688815 true
gene 10 30 55 0.268100123159705 false 4811 0.268100123159705 true
gene 1 30 59 -4.782292053971342 false 4812 -4.782292053971342 true
gene 14 30 63 -0.06500410145992146 false 4813 -0.06500410145992146 true
gene 8 30 127 10.663659333152479 false 4814 10.663659333152479 true
gene 4 39 127 -1.3375343165968028 false 5268 -1.3375343165968028 true
gene 2 29 55 -3.189995177880939 false 5398 -3.189995177880939 true
gene 3 29 59 8.017500200387387 false 5399 8.017500200387387 true
gene 13 29 63 -2.6916041741970163 false 5400 -2.6916041741970163 true
gene 14 29 127 -6.360073409259233 false 5401 -6.360073409259233 true
gene 13 32 269 0.7695413044255224 false 5850 0.7695413044255224 true
gene 13 269 63 8.812839611417685 false 5851 8.812839611417685 true
gene 7 53 55 2.127194723268015 false 6150 2.127194723268015 true
gene 15 53 59 3.5694354458543542 false 6151 3.5694354458543542 true
gene 15 53 63 3.00693879991509 false 6152 3.00693879991509 true
gene 11 53 127 -0.9328737856216716 false 6153 -0.9328737856216716 true
gene 15 53 269 -1.229645181772398 false 6154 -1.229645181772398 true
gene 2 34 55 0.5855631087577742 false 6841 0.5855631087577742 true
gene 5 34 59 3.7594464221493213 false 6842 3.7594464221493213 true
gene 2 34 63 6.7536542517141 false 6843 6.7536542517141 true
gene 11 34 127 1.480038501245814 false 6844 1.480038501245814 true
gene 14 34 269 2.0348985088068643 false 6845 2.0348985088068643 true
gene 6 47 55 -11.242846025761672 false 7108 -11.242846025761672 true
gene 6 47 59 -4.317382013596447 false 7109 -4.317382013596447 true
gene 6 47 63 -6.229813691897715 false 7110 -6.229813691897715 true
gene 12 47 127 0.3158296309849141 false 7111 0.3158296309849141 true
gene 11 47 269 -0.8532605293591221 false 7173 -0.8532605293591221 true
gene 7 38 55 1.391490496369979 false 7556 1.391490496369979 true
gene 3 38 59 -5.19571412424342 false 7557 -5.19571412424342 true
gene 12 38 63 -9.096266314985208 false 7558 -9.096266314985208 true
gene 11 38 127 1.7387619770999434 false 7559 1.7387619770999434 true
gene 10 38 269 -0.4167211387560458 false 7560 -0.4167211387560458 true
gene 3 4 55 2.986083424480217 false 7743 2.986083424480217 true
gene 2 4 59 -0.8196553304177696 false 7744 -0.8196553304177696 true
gene 1 4 63 6.107429382454888 false 7745 6.107429382454888 true
gene 6 4 127 -1.678815720744179 false 7746 -1.678815720744179 true
gene 9 4 269 -3.839791071320765 false 7848 -3.839791071320765 true
gene 11 54 269 -0.7782425664958027 false 8600 -0.7782425664958027 true
gene 11 5 55 0.10836336225999112 false 9045 0.10836336225999112 true
gene 7 5 59 -1.602849086147154 false 9046 -1.602849086147154 true
gene 4 5 63 -0.8476476954511283 false 9047 -0.8476476954511283 true
gene 9 5 127 0.2559231769326509 false 9048 0.2559231769326509 true
gene 5 5 269 -0.7273819374268242 false 9049 -0.7273819374268242 true
gene 12 12 55 4.680944152374389 false 10439 4.680944152374389 true
gene 7 12 59 4.368151432452125 false 10440 4.368151432452125 true
gene 3 12 63 -7.946262855991619 false 10441 -7.946262855991619 true
gene 5 12 127 -1.985183679184261 false 10442 -1.985183679184261 true
gene 12 12 269 5.773604690638145 false 10443 5.773604690638145 true
gene 8 30 437 -4.164565209708571 false 10829 -4.164565209708571 true
gene 8 437 127 5.597194035863342 false 10830 5.597194035863342 true
gene 3 25 55 -1.5685657030600033 false 11203 -1.5685657030600033 true
gene 7 25 59 -0.5191368670194011 false 11204 -0.5191368670194011 true
gene 15 25 63 0.7522437336345619 false 11205 0.7522437336345619 true
gene 3 25 127 6.0826518019856 false 11206 6.0826518019856 true
gene 9 25 269 -3.1294427568959104 false 11207 -3.1294427568959104 true
gene 13 25 437 -5.745836694201815 false 11208 -5.745836694201815 true
gene 9 16 55 -1.4160970259854018 false 11536 -1.4160970259854018 true
gene 13 16 59 -1.637521918400771 false 11537 -1.637521918400771 true
gene 8 16 63 -2.3423525474985456 false 11538 -2.3423525474985456 true
gene 5 16 127 -2.2435945200843626 false 11539 -2.2435945200843626 true
gene 8 16 269 5.0398827074577035 false 11540 5.0398827074577035 true
gene 12 16 437 -6.967674816107959 false 11541 -6.967674816107959 true
gene 13 48 55 -7.1097813387038755 false 11793 -7.1097813387038755 true
gene 5 48 59 3.5840011481058918 false 11794 3.5840011481058918 true
gene 14 48 63 -3.178828466866218 false 11795 -3.178828466866218 true
gene 5 48 127 -1.2165072773967118 false 11796 -1.2165072773967118 true
gene 11 48 269 6.615069940540334 false 11816 6.615069940540334 true
gene 5 48 437 -13.984872948515807 false 11817 -13.984872948515807 true
gene 5 36 55 -8.244434023115325 false 12386 -8.244434023115325 true
gene 7 36 59 3.2181967233975786 false 12387 3.2181967233975786 true
gene 8 36 63 1.3017098732083636 false 12388 1.3017098732083636 true
gene 11 36 127 -0.31103723422841334 false 12389 -0.31103723422841334 true
gene 2 36 269 -1.6656088804727038 false 12390 -1.6656088804727038 true
gene 3 36 437 6.544100174029621 false 12391 6.544100174029621 true
gene 11 19 55 -1.711685477560578 false 12559 -1.711685477560578 true
gene 12 19 59 -1.8333587152742337 false 12560 -1.8333587152742337 true
gene 5 19 63 2.2918538385398146 false 12561 2.2918538385398146 true
gene 11 19 127 9.027899826521914 false 12562 9.027899826521914 true
gene 10 19 269 -0.6797326211340787 false 12689 -0.6797326211340787 true
gene 6 19 437 -4.026794427228607 false 12690 -4.026794427228607 true
gene 5 48 512 -1.1794389823715101 false 13112 -1.1794389823715101 true
gene 5 512 127 1.007289814032271 false 13113 1.007289814032271 true
gene 14 9 55 2.197019345068762 false 13202 2.197019345068762 true
gene 1 9 59 -2.705342247551201 false 13203 -2.705342247551201 true
gene 2 9 63 2.0172295343254576 false 13204 2.0172295343254576 true
gene 12 9 127 1.5897697288010564 false 13205 1.5897697288010564 true
gene 6 9 269 -1.0084195074712055 false 13206 -1.0084195074712055 true
gene 10 9 437 -0.11114117565612655 false 13207 -0.11114117565612655 true
gene 6 9 512 -4.344081778102902 false 13250 -4.344081778102902 true
gene 13 24 55 -0.6916562181078025 false 13420 -0.6916562181078025 true
gene 12 24 59 -1.172055000090256 false 13421 -1.172055000090256 true
gene 9 24 63 -4.024861277332084 false 13422 -4.024861277332084 true
gene 7 24 127 -1.8495057309486551 false 13423 -1.8495057309486551 true
gene 4 24 269 7.960033343990846 false 13552 7.960033343990846 true
gene 1 24 437 4.542264061238916 false 13553 4.542264061238916 true
gene 15 24 512 -0.8036828223071201 false 13554 -0.8036828223071201 true
gene 8 15 55 1.6390169672910573 false 13740 1.6390169672910573 true
gene 1 15 59 2.037926335034456 false 13741 2.037926335034456 true
gene 2 15 63 -0.8945950537134704 false 13742 -0.8945950537134704 true
gene 2 15 127 -11.03060719912533 false 13743 -11.03060719912533 true
gene 8 15 269 -6.019222536810757 false 13829 -6.019222536810757 true
gene 6 15 437 1.3434076035031146 false 13830 1.3434076035031146 true
gene 10 15 512 5.61175292234153 false 13831 5.61175292234153 true
gene 15 22 55 0.7303260856400567 false 14598 0.7303260856400567 true
gene 11 22 59 -7.933729233793542 false 14599 -7.933729233793542 true
gene 2 22 63 -4.396145987540963 false 14600 -4.396145987540963 true
gene 12 22 127 -6.263401522420083 false 14601 -6.263401522420083 true
gene 13 22 269 10.770595943505954 false 14602 10.770595943505954 true
gene 8 22 437 -1.8623463724147498 false 14603 -1.8623463724147498 true
gene 1 22 512 0.8873632381894381 false 14604 0.8873632381894381 true
gene 13 14 55 0.5024477889413577 false 15092 0.5024477889413577 true
gene 10 14 59 1.629765691481226 false 15093 1.629765691481226 true
gene 13 14 63 -4.4352703266472355 false 15094 -4.4352703266472355 true
gene 14 14 127 -7.016735832865288 false 15095 -7.016735832865288 true
gene 2 14 269 -7.856642371638866 false 15096 -7.856642371638866 true
gene 1 14 437 -5.991180564341711 false 15097 -5.991180564341711 true
gene 2 14 512 4.817991772623458 false 15098 4.817991772623458 true
gene 12 13 55 7.02046162992521 false 15204 0 true
gene 15 13 59 2.569102468859932 false 15205 0 true
gene 12 13 63 1.8207265184204253 false 15206 0 true
gene 14 13 127 -2.9539834499162465 false 15207 0 true
gene 8 13 269 -4.995419704956779 false 15208 0 true
gene 4 13 437 -5.747802885608609 false 15209 0 true
gene 10 13 512 -0.3725756088921022 false 15210 0 true
gene 4 7 63 -2.9397853315588245 false 15406 0 true
gene 9 7 55 3.684993847107032 false 15407 0 true
gene 3 7 59 9.651478419409075 false 15408 0 true
gene 6 7 127 2.251032827838962 false 15409 0 true
gene 12 7 269 -0.494604111896905 false 15410 0 true
gene 12 7 437 -7.059303687168327 false 15411 0 true
gene 3 7 512 -4.4510037809820275 false 15412 0 true
gene 12 46 55 3.878304223544598 false 15611 0 true
gene 3 46 59 -3.764969884710345 false 15612 0 true
gene 2 46 63 -0.7511442462492506 false 15613 0 true
gene 13 46 127 -6.983274315339432 false 15614 0 true
gene 1 46 269 -2.467753293401729 false 15615 0 true
gene 8 46 437 -0.18607618813787496 false 15616 0 true
gene 13 46 512 -7.24609349072956 false 15617 0 true
gene 10 35 437 3.2644830967886165 false 15739 0 true
gene 15 41 55 5.351214605816493 false 15875 0 true
gene 3 41 59 9.244123376210744 false 15876 0 true
gene 11 41 63 -7.297006826146346 false 15877 0 true
gene 11 41 127 1.7164822164512474 false 15878 0 true
gene 13 41 269 -5.2846725531805046 false 15879 0 true
gene 3 41 437 1.557165554850799 false 15880 0 true
gene 12 41 512 2.0075455202568095 false 15881 0 true
gene 6 2 63 -8.007872517677226 false 16151 0 true
genomeend 100
