genomestart 70
trait 1 0.1 0 0 0 0 0 0 0
trait 2 0.2 0 0 0 0 0 0 0
trait 3 0.3 0 0 0.4167626223939918 0 0 0 0
trait 4 0.4 0 0 0 0 0 0 0
trait 5 0.5 0 0 0 0 0 0 0
trait 6 0.6 0 0 0 0 0 0 0
trait 7 0.7 0 0 0 0 0 0 0
trait 8 0.8 0 0 0 0 0 0 0
trait 9 0.9 0 0 0 0 0 0 0
trait 10 1 0.6430590385585967 0 0.03994730678693992 0.0854110231929408 0 0 0.2093373002662864
trait 11 1.1 0 0 0 0 0 0 0
trait 12 1.2 0 0 0 0 0 0 0
trait 13 1.3 0 0 0 0 0 0 0
trait 14 1.4 0 0 0 0 0 0 0
trait 15 1.5 0 0 0 0 0 0 0
node 1 1 1 3 NullActivation
node 2 1 1 1 NullActivation
node 3 1 1 1 NullActivation
node 4 1 1 1 NullActivation
node 5 1 1 1 NullActivation
node 6 1 1 1 NullActivation
node 7 1 1 1 NullActivation
node 8 1 1 1 NullActivation
node 9 1 1 1 NullActivation
node 10 1 1 1 NullActivation
node 11 1 1 1 NullActivation
node 12 1 1 1 NullActivation
node 13 1 1 1 NullActivation
node 14 1 1 1 NullActivation
node 15 1 1 1 NullActivation
node 16 1 1 1 NullActivation
node 17 1 1 1 NullActivation
node 18 1 1 1 NullActivation
node 19 1 1 1 NullActivation
node 20 1 1 1 NullActivation
node 21 1 1 1 NullActivation
node 22 1 1 1 NullActivation
node 23 1 1 1 NullActivation
node 24 1 1 1 NullActivation
node 25 1 1 1 NullActivation
node 26 1 1 1 NullActivation
node 27 1 1 1 NullActivation
node 28 1 1 1 NullActivation
node 29 1 1 1 NullActivation
node 30 1 1 1 NullActivation
node 31 1 1 1 NullActivation
node 32 1 1 1 NullActivation
node 33 1 1 1 NullActivation
node 34 1 1 1 NullActivation
node 35 1 1 1 NullActivation
node 36 1 1 1 NullActivation
node 37 1 1 1 NullActivation
node 38 1 1 1 NullActivation
node 39 1 1 1 NullActivation
node 40 1 1 1 NullActivation
node 41 1 1 1 NullActivation
node 42 1 1 1 NullActivation
node 43 1 1 1 NullActivation
node 44 1 1 1 NullActivation
node 45 1 1 1 NullActivation
node 46 1 1 1 NullActivation
node 47 1 1 1 NullActivation
node 48 1 1 1 NullActivation
node 49 1 1 1 NullActivation
node 50 1 1 1 NullActivation
node 51 13 1 1 NullActivation
node 52 1 1 1 NullActivation
node 53 1 1 1 NullActivation
node 54 1 1 1 NullActivation
node 55 1 0 2 SigmoidBipolarActivation
node 57 1 0 0 SigmoidSteepenedActivation
node 72 1 0 0 SigmoidSteepenedActivation
node 140 1 0 0 SigmoidSteepenedActivation
gene 1 1 55 2.4932409126137314 false 1 2.4932409126137314 true
gene 2 47 55 -8.515453973183241 false 9 -8.515453973183241 true
gene 2 47 57 3.3548995614454586 false 69 3.3548995614454586 true
gene 2 57 55 7.223376165234463 false 70 7.223376165234463 true
gene 7 6 55 -4.467315669015628 false 117 -4.467315669015628 true
gene 15 6 57 0.3727729684747744 false 126 0.3727729684747744 true
gene 13 18 55 -6.0721419997246295 false 199 -6.0721419997246295 true
gene 6 18 57 -4.254137406959486 false 200 -4.254137406959486 true
gene 2 57 72 -0.02014916643861342 false 315 -0.02014916643861342 true
gene 2 72 55 -0.8840141427627234 false 316 -0.8840141427627234 true
gene 9 36 55 6.587713036035558 false 377 6.587713036035558 true
gene 7 36 57 -1.0600454013216534 false 395 -1.0600454013216534 true
gene 11 36 72 2.0990264458130237 false 396 2.0990264458130237 true
gene 7 50 55 -12.207908011856503 false 527 -12.207908011856503 true
gene 4 50 57 -13.632521509699291 false 528 -13.632521509699291 true
gene 2 50 72 20.299815211745436 false 529 20.299815211745436 true
gene 14 21 55 -1.7750378480818596 false 576 -1.7750378480818596 true
gene 9 21 57 -2.083608600219507 false 697 -2.083608600219507 true
gene 7 21 72 -2.9250371849601366 false 698 -2.9250371849601366 true
gene 8 24 55 -1.6443814574711078 false 1286 -1.6443814574711078 true
gene 14 24 57 1.289986413568986 false 1287 1.289986413568986 true
gene 11 24 72 -1.3940960740220443 false 1288 -1.3940960740220443 true
gene 1 26 55 2.865493754005004 false 1452 2.865493754005004 true
gene 6 26 57 -4.239307641297862 false 1453 -4.239307641297862 true
gene 6 26 72 -0.514395998549664 false 1556 -0.514395998549664 true
gene 3 49 55 7.455553093697549 false 1871 7.455553093697549 true
gene 1 49 57 -3.9962251121735495 false 1872 -3.9962251121735495 true
gene 11 49 72 -4.951166500580769 false 1873 -4.951166500580769 true
gene 3 30 55 -1.663281679480603 false 2142 -1.663281679480603 true
gene 6 30 57 0.13213598218024764 false 2143 0.13213598218024764 true
gene 4 30 72 -1.7027221888798292 false 2144 -1.7027221888798292 true
gene 7 50 140 -1.8396560894776153 false 2540 -1.8396560894776153 true
gene 7 140 55 -2.199191756089612 false 2541 -2.199191756089612 true
gene 11 51 55 -3.147901555873271 false 2677 -3.147901555873271 true
gene 8 51 57 0.2468295221609187 false 2678 0.2468295221609187 true
gene 11 51 72 -3.363885492795805 false 2679 -3.363885492795805 true
gene 2 51 140 1.9909509735065032 false 2680 1.9909509735065032 true
gene 8 27 55 0.8676422430277778 false 3656 0.8676422430277778 true
gene 4 27 57 4.238834915648913 false 3657 4.238834915648913 true
gene 10 27 72 3.3107472893336225 false 3658 3.3107472893336225 true
gene 2 27 140 0.7467643175226355 false 3661 0.7467643175226355 true
gene 7 8 55 6.2554281298387915 false 3996 6.2554281298387915 true
gene 11 8 57 -3.52835642754015 false 3997 -3.52835642754015 true
gene 4 8 72 1.7632810636340164 false 3998 1.7632810636340164 true
gene 2 8 140 -0.11346504388051609 false 3999 -0.11346504388051609 true
gene 5 3 55 -5.519890747546426 false 4094 -5.519890747546426 true
gene 5 3 57 7.1513438210664875 false 4095 7.1513438210664875 true
gene 7 3 72 -3.4050060180378843 false 4096 -3.4050060180378843 true
gene 15 3 140 -2.3229838229118296 false 4281 -2.3229838229118296 true
gene 15 10 55 -2.5960973585878317 false 4367 -2.5960973585878317 true
gene 10 10 57 2.1819803974267633 false 4368 2.1819803974267633 true
gene 1 10 72 6.4671716303194025 false 4369 6.4671716303194025 true
gene 7 10 140 0.707166061449666 false 4528 0.707166061449666 true
gene 11 19 55 0.7129402939348561 false 4768 0.7129402939348561 true
gene 11 19 57 2.116321933406093 false 4769 2.116321933406093 true
gene 13 19 72 -4.600433555983853 false 4770 -4.600433555983853 true
gene 9 19 140 -1.6028111045667333 false 4771 -1.6028111045667333 true
gene 6 43 55 9.733904329953443 false 4857 9.733904329953443 true
gene 12 43 57 -1.6610717716193455 false 4858 -1.6610717716193455 true
gene 7 43 72 -8.196923237739961 false 4859 -8.196923237739961 true
gene 6 43 140 2.8076035407604176 false 5027 2.8076035407604176 true
gene 6 29 55 0.34099421298454824 false 5100 0.34099421298454824 true
gene 7 29 57 -7.351090149037293 false 5101 -7.351090149037293 true
gene 12 29 72 4.473395264793641 false 5102 4.473395264793641 true
gene 4 29 140 2.5240793295409554 false 5262 2.5240793295409554 true
genomeend 70
