genomestart 231
trait 1 0.1 0 0 0 0 0 0 0
trait 2 0.2 0 0 0 0 0 0 0
trait 3 1.2790169940524674 0.6709751636185989 0 0 0 0 0 0.6436661556046388
trait 4 0.4 0 0 0 0 0 0 0
trait 5 0.5 0 0 0 0 0 0 0
trait 6 0.6 0 0 0 0 0 0 0
trait 7 0.7 0 0 0 0 0 0 0
trait 8 0.8 0 0 0 0 0 0 0
trait 9 0.9 0 0 0 0 0 0 0
trait 10 1 0 0 0 0 0 0 0
trait 11 1.1 0 0 0 0 0 0 0
trait 12 1.2 0 0 0.39852580961509376 0 0.4531252571051373 0 0
trait 13 1.3 0 0 0 0 0 0 0
trait 14 1.4 0 0 0 0 0 0 0
trait 15 1.5 0 0 0 0 0 0 0
node 1 1 1 3 NullActivation
node 2 1 1 1 NullActivation
node 3 1 1 1 NullActivation
node 4 1 1 1 NullActivation
node 5 1 1 1 NullActivation
node 6 1 1 1 NullActivation
node 7 1 1 1 NullActivation
node 8 1 1 1 NullActivation
node 9 1 1 1 NullActivation
node 10 1 1 1 NullActivation
node 11 1 1 1 NullActivation
node 12 1 1 1 NullActivation
node 13 1 1 1 NullActivation
node 14 1 1 1 NullActivation
node 15 1 1 1 NullActivation
node 16 1 1 1 NullActivation
node 17 1 1 1 NullActivation
node 18 1 1 1 NullActivation
node 19 1 1 1 NullActivation
node 20 1 1 1 NullActivation
node 21 1 1 1 NullActivation
node 22 1 1 1 NullActivation
node 23 1 1 1 NullActivation
node 24 1 1 1 NullActivation
node 25 1 1 1 NullActivation
node 26 1 1 1 NullActivation
node 27 1 1 1 NullActivation
node 28 1 1 1 NullActivation
node 29 1 1 1 NullActivation
node 30 1 1 1 NullActivation
node 31 1 1 1 NullActivation
node 32 1 1 1 NullActivation
node 33 1 1 1 NullActivation
node 34 1 1 1 NullActivation
node 35 1 1 1 NullActivation
node 36 1 1 1 NullActivation
node 37 1 1 1 NullActivation
node 38 1 1 1 NullActivation
node 39 1 1 1 NullActivation
node 40 1 1 1 NullActivation
node 41 14 1 1 NullActivation
node 42 1 1 1 NullActivation
node 43 1 1 1 NullActivation
node 44 1 1 1 NullActivation
node 45 1 1 1 NullActivation
node 46 1 1 1 NullActivation
node 47 1 1 1 NullActivation
node 48 1 1 1 NullActivation
node 49 1 1 1 NullActivation
node 50 1 1 1 NullActivation
node 51 1 1 1 NullActivation
node 52 1 1 1 NullActivation
node 53 1 1 1 NullActivation
node 54 1 1 1 NullActivation
node 55 1 0 2 SigmoidBipolarActivation
node 57 1 0 0 SigmoidSteepenedActivation
node 69 1 0 0 SigmoidSteepenedActivation
node 490 1 0 0 SigmoidSteepenedActivation
gene 1 1 55 1.6656904402519168 false 1 1.6656904402519168 true
gene 15 33 55 4.0581042489692 false 27 4.0581042489692 true
gene 15 33 57 -3.5448962195911227 false 73 -3.5448962195911227 true
gene 15 57 55 3.064252209247181 false 74 3.064252209247181 true
gene 1 47 55 -18.100751659379274 false 114 -18.100751659379274 true
gene 10 47 57 10.108909539327485 false 126 10.108909539327485 true
gene 5 12 55 -0.9859062182519194 false 226 -0.9859062182519194 true
gene 1 12 57 -0.3919145700278175 false 230 -0.3919145700278175 true
gene 15 33 69 -1.0608522784488337 false 354 -1.0608522784488337 true
gene 15 69 57 -1.424674694715022 false 355 -1.424674694715022 true
gene 15 26 55 4.2746305144740475 false 447 4.2746305144740475 true
gene 4 26 57 -7.304861477530316 false 483 -7.304861477530316 true
gene 9 26 69 0.14635869987887418 false 484 0.14635869987887418 true
gene 12 4 55 -1.795318134284931 false 580 -1.795318134284931 true
gene 6 4 57 -1.7503230116324309 false 654 -1.7503230116324309 true
gene 8 4 69 -1.7124817184049985 false 655 -1.7124817184049985 true
gene 10 24 55 -3.3045721394479495 false 945 -3.3045721394479495 true
gene 14 24 57 1.7267902701426245 false 946 1.7267902701426245 true
gene 2 24 69 7.484180638895968 false 947 7.484180638895968 true
gene 15 9 55 1.361240012982555 false 1043 1.361240012982555 true
gene 12 9 57 -1.054036668324899 false 1130 -1.054036668324899 true
gene 15 9 69 -2.4101669799264656 false 1131 -2.4101669799264656 true
gene 12 52 69 0.020954132970000372 false 1537 0.020954132970000372 true
gene 15 7 55 1.9979769811408863 false 1747 1.9979769811408863 true
gene 2 7 57 0.6155548645847883 false 1748 0.6155548645847883 true
gene 2 7 69 1.7679144711382788 false 1749 1.7679144711382788 true
gene 9 32 55 -5.296177592423594 false 2579 -5.296177592423594 true
gene 11 32 57 -0.14034959174115325 false 2580 -0.14034959174115325 true
gene 8 32 69 6.063457819408725 false 2581 6.063457819408725 true
gene 2 10 55 -0.166509731794401 false 2839 -0.166509731794401 true
gene 8 10 57 -0.8064051554534922 false 2840 -0.8064051554534922 true
gene 3 10 69 3.3560813516097996 false 2841 3.3560813516097996 true
gene 4 54 55 4.871064891510844 false 3087 4.871064891510844 true
gene 8 54 57 3.8226343887984795 false 3088 3.8226343887984795 true
gene 4 54 69 -1.4967080457871846 false 3089 -1.4967080457871846 true
gene 13 20 57 2.2300448086591174 false 3262 2.2300448086591174 true
gene 1 15 55 1.5512109468227062 false 3758 1.5512109468227062 true
gene 3 15 57 8.728442428385137 false 3759 8.728442428385137 true
gene 15 15 69 -7.691023040395708 false 3760 -7.691023040395708 true
gene 5 18 55 0.300538629299255 false 3927 0.300538629299255 true
gene 13 18 57 6.617511832542406 false 4066 6.617511832542406 true
gene 11 18 69 1.96867729594827 false 4067 1.96867729594827 true
gene 3 21 55 5.5970099591093465 false 4284 5.5970099591093465 true
gene 8 21 57 -11.767816485017132 false 4285 -11.767816485017132 true
gene 14 21 69 -3.7063404971638088 false 4286 -3.7063404971638088 true
gene 15 22 55 9.00030330466168 false 5584 9.00030330466168 true
gene 10 22 57 13.771012829501025 false 5585 13.771012829501025 true
gene 12 22 69 -0.27945010583347385 false 5586 -0.27945010583347385 true
gene 1 11 55 1.4586541339515866 false 6372 1.4586541339515866 true
gene 4 11 57 8.213105047588806 false 6373 8.213105047588806 true
gene 3 11 69 -0.49096884584308464 false 6374 -0.49096884584308464 true
gene 12 37 55 -1.4297752434039805 false 6720 -1.4297752434039805 true
gene 7 37 57 -5.534275725338862 false 6721 -5.534275725338862 true
gene 8 37 69 0.6963849645874804 false 6722 0.6963849645874804 true
gene 12 43 55 -0.8203172257154903 false 6877 -0.8203172257154903 true
gene 1 43 57 2.362946308425731 false 6878 2.362946308425731 true
gene 14 43 69 -1.787292599566911 false 6879 -1.787292599566911 true
gene 10 35 55 -3.6737975515931156 false 7539 -3.6737975515931156 true
gene 11 35 57 -2.8989650004071112 false 7540 -2.8989650004071112 true
gene 10 35 69 1.5962800829987107 false 7541 1.5962800829987107 true
gene 15 6 55 2.6666311176579316 false 7830 2.6666311176579316 true
gene 8 6 57 -0.06349053251935244 false 7831 -0.06349053251935244 true
gene 9 6 69 8.848172631449858 false 7832 8.848172631449858 true
gene 1 50 55 -6.367631766565944 false 8613 -6.367631766565944 true
gene 1 50 57 -7.169142598423912 false 8614 -7.169142598423912 true
gene 12 50 69 2.427445027452491 false 8615 2.427445027452491 true
gene 2 51 55 12.772873244378479 false 8867 12.772873244378479 true
gene 8 51 57 -15.34919365166437 false 8868 -15.34919365166437 true
gene 4 51 69 -11.91520503453299 false 8869 -11.91520503453299 true
gene 9 3 55 1.8446712853338918 false 9184 1.8446712853338918 true
gene 13 3 57 -2.723447506297878 false 9185 -2.723447506297878 true
gene 15 3 69 -2.057995852915631 false 9186 -2.057995852915631 true
gene 7 5 57 0.27313258310295474 false 9470 0.27313258310295474 true
gene 2 2 55 3.2965183020807203 false 9683 3.2965183020807203 true
gene 9 2 57 0.6435824866510533 false 9684 0.6435824866510533 true
gene 6 2 69 6.417781154610523 false 9685 6.417781154610523 true
gene 9 17 55 -5.2108457870530245 false 9949 -5.2108457870530245 true
gene 1 17 57 9.839759772233714 false 9950 9.839759772233714 true
gene 3 17 69 -0.26198987083219594 false 9951 -0.26198987083219594 true
gene 8 38 55 2.0622278191644603 false 10112 2.0622278191644603 true
gene 3 38 57 0.784893976248342 false 10113 0.784893976248342 true
gene 12 38 69 -2.0632589666226657 false 10114 -2.0632589666226657 true
gene 2 46 55 0.9641412434235783 false 10360 0.9641412434235783 true
gene 4 46 57 -0.04176447662483312 false 10409 -0.04176447662483312 true
gene 14 46 69 0.49381516635420947 false 10410 0.49381516635420947 true
gene 6 44 57 -2.487535800225637 false 10618 -2.487535800225637 true
gene 1 44 55 2.018519565680742 false 10661 2.018519565680742 true
gene 12 44 69 -8.69178203798074 false 10662 -8.69178203798074 true
gene 15 23 55 2.3331474446622607 false 11141 2.3331474446622607 true
gene 15 23 57 -1.4245845920334923 false 11142 -1.4245845920334923 true
gene 14 23 69 -0.32994549576608995 false 11143 -0.32994549576608995 true
gene 4 16 55 0.5396437535748104 false 11342 0.5396437535748104 true
gene 10 16 57 0.8420930560455236 false 11343 0.8420930560455236 true
gene 2 16 69 -0.8231494078594405 false 11344 -0.8231494078594405 true
gene 12 19 69 2.339575209125081 false 11775 2.339575209125081 true
gene 10 19 55 0.4880252769587684 false 11803 0.4880252769587684 true
gene 10 19 57 -1.405549693011706 false 11804 -1.405549693011706 true
gene 14 25 55 -3.0206595671073218 false 11943 -3.0206595671073218 true
gene 6 25 57 11.025508694051434 false 11944 11.025508694051434 true
gene 8 25 69 -0.08520142336758685 false 11945 -0.08520142336758685 true
gene 9 53 55 1.857336723692081 false 12547 1.857336723692081 true
gene 11 53 57 -2.1663536690131653 false 12548 -2.1663536690131653 true
gene 8 53 69 1.1313019333771444 false 12549 1.1313019333771444 true
gene 12 44 490 -0.4665257664961161 false 12848 -0.4665257664961161 true
gene 12 490 69 -12.131022351634202 false 12849 -12.131022351634202 true
gene 14 34 55 0.5556751960965665 false 13133 0.5556751960965665 true
gene 2 34 57 -3.2886295105800927 false 13134 -3.2886295105800927 true
gene 12 34 69 0.7229849850141623 false 13135 0.7229849850141623 true
gene 11 34 490 0.1320534648624319 false 13136 0.1320534648624319 true
gene 2 28 55 -1.8514912218927733 false 13537 -1.8514912218927733 true
gene 4 28 57 -8.752170258406604 false 13538 -8.752170258406604 true
gene 9 28 69 4.25988867807899 false 13539 4.25988867807899 true
gene 8 28 490 1.2327879868154734 false 13602 1.2327879868154734 true
gene 15 27 55 1.428359835737235 false 13753 1.428359835737235 true
gene 9 27 57 -6.234286832942027 false 13754 -6.234286832942027 true
gene 11 27 69 -1.5589320992400115 false 13755 -1.5589320992400115 true
gene 5 27 490 -4.25695866918084 false 13853 -4.25695866918084 true
gene 14 42 57 7.66681262974066 false 13949 7.66681262974066 true
gene 5 42 69 -0.16154122939918847 false 13979 -0.16154122939918847 true
gene 1 42 55 1.8226722936351736 false 14045 1.8226722936351736 true
gene 8 42 490 -5.426071906270231 false 14046 -5.426071906270231 true
gene 14 48 69 -0.08105113547012287 false 14197 -0.08105113547012287 true
gene 14 48 55 -0.6541076992959675 false 14236 -0.6541076992959675 true
gene 1 48 57 -1.1590776339101658 false 14237 -1.1590776339101658 true
gene 14 48 490 1.1174564679481909 false 14238 1.1174564679481909 true
gene 12 41 57 1.1701364199562454 false 14452 1.1701364199562454 true
gene 5 39 55 0.14572797007626193 false 14834 0.14572797007626193 true
gene 8 39 57 6.761578492626543 false 14835 6.761578492626543 true
gene 12 39 69 -0.8980969476912569 false 14836 -0.8980969476912569 true
gene 7 39 490 5.448395525458712 false 14842 5.448395525458712 true
gene 5 49 55 -3.775505861318215 false 15164 -3.775505861318215 true
gene 4 49 57 0.8432611078733163 false 15165 0.8432611078733163 true
gene 4 49 69 -10.004101113426463 false 15166 -10.004101113426463 true
gene 12 49 490 -11.089553483737571 false 15167 -11.089553483737571 true
gene 6 25 490 0.05443563002793461 false 15376 0.05443563002793461 true
gene 5 31 55 -4.217029162676416 false 15439 -4.217029162676416 true
gene 3 31 57 3.0661398235980237 false 15440 3.0661398235980237 true
gene 7 31 69 -2.7177838675268244 false 15441 -2.7177838675268244 true
gene 12 31 490 2.668624684010804 false 15549 2.668624684010804 true
gene 1 29 55 -5.960347495109735 false 15659 -5.960347495109735 true
gene 5 29 57 -6.8284601361456945 false 15660 -6.8284601361456945 true
gene 1 29 69 -2.7772467888208565 false 15661 -2.7772467888208565 true
gene 4 29 490 5.239099286005382 false 15677 5.239099286005382 true
gene 8 36 55 -1.9780042831941596 false 15810 -1.9780042831941596 true
gene 15 36 57 -1.4598456494848175 false 15811 -1.4598456494848175 true
gene 2 36 69 1.2397872868199602 false 15812 1.2397872868199602 true
gene 3 36 490 8.408940901469212 false 15813 8.408940901469212 true
gene 8 40 55 -0.8500694996039297 false 16053 -0.8500694996039297 true
gene 5 40 57 1.6602626252240693 false 16054 1.6602626252240693 true
gene 13 40 69 -6.372458915290756 false 16055 -6.372458915290756 true
gene 2 40 490 4.112709943626299 false 16056 4.112709943626299 true
gene 12 14 55 3.214973567067818 false 16467 0 true
gene 7 14 57 6.513539549480038 false 16468 0 true
gene 15 14 69 7.264732845887179 false 16469 0 true
gene 8 14 490 -0.06422212675725171 false 16493 0 true
gene 3 13 55 -5.286773698313643 false 16587 0 true
gene 6 13 57 8.319225108508196 false 16588 0 true
gene 10 13 69 -0.918875562556501 false 16589 0 true
gene 15 13 490 -8.532538066614094 false 16640 0 true
genomeend 231
