genomestart 69
trait 1 0.19943209306707485 0.14163987939260894 0.11939465349804931 0.08215049435153791 0.12466560354962584 0.1593392693406656 0.19248165679945373 0.11848205386224656
trait 2 0.770581325715934 0.552023666571484 0.6583940749388535 0.658241568388837 0.24835169760831632 0.6516869943244935 0.5189890454358649 0.027450793178023444
trait 3 0.3695059853166138 0.3357962232617804 0.2120306614041415 0.14529520472605173 0.17619823889187908 0.07835960354560817 0.111174461281569 0.21925514506168414
trait 4 0.2753459627033715 0.12254920309677901 0.16793017535070565 0.11432577290529329 0.17264267957266982 0.1266246949668935 0.13716371036301572 0.21449747389561652
trait 5 1.0073264315142072 0.3559980217804837 0.4620574392158041 0.18640554132815695 0.10831084317781949 0.19510868594924452 0.21032298466769112 0.10916606793783182
trait 6 0.34868000682418515 0.25492998264812894 0.1627250449465968 0.2407195555016826 0.1811876382224012 0.16127652080263286 0.22241901632107758 0.1429324532597131
trait 7 0.9811406290890717 0.18792663973543586 0.22158719811883681 0.3043919587173103 0.11529601357030347 0.2512337552729885 0.4632574219241521 0.2577970131460936
trait 8 0.778601655685055 0.24320463654991906 0.12289242100598424 0.16067982913031204 0.13688375911576253 0.20445018360772776 0.2160899552785458 0.13412246048123752
trait 9 0.9337216324463717 0.11438206694876307 0.18374727615340533 0.24239997978045874 0.21293949994493797 0.13866426326589854 0.11364703045972684 0.149766811756383
trait 10 0.9909770129330289 0.06540432527354512 0.06093688961011606 0.11371181287233892 0.27874772017603466 0.13368981583118467 0.13348300658962367 0.23298084866271024
trait 11 1.0044837990878153 0.1875150965835098 0.1344302417174851 0.07853322841827565 0.19159509287055354 0.12921602985661246 1.03594391593397 0.06506136567141345
trait 12 1.191021509742677 0.23261982861640834 0.15502165226393919 0.28499655525200895 0.1716342260867973 0.2880555997565493 0.20965890575775536 0.09201562956601977
trait 13 1.3010264374568727 0.057167156001502684 0.44475632352236016 0.16521062789420557 0.08319315398985017 0.24809904582801803 0.16135298733222528 0.10005192565357185
trait 14 1.6992653611128667 0.1838610407505559 0.07664057047898337 0.13217525842409394 0.052361828789206116 0.30391866617361535 0.03965899816351263 0.18698988376224523
trait 15 1.3371299366021394 0.09753891705350709 0.04494857532385612 0.1281953044601791 0.4918097815712363 0.06045944148887059 0.09171583549637334 0.4494723602011196
node 1 9 1 3 NullActivation
node 2 15 1 1 NullActivation
node 3 1 1 1 NullActivation
node 4 1 1 1 NullActivation
node 5 15 1 1 NullActivation
node 6 1 1 1 NullActivation
node 7 1 1 1 NullActivation
node 8 15 1 1 NullActivation
node 9 4 1 1 NullActivation
node 10 1 1 1 NullActivation
node 11 1 1 1 NullActivation
node 12 1 1 1 NullActivation
node 13 1 1 1 NullActivation
node 14 14 1 1 NullActivation
node 15 1 1 1 NullActivation
node 16 1 1 1 NullActivation
node 17 1 1 1 NullActivation
node 18 1 1 1 NullActivation
node 19 10 1 1 NullActivation
node 20 1 1 1 NullActivation
node 21 1 1 1 NullActivation
node 22 8 1 1 NullActivation
node 23 1 1 1 NullActivation
node 24 1 1 1 NullActivation
node 25 13 1 1 NullActivation
node 26 1 1 1 NullActivation
node 27 1 1 1 NullActivation
node 28 3 1 1 NullActivation
node 29 8 1 1 NullActivation
node 30 1 1 1 NullActivation
node 31 3 1 1 NullActivation
node 32 1 1 1 NullActivation
node 33 1 1 1 NullActivation
node 34 1 1 1 NullActivation
node 35 1 1 1 NullActivation
node 36 1 1 1 NullActivation
node 37 4 1 1 NullActivation
node 38 1 1 1 NullActivation
node 39 1 1 1 NullActivation
node 40 8 1 1 NullActivation
node 41 13 1 1 NullActivation
node 42 9 1 1 NullActivation
node 43 12 1 1 NullActivation
node 44 1 1 1 NullActivation
node 45 6 1 1 NullActivation
node 46 1 1 1 NullActivation
node 47 1 1 1 NullActivation
node 48 6 1 1 NullActivation
node 49 1 1 1 NullActivation
node 50 10 1 1 NullActivation
node 51 15 1 1 NullActivation
node 52 1 1 1 NullActivation
node 53 1 1 1 NullActivation
node 54 1 1 1 NullActivation
node 55 1 1 1 NullActivation
node 56 1 0 2 SigmoidSteepenedActivation
node 128 1 0 0 SigmoidSteepenedActivation
node 161 1 0 0 SigmoidSteepenedActivation
node 192 4 0 0 SigmoidSteepenedActivation
node 205 1 0 0 SigmoidSteepenedActivation
node 278 2 0 0 SigmoidSteepenedActivation
node 281 1 0 0 SigmoidSteepenedActivation
node 533 1 0 0 SigmoidSteepenedActivation
node 692 4 0 0 SigmoidSteepenedActivation
node 720 1 0 0 SigmoidSteepenedActivation
node 729 1 0 0 SigmoidSteepenedActivation
node 805 1 0 0 SigmoidSteepenedActivation
node 848 1 0 0 SigmoidSteepenedActivation
node 937 1 0 0 SigmoidSteepenedActivation
node 980 3 0 0 SigmoidSteepenedActivation
node 1105 1 0 0 SigmoidSteepenedActivation
node 1250 1 0 0 SigmoidSteepenedActivation
node 1427 1 0 0 SigmoidSteepenedActivation
node 2930 1 0 0 SigmoidSteepenedActivation
node 4427 1 0 0 SigmoidSteepenedActivation
gene 1 1 56 2.0904523130391315 false 1 2.0904523130391315 true
gene 15 55 56 4.758332127809405 false 42 4.758332127809405 true
gene 11 51 56 -82.38375287045784 false 176 -82.38375287045784 true
gene 13 34 56 7.661558102937327 false 449 7.661558102937327 true
gene 5 50 56 -1.0411481054321983 false 632 -1.0411481054321983 true
gene 1 38 56 4.871567980405482 false 1009 4.871567980405482 true
gene 11 45 56 3.386884843130539 false 1075 3.386884843130539 true
gene 11 11 56 2.4039633147125854 false 1493 2.4039633147125854 true
gene 15 55 128 2.340913101325393 false 1577 2.340913101325393 true
gene 15 128 56 1.3301458298430169 false 1578 1.3301458298430169 true
gene 10 20 128 0.18761310031162504 false 1743 0.18761310031162504 true
gene 1 44 56 -2.053843105652705 false 1832 -2.053843105652705 true
gene 5 44 128 -1.2401625207036722 false 1833 -1.2401625207036722 true
gene 6 36 56 -3.3320478849921726 false 1880 -3.3320478849921726 true
gene 11 36 128 -2.1632021901508165 false 1899 -2.1632021901508165 true
gene 8 52 128 3.472021682721456 false 1935 3.472021682721456 true
gene 15 52 56 0.566213665257681 false 1956 0.566213665257681 true
gene 7 10 128 -1.6844593915103032 false 2073 -1.6844593915103032 true
gene 11 45 161 1.5844180135225734 false 2158 1.5844180135225734 true
gene 11 161 56 0.6215265081462696 false 2159 0.6215265081462696 true
gene 10 5 56 2.774921469358387 false 2260 2.774921469358387 true
gene 1 14 56 1.6765273012686062 false 2517 1.6765273012686062 true
gene 1 14 128 2.156207490822079 false 2518 2.156207490822079 true
gene 2 14 161 -0.3028606532526683 false 2519 -0.3028606532526683 true
gene 11 9 56 2.3726143056544298 false 2976 2.3726143056544298 true
gene 9 9 128 -2.091559839836644 false 2977 -2.091559839836644 true
gene 10 9 161 -1.0921194918288868 false 2978 -1.0921194918288868 true
gene 10 9 192 3.815123990530825 false 3040 3.815123990530825 true
gene 10 192 161 -3.6274658839646423 false 3041 -3.6274658839646423 true
gene 9 12 56 1.7417460252225578 false 3163 1.7417460252225578 true
gene 4 12 128 0.16723639451314742 false 3164 0.16723639451314742 true
gene 7 12 161 3.9600353913830872 false 3165 3.9600353913830872 true
gene 1 12 192 -1.896365482722181 false 3166 -1.896365482722181 true
gene 10 9 205 1.114278022458611 false 3450 1.114278022458611 true
gene 10 205 192 0.062942834049098 false 3451 0.062942834049098 true
gene 8 26 56 -3.611982284258833 false 3557 -3.611982284258833 true
gene 6 26 128 1.3958988745227834 false 3558 1.3958988745227834 true
gene 8 26 161 5.107184629157803 false 3613 5.107184629157803 true
gene 3 26 192 3.603047000656182 false 3614 3.603047000656182 true
gene 11 26 205 -2.256044825862163 false 3615 -2.256044825862163 true
gene 14 37 205 -0.21035055914546952 false 4721 -0.21035055914546952 true
gene 15 19 161 0.44671427251035956 false 4914 0.44671427251035956 true
gene 8 19 56 3.0225224414410454 false 4926 3.0225224414410454 true
gene 12 19 128 -3.705116024003376 false 4927 -3.705116024003376 true
gene 4 19 192 -0.585090478228199 false 4928 -0.585090478228199 true
gene 1 19 205 0.7769871880318722 false 4929 0.7769871880318722 true
gene 9 12 278 2.9158522002218232 false 5403 2.9158522002218232 true
gene 9 278 56 3.3352376302058886 false 5404 3.3352376302058886 true
gene 11 51 281 0.13644566064510327 false 5599 0.13644566064510327 true
gene 11 281 56 -0.9767698532746805 false 5600 -0.9767698532746805 true
gene 8 15 56 -1.001399252518204 false 5944 -1.001399252518204 true
gene 4 15 128 -3.3858312736066947 false 5945 -3.3858312736066947 true
gene 13 15 161 1.3226709704125956 false 5946 1.3226709704125956 true
gene 14 15 192 -0.09382635310318221 false 5947 -0.09382635310318221 true
gene 5 15 205 0.9867912962441987 false 5948 0.9867912962441987 true
gene 8 15 278 1.405010821929279 false 6085 1.405010821929279 true
gene 12 15 281 2.992424715247728 false 6086 2.992424715247728 true
gene 14 52 205 1.3987941498407168 false 6740 1.3987941498407168 true
gene 5 33 128 2.1148858453177724 false 7790 2.1148858453177724 true
gene 8 33 56 5.60196781847017 false 7886 5.60196781847017 true
gene 10 33 161 1.719748938257383 false 7990 1.719748938257383 true
gene 3 33 192 0.9351635580993315 false 7991 0.9351635580993315 true
gene 3 33 205 -0.13543166932487805 false 7992 -0.13543166932487805 true
gene 12 33 278 -0.6816766704688941 false 7993 -0.6816766704688941 true
gene 11 33 281 3.0970067914915607 false 7994 3.0970067914915607 true
gene 12 8 56 -2.3801561142903527 false 8034 -2.3801561142903527 true
gene 6 8 128 -4.549492329456737 false 8054 -4.549492329456737 true
gene 4 8 161 -0.2027771024136671 false 8055 -0.2027771024136671 true
gene 2 8 192 -1.5985348534454629 false 8056 -1.5985348534454629 true
gene 5 8 205 -0.5310399751416635 false 8057 -0.5310399751416635 true
gene 7 8 278 4.001332417566786 false 8058 4.001332417566786 true
gene 3 8 281 -0.8718354620725391 false 8059 -0.8718354620725391 true
gene 5 27 56 -1.1577860093280024 false 9936 -1.1577860093280024 true
gene 9 27 128 -0.8238925313379393 false 9937 -0.8238925313379393 true
gene 4 27 161 -1.5053775898001216 false 9938 -1.5053775898001216 true
gene 5 27 192 1.8542716263918901 false 9939 1.8542716263918901 true
gene 1 27 205 -1.0646140922793301 false 9940 -1.0646140922793301 true
gene 6 27 278 0.38426105836908975 false 9941 0.38426105836908975 true
gene 12 27 281 -5.541386306982078 false 9942 -5.541386306982078 true
gene 13 14 205 0.5928183581438964 false 10405 0.5928183581438964 true
gene 4 39 56 0.5728331514667298 false 10641 0.5728331514667298 true
gene 12 39 128 -3.3522431965223696 false 10836 -3.3522431965223696 true
gene 15 39 161 4.616944246261831 false 10837 4.616944246261831 true
gene 13 39 192 0.17907410511755928 false 10838 0.17907410511755928 true
gene 11 39 205 -1.8187267431890206 false 10839 -1.8187267431890206 true
gene 13 39 278 -4.972652410524364 false 10840 -4.972652410524364 true
gene 12 39 281 -0.3946414465386186 false 10841 -0.3946414465386186 true
gene 15 23 56 -2.7467646367231 false 11385 -2.7467646367231 true
gene 13 23 128 -2.4835577338638224 false 11489 -2.4835577338638224 true
gene 13 23 161 -0.16996816353290056 false 11536 -0.16996816353290056 true
gene 15 23 192 1.5092968286218502 false 11537 1.5092968286218502 true
gene 12 23 205 -3.7498617741250566 false 11538 -3.7498617741250566 true
gene 5 23 278 0.2937109200515136 false 11650 0.2937109200515136 true
gene 14 23 281 -0.23517514743132573 false 11651 -0.23517514743132573 true
gene 7 17 56 -1.6869716809220394 false 11952 -1.6869716809220394 true
gene 12 17 128 0.5793776696484685 false 11953 0.5793776696484685 true
gene 8 17 161 1.3732536751278148 false 11954 1.3732536751278148 true
gene 7 17 192 2.4950797715935673 false 11955 2.4950797715935673 true
gene 4 17 205 -1.7995081139334352 false 11956 -1.7995081139334352 true
gene 9 17 278 0.8889305743765927 false 11957 0.8889305743765927 true
gene 14 17 281 -4.280930305202844 false 11958 -4.280930305202844 true
gene 6 24 56 -2.3090699025258288 false 12428 -2.3090699025258288 true
gene 15 24 128 1.453269087097774 false 12429 1.453269087097774 true
gene 2 24 161 -0.873880424890828 false 12430 -0.873880424890828 true
gene 4 24 192 -0.5563224733223049 false 12431 -0.5563224733223049 true
gene 6 24 205 -0.8598519175273232 false 12432 -0.8598519175273232 true
gene 2 24 278 2.1957029598619813 false 12433 2.1957029598619813 true
gene 10 24 281 2.2512862438548265 false 12434 2.2512862438548265 true
gene 12 16 56 -0.5090862680091723 false 15647 -0.5090862680091723 true
gene 13 16 128 1.255729674950867 false 15701 1.255729674950867 true
gene 7 16 161 1.6290638712840457 false 15702 1.6290638712840457 true
gene 13 16 192 4.609918502054425 false 15703 4.609918502054425 true
gene 13 16 205 -0.6950643553380762 false 15704 -0.6950643553380762 true
gene 13 16 278 2.2574543656114145 false 15705 2.2574543656114145 true
gene 9 16 281 -2.032429288032706 false 15706 -2.032429288032706 true
gene 2 30 56 1.5552216099803733 false 16462 1.5552216099803733 true
gene 1 30 128 -3.581903939569179 false 16463 -3.581903939569179 true
gene 8 30 161 -0.9130953628094655 false 16464 -0.9130953628094655 true
gene 4 30 192 2.0587658847980688 false 16465 2.0587658847980688 true
gene 10 30 205 -1.416187328547787 false 16466 -1.416187328547787 true
gene 7 30 278 -3.514931553116658 false 16688 -3.514931553116658 true
gene 2 30 281 -0.4356846439150819 false 16689 -0.4356846439150819 true
gene 9 6 56 -1.0012105531527271 false 17656 -1.0012105531527271 true
gene 11 6 128 1.743000496295557 false 17657 1.743000496295557 true
gene 12 6 161 3.6986202402601864 false 17658 3.6986202402601864 true
gene 12 6 192 -1.203465960428255 false 17659 -1.203465960428255 true
gene 7 6 205 -2.2508850198187327 false 17660 -2.2508850198187327 true
gene 15 6 278 -2.8907193237999445 false 17661 -2.8907193237999445 true
gene 6 6 281 1.8034287503911246 false 17662 1.8034287503911246 true
gene 4 18 56 3.3733661294673176 false 18112 3.3733661294673176 true
gene 4 18 128 -0.05225527349393516 false 18113 -0.05225527349393516 true
gene 11 18 161 0.4452233986457075 false 18114 0.4452233986457075 true
gene 3 18 192 -0.4221946135888485 false 18115 -0.4221946135888485 true
gene 12 18 205 5.403835351503966 false 18116 5.403835351503966 true
gene 6 18 278 4.926548262371703 false 18117 4.926548262371703 true
gene 9 18 281 -2.5906938768959344 false 18118 -2.5906938768959344 true
gene 10 192 533 -2.428894126199428 false 18336 -2.428894126199428 true
gene 10 533 161 -0.8688337166025142 false 18337 -0.8688337166025142 true
gene 15 128 161 -1.5598391205809827 false 18533 -1.5598391205809827 true
gene 8 55 278 1.359848293568361 false 18811 1.359848293568361 true
gene 10 37 56 2.5191942009434527 false 18884 2.5191942009434527 true
gene 2 49 56 1.9444200265339608 false 19846 1.9444200265339608 true
gene 7 49 128 0.16859477079060636 false 19847 0.16859477079060636 true
gene 5 49 161 0.4725725809957189 false 19848 0.4725725809957189 true
gene 2 49 192 -3.492923129823812 false 19849 -3.492923129823812 true
gene 2 49 205 -0.40014725330825596 false 19850 -0.40014725330825596 true
gene 14 49 278 0.4065645636297581 false 19851 0.4065645636297581 true
gene 1 49 281 1.5789825760446574 false 19852 1.5789825760446574 true
gene 11 49 533 3.146165520904377 false 19937 3.146165520904377 true
gene 6 46 56 2.2687102064413436 false 20732 2.2687102064413436 true
gene 13 46 128 -0.7912236402925634 false 20733 -0.7912236402925634 true
gene 10 46 161 1.2611709240815037 false 20734 1.2611709240815037 true
gene 1 46 192 -3.122147171145043 false 20735 -3.122147171145043 true
gene 8 46 205 -4.4517375352371875 false 20736 -4.4517375352371875 true
gene 15 46 278 -4.162460523567772 false 20737 -4.162460523567772 true
gene 4 46 281 2.9145869666385535 false 20738 2.9145869666385535 true
gene 3 46 533 0.9390541478995307 false 20739 0.9390541478995307 true
gene 5 7 56 -1.336730970347488 false 20971 -1.336730970347488 true
gene 1 7 128 2.6928749199135025 false 20972 2.6928749199135025 true
gene 14 7 161 1.1949283935213717 false 20973 1.1949283935213717 true
gene 5 7 192 2.1151727719038007 false 20974 2.1151727719038007 true
gene 10 7 205 -1.4044774260442003 false 20975 -1.4044774260442003 true
gene 14 7 278 -1.122484305901887 false 20976 -1.122484305901887 true
gene 13 7 281 -3.422875482699821 false 20977 -3.422875482699821 true
gene 4 7 533 -1.448463005483509 false 21163 -1.448463005483509 true
gene 8 128 205 0.10111055690756876 false 21330 0.10111055690756876 true
gene 8 25 56 1.3451320211311797 false 21447 1.3451320211311797 true
gene 4 25 128 -2.102203671689021 false 21448 -2.102203671689021 true
gene 10 25 161 -1.5933293435127536 false 21449 -1.5933293435127536 true
gene 6 25 192 0.6971844905583673 false 21450 0.6971844905583673 true
gene 1 25 205 -2.1324637143515046 false 21451 -2.1324637143515046 true
gene 8 25 278 -2.1433837656448116 false 21452 -2.1433837656448116 true
gene 3 25 281 3.237871393696451 false 21453 3.237871393696451 true
gene 1 25 533 -0.21980351283225075 false 21514 -0.21980351283225075 true
gene 15 50 205 -0.667312074538178 false 21770 -0.667312074538178 true
gene 4 32 205 0.9708482524294593 false 21936 0.9708482524294593 true
gene 13 54 205 0.03763370784138734 false 22317 0.03763370784138734 true
gene 11 21 56 -2.705665555036763 false 22782 -2.705665555036763 true
gene 3 21 128 -5.028214715107205 false 22783 -5.028214715107205 true
gene 9 21 161 -2.3803920946025783 false 22784 -2.3803920946025783 true
gene 12 21 192 1.0882140940707774 false 22785 1.0882140940707774 true
gene 14 21 205 -0.779300200997298 false 22786 -0.779300200997298 true
gene 14 21 278 -2.9994381095356735 false 22787 -2.9994381095356735 true
gene 6 21 281 0.9736760994229923 false 22788 0.9736760994229923 true
gene 1 21 533 8.334023691368294 false 22946 8.334023691368294 true
gene 4 48 128 1.2510018866864692 false 23063 1.2510018866864692 true
gene 4 48 56 -6.306389927851528 false 23221 -6.306389927851528 true
gene 7 48 161 -0.8175923356753972 false 23222 -0.8175923356753972 true
gene 6 48 192 0.8526533767366348 false 23223 0.8526533767366348 true
gene 7 48 205 1.5835608639059497 false 23224 1.5835608639059497 true
gene 11 48 278 -2.0990105419237337 false 23225 -2.0990105419237337 true
gene 14 48 281 1.4483978129074564 false 23226 1.4483978129074564 true
gene 6 48 533 -1.946093412883913 false 23227 -1.946093412883913 true
gene 8 25 692 4.259735388642564 false 23454 4.259735388642564 true
gene 14 692 56 -0.5784589465004637 false 23455 -0.5784589465004637 true
gene 5 29 56 -1.2834116213183342 false 23810 -1.2834116213183342 true
gene 8 29 128 0.6481481166316866 false 23811 0.6481481166316866 true
gene 10 29 161 -1.7821401131881647 false 23812 -1.7821401131881647 true
gene 11 29 192 1.5816765368704875 false 23813 1.5816765368704875 true
gene 14 29 205 -0.008480701251130984 false 23814 -0.008480701251130984 true
gene 8 29 278 -0.7245047620199818 false 23815 -0.7245047620199818 true
gene 4 29 281 -1.558534967025146 false 23816 -1.558534967025146 true
gene 7 29 533 -3.339096315368034 false 23830 -3.339096315368034 true
gene 5 29 692 -1.177681756435396 false 23831 -1.177681756435396 true
gene 10 9 720 3.943805430694761 false 24435 3.943805430694761 true
gene 10 720 205 -5.886041005818735 false 24436 -5.886041005818735 true
gene 5 8 729 -0.7915272596042568 false 24729 -0.7915272596042568 true
gene 5 729 205 -1.7937334921877337 false 24730 -1.7937334921877337 true
gene 2 9 281 -1.9934667310849514 false 26313 -1.9934667310849514 true
gene 6 43 56 -0.8014652363533892 false 26968 -0.8014652363533892 true
gene 7 43 128 1.1959207026563172 false 26969 1.1959207026563172 true
gene 12 43 161 -0.6308332479557701 false 26970 -0.6308332479557701 true
gene 7 43 192 -0.04305093761596196 false 26971 -0.04305093761596196 true
gene 11 43 205 -2.1098672382799637 false 26972 -2.1098672382799637 true
gene 1 43 278 -3.013707513570713 false 26973 -3.013707513570713 true
gene 15 43 281 -0.06880309371899607 false 26974 -0.06880309371899607 true
gene 1 43 533 -3.129008139970303 false 27019 -3.129008139970303 true
gene 1 43 692 1.064654425484676 false 27020 1.064654425484676 true
gene 14 43 720 0.33911978495251893 false 27021 0.33911978495251893 true
gene 12 43 729 -2.9293992125754076 false 27022 -2.9293992125754076 true
gene 6 3 278 -1.2893591163740674 false 27939 -1.2893591163740674 true
gene 2 53 56 -0.24767020707050968 false 28418 -0.24767020707050968 true
gene 11 53 128 5.695199780762081 false 28419 5.695199780762081 true
gene 3 53 161 1.5560247203970419 false 28420 1.5560247203970419 true
gene 2 53 192 -4.2518433853868975 false 28421 -4.2518433853868975 true
gene 11 53 205 0.15132232037441856 false 28422 0.15132232037441856 true
gene 5 53 278 -3.429746709059877 false 28423 -3.429746709059877 true
gene 4 53 281 -1.1014425598403617 false 28424 -1.1014425598403617 true
gene 7 53 533 3.588054269992756 false 28425 3.588054269992756 true
gene 13 53 692 1.0833478536515457 false 28426 1.0833478536515457 true
gene 14 53 720 -0.43941662259262704 false 28427 -0.43941662259262704 true
gene 1 53 729 5.091034408158677 false 28428 5.091034408158677 true
gene 10 24 805 1.954386029371431 false 28651 1.954386029371431 true
gene 10 805 281 -0.5338835551299491 false 28652 -0.5338835551299491 true
gene 6 13 56 0.25321555955051567 false 29703 0.25321555955051567 true
gene 9 13 128 0.6515426603672823 false 29704 0.6515426603672823 true
gene 13 13 161 1.6327692654947565 false 29705 1.6327692654947565 true
gene 10 13 192 2.7012942338486767 false 29706 2.7012942338486767 true
gene 3 13 205 -1.0593181367713425 false 29707 -1.0593181367713425 true
gene 4 13 278 -1.5159266894662564 false 29708 -1.5159266894662564 true
gene 11 13 281 -3.1892016694969194 false 29709 -3.1892016694969194 true
gene 10 13 533 1.4530399427484153 false 29710 1.4530399427484153 true
gene 7 13 692 -3.0531330296077925 false 29711 -3.0531330296077925 true
gene 14 13 720 -1.8938943416838447 false 29712 -1.8938943416838447 true
gene 7 13 729 1.6142560949967883 false 29713 1.6142560949967883 true
gene 2 13 805 -0.4794250471817816 false 29714 -0.4794250471817816 true
gene 10 4 56 -1.3929618150205947 false 30518 -1.3929618150205947 true
gene 14 4 128 3.641015617578467 false 30519 3.641015617578467 true
gene 11 4 161 2.304252707609128 false 30520 2.304252707609128 true
gene 1 4 192 -4.853437322449531 false 30521 -4.853437322449531 true
gene 15 4 205 4.004050972651593 false 30522 4.004050972651593 true
gene 3 4 278 1.9644564001172844 false 30523 1.9644564001172844 true
gene 1 4 281 0.4242423690449564 false 30524 0.4242423690449564 true
gene 5 4 533 -0.23407934484484688 false 30532 -0.23407934484484688 true
gene 2 4 692 0.796613264090586 false 30533 0.796613264090586 true
gene 5 4 720 1.7675015977281767 false 30534 1.7675015977281767 true
gene 13 4 729 5.056718264085865 false 30535 5.056718264085865 true
gene 15 4 805 0.9620814076958404 false 30536 0.9620814076958404 true
gene 1 43 848 1.2075528363326329 false 30882 1.2075528363326329 true
gene 1 848 278 -3.794920986578768 false 30883 -3.794920986578768 true
gene 5 47 56 -2.402378618251538 false 31528 -2.402378618251538 true
gene 9 47 128 -1.7852679869939256 false 31529 -1.7852679869939256 true
gene 3 47 161 1.1554308217646774 false 31530 1.1554308217646774 true
gene 5 47 192 -1.975551867670936 false 31531 -1.975551867670936 true
gene 15 47 205 0.7897485559571499 false 31532 0.7897485559571499 true
gene 8 47 278 -2.336918102537476 false 31533 -2.336918102537476 true
gene 14 47 281 7.9944676426702355 false 31534 7.9944676426702355 true
gene 12 47 533 -1.605091190869285 false 31535 -1.605091190869285 true
gene 8 47 692 -3.9311596748755377 false 31536 -3.9311596748755377 true
gene 15 47 720 0.6248015547505138 false 31537 0.6248015547505138 true
gene 9 47 729 1.2828051823111237 false 31538 1.2828051823111237 true
gene 12 47 805 3.45401034280292 false 31583 3.45401034280292 true
gene 1 47 848 -2.4576081131816863 false 31584 -2.4576081131816863 true
gene 11 2 56 1.521882379225473 false 32961 1.521882379225473 true
gene 3 2 128 5.297733931124754 false 32962 5.297733931124754 true
gene 13 2 161 0.7334954987963793 false 32963 0.7334954987963793 true
gene 10 2 192 1.9590038371578946 false 32964 1.9590038371578946 true
gene 11 2 205 -1.4830407213848098 false 32965 -1.4830407213848098 true
gene 4 2 278 2.239728914281556 false 32966 2.239728914281556 true
gene 15 2 281 0.017837721269442497 false 32967 0.017837721269442497 true
gene 5 2 533 -1.113038172297435 false 32968 -1.113038172297435 true
gene 11 2 692 5.238343127450481 false 32969 5.238343127450481 true
gene 9 2 720 1.8632061298274527 false 32970 1.8632061298274527 true
gene 9 2 729 -4.110423080786836 false 32971 -4.110423080786836 true
gene 7 2 805 1.6888194300788373 false 32972 1.6888194300788373 true
gene 3 2 848 1.7457593560491413 false 32973 1.7457593560491413 true
gene 5 35 56 -2.0942924632527475 false 33803 -2.0942924632527475 true
gene 3 35 128 -0.1383539837680008 false 33804 -0.1383539837680008 true
gene 2 35 161 0.30448710820346225 false 33805 0.30448710820346225 true
gene 8 35 192 1.4609812275869714 false 33806 1.4609812275869714 true
gene 4 35 205 -0.272877310077698 false 33807 -0.272877310077698 true
gene 2 35 278 -0.15639281758459234 false 33808 -0.15639281758459234 true
gene 13 35 281 3.879112980766763 false 33809 3.879112980766763 true
gene 4 35 533 0.20605184489040584 false 33810 0.20605184489040584 true
gene 13 35 692 -2.160757773619447 false 33811 -2.160757773619447 true
gene 3 35 720 2.5197611532219644 false 33812 2.5197611532219644 true
gene 10 35 729 -1.1561010533991327 false 33813 -1.1561010533991327 true
gene 3 35 805 -1.6813505077329802 false 33814 -1.6813505077329802 true
gene 2 35 848 -0.7202285787628395 false 33815 -0.7202285787628395 true
gene 15 41 56 -2.8380014253488355 false 34002 -2.8380014253488355 true
gene 2 41 128 -0.43398806750700647 false 34003 -0.43398806750700647 true
gene 10 41 161 -1.6004147248230094 false 34004 -1.6004147248230094 true
gene 10 41 192 -2.542466390747012 false 34005 -2.542466390747012 true
gene 15 41 205 -2.000186243776734 false 34006 -2.000186243776734 true
gene 5 41 278 0.5535582045949066 false 34007 0.5535582045949066 true
gene 3 41 281 -1.9808405431117713 false 34008 -1.9808405431117713 true
gene 4 41 533 0.8063113721475934 false 34009 0.8063113721475934 true
gene 12 41 692 -0.8079915139071367 false 34010 -0.8079915139071367 true
gene 14 41 720 -1.8861608263083534 false 34011 -1.8861608263083534 true
gene 4 41 729 2.49555488864171 false 34012 2.49555488864171 true
gene 4 41 805 -2.1552370948584914 false 34013 -2.1552370948584914 true
gene 4 41 848 2.63501448899242 false 34014 2.63501448899242 true
gene 4 32 937 -0.1608693187685617 false 34562 -0.1608693187685617 true
gene 4 937 205 -1.3912742285672355 false 34563 -1.3912742285672355 true
gene 1 28 56 0.09912248085212916 false 35009 0.09912248085212916 true
gene 7 28 128 -1.4184390906861113 false 35010 -1.4184390906861113 true
gene 1 40 56 -1.8414030871777376 false 35188 -1.8414030871777376 true
gene 3 40 128 2.5991579298775545 false 35189 2.5991579298775545 true
gene 7 40 161 1.0331083996214547 false 35190 1.0331083996214547 true
gene 15 40 192 0.9493307876693173 false 35191 0.9493307876693173 true
gene 9 40 205 -3.5749402915756217 false 35192 -3.5749402915756217 true
gene 1 40 278 0.1237770151555313 false 35193 0.1237770151555313 true
gene 2 40 281 -2.1138294938134266 false 35194 -2.1138294938134266 true
gene 14 40 533 -5.1486881601554755 false 35195 -5.1486881601554755 true
gene 13 40 692 2.207512675427952 false 35196 2.207512675427952 true
gene 9 40 720 -4.107733669225755 false 35197 -4.107733669225755 true
gene 3 40 729 1.847705182371722 false 35198 1.847705182371722 true
gene 10 40 805 1.8214028747301165 false 35199 1.8214028747301165 true
gene 15 40 848 -0.01648483789501709 false 35200 -0.01648483789501709 true
gene 2 42 56 -4.789849826807098 false 35373 -4.789849826807098 true
gene 9 42 128 0.4561921533168405 false 35374 0.4561921533168405 true
gene 8 42 161 2.3802082243423333 false 35375 2.3802082243423333 true
gene 7 42 192 3.0068761021902484 false 35376 3.0068761021902484 true
gene 9 42 205 -2.2795665405739163 false 35377 -2.2795665405739163 true
gene 13 42 278 -0.10626542705103525 false 35378 -0.10626542705103525 true
gene 14 42 281 0.8085824833602198 false 35379 0.8085824833602198 true
gene 10 42 533 2.2051870071771917 false 35380 2.2051870071771917 true
gene 2 42 692 3.3226932774740527 false 35381 3.3226932774740527 true
gene 7 42 720 -2.333583443014011 false 35382 -2.333583443014011 true
gene 6 42 729 -2.0377786286055217 false 35383 -2.0377786286055217 true
gene 4 42 805 -1.3782207424851436 false 35384 -1.3782207424851436 true
gene 8 42 848 1.996690935534713 false 35385 1.996690935534713 true
gene 5 49 980 -0.8147078754727551 false 35907 -0.8147078754727551 true
gene 5 980 161 -0.05101343231625366 false 35908 -0.05101343231625366 true
gene 7 43 980 1.1762206242878461 false 36328 1.1762206242878461 true
gene 2 805 205 1.6534210347159055 false 36492 1.6534210347159055 true
gene 1 805 128 -0.5078211534575708 false 37373 -0.5078211534575708 true
gene 15 128 1105 1.349834721091763 false 37424 1.349834721091763 true
gene 15 1105 56 -0.28048563727519693 false 37425 -0.28048563727519693 true
gene 7 26 278 -1.2788772933834982 false 38068 -1.2788772933834982 true
gene 6 8 1250 2.3643697026896398 false 38146 2.3643697026896398 true
gene 6 1250 128 0.2518753260096914 false 38147 0.2518753260096914 true
gene 10 32 720 -2.5517491850526492 false 38328 -2.5517491850526492 true
gene 13 39 1427 -1.4648659710972112 false 39009 -1.4648659710972112 true
gene 13 1427 192 0.5850863953628129 false 39010 0.5850863953628129 true
gene 13 14 281 1.5470620823531922 false 39068 1.5470620823531922 true
gene 7 848 729 0.33115750688580303 false 39147 0.33115750688580303 true
gene 8 1427 161 1.6333016068312074 false 39306 1.6333016068312074 true
gene 8 22 1105 0.15630642490948587 false 39339 0.15630642490948587 true
gene 10 22 56 -0.8031794488184263 false 39346 -0.8031794488184263 true
gene 8 22 128 -0.936899108332765 false 39347 -0.936899108332765 true
gene 13 22 161 2.314627306147348 false 39348 2.314627306147348 true
gene 11 22 192 -2.36363079003108 false 39349 -2.36363079003108 true
gene 15 22 205 1.6528746767349778 false 39350 1.6528746767349778 true
gene 14 22 278 0.1441203552590986 false 39351 0.1441203552590986 true
gene 6 22 281 -1.5118565639191313 false 39352 -1.5118565639191313 true
gene 7 22 533 -0.7539713211939275 false 39353 -0.7539713211939275 true
gene 6 22 692 -0.8852632569793071 false 39354 -0.8852632569793071 true
gene 1 22 720 -0.6596969374270916 false 39355 -0.6596969374270916 true
gene 8 22 729 0.030296763929515413 false 39356 0.030296763929515413 true
gene 7 22 805 -1.8453387577301095 false 39357 -1.8453387577301095 true
gene 5 22 848 -1.0675215382937706 false 39358 -1.0675215382937706 true
gene 7 22 937 1.5418046847224602 false 39359 1.5418046847224602 true
gene 1 22 980 -0.5054271619890035 false 39360 -0.5054271619890035 true
gene 11 22 1250 -1.5006279945747907 false 39361 -1.5006279945747907 true
gene 12 22 1427 0.20819958597969324 false 39362 0.20819958597969324 true
gene 2 31 56 3.389403670453211 false 39576 3.389403670453211 true
gene 15 31 128 1.7730211013741943 false 39577 1.7730211013741943 true
gene 3 31 161 0.2254611025505188 false 39578 0.2254611025505188 true
gene 11 31 192 0.07877205346085664 false 39579 0.07877205346085664 true
gene 5 31 205 1.9707947098783831 false 39580 1.9707947098783831 true
gene 15 31 278 0.5691814769642347 false 39581 0.5691814769642347 true
gene 13 31 281 -0.6464948657882936 false 39582 -0.6464948657882936 true
gene 8 31 533 1.0223103775905373 false 39583 1.0223103775905373 true
gene 13 31 692 -1.2622448716916936 false 39584 -1.2622448716916936 true
gene 6 31 720 -0.9846442769711601 false 39585 -0.9846442769711601 true
gene 3 31 729 -1.5711013578418676 false 39586 -1.5711013578418676 true
gene 13 31 805 -1.7725358248627598 false 39587 -1.7725358248627598 true
gene 14 31 848 1.7001186726383906 false 39588 1.7001186726383906 true
gene 12 31 937 2.3312272196865034 false 39589 2.3312272196865034 true
gene 15 31 980 2.3628344167572957 false 39590 2.3628344167572957 true
gene 12 31 1105 0.7292199357942716 false 39591 0.7292199357942716 true
gene 1 31 1250 1.4736037552592804 false 39592 1.4736037552592804 true
gene 6 31 1427 0.8125944239546766 false 39593 0.8125944239546766 true
gene 1 9 980 0.9370258800427169 false 40167 0.9370258800427169 true
gene 8 32 980 0.7664617957888908 false 41438 0.7664617957888908 true
gene 7 27 1250 1.7851231457077816 false 44615 1.7851231457077816 true
gene 11 44 192 1.5438261181865596 false 46303 1.5438261181865596 true
gene 11 48 692 -1.0781716782829307 false 46449 -1.0781716782829307 true
gene 7 4 980 2.013113401431236 false 46492 2.013113401431236 true
gene 4 937 2930 -0.35332875664681446 false 46748 -0.35332875664681446 true
gene 4 2930 205 -0.6029222940765693 false 46749 -0.6029222940765693 true
gene 1 38 720 0.12350701443825939 false 46840 0.12350701443825939 true
gene 3 10 161 -1.6982047130389517 false 48377 -1.6982047130389517 true
gene 12 23 805 -0.09647739804039901 false 49118 -0.09647739804039901 true
gene 15 692 729 -0.9531167510363409 false 49303 -0.9531167510363409 true
gene 13 8 980 -1.317661312482941 false 49330 -1.317661312482941 true
gene 1 15 805 1.1615837819721584 false 49865 1.1615837819721584 true
gene 13 28 1250 0.46119198221408175 false 49954 0.46119198221408175 true
gene 12 12 205 0.6247654863008203 false 50043 0.6247654863008203 true
gene 6 205 1427 0.2257513781032907 false 51395 0.2257513781032907 true
gene 13 17 1105 1.0372552889139122 false 51439 1.0372552889139122 true
gene 4 19 692 -0.5990423246316525 false 51733 -0.5990423246316525 true
gene 13 55 937 -0.7919163922542038 false 53284 -0.7919163922542038 true
gene 1 35 1250 -2.0660531047528052 false 53969 -2.0660531047528052 true
gene 13 18 848 3.104934413314665 false 54004 3.104934413314665 true
gene 4 41 4427 0.9746164233964723 false 54081 0.9746164233964723 true
gene 4 4427 729 0.9201932508604602 false 54082 0.9201932508604602 true
gene 14 28 692 2.776316866629847 false 54319 2.776316866629847 true
gene 14 692 1427 -6.980787646894672 false 54359 -6.980787646894672 true
genomeend 69
