genomestart 32
trait 1 0.1 0 0.8080878275179755 0.047587923849461 0.5724281445413063 0 0 0
trait 2 0.2 0 0 0 0 0 0 0
trait 3 0.3 0 0 0 0 0 0 0
trait 4 0.4 0 0 0 0 0 0 0
trait 5 0.5 0 0 0.9426158121766238 0.5458236778460633 0 0 0
trait 6 0.6 0 0 0 0 0 0 0
trait 7 0.7 0 0 0 0 0 0 0
trait 8 0.8 0 0 0 0 0 0 0
trait 9 0.9 0 0 0 0 0 0 0
trait 10 1 0 0 0 0 0 0 0
trait 11 1.1 0 0 0 0 0 0 0
trait 12 1.2 0 0 0 0 0 0 0
trait 13 1.3 0 0 0 0 0 0 0
trait 14 1.4 0 0 0 0 0 0 0
trait 15 1.858787151276617 0.9799684028381533 0 0 0 0.7033375617300114 0.6486666996361864 0.1690218251979772
node 1 1 1 3 NullActivation
node 2 1 1 1 NullActivation
node 3 1 1 1 NullActivation
node 4 1 1 1 NullActivation
node 5 1 1 1 NullActivation
node 6 1 1 1 NullActivation
node 7 1 1 1 NullActivation
node 8 1 1 1 NullActivation
node 9 1 1 1 NullActivation
node 10 1 1 1 NullActivation
node 11 1 1 1 NullActivation
node 12 1 1 1 NullActivation
node 13 1 1 1 NullActivation
node 14 1 1 1 NullActivation
node 15 1 1 1 NullActivation
node 16 1 1 1 NullActivation
node 17 12 1 1 NullActivation
node 18 1 1 1 NullActivation
node 19 1 1 1 NullActivation
node 20 1 1 1 NullActivation
node 21 1 1 1 NullActivation
node 22 1 1 1 NullActivation
node 23 1 1 1 NullActivation
node 24 1 1 1 NullActivation
node 25 1 1 1 NullActivation
node 26 1 1 1 NullActivation
node 27 1 1 1 NullActivation
node 28 1 1 1 NullActivation
node 29 1 1 1 NullActivation
node 30 1 1 1 NullActivation
node 31 1 1 1 NullActivation
node 32 1 1 1 NullActivation
node 33 1 1 1 NullActivation
node 34 1 1 1 NullActivation
node 35 1 1 1 NullActivation
node 36 1 1 1 NullActivation
node 37 1 1 1 NullActivation
node 38 1 1 1 NullActivation
node 39 1 1 1 NullActivation
node 40 1 1 1 NullActivation
node 41 1 1 1 NullActivation
node 42 1 1 1 NullActivation
node 43 1 1 1 NullActivation
node 44 1 1 1 NullActivation
node 45 1 1 1 NullActivation
node 46 1 1 1 NullActivation
node 47 1 1 1 NullActivation
node 48 1 1 1 NullActivation
node 49 1 1 1 NullActivation
node 50 1 1 1 NullActivation
node 51 1 1 1 NullActivation
node 52 1 1 1 NullActivation
node 53 1 1 1 NullActivation
node 54 1 1 1 NullActivation
node 55 1 1 1 NullActivation
node 56 1 0 2 SigmoidBipolarActivation
node 65 1 0 0 SigmoidSteepenedActivation
node 81 1 0 0 SigmoidSteepenedActivation
node 214 1 0 0 SigmoidSteepenedActivation
gene 1 1 56 0.12687236158782778 false 1 0.12687236158782778 true
gene 1 55 56 10.837873414334878 false 77 10.837873414334878 true
gene 1 55 65 -0.4270008302220262 false 141 -0.4270008302220262 true
gene 1 65 56 -2.0127476819288272 false 142 -2.0127476819288272 true
gene 4 7 56 0.3299143036921002 false 225 0.3299143036921002 true
gene 7 7 65 0.19044557137751716 false 226 0.19044557137751716 true
gene 15 50 56 6.895904708961579 false 399 6.895904708961579 true
gene 2 50 65 0.7459908790004488 false 409 0.7459908790004488 true
gene 1 55 81 -2.7706580621824943 false 496 -2.7706580621824943 true
gene 1 81 56 2.5971639768474906 false 497 2.5971639768474906 true
gene 4 6 56 -1.0854738031504236 false 588 -1.0854738031504236 true
gene 3 6 65 0.2848277845788052 false 619 0.2848277845788052 true
gene 9 6 81 3.939069025479032 false 620 3.939069025479032 true
gene 11 25 56 1.8295602111280451 false 718 1.8295602111280451 true
gene 1 25 65 -0.9559624349032241 false 776 -0.9559624349032241 true
gene 15 25 81 -1.9667286229592933 false 777 -1.9667286229592933 true
gene 12 23 56 0.34650675374187734 false 825 0.34650675374187734 true
gene 4 23 65 -3.317653827295081 false 945 -3.317653827295081 true
gene 5 23 81 0.25796288089860386 false 946 0.25796288089860386 true
gene 5 52 56 12.100418483222086 false 1270 12.100418483222086 true
gene 15 52 65 2.505506239069042 false 1310 2.505506239069042 true
gene 12 52 81 5.692396502214729 false 1311 5.692396502214729 true
gene 15 16 56 5.347750789348442 false 1354 5.347750789348442 true
gene 12 16 65 -0.6842928531991005 false 1456 -0.6842928531991005 true
gene 8 16 81 4.121423779275529 false 1457 4.121423779275529 true
gene 14 14 56 0.6287796227228742 false 1736 0.6287796227228742 true
gene 6 14 65 6.0920002821794945 false 1737 6.0920002821794945 true
gene 8 14 81 -4.636591555502884 false 1738 -4.636591555502884 true
gene 11 45 56 0.9214419265797347 false 1940 0.9214419265797347 true
gene 8 45 65 -0.7706651153154419 false 1941 -0.7706651153154419 true
gene 14 45 81 -1.6694097709175624 false 1942 -1.6694097709175624 true
gene 13 9 56 -5.392298758261605 false 2122 -5.392298758261605 true
gene 6 9 65 -3.7684508227344287 false 2123 -3.7684508227344287 true
gene 2 9 81 1.6740730905751662 false 2285 1.6740730905751662 true
gene 1 53 56 8.05697330469189 false 3391 8.05697330469189 true
gene 15 53 65 6.192732848675681 false 3392 6.192732848675681 true
gene 9 53 81 0.5652841561714563 false 3393 0.5652841561714563 true
gene 9 48 56 0.028403087492376893 false 3636 0.028403087492376893 true
gene 6 48 65 0.020405914058298835 false 3637 0.020405914058298835 true
gene 11 48 81 2.236097409591797 false 3638 2.236097409591797 true
gene 5 22 56 1.3483594596943367 false 3860 1.3483594596943367 true
gene 12 22 65 3.368917592202877 false 3861 3.368917592202877 true
gene 3 22 81 -3.7305592409730854 false 3862 -3.7305592409730854 true
gene 1 55 214 -0.010653465702801495 false 4086 -0.010653465702801495 true
gene 1 214 81 -2.4177940684091115 false 4087 -2.4177940684091115 true
genomeend 32
