genomestart 747
trait 1 0.1 0 0 0 0 0 0 0
trait 2 0.2 0 0 0 0 0 0 0
trait 3 0.3 0 0 0 0 0 0 0
trait 4 1.401452852537805 0 0 0 0 0 0 0
trait 5 0.5 0 0 0 0 0 0 0
trait 6 0.6 0 0 0 0 0 0 0
trait 7 0.7 0 0 0 0 0 0 0
trait 8 0.8 0 0 0 0 0 0 0
trait 9 0.9 0 0 0 0 0 0 0
trait 10 1 0 0 0 0 0 0 0
trait 11 1.1 0 0 0 0 0 0 0
trait 12 1.2 0 0 0 0 0 0 0
trait 13 1.3 0 0 0 0 0 0 0
trait 14 1.4 0 0 0 0 0 0 0
trait 15 1.5 0 0 0 0 0 0 0
node 1 1 1 3 NullActivation
node 2 1 1 1 NullActivation
node 3 1 1 1 NullActivation
node 4 1 1 1 NullActivation
node 5 1 1 1 NullActivation
node 6 1 1 1 NullActivation
node 7 1 1 1 NullActivation
node 8 1 1 1 NullActivation
node 9 1 1 1 NullActivation
node 10 1 1 1 NullActivation
node 11 1 1 1 NullActivation
node 12 1 1 1 NullActivation
node 13 13 1 1 NullActivation
node 14 1 1 1 NullActivation
node 15 1 1 1 NullActivation
node 16 1 1 1 NullActivation
node 17 1 1 1 NullActivation
node 18 1 1 1 NullActivation
node 19 1 1 1 NullActivation
node 20 1 1 1 NullActivation
node 21 1 1 1 NullActivation
node 22 1 1 1 NullActivation
node 23 1 1 1 NullActivation
node 24 1 1 1 NullActivation
node 25 9 1 1 NullActivation
node 26 1 1 1 NullActivation
node 27 1 1 1 NullActivation
node 28 1 1 1 NullActivation
node 29 1 1 1 NullActivation
node 30 1 1 1 NullActivation
node 31 1 1 1 NullActivation
node 32 1 1 1 NullActivation
node 33 1 1 1 NullActivation
node 34 1 1 1 NullActivation
node 35 1 1 1 NullActivation
node 36 1 1 1 NullActivation
node 37 1 1 1 NullActivation
node 38 1 1 1 NullActivation
node 39 1 1 1 NullActivation
node 40 1 1 1 NullActivation
node 41 2 1 1 NullActivation
node 42 1 1 1 NullActivation
node 43 1 1 1 NullActivation
node 44 1 1 1 NullActivation
node 45 1 1 1 NullActivation
node 46 1 1 1 NullActivation
node 47 1 1 1 NullActivation
node 48 1 1 1 NullActivation
node 49 1 1 1 NullActivation
node 50 1 1 1 NullActivation
node 51 1 1 1 NullActivation
node 52 1 1 1 NullActivation
node 53 1 1 1 NullActivation
node 54 1 1 1 NullActivation
node 55 1 1 1 NullActivation
node 56 1 0 2 SigmoidBipolarActivation
node 59 1 0 0 SigmoidSteepenedActivation
node 74 1 0 0 SigmoidSteepenedActivation
gene 1 1 56 2.906570570906181 false 1 2.906570570906181 true
gene 15 23 56 -0.6043885366532228 false 55 -0.6043885366532228 true
gene 15 23 59 -2.5037645591816458 false 80 -2.5037645591816458 true
gene 15 59 56 2.7320694562314056 false 81 2.7320694562314056 true
gene 15 23 74 0.9233932757487611 false 336 0.9233932757487611 true
gene 15 74 56 -2.650914633194369 false 337 -2.650914633194369 true
gene 8 24 56 5.292435091566281 false 410 5.292435091566281 true
gene 4 24 59 6.220748031749857 false 435 6.220748031749857 true
gene 6 24 74 -11.332892831318937 false 598 -11.332892831318937 true
gene 8 32 56 0.9349683266843252 false 626 0.9349683266843252 true
gene 3 32 59 4.30788238989706 false 627 4.30788238989706 true
gene 2 32 74 3.046723449628728 false 628 3.046723449628728 true
gene 10 49 56 -1.705362874132827 false 956 -1.705362874132827 true
gene 5 49 59 1.1384930898096304 false 957 1.1384930898096304 true
gene 2 49 74 -8.152007152653775 false 1078 -8.152007152653775 true
gene 10 38 56 3.2736473338926553 false 1621 3.2736473338926553 true
gene 4 38 59 1.8701809121193047 false 1654 1.8701809121193047 true
gene 7 38 74 0.7721795961821011 false 1926 0.7721795961821011 true
gene 12 8 56 -2.682255288069798 false 2443 -2.682255288069798 true
gene 9 8 59 -1.8315616253277716 false 2517 -1.8315616253277716 true
gene 14 8 74 -0.7818743768417457 false 2649 -0.7818743768417457 true
gene 7 52 56 25.269778682876236 false 2903 25.269778682876236 true
gene 14 52 59 -1.2985734038138304 false 2904 -1.2985734038138304 true
gene 6 52 74 -2.560398248069254 false 3007 -2.560398248069254 true
gene 4 27 56 -3.3039775944861844 false 3599 -3.3039775944861844 true
gene 11 27 59 2.2467988874260083 false 3600 2.2467988874260083 true
gene 8 27 74 -6.537750780105611 false 3601 -6.537750780105611 true
gene 7 28 56 3.354465510221889 false 4473 3.354465510221889 true
gene 8 28 59 1.5183577658116285 false 4474 1.5183577658116285 true
gene 8 28 74 -4.1691346601811 false 4475 -4.1691346601811 true
gene 11 14 59 -1.4719122868648713 false 6883 -1.4719122868648713 true
gene 13 14 56 -0.058820438408751397 false 6888 -0.058820438408751397 true
gene 4 14 74 -5.3849610161881 false 6889 -5.3849610161881 true
gene 1 55 56 13.523594356298254 false 7707 13.523594356298254 true
gene 12 55 59 1.472704041146164 false 7708 1.472704041146164 true
gene 14 55 74 1.6915107188262595 false 7714 1.6915107188262595 true
gene 4 2 56 -6.0074284593930605 false 8675 -6.0074284593930605 true
gene 7 2 59 0.7265651243361588 false 8676 0.7265651243361588 true
gene 1 2 74 -1.492448650243505 false 8677 -1.492448650243505 true
gene 9 6 56 1.3099322224287722 false 9430 1.3099322224287722 true
gene 15 6 59 -1.108470650315231 false 9431 -1.108470650315231 true
gene 1 6 74 13.224561188183145 false 9432 13.224561188183145 true
gene 5 35 74 2.107809160959408 false 9862 2.107809160959408 true
gene 14 25 56 11.67556629634269 false 10298 11.67556629634269 true
gene 7 25 59 -11.310529501770578 false 10503 -11.310529501770578 true
gene 12 25 74 -0.8065892660244283 false 10636 -0.8065892660244283 true
gene 2 29 59 -3.423789237783763 false 11162 -3.423789237783763 true
gene 2 31 56 4.917545866482033 false 12724 4.917545866482033 true
gene 3 31 59 -2.098384002949499 false 12725 -2.098384002949499 true
gene 15 31 74 -0.9675233942251122 false 12821 -0.9675233942251122 true
gene 15 26 56 -0.41444355963259216 false 13374 -0.41444355963259216 true
gene 1 26 59 -0.630945856310873 false 13375 -0.630945856310873 true
gene 6 26 74 1.3762788253286053 false 13376 1.3762788253286053 true
gene 5 46 74 -4.920862829448454 false 14074 -4.920862829448454 true
gene 6 33 56 -1.3098273424013405 false 14958 -1.3098273424013405 true
gene 13 33 59 2.7924580457059616 false 14959 2.7924580457059616 true
gene 2 33 74 1.0155996313351696 false 15052 1.0155996313351696 true
gene 1 4 56 -3.7819273265414926 false 16184 -3.7819273265414926 true
gene 15 4 59 -0.7452264319894617 false 16185 -0.7452264319894617 true
gene 5 4 74 -3.0918167436073167 false 16238 -3.0918167436073167 true
gene 3 53 59 -3.5087278311575405 false 20021 -3.5087278311575405 true
gene 14 16 56 6.001817018157591 false 21215 6.001817018157591 true
gene 3 16 59 -7.044343830437841 false 21216 -7.044343830437841 true
gene 13 16 74 -4.8622294374915445 false 21217 -4.8622294374915445 true
gene 5 5 56 -1.3035503775559112 false 22092 -1.3035503775559112 true
gene 8 5 59 -0.2879285822002231 false 22093 -0.2879285822002231 true
gene 2 5 74 -1.9403542886454261 false 22251 -1.9403542886454261 true
gene 9 43 56 -0.9730332589620979 false 23355 -0.9730332589620979 true
gene 13 43 59 -0.3622662044385732 false 23356 -0.3622662044385732 true
gene 1 43 74 -4.642308658014891 false 23357 -4.642308658014891 true
gene 14 11 56 0.6998172770319485 false 24069 0.6998172770319485 true
gene 1 11 59 0.5829680634028225 false 24070 0.5829680634028225 true
gene 9 11 74 -5.451685454528032 false 24334 -5.451685454528032 true
gene 5 9 56 -3.7836376335662085 false 24674 -3.7836376335662085 true
gene 14 9 59 1.130645023199963 false 24675 1.130645023199963 true
gene 3 9 74 0.9900891719013016 false 24676 0.9900891719013016 true
gene 2 7 56 1.4647435654698866 false 25250 1.4647435654698866 true
gene 5 7 59 7.150340058329764 false 25251 7.150340058329764 true
gene 14 7 74 2.60014124431743 false 25252 2.60014124431743 true
gene 8 30 56 0.09707487007596294 false 27273 0.09707487007596294 true
gene 14 30 59 12.914863527618582 false 27274 12.914863527618582 true
gene 1 30 74 3.529270323891309 false 27349 3.529270323891309 true
gene 13 12 74 3.0709160386966943 false 28471 3.0709160386966943 true
gene 10 34 56 4.896820714383059 false 30410 4.896820714383059 true
gene 6 34 59 1.9869733292647755 false 30411 1.9869733292647755 true
gene 5 34 74 5.245281457844909 false 30412 5.245281457844909 true
gene 3 37 59 3.248903340048706 false 31874 3.248903340048706 true
gene 5 20 56 4.232664660128516 false 32518 4.232664660128516 true
gene 8 20 59 -0.5876832539702124 false 32519 -0.5876832539702124 true
gene 12 20 74 0.6628592190186375 false 32520 0.6628592190186375 true
gene 10 53 56 -4.2903526495088204 false 33739 -4.2903526495088204 true
gene 5 3 74 -2.3396380688728233 false 34151 -2.3396380688728233 true
gene 6 54 56 -0.07306106829759051 false 35521 -0.07306106829759051 true
gene 11 54 59 -5.264616553941369 false 35522 -5.264616553941369 true
gene 3 54 74 7.7565203152416125 false 35523 7.7565203152416125 true
gene 4 45 56 7.860316567053676 false 36796 7.860316567053676 true
gene 12 45 59 -10.738605355919116 false 36818 -10.738605355919116 true
gene 4 45 74 -1.985984125570758 false 36819 -1.985984125570758 true
gene 9 15 56 7.1363799955848455 false 37577 7.1363799955848455 true
gene 1 15 59 6.490085797798679 false 37578 6.490085797798679 true
gene 9 15 74 5.2043331923622045 false 37579 5.2043331923622045 true
gene 13 19 74 -8.322566885361898 false 38780 -4.3116158432908955 true
gene 9 19 56 -2.149260814402136 false 38858 -1.074630407201068 true
gene 4 19 59 3.0964075891243334 false 38859 1.5482037945621667 true
gene 15 39 59 2.085855986318501 false 39298 0.7575232053264154 true
gene 7 40 74 1.254540157223141 false 39948 0.6272700786115705 true
gene 8 42 56 -0.7520173054504342 false 40590 -0.8309101371495135 true
gene 15 42 59 -2.659642280737282 false 40591 -0.7612354026250248 true
gene 11 42 74 0.7094373371869006 false 40592 0.6067275117473593 true
gene 13 1 59 3.200761902482924 false 41108 1.600380951241462 true
gene 4 17 56 1.8705377613214962 false 41635 0.5172566998304367 true
gene 15 17 59 -2.5756727989643475 false 41636 -1.736016670190938 true
gene 15 17 74 7.309452078679156 false 41637 3.418253915594269 true
gene 13 51 56 -7.858811475361616 false 42188 -3.726012192720088 true
gene 4 51 59 7.499019088869398 false 42189 3.326819471871421 true
gene 8 51 74 6.949792259708387 false 42191 2.8846180507993866 true
gene 13 50 56 6.352002577536129 false 42834 3.1760012887680644 true
gene 8 50 59 8.597012871226454 false 42835 4.298506435613227 true
gene 2 50 74 -6.574693304042543 false 42836 -3.7495960204139576 true
gene 8 44 56 -1.9319711275638864 false 43446 -1.1138253283294008 true
gene 8 44 59 2.70382451863496 false 43447 1.35191225931748 true
gene 4 44 74 -0.5684012874832535 false 43448 0.6145272051063214 true
gene 2 13 56 0.6203551122145698 false 43896 0.9151854367654718 true
gene 7 13 59 -7.242775821452007 false 43897 -3.6213879107260034 true
gene 2 13 74 -9.03084748950989 false 43898 -4.44008891421119 true
gene 9 48 56 -1.5528536810239122 false 45414 0 true
gene 7 48 59 8.522979703319663 false 45415 0 true
gene 4 48 74 -4.442504934300536 false 45416 0 true
gene 6 10 56 -7.553849234799936 false 46610 0 true
gene 13 10 59 3.468733968825638 false 46611 0 true
gene 3 10 74 -5.875033803849955 false 46612 0 true
gene 4 39 56 4.993604435552425 false 46977 0 true
gene 1 36 56 3.911191428355922 false 47453 0 true
gene 1 36 59 0.24543946840923503 false 47454 0 true
gene 13 36 74 4.942422981721864 false 47455 0 true
gene 7 18 56 -5.522259131096215 false 47829 0 true
gene 15 18 59 -2.8260053566521264 false 47830 0 true
gene 4 18 74 5.170277336490012 false 47831 0 true
gene 12 21 56 7.499632934213388 false 48253 0 true
gene 12 21 59 -9.361277988223476 false 48254 0 true
gene 9 21 74 -9.639913287331206 false 48255 0 true
genomeend 747
