/* Species #1 : (Size 256) (AF 9.895) (Age 20)  */
/* Organism #217 Fitness: 20.000 Error: 0.000 */
/* ## $ WINNER ORGANISM FOR SPECIES #1 $ ## */
genomestart 217
trait 1 0.1 0.00010602765290223848 0 0 8.90629107805878e-05 0 0 0
trait 2 0.2 0 0 0 0 0 0 0
trait 3 0.28593749999999996 0.029035424725928134 0.0013577600776908004 0 0 0 0 0
trait 4 0.4 0 0 0 0 0 0 0
trait 5 0.5 0.020619334122628234 0 0.03301529685925656 0.028300514782717053 0 0 0.09907949208552556
trait 6 0.6 0.07015898867269271 0 0.1292195336359268 0 0 0 0
trait 7 0.7 0 0 0 0 0 0 0
trait 8 0.8 0 0 0 0 0.022780870729596094 0.007298694735315403 0
trait 9 0.9 0 0 0 0 0 0 0
trait 10 1 0 0 0 0 0 0 0
trait 11 1.1 0 0 0 0 0 0 0
trait 12 1.2 0 0 0 0 0 0 0
trait 13 1.3 0 0.036532582255071645 0 0.021663172224854792 0.028172249219262823 0 0
trait 14 1.4 0 0 0 0 0 0 0
trait 15 1.5 0 0 0 0 0 0 0
node 1 1 1 3 NullActivation
node 2 1 1 1 NullActivation
node 3 1 1 1 NullActivation
node 4 1 1 1 NullActivation
node 5 1 1 1 NullActivation
node 6 1 1 1 NullActivation
node 7 1 1 1 NullActivation
node 8 1 1 1 NullActivation
node 9 1 1 1 NullActivation
node 10 1 1 1 NullActivation
node 11 1 1 1 NullActivation
node 12 1 1 1 NullActivation
node 13 1 1 1 NullActivation
node 14 1 1 1 NullActivation
node 15 1 1 1 NullActivation
node 16 1 1 1 NullActivation
node 17 1 1 1 NullActivation
node 18 1 1 1 NullActivation
node 19 1 1 1 NullActivation
node 20 1 1 1 NullActivation
node 21 1 1 1 NullActivation
node 22 1 1 1 NullActivation
node 23 1 1 1 NullActivation
node 24 1 1 1 NullActivation
node 25 1 1 1 NullActivation
node 26 1 1 1 NullActivation
node 27 1 1 1 NullActivation
node 28 1 1 1 NullActivation
node 29 1 1 1 NullActivation
node 30 1 1 1 NullActivation
node 31 1 1 1 NullActivation
node 32 1 1 1 NullActivation
node 33 1 1 1 NullActivation
node 34 1 1 1 NullActivation
node 35 1 1 1 NullActivation
node 36 1 1 1 NullActivation
node 37 1 1 1 NullActivation
node 38 1 1 1 NullActivation
node 39 1 1 1 NullActivation
node 40 1 1 1 NullActivation
node 41 1 1 1 NullActivation
node 42 1 1 1 NullActivation
node 43 1 1 1 NullActivation
node 44 1 1 1 NullActivation
node 45 1 1 1 NullActivation
node 46 1 1 1 NullActivation
node 47 1 1 1 NullActivation
node 48 1 1 1 NullActivation
node 49 1 1 1 NullActivation
node 50 1 1 1 NullActivation
node 51 1 1 1 NullActivation
node 52 1 1 1 NullActivation
node 53 1 1 1 NullActivation
node 54 1 1 1 NullActivation
node 55 1 1 1 NullActivation
node 56 1 0 2 SigmoidSteepenedActivation
gene 1 1 56 0.8452483206465917 false 1 0.8452483206465917 true
gene 14 51 56 -8.145546619670036 false 118 -8.145546619670036 true
gene 3 31 56 0.23668573572913532 false 285 0.23668573572913532 true
gene 7 38 56 1.4523688602038676 false 361 1.4523688602038676 true
gene 2 8 56 7.724109078770132 false 427 7.724109078770132 true
gene 3 55 56 7.76868265291507 false 750 7.76868265291507 true
gene 12 18 56 7.9161550222116635 false 814 7.9161550222116635 true
gene 11 50 56 2.2964029063457208 false 876 2.2964029063457208 true
gene 2 10 56 5.210829881715615 false 988 5.210829881715615 true
gene 11 37 56 0.3896718688628436 false 1088 0.3896718688628436 true
gene 15 2 56 -8.317222034790849 false 1296 -8.317222034790849 true
gene 14 52 56 2.837988738428354 false 1358 0 true
genomeend 217
/* Organism #7 Fitness: 19.000 Error: 0.000 */
genomestart 7
trait 1 0.1 0.00013584793028099306 0.033670511352308474 0 0.0001141118544376281 0 0.04623817760551626 0
trait 2 0.2 0 0 0 0 0 0 0
trait 3 0.288922119140625 0.022872958280190786 0.0010695896445350704 0 0 0 0 0
trait 4 0.4102334443694332 0 0 0 0 0.009553058242681071 0.00855021848052133 0
trait 5 0.49281559006758036 0.009665312869981985 0.0077632250777171525 0.015475920402776514 0.026249994833794785 0 0.007530329308766614 0.04644351191509011
trait 6 0.6 0.03800278553104189 0 0.06999391405279369 0 0 0 0
trait 7 0.7 0 0 0 0 0 0 0
trait 8 0.8 0.0077346005843664765 0 0 0.007731936543834212 0.021677434308875244 0.006283719998685605 0
trait 9 0.9 0 0 0 0 0 0 0
trait 10 1 0 0 0 0 0 0 0
trait 11 1.1 0 0 0 0 0 0 0
trait 12 1.2 0 0 0 0 0 0 0
trait 13 1.3 0 0.03757495212919733 0 0.022281279041053096 0.028976076982312443 0 0
trait 14 1.4 0 0 0 0 0 0 0
trait 15 1.5 0 0 0 0 0 0 0
node 1 1 1 3 NullActivation
node 2 1 1 1 NullActivation
node 3 1 1 1 NullActivation
node 4 1 1 1 NullActivation
node 5 1 1 1 NullActivation
node 6 1 1 1 NullActivation
node 7 1 1 1 NullActivation
node 8 1 1 1 NullActivation
node 9 1 1 1 NullActivation
node 10 1 1 1 NullActivation
node 11 1 1 1 NullActivation
node 12 1 1 1 NullActivation
node 13 1 1 1 NullActivation
node 14 1 1 1 NullActivation
node 15 1 1 1 NullActivation
node 16 1 1 1 NullActivation
node 17 1 1 1 NullActivation
node 18 1 1 1 NullActivation
node 19 1 1 1 NullActivation
node 20 1 1 1 NullActivation
node 21 1 1 1 NullActivation
node 22 1 1 1 NullActivation
node 23 1 1 1 NullActivation
node 24 1 1 1 NullActivation
node 25 1 1 1 NullActivation
node 26 1 1 1 NullActivation
node 27 1 1 1 NullActivation
node 28 1 1 1 NullActivation
node 29 1 1 1 NullActivation
node 30 1 1 1 NullActivation
node 31 1 1 1 NullActivation
node 32 1 1 1 NullActivation
node 33 1 1 1 NullActivation
node 34 1 1 1 NullActivation
node 35 1 1 1 NullActivation
node 36 1 1 1 NullActivation
node 37 1 1 1 NullActivation
node 38 1 1 1 NullActivation
node 39 1 1 1 NullActivation
node 40 1 1 1 NullActivation
node 41 1 1 1 NullActivation
node 42 1 1 1 NullActivation
node 43 1 1 1 NullActivation
node 44 1 1 1 NullActivation
node 45 1 1 1 NullActivation
node 46 1 1 1 NullActivation
node 47 1 1 1 NullActivation
node 48 1 1 1 NullActivation
node 49 1 1 1 NullActivation
node 50 1 1 1 NullActivation
node 51 1 1 1 NullActivation
node 52 1 1 1 NullActivation
node 53 1 1 1 NullActivation
node 54 1 1 1 NullActivation
node 55 1 1 1 NullActivation
node 56 1 0 2 SigmoidSteepenedActivation
node 109 1 0 0 SigmoidSteepenedActivation
gene 1 1 56 -2.0849878010931286 false 1 -2.0849878010931286 true
gene 14 51 56 -5.205749615277849 false 118 -5.205749615277849 false
gene 3 31 56 0.23668573572913532 false 285 0.23668573572913532 true
gene 7 38 56 1.4523688602038676 false 361 1.4523688602038676 true
gene 2 8 56 8.519196509987552 false 427 8.519196509987552 true
gene 3 55 56 7.388118574299431 false 750 7.388118574299431 true
gene 11 50 56 4.238713498840196 false 876 4.238713498840196 true
gene 2 10 56 5.180557101595159 false 988 5.180557101595159 true
gene 5 52 56 9.864585137710208 false 1199 9.864585137710208 true
gene 14 51 109 1 false 1310 0 true
gene 14 109 56 -5.205749615277849 false 1311 0 true
genomeend 7
/* Organism #64 Fitness: 17.000 Error: 0.000 */
genomestart 64
trait 1 0.1 0.00011928110951501828 0 0 0.00010019577462816127 0 0 0
trait 2 0.2 0 0 0 0 0 0 0
trait 3 0.28850097656249996 0.023742508760264153 0.0011102517301950815 0 0 0 0 0
trait 4 0.4068222962462888 0 0 0 0 0.006368705495120714 0.0057001456536808865 0
trait 5 0.5 0.01353143801797478 0 0.02166628856388712 0.018572212826158063 0 0 0.06502091668112614
trait 6 0.6 0.043849367920432945 0 0.08076220852245425 0 0 0 0
trait 7 0.7 0 0 0 0 0 0 0
trait 8 0.8 0.006629657643742694 0 0 0.006627374180429324 0.0197931164309529 0.006751292630166748 0
trait 9 0.9 0 0 0 0 0 0 0
trait 10 1 0 0 0 0 0 0 0
trait 11 1.1 0 0 0 0 0 0 0
trait 12 1.2 0 0 0 0 0 0 0
trait 13 1.3 0 0.04569054614917588 0 0.027093682110025594 0.03523445028034161 0 0
trait 14 1.4 0 0 0 0 0 0 0
trait 15 1.5 0 0 0 0 0 0 0
node 1 1 1 3 NullActivation
node 2 1 1 1 NullActivation
node 3 1 1 1 NullActivation
node 4 1 1 1 NullActivation
node 5 1 1 1 NullActivation
node 6 1 1 1 NullActivation
node 7 1 1 1 NullActivation
node 8 1 1 1 NullActivation
node 9 1 1 1 NullActivation
node 10 1 1 1 NullActivation
node 11 1 1 1 NullActivation
node 12 1 1 1 NullActivation
node 13 1 1 1 NullActivation
node 14 1 1 1 NullActivation
node 15 1 1 1 NullActivation
node 16 1 1 1 NullActivation
node 17 1 1 1 NullActivation
node 18 1 1 1 NullActivation
node 19 1 1 1 NullActivation
node 20 1 1 1 NullActivation
node 21 1 1 1 NullActivation
node 22 1 1 1 NullActivation
node 23 1 1 1 NullActivation
node 24 1 1 1 NullActivation
node 25 1 1 1 NullActivation
node 26 1 1 1 NullActivation
node 27 1 1 1 NullActivation
node 28 1 1 1 NullActivation
node 29 1 1 1 NullActivation
node 30 1 1 1 NullActivation
node 31 1 1 1 NullActivation
node 32 1 1 1 NullActivation
node 33 1 1 1 NullActivation
node 34 1 1 1 NullActivation
node 35 1 1 1 NullActivation
node 36 1 1 1 NullActivation
node 37 1 1 1 NullActivation
node 38 1 1 1 NullActivation
node 39 1 1 1 NullActivation
node 40 1 1 1 NullActivation
node 41 1 1 1 NullActivation
node 42 1 1 1 NullActivation
node 43 1 1 1 NullActivation
node 44 1 1 1 NullActivation
node 45 1 1 1 NullActivation
node 46 1 1 1 NullActivation
node 47 1 1 1 NullActivation
node 48 1 1 1 NullActivation
node 49 1 1 1 NullActivation
node 50 1 1 1 NullActivation
node 51 1 1 1 NullActivation
node 52 1 1 1 NullActivation
node 53 1 1 1 NullActivation
node 54 1 1 1 NullActivation
node 55 1 1 1 NullActivation
node 56 1 0 2 SigmoidSteepenedActivation
gene 1 1 56 0.15974735475153579 false 1 0.15974735475153579 true
gene 14 51 56 -7.332999587555168 false 118 -7.332999587555168 true
gene 3 31 56 0.1828782302261514 false 285 0.1828782302261514 true
gene 7 38 56 2.2008344263858968 false 361 2.2008344263858968 true
gene 2 8 56 5.019026133548103 false 427 5.019026133548103 true
gene 3 55 56 8.485819311313469 false 750 8.485819311313469 true
gene 12 18 56 8.230051726957559 false 814 8.230051726957559 true
gene 11 50 56 3.286855060275449 false 876 3.286855060275449 true
gene 2 10 56 2.9737845329125703 false 988 2.9737845329125703 true
gene 5 52 56 9.864585137710208 false 1199 9.864585137710208 true
genomeend 64
/* Organism #97 Fitness: 17.000 Error: 0.000 */
genomestart 97
trait 1 0.07500000000000001 8.283410382987382e-05 0.06998354475573844 0 6.95803990473342e-05 0.1488286569060377 0 0.04861285179070141
trait 2 0.199609375 0 0 0 0 0 0 0.0008658695773520844
trait 3 0.29086303710937494 0.01886546476333091 0.0008821904671454548 0 0 0 0 0
trait 4 0.4102334443694332 0 0 0 0 0.009553058242681071 0.00855021848052133 0
trait 5 0.49281559006758036 0.010309667061314119 0.0077632250777171525 0.019431524621265066 0.02713438592075469 0 0.007530329308766614 0.049539746042762775
trait 6 0.6 0.03361784873899859 0 0.06191769320054827 0 0 0 0
trait 7 0.7 0 0 0 0 0 0 0
trait 8 0.8 0.0033148288218713476 0 0 0.0033136870902146618 0.01966852839904587 0.006078444209254859 0
trait 9 0.9 0 0 0 0 0 0 0
trait 10 1 0 0 0 0 0 0 0
trait 11 1.1 0 0 0 0 0 0 0
trait 12 1.2 0 0 0 0.09715927189194849 0.1058361231689101 0 0
trait 13 1.3 0 0.047824922558099905 0 0.028359329400336405 0.03688038331896702 0 0
trait 14 1.4 0 0 0 0 0 0 0
trait 15 1.5 0 0 1.0179288416157507e-05 0 0 0 0
node 1 1 1 3 NullActivation
node 2 1 1 1 NullActivation
node 3 1 1 1 NullActivation
node 4 1 1 1 NullActivation
node 5 1 1 1 NullActivation
node 6 1 1 1 NullActivation
node 7 1 1 1 NullActivation
node 8 13 1 1 NullActivation
node 9 1 1 1 NullActivation
node 10 1 1 1 NullActivation
node 11 1 1 1 NullActivation
node 12 1 1 1 NullActivation
node 13 1 1 1 NullActivation
node 14 1 1 1 NullActivation
node 15 1 1 1 NullActivation
node 16 1 1 1 NullActivation
node 17 1 1 1 NullActivation
node 18 1 1 1 NullActivation
node 19 1 1 1 NullActivation
node 20 1 1 1 NullActivation
node 21 1 1 1 NullActivation
node 22 1 1 1 NullActivation
node 23 1 1 1 NullActivation
node 24 1 1 1 NullActivation
node 25 1 1 1 NullActivation
node 26 1 1 1 NullActivation
node 27 1 1 1 NullActivation
node 28 1 1 1 NullActivation
node 29 1 1 1 NullActivation
node 30 1 1 1 NullActivation
node 31 1 1 1 NullActivation
node 32 1 1 1 NullActivation
node 33 1 1 1 NullActivation
node 34 1 1 1 NullActivation
node 35 1 1 1 NullActivation
node 36 1 1 1 NullActivation
node 37 1 1 1 NullActivation
node 38 1 1 1 NullActivation
node 39 1 1 1 NullActivation
node 40 1 1 1 NullActivation
node 41 1 1 1 NullActivation
node 42 1 1 1 NullActivation
node 43 1 1 1 NullActivation
node 44 1 1 1 NullActivation
node 45 1 1 1 NullActivation
node 46 1 1 1 NullActivation
node 47 1 1 1 NullActivation
node 48 1 1 1 NullActivation
node 49 1 1 1 NullActivation
node 50 1 1 1 NullActivation
node 51 1 1 1 NullActivation
node 52 1 1 1 NullActivation
node 53 1 1 1 NullActivation
node 54 1 1 1 NullActivation
node 55 1 1 1 NullActivation
node 56 1 0 2 SigmoidSteepenedActivation
gene 1 1 56 -1.9620690536918095 false 1 -1.9620690536918095 true
gene 14 51 56 -7.859537371978654 false 118 -7.859537371978654 true
gene 3 31 56 0.8378208246491322 false 285 0.8378208246491322 true
gene 7 38 56 0.8126066940674274 false 361 0.8126066940674274 true
gene 2 8 56 7.724109078770132 false 427 7.724109078770132 true
gene 3 55 56 7.76868265291507 false 750 7.76868265291507 true
gene 11 50 56 2.2964029063457208 false 876 2.2964029063457208 true
gene 2 10 56 5.49643384157241 false 988 5.49643384157241 true
gene 4 11 56 -2.9223715241397556 false 1157 -2.9223715241397556 true
gene 14 45 56 1.3868208558295745 false 1204 0 true
gene 12 53 56 4.601832241049108 false 1299 4.601832241049108 true
gene 6 19 56 -0.8533610824841371 false 1344 -0.8533610824841371 true
genomeend 97
/* Organism #188 Fitness: 17.000 Error: 0.000 */
genomestart 188
trait 1 0.09765625 7.62073755234839e-05 0 0.008525356499764204 6.401396712354748e-05 0 0 0
trait 2 0.1921875 0.00867335895904968 0 0.02038471050963131 0 0 0 0.003463478309408338
trait 3 0.291009521484375 0.01856301242243583 0.0008680471330028424 0 0 0 0 0
trait 4 0.4034111481231444 0 0 0 0 0.003184352747560357 0.0028500728268404433 0
trait 5 0.49281559006758036 0.007087896104653456 0.058811591250698056 0.05842264880656823 0.024779942150620536 0 0.1818039806447845 0.03405857540439941
trait 6 0.6 0.036541139933694115 0 0.06730184043537855 0 0 0 0
trait 7 0.7 0 0 0 0 0 0 0
trait 8 0.8 0.0016574144109356738 0 0 0.0016568435451073309 0.02103003880369211 0.006260911577637744 0
trait 9 0.9 0 0 0 0 0 0 0
trait 10 1 0 0 0 0 0 0 0
trait 11 1.1 0.0030519305983843824 0.020127254212826597 0.011174851236218754 0.01968337069848424 0 0 0.0028682482984960563
trait 12 1.2 0 0 0 0 0 0 0
trait 13 1.3 0 0.039858238520139304 0 0.023635227305106518 0.030736842558516365 0 0
trait 14 1.4 0 0 0 0 0 0 0
trait 15 1.5 0 0 5.0896442080787534e-05 0 0 0 0
node 1 1 1 3 NullActivation
node 2 1 1 1 NullActivation
node 3 1 1 1 NullActivation
node 4 1 1 1 NullActivation
node 5 1 1 1 NullActivation
node 6 1 1 1 NullActivation
node 7 1 1 1 NullActivation
node 8 13 1 1 NullActivation
node 9 1 1 1 NullActivation
node 10 1 1 1 NullActivation
node 11 1 1 1 NullActivation
node 12 1 1 1 NullActivation
node 13 1 1 1 NullActivation
node 14 1 1 1 NullActivation
node 15 1 1 1 NullActivation
node 16 1 1 1 NullActivation
node 17 1 1 1 NullActivation
node 18 1 1 1 NullActivation
node 19 1 1 1 NullActivation
node 20 1 1 1 NullActivation
node 21 1 1 1 NullActivation
node 22 1 1 1 NullActivation
node 23 1 1 1 NullActivation
node 24 1 1 1 NullActivation
node 25 1 1 1 NullActivation
node 26 1 1 1 NullActivation
node 27 1 1 1 NullActivation
node 28 1 1 1 NullActivation
node 29 1 1 1 NullActivation
node 30 1 1 1 NullActivation
node 31 1 1 1 NullActivation
node 32 1 1 1 NullActivation
node 33 1 1 1 NullActivation
node 34 1 1 1 NullActivation
node 35 1 1 1 NullActivation
node 36 1 1 1 NullActivation
node 37 1 1 1 NullActivation
node 38 1 1 1 NullActivation
node 39 1 1 1 NullActivation
node 40 1 1 1 NullActivation
node 41 1 1 1 NullActivation
node 42 1 1 1 NullActivation
node 43 1 1 1 NullActivation
node 44 1 1 1 NullActivation
node 45 1 1 1 NullActivation
node 46 1 1 1 NullActivation
node 47 1 1 1 NullActivation
node 48 1 1 1 NullActivation
node 49 1 1 1 NullActivation
node 50 1 1 1 NullActivation
node 51 1 1 1 NullActivation
node 52 1 1 1 NullActivation
node 53 1 1 1 NullActivation
node 54 1 1 1 NullActivation
node 55 1 1 1 NullActivation
node 56 1 0 2 SigmoidSteepenedActivation
node 61 1 0 0 SigmoidSteepenedActivation
gene 1 1 56 -1.9620690536918095 false 1 -1.9620690536918095 true
gene 14 51 56 -7.859537371978654 false 118 -7.859537371978654 true
gene 3 31 56 0.8378208246491322 false 285 0.8378208246491322 true
gene 7 38 56 1.4015067388878757 false 361 1.4015067388878757 true
gene 2 8 56 6.6239356793612245 false 427 6.6239356793612245 true
gene 3 55 56 5.460247145608065 false 750 5.460247145608065 true
gene 11 50 56 1.493283348684718 false 876 1.493283348684718 true
gene 2 13 56 11.047397032691752 false 1010 11.047397032691752 true
gene 4 13 61 -2.260569518281864 false 1011 -2.260569518281864 true
gene 7 20 61 -6.689804294135087 false 1122 -6.689804294135087 true
gene 4 19 56 2.844705344722418 false 1254 0 true
gene 4 19 61 -5.940424805990709 false 1302 -5.940424805990709 true
genomeend 188
/* Organism #63 Fitness: 17.000 Error: 0.000 */
genomestart 63
trait 1 0.1 0.00010602765290223848 0 0 8.90629107805878e-05 0 0 0
trait 2 0.2 0 0 0 0 0 0 0
trait 3 0.28593749999999996 0.029035424725928134 0.0013577600776908004 0 0 0 0 0
trait 4 0.4 0 0 0 0 0 0 0
trait 5 0.5 0.020619334122628234 0 0.03301529685925656 0.028300514782717053 0 0 0.09907949208552556
trait 6 0.6 0.07015898867269271 0 0.1292195336359268 0 0 0 0
trait 7 0.7 0 0 0 0 0 0 0
trait 8 0.8 0 0 0 0 0.022780870729596094 0.007298694735315403 0
trait 9 0.9 0 0 0 0 0 0 0
trait 10 1 0 0 0 0 0 0 0
trait 11 1.1 0 0 0 0 0 0 0
trait 12 1.2 0 0 0 0 0 0 0
trait 13 1.3 0 0.036532582255071645 0 0.021663172224854792 0.028172249219262823 0 0
trait 14 1.4 0 0 0 0 0 0 0
trait 15 1.5 0 0 0 0 0 0 0
node 1 1 1 3 NullActivation
node 2 1 1 1 NullActivation
node 3 1 1 1 NullActivation
node 4 1 1 1 NullActivation
node 5 1 1 1 NullActivation
node 6 1 1 1 NullActivation
node 7 1 1 1 NullActivation
node 8 1 1 1 NullActivation
node 9 1 1 1 NullActivation
node 10 1 1 1 NullActivation
node 11 1 1 1 NullActivation
node 12 1 1 1 NullActivation
node 13 1 1 1 NullActivation
node 14 1 1 1 NullActivation
node 15 1 1 1 NullActivation
node 16 1 1 1 NullActivation
node 17 1 1 1 NullActivation
node 18 1 1 1 NullActivation
node 19 1 1 1 NullActivation
node 20 1 1 1 NullActivation
node 21 1 1 1 NullActivation
node 22 1 1 1 NullActivation
node 23 1 1 1 NullActivation
node 24 1 1 1 NullActivation
node 25 1 1 1 NullActivation
node 26 1 1 1 NullActivation
node 27 1 1 1 NullActivation
node 28 1 1 1 NullActivation
node 29 1 1 1 NullActivation
node 30 1 1 1 NullActivation
node 31 1 1 1 NullActivation
node 32 1 1 1 NullActivation
node 33 1 1 1 NullActivation
node 34 1 1 1 NullActivation
node 35 1 1 1 NullActivation
node 36 1 1 1 NullActivation
node 37 1 1 1 NullActivation
node 38 1 1 1 NullActivation
node 39 1 1 1 NullActivation
node 40 1 1 1 NullActivation
node 41 1 1 1 NullActivation
node 42 1 1 1 NullActivation
node 43 1 1 1 NullActivation
node 44 1 1 1 NullActivation
node 45 1 1 1 NullActivation
node 46 1 1 1 NullActivation
node 47 1 1 1 NullActivation
node 48 1 1 1 NullActivation
node 49 1 1 1 NullActivation
node 50 1 1 1 NullActivation
node 51 1 1 1 NullActivation
node 52 1 1 1 NullActivation
node 53 1 1 1 NullActivation
node 54 1 1 1 NullActivation
node 55 1 1 1 NullActivation
node 56 1 0 2 SigmoidSteepenedActivation
gene 1 1 56 0.8452483206465917 false 1 0.8452483206465917 true
gene 14 51 56 -8.145546619670036 false 118 -8.145546619670036 true
gene 3 31 56 0.23668573572913532 false 285 0.23668573572913532 true
gene 7 38 56 1.4523688602038676 false 361 1.4523688602038676 true
gene 2 8 56 7.724109078770132 false 427 7.724109078770132 true
gene 3 55 56 7.76868265291507 false 750 7.76868265291507 true
gene 12 18 56 7.686395596522953 false 814 7.686395596522953 true
gene 11 50 56 1.7381043821270552 false 876 1.7381043821270552 true
gene 2 10 56 5.332310866849696 false 988 5.332310866849696 true
gene 11 37 56 0.5414316672381967 false 1088 0.5414316672381967 true
gene 14 54 56 9.640191614976612 false 1136 9.640191614976612 true
gene 8 15 56 6.11920118996335 false 1284 0 true
gene 8 17 56 9.34224500640866 false 1325 0 true
genomeend 63
/* Organism #170 Fitness: 17.000 Error: 0.000 */
genomestart 170
trait 1 0.1 7.952073967667886e-05 0 0 6.679718308544086e-05 0 0 0
trait 2 0.2 0 0 0 0 0 0 0
trait 3 0.28828124999999993 0.02419618727160678 0.0011314667314090002 0 0 0 0 0
trait 4 0.4 0 0 0 0 0 0 0
trait 5 0.5 0.015464500591971176 0 0.024761472644442423 0.02122538608703779 0 0 0.07430961906414417
trait 6 0.6 0.052619241504519534 0 0.0969146502269451 0 0 0 0
trait 7 0.7 0 0 0 0 0 0 0
trait 8 0.8 0 0 0 0 0.017797555257496947 0.006933759998549633 0
trait 9 0.9 0 0 0 0 0 0 0
trait 10 1 0 0 0 0 0 0 0
trait 11 1.1 0 0 0 0 0 0 0
trait 12 1.2 0 0 0 0 0 0 0
trait 13 1.3 0 0.04844538081650805 0 0.028727250124263963 0.03735885222554418 0 0
trait 14 1.4 0 0 0 0 0 0 0
trait 15 1.5 0 0 0 0 0 0 0
node 1 1 1 3 NullActivation
node 2 1 1 1 NullActivation
node 3 1 1 1 NullActivation
node 4 1 1 1 NullActivation
node 5 1 1 1 NullActivation
node 6 1 1 1 NullActivation
node 7 1 1 1 NullActivation
node 8 1 1 1 NullActivation
node 9 1 1 1 NullActivation
node 10 1 1 1 NullActivation
node 11 1 1 1 NullActivation
node 12 1 1 1 NullActivation
node 13 1 1 1 NullActivation
node 14 1 1 1 NullActivation
node 15 1 1 1 NullActivation
node 16 1 1 1 NullActivation
node 17 1 1 1 NullActivation
node 18 1 1 1 NullActivation
node 19 1 1 1 NullActivation
node 20 1 1 1 NullActivation
node 21 1 1 1 NullActivation
node 22 1 1 1 NullActivation
node 23 1 1 1 NullActivation
node 24 1 1 1 NullActivation
node 25 1 1 1 NullActivation
node 26 1 1 1 NullActivation
node 27 1 1 1 NullActivation
node 28 1 1 1 NullActivation
node 29 1 1 1 NullActivation
node 30 1 1 1 NullActivation
node 31 1 1 1 NullActivation
node 32 1 1 1 NullActivation
node 33 1 1 1 NullActivation
node 34 1 1 1 NullActivation
node 35 1 1 1 NullActivation
node 36 1 1 1 NullActivation
node 37 1 1 1 NullActivation
node 38 1 1 1 NullActivation
node 39 1 1 1 NullActivation
node 40 1 1 1 NullActivation
node 41 1 1 1 NullActivation
node 42 1 1 1 NullActivation
node 43 1 1 1 NullActivation
node 44 1 1 1 NullActivation
node 45 1 1 1 NullActivation
node 46 1 1 1 NullActivation
node 47 1 1 1 NullActivation
node 48 1 1 1 NullActivation
node 49 1 1 1 NullActivation
node 50 1 1 1 NullActivation
node 51 1 1 1 NullActivation
node 52 1 1 1 NullActivation
node 53 1 1 1 NullActivation
node 54 1 1 1 NullActivation
node 55 1 1 1 NullActivation
node 56 1 0 2 SigmoidSteepenedActivation
node 106 1 0 0 SigmoidSteepenedActivation
gene 1 1 56 -1.0975199051726516 false 1 -1.0975199051726516 true
gene 14 51 56 -7.89042754533122 false 118 -7.89042754533122 true
gene 3 31 56 0.11027939318057511 false 285 0.11027939318057511 true
gene 7 38 56 1.405520557823129 false 361 1.405520557823129 true
gene 2 8 56 5.666811081222928 false 427 5.666811081222928 true
gene 3 55 56 9.964084126943145 false 750 9.964084126943145 true
gene 12 18 56 9.771657475504908 false 814 9.771657475504908 true
gene 11 50 56 2.334996621710702 false 876 2.334996621710702 true
gene 2 10 56 0.767011964229981 false 988 0.767011964229981 true
gene 11 47 56 0.7171701698044101 false 1112 0.7171701698044101 true
gene 14 51 106 1 false 1240 0 true
gene 14 106 56 -7.89042754533122 false 1241 0 true
gene 3 36 56 5.765090655317271 false 1261 0 true
gene 11 36 106 1.6126133567820757 false 1288 1.6126133567820757 true
gene 14 39 56 3.184921842860417 false 1341 0 true
gene 2 39 106 6.995316718402136 false 1359 6.995316718402136 true
genomeend 170
/* Organism #189 Fitness: 16.000 Error: 0.000 */
genomestart 189
trait 1 0.1 0.00011762442743842081 0 0 9.88041666472146e-05 0 0 0
trait 2 0.2 0 0 0 0 0 0 0
trait 3 0.28850097656249996 0.023742508760264153 0.0011102517301950815 0 0 0 0 0
trait 4 0.4068222962462888 0 0 0 0 0.006368705495120714 0.0057001456536808865 0
trait 5 0.48563118013516077 0.014175792209306912 0.015526450155434305 0.022698016590738886 0.045424860971910314 0 0.015060658617533229 0.06811715080879882
trait 6 0.6 0.04531101351778071 0 0.0834542821398694 0 0 0 0
trait 7 0.7 0 0 0 0 0 0 0
trait 8 0.8 0.002762357351559456 0 0 0.0027614059085122183 0.020022253952271196 0.006682867367023166 0
trait 9 0.9 0 0 0 0 0 0 0
trait 10 1 0 0 0 0 0 0 0
trait 11 1.1 0 0 0 0 0 0 0
trait 12 1.2 0 0 0 0 0 0 0
trait 13 1.3 0 0.041396975000991515 0 0.02454767070044687 0.03192344544682771 0 0
trait 14 1.4 0 0 0 0 0 0 0
trait 15 1.5 0 0 0 0 0 0 0
node 1 1 1 3 NullActivation
node 2 1 1 1 NullActivation
node 3 1 1 1 NullActivation
node 4 1 1 1 NullActivation
node 5 1 1 1 NullActivation
node 6 1 1 1 NullActivation
node 7 1 1 1 NullActivation
node 8 1 1 1 NullActivation
node 9 1 1 1 NullActivation
node 10 1 1 1 NullActivation
node 11 1 1 1 NullActivation
node 12 1 1 1 NullActivation
node 13 1 1 1 NullActivation
node 14 1 1 1 NullActivation
node 15 1 1 1 NullActivation
node 16 1 1 1 NullActivation
node 17 1 1 1 NullActivation
node 18 1 1 1 NullActivation
node 19 1 1 1 NullActivation
node 20 1 1 1 NullActivation
node 21 1 1 1 NullActivation
node 22 1 1 1 NullActivation
node 23 1 1 1 NullActivation
node 24 1 1 1 NullActivation
node 25 1 1 1 NullActivation
node 26 1 1 1 NullActivation
node 27 1 1 1 NullActivation
node 28 1 1 1 NullActivation
node 29 1 1 1 NullActivation
node 30 1 1 1 NullActivation
node 31 1 1 1 NullActivation
node 32 1 1 1 NullActivation
node 33 1 1 1 NullActivation
node 34 1 1 1 NullActivation
node 35 1 1 1 NullActivation
node 36 1 1 1 NullActivation
node 37 1 1 1 NullActivation
node 38 1 1 1 NullActivation
node 39 1 1 1 NullActivation
node 40 1 1 1 NullActivation
node 41 1 1 1 NullActivation
node 42 1 1 1 NullActivation
node 43 1 1 1 NullActivation
node 44 1 1 1 NullActivation
node 45 1 1 1 NullActivation
node 46 1 1 1 NullActivation
node 47 1 1 1 NullActivation
node 48 1 1 1 NullActivation
node 49 1 1 1 NullActivation
node 50 1 1 1 NullActivation
node 51 1 1 1 NullActivation
node 52 1 1 1 NullActivation
node 53 1 1 1 NullActivation
node 54 1 1 1 NullActivation
node 55 1 1 1 NullActivation
node 56 1 0 2 SigmoidSteepenedActivation
gene 1 1 56 -0.06830673780002583 false 1 -0.06830673780002583 true
gene 14 51 56 -8.209109201395908 false 118 -8.209109201395908 true
gene 3 31 56 -0.38009420282113154 false 285 -0.38009420282113154 true
gene 7 38 56 1.4523688602038676 false 361 1.4523688602038676 true
gene 2 8 56 6.69546007999653 false 427 6.69546007999653 true
gene 3 55 56 7.523603877658097 false 750 6.6750579336722 true
gene 11 50 56 2.2964029063457208 false 876 2.2964029063457208 true
gene 2 10 56 5.210829881715615 false 988 5.210829881715615 true
gene 10 29 56 -6.364508008990687 false 1095 0 true
gene 7 18 56 -1.2628867931343373 false 1139 0 true
genomeend 189
/* Organism #20 Fitness: 16.000 Error: 0.000 */
genomestart 20
trait 1 0.1 8.946083213626372e-05 0 0 7.514683097112096e-05 0 0 0
trait 2 0.199609375 0 0 0 0 0 0 0.0008658695773520844
trait 3 0.28732910156249997 0.02616212748742483 0.0012233984033359815 0 0 0 0 0
trait 4 0.4 0 0 0 0 0 0 0
trait 5 0.5 0.014175792209306912 0 0.02562189278237567 0.019456603913117973 0 0 0.06811715080879882
trait 6 0.6 0.05992746949125836 0 0.11037501831402083 0 0 0 0
trait 7 0.7 0 0 0 0 0 0 0
trait 8 0.8 0.0011049429406237825 0 0 0.0011045623634048873 0.020204676321108263 0.006888143156453912 0
trait 9 0.9 0 0 0 0 0 0 0
trait 10 1 0 0 0 0 0 0 0
trait 11 1.1 0 0 0 0 0 0 0
trait 12 1.2 0 0 0 0 0 0 0
trait 13 1.3 0 0.03985823852013931 0 0.023635227305106518 0.030736842558516365 0 0
trait 14 1.4 0 0 0 0 0 0 0
trait 15 1.5 0 0 1.0179288416157507e-05 0 0 0 0
node 1 1 1 3 NullActivation
node 2 1 1 1 NullActivation
node 3 1 1 1 NullActivation
node 4 1 1 1 NullActivation
node 5 1 1 1 NullActivation
node 6 1 1 1 NullActivation
node 7 1 1 1 NullActivation
node 8 1 1 1 NullActivation
node 9 1 1 1 NullActivation
node 10 1 1 1 NullActivation
node 11 1 1 1 NullActivation
node 12 1 1 1 NullActivation
node 13 1 1 1 NullActivation
node 14 1 1 1 NullActivation
node 15 1 1 1 NullActivation
node 16 1 1 1 NullActivation
node 17 1 1 1 NullActivation
node 18 1 1 1 NullActivation
node 19 1 1 1 NullActivation
node 20 1 1 1 NullActivation
node 21 1 1 1 NullActivation
node 22 1 1 1 NullActivation
node 23 1 1 1 NullActivation
node 24 1 1 1 NullActivation
node 25 1 1 1 NullActivation
node 26 1 1 1 NullActivation
node 27 1 1 1 NullActivation
node 28 1 1 1 NullActivation
node 29 1 1 1 NullActivation
node 30 1 1 1 NullActivation
node 31 1 1 1 NullActivation
node 32 1 1 1 NullActivation
node 33 1 1 1 NullActivation
node 34 1 1 1 NullActivation
node 35 1 1 1 NullActivation
node 36 1 1 1 NullActivation
node 37 1 1 1 NullActivation
node 38 1 1 1 NullActivation
node 39 1 1 1 NullActivation
node 40 1 1 1 NullActivation
node 41 1 1 1 NullActivation
node 42 1 1 1 NullActivation
node 43 1 1 1 NullActivation
node 44 1 1 1 NullActivation
node 45 1 1 1 NullActivation
node 46 1 1 1 NullActivation
node 47 1 1 1 NullActivation
node 48 1 1 1 NullActivation
node 49 1 1 1 NullActivation
node 50 1 1 1 NullActivation
node 51 1 1 1 NullActivation
node 52 1 1 1 NullActivation
node 53 1 1 1 NullActivation
node 54 1 1 1 NullActivation
node 55 1 1 1 NullActivation
node 56 1 0 2 SigmoidSteepenedActivation
gene 1 1 56 -1.7934917619041015 false 1 -1.7934917619041015 true
gene 14 51 56 -7.269072659972759 false 118 -7.269072659972759 true
gene 3 31 56 -1.5766335006983128 false 285 -1.5766335006983128 true
gene 7 38 56 2.3279348120312386 false 361 2.3279348120312386 true
gene 2 8 56 7.977631200898861 false 427 7.977631200898861 true
gene 3 55 56 10.336397239485438 false 750 10.336397239485438 true
gene 12 18 56 7.407999617332781 false 814 7.407999617332781 true
gene 11 50 56 0.36646329932854926 false 876 0.36646329932854926 true
gene 2 10 56 4.660198445222691 false 988 4.660198445222691 true
gene 11 37 56 0.5262210326622472 false 1088 0.5262210326622472 true
genomeend 20
/* Organism #231 Fitness: 16.000 Error: 0.000 */
genomestart 231
trait 1 0.1 0.00010602765290223848 0 0 8.90629107805878e-05 0 0 0
trait 2 0.2 0 0 0 0 0 0 0
trait 3 0.28593749999999996 0.029035424725928134 0.0013577600776908004 0 0 0 0 0
trait 4 0.4 0 0 0 0 0 0 0
trait 5 0.5 0.020619334122628234 0 0.03301529685925656 0.028300514782717053 0 0 0.09907949208552556
trait 6 0.6 0.07015898867269271 0 0.1292195336359268 0 0 0 0
trait 7 0.7 0 0 0 0 0 0 0
trait 8 0.8 0 0 0 0 0.022780870729596094 0.007298694735315403 0
trait 9 0.9 0 0 0 0 0 0 0
trait 10 1 0 0 0 0 0 0 0
trait 11 1.1 0 0 0 0 0 0 0
trait 12 1.2 0 0 0 0 0 0 0
trait 13 1.3 0 0.036532582255071645 0 0.021663172224854792 0.028172249219262823 0 0
trait 14 1.4 0 0 0 0 0 0 0
trait 15 1.5 0 0 0 0 0 0 0
node 1 1 1 3 NullActivation
node 2 1 1 1 NullActivation
node 3 1 1 1 NullActivation
node 4 1 1 1 NullActivation
node 5 1 1 1 NullActivation
node 6 1 1 1 NullActivation
node 7 1 1 1 NullActivation
node 8 1 1 1 NullActivation
node 9 1 1 1 NullActivation
node 10 1 1 1 NullActivation
node 11 1 1 1 NullActivation
node 12 1 1 1 NullActivation
node 13 1 1 1 NullActivation
node 14 1 1 1 NullActivation
node 15 1 1 1 NullActivation
node 16 1 1 1 NullActivation
node 17 1 1 1 NullActivation
node 18 1 1 1 NullActivation
node 19 1 1 1 NullActivation
node 20 1 1 1 NullActivation
node 21 1 1 1 NullActivation
node 22 1 1 1 NullActivation
node 23 1 1 1 NullActivation
node 24 1 1 1 NullActivation
node 25 1 1 1 NullActivation
node 26 1 1 1 NullActivation
node 27 1 1 1 NullActivation
node 28 1 1 1 NullActivation
node 29 1 1 1 NullActivation
node 30 1 1 1 NullActivation
node 31 1 1 1 NullActivation
node 32 1 1 1 NullActivation
node 33 1 1 1 NullActivation
node 34 1 1 1 NullActivation
node 35 1 1 1 NullActivation
node 36 1 1 1 NullActivation
node 37 1 1 1 NullActivation
node 38 1 1 1 NullActivation
node 39 1 1 1 NullActivation
node 40 1 1 1 NullActivation
node 41 1 1 1 NullActivation
node 42 1 1 1 NullActivation
node 43 1 1 1 NullActivation
node 44 1 1 1 NullActivation
node 45 1 1 1 NullActivation
node 46 1 1 1 NullActivation
node 47 1 1 1 NullActivation
node 48 1 1 1 NullActivation
node 49 1 1 1 NullActivation
node 50 1 1 1 NullActivation
node 51 1 1 1 NullActivation
node 52 1 1 1 NullActivation
node 53 1 1 1 NullActivation
node 54 1 1 1 NullActivation
node 55 1 1 1 NullActivation
node 56 1 0 2 SigmoidSteepenedActivation
gene 1 1 56 0.8452483206465917 false 1 0.8452483206465917 true
gene 14 51 56 -8.145546619670036 false 118 -8.145546619670036 true
gene 3 31 56 0.23668573572913532 false 285 0.23668573572913532 true
gene 7 38 56 1.4523688602038676 false 361 1.4523688602038676 true
gene 2 8 56 7.724109078770132 false 427 7.724109078770132 true
gene 3 55 56 7.76868265291507 false 750 7.76868265291507 true
gene 12 18 56 7.9161550222116635 false 814 7.9161550222116635 true
gene 11 50 56 2.2964029063457208 false 876 2.2964029063457208 true
gene 2 10 56 5.210829881715615 false 988 5.210829881715615 true
gene 11 37 56 0.3896718688628436 false 1088 0.3896718688628436 true
gene 1 11 56 -0.6172863314899418 false 1263 -0.6172863314899418 true
genomeend 231
/* Organism #211 Fitness: 16.000 Error: 0.000 */
genomestart 211
trait 1 0.09921875000000001 0.0001242511557448107 0 0.002841785499921401 0.00010437059857100134 0 0 0
trait 2 0.193359375 0.00867335895904968 0 0.02038471050963131 0 0 0 0.0008658695773520844
trait 3 0.28806152343749997 0.024649865782949407 0.001152681732622919 0 0 0 0 0
trait 4 0.4068222962462888 0 0 0 0 0.006368705495120714 0.0057001456536808865 0
trait 5 0.48563118013516077 0.014175792209306912 0.015526450155434305 0.022698016590738886 0.045424860971910314 0 0.015060658617533229 0.06811715080879882
trait 6 0.6 0.050426773108497885 0 0.09287653980082239 0 0 0 0
trait 7 0.7 0 0 0 0 0 0 0
trait 8 0.8 0.002762357351559456 0 0 0.0027614059085122183 0.02076752657867888 0.006694271577547097 0
trait 9 0.9 0 0 0 0 0 0 0
trait 10 1 0 0 0 0 0 0 0
trait 11 1.1 0.0030519305983843824 0.020127254212826597 0.011174851236218754 0.01968337069848424 0 0 0.0028682482984960563
trait 12 1.2 0 0 0 0 0 0 0
trait 13 1.3 0 0.036234762291035734 0 0.02148657027736956 0.02794258414410579 0 0
trait 14 1.4 0 0 0 0 0 0 0
trait 15 1.5257740769064303 0.008532158620822527 0.003392204839214332 0.0009105098666295266 0 0 0 0
node 1 1 1 3 NullActivation
node 2 1 1 1 NullActivation
node 3 1 1 1 NullActivation
node 4 1 1 1 NullActivation
node 5 1 1 1 NullActivation
node 6 1 1 1 NullActivation
node 7 1 1 1 NullActivation
node 8 1 1 1 NullActivation
node 9 1 1 1 NullActivation
node 10 1 1 1 NullActivation
node 11 1 1 1 NullActivation
node 12 1 1 1 NullActivation
node 13 1 1 1 NullActivation
node 14 1 1 1 NullActivation
node 15 1 1 1 NullActivation
node 16 1 1 1 NullActivation
node 17 1 1 1 NullActivation
node 18 1 1 1 NullActivation
node 19 1 1 1 NullActivation
node 20 1 1 1 NullActivation
node 21 1 1 1 NullActivation
node 22 1 1 1 NullActivation
node 23 1 1 1 NullActivation
node 24 1 1 1 NullActivation
node 25 1 1 1 NullActivation
node 26 1 1 1 NullActivation
node 27 1 1 1 NullActivation
node 28 1 1 1 NullActivation
node 29 1 1 1 NullActivation
node 30 1 1 1 NullActivation
node 31 1 1 1 NullActivation
node 32 1 1 1 NullActivation
node 33 1 1 1 NullActivation
node 34 1 1 1 NullActivation
node 35 1 1 1 NullActivation
node 36 1 1 1 NullActivation
node 37 1 1 1 NullActivation
node 38 1 1 1 NullActivation
node 39 1 1 1 NullActivation
node 40 1 1 1 NullActivation
node 41 1 1 1 NullActivation
node 42 1 1 1 NullActivation
node 43 1 1 1 NullActivation
node 44 1 1 1 NullActivation
node 45 1 1 1 NullActivation
node 46 1 1 1 NullActivation
node 47 1 1 1 NullActivation
node 48 1 1 1 NullActivation
node 49 1 1 1 NullActivation
node 50 1 1 1 NullActivation
node 51 1 1 1 NullActivation
node 52 1 1 1 NullActivation
node 53 1 1 1 NullActivation
node 54 1 1 1 NullActivation
node 55 1 1 1 NullActivation
node 56 1 0 2 SigmoidSteepenedActivation
gene 1 1 56 -0.6554192049596735 false 1 -0.6554192049596735 true
gene 14 51 56 -7.3607698806960284 false 118 -7.3607698806960284 true
gene 3 31 56 0.15315993758660246 false 285 0.15315993758660246 true
gene 7 38 56 2.8676667423120983 false 361 2.8676667423120983 true
gene 2 8 56 9.843778566221754 false 427 9.843778566221754 true
gene 3 55 56 8.197483355540403 false 750 8.197483355540403 true
gene 12 18 56 6.997117319456821 false 814 6.997117319456821 true
gene 11 50 56 1.1798058579083897 false 876 1.1798058579083897 true
gene 2 10 56 7.047956142111533 false 988 7.047956142111533 true
gene 11 37 56 0.6931914656135497 false 1088 0.6931914656135497 true
gene 14 45 56 3.6830377172984416 false 1137 3.6830377172984416 true
gene 9 13 56 -0.9272736423116977 false 1282 0 true
genomeend 211
/* Organism #195 Fitness: 16.000 Error: 0.000 */
genomestart 195
trait 1 0.1 0.00010602765290223848 0 0 8.90629107805878e-05 0 0 0
trait 2 0.2 0 0 0 0 0 0 0
trait 3 0.28593749999999996 0.029035424725928134 0.0013577600776908004 0 0 0 0 0
trait 4 0.4 0 0 0 0 0 0 0
trait 5 0.5 0.020619334122628234 0 0.03301529685925656 0.028300514782717053 0 0 0.09907949208552556
trait 6 0.6 0.07015898867269271 0 0.1292195336359268 0 0 0 0
trait 7 0.7 0 0 0 0 0 0 0
trait 8 0.8 0 0 0 0 0.022780870729596094 0.007298694735315403 0
trait 9 0.9 0 0 0 0 0 0 0
trait 10 1 0 0 0 0 0 0 0
trait 11 1.1 0 0 0 0 0 0 0
trait 12 1.2 0 0 0 0 0 0 0
trait 13 1.3 0 0.036532582255071645 0 0.021663172224854792 0.028172249219262823 0 0
trait 14 1.4 0 0 0 0 0 0 0
trait 15 1.5 0 0 0 0 0 0 0
node 1 1 1 3 NullActivation
node 2 1 1 1 NullActivation
node 3 1 1 1 NullActivation
node 4 1 1 1 NullActivation
node 5 1 1 1 NullActivation
node 6 1 1 1 NullActivation
node 7 1 1 1 NullActivation
node 8 1 1 1 NullActivation
node 9 1 1 1 NullActivation
node 10 1 1 1 NullActivation
node 11 1 1 1 NullActivation
node 12 1 1 1 NullActivation
node 13 1 1 1 NullActivation
node 14 1 1 1 NullActivation
node 15 1 1 1 NullActivation
node 16 1 1 1 NullActivation
node 17 1 1 1 NullActivation
node 18 1 1 1 NullActivation
node 19 1 1 1 NullActivation
node 20 1 1 1 NullActivation
node 21 1 1 1 NullActivation
node 22 1 1 1 NullActivation
node 23 1 1 1 NullActivation
node 24 1 1 1 NullActivation
node 25 1 1 1 NullActivation
node 26 1 1 1 NullActivation
node 27 1 1 1 NullActivation
node 28 1 1 1 NullActivation
node 29 1 1 1 NullActivation
node 30 1 1 1 NullActivation
node 31 1 1 1 NullActivation
node 32 1 1 1 NullActivation
node 33 1 1 1 NullActivation
node 34 1 1 1 NullActivation
node 35 1 1 1 NullActivation
node 36 1 1 1 NullActivation
node 37 1 1 1 NullActivation
node 38 1 1 1 NullActivation
node 39 1 1 1 NullActivation
node 40 1 1 1 NullActivation
node 41 1 1 1 NullActivation
node 42 1 1 1 NullActivation
node 43 1 1 1 NullActivation
node 44 1 1 1 NullActivation
node 45 1 1 1 NullActivation
node 46 1 1 1 NullActivation
node 47 1 1 1 NullActivation
node 48 1 1 1 NullActivation
node 49 1 1 1 NullActivation
node 50 1 1 1 NullActivation
node 51 1 1 1 NullActivation
node 52 1 1 1 NullActivation
node 53 1 1 1 NullActivation
node 54 1 1 1 NullActivation
node 55 1 1 1 NullActivation
node 56 1 0 2 SigmoidSteepenedActivation
gene 1 1 56 0.8452483206465917 false 1 0.8452483206465917 true
gene 14 51 56 -8.145546619670036 false 118 -8.145546619670036 true
gene 3 31 56 0.23668573572913532 false 285 0.23668573572913532 true
gene 7 38 56 1.4523688602038676 false 361 1.4523688602038676 true
gene 2 8 56 7.724109078770132 false 427 7.724109078770132 true
gene 3 55 56 7.76868265291507 false 750 7.76868265291507 true
gene 12 18 56 7.9161550222116635 false 814 7.9161550222116635 true
gene 11 50 56 2.2964029063457208 false 876 2.2964029063457208 true
gene 2 10 56 5.210829881715615 false 988 5.210829881715615 true
gene 11 37 56 0.3896718688628436 false 1088 0.3896718688628436 true
gene 15 2 56 -8.317222034790849 false 1296 -8.317222034790849 true
gene 15 44 56 7.058485069475036 false 1350 0 true
genomeend 195
/* Organism #180 Fitness: 16.000 Error: 0.000 */
genomestart 180
trait 1 0.1 0.00010602765290223848 0 0 8.90629107805878e-05 0 0 0
trait 2 0.2 0 0 0 0 0 0 0
trait 3 0.28593749999999996 0.029035424725928134 0.0013577600776908004 0 0 0 0 0
trait 4 0.4 0 0 0 0 0 0 0
trait 5 0.5 0.020619334122628234 0 0.03301529685925656 0.028300514782717053 0 0 0.09907949208552556
trait 6 0.6 0.07015898867269271 0 0.1292195336359268 0 0 0 0
trait 7 0.7 0 0 0 0 0 0 0
trait 8 0.8 0 0 0 0 0.022780870729596094 0.007298694735315403 0
trait 9 0.9 0 0 0 0 0 0 0
trait 10 1 0 0 0 0 0 0 0
trait 11 1.1 0 0 0 0 0 0 0
trait 12 1.2 0 0 0 0 0 0 0
trait 13 1.3 0 0.036532582255071645 0 0.021663172224854792 0.028172249219262823 0 0
trait 14 1.4 0 0 0 0 0 0 0
trait 15 1.5 0 0 0 0 0 0 0
node 1 1 1 3 NullActivation
node 2 1 1 1 NullActivation
node 3 1 1 1 NullActivation
node 4 1 1 1 NullActivation
node 5 1 1 1 NullActivation
node 6 1 1 1 NullActivation
node 7 1 1 1 NullActivation
node 8 1 1 1 NullActivation
node 9 1 1 1 NullActivation
node 10 1 1 1 NullActivation
node 11 1 1 1 NullActivation
node 12 1 1 1 NullActivation
node 13 1 1 1 NullActivation
node 14 1 1 1 NullActivation
node 15 1 1 1 NullActivation
node 16 1 1 1 NullActivation
node 17 1 1 1 NullActivation
node 18 1 1 1 NullActivation
node 19 1 1 1 NullActivation
node 20 1 1 1 NullActivation
node 21 1 1 1 NullActivation
node 22 1 1 1 NullActivation
node 23 1 1 1 NullActivation
node 24 1 1 1 NullActivation
node 25 1 1 1 NullActivation
node 26 1 1 1 NullActivation
node 27 1 1 1 NullActivation
node 28 1 1 1 NullActivation
node 29 1 1 1 NullActivation
node 30 1 1 1 NullActivation
node 31 1 1 1 NullActivation
node 32 1 1 1 NullActivation
node 33 1 1 1 NullActivation
node 34 1 1 1 NullActivation
node 35 1 1 1 NullActivation
node 36 1 1 1 NullActivation
node 37 1 1 1 NullActivation
node 38 1 1 1 NullActivation
node 39 1 1 1 NullActivation
node 40 1 1 1 NullActivation
node 41 1 1 1 NullActivation
node 42 1 1 1 NullActivation
node 43 1 1 1 NullActivation
node 44 1 1 1 NullActivation
node 45 1 1 1 NullActivation
node 46 1 1 1 NullActivation
node 47 1 1 1 NullActivation
node 48 1 1 1 NullActivation
node 49 1 1 1 NullActivation
node 50 1 1 1 NullActivation
node 51 1 1 1 NullActivation
node 52 1 1 1 NullActivation
node 53 1 1 1 NullActivation
node 54 1 1 1 NullActivation
node 55 1 1 1 NullActivation
node 56 1 0 2 SigmoidSteepenedActivation
gene 1 1 56 0.8452483206465917 false 1 0.8452483206465917 true
gene 14 51 56 -8.145546619670036 false 118 -8.145546619670036 true
gene 3 31 56 0.23668573572913532 false 285 0.23668573572913532 true
gene 7 38 56 1.4523688602038676 false 361 1.4523688602038676 true
gene 2 8 56 7.724109078770132 false 427 7.724109078770132 true
gene 3 55 56 7.76868265291507 false 750 7.76868265291507 true
gene 12 18 56 7.9161550222116635 false 814 7.9161550222116635 true
gene 11 50 56 2.2964029063457208 false 876 2.2964029063457208 true
gene 2 10 56 5.210829881715615 false 988 5.210829881715615 true
gene 11 37 56 0.3896718688628436 false 1088 0.3896718688628436 true
gene 1 11 56 -0.6172863314899418 false 1263 -0.6172863314899418 true
gene 14 52 56 2.837988738428354 false 1358 0 true
genomeend 180
/* Organism #105 Fitness: 16.000 Error: 0.000 */
genomestart 105
trait 1 0.1 0.00010602765290223848 0 0 8.90629107805878e-05 0 0 0
trait 2 0.2 0 0 0 0 0 0 0
trait 3 0.28593749999999996 0.029035424725928134 0.0013577600776908004 0 0 0 0 0
trait 4 0.4 0 0 0 0 0 0 0
trait 5 0.5 0.020619334122628234 0 0.03301529685925656 0.028300514782717053 0 0 0.09907949208552556
trait 6 0.6 0.07015898867269271 0 0.1292195336359268 0 0 0 0
trait 7 0.7 0 0 0 0 0 0 0
trait 8 0.8 0 0 0 0 0.022780870729596094 0.007298694735315403 0
trait 9 0.9 0 0 0 0 0 0 0
trait 10 1 0 0 0 0 0 0 0
trait 11 1.1 0 0 0 0 0 0 0
trait 12 1.2 0 0 0 0 0 0 0
trait 13 1.3 0 0.036532582255071645 0 0.021663172224854792 0.028172249219262823 0 0
trait 14 1.4 0 0 0 0 0 0 0
trait 15 1.5 0 0 0 0 0 0 0
node 1 1 1 3 NullActivation
node 2 1 1 1 NullActivation
node 3 1 1 1 NullActivation
node 4 1 1 1 NullActivation
node 5 1 1 1 NullActivation
node 6 1 1 1 NullActivation
node 7 1 1 1 NullActivation
node 8 1 1 1 NullActivation
node 9 1 1 1 NullActivation
node 10 1 1 1 NullActivation
node 11 1 1 1 NullActivation
node 12 1 1 1 NullActivation
node 13 1 1 1 NullActivation
node 14 1 1 1 NullActivation
node 15 1 1 1 NullActivation
node 16 1 1 1 NullActivation
node 17 1 1 1 NullActivation
node 18 1 1 1 NullActivation
node 19 1 1 1 NullActivation
node 20 1 1 1 NullActivation
node 21 1 1 1 NullActivation
node 22 1 1 1 NullActivation
node 23 1 1 1 NullActivation
node 24 1 1 1 NullActivation
node 25 1 1 1 NullActivation
node 26 1 1 1 NullActivation
node 27 1 1 1 NullActivation
node 28 1 1 1 NullActivation
node 29 1 1 1 NullActivation
node 30 1 1 1 NullActivation
node 31 1 1 1 NullActivation
node 32 1 1 1 NullActivation
node 33 1 1 1 NullActivation
node 34 1 1 1 NullActivation
node 35 1 1 1 NullActivation
node 36 1 1 1 NullActivation
node 37 1 1 1 NullActivation
node 38 1 1 1 NullActivation
node 39 1 1 1 NullActivation
node 40 1 1 1 NullActivation
node 41 1 1 1 NullActivation
node 42 1 1 1 NullActivation
node 43 1 1 1 NullActivation
node 44 1 1 1 NullActivation
node 45 1 1 1 NullActivation
node 46 1 1 1 NullActivation
node 47 1 1 1 NullActivation
node 48 1 1 1 NullActivation
node 49 1 1 1 NullActivation
node 50 1 1 1 NullActivation
node 51 1 1 1 NullActivation
node 52 1 1 1 NullActivation
node 53 1 1 1 NullActivation
node 54 1 1 1 NullActivation
node 55 1 1 1 NullActivation
node 56 1 0 2 SigmoidSteepenedActivation
gene 1 1 56 0.8452483206465917 false 1 0.8452483206465917 true
gene 14 51 56 -8.145546619670036 false 118 -8.145546619670036 true
gene 3 31 56 0.23668573572913532 false 285 0.23668573572913532 true
gene 7 38 56 1.4523688602038676 false 361 1.4523688602038676 true
gene 2 8 56 7.724109078770132 false 427 7.724109078770132 true
gene 3 55 56 7.76868265291507 false 750 7.76868265291507 true
gene 12 18 56 7.456636170834242 false 814 7.456636170834242 true
gene 11 50 56 1.1798058579083897 false 876 1.1798058579083897 true
gene 2 10 56 5.210829881715615 false 988 5.210829881715615 true
gene 11 37 56 0.6931914656135497 false 1088 0.6931914656135497 true
gene 14 54 56 9.640191614976612 false 1136 9.640191614976612 true
gene 8 15 56 6.11920118996335 false 1284 0 true
genomeend 105
/* Organism #221 Fitness: 16.000 Error: 0.000 */
genomestart 221
trait 1 0.05625 6.626728306389904e-05 0.12247120332254227 0 5.566431923786737e-05 0.26045014958556595 0 0.08507249063372747
trait 2 0.199609375 0 0 0 0 0 0 0.0008658695773520844
trait 3 0.29219970703125 0.01610558715266326 0.0007531325430941158 0 0 0 0 0
trait 4 0.4068222962462888 0 0 0 0 0.006368705495120714 0.0057001456536808865 0
trait 5 0.5 0.006443541913321324 0 0.013241156460154462 0.008843910869599078 0 0 0.030962341276726736
trait 6 0.6 0.024847975154912 0 0.04576525149605742 0 0 0 0
trait 7 0.7 0 0 0 0 0 0 0
trait 8 0.8 0.002209885881247565 0 0 0.0022091247268097745 0.01836263106699218 0.006135465261874511 0
trait 9 0.9 0 0 0 0 0 0 0
trait 10 1 0 0 0 0 0 0 0
trait 11 1.1 0 0 0 0 0 0 0
trait 12 1.2 0 0 0 0.09715927189194849 0.1058361231689101 0 0
trait 13 1.3 0 0.04998411729736025 0 0.02963969351960432 0.038545455113855515 0 0
trait 14 1.4 0 0 0 0 0 0 0
trait 15 1.5257740769064303 0.008532158620822527 0.003392204839214332 0.0009003305782133691 0 0 0 0
node 1 1 1 3 NullActivation
node 2 1 1 1 NullActivation
node 3 1 1 1 NullActivation
node 4 1 1 1 NullActivation
node 5 1 1 1 NullActivation
node 6 1 1 1 NullActivation
node 7 12 1 1 NullActivation
node 8 1 1 1 NullActivation
node 9 1 1 1 NullActivation
node 10 1 1 1 NullActivation
node 11 1 1 1 NullActivation
node 12 1 1 1 NullActivation
node 13 1 1 1 NullActivation
node 14 1 1 1 NullActivation
node 15 1 1 1 NullActivation
node 16 1 1 1 NullActivation
node 17 1 1 1 NullActivation
node 18 1 1 1 NullActivation
node 19 1 1 1 NullActivation
node 20 1 1 1 NullActivation
node 21 1 1 1 NullActivation
node 22 1 1 1 NullActivation
node 23 1 1 1 NullActivation
node 24 1 1 1 NullActivation
node 25 1 1 1 NullActivation
node 26 1 1 1 NullActivation
node 27 1 1 1 NullActivation
node 28 1 1 1 NullActivation
node 29 1 1 1 NullActivation
node 30 1 1 1 NullActivation
node 31 1 1 1 NullActivation
node 32 1 1 1 NullActivation
node 33 1 1 1 NullActivation
node 34 1 1 1 NullActivation
node 35 1 1 1 NullActivation
node 36 1 1 1 NullActivation
node 37 1 1 1 NullActivation
node 38 1 1 1 NullActivation
node 39 1 1 1 NullActivation
node 40 1 1 1 NullActivation
node 41 1 1 1 NullActivation
node 42 1 1 1 NullActivation
node 43 1 1 1 NullActivation
node 44 1 1 1 NullActivation
node 45 1 1 1 NullActivation
node 46 1 1 1 NullActivation
node 47 1 1 1 NullActivation
node 48 1 1 1 NullActivation
node 49 1 1 1 NullActivation
node 50 1 1 1 NullActivation
node 51 1 1 1 NullActivation
node 52 1 1 1 NullActivation
node 53 1 1 1 NullActivation
node 54 1 1 1 NullActivation
node 55 1 1 1 NullActivation
node 56 1 0 2 SigmoidSteepenedActivation
gene 1 1 56 -1.0337077331692788 false 1 -1.0337077331692788 true
gene 14 51 56 -8.99446436317476 false 118 -8.99446436317476 true
gene 3 31 56 -0.611502657219821 false 285 -0.611502657219821 true
gene 7 38 56 1.5554147009718227 false 361 1.5554147009718227 true
gene 2 8 56 8.847910519263172 false 427 8.847910519263172 true
gene 3 55 56 7.648886056122729 false 750 7.648886056122729 true
gene 12 18 56 7.9161550222116635 false 814 7.9161550222116635 true
gene 11 50 56 2.2964029063457208 false 876 2.2964029063457208 true
gene 2 10 56 5.7820378014292055 false 988 5.7820378014292055 true
gene 4 11 56 -2.9223715241397556 false 1157 -2.9223715241397556 true
gene 14 45 56 1.3868208558295745 false 1204 0 true
gene 12 53 56 4.601832241049108 false 1299 4.601832241049108 true
gene 3 27 56 -6.212512765118323 false 1345 0 true
genomeend 221
/* Organism #229 Fitness: 16.000 Error: 0.000 */
genomestart 229
trait 1 0.1 7.952073967667886e-05 0 0 6.679718308544086e-05 0 0 0
trait 2 0.2 0 0 0 0 0 0 0
trait 3 0.28828124999999993 0.02419618727160678 0.0011314667314090002 0 0 0 0 0
trait 4 0.4 0 0 0 0 0 0 0
trait 5 0.5 0.015464500591971176 0 0.024761472644442423 0.02122538608703779 0 0 0.07430961906414417
trait 6 0.6 0.052619241504519534 0 0.0969146502269451 0 0 0 0
trait 7 0.7 0 0 0 0 0 0 0
trait 8 0.8 0 0 0 0 0.017797555257496947 0.006933759998549633 0
trait 9 0.9 0 0 0 0 0 0 0
trait 10 1 0 0 0 0 0 0 0
trait 11 1.1 0 0 0 0 0 0 0
trait 12 1.2 0 0 0 0 0 0 0
trait 13 1.3 0 0.04844538081650805 0 0.028727250124263963 0.03735885222554418 0 0
trait 14 1.4 0 0 0 0 0 0 0
trait 15 1.5 0 0 0 0 0 0 0
node 1 1 1 3 NullActivation
node 2 1 1 1 NullActivation
node 3 1 1 1 NullActivation
node 4 1 1 1 NullActivation
node 5 1 1 1 NullActivation
node 6 1 1 1 NullActivation
node 7 1 1 1 NullActivation
node 8 1 1 1 NullActivation
node 9 1 1 1 NullActivation
node 10 1 1 1 NullActivation
node 11 1 1 1 NullActivation
node 12 1 1 1 NullActivation
node 13 1 1 1 NullActivation
node 14 1 1 1 NullActivation
node 15 1 1 1 NullActivation
node 16 1 1 1 NullActivation
node 17 1 1 1 NullActivation
node 18 1 1 1 NullActivation
node 19 1 1 1 NullActivation
node 20 1 1 1 NullActivation
node 21 1 1 1 NullActivation
node 22 1 1 1 NullActivation
node 23 1 1 1 NullActivation
node 24 1 1 1 NullActivation
node 25 1 1 1 NullActivation
node 26 1 1 1 NullActivation
node 27 1 1 1 NullActivation
node 28 1 1 1 NullActivation
node 29 1 1 1 NullActivation
node 30 1 1 1 NullActivation
node 31 1 1 1 NullActivation
node 32 1 1 1 NullActivation
node 33 1 1 1 NullActivation
node 34 1 1 1 NullActivation
node 35 1 1 1 NullActivation
node 36 1 1 1 NullActivation
node 37 1 1 1 NullActivation
node 38 1 1 1 NullActivation
node 39 1 1 1 NullActivation
node 40 1 1 1 NullActivation
node 41 1 1 1 NullActivation
node 42 1 1 1 NullActivation
node 43 1 1 1 NullActivation
node 44 1 1 1 NullActivation
node 45 1 1 1 NullActivation
node 46 1 1 1 NullActivation
node 47 1 1 1 NullActivation
node 48 1 1 1 NullActivation
node 49 1 1 1 NullActivation
node 50 1 1 1 NullActivation
node 51 1 1 1 NullActivation
node 52 1 1 1 NullActivation
node 53 1 1 1 NullActivation
node 54 1 1 1 NullActivation
node 55 1 1 1 NullActivation
node 56 1 0 2 SigmoidSteepenedActivation
node 106 1 0 0 SigmoidSteepenedActivation
node 109 1 0 0 SigmoidSteepenedActivation
gene 1 1 56 -1.0975199051726516 false 1 -1.0975199051726516 true
gene 14 51 56 -7.89042754533122 false 118 -7.89042754533122 false
gene 3 31 56 0.11027939318057511 false 285 0.11027939318057511 true
gene 7 38 56 1.405520557823129 false 361 1.405520557823129 true
gene 2 8 56 5.666811081222928 false 427 5.666811081222928 true
gene 3 55 56 9.964084126943145 false 750 9.964084126943145 true
gene 12 18 56 9.771657475504908 false 814 9.771657475504908 true
gene 11 50 56 2.334996621710702 false 876 2.334996621710702 true
gene 2 10 56 0.767011964229981 false 988 0.767011964229981 true
gene 11 47 56 0.7171701698044101 false 1112 0.7171701698044101 true
gene 14 51 106 1 false 1240 0 true
gene 14 106 56 -7.89042754533122 false 1241 0 true
gene 3 36 56 5.765090655317271 false 1261 0 true
gene 11 36 106 1.6126133567820757 false 1288 1.6126133567820757 true
gene 14 51 109 1 false 1310 0 true
gene 14 109 56 -7.89042754533122 false 1311 0 true
genomeend 229
/* Organism #62 Fitness: 15.000 Error: 0.000 */
genomestart 62
trait 1 0.1 0.00015904147935335772 0 0 0.0001335943661708817 0 0 0
trait 2 0.2 0 0 0 0 0 0 0
trait 3 0.28916015625 0.02238147322623627 0.0010466067265533252 0 0 0 0 0
trait 4 0.41364459249257757 0 0 0 0 0.012737410990241428 0.011400291307361773 0
trait 5 0.5 0.005154833530657058 0 0.00825382421481414 0.007075128695679263 0 0 0.02476987302138139
trait 6 0.6 0.029232911946955296 0 0.05384147234830284 0 0 0 0
trait 7 0.7 0 0 0 0 0 0 0
trait 8 0.8 0.002209885881247565 0 0 0.0022091247268097745 0.019208014941723285 0.006705675788071026 0
trait 9 0.9 0 0 0 0 0 0 0
trait 10 1 0 0 0 0 0 0 0
trait 11 1.1 0 0 0 0 0 0 0
trait 12 1.2 0 0 0 0 0 0 0
trait 13 1.3 0 0.028665171538456352 0 0.01699793744545332 0.02210526348386451 0 0
trait 14 1.4 0 0 0 0 0 0 0
trait 15 1.6546444614385822 0.05119295172493516 0.02035322903528599 0.00534090773878327 0 0 0 0
node 1 1 1 3 NullActivation
node 2 1 1 1 NullActivation
node 3 1 1 1 NullActivation
node 4 1 1 1 NullActivation
node 5 1 1 1 NullActivation
node 6 1 1 1 NullActivation
node 7 1 1 1 NullActivation
node 8 1 1 1 NullActivation
node 9 1 1 1 NullActivation
node 10 1 1 1 NullActivation
node 11 1 1 1 NullActivation
node 12 1 1 1 NullActivation
node 13 1 1 1 NullActivation
node 14 1 1 1 NullActivation
node 15 1 1 1 NullActivation
node 16 1 1 1 NullActivation
node 17 1 1 1 NullActivation
node 18 1 1 1 NullActivation
node 19 1 1 1 NullActivation
node 20 1 1 1 NullActivation
node 21 1 1 1 NullActivation
node 22 1 1 1 NullActivation
node 23 1 1 1 NullActivation
node 24 1 1 1 NullActivation
node 25 1 1 1 NullActivation
node 26 1 1 1 NullActivation
node 27 1 1 1 NullActivation
node 28 1 1 1 NullActivation
node 29 1 1 1 NullActivation
node 30 1 1 1 NullActivation
node 31 1 1 1 NullActivation
node 32 1 1 1 NullActivation
node 33 1 1 1 NullActivation
node 34 1 1 1 NullActivation
node 35 1 1 1 NullActivation
node 36 1 1 1 NullActivation
node 37 1 1 1 NullActivation
node 38 1 1 1 NullActivation
node 39 1 1 1 NullActivation
node 40 1 1 1 NullActivation
node 41 1 1 1 NullActivation
node 42 1 1 1 NullActivation
node 43 1 1 1 NullActivation
node 44 1 1 1 NullActivation
node 45 1 1 1 NullActivation
node 46 1 1 1 NullActivation
node 47 1 1 1 NullActivation
node 48 1 1 1 NullActivation
node 49 1 1 1 NullActivation
node 50 1 1 1 NullActivation
node 51 1 1 1 NullActivation
node 52 1 1 1 NullActivation
node 53 1 1 1 NullActivation
node 54 1 1 1 NullActivation
node 55 1 1 1 NullActivation
node 56 1 0 2 SigmoidSteepenedActivation
gene 1 1 56 0.8452483206465917 false 1 0.8452483206465917 true
gene 14 51 56 -6.689097575357626 false 118 -6.689097575357626 true
gene 3 31 56 0.23668573572913532 false 285 0.23668573572913532 true
gene 7 38 56 1.4523688602038676 false 361 1.4523688602038676 true
gene 2 8 56 7.724109078770132 false 427 7.724109078770132 true
gene 3 55 56 6.9848730419506975 false 750 6.9848730419506975 true
gene 2 10 56 5.961245031583809 false 988 5.961245031583809 true
gene 14 45 56 1.3868208558295745 false 1204 0 true
gene 11 39 56 -1.3533420218963232 false 1289 0 true
gene 7 14 56 1.4970485674458218 false 1339 1.4970485674458218 true
genomeend 62
/* Organism #10 Fitness: 15.000 Error: 0.000 */
genomestart 10
trait 1 0.08750000000000001 0.00010768433497883595 0.06866228373017769 0 9.045451876153447e-05 0.07441432845301885 0.04623817760551626 0.024306425895350706
trait 2 0.2 0 0 0 0 0 0 0
trait 3 0.2893798828125 0.021927794714893645 0.0010253917253394064 0 0 0 0 0
trait 4 0.4068222962462888 0 0 0 0 0.006368705495120714 0.0057001456536808865 0
trait 5 0.48563118013516077 0.010309667061314119 0.015526450155434305 0.01650764842962828 0.04011851445015086 0 0.015060658617533229 0.049539746042762775
trait 6 0.6 0.04238772232308518 0 0.07807013490503911 0 0 0 0
trait 7 0.7 0 0 0 0 0 0 0
trait 8 0.8 0.002762357351559456 0 0 0.0027614059085122183 0.021724145173769343 0.006226698946065953 0
trait 9 0.9 0 0 0 0 0 0 0
trait 10 1 0 0 0 0 0 0 0
trait 11 1.1 0 0 0 0 0 0 0
trait 12 1.2 0 0 0 0 0 0 0
trait 13 1.3 0 0.03740122381684305 0 0.022178261238353376 0.028842105688470836 0 0
trait 14 1.4 0 0 0 0 0 0 0
trait 15 1.5 0 0 0 0 0 0 0
node 1 1 1 3 NullActivation
node 2 1 1 1 NullActivation
node 3 1 1 1 NullActivation
node 4 1 1 1 NullActivation
node 5 1 1 1 NullActivation
node 6 1 1 1 NullActivation
node 7 1 1 1 NullActivation
node 8 1 1 1 NullActivation
node 9 1 1 1 NullActivation
node 10 1 1 1 NullActivation
node 11 1 1 1 NullActivation
node 12 1 1 1 NullActivation
node 13 1 1 1 NullActivation
node 14 1 1 1 NullActivation
node 15 1 1 1 NullActivation
node 16 1 1 1 NullActivation
node 17 1 1 1 NullActivation
node 18 1 1 1 NullActivation
node 19 1 1 1 NullActivation
node 20 1 1 1 NullActivation
node 21 1 1 1 NullActivation
node 22 1 1 1 NullActivation
node 23 1 1 1 NullActivation
node 24 1 1 1 NullActivation
node 25 1 1 1 NullActivation
node 26 1 1 1 NullActivation
node 27 1 1 1 NullActivation
node 28 1 1 1 NullActivation
node 29 1 1 1 NullActivation
node 30 1 1 1 NullActivation
node 31 1 1 1 NullActivation
node 32 1 1 1 NullActivation
node 33 1 1 1 NullActivation
node 34 1 1 1 NullActivation
node 35 1 1 1 NullActivation
node 36 1 1 1 NullActivation
node 37 1 1 1 NullActivation
node 38 1 1 1 NullActivation
node 39 1 1 1 NullActivation
node 40 1 1 1 NullActivation
node 41 1 1 1 NullActivation
node 42 1 1 1 NullActivation
node 43 1 1 1 NullActivation
node 44 1 1 1 NullActivation
node 45 1 1 1 NullActivation
node 46 1 1 1 NullActivation
node 47 1 1 1 NullActivation
node 48 1 1 1 NullActivation
node 49 1 1 1 NullActivation
node 50 1 1 1 NullActivation
node 51 1 1 1 NullActivation
node 52 1 1 1 NullActivation
node 53 1 1 1 NullActivation
node 54 1 1 1 NullActivation
node 55 1 1 1 NullActivation
node 56 1 0 2 SigmoidSteepenedActivation
gene 1 1 56 2.1115083082247668 false 1 2.1115083082247668 true
gene 14 51 56 -5.205749615277849 false 118 -5.205749615277849 true
gene 3 31 56 0.23668573572913532 false 285 0.23668573572913532 true
gene 7 38 56 1.4523688602038676 false 361 1.4523688602038676 true
gene 2 8 56 9.556489477022954 false 427 9.556489477022954 true
gene 3 55 56 7.76868265291507 false 750 7.76868265291507 true
gene 12 18 56 7.9161550222116635 false 814 7.9161550222116635 true
gene 11 50 56 2.2964029063457208 false 876 2.2964029063457208 true
gene 2 10 56 5.210829881715615 false 988 5.210829881715615 true
gene 11 37 56 0.3896718688628436 false 1088 0.3896718688628436 true
genomeend 10
/* Organism #245 Fitness: 15.000 Error: 0.000 */
genomestart 245
trait 1 0.03125 5.632719060431419e-05 0.19245474807828072 0 4.7314671352187263e-05 0.40927880649160364 0 0.1336853424244289
trait 2 0.2 0 0 0 0 0 0 0
trait 3 0.29468994140624993 0.010963897357446822 0.0005126958626697032 0 0 0 0 0
trait 4 0.4 0 0 0 0 0 0 0
trait 5 0.5 0.002577416765328529 0 0.00412691210740707 0.0035375643478396317 0 0 0.012384936510690695
trait 6 0.6 0.008769873584086589 0 0.01615244170449085 0 0 0 0
trait 7 0.7 0 0 0 0 0 0 0
trait 8 0.8 0.005524714703118912 0 0 0.005522811817024437 0.018909911036264767 0.006181082103970232 0
trait 9 0.9 0 0 0 0 0 0 0
trait 10 1 0 0 0 0 0 0 0
trait 11 1.1 0 0 0 0 0 0 0
trait 12 1.2 0 0 0 0 0 0 0
trait 13 1.3 0 0.052267403688302225 0 0.03099364178365774 0.040306220690059444 0 0
trait 14 1.4 0 0 0 0 0 0 0
trait 15 1.5257740769064303 0.008532158620822527 0.003392204839214332 0.0008901512897972116 0 0 0 0
node 1 1 1 3 NullActivation
node 2 1 1 1 NullActivation
node 3 1 1 1 NullActivation
node 4 1 1 1 NullActivation
node 5 1 1 1 NullActivation
node 6 1 1 1 NullActivation
node 7 12 1 1 NullActivation
node 8 1 1 1 NullActivation
node 9 1 1 1 NullActivation
node 10 1 1 1 NullActivation
node 11 1 1 1 NullActivation
node 12 1 1 1 NullActivation
node 13 1 1 1 NullActivation
node 14 1 1 1 NullActivation
node 15 1 1 1 NullActivation
node 16 1 1 1 NullActivation
node 17 1 1 1 NullActivation
node 18 1 1 1 NullActivation
node 19 1 1 1 NullActivation
node 20 1 1 1 NullActivation
node 21 1 1 1 NullActivation
node 22 1 1 1 NullActivation
node 23 1 1 1 NullActivation
node 24 1 1 1 NullActivation
node 25 1 1 1 NullActivation
node 26 1 1 1 NullActivation
node 27 1 1 1 NullActivation
node 28 1 1 1 NullActivation
node 29 1 1 1 NullActivation
node 30 1 1 1 NullActivation
node 31 1 1 1 NullActivation
node 32 1 1 1 NullActivation
node 33 1 1 1 NullActivation
node 34 1 1 1 NullActivation
node 35 1 1 1 NullActivation
node 36 1 1 1 NullActivation
node 37 1 1 1 NullActivation
node 38 1 1 1 NullActivation
node 39 1 1 1 NullActivation
node 40 1 1 1 NullActivation
node 41 1 1 1 NullActivation
node 42 1 1 1 NullActivation
node 43 1 1 1 NullActivation
node 44 1 1 1 NullActivation
node 45 1 1 1 NullActivation
node 46 1 1 1 NullActivation
node 47 1 1 1 NullActivation
node 48 1 1 1 NullActivation
node 49 1 1 1 NullActivation
node 50 1 1 1 NullActivation
node 51 1 1 1 NullActivation
node 52 1 1 1 NullActivation
node 53 1 1 1 NullActivation
node 54 1 1 1 NullActivation
node 55 1 1 1 NullActivation
node 56 1 0 2 SigmoidSteepenedActivation
gene 1 1 56 -1.3233297515390485 false 1 -1.3233297515390485 true
gene 14 51 56 -11.26824641109707 false 118 -11.26824641109707 true
gene 3 31 56 -1.8050755033896317 false 285 -1.8050755033896317 true
gene 7 38 56 3.1481793339601616 false 361 3.1481793339601616 true
gene 2 8 56 10.37919906275067 false 427 10.37919906275067 true
gene 3 55 56 8.15844966673292 false 750 8.15844966673292 true
gene 1 9 56 -1.7163361380329563 false 796 -1.7163361380329563 true
gene 13 27 56 -4.89733842357245 false 895 -4.89733842357245 true
gene 11 14 56 -9.08059870753263 false 1022 -9.08059870753263 true
gene 15 2 56 -4.148928527959474 false 1193 0 true
gene 5 17 56 5.269217759315808 false 1256 5.269217759315808 true
genomeend 245
/* Organism #244 Fitness: 15.000 Error: 0.000 */
genomestart 244
trait 1 0.1 0.00011596774536182334 0 0 9.74125586662679e-05 0 0 0
trait 2 0.2 0 0 0 0 0 0 0
trait 3 0.28787841796874997 0.025027931209068262 0.0011703609003011848 0 0 0 0 0
trait 4 0.4068222962462888 0 0 0 0 0.006368705495120714 0.0057001456536808865 0
trait 5 0.48563118013516077 0.015464500591971176 0.015526450155434305 0.024761472644442423 0.047193643145830126 0 0.015060658617533229 0.07430961906414417
trait 6 0.6 0.052619241504519534 0 0.0969146502269451 0 0 0 0
trait 7 0.7 0 0 0 0 0 0 0
trait 8 0.8 0.0033148288218713476 0 0 0.0033136870902146618 0.020814246018747234 0.006637250524927444 0
trait 9 0.9 0 0 0 0 0 0 0
trait 10 1 0 0 0 0 0 0 0
trait 11 1.1 0 0 0 0 0 0 0
trait 12 1.2 0 0 0 0 0 0 0
trait 13 1.3 0 0.042389708214444544 0 0.025136343858730967 0.032688995697351154 0 0
trait 14 1.4 0 0 0 0 0 0 0
trait 15 1.5 0 0 0 0 0 0 0
node 1 1 1 3 NullActivation
node 2 1 1 1 NullActivation
node 3 1 1 1 NullActivation
node 4 1 1 1 NullActivation
node 5 1 1 1 NullActivation
node 6 1 1 1 NullActivation
node 7 1 1 1 NullActivation
node 8 1 1 1 NullActivation
node 9 1 1 1 NullActivation
node 10 1 1 1 NullActivation
node 11 1 1 1 NullActivation
node 12 1 1 1 NullActivation
node 13 1 1 1 NullActivation
node 14 1 1 1 NullActivation
node 15 1 1 1 NullActivation
node 16 1 1 1 NullActivation
node 17 1 1 1 NullActivation
node 18 1 1 1 NullActivation
node 19 1 1 1 NullActivation
node 20 1 1 1 NullActivation
node 21 1 1 1 NullActivation
node 22 1 1 1 NullActivation
node 23 1 1 1 NullActivation
node 24 1 1 1 NullActivation
node 25 1 1 1 NullActivation
node 26 1 1 1 NullActivation
node 27 1 1 1 NullActivation
node 28 1 1 1 NullActivation
node 29 1 1 1 NullActivation
node 30 1 1 1 NullActivation
node 31 1 1 1 NullActivation
node 32 1 1 1 NullActivation
node 33 1 1 1 NullActivation
node 34 1 1 1 NullActivation
node 35 1 1 1 NullActivation
node 36 1 1 1 NullActivation
node 37 1 1 1 NullActivation
node 38 1 1 1 NullActivation
node 39 1 1 1 NullActivation
node 40 1 1 1 NullActivation
node 41 1 1 1 NullActivation
node 42 1 1 1 NullActivation
node 43 1 1 1 NullActivation
node 44 1 1 1 NullActivation
node 45 1 1 1 NullActivation
node 46 1 1 1 NullActivation
node 47 1 1 1 NullActivation
node 48 1 1 1 NullActivation
node 49 1 1 1 NullActivation
node 50 1 1 1 NullActivation
node 51 1 1 1 NullActivation
node 52 1 1 1 NullActivation
node 53 1 1 1 NullActivation
node 54 1 1 1 NullActivation
node 55 1 1 1 NullActivation
node 56 1 0 2 SigmoidSteepenedActivation
gene 1 1 56 -1.0975199051726516 false 1 -1.0975199051726516 true
gene 14 51 56 -7.758712365653183 false 118 -7.758712365653183 true
gene 3 31 56 0.11027939318057511 false 285 0.11027939318057511 true
gene 7 38 56 1.4523688602038676 false 361 1.4523688602038676 true
gene 2 8 56 5.666811081222928 false 427 5.666811081222928 true
gene 3 55 56 7.76868265291507 false 750 7.76868265291507 true
gene 11 50 56 2.2964029063457208 false 876 2.2964029063457208 true
gene 2 10 56 5.210829881715615 false 988 5.210829881715615 true
gene 10 29 56 -6.364508008990687 false 1095 0 true
gene 7 18 56 -1.2628867931343373 false 1139 0 true
gene 7 14 56 1.4970485674458218 false 1339 0 true
genomeend 244
/* Organism #230 Fitness: 15.000 Error: 0.000 */
genomestart 230
trait 1 0.1 0.00011928110951501828 0 0 0.00010019577462816127 0 0 0
trait 2 0.2 0 0 0 0 0 0 0
trait 3 0.28850097656249996 0.023742508760264153 0.0011102517301950815 0 0 0 0 0
trait 4 0.4068222962462888 0 0 0 0 0.006368705495120714 0.0057001456536808865 0
trait 5 0.5 0.01353143801797478 0 0.02166628856388712 0.018572212826158063 0 0 0.06502091668112614
trait 6 0.6 0.043849367920432945 0 0.08076220852245425 0 0 0 0
trait 7 0.7 0 0 0 0 0 0 0
trait 8 0.8 0.006629657643742694 0 0 0.006627374180429324 0.0197931164309529 0.006751292630166748 0
trait 9 0.9 0 0 0 0 0 0 0
trait 10 1 0 0 0 0 0 0 0
trait 11 1.1 0 0 0 0 0 0 0
trait 12 1.2 0 0 0 0 0 0 0
trait 13 1.3 0 0.04569054614917588 0 0.027093682110025594 0.03523445028034161 0 0
trait 14 1.4 0 0 0 0 0 0 0
trait 15 1.5 0 0 0 0 0 0 0
node 1 1 1 3 NullActivation
node 2 1 1 1 NullActivation
node 3 1 1 1 NullActivation
node 4 1 1 1 NullActivation
node 5 1 1 1 NullActivation
node 6 1 1 1 NullActivation
node 7 1 1 1 NullActivation
node 8 1 1 1 NullActivation
node 9 1 1 1 NullActivation
node 10 1 1 1 NullActivation
node 11 1 1 1 NullActivation
node 12 1 1 1 NullActivation
node 13 1 1 1 NullActivation
node 14 1 1 1 NullActivation
node 15 1 1 1 NullActivation
node 16 1 1 1 NullActivation
node 17 1 1 1 NullActivation
node 18 1 1 1 NullActivation
node 19 1 1 1 NullActivation
node 20 1 1 1 NullActivation
node 21 1 1 1 NullActivation
node 22 1 1 1 NullActivation
node 23 1 1 1 NullActivation
node 24 1 1 1 NullActivation
node 25 1 1 1 NullActivation
node 26 1 1 1 NullActivation
node 27 1 1 1 NullActivation
node 28 1 1 1 NullActivation
node 29 1 1 1 NullActivation
node 30 1 1 1 NullActivation
node 31 1 1 1 NullActivation
node 32 1 1 1 NullActivation
node 33 1 1 1 NullActivation
node 34 1 1 1 NullActivation
node 35 1 1 1 NullActivation
node 36 1 1 1 NullActivation
node 37 1 1 1 NullActivation
node 38 1 1 1 NullActivation
node 39 1 1 1 NullActivation
node 40 1 1 1 NullActivation
node 41 1 1 1 NullActivation
node 42 1 1 1 NullActivation
node 43 1 1 1 NullActivation
node 44 1 1 1 NullActivation
node 45 1 1 1 NullActivation
node 46 1 1 1 NullActivation
node 47 1 1 1 NullActivation
node 48 1 1 1 NullActivation
node 49 1 1 1 NullActivation
node 50 1 1 1 NullActivation
node 51 1 1 1 NullActivation
node 52 1 1 1 NullActivation
node 53 1 1 1 NullActivation
node 54 1 1 1 NullActivation
node 55 1 1 1 NullActivation
node 56 1 0 2 SigmoidSteepenedActivation
node 106 1 0 0 SigmoidSteepenedActivation
gene 1 1 56 1.4170146146757232 false 1 1.4170146146757232 true
gene 14 51 56 -6.775571629779117 false 118 -6.775571629779117 true
gene 3 31 56 0.2554770672717277 false 285 0.2554770672717277 true
gene 7 38 56 2.9961482949486644 false 361 2.9961482949486644 true
gene 2 8 56 4.371241185873277 false 427 4.371241185873277 true
gene 3 55 56 7.007554495683792 false 750 7.007554495683792 true
gene 12 18 56 6.68844597841021 false 814 6.68844597841021 true
gene 11 50 56 4.238713498840196 false 876 4.238713498840196 true
gene 2 10 56 2.9737845329125703 false 988 2.9737845329125703 true
gene 14 51 106 1 false 1240 0 true
gene 14 106 56 -7.89042754533122 false 1241 0 true
gene 3 36 56 5.765090655317271 false 1261 0 true
gene 11 36 106 1.6126133567820757 false 1288 1.6126133567820757 true
genomeend 230
/* Organism #218 Fitness: 14.000 Error: 0.000 */
genomestart 218
trait 1 0.1 0.00016235484350655266 0 0 0.00013637758213277506 0 0 0
trait 2 0.19882812500000002 0 0 0 0 0 0 0.0025976087320562532
trait 3 0.29124755859375 0.018071527368481315 0.000845064215021097 0 0 0 0 0
trait 4 0.4272891849851551 0 0 0 0 0.025474821980482856 0.022800582614723546 0
trait 5 0.47126236027032153 0.03285614301569716 0.0907277319989499 0.00412691210740707 0.05737414546268094 0.03519826259745689 0.030121317235066458 0.0158843936877302
trait 6 0.6 0.01900139276552094 0 0.034996957026396845 0 0 0 0
trait 7 0.7 0 0 0 0 0 0 0
trait 8 0.8 0.0077346005843664765 0 0 0.007731936543834211 0.01994217267126929 0.005177511577864364 0
trait 9 0.9 0 0 0 0 0 0 0
trait 10 1 0 0 0 0 0 0 0
trait 11 1.1 0 0 0 0 0 0 0
trait 12 1.2 0 0 0 0 0 0 0
trait 13 1.3 0 0.03759977045953366 0 0.0222959958700102 0.028995215738575525 0 0
trait 14 1.4 0 0 0 0 0 0 0
trait 15 1.5515481538128608 0.017064317241645054 0.006784409678428664 0.0018108404448428956 0 0 0 0
node 1 1 1 3 NullActivation
node 2 1 1 1 NullActivation
node 3 1 1 1 NullActivation
node 4 1 1 1 NullActivation
node 5 1 1 1 NullActivation
node 6 1 1 1 NullActivation
node 7 1 1 1 NullActivation
node 8 1 1 1 NullActivation
node 9 1 1 1 NullActivation
node 10 1 1 1 NullActivation
node 11 1 1 1 NullActivation
node 12 1 1 1 NullActivation
node 13 1 1 1 NullActivation
node 14 1 1 1 NullActivation
node 15 1 1 1 NullActivation
node 16 1 1 1 NullActivation
node 17 1 1 1 NullActivation
node 18 1 1 1 NullActivation
node 19 1 1 1 NullActivation
node 20 1 1 1 NullActivation
node 21 1 1 1 NullActivation
node 22 1 1 1 NullActivation
node 23 1 1 1 NullActivation
node 24 1 1 1 NullActivation
node 25 1 1 1 NullActivation
node 26 1 1 1 NullActivation
node 27 1 1 1 NullActivation
node 28 1 1 1 NullActivation
node 29 1 1 1 NullActivation
node 30 1 1 1 NullActivation
node 31 1 1 1 NullActivation
node 32 1 1 1 NullActivation
node 33 1 1 1 NullActivation
node 34 1 1 1 NullActivation
node 35 1 1 1 NullActivation
node 36 1 1 1 NullActivation
node 37 1 1 1 NullActivation
node 38 1 1 1 NullActivation
node 39 1 1 1 NullActivation
node 40 1 1 1 NullActivation
node 41 1 1 1 NullActivation
node 42 1 1 1 NullActivation
node 43 1 1 1 NullActivation
node 44 1 1 1 NullActivation
node 45 1 1 1 NullActivation
node 46 1 1 1 NullActivation
node 47 1 1 1 NullActivation
node 48 1 1 1 NullActivation
node 49 1 1 1 NullActivation
node 50 1 1 1 NullActivation
node 51 1 1 1 NullActivation
node 52 11 1 1 NullActivation
node 53 1 1 1 NullActivation
node 54 1 1 1 NullActivation
node 55 1 1 1 NullActivation
node 56 1 0 2 SigmoidSteepenedActivation
gene 1 1 56 -0.39028885844079686 false 1 -0.39028885844079686 true
gene 14 51 56 -10.793561138232336 false 118 -10.793561138232336 true
gene 3 31 56 -2.5472712434666187 false 285 -2.5472712434666187 true
gene 7 38 56 8.920162038472515 false 361 8.920162038472515 true
gene 2 8 56 5.870315067237745 false 427 5.870315067237745 true
gene 3 55 56 0.8081579503255589 false 750 0.8081579503255589 true
gene 3 19 56 -8.628523081950885 false 839 -8.628523081950885 true
gene 13 20 56 -8.365747892548963 false 1255 0 true
gene 11 45 56 0.41332157974480566 false 1314 0 true
genomeend 218
/* Organism #90 Fitness: 14.000 Error: 0.000 */
genomestart 90
trait 1 0.1 0.00011928110951501828 0.033670511352308474 0 0.00010019577462816127 0 0.04623817760551626 0
trait 2 0.2 0 0 0 0 0 0 0
trait 3 0.28956298828125 0.02154972928877479 0.0010077125576611408 0 0 0 0 0
trait 4 0.41364459249257757 0 0 0 0 0.012737410990241428 0.011400291307361773 0
trait 5 0.49281559006758036 0.007732250295985588 0.0077632250777171525 0.012380736322221211 0.023596821572915063 0 0.007530329308766614 0.037154809532072085
trait 6 0.6 0.037271962732368005 0 0.06864787724408612 0 0 0 0
trait 7 0.7 0 0 0.1417300921919613 0 0 0 0
trait 8 0.8 0.002762357351559456 0 0 0.0027614059085122183 0.019588438542869707 0.006032827367159138 0
trait 9 0.9 0 0 0 0 0 0 0
trait 10 1 0 0 0 0 0 0 0
trait 11 1.1 0 0 0 0 0 0 0
trait 12 1.2 0 0 0 0 0 0 0
trait 13 1.3 0 0.03902682445387239 0 0.023142213535043588 0.03009569422370298 0 0
trait 14 1.4 0 0 0 0 0 0 0
trait 15 1.5 0 0 0 0 0 0 0
node 1 1 1 3 NullActivation
node 2 1 1 1 NullActivation
node 3 1 1 1 NullActivation
node 4 1 1 1 NullActivation
node 5 1 1 1 NullActivation
node 6 1 1 1 NullActivation
node 7 1 1 1 NullActivation
node 8 1 1 1 NullActivation
node 9 1 1 1 NullActivation
node 10 1 1 1 NullActivation
node 11 1 1 1 NullActivation
node 12 1 1 1 NullActivation
node 13 1 1 1 NullActivation
node 14 1 1 1 NullActivation
node 15 1 1 1 NullActivation
node 16 1 1 1 NullActivation
node 17 1 1 1 NullActivation
node 18 1 1 1 NullActivation
node 19 1 1 1 NullActivation
node 20 1 1 1 NullActivation
node 21 1 1 1 NullActivation
node 22 1 1 1 NullActivation
node 23 1 1 1 NullActivation
node 24 1 1 1 NullActivation
node 25 1 1 1 NullActivation
node 26 1 1 1 NullActivation
node 27 1 1 1 NullActivation
node 28 1 1 1 NullActivation
node 29 1 1 1 NullActivation
node 30 1 1 1 NullActivation
node 31 1 1 1 NullActivation
node 32 1 1 1 NullActivation
node 33 1 1 1 NullActivation
node 34 1 1 1 NullActivation
node 35 1 1 1 NullActivation
node 36 1 1 1 NullActivation
node 37 1 1 1 NullActivation
node 38 1 1 1 NullActivation
node 39 1 1 1 NullActivation
node 40 1 1 1 NullActivation
node 41 1 1 1 NullActivation
node 42 12 1 1 NullActivation
node 43 1 1 1 NullActivation
node 44 1 1 1 NullActivation
node 45 1 1 1 NullActivation
node 46 1 1 1 NullActivation
node 47 1 1 1 NullActivation
node 48 1 1 1 NullActivation
node 49 1 1 1 NullActivation
node 50 1 1 1 NullActivation
node 51 1 1 1 NullActivation
node 52 1 1 1 NullActivation
node 53 1 1 1 NullActivation
node 54 1 1 1 NullActivation
node 55 1 1 1 NullActivation
node 56 1 0 2 SigmoidSteepenedActivation
gene 1 1 56 -3.4835986808582824 false 1 -3.4835986808582824 true
gene 14 51 56 -9.604557995983392 false 118 -9.604557995983392 true
gene 3 31 56 0.23668573572913532 false 285 0.23668573572913532 false
gene 7 38 56 1.4523688602038676 false 361 1.4523688602038676 true
gene 2 8 56 8.519196509987552 false 427 8.519196509987552 true
gene 3 55 56 8.009812960519607 false 750 8.009812960519607 true
gene 11 50 56 0.40195965805983236 false 876 0.40195965805983236 true
gene 2 10 56 5.210829881715615 false 988 5.210829881715615 true
gene 11 37 56 0.3896718688628436 false 1088 0.3896718688628436 true
gene 14 39 56 3.184921842860417 false 1341 3.184921842860417 true
genomeend 90
/* Organism #251 Fitness: 14.000 Error: 0.000 */
genomestart 251
trait 1 0.1 0.00011099769913203091 0 0 9.323773472342785e-05 0 0 0
trait 2 0.2 0 0 0 0 0 0 0
trait 3 0.28690795898437493 0.027031677967498197 0.0012640604889959926 0 0 0 0 0
trait 4 0.4034111481231444 0 0 0 0 0.003184352747560357 0.0028500728268404433 0
trait 5 0.49281559006758036 0.018041917357299705 0.0077632250777171525 0.028888384751849492 0.03774707896427359 0 0.007530329308766614 0.08669455557483487
trait 6 0.6 0.061389115088606123 0 0.11306709193143596 0 0 0 0
trait 7 0.7 0 0 0 0 0 0 0
trait 8 0.8 0.0016574144109356738 0 0 0.0016568435451073309 0.021797558374171664 0.006967972630121423 0
trait 9 0.9 0 0 0 0 0 0 0
trait 10 1 0 0 0 0 0 0 0
trait 11 1.1 0 0 0 0 0 0 0
trait 12 1.2 0 0 0 0 0 0 0
trait 13 1.3 0 0.03946114523475809 0 0.02339975804179288 0.030430622458306987 0 0
trait 14 1.4 0 0 0 0 0 0 0
trait 15 1.5 0 0 0 0 0 0 0
node 1 1 1 3 NullActivation
node 2 1 1 1 NullActivation
node 3 1 1 1 NullActivation
node 4 1 1 1 NullActivation
node 5 1 1 1 NullActivation
node 6 1 1 1 NullActivation
node 7 1 1 1 NullActivation
node 8 1 1 1 NullActivation
node 9 1 1 1 NullActivation
node 10 1 1 1 NullActivation
node 11 1 1 1 NullActivation
node 12 1 1 1 NullActivation
node 13 1 1 1 NullActivation
node 14 1 1 1 NullActivation
node 15 3 1 1 NullActivation
node 16 1 1 1 NullActivation
node 17 1 1 1 NullActivation
node 18 1 1 1 NullActivation
node 19 1 1 1 NullActivation
node 20 1 1 1 NullActivation
node 21 1 1 1 NullActivation
node 22 1 1 1 NullActivation
node 23 1 1 1 NullActivation
node 24 1 1 1 NullActivation
node 25 1 1 1 NullActivation
node 26 1 1 1 NullActivation
node 27 1 1 1 NullActivation
node 28 1 1 1 NullActivation
node 29 1 1 1 NullActivation
node 30 1 1 1 NullActivation
node 31 1 1 1 NullActivation
node 32 1 1 1 NullActivation
node 33 1 1 1 NullActivation
node 34 1 1 1 NullActivation
node 35 1 1 1 NullActivation
node 36 1 1 1 NullActivation
node 37 1 1 1 NullActivation
node 38 1 1 1 NullActivation
node 39 1 1 1 NullActivation
node 40 1 1 1 NullActivation
node 41 1 1 1 NullActivation
node 42 1 1 1 NullActivation
node 43 1 1 1 NullActivation
node 44 1 1 1 NullActivation
node 45 1 1 1 NullActivation
node 46 1 1 1 NullActivation
node 47 1 1 1 NullActivation
node 48 1 1 1 NullActivation
node 49 1 1 1 NullActivation
node 50 1 1 1 NullActivation
node 51 1 1 1 NullActivation
node 52 1 1 1 NullActivation
node 53 1 1 1 NullActivation
node 54 1 1 1 NullActivation
node 55 1 1 1 NullActivation
node 56 1 0 2 SigmoidSteepenedActivation
gene 1 1 56 -1.4592499613592498 false 1 -1.4592499613592498 true
gene 14 51 56 -8.421559838178839 false 118 -8.421559838178839 true
gene 3 31 56 -0.08084328238648925 false 285 -0.08084328238648925 true
gene 7 38 56 2.55083341138446 false 361 2.55083341138446 true
gene 2 8 56 6.928438093763687 false 427 6.928438093763687 true
gene 3 55 56 9.661183895973403 false 750 9.661183895973403 true
gene 11 50 56 3.2866934345572423 false 876 3.2866934345572423 true
gene 2 10 56 7.144526958381843 false 988 7.144526958381843 true
gene 10 29 56 -7.285362183482084 false 1095 -7.285362183482084 true
gene 7 18 56 0.09581471218997142 false 1139 0.09581471218997142 true
genomeend 251
/* Organism #250 Fitness: 14.000 Error: 0.000 */
genomestart 250
trait 1 0.09765625 0.00013584793028099306 0 0.008525356499764204 0.00011411185443762812 0 0 0
trait 2 0.19257812500000002 0.00867335895904968 0 0.02038471050963131 0 0 0 0.0025976087320562532
trait 3 0.29036865234375 0.019886241413851823 0.000929924219876772 0 0 0 0 0
trait 4 0.41364459249257757 0 0 0 0 0.012737410990241428 0.011400291307361773 0
trait 5 0.5 0.006443541913321324 0 0.010317280268517675 0.008843910869599078 0 0 0.030962341276726736
trait 6 0.6 0.029232911946955296 0 0.05384147234830284 0 0 0 0
trait 7 0.7 0 0 0 0 0 0 0
trait 8 0.8 0.002209885881247565 0 0 0.0022091247268097745 0.021154622548012012 0.0065802294723077935 0
trait 9 0.9 0 0 0 0 0 0 0
trait 10 1 0 0 0 0 0 0 0
trait 11 1.1 0.0030519305983843824 0.020127254212826597 0.011174851236218754 0.01968337069848424 0 0 0.0028682482984960563
trait 12 1.2 0 0 0 0 0 0 0
trait 13 1.3 0 0.032425148584409716 0 0.01922753703245434 0.025004785057722065 0 0
trait 14 1.4 0 0 0 0 0 0 0
trait 15 1.5773222307192911 0.02559647586246758 0.010176614517642995 0.002711171023056265 0 0 0 0
node 1 1 1 3 NullActivation
node 2 1 1 1 NullActivation
node 3 1 1 1 NullActivation
node 4 1 1 1 NullActivation
node 5 1 1 1 NullActivation
node 6 1 1 1 NullActivation
node 7 1 1 1 NullActivation
node 8 1 1 1 NullActivation
node 9 1 1 1 NullActivation
node 10 1 1 1 NullActivation
node 11 1 1 1 NullActivation
node 12 1 1 1 NullActivation
node 13 1 1 1 NullActivation
node 14 1 1 1 NullActivation
node 15 1 1 1 NullActivation
node 16 1 1 1 NullActivation
node 17 1 1 1 NullActivation
node 18 1 1 1 NullActivation
node 19 1 1 1 NullActivation
node 20 1 1 1 NullActivation
node 21 1 1 1 NullActivation
node 22 1 1 1 NullActivation
node 23 1 1 1 NullActivation
node 24 1 1 1 NullActivation
node 25 1 1 1 NullActivation
node 26 1 1 1 NullActivation
node 27 1 1 1 NullActivation
node 28 1 1 1 NullActivation
node 29 1 1 1 NullActivation
node 30 1 1 1 NullActivation
node 31 1 1 1 NullActivation
node 32 1 1 1 NullActivation
node 33 1 1 1 NullActivation
node 34 1 1 1 NullActivation
node 35 1 1 1 NullActivation
node 36 1 1 1 NullActivation
node 37 1 1 1 NullActivation
node 38 1 1 1 NullActivation
node 39 1 1 1 NullActivation
node 40 1 1 1 NullActivation
node 41 1 1 1 NullActivation
node 42 1 1 1 NullActivation
node 43 1 1 1 NullActivation
node 44 1 1 1 NullActivation
node 45 1 1 1 NullActivation
node 46 1 1 1 NullActivation
node 47 1 1 1 NullActivation
node 48 1 1 1 NullActivation
node 49 1 1 1 NullActivation
node 50 1 1 1 NullActivation
node 51 1 1 1 NullActivation
node 52 1 1 1 NullActivation
node 53 1 1 1 NullActivation
node 54 1 1 1 NullActivation
node 55 1 1 1 NullActivation
node 56 1 0 2 SigmoidSteepenedActivation
gene 1 1 56 0.8452483206465917 false 1 0.8452483206465917 true
gene 14 51 56 -4.541727744480339 false 118 -4.541727744480339 true
gene 3 31 56 0.23668573572913532 false 285 0.23668573572913532 true
gene 7 38 56 1.4523688602038676 false 361 1.4523688602038676 true
gene 2 8 56 7.724109078770132 false 427 7.724109078770132 true
gene 3 55 56 7.376777847432884 false 750 7.376777847432884 true
gene 2 10 56 5.961245031583809 false 988 5.961245031583809 true
gene 14 45 56 1.3868208558295745 false 1204 0 true
gene 11 39 56 -1.3533420218963232 false 1289 0 true
gene 7 14 56 1.4970485674458218 false 1339 0 true
genomeend 250
/* Organism #82 Fitness: 14.000 Error: 0.000 */
genomestart 82
trait 1 0.08750000000000001 0.00013419124820439557 0.03499177237786922 0 0.00011272024645668142 0.07441432845301885 0 0.024306425895350706
trait 2 0.2 0 0 0 0 0 0 0
trait 3 0.2900390625 0.020566759180865764 0.0009617467216976503 0 0 0 0 0
trait 4 0.4204668887388664 0 0 0 0 0.01910611648536214 0.01710043696104266 0
trait 5 0.48563118013516077 0.018041917357299708 0.015526450155434305 0.028888384751849492 0.05073120749366976 0 0.015060658617533229 0.08669455557483485
trait 6 0.6 0.03654113993369412 0 0.06730184043537854 0 0 0 0
trait 7 0.7 0 0 0 0 0 0 0
trait 8 0.8 0.007182129114054586 0 0 0.007179655362131767 0.02272081512832858 0.005907381051395904 0
trait 9 0.9 0 0 0 0 0 0 0
trait 10 1 0 0 0 0 0 0 0
trait 11 1.1 0 0 0 0 0 0 0
trait 12 1.2 0 0 0 0.19431854378389699 0.2116722463378202 0 0
trait 13 1.3 0 0.044350356311014284 0 0.026298973346342062 0.03420095744213496 0 0
trait 14 1.4 0 0 0 0 0 0 0
trait 15 1.5 0 0 0 0 0 0 0
node 1 1 1 3 NullActivation
node 2 1 1 1 NullActivation
node 3 1 1 1 NullActivation
node 4 1 1 1 NullActivation
node 5 1 1 1 NullActivation
node 6 1 1 1 NullActivation
node 7 1 1 1 NullActivation
node 8 13 1 1 NullActivation
node 9 1 1 1 NullActivation
node 10 1 1 1 NullActivation
node 11 1 1 1 NullActivation
node 12 1 1 1 NullActivation
node 13 1 1 1 NullActivation
node 14 1 1 1 NullActivation
node 15 1 1 1 NullActivation
node 16 1 1 1 NullActivation
node 17 1 1 1 NullActivation
node 18 1 1 1 NullActivation
node 19 1 1 1 NullActivation
node 20 1 1 1 NullActivation
node 21 1 1 1 NullActivation
node 22 1 1 1 NullActivation
node 23 1 1 1 NullActivation
node 24 1 1 1 NullActivation
node 25 1 1 1 NullActivation
node 26 1 1 1 NullActivation
node 27 1 1 1 NullActivation
node 28 1 1 1 NullActivation
node 29 1 1 1 NullActivation
node 30 1 1 1 NullActivation
node 31 1 1 1 NullActivation
node 32 1 1 1 NullActivation
node 33 1 1 1 NullActivation
node 34 1 1 1 NullActivation
node 35 1 1 1 NullActivation
node 36 1 1 1 NullActivation
node 37 1 1 1 NullActivation
node 38 1 1 1 NullActivation
node 39 1 1 1 NullActivation
node 40 1 1 1 NullActivation
node 41 1 1 1 NullActivation
node 42 1 1 1 NullActivation
node 43 1 1 1 NullActivation
node 44 1 1 1 NullActivation
node 45 1 1 1 NullActivation
node 46 1 1 1 NullActivation
node 47 1 1 1 NullActivation
node 48 1 1 1 NullActivation
node 49 1 1 1 NullActivation
node 50 1 1 1 NullActivation
node 51 1 1 1 NullActivation
node 52 1 1 1 NullActivation
node 53 1 1 1 NullActivation
node 54 1 1 1 NullActivation
node 55 1 1 1 NullActivation
node 56 1 0 2 SigmoidSteepenedActivation
gene 1 1 56 0.5887341521727398 false 1 0.5887341521727398 true
gene 14 51 56 -9.290106958838699 false 118 -9.290106958838699 true
gene 3 31 56 0.3346194211930207 false 285 0.3346194211930207 true
gene 7 38 56 1.9177817346115265 false 361 1.9177817346115265 true
gene 2 8 56 9.407655118610524 false 427 9.407655118610524 true
gene 3 55 56 6.957701968881677 false 750 6.957701968881677 true
gene 12 18 56 10.163001824051367 false 814 10.163001824051367 true
gene 11 50 56 0.5971923605256184 false 876 0.5971923605256184 true
gene 2 10 56 6.630431441960437 false 988 6.630431441960437 true
gene 11 37 56 0.3896718688628436 false 1088 0.3896718688628436 true
genomeend 82
/* Organism #209 Fitness: 14.000 Error: 0.000 */
genomestart 209
trait 1 0.07500000000000001 0.00010271428874904352 0.06998354475573844 0 8.627969481869442e-05 0.1488286569060377 0 0.04861285179070141
trait 2 0.2 0 0 0 0 0 0 0
trait 3 0.28963623046875 0.021398503118327243 0.0010006408905898346 0 0 0 0 0
trait 4 0.4068222962462888 0 0 0 0 0.006368705495120714 0.0057001456536808865 0
trait 5 0.48563118013516077 0.012887083826642647 0.015526450155434305 0.02063456053703535 0.043656078797990494 0 0.015060658617533229 0.06192468255345347
trait 6 0.6 0.043849367920432945 0 0.08076220852245425 0 0 0 0
trait 7 0.7 0 0 0 0 0 0 0
trait 8 0.8 0.0033148288218713476 0 0 0.0033136870902146618 0.021882099334197054 0.006454783156544559 0
trait 9 0.9 0 0 0 0 0 0 0
trait 10 1 0 0 0 0 0 0 0
trait 11 1.1 0 0 0 0 0 0 0
trait 12 1.2 0 0 0 0 0 0 0
trait 13 1.3 0 0.04258825485713515 0 0.02525407849038779 0.032842105747455844 0 0
trait 14 1.4 0 0 0 0 0 0 0
trait 15 1.5 0 0 0 0 0 0 0
node 1 1 1 3 NullActivation
node 2 1 1 1 NullActivation
node 3 1 1 1 NullActivation
node 4 1 1 1 NullActivation
node 5 1 1 1 NullActivation
node 6 1 1 1 NullActivation
node 7 1 1 1 NullActivation
node 8 1 1 1 NullActivation
node 9 1 1 1 NullActivation
node 10 1 1 1 NullActivation
node 11 1 1 1 NullActivation
node 12 1 1 1 NullActivation
node 13 1 1 1 NullActivation
node 14 1 1 1 NullActivation
node 15 1 1 1 NullActivation
node 16 1 1 1 NullActivation
node 17 1 1 1 NullActivation
node 18 1 1 1 NullActivation
node 19 1 1 1 NullActivation
node 20 1 1 1 NullActivation
node 21 1 1 1 NullActivation
node 22 1 1 1 NullActivation
node 23 1 1 1 NullActivation
node 24 1 1 1 NullActivation
node 25 1 1 1 NullActivation
node 26 1 1 1 NullActivation
node 27 1 1 1 NullActivation
node 28 1 1 1 NullActivation
node 29 1 1 1 NullActivation
node 30 1 1 1 NullActivation
node 31 1 1 1 NullActivation
node 32 1 1 1 NullActivation
node 33 1 1 1 NullActivation
node 34 1 1 1 NullActivation
node 35 1 1 1 NullActivation
node 36 1 1 1 NullActivation
node 37 1 1 1 NullActivation
node 38 1 1 1 NullActivation
node 39 1 1 1 NullActivation
node 40 1 1 1 NullActivation
node 41 1 1 1 NullActivation
node 42 1 1 1 NullActivation
node 43 1 1 1 NullActivation
node 44 1 1 1 NullActivation
node 45 1 1 1 NullActivation
node 46 1 1 1 NullActivation
node 47 1 1 1 NullActivation
node 48 1 1 1 NullActivation
node 49 1 1 1 NullActivation
node 50 1 1 1 NullActivation
node 51 1 1 1 NullActivation
node 52 1 1 1 NullActivation
node 53 1 1 1 NullActivation
node 54 1 1 1 NullActivation
node 55 1 1 1 NullActivation
node 56 1 0 2 SigmoidSteepenedActivation
gene 1 1 56 2.1115083082247668 false 1 2.1115083082247668 true
gene 14 51 56 -7.758712365653183 false 118 -7.758712365653183 true
gene 3 31 56 0.23668573572913532 false 285 0.23668573572913532 true
gene 7 38 56 1.4523688602038676 false 361 1.4523688602038676 true
gene 2 8 56 9.556489477022954 false 427 9.556489477022954 true
gene 3 55 56 8.57368061586134 false 750 8.57368061586134 true
gene 12 18 56 7.9161550222116635 false 814 7.9161550222116635 true
gene 11 50 56 2.2964029063457208 false 876 2.2964029063457208 true
gene 2 10 56 5.210829881715615 false 988 5.210829881715615 true
gene 11 37 56 0.3896718688628436 false 1088 0.3896718688628436 true
gene 15 9 56 -5.535358901015571 false 1334 0 true
genomeend 209
/* Organism #206 Fitness: 14.000 Error: 0.000 */
genomestart 206
trait 1 0.09375 0.00013419124820439557 0.01749588618893461 0 0.00011272024645668144 0.03720716422650942 0 0.012153212947675353
trait 2 0.19941406250000002 0 0 0 0 0 0 0.0012988043660281266
trait 3 0.290277099609375 0.02007527412691125 0.0009387638037159048 0 0 0 0 0
trait 4 0.41364459249257757 0 0 0 0 0.012737410990241428 0.011400291307361773 0
trait 5 0.48563118013516077 0.025449030186498432 0.04536386599947495 0.01650764842962828 0.04106854794877918 0.017599131298728445 0.015060658617533229 0.051289474631282535
trait 6 0.6 0.029232911946955292 0 0.053841472348302846 0 0 0 0
trait 7 0.7 0 0 0 0 0 0 0
trait 8 0.8 0.004972243232807021 0 0 0.004970530635321993 0.019664081582783773 0.006146869472398441 0
trait 9 0.9 0 0 0 0 0 0 0
trait 10 1 0 0 0 0 0 0 0
trait 11 1.1 0 0 0 0 0 0 0
trait 12 1.2 0 0 0 0.09715927189194849 0.1058361231689101 0 0
trait 13 1.3 0 0.0406648342560699 0 0.024113524246212353 0.03135885213706667 0 0
trait 14 1.4 0 0 0 0 0 0 0
trait 15 1.5257740769064303 0.008532158620822527 0.003392204839214332 0.0009054202224214478 0 0 0 0
node 1 1 1 3 NullActivation
node 2 1 1 1 NullActivation
node 3 1 1 1 NullActivation
node 4 1 1 1 NullActivation
node 5 1 1 1 NullActivation
node 6 1 1 1 NullActivation
node 7 1 1 1 NullActivation
node 8 1 1 1 NullActivation
node 9 1 1 1 NullActivation
node 10 1 1 1 NullActivation
node 11 1 1 1 NullActivation
node 12 1 1 1 NullActivation
node 13 1 1 1 NullActivation
node 14 1 1 1 NullActivation
node 15 1 1 1 NullActivation
node 16 1 1 1 NullActivation
node 17 1 1 1 NullActivation
node 18 1 1 1 NullActivation
node 19 1 1 1 NullActivation
node 20 1 1 1 NullActivation
node 21 1 1 1 NullActivation
node 22 1 1 1 NullActivation
node 23 1 1 1 NullActivation
node 24 1 1 1 NullActivation
node 25 1 1 1 NullActivation
node 26 1 1 1 NullActivation
node 27 1 1 1 NullActivation
node 28 1 1 1 NullActivation
node 29 1 1 1 NullActivation
node 30 1 1 1 NullActivation
node 31 1 1 1 NullActivation
node 32 1 1 1 NullActivation
node 33 1 1 1 NullActivation
node 34 1 1 1 NullActivation
node 35 1 1 1 NullActivation
node 36 1 1 1 NullActivation
node 37 1 1 1 NullActivation
node 38 1 1 1 NullActivation
node 39 1 1 1 NullActivation
node 40 1 1 1 NullActivation
node 41 1 1 1 NullActivation
node 42 1 1 1 NullActivation
node 43 1 1 1 NullActivation
node 44 1 1 1 NullActivation
node 45 1 1 1 NullActivation
node 46 1 1 1 NullActivation
node 47 1 1 1 NullActivation
node 48 1 1 1 NullActivation
node 49 1 1 1 NullActivation
node 50 1 1 1 NullActivation
node 51 1 1 1 NullActivation
node 52 1 1 1 NullActivation
node 53 1 1 1 NullActivation
node 54 1 1 1 NullActivation
node 55 1 1 1 NullActivation
node 56 1 0 2 SigmoidSteepenedActivation
gene 1 1 56 0.13171388996440758 false 1 0.13171388996440758 true
gene 14 51 56 -8.28160591413468 false 118 -8.28160591413468 true
gene 3 31 56 -1.0128802763457898 false 285 -1.0128802763457898 true
gene 7 38 56 4.493594814593887 false 361 3.7136300817608103 true
gene 2 8 56 7.405445488544015 false 427 6.453392660857422 true
gene 3 55 56 6.4230068586414175 false 750 5.57446091465552 true
gene 12 18 56 7.9161550222116635 false 814 7.9161550222116635 true
gene 11 50 56 2.2964029063457208 false 876 2.2964029063457208 true
gene 2 10 56 4.815609043186033 false 988 4.815609043186033 true
gene 11 37 56 0.3896718688628436 false 1088 0.3896718688628436 true
gene 3 30 56 3.5161657021506327 false 1212 0 true
genomeend 206
/* Organism #203 Fitness: 14.000 Error: 0.000 */
genomestart 203
trait 1 0.0734375 8.946083213626372e-05 0.06998354475573844 0.005683570999842802 7.514683097112096e-05 0.1488286569060377 0 0.04861285179070141
trait 2 0.19921875 0 0 0 0 0 0 0.001731739154704169
trait 3 0.28992919921874993 0.020793598436537074 0.0009723542223046097 0 0 0 0 0
trait 4 0.4034111481231444 0 0 0 0 0.003184352747560357 0.0028500728268404433 0
trait 5 0.5 0.012887083826642646 0 0.02063456053703535 0.017687821739198157 0 0 0.06192468255345348
trait 6 0.6 0.043849367920432945 0 0.08076220852245425 0 0 0 0
trait 7 0.7 0 0 0 0 0 0 0
trait 8 0.8 0.0011049429406237825 0 0 0.0011045623634048873 0.02018242937703639 0.006796909472262469 0
trait 9 0.9 0 0 0 0 0 0 0
trait 10 1 0 0 0 0 0 0 0
trait 11 1.1 0 0 0 0 0 0 0
trait 12 1.2 0 0 0 0 0 0 0
trait 13 1.3 0 0.044623357944713865 0 0.026460858464870188 0.03441148376102891 0 0
trait 14 1.4 0 0 0 0 0 0 0
trait 15 1.5 0 0 2.0358576832315014e-05 0 0 0 0
node 1 1 1 3 NullActivation
node 2 1 1 1 NullActivation
node 3 1 1 1 NullActivation
node 4 1 1 1 NullActivation
node 5 1 1 1 NullActivation
node 6 1 1 1 NullActivation
node 7 1 1 1 NullActivation
node 8 1 1 1 NullActivation
node 9 1 1 1 NullActivation
node 10 1 1 1 NullActivation
node 11 1 1 1 NullActivation
node 12 1 1 1 NullActivation
node 13 1 1 1 NullActivation
node 14 1 1 1 NullActivation
node 15 1 1 1 NullActivation
node 16 1 1 1 NullActivation
node 17 1 1 1 NullActivation
node 18 1 1 1 NullActivation
node 19 1 1 1 NullActivation
node 20 1 1 1 NullActivation
node 21 1 1 1 NullActivation
node 22 1 1 1 NullActivation
node 23 1 1 1 NullActivation
node 24 1 1 1 NullActivation
node 25 1 1 1 NullActivation
node 26 1 1 1 NullActivation
node 27 1 1 1 NullActivation
node 28 1 1 1 NullActivation
node 29 1 1 1 NullActivation
node 30 1 1 1 NullActivation
node 31 1 1 1 NullActivation
node 32 1 1 1 NullActivation
node 33 1 1 1 NullActivation
node 34 1 1 1 NullActivation
node 35 1 1 1 NullActivation
node 36 1 1 1 NullActivation
node 37 1 1 1 NullActivation
node 38 1 1 1 NullActivation
node 39 1 1 1 NullActivation
node 40 1 1 1 NullActivation
node 41 1 1 1 NullActivation
node 42 1 1 1 NullActivation
node 43 1 1 1 NullActivation
node 44 1 1 1 NullActivation
node 45 1 1 1 NullActivation
node 46 1 1 1 NullActivation
node 47 1 1 1 NullActivation
node 48 1 1 1 NullActivation
node 49 1 1 1 NullActivation
node 50 1 1 1 NullActivation
node 51 1 1 1 NullActivation
node 52 1 1 1 NullActivation
node 53 1 1 1 NullActivation
node 54 1 1 1 NullActivation
node 55 1 1 1 NullActivation
node 56 1 0 2 SigmoidSteepenedActivation
gene 1 1 56 0.8452483206465917 false 1 0.8452483206465917 true
gene 14 51 56 -8.145546619670036 false 118 -8.145546619670036 true
gene 3 31 56 0.07717162935731997 false 285 0.07717162935731997 true
gene 7 38 56 3.290069112366283 false 361 3.290069112366283 true
gene 2 8 56 8.910868607259541 false 427 8.910868607259541 true
gene 3 55 56 8.412272001235367 false 750 8.412272001235367 true
gene 12 18 56 7.9161550222116635 false 814 7.9161550222116635 true
gene 11 50 56 2.2964029063457208 false 876 2.2964029063457208 true
gene 2 10 56 5.210829881715615 false 988 5.210829881715615 true
gene 11 37 56 0.3896718688628436 false 1088 0.3896718688628436 true
gene 8 33 56 -5.878990316191059 false 1321 0 true
genomeend 203
/* Organism #126 Fitness: 14.000 Error: 0.000 */
genomestart 126
trait 1 0.05 7.289401137028896e-05 0.13996708951147688 0 6.12307511616541e-05 0.2976573138120754 0 0.09722570358140283
trait 2 0.2 0 0 0 0 0 0 0
trait 3 0.2934814453125 0.01345912916983127 0.0006293783693462565 0 0 0 0 0
trait 4 0.41364459249257757 0 0 0 0 0.012737410990241428 0.011400291307361773 0
trait 5 0.5 0.006443541913321324 0 0.010317280268517675 0.008843910869599078 0 0 0.030962341276726736
trait 6 0.6 0.017539747168173178 0 0.0323048834089817 0 0 0 0
trait 7 0.7 0 0 0 0 0 0 0
trait 8 0.8 0.002209885881247565 0 0 0.0022091247268097745 0.017339271639686106 0.006158273682922372 0
trait 9 0.9 0 0 0 0 0 0 0
trait 10 1 0 0 0 0 0 0 0
trait 11 1.1 0 0 0 0 0 0 0
trait 12 1.2 0 0 0 0 0 0 0
trait 13 1.3 0 0.055940516578078456 0 0.03317173246930891 0.0431387566169962 0 0
trait 14 1.4 0 0 0 0 0 0 0
trait 15 1.5 0 0 0 0 0 0 0
node 1 1 1 3 NullActivation
node 2 1 1 1 NullActivation
node 3 1 1 1 NullActivation
node 4 1 1 1 NullActivation
node 5 1 1 1 NullActivation
node 6 1 1 1 NullActivation
node 7 1 1 1 NullActivation
node 8 1 1 1 NullActivation
node 9 1 1 1 NullActivation
node 10 1 1 1 NullActivation
node 11 1 1 1 NullActivation
node 12 1 1 1 NullActivation
node 13 1 1 1 NullActivation
node 14 1 1 1 NullActivation
node 15 1 1 1 NullActivation
node 16 1 1 1 NullActivation
node 17 1 1 1 NullActivation
node 18 1 1 1 NullActivation
node 19 1 1 1 NullActivation
node 20 1 1 1 NullActivation
node 21 1 1 1 NullActivation
node 22 1 1 1 NullActivation
node 23 1 1 1 NullActivation
node 24 1 1 1 NullActivation
node 25 1 1 1 NullActivation
node 26 1 1 1 NullActivation
node 27 1 1 1 NullActivation
node 28 1 1 1 NullActivation
node 29 1 1 1 NullActivation
node 30 1 1 1 NullActivation
node 31 1 1 1 NullActivation
node 32 1 1 1 NullActivation
node 33 1 1 1 NullActivation
node 34 1 1 1 NullActivation
node 35 1 1 1 NullActivation
node 36 1 1 1 NullActivation
node 37 1 1 1 NullActivation
node 38 1 1 1 NullActivation
node 39 1 1 1 NullActivation
node 40 1 1 1 NullActivation
node 41 1 1 1 NullActivation
node 42 1 1 1 NullActivation
node 43 1 1 1 NullActivation
node 44 1 1 1 NullActivation
node 45 1 1 1 NullActivation
node 46 1 1 1 NullActivation
node 47 1 1 1 NullActivation
node 48 1 1 1 NullActivation
node 49 1 1 1 NullActivation
node 50 1 1 1 NullActivation
node 51 1 1 1 NullActivation
node 52 1 1 1 NullActivation
node 53 1 1 1 NullActivation
node 54 1 1 1 NullActivation
node 55 1 1 1 NullActivation
node 56 1 0 2 SigmoidSteepenedActivation
node 109 1 0 0 SigmoidSteepenedActivation
gene 1 1 56 0.6682871619720158 false 1 0.6682871619720158 true
gene 14 51 56 -8.37951359672686 false 118 -8.37951359672686 false
gene 3 31 56 0.27426839881432 false 285 0.27426839881432 true
gene 7 38 56 4.539927729693461 false 361 4.539927729693461 true
gene 2 8 56 8.360686726983243 false 427 8.360686726983243 true
gene 3 55 56 6.246426338452514 false 750 6.246426338452514 true
gene 12 18 56 5.460736934608757 false 814 5.460736934608757 true
gene 11 50 56 6.181024091334672 false 876 6.181024091334672 true
gene 2 10 56 5.150284321474705 false 988 5.150284321474705 true
gene 14 51 109 1 false 1310 0 true
gene 14 109 56 -8.37951359672686 false 1311 0 true
genomeend 126
/* Organism #13 Fitness: 14.000 Error: 0.000 */
genomestart 13
trait 1 0.1 0.00013584793028099306 0.033670511352308474 0 0.0001141118544376281 0 0.04623817760551626 0
trait 2 0.2 0 0 0 0 0 0 0
trait 3 0.288922119140625 0.022872958280190786 0.0010695896445350704 0 0 0 0 0
trait 4 0.4102334443694332 0 0 0 0 0.009553058242681071 0.00855021848052133 0
trait 5 0.49281559006758036 0.009665312869981985 0.0077632250777171525 0.015475920402776514 0.026249994833794785 0 0.007530329308766614 0.04644351191509011
trait 6 0.6 0.03800278553104189 0 0.06999391405279369 0 0 0 0
trait 7 0.7 0 0 0 0 0 0 0
trait 8 0.8 0.0077346005843664765 0 0 0.007731936543834212 0.021677434308875244 0.006283719998685605 0
trait 9 0.9 0 0 0 0 0 0 0
trait 10 1 0 0 0 0 0 0 0
trait 11 1.1 0 0 0 0 0 0 0
trait 12 1.2 0 0 0 0 0 0 0
trait 13 1.3 0 0.03757495212919733 0 0.022281279041053096 0.028976076982312443 0 0
trait 14 1.4 0 0 0 0 0 0 0
trait 15 1.5 0 0 0 0 0 0 0
node 1 1 1 3 NullActivation
node 2 1 1 1 NullActivation
node 3 1 1 1 NullActivation
node 4 1 1 1 NullActivation
node 5 1 1 1 NullActivation
node 6 1 1 1 NullActivation
node 7 1 1 1 NullActivation
node 8 1 1 1 NullActivation
