/* Species #1 : (Size 1) (AF 2.000) (Age 100)  */
/* Organism #0 Fitness: 2.000 Error: 0.000 */
genomestart 0
trait 1 0.09319894282089079 0.00010388934918559783 0.020683321930074557 0.00018017169475865205 8.72667420649362e-05 0.04019281736201405 0.0024491925734935116 0.01312843584084682
trait 2 0.19980275670914127 0.00014382720035320575 0 0.00033803234207800844 0 0 0 0.0002074801565100068
trait 3 0.28813722199547975 0.02449356784289007 0.0011453728984921626 0 0 0 0 0
trait 4 1.1376779175605933 0.3509220646641377 0 0 0.4186872448604293 0.9617195485840095 0.0033195056709149832 0
trait 5 0.49677513001471285 0.015217309770485271 0.003701030006440745 0.025020687989594857 0.026723066040632307 0 0.004118728314631613 0.07312182410940073
trait 6 0.6 0.051709323886018496 0 0.09523875477100643 0 0 0 0
trait 7 0.7 0 0.08554437525332984 0.007492819769346285 0 0.08160881812858953 0 0.039917970913562015
trait 8 0.7999688953049002 0.002074915283143342 0 0 0.0020742006168389853 0.02070210095293686 0.006822788898394107 0
trait 9 0.9116980412883673 0 0 0.013242644243636897 0.03560895191154823 0 0 0
trait 10 1 0 0 0 0 0 0 0
trait 11 1.1 5.060907033945757e-05 0.00033376303666155394 0.00018530854946248023 0.00032640227557092816 0 0 4.756313265002167e-05
trait 12 1.2 0 0 0.02667162198298667 0.014820979384566816 0.016144573431687875 0 0
trait 13 1.2870834586172553 0 0.04184234532933953 0.038098557868191524 0.010831774345166337 0.032266894584845975 0 0
trait 14 1.4 0 0 0 0 0 0 0
trait 15 1.5021492214932852 0.0007114706283590744 0.0002828655930737782 7.71645976360236e-05 0 0 0 0
node 1 1 1 3 NullActivation
node 2 1 1 1 NullActivation
node 3 1 1 1 NullActivation
node 4 1 1 1 NullActivation
node 5 1 1 1 NullActivation
node 6 1 1 1 NullActivation
node 7 1 1 1 NullActivation
node 8 1 1 1 NullActivation
node 9 1 1 1 NullActivation
node 10 1 1 1 NullActivation
node 11 1 1 1 NullActivation
node 12 1 1 1 NullActivation
node 13 1 1 1 NullActivation
node 14 1 1 1 NullActivation
node 15 1 1 1 NullActivation
node 16 1 1 1 NullActivation
node 17 1 1 1 NullActivation
node 18 1 1 1 NullActivation
node 19 1 1 1 NullActivation
node 20 1 1 1 NullActivation
node 21 1 1 1 NullActivation
node 22 1 1 1 NullActivation
node 23 5 1 1 NullActivation
node 24 1 1 1 NullActivation
node 25 1 1 1 NullActivation
node 26 1 1 1 NullActivation
node 27 1 1 1 NullActivation
node 28 1 1 1 NullActivation
node 29 1 1 1 NullActivation
node 30 1 1 1 NullActivation
node 31 6 1 1 NullActivation
node 32 1 1 1 NullActivation
node 33 1 1 1 NullActivation
node 34 1 1 1 NullActivation
node 35 1 1 1 NullActivation
node 36 1 1 1 NullActivation
node 37 1 1 1 NullActivation
node 38 1 1 1 NullActivation
node 39 1 1 1 NullActivation
node 40 1 1 1 NullActivation
node 41 1 1 1 NullActivation
node 42 1 1 1 NullActivation
node 43 1 1 1 NullActivation
node 44 1 1 1 NullActivation
node 45 1 1 1 NullActivation
node 46 1 1 1 NullActivation
node 47 1 1 1 NullActivation
node 48 1 1 1 NullActivation
node 49 1 1 1 NullActivation
node 50 1 1 1 NullActivation
node 51 1 1 1 NullActivation
node 52 1 1 1 NullActivation
node 53 1 1 1 NullActivation
node 54 1 1 1 NullActivation
node 55 1 1 1 NullActivation
node 56 1 0 2 SigmoidSteepenedActivation
node 294 1 0 0 SigmoidSteepenedActivation
node 329 1 0 0 SigmoidSteepenedActivation
node 528 1 0 0 SigmoidSteepenedActivation
gene 1 1 56 0.0773014984927154 false 1 0.0773014984927154 true
gene 14 51 56 -15.043530880500771 false 118 -15.043530880500771 true
gene 3 31 56 2.9314624614063796 false 285 2.9314624614063796 true
gene 7 38 56 -1.862486146902354 false 361 -1.862486146902354 true
gene 2 8 56 8.28603248674014 false 427 8.28603248674014 true
gene 3 55 56 1.9161979308941013 false 750 1.9161979308941013 true
gene 12 18 56 6.95440642459005 false 814 6.95440642459005 true
gene 11 50 56 1.6536453027925557 false 876 1.6536453027925557 true
gene 2 10 56 -2.3319432005008918 false 988 -2.3319432005008918 true
gene 11 37 56 0.7157982857021186 false 1088 0.7157982857021186 true
gene 15 2 56 -2.104401754720196 false 1296 -2.104401754720196 true
gene 14 52 56 0.545807462624972 false 1358 0.545807462624972 true
gene 13 45 56 0.02626766553929949 false 1597 0.02626766553929949 true
gene 10 54 56 3.776249591382448 false 1635 3.776249591382448 true
gene 3 9 56 7.860103100348578 false 1716 7.860103100348578 true
gene 2 4 56 2.6632473672045327 false 1837 2.6632473672045327 true
gene 8 14 56 0.6107214228211156 false 1926 0.6107214228211156 true
gene 9 20 56 -2.098031338742671 false 2182 -2.098031338742671 true
gene 4 12 56 0.8965501843279309 false 2320 0.8965501843279309 true
gene 10 11 56 1.6147869650232711 false 2446 1.6147869650232711 true
gene 14 39 56 -0.503435914014015 false 3269 -0.503435914014015 true
gene 3 36 56 -6.826666907332502 false 3381 -6.826666907332502 true
gene 6 16 56 0.8191786733457594 false 3756 0.8191786733457594 true
gene 3 42 56 -8.333877842600911 false 4028 -8.333877842600911 true
gene 14 28 56 -2.4917351173019773 false 4422 -2.4917351173019773 true
gene 12 53 56 16.334283794830252 false 4988 16.334283794830252 true
gene 12 22 56 0.1745656267329535 false 5773 0.1745656267329535 true
gene 15 21 56 -11.485048800134953 false 6008 -11.485048800134953 true
gene 13 24 56 0.15251929071536585 false 6191 0.15251929071536585 true
gene 14 26 56 0.030397501401121296 false 6630 0.030397501401121296 true
gene 12 26 294 0.07854640567551652 false 6631 0.07854640567551652 true
gene 15 2 329 -1.1654742381192873 false 7671 -1.1654742381192873 true
gene 15 329 56 -2.9908991178119253 false 7672 -2.9908991178119253 true
gene 7 7 56 1.4023048671010798 false 7881 1.4023048671010798 true
gene 5 7 294 2.5662118864794574 false 7882 2.5662118864794574 true
gene 1 7 329 2.351442228017424 false 7883 2.351442228017424 true
gene 7 13 294 -1.434080984655313 false 8124 -1.434080984655313 true
gene 4 47 56 5.753899126015387 false 8836 5.753899126015387 true
gene 1 47 294 1.7130605559402783 false 8837 1.7130605559402783 true
gene 15 47 329 -0.6742725588537946 false 8838 -0.6742725588537946 true
gene 10 27 56 -0.9399837309797798 false 9055 -0.9399837309797798 true
gene 1 44 56 3.177480603360345 false 9516 3.177480603360345 true
gene 10 44 294 -0.9708305162287063 false 9517 -0.9708305162287063 true
gene 12 44 329 8.325252111264355 false 9518 8.325252111264355 true
gene 1 25 56 -1.493931096814298 false 10782 -1.493931096814298 true
gene 1 25 294 0.3503815376269721 false 10783 0.3503815376269721 true
gene 8 25 329 -0.16925066279708176 false 10784 -0.16925066279708176 true
gene 12 15 56 -3.288307937626207 false 11634 -3.288307937626207 true
gene 11 15 294 1.0576939027962822 false 11635 1.0576939027962822 true
gene 2 15 329 -1.9592688682144213 false 11636 -1.9592688682144213 true
gene 9 6 56 -9.885204881475362 false 11893 -9.885204881475362 true
gene 14 6 294 -7.446033864785379 false 11894 -7.446033864785379 true
gene 7 6 329 2.292341565914054 false 11895 2.292341565914054 true
gene 10 19 56 0.21345641333173426 false 12178 0.21345641333173426 true
gene 1 19 294 2.3407541843420434 false 12179 2.3407541843420434 true
gene 2 19 329 2.308627051198467 false 12180 2.308627051198467 true
gene 4 30 56 -1.352797572450592 false 12497 -1.352797572450592 true
gene 13 30 294 1.4799359145913018 false 12498 1.4799359145913018 true
gene 5 30 329 -1.4013140654411993 false 12499 -1.4013140654411993 true
gene 6 3 56 2.48453511308397 false 12833 2.48453511308397 true
gene 6 3 294 0.6849570268391753 false 12834 0.6849570268391753 true
gene 9 3 329 -0.4135754453704926 false 12835 -0.4135754453704926 true
gene 12 9 294 5.21640021562161 false 13178 5.21640021562161 true
gene 8 48 56 0.763226353321448 false 14070 0.763226353321448 true
gene 14 48 294 2.1966208670060117 false 14071 2.1966208670060117 true
gene 3 48 329 -2.656534808798555 false 14072 -2.656534808798555 true
gene 11 16 294 -5.991600992251604 false 15675 -5.991600992251604 true
gene 13 45 528 0.28297384013479965 false 17053 0.28297384013479965 true
gene 13 528 56 5.423019606167719 false 17054 5.423019606167719 true
gene 4 17 56 1.1014291043620037 false 17376 1.1014291043620037 true
gene 4 17 294 4.833014679273872 false 17377 4.833014679273872 true
gene 6 17 329 -6.7255857355475674 false 17378 -6.7255857355475674 true
gene 12 17 528 8.276882851341076 false 17379 8.276882851341076 true
gene 15 34 56 -0.989371264845662 false 17743 -0.989371264845662 true
gene 11 34 294 0.24690734182013685 false 17744 0.24690734182013685 true
gene 4 34 329 0.2181666682038802 false 17745 0.2181666682038802 true
gene 15 34 528 3.7378323883344535 false 17746 3.7378323883344535 true
gene 5 33 56 1.73266410472356 false 18062 1.73266410472356 true
gene 5 33 294 9.821369329644785 false 18063 9.821369329644785 true
gene 6 33 329 -1.5197469205149543 false 18064 -1.5197469205149543 true
gene 1 33 528 -0.4291458786618129 false 18065 -0.4291458786618129 true
gene 13 35 56 -1.0608692630179215 false 18382 -1.0608692630179215 true
gene 11 35 294 -1.4876897474339288 false 18383 -1.4876897474339288 true
gene 2 35 329 6.02352479468001 false 18384 6.02352479468001 true
gene 15 35 528 -6.639201015694834 false 18385 -6.639201015694834 true
gene 3 40 56 2.238362632431807 false 18755 2.238362632431807 true
gene 2 40 294 -3.2247084166244697 false 18756 -3.2247084166244697 true
gene 9 40 329 -0.79778949111138 false 18757 -0.79778949111138 true
gene 6 40 528 3.4921202102146958 false 18758 3.4921202102146958 true
genomeend 0
/* Species #2 : (Size 2) (AF 5.000) (Age 75)  */
/* Organism #2 Fitness: 8.000 Error: 0.000 */
genomestart 2
trait 1 0.09336090087890626 0.00010414770703016204 0.020028417096590884 0.0002608670283130974 8.748376188033385e-05 0.03909659053488686 0.0022577235158943486 0.012770368292674493
trait 2 0.19979095458984375 0.3085226038070512 0 0.26329490437232006 0.07458900766670552 0 0 0.28433339643171107
trait 3 0.28838092088699335 0.023990392673444036 0.0011218433250966319 0 0 0 0 0
trait 4 0.33602800764546953 0.11559137280316792 0 0 0 0.21125862898417205 0.002989236539088512 0.13698451398823586
trait 5 0.49590264121041694 0.01524677935154059 0.004726575822680374 0.025088432227065104 0.028343683758001878 0 0.005315775609702939 0.07326343057959853
trait 6 0.6 0.049935751540638874 0 0.091972171319972 0 0 0 0
trait 7 0.7 0 0 0.006920414657810611 0 0 0 0
trait 8 0.7999624794936288 0.0023123952360905916 0 0 0.00231159877419597 0.020516609028841767 0.006740378444313767 0
trait 9 0.9068950018818457 0 0 0.007805414148374261 0.020988453057079522 0 0 0
trait 10 1 0 0 0 0 0 0 0
trait 11 1.1 5.364721754972547e-05 0.00017689969522992127 0.06369649492708578 0.4414053761417169 0 0 5.0418427122000993e-05
trait 12 1.2 0 0 0.014812718978778418 0.027705573625438434 0.03017983199738452 0 0
trait 13 1.3 0 0.042741115413220315 0 0.025344722084364786 0.03295998478627546 0 0
trait 14 1.4 0 0 0 0 0 0 0
trait 15 1.5014095198308204 0.0004666024245762319 0.00018551120214453377 5.184129486814643e-05 0 0 0 0
node 1 1 1 3 NullActivation
node 2 1 1 1 NullActivation
node 3 1 1 1 NullActivation
node 4 1 1 1 NullActivation
node 5 1 1 1 NullActivation
node 6 1 1 1 NullActivation
node 7 1 1 1 NullActivation
node 8 1 1 1 NullActivation
node 9 1 1 1 NullActivation
node 10 1 1 1 NullActivation
node 11 1 1 1 NullActivation
node 12 1 1 1 NullActivation
node 13 1 1 1 NullActivation
node 14 1 1 1 NullActivation
node 15 1 1 1 NullActivation
node 16 1 1 1 NullActivation
node 17 1 1 1 NullActivation
node 18 1 1 1 NullActivation
node 19 1 1 1 NullActivation
node 20 1 1 1 NullActivation
node 21 1 1 1 NullActivation
node 22 1 1 1 NullActivation
node 23 1 1 1 NullActivation
node 24 1 1 1 NullActivation
node 25 1 1 1 NullActivation
node 26 1 1 1 NullActivation
node 27 1 1 1 NullActivation
node 28 1 1 1 NullActivation
node 29 1 1 1 NullActivation
node 30 1 1 1 NullActivation
node 31 1 1 1 NullActivation
node 32 1 1 1 NullActivation
node 33 1 1 1 NullActivation
node 34 1 1 1 NullActivation
node 35 1 1 1 NullActivation
node 36 1 1 1 NullActivation
node 37 1 1 1 NullActivation
node 38 1 1 1 NullActivation
node 39 1 1 1 NullActivation
node 40 1 1 1 NullActivation
node 41 1 1 1 NullActivation
node 42 1 1 1 NullActivation
node 43 1 1 1 NullActivation
node 44 1 1 1 NullActivation
node 45 1 1 1 NullActivation
node 46 1 1 1 NullActivation
node 47 1 1 1 NullActivation
node 48 1 1 1 NullActivation
node 49 1 1 1 NullActivation
node 50 1 1 1 NullActivation
node 51 1 1 1 NullActivation
node 52 1 1 1 NullActivation
node 53 1 1 1 NullActivation
node 54 1 1 1 NullActivation
node 55 1 1 1 NullActivation
node 56 1 0 2 SigmoidSteepenedActivation
node 114 1 0 0 SigmoidSteepenedActivation
node 523 1 0 0 SigmoidSteepenedActivation
gene 1 1 56 7.400874195642007 false 1 7.400874195642007 true
gene 14 51 56 -17.433088434837757 false 118 -17.433088434837757 true
gene 3 31 56 3.6108545822917915 false 285 3.6108545822917915 true
gene 7 38 56 0.03472282237066038 false 361 0.03472282237066038 true
gene 2 8 56 7.581376600858638 false 427 7.581376600858638 true
gene 3 55 56 8.456658177528697 false 750 8.456658177528697 true
gene 11 50 56 2.351767146738891 false 876 2.351767146738891 true
gene 2 10 56 0.21576042007396534 false 988 0.21576042007396534 true
gene 4 11 56 -5.481011522507243 false 1157 -5.481011522507243 true
gene 14 45 56 0.6978780396527605 false 1204 0.6978780396527605 true
gene 12 53 56 -4.302790696162949 false 1299 -4.302790696162949 true
gene 14 52 56 5.637749863551882 false 1358 5.637749863551882 true
gene 5 2 56 4.613305632148284 false 1375 4.613305632148284 true
gene 14 51 114 0.8079069502845208 false 1491 0.8079069502845208 true
gene 14 114 56 -13.070317787321509 false 1492 -13.070317787321509 true
gene 1 47 56 -6.042249749633994 false 1623 -6.042249749633994 true
gene 7 47 114 -1.8771838951657975 false 1631 -1.8771838951657975 true
gene 3 24 114 1.9796399119571264 false 1690 1.9796399119571264 true
gene 13 26 56 5.387524249101743 false 1754 5.387524249101743 true
gene 14 26 114 -4.286553160678237 false 1776 -4.286553160678237 true
gene 10 19 56 -12.517080487020333 false 1781 -12.517080487020333 true
gene 11 36 56 -1.5970035092896306 false 1955 -1.5970035092896306 true
gene 5 36 114 -2.151226166159353 false 1956 -2.151226166159353 true
gene 14 25 56 -2.3985885323459515 false 2171 -2.3985885323459515 true
gene 8 25 114 7.847820526501832 false 2172 7.847820526501832 true
gene 10 5 56 2.574473205601126 false 2419 2.574473205601126 true
gene 10 5 114 4.849409539832507 false 2420 4.849409539832507 true
gene 12 33 56 4.259653775793924 false 2476 4.259653775793924 true
gene 1 33 114 -0.8584595435356382 false 2477 -0.8584595435356382 true
gene 4 21 56 -1.7697752153921815 false 4438 -1.7697752153921815 true
gene 7 21 114 2.1746774397477777 false 4439 2.1746774397477777 true
gene 3 39 56 -5.68186354945988 false 4640 -5.68186354945988 true
gene 9 39 114 6.661117336236298 false 4641 6.661117336236298 true
gene 14 32 56 -0.288933347234416 false 4841 -0.288933347234416 true
gene 14 32 114 3.897893475392749 false 4842 3.897893475392749 true
gene 4 12 56 -1.29929509303988 false 5393 -1.29929509303988 true
gene 1 12 114 -1.7750637066538695 false 5394 -1.7750637066538695 true
gene 3 17 56 0.9958752156611398 false 5556 0.9958752156611398 true
gene 7 9 56 2.2288059583264186 false 5964 2.2288059583264186 true
gene 2 9 114 -1.8903736167831877 false 6016 -1.8903736167831877 true
gene 9 23 56 0.008806725780859281 false 6641 0.008806725780859281 true
gene 4 23 114 6.434887690474504 false 6642 6.434887690474504 true
gene 6 18 56 -3.768943174592986 false 6852 -3.768943174592986 true
gene 5 18 114 0.16929710035105927 false 6853 0.16929710035105927 true
gene 11 54 56 -1.7351224161075773 false 7045 -1.7351224161075773 true
gene 8 54 114 3.630021943663597 false 7047 3.630021943663597 true
gene 13 27 56 2.682320299034287 false 7894 2.682320299034287 true
gene 2 27 114 8.129025102357426 false 7895 8.129025102357426 true
gene 11 49 56 2.741622754375908 false 8150 2.741622754375908 true
gene 5 49 114 7.868744746278277 false 8151 7.868744746278277 true
gene 1 15 56 0.2511887722079318 false 8855 0.2511887722079318 true
gene 14 15 114 0.6567958662314815 false 8856 0.6567958662314815 true
gene 10 13 56 -2.0022471974795764 false 10002 -2.0022471974795764 true
gene 12 13 114 -0.5801982171481084 false 10003 -0.5801982171481084 true
gene 12 4 56 -6.080874888030976 false 10549 -6.080874888030976 true
gene 2 4 114 3.361536633143927 false 10550 3.361536633143927 true
gene 15 48 56 3.625909172616698 false 10779 3.625909172616698 true
gene 2 48 114 -5.476781853176902 false 10792 -5.476781853176902 true
gene 4 44 114 -11.651471855708843 false 11336 -11.651471855708843 true
gene 3 35 56 -3.760011372543662 false 12519 -3.760011372543662 true
gene 6 35 114 1.7483036201636097 false 12520 1.7483036201636097 true
gene 7 14 56 -1.580300211724658 false 12845 -1.580300211724658 true
gene 15 14 114 2.4021201892173636 false 12846 2.4021201892173636 true
gene 11 22 56 -0.3440019027825082 false 13782 -0.3440019027825082 true
gene 2 3 56 1.5874884119385313 false 15340 1.5874884119385313 true
gene 5 3 114 6.607150530240312 false 15341 6.607150530240312 true
gene 6 35 523 2.537662338930544 false 16700 2.537662338930544 true
gene 6 523 114 4.302953868251726 false 16701 4.302953868251726 true
gene 7 15 523 -4.901213977518496 false 17380 -4.901213977518496 true
gene 8 7 56 8.470146535676802 false 18071 8.470146535676802 true
gene 6 43 56 0.6446131532713897 false 18389 0.6446131532713897 true
gene 9 43 114 0.9231551676472688 false 18390 0.9231551676472688 true
gene 11 43 523 1.7085311878187786 false 18391 1.7085311878187786 true
gene 11 46 56 2.350338948945021 false 19428 2.350338948945021 true
gene 10 46 114 5.885325105943275 false 19429 5.885325105943275 true
gene 4 46 523 -9.47544394659115 false 19430 -9.47544394659115 true
genomeend 2
/* Organism #1 Fitness: 2.000 Error: 0.000 */
genomestart 1
trait 1 0.09336090087890626 0.00010414770703016204 0.020028417096590884 0.0002608670283130974 8.748376188033385e-05 0.03909659053488686 0.0022577235158943486 0.012770368292674493
trait 2 0.19979095458984375 0.3085226038070512 0 0.26329490437232006 0.07458900766670552 0 0 0.28433339643171107
trait 3 0.28838092088699335 0.023990392673444036 0.0011218433250966319 0 0 0 0 0
trait 4 0.33602800764546953 0.11559137280316792 0 0 0 0.21125862898417205 0.002989236539088512 0.13698451398823586
trait 5 0.49590264121041694 0.01524677935154059 0.004726575822680374 0.025088432227065104 0.028343683758001878 0 0.005315775609702939 0.07326343057959853
trait 6 0.6 0.049935751540638874 0 0.091972171319972 0 0 0 0
trait 7 0.7 0 0 0.006920414657810611 0 0 0 0
trait 8 0.7999624794936288 0.0023123952360905916 0 0 0.00231159877419597 0.020516609028841767 0.006740378444313767 0
trait 9 0.9068950018818457 0 0 0.007805414148374261 0.020988453057079522 0 0 0
trait 10 1 0 0 0 0 0 0 0
trait 11 1.1 5.364721754972547e-05 0.00017689969522992127 0.06369649492708578 0.4414053761417169 0 0 5.0418427122000993e-05
trait 12 1.2 0 0 0.014812718978778418 0.027705573625438434 0.03017983199738452 0 0
trait 13 1.3 0 0.042741115413220315 0 0.025344722084364786 0.03295998478627546 0 0
trait 14 1.4 0 0 0 0 0 0 0
trait 15 1.5014095198308204 0.0004666024245762319 0.00018551120214453377 5.184129486814643e-05 0 0 0 0
node 1 1 1 3 NullActivation
node 2 1 1 1 NullActivation
node 3 1 1 1 NullActivation
node 4 1 1 1 NullActivation
node 5 1 1 1 NullActivation
node 6 1 1 1 NullActivation
node 7 1 1 1 NullActivation
node 8 1 1 1 NullActivation
node 9 1 1 1 NullActivation
node 10 1 1 1 NullActivation
node 11 1 1 1 NullActivation
node 12 1 1 1 NullActivation
node 13 1 1 1 NullActivation
node 14 1 1 1 NullActivation
node 15 1 1 1 NullActivation
node 16 1 1 1 NullActivation
node 17 1 1 1 NullActivation
node 18 1 1 1 NullActivation
node 19 1 1 1 NullActivation
node 20 1 1 1 NullActivation
node 21 1 1 1 NullActivation
node 22 1 1 1 NullActivation
node 23 1 1 1 NullActivation
node 24 1 1 1 NullActivation
node 25 1 1 1 NullActivation
node 26 1 1 1 NullActivation
node 27 1 1 1 NullActivation
node 28 1 1 1 NullActivation
node 29 1 1 1 NullActivation
node 30 1 1 1 NullActivation
node 31 1 1 1 NullActivation
node 32 1 1 1 NullActivation
node 33 1 1 1 NullActivation
node 34 1 1 1 NullActivation
node 35 1 1 1 NullActivation
node 36 1 1 1 NullActivation
node 37 1 1 1 NullActivation
node 38 1 1 1 NullActivation
node 39 1 1 1 NullActivation
node 40 1 1 1 NullActivation
node 41 1 1 1 NullActivation
node 42 1 1 1 NullActivation
node 43 1 1 1 NullActivation
node 44 1 1 1 NullActivation
node 45 1 1 1 NullActivation
node 46 1 1 1 NullActivation
node 47 1 1 1 NullActivation
node 48 1 1 1 NullActivation
node 49 1 1 1 NullActivation
node 50 1 1 1 NullActivation
node 51 1 1 1 NullActivation
node 52 1 1 1 NullActivation
node 53 1 1 1 NullActivation
node 54 1 1 1 NullActivation
node 55 1 1 1 NullActivation
node 56 1 0 2 SigmoidSteepenedActivation
node 114 1 0 0 SigmoidSteepenedActivation
node 523 1 0 0 SigmoidSteepenedActivation
gene 1 1 56 7.400874195642007 false 1 7.400874195642007 true
gene 14 51 56 -17.433088434837757 false 118 -17.433088434837757 true
gene 3 31 56 3.6108545822917915 false 285 3.6108545822917915 true
gene 7 38 56 0.03472282237066038 false 361 0.03472282237066038 true
gene 2 8 56 7.581376600858638 false 427 7.581376600858638 true
gene 3 55 56 8.456658177528697 false 750 8.456658177528697 true
gene 11 50 56 2.351767146738891 false 876 2.351767146738891 true
gene 2 10 56 0.21576042007396534 false 988 0.21576042007396534 true
gene 4 11 56 -5.481011522507243 false 1157 -5.481011522507243 true
gene 14 45 56 0.6978780396527605 false 1204 0.6978780396527605 true
gene 12 53 56 -4.302790696162949 false 1299 -4.302790696162949 true
gene 14 52 56 5.637749863551882 false 1358 5.637749863551882 true
gene 5 2 56 4.613305632148284 false 1375 4.613305632148284 true
gene 14 51 114 0.8079069502845208 false 1491 0.8079069502845208 true
gene 14 114 56 -13.070317787321509 false 1492 -13.070317787321509 true
gene 1 47 56 -6.042249749633994 false 1623 -6.042249749633994 true
gene 7 47 114 -1.8771838951657975 false 1631 -1.8771838951657975 true
gene 3 24 114 1.9796399119571264 false 1690 1.9796399119571264 true
gene 13 26 56 5.387524249101743 false 1754 5.387524249101743 true
gene 14 26 114 -4.286553160678237 false 1776 -4.286553160678237 true
gene 10 19 56 -12.517080487020333 false 1781 -12.517080487020333 true
gene 11 36 56 -1.5970035092896306 false 1955 -1.5970035092896306 true
gene 5 36 114 -2.151226166159353 false 1956 -2.151226166159353 true
gene 14 25 56 -2.3985885323459515 false 2171 -2.3985885323459515 true
gene 8 25 114 7.847820526501832 false 2172 7.847820526501832 true
gene 10 5 56 2.574473205601126 false 2419 2.574473205601126 true
gene 10 5 114 4.849409539832507 false 2420 4.849409539832507 true
gene 12 33 56 4.259653775793924 false 2476 4.259653775793924 true
gene 1 33 114 -0.8584595435356382 false 2477 -0.8584595435356382 true
gene 4 21 56 -1.7697752153921815 false 4438 -1.7697752153921815 true
gene 7 21 114 2.1746774397477777 false 4439 2.1746774397477777 true
gene 3 39 56 -5.68186354945988 false 4640 -5.68186354945988 true
gene 9 39 114 6.661117336236298 false 4641 6.661117336236298 true
gene 14 32 56 -0.288933347234416 false 4841 -0.288933347234416 true
gene 14 32 114 3.897893475392749 false 4842 3.897893475392749 true
gene 4 12 56 -1.29929509303988 false 5393 -1.29929509303988 true
gene 1 12 114 -1.7750637066538695 false 5394 -1.7750637066538695 true
gene 3 17 56 0.9958752156611398 false 5556 0.9958752156611398 true
gene 7 9 56 2.2288059583264186 false 5964 2.2288059583264186 true
gene 2 9 114 -1.8903736167831877 false 6016 -1.8903736167831877 true
gene 9 23 56 0.008806725780859281 false 6641 0.008806725780859281 true
gene 4 23 114 6.434887690474504 false 6642 6.434887690474504 true
gene 6 18 56 -3.768943174592986 false 6852 -3.768943174592986 true
gene 5 18 114 0.16929710035105927 false 6853 0.16929710035105927 true
gene 11 54 56 -1.7351224161075773 false 7045 -1.7351224161075773 true
gene 8 54 114 3.630021943663597 false 7047 3.630021943663597 true
gene 13 27 56 2.682320299034287 false 7894 2.682320299034287 true
gene 2 27 114 8.129025102357426 false 7895 8.129025102357426 true
gene 11 49 56 2.741622754375908 false 8150 2.741622754375908 true
gene 5 49 114 7.868744746278277 false 8151 7.868744746278277 true
gene 1 15 56 0.2511887722079318 false 8855 0.2511887722079318 true
gene 14 15 114 0.6567958662314815 false 8856 0.6567958662314815 true
gene 10 13 56 -2.0022471974795764 false 10002 -2.0022471974795764 true
gene 12 13 114 -0.5801982171481084 false 10003 -0.5801982171481084 true
gene 12 4 56 -6.080874888030976 false 10549 -6.080874888030976 true
gene 2 4 114 3.361536633143927 false 10550 3.361536633143927 true
gene 15 48 56 3.625909172616698 false 10779 3.625909172616698 true
gene 2 48 114 -5.476781853176902 false 10792 -5.476781853176902 true
gene 4 44 114 -11.651471855708843 false 11336 -11.651471855708843 true
gene 3 35 56 -3.760011372543662 false 12519 -3.760011372543662 true
gene 6 35 114 1.7483036201636097 false 12520 1.7483036201636097 true
gene 7 14 56 -1.580300211724658 false 12845 -1.580300211724658 true
gene 15 14 114 2.4021201892173636 false 12846 2.4021201892173636 true
gene 11 22 56 -0.3440019027825082 false 13782 -0.3440019027825082 true
gene 2 3 56 1.5874884119385313 false 15340 1.5874884119385313 true
gene 5 3 114 6.607150530240312 false 15341 6.607150530240312 true
gene 6 35 523 2.537662338930544 false 16700 2.537662338930544 true
gene 6 523 114 4.302953868251726 false 16701 4.302953868251726 true
gene 7 15 523 -4.901213977518496 false 17380 -4.901213977518496 true
gene 8 7 56 8.470146535676802 false 18071 8.470146535676802 true
gene 6 43 56 0.6446131532713897 false 18389 0.6446131532713897 true
gene 9 43 114 0.9231551676472688 false 18390 0.9231551676472688 true
gene 11 43 523 1.7085311878187786 false 18391 1.7085311878187786 true
gene 8 42 56 0.40717216068085826 false 19425 0.40717216068085826 true
gene 13 42 114 -1.8192258130305596 false 19426 -1.8192258130305596 true
gene 5 42 523 -7.47092599173201 false 19427 -7.47092599173201 true
genomeend 1
/* Species #3 : (Size 2) (AF 5.500) (Age 73)  */
/* Organism #3 Fitness: 7.000 Error: 0.000 */
genomestart 3
trait 1 0.09358010292053223 0.00010397661901297435 0.020641293302323185 0.00013719801821519947 8.734004845847339e-05 0.037994046697486315 0.0038113195102691473 0.012410237379216461
trait 2 0.21793566804754425 0.00014505007048215408 0 0.0003409064135521838 0 0 0.0023072768091157722 9.891254563669403e-05
trait 3 0.2880951745435595 0.024580384954011714 0.0011494326568271646 0 0 0 0 0
trait 4 0.40445568731588216 0 0 0 0 0.004159444162020215 0.0032165952539737934 0.02674930119753416
trait 5 0.4966594949423112 0.01522695790913145 0.003777884546837783 0.025012982872856106 0.026943343521217113 0 0.004075733999409731 0.0731681850961789
trait 6 0.6 0.051938867960319546 0 0.09566153136444411 0 0 0 0
trait 7 0.7 0 0 0.005791522016755255 0 0 0 0
trait 8 0.799973383890793 0.0020912414190715155 0 0 0.002090521129530719 0.020765179179625125 0.006815109294806977 0
trait 9 0.9159626475858353 0 0 0.018070346817460205 0.04859045512433254 0 0 0
trait 10 1 0 0 0 0 0 0 0
trait 11 1.1 5.103936669661382e-05 0.00033660080897915574 0.00018688410880883418 0.0003291774640737721 0 0 4.796753135912594e-05
trait 12 1.0417016170849114 0 0 0 0.01620408388945003 0.4932688730309606 0 0.46405236560230595
trait 13 1.3 0 0.04158713008206831 0 0.024660429285154523 0.032070084310103275 0 0
trait 14 1.4 0 0 0 0 0 0 0
trait 15 1.5024674462663412 0.0008168146238256917 0.0003247481256291308 8.799538826768008e-05 0 0 0 0
node 1 1 1 3 NullActivation
node 2 1 1 1 NullActivation
node 3 1 1 1 NullActivation
node 4 1 1 1 NullActivation
node 5 1 1 1 NullActivation
node 6 1 1 1 NullActivation
node 7 1 1 1 NullActivation
node 8 1 1 1 NullActivation
node 9 1 1 1 NullActivation
node 10 1 1 1 NullActivation
node 11 1 1 1 NullActivation
node 12 1 1 1 NullActivation
node 13 1 1 1 NullActivation
node 14 1 1 1 NullActivation
node 15 1 1 1 NullActivation
node 16 1 1 1 NullActivation
node 17 1 1 1 NullActivation
node 18 1 1 1 NullActivation
node 19 1 1 1 NullActivation
node 20 1 1 1 NullActivation
node 21 1 1 1 NullActivation
node 22 1 1 1 NullActivation
node 23 1 1 1 NullActivation
node 24 1 1 1 NullActivation
node 25 1 1 1 NullActivation
node 26 1 1 1 NullActivation
node 27 1 1 1 NullActivation
node 28 1 1 1 NullActivation
node 29 1 1 1 NullActivation
node 30 1 1 1 NullActivation
node 31 1 1 1 NullActivation
node 32 1 1 1 NullActivation
node 33 1 1 1 NullActivation
node 34 1 1 1 NullActivation
node 35 1 1 1 NullActivation
node 36 1 1 1 NullActivation
node 37 1 1 1 NullActivation
node 38 1 1 1 NullActivation
node 39 1 1 1 NullActivation
node 40 1 1 1 NullActivation
node 41 1 1 1 NullActivation
node 42 1 1 1 NullActivation
node 43 1 1 1 NullActivation
node 44 1 1 1 NullActivation
node 45 1 1 1 NullActivation
node 46 1 1 1 NullActivation
node 47 1 1 1 NullActivation
node 48 1 1 1 NullActivation
node 49 1 1 1 NullActivation
node 50 1 1 1 NullActivation
node 51 1 1 1 NullActivation
node 52 1 1 1 NullActivation
node 53 1 1 1 NullActivation
node 54 1 1 1 NullActivation
node 55 1 1 1 NullActivation
node 56 1 0 2 SigmoidSteepenedActivation
node 109 1 0 0 SigmoidSteepenedActivation
node 130 1 0 0 SigmoidSteepenedActivation
node 186 1 0 0 SigmoidSteepenedActivation
node 400 1 0 0 SigmoidSteepenedActivation
node 440 1 0 0 SigmoidSteepenedActivation
gene 1 1 56 4.5861338236655715 false 1 4.5861338236655715 true
gene 14 51 56 -8.913139687777294 false 118 -8.913139687777294 true
gene 3 31 56 6.421683665653526 false 285 6.421683665653526 true
gene 7 38 56 6.708187820850417 false 361 6.708187820850417 true
gene 2 8 56 3.121255677160514 false 427 3.121255677160514 true
gene 3 55 56 8.075593684720003 false 750 8.075593684720003 true
gene 11 50 56 0.025120065238955158 false 876 0.025120065238955158 true
gene 2 10 56 3.069184078119083 false 988 3.069184078119083 true
gene 5 52 56 9.050981269752077 false 1199 9.050981269752077 true
gene 14 51 109 -1.5433232328818938 false 1310 -1.5433232328818938 true
gene 6 19 56 -3.5645696833158644 false 1344 -3.5645696833158644 true
gene 7 25 56 1.488812924032816 false 1512 1.488812924032816 true
gene 14 51 130 -0.6346578136875493 false 1798 -0.6346578136875493 true
gene 14 130 56 -1.6185993683046023 false 1799 -1.6185993683046023 true
gene 13 29 109 -3.9842071248507254 false 1951 -3.9842071248507254 true
gene 15 39 56 -1.1508390144069633 false 2048 -1.1508390144069633 true
gene 12 39 109 -4.632550556735836 false 2049 -4.632550556735836 true
gene 4 39 130 6.892944291724752 false 2131 6.892944291724752 true
gene 8 23 109 2.535658714684324 false 2313 2.535658714684324 true
gene 8 26 56 -2.3134188594131673 false 2485 -2.3134188594131673 true
gene 2 26 109 -3.603499198587575 false 2486 -3.603499198587575 true
gene 1 26 130 -2.3941755896435333 false 2487 -2.3941755896435333 true
gene 5 15 130 5.140537331672732 false 2696 5.140537331672732 true
gene 13 6 56 -2.631761135998784 false 2756 -2.631761135998784 true
gene 6 6 109 -0.6692605109100136 false 2757 -0.6692605109100136 true
gene 9 6 130 0.05274674464639473 false 2812 0.05274674464639473 true
gene 5 15 186 -4.054013685632819 false 3115 -4.054013685632819 true
gene 5 186 130 4.84659879782341 false 3116 4.84659879782341 true
gene 10 22 56 -2.673698721784121 false 3419 -2.673698721784121 true
gene 2 22 109 2.2780845451381584 false 3451 2.2780845451381584 true
gene 10 22 130 -1.2224550480053473 false 3452 -1.2224550480053473 true
gene 2 22 186 -1.6081364415937356 false 3493 -1.6081364415937356 true
gene 2 9 56 -0.7267397820701185 false 3721 -0.7267397820701185 true
gene 14 49 56 -7.409420699157987 false 4107 -7.409420699157987 true
gene 5 49 109 -2.533289120913612 false 4108 -2.533289120913612 true
gene 1 49 130 -10.69499081891757 false 4109 -10.69499081891757 true
gene 11 49 186 -3.4816692634859945 false 4110 -3.4816692634859945 true
gene 7 24 56 -0.6371364426460315 false 4242 -0.6371364426460315 true
gene 11 24 109 0.6144024392632081 false 4243 0.6144024392632081 true
gene 2 24 130 6.349820518276785 false 4305 6.349820518276785 true
gene 7 24 186 -2.812353468175785 false 4306 -2.812353468175785 true
gene 3 45 56 1.9695984610288433 false 4454 1.9695984610288433 true
gene 7 45 109 -5.852391458740055 false 4455 -5.852391458740055 true
gene 9 45 130 1.349847290214881 false 4456 1.349847290214881 true
gene 11 45 186 -2.212470100956859 false 4457 -2.212470100956859 true
gene 6 13 56 -9.996096122304385 false 4622 -9.996096122304385 true
gene 10 13 109 0.0769069842278256 false 4623 0.0769069842278256 true
gene 4 13 130 -8.109004905290686 false 4624 -8.109004905290686 true
gene 10 13 186 -3.0190792223879503 false 4644 -3.0190792223879503 true
gene 9 14 56 5.016518926508191 false 5220 5.016518926508191 true
gene 9 14 109 -5.04078113634967 false 5221 -5.04078113634967 true
gene 1 14 130 -0.27569370287804634 false 5222 -0.27569370287804634 true
gene 8 14 186 0.4924554363795901 false 5223 0.4924554363795901 true
gene 2 31 130 1.4748932208827266 false 5820 1.4748932208827266 true
gene 15 44 56 2.6872801101900485 false 6050 2.6872801101900485 true
gene 2 44 109 1.6737191954634656 false 6051 1.6737191954634656 true
gene 15 44 130 -0.4516655536828277 false 6052 -0.4516655536828277 true
gene 13 44 186 2.9408728627756147 false 6053 2.9408728627756147 true
gene 13 33 56 0.41839014303077904 false 6179 0.41839014303077904 true
gene 4 33 109 1.0645212957384778 false 6196 1.0645212957384778 true
gene 1 33 130 -0.6086361575175984 false 6197 -0.6086361575175984 true
gene 15 33 186 1.9367162171039929 false 6198 1.9367162171039929 true
gene 15 4 56 1.8734032506713938 false 6372 1.8734032506713938 true
gene 4 4 109 -4.82616628184487 false 6373 -4.82616628184487 true
gene 1 4 130 -2.06739442717191 false 6575 -2.06739442717191 true
gene 4 4 186 -4.470953016067201 false 6576 -4.470953016067201 true
gene 10 27 56 -1.5722589445517885 false 6879 -1.5722589445517885 true
gene 4 27 109 -2.6997587770324114 false 6880 -2.6997587770324114 true
gene 8 27 130 -0.2582836370359482 false 6881 -0.2582836370359482 true
gene 13 27 186 2.1260268447174218 false 6882 2.1260268447174218 true
gene 2 20 56 -2.5236013727222577 false 7084 -2.5236013727222577 true
gene 10 20 109 -1.2703178040696244 false 7085 -1.2703178040696244 true
gene 3 20 130 1.8188077815509551 false 7231 1.8188077815509551 true
gene 15 20 186 -2.081913804195972 false 7232 -2.081913804195972 true
gene 6 3 56 -7.089936051985585 false 7506 -7.089936051985585 true
gene 2 3 109 -0.15764412087284765 false 7507 -0.15764412087284765 true
gene 1 3 130 0.9524503860875697 false 7508 0.9524503860875697 true
gene 3 3 186 5.972076726297794 false 7509 5.972076726297794 true
gene 6 18 56 9.33755485683815 false 7901 9.33755485683815 true
gene 9 18 109 -0.16306136386195957 false 7902 -0.16306136386195957 true
gene 4 18 130 -0.3597252607690695 false 7903 -0.3597252607690695 true
gene 1 18 186 -1.5449930588226297 false 7904 -1.5449930588226297 true
gene 15 40 56 4.227172016570073 false 8146 4.227172016570073 true
gene 9 40 109 0.5322390838722593 false 8147 0.5322390838722593 true
gene 15 40 130 -4.771500314405464 false 8174 -4.771500314405464 true
gene 15 40 186 3.6861382684799047 false 8175 3.6861382684799047 true
gene 10 11 56 0.3223189371566873 false 9534 0.3223189371566873 true
gene 12 54 56 -1.6945327355807835 false 10032 -1.6945327355807835 true
gene 8 54 109 1.0003080431003277 false 10033 1.0003080431003277 true
gene 1 54 130 -4.11704995348575 false 10034 -4.11704995348575 true
gene 14 54 186 -0.01961509769687786 false 10035 -0.01961509769687786 true
gene 5 186 400 1.4639363612750635 false 10268 1.4639363612750635 true
gene 5 400 130 -1.3387983764489904 false 10269 -1.3387983764489904 true
gene 9 53 56 10.883117828392633 false 10565 10.883117828392633 true
gene 14 53 109 2.1718308437350062 false 10566 2.1718308437350062 true
gene 12 53 130 0.9958593816945451 false 10567 0.9958593816945451 true
gene 13 53 186 -1.7655693748555796 false 10568 -1.7655693748555796 true
gene 9 53 400 -3.5529768733526055 false 10569 -3.5529768733526055 true
gene 4 17 56 1.4809866133909413 false 11605 1.4809866133909413 true
gene 6 17 109 1.092706816553819 false 11606 1.092706816553819 true
gene 5 17 130 1.1358920924624414 false 11607 1.1358920924624414 true
gene 1 17 186 -6.210522380071528 false 11608 -6.210522380071528 true
gene 9 17 400 0.7802729331714781 false 11614 0.7802729331714781 true
gene 4 39 440 -2.2654888342946338 false 12209 -2.2654888342946338 true
gene 4 440 130 -17.536420689774 false 12210 -17.536420689774 true
gene 8 2 56 -2.3027171507050563 false 15350 -2.3027171507050563 true
gene 15 2 109 -6.328228043054139 false 15351 -6.328228043054139 true
gene 8 2 130 0.76810619306637 false 15352 0.76810619306637 true
gene 7 2 186 3.9383805928375866 false 15353 3.9383805928375866 true
gene 7 2 400 1.2280949084218822 false 15354 1.2280949084218822 true
gene 3 2 440 0.44506297105863485 false 15355 0.44506297105863485 true
gene 2 34 56 -4.493991906285966 false 16381 -4.493991906285966 true
gene 14 34 109 1.1154348206194067 false 16401 1.1154348206194067 true
gene 15 34 130 -8.078528234307397 false 16402 -8.078528234307397 true
gene 5 34 186 -2.2468905096879737 false 16403 -2.2468905096879737 true
gene 13 34 400 -4.0453301657098795 false 16404 -4.0453301657098795 true
gene 12 34 440 -6.9321160438883815 false 16405 -6.9321160438883815 true
gene 9 186 56 -2.6534019523684473 false 16722 -2.6534019523684473 true
gene 14 32 56 1.6002901270810548 false 17061 1.6002901270810548 true
gene 15 32 109 -1.7796078726793347 false 17062 -1.7796078726793347 true
gene 9 32 130 7.0421965304080985 false 17063 7.0421965304080985 true
gene 13 32 186 0.783074934051412 false 17064 0.783074934051412 true
gene 11 32 400 2.0127275822993664 false 17065 2.0127275822993664 true
gene 4 32 440 0.545546635013173 false 17066 0.545546635013173 true
gene 9 48 56 -3.810218372805746 false 17395 -3.810218372805746 true
gene 12 48 109 0.15346403235290196 false 17396 0.15346403235290196 true
gene 2 48 130 0.47705292256628307 false 17397 0.47705292256628307 true
gene 12 48 186 -2.3106498470590657 false 17398 -2.3106498470590657 true
gene 10 48 400 7.79312924619 false 17399 7.79312924619 true
gene 6 48 440 3.3181698877741144 false 17400 3.3181698877741144 true
gene 15 37 56 7.67114317479741 false 18400 7.67114317479741 true
gene 10 37 109 9.048425039602249 false 18401 9.048425039602249 true
gene 11 37 130 0.2414544896914678 false 18402 0.2414544896914678 true
gene 14 37 186 1.7206309298504607 false 18403 1.7206309298504607 true
gene 7 37 400 6.419226699942191 false 18404 6.419226699942191 true
gene 5 37 440 0.2963647474392701 false 18405 0.2963647474392701 true
gene 9 43 56 -9.529384290322813 false 18763 -9.529384290322813 true
gene 15 43 109 7.299904265632182 false 18764 7.299904265632182 true
gene 14 43 130 0.09501061596879312 false 18765 0.09501061596879312 true
gene 1 43 186 -7.3435653079394285 false 18766 -7.3435653079394285 true
gene 2 43 400 -0.7907809358668376 false 18767 -0.7907809358668376 true
gene 6 43 440 -4.364802685210056 false 18768 -4.364802685210056 true
gene 2 30 56 2.1256039441736627 false 19119 2.1256039441736627 true
gene 14 30 109 4.328574931952097 false 19133 4.328574931952097 true
gene 5 30 130 -7.93630324242139 false 19134 -7.93630324242139 true
gene 6 30 186 2.252664802163946 false 19135 2.252664802163946 true
gene 15 30 400 2.5000127808723778 false 19136 2.5000127808723778 true
gene 14 30 440 9.238125247140092 false 19137 9.238125247140092 true
genomeend 3
/* Organism #4 Fitness: 4.000 Error: 0.000 */
genomestart 4
trait 1 0.09358010292053223 0.00010397661901297435 0.020641293302323185 0.00013719801821519947 8.734004845847339e-05 0.037994046697486315 0.0038113195102691473 0.012410237379216461
trait 2 0.21793566804754425 0.00014505007048215408 0 0.0003409064135521838 0 0 0.0023072768091157722 9.891254563669403e-05
trait 3 0.2880951745435595 0.024580384954011714 0.0011494326568271646 0 0 0 0 0
trait 4 0.40445568731588216 0 0 0 0 0.004159444162020215 0.0032165952539737934 0.02674930119753416
trait 5 0.4966594949423112 0.01522695790913145 0.003777884546837783 0.025012982872856106 0.026943343521217113 0 0.004075733999409731 0.0731681850961789
trait 6 0.6 0.051938867960319546 0 0.09566153136444411 0 0 0 0
trait 7 0.7 0 0 0.005791522016755255 0 0 0 0
trait 8 0.799973383890793 0.0020912414190715155 0 0 0.002090521129530719 0.020765179179625125 0.006815109294806977 0
trait 9 0.9159626475858353 0 0 0.018070346817460205 0.04859045512433254 0 0 0
trait 10 1 0 0 0 0 0 0 0
trait 11 1.1 5.103936669661382e-05 0.00033660080897915574 0.00018688410880883418 0.0003291774640737721 0 0 4.796753135912594e-05
trait 12 1.0417016170849114 0 0 0 0.01620408388945003 0.4932688730309606 0 0.46405236560230595
trait 13 1.3 0 0.04158713008206831 0 0.024660429285154523 0.032070084310103275 0 0
trait 14 1.4 0 0 0 0 0 0 0
trait 15 1.5024674462663412 0.0008168146238256917 0.0003247481256291308 8.799538826768008e-05 0 0 0 0
node 1 1 1 3 NullActivation
node 2 1 1 1 NullActivation
node 3 1 1 1 NullActivation
node 4 1 1 1 NullActivation
node 5 1 1 1 NullActivation
node 6 1 1 1 NullActivation
node 7 1 1 1 NullActivation
node 8 1 1 1 NullActivation
node 9 1 1 1 NullActivation
node 10 1 1 1 NullActivation
node 11 1 1 1 NullActivation
node 12 1 1 1 NullActivation
node 13 1 1 1 NullActivation
node 14 1 1 1 NullActivation
node 15 1 1 1 NullActivation
node 16 1 1 1 NullActivation
node 17 1 1 1 NullActivation
node 18 1 1 1 NullActivation
node 19 1 1 1 NullActivation
node 20 1 1 1 NullActivation
node 21 1 1 1 NullActivation
node 22 1 1 1 NullActivation
node 23 1 1 1 NullActivation
node 24 1 1 1 NullActivation
node 25 1 1 1 NullActivation
node 26 1 1 1 NullActivation
node 27 1 1 1 NullActivation
node 28 1 1 1 NullActivation
node 29 1 1 1 NullActivation
node 30 1 1 1 NullActivation
node 31 1 1 1 NullActivation
node 32 1 1 1 NullActivation
node 33 1 1 1 NullActivation
node 34 1 1 1 NullActivation
node 35 1 1 1 NullActivation
node 36 1 1 1 NullActivation
node 37 1 1 1 NullActivation
node 38 1 1 1 NullActivation
node 39 1 1 1 NullActivation
node 40 1 1 1 NullActivation
node 41 1 1 1 NullActivation
node 42 1 1 1 NullActivation
node 43 1 1 1 NullActivation
node 44 1 1 1 NullActivation
node 45 1 1 1 NullActivation
node 46 1 1 1 NullActivation
node 47 1 1 1 NullActivation
node 48 1 1 1 NullActivation
node 49 1 1 1 NullActivation
node 50 1 1 1 NullActivation
node 51 1 1 1 NullActivation
node 52 1 1 1 NullActivation
node 53 1 1 1 NullActivation
node 54 1 1 1 NullActivation
node 55 1 1 1 NullActivation
node 56 1 0 2 SigmoidSteepenedActivation
node 109 1 0 0 SigmoidSteepenedActivation
node 130 1 0 0 SigmoidSteepenedActivation
node 186 1 0 0 SigmoidSteepenedActivation
node 400 1 0 0 SigmoidSteepenedActivation
node 440 1 0 0 SigmoidSteepenedActivation
gene 1 1 56 3.294283724031253 false 1 3.294283724031253 true
gene 14 51 56 -8.680411993597248 false 118 -8.680411993597248 true
gene 3 31 56 4.7717613343297325 false 285 4.7717613343297325 true
gene 7 38 56 5.4026369931025755 false 361 5.4026369931025755 true
gene 2 8 56 4.473549560493986 false 427 4.473549560493986 true
gene 3 55 56 8.126439490215835 false 750 8.126439490215835 true
gene 11 50 56 0.1365847096138465 false 876 0.1365847096138465 true
gene 2 10 56 2.737615854035084 false 988 2.737615854035084 true
gene 5 52 56 7.596536646964012 false 1199 7.596536646964012 true
gene 14 51 109 -0.76376253142899 false 1310 -0.76376253142899 true
gene 6 19 56 -2.525944505833448 false 1344 -2.525944505833448 true
gene 7 25 56 1.9224990325449076 false 1512 1.9224990325449076 true
gene 14 51 130 -0.6346578136875493 false 1798 -0.6346578136875493 true
gene 14 130 56 0.5971454146254553 false 1799 0.5971454146254553 true
gene 13 29 109 -2.424797198901798 false 1951 -2.424797198901798 true
gene 15 39 56 -1.4199065574105525 false 2048 -1.4199065574105525 true
gene 12 39 109 -2.181038003259475 false 2049 -2.181038003259475 true
gene 4 39 130 4.704716544602093 false 2131 4.704716544602093 true
gene 8 23 109 2.535658714684324 false 2313 2.535658714684324 true
gene 8 26 56 8.263478624127739 false 2485 8.263478624127739 true
gene 2 26 109 -1.3714987774415317 false 2486 -1.3714987774415317 true
gene 1 26 130 -6.280361269623707 false 2487 -6.280361269623707 true
gene 5 15 130 5.140537331672732 false 2696 5.140537331672732 true
gene 13 6 56 -2.538464247923436 false 2756 -2.538464247923436 true
gene 6 6 109 1.212711879733165 false 2757 1.212711879733165 true
gene 9 6 130 -2.0819904827127713 false 2812 -2.0819904827127713 true
gene 5 15 186 -2.2688543313786695 false 3115 -2.2688543313786695 true
gene 5 186 130 3.534829964675724 false 3116 3.534829964675724 true
gene 10 22 56 -1.8000065863023054 false 3419 -1.8000065863023054 true
gene 2 22 109 1.2207265088506412 false 3451 1.2207265088506412 true
gene 10 22 130 -4.24055637627382 false 3452 -4.24055637627382 true
gene 2 22 186 -0.41961379451143577 false 3493 -0.41961379451143577 true
gene 2 9 56 0.06298953766382231 false 3721 0.06298953766382231 true
gene 14 49 56 -6.1152446525707225 false 4107 -6.1152446525707225 true
gene 5 49 109 -1.7118493473990388 false 4108 -1.7118493473990388 true
gene 1 49 130 -11.037070719684998 false 4109 -11.037070719684998 true
gene 11 49 186 -4.313344751385749 false 4110 -4.313344751385749 true
gene 7 24 56 -1.097363291908094 false 4242 -1.097363291908094 true
gene 11 24 109 2.202459994858039 false 4243 2.202459994858039 true
gene 2 24 130 8.499968749189842 false 4305 8.499968749189842 true
gene 7 24 186 -2.083064504167768 false 4306 -2.083064504167768 true
gene 3 45 56 3.114976190842567 false 4454 3.114976190842567 true
gene 7 45 109 -3.4624411428791366 false 4455 -3.4624411428791366 true
gene 9 45 130 -0.27348716549716867 false 4456 -0.27348716549716867 true
gene 11 45 186 -2.0419663446713954 false 4457 -2.0419663446713954 true
gene 6 13 56 -9.996096122304385 false 4622 -9.996096122304385 true
gene 10 13 109 0.0769069842278256 false 4623 0.0769069842278256 true
gene 4 13 130 -9.70241388644366 false 4624 -9.70241388644366 true
gene 10 13 186 -3.982233782628413 false 4644 -3.982233782628413 true
gene 9 14 56 6.1767763453429305 false 5220 6.1767763453429305 true
gene 9 14 109 -6.360954994650681 false 5221 -6.360954994650681 true
gene 1 14 130 0.2493692637213476 false 5222 0.2493692637213476 true
gene 8 14 186 -1.504343780688425 false 5223 -1.504343780688425 true
gene 2 31 130 1.7228321562387272 false 5820 1.7228321562387272 true
gene 15 44 56 0.2328194487871058 false 6050 0.2328194487871058 true
gene 2 44 109 3.431716126409061 false 6051 3.431716126409061 true
gene 15 44 130 1.5255910512286521 false 6052 1.5255910512286521 true
gene 13 44 186 1.8551646021815456 false 6053 1.8551646021815456 true
gene 13 33 56 0.41839014303077904 false 6179 0.41839014303077904 true
gene 4 33 109 1.2784720429236665 false 6196 1.2784720429236665 true
gene 1 33 130 0.29954725024377105 false 6197 0.29954725024377105 true
gene 15 33 186 0.4285770484494189 false 6198 0.4285770484494189 true
gene 15 4 56 0.5947384066338062 false 6372 0.5947384066338062 true
gene 4 4 109 -2.3324103734830204 false 6373 -2.3324103734830204 true
gene 1 4 130 -0.8300531061780729 false 6575 -0.8300531061780729 true
gene 4 4 186 -5.503036738355681 false 6576 -5.503036738355681 true
gene 10 27 56 5.276830163403802 false 6879 5.276830163403802 true
gene 4 27 109 -2.535910582347146 false 6880 -2.535910582347146 true
gene 8 27 130 10.318877673838074 false 6881 10.318877673838074 true
gene 13 27 186 0.6341757377595547 false 6882 0.6341757377595547 true
gene 2 20 56 -1.4165324449767343 false 7084 -1.4165324449767343 true
gene 10 20 109 0.46828483688730005 false 7085 0.46828483688730005 true
gene 3 20 130 2.6366827001888913 false 7231 2.6366827001888913 true
gene 15 20 186 -0.2597257426532078 false 7232 -0.2597257426532078 true
gene 6 3 56 -8.772567506267556 false 7506 -8.772567506267556 true
gene 2 3 109 -2.907392874147692 false 7507 -2.907392874147692 true
gene 1 3 130 -1.081839797272448 false 7508 -1.081839797272448 true
gene 3 3 186 4.799878124545606 false 7509 4.799878124545606 true
gene 6 18 56 10.45621708423852 false 7901 10.45621708423852 true
gene 9 18 109 -2.4319813568670967 false 7902 -2.4319813568670967 true
gene 4 18 130 -2.7736541782632727 false 7903 -2.7736541782632727 true
gene 1 18 186 -3.105393690344631 false 7904 -3.105393690344631 true
gene 15 40 56 4.227172016570073 false 8146 4.227172016570073 true
gene 9 40 109 -1.3464838777936738 false 8147 -1.3464838777936738 true
gene 15 40 130 -4.138841213612921 false 8174 -4.138841213612921 true
gene 15 40 186 3.6861382684799047 false 8175 3.6861382684799047 true
gene 10 11 56 6.604823162512999 false 9534 6.604823162512999 true
gene 12 54 56 0.04137423868742317 false 10032 0.04137423868742317 true
gene 8 54 109 0.9244420544135435 false 10033 0.9244420544135435 true
gene 1 54 130 -1.710933923896333 false 10034 -1.710933923896333 true
gene 14 54 186 0.967330703175616 false 10035 0.967330703175616 true
gene 5 186 400 1.4639363612750635 false 10268 1.4639363612750635 true
gene 5 400 130 -0.22943188242533752 false 10269 -0.22943188242533752 true
gene 9 53 56 10.883117828392633 false 10565 10.883117828392633 true
gene 14 53 109 2.027253998181411 false 10566 2.027253998181411 true
gene 12 53 130 1.516560182417121 false 10567 1.516560182417121 true
gene 13 53 186 -0.36407116893845526 false 10568 -0.36407116893845526 true
gene 9 53 400 -2.356653780212902 false 10569 -2.356653780212902 true
gene 4 17 56 -4.80195823401024 false 11605 -4.80195823401024 true
gene 6 17 109 3.436779477134233 false 11606 3.436779477134233 true
gene 5 17 130 1.3025751412241293 false 11607 1.3025751412241293 true
gene 1 17 186 -6.362998777040599 false 11608 -6.362998777040599 true
gene 9 17 400 -8.913064948373663 false 11614 -8.913064948373663 true
gene 4 39 440 -0.23385759658042796 false 12209 -0.23385759658042796 true
gene 4 440 130 -16.345834377433977 false 12210 -16.345834377433977 true
gene 8 2 56 3.3646601713506477 false 15350 3.3646601713506477 true
gene 15 2 109 -5.289077148479503 false 15351 -5.289077148479503 true
gene 8 2 130 0.76810619306637 false 15352 0.76810619306637 true
gene 7 2 186 2.3869872999349884 false 15353 2.3869872999349884 true
gene 7 2 400 0.03836248663658193 false 15354 0.03836248663658193 true
gene 3 2 440 0.6127316850895879 false 15355 0.6127316850895879 true
gene 2 34 56 -3.120381729143362 false 16381 -3.120381729143362 true
gene 14 34 109 3.838988955519816 false 16401 3.838988955519816 true
gene 15 34 130 -8.448086702579129 false 16402 -8.448086702579129 true
gene 5 34 186 -1.360380075666701 false 16403 -1.360380075666701 true
gene 13 34 400 -1.593376693989904 false 16404 -1.593376693989904 true
gene 12 34 440 -9.377408561583316 false 16405 -9.377408561583316 true
gene 9 186 56 -3.111899385599492 false 16722 -3.111899385599492 true
gene 14 32 56 0.6342292602646702 false 17061 0.6342292602646702 true
gene 15 32 109 -0.10535635594406607 false 17062 -0.10535635594406607 true
gene 9 32 130 5.392843461396279 false 17063 5.392843461396279 true
gene 13 32 186 0.5709536801586556 false 17064 0.5709536801586556 true
gene 11 32 400 2.0127275822993664 false 17065 2.0127275822993664 true
gene 4 32 440 2.754708744191299 false 17066 2.754708744191299 true
gene 9 48 56 -4.387204717598473 false 17395 -4.387204717598473 true
gene 12 48 109 1.3550531830616885 false 17396 1.3550531830616885 true
gene 2 48 130 -0.3610021594467596 false 17397 -0.3610021594467596 true
gene 12 48 186 0.12195637450316077 false 17398 0.12195637450316077 true
gene 10 48 400 5.331917550105036 false 17399 5.331917550105036 true
gene 6 48 440 2.1148651978225104 false 17400 2.1148651978225104 true
gene 15 37 56 7.368127778316532 false 18400 7.368127778316532 true
gene 10 37 109 7.206045929892374 false 18401 7.206045929892374 true
gene 11 37 130 0.2414544896914678 false 18402 0.2414544896914678 true
gene 14 37 186 1.7206309298504607 false 18403 1.7206309298504607 true
gene 7 37 400 8.500956091974981 false 18404 8.500956091974981 true
gene 5 37 440 1.2976951493920548 false 18405 1.2976951493920548 true
gene 9 43 56 -9.271125711512889 false 18763 -9.271125711512889 true
gene 15 43 109 7.892892679269638 false 18764 7.892892679269638 true
gene 14 43 130 -5.312476166746622 false 18765 -5.312476166746622 true
gene 1 43 186 -9.29434882476033 false 18766 -9.29434882476033 true
gene 2 43 400 9.778952649813903 false 18767 9.778952649813903 true
gene 6 43 440 -6.199679642277641 false 18768 -6.199679642277641 true
gene 2 30 56 1.3940677962140822 false 19119 0 true
gene 14 30 109 6.797570584698608 false 19133 6.797570584698608 true
gene 5 30 130 -9.701397427219243 false 19134 -9.701397427219243 true
gene 6 30 186 0.4040857065836445 false 19135 0.4040857065836445 true
gene 15 30 400 0.2625551608837942 false 19136 0.2625551608837942 true
gene 14 30 440 7.129336836146797 false 19137 7.129336836146797 true
gene 1 52 109 -6.61166850773152 false 19436 -6.61166850773152 true
genomeend 4
/* Species #8 : (Size 3) (AF 8.667) (Age 71)  */
/* Organism #7 Fitness: 10.000 Error: 0.000 */
genomestart 7
trait 1 0.09208148742120745 0.09974753926851751 0.02139516346794399 0.01631039643461076 0.14776751459400161 0.08790403023389798 0.0013369956445686846 0.004226902150311862
trait 2 0.2700437319430362 0.0001450500704821541 0 0.0003409064135521838 0 0 0.010510927685971852 0.0003402517582023351
trait 3 0.28856998477131124 0.023600024660537136 0.0011035888615048123 0 0 0 0 0
trait 4 0.4052932757496841 0 0 0 0 0.004941344253782624 0.004208658567662212 0.011306405660813406
trait 5 0.496766050826929 0.014133475002893744 0.004348207841770067 0.024064282242027675 0.025277700183311224 0 0.006304147895399334 0.0679138092608633
trait 6 0.6 0.04859351589397776 0 0.08950002815524913 0 0 0 0
trait 7 0.7 0 0 0.011120241303269425 0 0 0 0
trait 8 0.7999126475711043 0.001943108657286839 0 0 0.0019424393893440225 0.020157503210710467 0.006761130710705398 0
trait 9 0.9063383741257591 0 0 0.007175289568687798 0.019294072732159037 0 0 0
trait 10 1 0 0 0 0 0 0 0
trait 11 1.1 5.103936669661381e-05 0.00033660080897915574 0.00018688410880883418 0.0003291774640737721 0 0 4.796753135912594e-05
trait 12 1.2 0 0 0.03021852533854308 0.013203437430873006 0.014382576186253559 0 0
trait 13 1.3 0 0.04312854016845297 0 0.02557445808107528 0.03325874896018245 0 0
trait 14 1.27648171671845 0 0.14286416086196987 0.005989154296633444 0.1244442856505237 0 0 0
trait 15 1.5590317308977397 0.00040668228899832707 0.00025870116861561937 4.5613750648996126e-05 0 0 0 0
node 1 1 1 3 NullActivation
node 2 1 1 1 NullActivation
node 3 1 1 1 NullActivation
node 4 1 1 1 NullActivation
node 5 1 1 1 NullActivation
node 6 1 1 1 NullActivation
node 7 1 1 1 NullActivation
node 8 1 1 1 NullActivation
node 9 1 1 1 NullActivation
node 10 1 1 1 NullActivation
node 11 1 1 1 NullActivation
node 12 1 1 1 NullActivation
node 13 1 1 1 NullActivation
node 14 1 1 1 NullActivation
node 15 3 1 1 NullActivation
node 16 1 1 1 NullActivation
node 17 1 1 1 NullActivation
node 18 1 1 1 NullActivation
node 19 1 1 1 NullActivation
node 20 1 1 1 NullActivation
node 21 1 1 1 NullActivation
node 22 1 1 1 NullActivation
node 23 1 1 1 NullActivation
node 24 1 1 1 NullActivation
node 25 1 1 1 NullActivation
node 26 1 1 1 NullActivation
node 27 1 1 1 NullActivation
node 28 1 1 1 NullActivation
node 29 1 1 1 NullActivation
node 30 1 1 1 NullActivation
node 31 1 1 1 NullActivation
node 32 1 1 1 NullActivation
node 33 1 1 1 NullActivation
node 34 1 1 1 NullActivation
node 35 1 1 1 NullActivation
node 36 1 1 1 NullActivation
node 37 1 1 1 NullActivation
node 38 1 1 1 NullActivation
node 39 1 1 1 NullActivation
node 40 1 1 1 NullActivation
node 41 1 1 1 NullActivation
node 42 1 1 1 NullActivation
node 43 1 1 1 NullActivation
node 44 1 1 1 NullActivation
node 45 1 1 1 NullActivation
node 46 1 1 1 NullActivation
node 47 1 1 1 NullActivation
node 48 1 1 1 NullActivation
node 49 1 1 1 NullActivation
node 50 1 1 1 NullActivation
node 51 1 1 1 NullActivation
node 52 1 1 1 NullActivation
node 53 1 1 1 NullActivation
node 54 1 1 1 NullActivation
node 55 1 1 1 NullActivation
node 56 1 0 2 SigmoidSteepenedActivation
node 109 1 0 0 SigmoidSteepenedActivation
gene 1 1 56 -5.85550874453775 false 1 -5.85550874453775 true
gene 14 51 56 -13.692426695758904 false 118 -13.692426695758904 true
gene 3 31 56 0.9541595037575208 false 285 0.9541595037575208 true
gene 10 38 56 0.6322225378594133 false 361 0.6322225378594133 true
gene 2 8 56 -7.585353923258344 false 427 -7.585353923258344 true
gene 3 55 56 13.03874939012125 false 750 13.03874939012125 true
gene 11 50 56 0.035452572862398 false 876 0.035452572862398 true
gene 2 10 56 -3.331922144344226 false 988 -3.331922144344226 true
gene 5 52 56 1.3951089011307214 false 1199 1.3951089011307214 true
gene 14 51 109 -1.6542467834000225 false 1310 -1.6542467834000225 true
gene 5 109 56 -1.7051034743631934 false 1311 -1.7051034743631934 true
gene 7 12 56 -4.030524864590589 false 1435 -4.030524864590589 true
gene 12 23 56 -4.201814244939363 false 1499 -4.201814244939363 true
gene 8 23 109 -5.236967297561853 false 1500 -5.236967297561853 true
gene 3 24 56 9.262921434686547 false 1724 9.262921434686547 true
gene 1 24 109 0.07419430272421601 false 1738 0.07419430272421601 true
gene 8 2 56 -1.47788287416758 false 1834 -1.47788287416758 true
gene 10 2 109 -2.354535659216806 false 1835 -2.354535659216806 true
gene 2 3 56 3.6554464232232413 false 1946 3.6554464232232413 true
gene 4 3 109 -7.285542029123093 false 1947 -7.285542029123093 true
gene 8 1 109 2.0613599542315084 false 2229 2.0613599542315084 true
gene 1 16 109 5.3499549508087 false 2868 5.3499549508087 true
gene 10 21 56 1.5986951667513924 false 3580 1.5986951667513924 true
gene 2 21 109 -12.016812888071255 false 3674 -12.016812888071255 true
gene 10 15 56 -2.370647880124511 false 3771 -2.370647880124511 true
gene 4 15 109 -4.206317165159153 false 3772 -4.206317165159153 true
gene 2 20 56 1.224655935391318 false 4208 1.224655935391318 true
gene 6 20 109 -0.6030252678039505 false 4233 -0.6030252678039505 true
gene 11 17 56 2.433339767389927 false 4271 2.433339767389927 true
gene 5 17 109 -1.9559440815919067 false 4272 -1.9559440815919067 true
gene 14 28 56 -0.15849971053304523 false 4422 -0.15849971053304523 true
gene 10 28 109 4.835868426248702 false 4509 4.835868426248702 true
gene 4 5 56 -2.059550774358345 false 4683 -2.059550774358345 true
gene 1 5 109 -14.134975085006536 false 4684 -14.134975085006536 true
gene 4 44 56 0.543462265786863 false 4859 0.543462265786863 true
gene 14 44 109 -8.044100262835512 false 4860 -8.044100262835512 true
gene 7 45 56 3.883230726683812 false 5250 3.883230726683812 true
gene 13 45 109 5.234105485014167 false 5251 5.234105485014167 true
gene 10 14 56 -5.99359896302622 false 5419 -5.99359896302622 true
gene 7 14 109 -4.834587980402194 false 5460 -4.834587980402194 true
gene 13 7 56 -12.546550323553621 false 5996 -12.546550323553621 true
gene 9 7 109 -5.944224768858525 false 5997 -5.944224768858525 true
gene 14 18 56 11.278984888156245 false 6161 11.278984888156245 true
gene 2 18 109 4.649360736188487 false 6162 4.649360736188487 true
gene 12 46 56 -1.8458235732271087 false 7128 -1.8458235732271087 true
gene 4 46 109 6.952378361218171 false 7129 6.952378361218171 true
gene 13 36 56 4.425851037549466 false 7248 4.425851037549466 true
gene 1 36 109 -4.3716257514002494 false 7249 -4.3716257514002494 true
gene 5 11 56 4.850982543598833 false 7574 4.850982543598833 true
gene 4 11 109 -0.3483748640204909 false 7575 -0.3483748640204909 true
gene 15 33 56 -5.956191220248274 false 8360 -5.956191220248274 true
gene 8 53 109 2.012813021248405 false 8639 2.012813021248405 true
gene 12 6 109 1.0216848649960268 false 9174 1.0216848649960268 true
gene 7 26 56 10.162576997921702 false 9555 10.162576997921702 true
gene 1 26 109 -3.261195024450947 false 9556 -3.261195024450947 true
gene 8 48 56 -0.9160343321929396 false 9753 -0.9160343321929396 true
gene 1 48 109 0.46907025905330046 false 9754 0.46907025905330046 true
gene 1 49 109 -1.250056184420081 false 11719 -1.250056184420081 true
gene 12 54 56 -8.561173978073635 false 11934 -8.561173978073635 true
gene 13 54 109 0.46024134271786443 false 11935 0.46024134271786443 true
gene 3 4 56 -0.44610994599961235 false 12162 -0.44610994599961235 true
gene 14 4 109 2.3331549283299475 false 12163 2.3331549283299475 true
gene 11 35 56 -1.3492821230955463 false 14430 -1.3492821230955463 true
gene 1 35 109 1.332430464806297 false 14431 1.332430464806297 true
gene 9 29 56 -1.628805093051244 false 14761 -1.628805093051244 true
gene 8 29 109 -3.7410357535266012 false 14762 -3.7410357535266012 true
gene 4 32 56 -0.3176230500198163 false 15642 -0.3176230500198163 true
gene 4 31 109 4.488834716677166 false 17083 4.488834716677166 true
gene 9 6 56 -5.829465510322106 false 17356 0 true
gene 2 39 56 -7.294081347987577 false 17825 -7.294081347987577 true
gene 2 39 109 9.444663306551208 false 17826 9.444663306551208 true
gene 6 19 56 -1.7077749138663432 false 18104 -1.7077749138663432 true
gene 2 19 109 5.501130981309075 false 18105 5.501130981309075 true
gene 6 43 56 2.14155818960501 false 18389 0 true
gene 4 43 109 0.5437234968642025 false 18406 0 true
gene 4 9 56 -8.530059524582065 false 18750 -8.530059524582065 true
gene 11 9 109 7.19793203484852 false 18751 7.19793203484852 true
gene 14 22 56 8.598595161247694 false 19140 8.598595161247694 true
gene 8 22 109 -1.7784533380659853 false 19141 -1.7784533380659853 true
gene 6 33 109 -1.0477009827628054 false 19446 -1.0477009827628054 true
genomeend 7
/* Organism #5 Fitness: 10.000 Error: 0.000 */
genomestart 5
trait 1 0.09208148742120745 0.09974753926851751 0.02139516346794399 0.01631039643461076 0.14776751459400161 0.08790403023389798 0.0013369956445686846 0.004226902150311862
trait 2 0.2700437319430362 0.0001450500704821541 0 0.0003409064135521838 0 0 0.010510927685971852 0.0003402517582023351
trait 3 0.28856998477131124 0.023600024660537136 0.0011035888615048123 0 0 0 0 0
trait 4 0.4052932757496841 0 0 0 0 0.004941344253782624 0.004208658567662212 0.011306405660813406
trait 5 0.496766050826929 0.014133475002893744 0.004348207841770067 0.024064282242027675 0.025277700183311224 0 0.006304147895399334 0.0679138092608633
trait 6 0.6 0.04859351589397776 0 0.08950002815524913 0 0 0 0
trait 7 0.7 0 0 0.011120241303269425 0 0 0 0
trait 8 0.7999126475711043 0.001943108657286839 0 0 0.0019424393893440225 0.020157503210710467 0.006761130710705398 0
trait 9 0.9063383741257591 0 0 0.007175289568687798 0.019294072732159037 0 0 0
trait 10 1 0 0 0 0 0 0 0
trait 11 1.1 5.103936669661381e-05 0.00033660080897915574 0.00018688410880883418 0.0003291774640737721 0 0 4.796753135912594e-05
trait 12 1.2 0 0 0.03021852533854308 0.013203437430873006 0.014382576186253559 0 0
trait 13 1.3 0 0.04312854016845297 0 0.02557445808107528 0.03325874896018245 0 0
trait 14 1.27648171671845 0 0.14286416086196987 0.005989154296633444 0.1244442856505237 0 0 0
trait 15 1.5590317308977397 0.00040668228899832707 0.00025870116861561937 4.5613750648996126e-05 0 0 0 0
node 1 1 1 3 NullActivation
node 2 1 1 1 NullActivation
node 3 1 1 1 NullActivation
node 4 1 1 1 NullActivation
node 5 1 1 1 NullActivation
node 6 1 1 1 NullActivation
node 7 1 1 1 NullActivation
node 8 1 1 1 NullActivation
node 9 1 1 1 NullActivation
node 10 1 1 1 NullActivation
node 11 1 1 1 NullActivation
node 12 1 1 1 NullActivation
node 13 1 1 1 NullActivation
node 14 1 1 1 NullActivation
node 15 3 1 1 NullActivation
node 16 1 1 1 NullActivation
node 17 1 1 1 NullActivation
node 18 1 1 1 NullActivation
node 19 1 1 1 NullActivation
node 20 1 1 1 NullActivation
node 21 1 1 1 NullActivation
node 22 1 1 1 NullActivation
node 23 1 1 1 NullActivation
node 24 1 1 1 NullActivation
node 25 1 1 1 NullActivation
node 26 1 1 1 NullActivation
node 27 1 1 1 NullActivation
node 28 1 1 1 NullActivation
node 29 1 1 1 NullActivation
node 30 1 1 1 NullActivation
node 31 1 1 1 NullActivation
node 32 1 1 1 NullActivation
node 33 1 1 1 NullActivation
node 34 1 1 1 NullActivation
node 35 1 1 1 NullActivation
node 36 1 1 1 NullActivation
node 37 1 1 1 NullActivation
node 38 1 1 1 NullActivation
node 39 1 1 1 NullActivation
node 40 1 1 1 NullActivation
node 41 1 1 1 NullActivation
node 42 1 1 1 NullActivation
node 43 1 1 1 NullActivation
node 44 1 1 1 NullActivation
node 45 1 1 1 NullActivation
node 46 1 1 1 NullActivation
node 47 1 1 1 NullActivation
node 48 1 1 1 NullActivation
node 49 1 1 1 NullActivation
node 50 1 1 1 NullActivation
node 51 1 1 1 NullActivation
node 52 1 1 1 NullActivation
node 53 1 1 1 NullActivation
node 54 1 1 1 NullActivation
node 55 1 1 1 NullActivation
node 56 1 0 2 SigmoidSteepenedActivation
node 109 1 0 0 SigmoidSteepenedActivation
gene 1 1 56 -5.85550874453775 false 1 -5.85550874453775 true
gene 14 51 56 -13.692426695758904 false 118 -13.692426695758904 true
gene 3 31 56 0.9541595037575208 false 285 0.9541595037575208 true
gene 10 38 56 0.6322225378594133 false 361 0.6322225378594133 true
gene 2 8 56 -7.585353923258344 false 427 -7.585353923258344 true
gene 3 55 56 13.03874939012125 false 750 13.03874939012125 true
gene 11 50 56 0.035452572862398 false 876 0.035452572862398 true
gene 2 10 56 -3.331922144344226 false 988 -3.331922144344226 true
gene 5 52 56 1.3951089011307214 false 1199 1.3951089011307214 true
gene 14 51 109 -1.6542467834000225 false 1310 -1.6542467834000225 true
gene 5 109 56 -1.7051034743631934 false 1311 -1.7051034743631934 true
gene 7 12 56 -4.030524864590589 false 1435 -4.030524864590589 true
gene 12 23 56 -4.201814244939363 false 1499 -4.201814244939363 true
gene 8 23 109 -5.236967297561853 false 1500 -5.236967297561853 true
gene 3 24 56 9.262921434686547 false 1724 9.262921434686547 true
gene 1 24 109 0.07419430272421601 false 1738 0.07419430272421601 true
gene 8 2 56 -1.47788287416758 false 1834 -1.47788287416758 true
gene 10 2 109 -2.354535659216806 false 1835 -2.354535659216806 true
gene 2 3 56 3.6554464232232413 false 1946 3.6554464232232413 true
gene 4 3 109 -7.285542029123093 false 1947 -7.285542029123093 true
gene 8 1 109 2.0613599542315084 false 2229 2.0613599542315084 true
gene 1 16 109 5.3499549508087 false 2868 5.3499549508087 true
gene 10 21 56 1.5986951667513924 false 3580 1.5986951667513924 true
gene 2 21 109 -12.016812888071255 false 3674 -12.016812888071255 true
gene 10 15 56 -2.370647880124511 false 3771 -2.370647880124511 true
gene 4 15 109 -4.206317165159153 false 3772 -4.206317165159153 true
gene 2 20 56 1.224655935391318 false 4208 1.224655935391318 true
gene 6 20 109 -0.6030252678039505 false 4233 -0.6030252678039505 true
gene 11 17 56 2.433339767389927 false 4271 2.433339767389927 true
gene 5 17 109 -1.9559440815919067 false 4272 -1.9559440815919067 true
gene 14 28 56 -0.15849971053304523 false 4422 -0.15849971053304523 true
gene 10 28 109 4.835868426248702 false 4509 4.835868426248702 true
gene 4 5 56 -2.059550774358345 false 4683 -2.059550774358345 true
gene 1 5 109 -14.134975085006536 false 4684 -14.134975085006536 true
gene 4 44 56 0.543462265786863 false 4859 0.543462265786863 true
gene 14 44 109 -8.044100262835512 false 4860 -8.044100262835512 true
gene 7 45 56 3.883230726683812 false 5250 3.883230726683812 true
gene 13 45 109 5.234105485014167 false 5251 5.234105485014167 true
gene 10 14 56 -5.99359896302622 false 5419 -5.99359896302622 true
gene 7 14 109 -4.834587980402194 false 5460 -4.834587980402194 true
gene 13 7 56 -12.546550323553621 false 5996 -12.546550323553621 true
gene 9 7 109 -5.944224768858525 false 5997 -5.944224768858525 true
gene 14 18 56 11.278984888156245 false 6161 11.278984888156245 true
gene 2 18 109 4.649360736188487 false 6162 4.649360736188487 true
gene 12 46 56 -1.8458235732271087 false 7128 -1.8458235732271087 true
gene 4 46 109 6.952378361218171 false 7129 6.952378361218171 true
gene 13 36 56 4.425851037549466 false 7248 4.425851037549466 true
gene 1 36 109 -4.3716257514002494 false 7249 -4.3716257514002494 true
gene 5 11 56 4.850982543598833 false 7574 4.850982543598833 true
gene 4 11 109 -0.3483748640204909 false 7575 -0.3483748640204909 true
gene 15 33 56 -5.956191220248274 false 8360 -5.956191220248274 true
gene 8 53 109 2.012813021248405 false 8639 2.012813021248405 true
gene 12 6 109 1.0216848649960268 false 9174 1.0216848649960268 true
gene 7 26 56 10.162576997921702 false 9555 10.162576997921702 true
gene 1 26 109 -3.261195024450947 false 9556 -3.261195024450947 true
gene 8 48 56 -0.9160343321929396 false 9753 -0.9160343321929396 true
gene 1 48 109 0.46907025905330046 false 9754 0.46907025905330046 true
gene 1 49 109 -1.250056184420081 false 11719 -1.250056184420081 true
gene 12 54 56 -8.561173978073635 false 11934 -8.561173978073635 true
gene 13 54 109 0.46024134271786443 false 11935 0.46024134271786443 true
gene 3 4 56 -0.44610994599961235 false 12162 -0.44610994599961235 true
gene 14 4 109 2.3331549283299475 false 12163 2.3331549283299475 true
gene 11 35 56 -1.3492821230955463 false 14430 -1.3492821230955463 true
gene 1 35 109 1.332430464806297 false 14431 1.332430464806297 true
gene 9 29 56 -1.628805093051244 false 14761 -1.628805093051244 true
gene 8 29 109 -3.7410357535266012 false 14762 -3.7410357535266012 true
gene 4 32 56 -0.3176230500198163 false 15642 -0.3176230500198163 true
gene 4 31 109 4.488834716677166 false 17083 4.488834716677166 true
gene 9 6 56 -5.829465510322106 false 17356 0 true
gene 2 39 56 -7.294081347987577 false 17825 -7.294081347987577 true
gene 2 39 109 9.444663306551208 false 17826 9.444663306551208 true
gene 6 19 56 -1.7077749138663432 false 18104 -1.7077749138663432 true
gene 2 19 109 5.501130981309075 false 18105 5.501130981309075 true
gene 6 43 56 2.14155818960501 false 18389 0 true
gene 4 43 109 0.5437234968642025 false 18406 0 true
gene 4 9 56 -8.530059524582065 false 18750 -8.530059524582065 true
gene 11 9 109 7.19793203484852 false 18751 7.19793203484852 true
gene 14 22 56 8.598595161247694 false 19140 8.598595161247694 true
gene 8 22 109 -1.7784533380659853 false 19141 -1.7784533380659853 true
gene 7 30 56 -3.7274910803066414 false 19442 -3.7274910803066414 true
gene 11 30 109 -9.058086526854254 false 19443 -9.058086526854254 true
genomeend 5
/* Organism #6 Fitness: 6.000 Error: 0.000 */
genomestart 6
trait 1 0.09208148742120745 0.09974753926851751 0.02139516346794399 0.01631039643461076 0.14776751459400161 0.08790403023389798 0.0013369956445686846 0.004226902150311862
trait 2 0.2700437319430362 0.0001450500704821541 0 0.0003409064135521838 0 0 0.010510927685971852 0.0003402517582023351
trait 3 0.28856998477131124 0.023600024660537136 0.0011035888615048123 0 0 0 0 0
trait 4 0.4052932757496841 0 0 0 0 0.004941344253782624 0.004208658567662212 0.011306405660813406
trait 5 0.496766050826929 0.014133475002893744 0.004348207841770067 0.024064282242027675 0.025277700183311224 0 0.006304147895399334 0.0679138092608633
trait 6 0.6 0.04859351589397776 0 0.08950002815524913 0 0 0 0
trait 7 0.7 0 0 0.011120241303269425 0 0 0 0
trait 8 0.7999126475711043 0.001943108657286839 0 0 0.0019424393893440225 0.020157503210710467 0.006761130710705398 0
trait 9 0.9063383741257591 0 0 0.007175289568687798 0.019294072732159037 0 0 0
trait 10 1 0 0 0 0 0 0 0
trait 11 1.1 5.103936669661381e-05 0.00033660080897915574 0.00018688410880883418 0.0003291774640737721 0 0 4.796753135912594e-05
trait 12 1.2 0 0 0.03021852533854308 0.013203437430873006 0.014382576186253559 0 0
trait 13 1.3 0 0.04312854016845297 0 0.02557445808107528 0.03325874896018245 0 0
trait 14 1.27648171671845 0 0.14286416086196987 0.005989154296633444 0.1244442856505237 0 0 0
trait 15 1.5590317308977397 0.00040668228899832707 0.00025870116861561937 4.5613750648996126e-05 0 0 0 0
node 1 1 1 3 NullActivation
node 2 1 1 1 NullActivation
node 3 1 1 1 NullActivation
node 4 1 1 1 NullActivation
node 5 1 1 1 NullActivation
node 6 1 1 1 NullActivation
node 7 1 1 1 NullActivation
node 8 1 1 1 NullActivation
node 9 1 1 1 NullActivation
node 10 1 1 1 NullActivation
node 11 1 1 1 NullActivation
node 12 1 1 1 NullActivation
node 13 1 1 1 NullActivation
node 14 1 1 1 NullActivation
node 15 3 1 1 NullActivation
node 16 1 1 1 NullActivation
node 17 1 1 1 NullActivation
node 18 1 1 1 NullActivation
node 19 1 1 1 NullActivation
node 20 1 1 1 NullActivation
node 21 1 1 1 NullActivation
node 22 1 1 1 NullActivation
node 23 1 1 1 NullActivation
node 24 1 1 1 NullActivation
node 25 1 1 1 NullActivation
node 26 1 1 1 NullActivation
node 27 1 1 1 NullActivation
node 28 1 1 1 NullActivation
node 29 1 1 1 NullActivation
node 30 1 1 1 NullActivation
node 31 1 1 1 NullActivation
node 32 1 1 1 NullActivation
node 33 1 1 1 NullActivation
node 34 1 1 1 NullActivation
node 35 1 1 1 NullActivation
node 36 1 1 1 NullActivation
node 37 1 1 1 NullActivation
node 38 1 1 1 NullActivation
node 39 1 1 1 NullActivation
node 40 1 1 1 NullActivation
node 41 1 1 1 NullActivation
node 42 1 1 1 NullActivation
node 43 1 1 1 NullActivation
node 44 1 1 1 NullActivation
node 45 1 1 1 NullActivation
node 46 1 1 1 NullActivation
node 47 1 1 1 NullActivation
node 48 1 1 1 NullActivation
node 49 1 1 1 NullActivation
node 50 1 1 1 NullActivation
node 51 1 1 1 NullActivation
node 52 1 1 1 NullActivation
node 53 1 1 1 NullActivation
node 54 1 1 1 NullActivation
node 55 1 1 1 NullActivation
node 56 1 0 2 SigmoidSteepenedActivation
node 109 1 0 0 SigmoidSteepenedActivation
gene 1 1 56 -7.228969466913468 false 1 -7.228969466913468 true
gene 14 51 56 -11.573597778749322 false 118 -11.573597778749322 true
gene 3 31 56 0.16690345514184735 false 285 0.16690345514184735 true
gene 10 38 56 1.4967090485881536 false 361 1.4967090485881536 true
gene 2 8 56 -9.19130148155388 false 427 -9.19130148155388 true
gene 3 55 56 14.200317523230051 false 750 14.200317523230051 true
gene 11 50 56 -1.0955742812421791 false 876 -1.0955742812421791 true
gene 2 10 56 -1.7752071661008002 false 988 -1.7752071661008002 true
gene 5 52 56 3.1816171568296236 false 1199 3.1816171568296236 true
gene 14 51 109 -2.0809435135935463 false 1310 -2.0809435135935463 true
gene 5 109 56 -1.7941296359334786 false 1311 -1.7941296359334786 true
gene 7 12 56 -2.5449631920047704 false 1435 -2.5449631920047704 true
gene 12 23 56 -3.67396089071568 false 1499 -3.67396089071568 true
gene 8 23 109 -7.643020573958506 false 1500 -7.643020573958506 true
gene 3 24 56 11.182565694779873 false 1724 11.182565694779873 true
gene 1 24 109 -0.43116947748438395 false 1738 -0.43116947748438395 true
gene 8 2 56 -2.9265881763407267 false 1834 -2.9265881763407267 true
gene 10 2 109 0.09988448527244254 false 1835 0.09988448527244254 true
gene 2 3 56 3.7432158895122742 false 1946 3.7432158895122742 true
gene 4 3 109 -6.658707925673567 false 1947 -6.658707925673567 true
gene 8 1 109 -0.1641150895220398 false 2229 -0.1641150895220398 true
gene 1 16 109 6.631759661091002 false 2868 6.631759661091002 true
gene 10 21 56 2.171117749789297 false 3580 2.171117749789297 true
gene 2 21 109 -14.177966310783487 false 3674 -14.177966310783487 true
gene 10 15 56 -3.847647883909524 false 3771 -3.847647883909524 true
gene 4 15 109 -3.556780845121758 false 3772 -3.556780845121758 true
gene 2 20 56 -0.3260445616736669 false 4208 -0.3260445616736669 true
gene 6 20 109 0.6371120894214533 false 4233 0.6371120894214533 true
gene 11 17 56 3.695258134165412 false 4271 3.695258134165412 true
gene 5 17 109 -1.8804061478991982 false 4272 -1.8804061478991982 true
gene 14 28 56 0.5584518903868575 false 4422 0.5584518903868575 true
gene 10 28 109 5.25401600824419 false 4509 5.25401600824419 true
gene 4 5 56 -0.3774814177462049 false 4683 -0.3774814177462049 true
gene 1 5 109 -14.648227149646281 false 4684 -14.648227149646281 true
gene 4 44 56 -0.15204340221507584 false 4859 -0.15204340221507584 true
gene 14 44 109 -8.41011652207363 false 4860 -8.41011652207363 true
gene 7 45 56 3.8843577878505444 false 5250 3.8843577878505444 true
gene 13 45 109 5.87873766506735 false 5251 5.87873766506735 true
gene 10 14 56 -4.07027499023149 false 5419 -4.07027499023149 true
gene 7 14 109 -6.269870980806106 false 5460 -6.269870980806106 true
gene 13 7 56 -10.630851581345185 false 5996 -10.630851581345185 true
gene 9 7 109 -4.884560290604009 false 5997 -4.884560290604009 true
gene 14 18 56 11.947608424693303 false 6161 11.947608424693303 true
gene 2 18 109 3.70097904093278 false 6162 3.70097904093278 true
gene 12 46 56 -0.30549459090004927 false 7128 -0.30549459090004927 true
gene 4 46 109 7.436687596403658 false 7129 7.436687596403658 true
gene 13 36 56 2.4579413139044615 false 7248 2.4579413139044615 true
gene 1 36 109 -2.9960192551109386 false 7249 -2.9960192551109386 true
gene 5 11 56 4.337220725375822 false 7574 4.337220725375822 true
gene 4 11 109 1.7700345813084293 false 7575 1.7700345813084293 true
gene 15 33 56 -7.568318926262623 false 8360 -7.568318926262623 true
gene 8 53 109 1.3495348147628794 false 8639 1.3495348147628794 true
gene 12 6 109 -0.30564190507346334 false 9174 -0.30564190507346334 true
gene 7 26 56 9.133000571834318 false 9555 9.133000571834318 true
gene 1 26 109 -1.0782165534137786 false 9556 -1.0782165534137786 true
gene 8 48 56 1.5149307945420354 false 9753 1.5149307945420354 true
gene 1 48 109 2.0891689002178877 false 9754 2.0891689002178877 true
gene 1 49 109 0.6445867724049743 false 11719 0.6445867724049743 true
gene 12 54 56 -9.885666527849262 false 11934 -9.885666527849262 true
gene 13 54 109 0.7498407622826224 false 11935 0.7498407622826224 true
gene 3 4 56 -2.7528227509382694 false 12162 -2.7528227509382694 true
gene 14 4 109 3.124522645247163 false 12163 3.124522645247163 true
gene 11 35 56 -3.8212855429411183 false 14430 -3.8212855429411183 true
gene 1 35 109 1.424074254614524 false 14431 1.424074254614524 true
gene 9 29 56 -1.628805093051244 false 14761 -1.628805093051244 true
gene 8 29 109 -3.7410357535266012 false 14762 -3.7410357535266012 true
gene 4 32 56 0.11884130898049688 false 15642 0.11884130898049688 true
gene 4 31 109 -1.0500681737135547 false 17083 -1.0500681737135547 true
gene 9 6 56 -5.829465510322106 false 17356 -5.829465510322106 true
gene 2 39 56 -5.231292220750085 false 17825 -5.231292220750085 true
gene 2 39 109 9.444663306551208 false 17826 9.444663306551208 true
gene 6 19 56 -2.5733818332985363 false 18104 -2.5733818332985363 true
gene 2 19 109 5.806298382838201 false 18105 5.806298382838201 true
gene 6 43 56 3.1598799369420574 false 18389 3.1598799369420574 true
gene 4 43 109 1.0628672243551882 false 18406 1.0628672243551882 true
gene 4 9 56 1.4961497229053342 false 18750 1.4961497229053342 true
gene 11 9 109 1.2348282754213233 false 18751 1.2348282754213233 true
gene 14 22 56 1.079450833336682 false 19140 1.079450833336682 true
gene 8 22 109 -3.431390668321799 false 19141 -3.431390668321799 true
genomeend 6
/* Species #10 : (Size 4) (AF 7.500) (Age 70)  */
/* Organism #10 Fitness: 9.000 Error: 0.000 */
genomestart 10
trait 1 0.09295883178710937 0.00010249911422151671 0.02166042551836813 0.00015818532567921862 8.609894886023163e-05 0.04165821658759088 0.0028447316300268793 0.013607088520029094
trait 2 0.19975872039794923 0.00017787161927738606 0 0.00041804582099829834 0 0 0 0.0002507132125829034
trait 3 0.2883167713880539 0.024122844794166827 0.0011280370764682897 0 0 0 0 0
trait 4 0.40473196866106115 0 0 0 0 0.004417356521395984 0.003619648155572262 0.017649023470538
trait 5 0.49645690721106256 0.014633573141137113 0.004127655137973679 0.02430645212086152 0.02650033876965742 0 0.00473482246967114 0.07031686792587097
trait 6 0.6 0.05017127060661776 0 0.09240595271340314 0 0 0 0
trait 7 0.7 0 0 0.0075432519770135655 0.39531770096859187 0.7691583947832591 0 0
trait 8 0.7999559134050138 0.0019323013387910534 0 0 0.001931635793229787 0.020394658686473357 0.006791140545454464 0
trait 9 0.9120662532932298 0 0 0.013659474759654958 0.03672979284988916 0 0 0
trait 10 1 0 0.05349147969313509 0 0 0 0 0
trait 11 1.1 0 0 0.13495393458667973 0.9497181324448802 0 0.29520705751675647 0.1365264360675177
trait 12 1.2 0 0 0.024533565808601755 0.01603507514622978 0.01746709454643145 0 0
trait 13 1.3 0 0.04214052514923913 0 0.024988582728149713 0.03249683716431419 0 0
trait 14 1.4 0 0 0 0 0 0 0
trait 15 1.502051354753783 0.10821067296567899 0.05150461938738998 7.447039135367398e-05 0 0 0 0
node 1 1 1 3 NullActivation
node 2 1 1 1 NullActivation
node 3 1 1 1 NullActivation
node 4 1 1 1 NullActivation
node 5 1 1 1 NullActivation
node 6 1 1 1 NullActivation
node 7 1 1 1 NullActivation
node 8 1 1 1 NullActivation
node 9 1 1 1 NullActivation
node 10 1 1 1 NullActivation
node 11 1 1 1 NullActivation
node 12 1 1 1 NullActivation
node 13 1 1 1 NullActivation
node 14 1 1 1 NullActivation
node 15 1 1 1 NullActivation
node 16 1 1 1 NullActivation
node 17 1 1 1 NullActivation
node 18 1 1 1 NullActivation
node 19 1 1 1 NullActivation
node 20 1 1 1 NullActivation
node 21 1 1 1 NullActivation
node 22 1 1 1 NullActivation
node 23 1 1 1 NullActivation
node 24 1 1 1 NullActivation
node 25 1 1 1 NullActivation
node 26 1 1 1 NullActivation
node 27 1 1 1 NullActivation
node 28 1 1 1 NullActivation
node 29 1 1 1 NullActivation
node 30 1 1 1 NullActivation
node 31 1 1 1 NullActivation
node 32 1 1 1 NullActivation
node 33 1 1 1 NullActivation
node 34 1 1 1 NullActivation
node 35 1 1 1 NullActivation
node 36 1 1 1 NullActivation
node 37 1 1 1 NullActivation
node 38 1 1 1 NullActivation
node 39 11 1 1 NullActivation
node 40 1 1 1 NullActivation
node 41 1 1 1 NullActivation
node 42 1 1 1 NullActivation
node 43 1 1 1 NullActivation
node 44 1 1 1 NullActivation
node 45 1 1 1 NullActivation
node 46 1 1 1 NullActivation
node 47 1 1 1 NullActivation
node 48 1 1 1 NullActivation
node 49 1 1 1 NullActivation
node 50 1 1 1 NullActivation
node 51 1 1 1 NullActivation
node 52 1 1 1 NullActivation
node 53 1 1 1 NullActivation
node 54 1 1 1 NullActivation
node 55 1 1 1 NullActivation
node 56 1 0 2 SigmoidSteepenedActivation
node 109 15 0 0 SigmoidSteepenedActivation
gene 1 1 56 3.2404974868638994 false 1 3.2404974868638994 true
gene 14 51 56 -7.816465504426586 false 118 -7.816465504426586 true
gene 3 31 56 -1.7155553563787307 false 285 -1.7155553563787307 true
gene 7 38 56 8.572270239225642 false 361 8.572270239225642 true
gene 2 8 56 9.47471610088856 false 427 9.47471610088856 true
gene 3 55 56 10.125482875232544 false 750 10.125482875232544 true
gene 11 50 56 -0.6597136170686986 false 876 -0.6597136170686986 true
gene 2 10 56 3.291408783171028 false 988 3.291408783171028 true
gene 15 17 56 -5.330947776904555 false 1370 -5.330947776904555 true
gene 2 9 56 -3.9901755569232966 false 1445 -3.9901755569232966 true
gene 14 2 56 5.289188465508363 false 1521 5.289188465508363 true
gene 7 21 56 8.736564035113885 false 1720 8.736564035113885 true
gene 15 21 109 2.1299736296920346 false 1725 2.1299736296920346 true
gene 10 22 56 -0.5262700690397174 false 1820 -0.5262700690397174 true
gene 6 22 109 2.8541725333314787 false 1821 2.8541725333314787 true
gene 4 27 56 8.631363835826036 false 2330 8.631363835826036 true
gene 11 27 109 7.1693307556450145 false 2331 7.1693307556450145 true
gene 14 45 56 -2.680689016547375 false 2556 -2.680689016547375 true
gene 8 45 109 4.128247515163151 false 2557 4.128247515163151 true
gene 9 33 56 3.751016821319121 false 3385 3.751016821319121 true
gene 15 33 109 -0.2985470619900318 false 3448 -0.2985470619900318 true
gene 15 23 56 3.6508290193790076 false 4085 3.6508290193790076 true
gene 6 23 109 -0.2508098632781951 false 4111 -0.2508098632781951 true
gene 7 24 56 -3.4252342427414213 false 4242 -3.4252342427414213 true
gene 11 24 109 3.279028543149903 false 4243 3.279028543149903 true
gene 3 11 56 1.588728260355467 false 5127 1.588728260355467 true
gene 15 11 109 4.011615830141098 false 5128 4.011615830141098 true
gene 13 42 56 2.8944955663267327 false 6448 2.8944955663267327 true
gene 7 42 109 0.5229948167483176 false 6460 0.5229948167483176 true
gene 11 54 56 -6.252458602816894 false 7045 -6.252458602816894 true
gene 12 54 109 -5.16114765405551 false 7046 -5.16114765405551 true
gene 5 6 56 2.2889142248191616 false 7299 2.2889142248191616 true
gene 12 6 109 -0.4638499543005106 false 7300 -0.4638499543005106 true
gene 11 13 56 -1.5928944049633529 false 7554 -1.5928944049633529 true
gene 6 13 109 6.845830286827169 false 7610 6.845830286827169 true
gene 9 14 56 6.731660593061859 false 7824 6.731660593061859 true
gene 9 14 109 0.1034024456666085 false 7825 0.1034024456666085 true
gene 14 53 56 1.6920082359137847 false 8428 1.6920082359137847 true
gene 5 53 109 -2.3635210292395694 false 8429 -2.3635210292395694 true
gene 13 7 109 5.191664434518392 false 8676 5.191664434518392 true
gene 4 4 56 -3.38078657514775 false 8926 -3.38078657514775 true
gene 1 4 109 3.0328339750509556 false 8927 3.0328339750509556 true
gene 11 39 109 -2.870528299974968 false 9383 -2.870528299974968 true
gene 8 12 56 -4.420936242367825 false 10025 -4.420936242367825 true
gene 3 12 109 -6.522696671399699 false 10026 -6.522696671399699 true
gene 8 26 109 0.7292778491474431 false 10526 0.7292778491474431 true
gene 7 48 56 -4.906455080509534 false 11655 -4.906455080509534 true
gene 2 48 109 1.8832031037851689 false 11754 1.8832031037851689 true
gene 11 20 56 4.3360491101382515 false 11903 4.3360491101382515 true
gene 8 20 109 0.06937278160699556 false 11904 0.06937278160699556 true
gene 13 18 56 1.8291487664217707 false 12489 1.8291487664217707 true
gene 5 18 109 -3.708922580762412 false 12490 -3.708922580762412 true
gene 6 15 56 2.629814634197215 false 12897 2.629814634197215 true
gene 2 15 109 3.3939691681011857 false 12898 3.3939691681011857 true
gene 5 37 56 2.6382532347675047 false 13845 2.6382532347675047 true
gene 11 37 109 -0.06838431792010474 false 13846 -0.06838431792010474 true
gene 13 25 109 1.6577054662478177 false 14766 1.6577054662478177 true
gene 8 5 56 -4.428578369935223 false 15390 -4.428578369935223 true
gene 8 34 56 0.7840405842334299 false 15678 0.7840405842334299 true
gene 8 34 109 -2.441804545955819 false 15692 -2.441804545955819 true
gene 5 52 56 5.581123852060594 false 16024 5.581123852060594 true
gene 14 52 109 -0.572685824753308 false 16025 -0.572685824753308 true
gene 1 16 56 -3.3012202322407083 false 16411 -3.3012202322407083 true
gene 6 16 109 0.7672919361922159 false 16412 0.7672919361922159 true
gene 7 44 56 -1.4284705676726748 false 17088 -1.4284705676726748 true
gene 12 44 109 1.5885428441553433 false 17089 1.5885428441553433 true
gene 6 47 56 3.331589007103922 false 17423 3.331589007103922 true
gene 10 47 109 -2.332681420712804 false 17424 -2.332681420712804 true
gene 11 29 56 -5.999054274389619 false 17827 -5.999054274389619 true
gene 8 29 109 1.397099506165145 false 17828 1.397099506165145 true
gene 15 49 56 -1.6610100147419118 false 18415 -1.6610100147419118 true
gene 8 49 109 0.45542106528978976 false 18416 0.45542106528978976 true
gene 9 28 56 4.247103973090772 false 19412 0 true
gene 10 28 109 0.7623792023815943 false 19413 0 true
genomeend 10
/* Organism #8 Fitness: 8.000 Error: 0.000 */
genomestart 8
trait 1 0.09295883178710937 0.00010249911422151671 0.02166042551836813 0.00015818532567921862 8.609894886023163e-05 0.04165821658759088 0.0028447316300268793 0.013607088520029094
trait 2 0.19975872039794923 0.00017787161927738606 0 0.00041804582099829834 0 0 0 0.0002507132125829034
trait 3 0.2883167713880539 0.024122844794166827 0.0011280370764682897 0 0 0 0 0
trait 4 0.40473196866106115 0 0 0 0 0.004417356521395984 0.003619648155572262 0.017649023470538
trait 5 0.49645690721106256 0.014633573141137113 0.004127655137973679 0.02430645212086152 0.02650033876965742 0 0.00473482246967114 0.07031686792587097
trait 6 0.6 0.05017127060661776 0 0.09240595271340314 0 0 0 0
trait 7 0.7 0 0 0.0075432519770135655 0.39531770096859187 0.7691583947832591 0 0
trait 8 0.7999559134050138 0.0019323013387910534 0 0 0.001931635793229787 0.020394658686473357 0.006791140545454464 0
trait 9 0.9120662532932298 0 0 0.013659474759654958 0.03672979284988916 0 0 0
trait 10 1 0 0.05349147969313509 0 0 0 0 0
trait 11 1.1 0 0 0.13495393458667973 0.9497181324448802 0 0.29520705751675647 0.1365264360675177
trait 12 1.2 0 0 0.024533565808601755 0.01603507514622978 0.01746709454643145 0 0
trait 13 1.3 0 0.04214052514923913 0 0.024988582728149713 0.03249683716431419 0 0
trait 14 1.4 0 0 0 0 0 0 0
trait 15 1.502051354753783 0.10821067296567899 0.05150461938738998 7.447039135367398e-05 0 0 0 0
node 1 1 1 3 NullActivation
node 2 1 1 1 NullActivation
node 3 1 1 1 NullActivation
node 4 1 1 1 NullActivation
node 5 1 1 1 NullActivation
node 6 1 1 1 NullActivation
node 7 1 1 1 NullActivation
node 8 1 1 1 NullActivation
node 9 1 1 1 NullActivation
node 10 1 1 1 NullActivation
node 11 1 1 1 NullActivation
node 12 1 1 1 NullActivation
node 13 1 1 1 NullActivation
node 14 1 1 1 NullActivation
node 15 1 1 1 NullActivation
node 16 1 1 1 NullActivation
node 17 1 1 1 NullActivation
node 18 1 1 1 NullActivation
node 19 1 1 1 NullActivation
node 20 1 1 1 NullActivation
node 21 1 1 1 NullActivation
node 22 1 1 1 NullActivation
node 23 1 1 1 NullActivation
node 24 1 1 1 NullActivation
node 25 1 1 1 NullActivation
node 26 1 1 1 NullActivation
node 27 1 1 1 NullActivation
node 28 1 1 1 NullActivation
node 29 1 1 1 NullActivation
node 30 1 1 1 NullActivation
node 31 1 1 1 NullActivation
node 32 1 1 1 NullActivation
node 33 1 1 1 NullActivation
node 34 1 1 1 NullActivation
node 35 1 1 1 NullActivation
node 36 1 1 1 NullActivation
node 37 1 1 1 NullActivation
node 38 1 1 1 NullActivation
node 39 11 1 1 NullActivation
node 40 1 1 1 NullActivation
node 41 1 1 1 NullActivation
node 42 1 1 1 NullActivation
node 43 1 1 1 NullActivation
node 44 1 1 1 NullActivation
node 45 1 1 1 NullActivation
node 46 1 1 1 NullActivation
node 47 1 1 1 NullActivation
node 48 1 1 1 NullActivation
node 49 1 1 1 NullActivation
node 50 1 1 1 NullActivation
node 51 1 1 1 NullActivation
node 52 1 1 1 NullActivation
node 53 1 1 1 NullActivation
node 54 1 1 1 NullActivation
node 55 1 1 1 NullActivation
node 56 1 0 2 SigmoidSteepenedActivation
node 109 15 0 0 SigmoidSteepenedActivation
gene 1 1 56 2.090693043917714 false 1 2.090693043917714 true
gene 14 51 56 -7.102838254878221 false 118 -7.102838254878221 true
gene 3 31 56 -0.7701264907540439 false 285 -0.7701264907540439 true
gene 7 38 56 9.822271133777974 false 361 9.822271133777974 true
gene 2 8 56 10.004058750878693 false 427 10.004058750878693 true
gene 3 55 56 12.215979996307947 false 750 12.215979996307947 true
gene 11 50 56 -2.8631633719991028 false 876 -2.8631633719991028 true
gene 2 10 56 5.001065707294225 false 988 5.001065707294225 true
gene 15 17 56 -3.955461982948023 false 1370 -3.955461982948023 true
gene 2 9 56 -6.4419926227886455 false 1445 -6.4419926227886455 true
gene 14 2 56 4.379292729011328 false 1521 4.379292729011328 true
gene 7 21 56 7.956255952819487 false 1720 7.956255952819487 true
gene 15 21 109 2.1446052521298395 false 1725 2.1446052521298395 true
gene 10 22 56 -2.3367182499021224 false 1820 -2.3367182499021224 true
gene 6 22 109 3.9005488726548148 false 1821 3.9005488726548148 true
gene 4 27 56 9.19713613460322 false 2330 9.19713613460322 true
gene 11 27 109 5.930931890100204 false 2331 5.930931890100204 true
gene 14 45 56 -2.401439504852102 false 2556 -2.401439504852102 true
gene 8 45 109 3.713124333974645 false 2557 3.713124333974645 true
gene 9 33 56 1.827363274648224 false 3385 1.827363274648224 true
gene 15 33 109 -2.18864885379793 false 3448 -2.18864885379793 true
gene 15 23 56 4.002240619521004 false 4085 4.002240619521004 true
gene 6 23 109 1.7896358635624119 false 4111 1.7896358635624119 true
gene 7 24 56 -3.8501133020524625 false 4242 -3.8501133020524625 true
gene 11 24 109 2.1115094370912657 false 4243 2.1115094370912657 true
gene 3 11 56 -0.6033013003751018 false 5127 -0.6033013003751018 true
gene 15 11 109 4.196676513983776 false 5128 4.196676513983776 true
gene 13 42 56 5.034688459152106 false 6448 5.034688459152106 true
gene 7 42 109 -0.6716373145974008 false 6460 -0.6716373145974008 true
gene 11 54 56 -4.178618809725998 false 7045 -4.178618809725998 true
gene 12 54 109 -3.6492278873468242 false 7046 -3.6492278873468242 true
gene 5 6 56 3.478793496337409 false 7299 3.478793496337409 true
gene 12 6 109 -0.686367522135612 false 7300 -0.686367522135612 true
gene 11 13 56 -2.131846624875704 false 7554 -2.131846624875704 true
gene 6 13 109 7.434718576300735 false 7610 7.434718576300735 true
gene 9 14 56 8.378246190051728 false 7824 8.378246190051728 true
gene 9 14 109 0.4407149470613324 false 7825 0.4407149470613324 true
gene 14 53 56 3.2622116148593197 false 8428 3.2622116148593197 true
gene 5 53 109 -4.856005895450426 false 8429 -4.856005895450426 true
gene 13 7 109 3.8311174872004177 false 8676 3.8311174872004177 true
gene 4 4 56 -4.440613241413334 false 8926 -4.440613241413334 true
gene 1 4 109 4.0673038058408135 false 8927 4.0673038058408135 true
gene 11 39 109 -1.1906290706888925 false 9383 -1.1906290706888925 true
gene 8 12 56 -5.043568988517577 false 10025 -5.043568988517577 true
gene 3 12 109 -7.80846630335072 false 10026 -7.80846630335072 true
gene 8 26 109 2.5881842337678522 false 10526 2.5881842337678522 true
gene 7 48 56 -3.4519109540877055 false 11655 -3.4519109540877055 true
gene 2 48 109 2.5756712989593016 false 11754 2.5756712989593016 true
gene 11 20 56 5.124842575969226 false 11903 5.124842575969226 true
gene 8 20 109 0.8102631615279499 false 11904 0.8102631615279499 true
gene 13 18 56 3.8431587126597115 false 12489 3.8431587126597115 true
gene 5 18 109 -3.6618946035002065 false 12490 -3.6618946035002065 true
gene 6 15 56 1.8891594716234672 false 12897 1.8891594716234672 true
gene 2 15 109 3.369907090603286 false 12898 3.369907090603286 true
gene 5 37 56 1.4005172924110942 false 13845 1.4005172924110942 true
gene 11 37 109 1.3171155925175475 false 13846 1.3171155925175475 true
gene 13 25 109 1.6986793910562916 false 14766 1.6986793910562916 true
gene 8 5 56 -3.198293587741118 false 15390 -3.198293587741118 true
gene 8 34 56 0.2966999679584249 false 15678 0.2966999679584249 true
gene 8 34 109 -2.809727892438065 false 15692 -2.809727892438065 true
gene 5 52 56 5.581123852060594 false 16024 5.581123852060594 true
gene 14 52 109 -2.2499439016050546 false 16025 -2.2499439016050546 true
gene 1 16 56 -1.2712450610658061 false 16411 -1.2712450610658061 true
gene 6 16 109 0.7672919361922159 false 16412 0.7672919361922159 true
gene 7 44 56 0.14868006459460736 false 17088 0.14868006459460736 true
gene 12 44 109 1.5885428441553433 false 17089 1.5885428441553433 true
gene 6 47 56 -2.0799666228298106 false 17423 -2.0799666228298106 true
gene 10 47 109 -0.9499777204812185 false 17424 -0.9499777204812185 true
gene 11 29 56 -8.354228566517131 false 17827 -8.354228566517131 true
gene 8 29 109 1.406304720589475 false 17828 1.406304720589475 true
gene 15 49 56 -0.8027023868918333 false 18415 -0.8027023868918333 true
gene 8 49 109 0.45542106528978976 false 18416 0.45542106528978976 true
genomeend 8
/* Organism #11 Fitness: 7.000 Error: 0.000 */
genomestart 11
trait 1 0.09295883178710937 0.00010249911422151671 0.02166042551836813 0.00015818532567921862 8.609894886023163e-05 0.04165821658759088 0.0028447316300268793 0.013607088520029094
trait 2 0.19975872039794923 0.00017787161927738606 0 0.00041804582099829834 0 0 0 0.0002507132125829034
trait 3 0.2883167713880539 0.024122844794166827 0.0011280370764682897 0 0 0 0 0
trait 4 0.40473196866106115 0 0 0 0 0.004417356521395984 0.003619648155572262 0.017649023470538
trait 5 0.49645690721106256 0.014633573141137113 0.004127655137973679 0.02430645212086152 0.02650033876965742 0 0.00473482246967114 0.07031686792587097
trait 6 0.6 0.05017127060661776 0 0.09240595271340314 0 0 0 0
trait 7 0.7 0 0 0.0075432519770135655 0.39531770096859187 0.7691583947832591 0 0
trait 8 0.7999559134050138 0.0019323013387910534 0 0 0.001931635793229787 0.020394658686473357 0.006791140545454464 0
trait 9 0.9120662532932298 0 0 0.013659474759654958 0.03672979284988916 0 0 0
trait 10 1 0 0.05349147969313509 0 0 0 0 0
trait 11 1.1 0 0 0.13495393458667973 0.9497181324448802 0 0.29520705751675647 0.1365264360675177
trait 12 1.2 0 0 0.024533565808601755 0.01603507514622978 0.01746709454643145 0 0
trait 13 1.3 0 0.04214052514923913 0 0.024988582728149713 0.03249683716431419 0 0
trait 14 1.4 0 0 0 0 0 0 0
trait 15 1.502051354753783 0.10821067296567899 0.05150461938738998 7.447039135367398e-05 0 0 0 0
node 1 1 1 3 NullActivation
node 2 1 1 1 NullActivation
node 3 1 1 1 NullActivation
node 4 1 1 1 NullActivation
node 5 1 1 1 NullActivation
node 6 1 1 1 NullActivation
node 7 1 1 1 NullActivation
node 8 1 1 1 NullActivation
node 9 1 1 1 NullActivation
node 10 1 1 1 NullActivation
node 11 1 1 1 NullActivation
node 12 1 1 1 NullActivation
node 13 1 1 1 NullActivation
node 14 1 1 1 NullActivation
node 15 1 1 1 NullActivation
node 16 1 1 1 NullActivation
node 17 1 1 1 NullActivation
node 18 1 1 1 NullActivation
node 19 1 1 1 NullActivation
node 20 1 1 1 NullActivation
node 21 1 1 1 NullActivation
node 22 1 1 1 NullActivation
node 23 1 1 1 NullActivation
node 24 1 1 1 NullActivation
node 25 1 1 1 NullActivation
node 26 1 1 1 NullActivation
node 27 1 1 1 NullActivation
node 28 1 1 1 NullActivation
node 29 1 1 1 NullActivation
node 30 1 1 1 NullActivation
node 31 1 1 1 NullActivation
node 32 1 1 1 NullActivation
node 33 1 1 1 NullActivation
node 34 1 1 1 NullActivation
node 35 1 1 1 NullActivation
node 36 1 1 1 NullActivation
node 37 1 1 1 NullActivation
node 38 1 1 1 NullActivation
node 39 11 1 1 NullActivation
node 40 1 1 1 NullActivation
node 41 1 1 1 NullActivation
node 42 1 1 1 NullActivation
node 43 1 1 1 NullActivation
node 44 1 1 1 NullActivation
node 45 1 1 1 NullActivation
node 46 1 1 1 NullActivation
node 47 1 1 1 NullActivation
node 48 1 1 1 NullActivation
node 49 1 1 1 NullActivation
node 50 1 1 1 NullActivation
node 51 1 1 1 NullActivation
node 52 1 1 1 NullActivation
node 53 1 1 1 NullActivation
node 54 1 1 1 NullActivation
node 55 1 1 1 NullActivation
node 56 1 0 2 SigmoidSteepenedActivation
node 109 15 0 0 SigmoidSteepenedActivation
gene 1 1 56 4.568884643259303 false 1 4.568884643259303 true
gene 14 51 56 -9.231534305953833 false 118 -9.231534305953833 true
gene 3 31 56 -0.7690909251941997 false 285 -0.7690909251941997 true
gene 7 38 56 8.627740425328206 false 361 8.627740425328206 true
gene 2 8 56 8.54035531593393 false 427 8.54035531593393 true
gene 3 55 56 8.110610553127328 false 750 8.110610553127328 true
gene 11 50 56 -1.9248589555150108 false 876 -1.9248589555150108 true
gene 2 10 56 4.446536541354813 false 988 4.446536541354813 true
gene 15 17 56 -5.729229293794556 false 1370 -5.729229293794556 true
gene 2 9 56 -4.530754123600942 false 1445 -4.530754123600942 true
gene 14 2 56 6.012633990595054 false 1521 6.012633990595054 true
gene 7 21 56 6.573813879511376 false 1720 6.573813879511376 true
gene 15 21 109 2.1633033758596527 false 1725 2.1633033758596527 true
gene 10 22 56 1.3402730535224374 false 1820 1.3402730535224374 true
gene 6 22 109 3.7095160160033487 false 1821 3.7095160160033487 true
gene 4 27 56 10.846223782193345 false 2330 10.846223782193345 true
gene 11 27 109 7.081149645401622 false 2331 7.081149645401622 true
gene 14 45 56 -3.491026809091735 false 2556 -3.491026809091735 true
gene 8 45 109 2.0946647920466654 false 2557 2.0946647920466654 true
gene 9 33 56 1.3828133639081988 false 3385 1.3828133639081988 true
gene 15 33 109 -0.08024734905794442 false 3448 -0.08024734905794442 true
gene 15 23 56 5.92270838492858 false 4085 5.92270838492858 true
gene 6 23 109 -2.6591245776233943 false 4111 -2.6591245776233943 true
gene 7 24 56 -5.1910174214290095 false 4242 -5.1910174214290095 true
gene 11 24 109 2.4300600665710212 false 4243 2.4300600665710212 true
gene 3 11 56 3.70007926208486 false 5127 3.70007926208486 true
gene 15 11 109 6.2714899750487625 false 5128 6.2714899750487625 true
gene 13 42 56 2.608526686084807 false 6448 2.608526686084807 true
