/* Species #1 : (Size 9) (AF 17.000) (Age 60)  */
/* Organism #4 Fitness: 24.000 Error: 0.000 */
genomestart 4
trait 1 0.09319894282089079 0.00010388934918559783 0.020683321930074557 0.00018017169475865205 8.72667420649362e-05 0.04019281736201405 0.0024491925734935116 0.01312843584084682
trait 2 0.19980275670914127 0.00014382720035320575 0 0.00033803234207800844 0 0 0 0.0002074801565100068
trait 3 0.28813722199547975 0.02449356784289007 0.0011453728984921626 0 0 0 0 0
trait 4 0.40457465137635573 0 0 0 0 0.004270498715840294 0.0033195056709149832 0.026563617809324043
trait 5 0.49677513001471285 0.015217309770485271 0.003701030006440745 0.025020687989594857 0.026723066040632307 0 0.004118728314631613 0.07312182410940073
trait 6 0.6 0.051709323886018496 0 0.09523875477100643 0 0 0 0
trait 7 0.7 0 0.08554437525332984 0.007492819769346285 0 0.08160881812858953 0 0.039917970913562015
trait 8 0.7999688953049002 0.002074915283143342 0 0 0.0020742006168389853 0.02070210095293686 0.006822788898394107 0
trait 9 0.9116980412883673 0 0 0.013242644243636897 0.03560895191154823 0 0 0
trait 10 1 0 0 0 0 0 0 0
trait 11 1.1 5.060907033945757e-05 0.00033376303666155394 0.00018530854946248023 0.00032640227557092816 0 0 4.756313265002167e-05
trait 12 1.2 0 0 0.02667162198298667 0.014820979384566816 0.016144573431687875 0 0
trait 13 1.2870834586172553 0 0.04184234532933953 0.038098557868191524 0.010831774345166337 0.032266894584845975 0 0
trait 14 1.4 0 0 0 0 0 0 0
trait 15 1.5021492214932852 0.0007114706283590744 0.0002828655930737782 7.71645976360236e-05 0 0 0 0
node 1 1 1 3 NullActivation
node 2 1 1 1 NullActivation
node 3 1 1 1 NullActivation
node 4 1 1 1 NullActivation
node 5 1 1 1 NullActivation
node 6 1 1 1 NullActivation
node 7 1 1 1 NullActivation
node 8 1 1 1 NullActivation
node 9 1 1 1 NullActivation
node 10 1 1 1 NullActivation
node 11 1 1 1 NullActivation
node 12 1 1 1 NullActivation
node 13 1 1 1 NullActivation
node 14 1 1 1 NullActivation
node 15 1 1 1 NullActivation
node 16 1 1 1 NullActivation
node 17 1 1 1 NullActivation
node 18 1 1 1 NullActivation
node 19 1 1 1 NullActivation
node 20 1 1 1 NullActivation
node 21 1 1 1 NullActivation
node 22 1 1 1 NullActivation
node 23 1 1 1 NullActivation
node 24 1 1 1 NullActivation
node 25 1 1 1 NullActivation
node 26 1 1 1 NullActivation
node 27 1 1 1 NullActivation
node 28 1 1 1 NullActivation
node 29 1 1 1 NullActivation
node 30 1 1 1 NullActivation
node 31 1 1 1 NullActivation
node 32 1 1 1 NullActivation
node 33 1 1 1 NullActivation
node 34 1 1 1 NullActivation
node 35 1 1 1 NullActivation
node 36 1 1 1 NullActivation
node 37 1 1 1 NullActivation
node 38 1 1 1 NullActivation
node 39 1 1 1 NullActivation
node 40 1 1 1 NullActivation
node 41 1 1 1 NullActivation
node 42 1 1 1 NullActivation
node 43 1 1 1 NullActivation
node 44 1 1 1 NullActivation
node 45 1 1 1 NullActivation
node 46 1 1 1 NullActivation
node 47 1 1 1 NullActivation
node 48 1 1 1 NullActivation
node 49 1 1 1 NullActivation
node 50 1 1 1 NullActivation
node 51 1 1 1 NullActivation
node 52 1 1 1 NullActivation
node 53 1 1 1 NullActivation
node 54 1 1 1 NullActivation
node 55 1 1 1 NullActivation
node 56 1 0 2 SigmoidSteepenedActivation
node 294 1 0 0 SigmoidSteepenedActivation
gene 1 1 56 -2.7071455777914135 false 1 -2.7071455777914135 true
gene 14 51 56 -9.571383943179676 false 118 -9.571383943179676 true
gene 3 31 56 1.5831171090896927 false 285 1.5831171090896927 true
gene 7 38 56 2.4103883308356315 false 361 2.4103883308356315 true
gene 2 8 56 10.236453346497164 false 427 10.236453346497164 true
gene 3 55 56 9.611264800361532 false 750 9.611264800361532 true
gene 12 18 56 5.484190698582232 false 814 5.484190698582232 true
gene 11 50 56 3.0641562683167627 false 876 3.0641562683167627 true
gene 2 10 56 0.1011871865353251 false 988 0.1011871865353251 true
gene 11 37 56 0.5648519538530883 false 1088 0.5648519538530883 true
gene 15 2 56 -6.473522708039958 false 1296 -6.473522708039958 true
gene 14 52 56 8.575832907527348 false 1358 8.575832907527348 true
gene 13 45 56 0.6985864547389076 false 1597 0.890449021628403 true
gene 10 54 56 5.373816838875353 false 1635 5.373816838875353 true
gene 3 9 56 2.2726541761262986 false 1716 1.340709817469529 true
gene 2 4 56 1.734444525782508 false 1837 1.734444525782508 true
gene 8 14 56 3.649393976462754 false 1926 3.649393976462754 true
gene 9 20 56 7.9720334463464955 false 2182 7.9720334463464955 true
gene 4 12 56 0.4639786533825734 false 2320 0.4639786533825734 true
gene 10 11 56 0.14537419782268302 false 2446 0.14537419782268302 true
gene 14 39 56 5.460862989241193 false 3269 5.460862989241193 true
gene 3 36 56 0.8371333458051258 false 3381 0.8371333458051258 true
gene 6 16 56 6.9269272484410855 false 3756 6.9269272484410855 true
gene 3 42 56 -8.54226057287234 false 4028 -8.54226057287234 true
gene 14 28 56 1.5471813940967079 false 4422 1.5471813940967079 true
gene 12 53 56 7.990976900139017 false 4988 7.990976900139017 true
gene 12 22 56 -4.772316995903075 false 5773 -4.772316995903075 true
gene 15 21 56 -8.932374008521894 false 6008 -8.932374008521894 true
gene 13 24 56 0.7978084892659425 false 6191 0 true
gene 14 52 294 1 false 6379 0 true
gene 14 294 56 9.269556980612254 false 6380 0 true
gene 14 26 56 0.428980777927124 false 6630 0.428980777927124 true
gene 12 26 294 7.3067157917796655 false 6631 7.3067157917796655 true
gene 7 5 56 -7.535761332427273 false 7474 -7.535761332427273 true
gene 13 5 294 -7.724966498658895 false 7480 -7.724966498658895 true
gene 10 12 294 9.623113023818155 false 7668 9.623113023818155 true
genomeend 4
/* Organism #8 Fitness: 23.000 Error: 0.000 */
genomestart 8
trait 1 0.09319894282089079 0.00010388934918559783 0.020683321930074557 0.00018017169475865205 8.72667420649362e-05 0.04019281736201405 0.0024491925734935116 0.01312843584084682
trait 2 0.19980275670914127 0.00014382720035320575 0 0.00033803234207800844 0 0 0 0.0002074801565100068
trait 3 0.28813722199547975 0.02449356784289007 0.0011453728984921626 0 0 0 0 0
trait 4 0.40457465137635573 0 0 0 0 0.004270498715840294 0.0033195056709149832 0.026563617809324043
trait 5 0.49677513001471285 0.015217309770485271 0.003701030006440745 0.025020687989594857 0.026723066040632307 0 0.004118728314631613 0.07312182410940073
trait 6 0.6 0.051709323886018496 0 0.09523875477100643 0 0 0 0
trait 7 0.7 0 0.08554437525332984 0.007492819769346285 0 0.08160881812858953 0 0.039917970913562015
trait 8 0.7999688953049002 0.002074915283143342 0 0 0.0020742006168389853 0.02070210095293686 0.006822788898394107 0
trait 9 0.9116980412883673 0 0 0.013242644243636897 0.03560895191154823 0 0 0
trait 10 1 0 0 0 0 0 0 0
trait 11 1.1 5.060907033945757e-05 0.00033376303666155394 0.00018530854946248023 0.00032640227557092816 0 0 4.756313265002167e-05
trait 12 1.2 0 0 0.02667162198298667 0.014820979384566816 0.016144573431687875 0 0
trait 13 1.2870834586172553 0 0.04184234532933953 0.038098557868191524 0.010831774345166337 0.032266894584845975 0 0
trait 14 1.4 0 0 0 0 0 0 0
trait 15 1.5021492214932852 0.0007114706283590744 0.0002828655930737782 7.71645976360236e-05 0 0 0 0
node 1 1 1 3 NullActivation
node 2 1 1 1 NullActivation
node 3 1 1 1 NullActivation
node 4 1 1 1 NullActivation
node 5 1 1 1 NullActivation
node 6 1 1 1 NullActivation
node 7 1 1 1 NullActivation
node 8 1 1 1 NullActivation
node 9 1 1 1 NullActivation
node 10 1 1 1 NullActivation
node 11 1 1 1 NullActivation
node 12 1 1 1 NullActivation
node 13 1 1 1 NullActivation
node 14 1 1 1 NullActivation
node 15 1 1 1 NullActivation
node 16 1 1 1 NullActivation
node 17 1 1 1 NullActivation
node 18 1 1 1 NullActivation
node 19 1 1 1 NullActivation
node 20 1 1 1 NullActivation
node 21 1 1 1 NullActivation
node 22 1 1 1 NullActivation
node 23 1 1 1 NullActivation
node 24 1 1 1 NullActivation
node 25 1 1 1 NullActivation
node 26 1 1 1 NullActivation
node 27 1 1 1 NullActivation
node 28 1 1 1 NullActivation
node 29 1 1 1 NullActivation
node 30 1 1 1 NullActivation
node 31 1 1 1 NullActivation
node 32 1 1 1 NullActivation
node 33 1 1 1 NullActivation
node 34 1 1 1 NullActivation
node 35 1 1 1 NullActivation
node 36 1 1 1 NullActivation
node 37 1 1 1 NullActivation
node 38 1 1 1 NullActivation
node 39 1 1 1 NullActivation
node 40 1 1 1 NullActivation
node 41 1 1 1 NullActivation
node 42 1 1 1 NullActivation
node 43 1 1 1 NullActivation
node 44 1 1 1 NullActivation
node 45 1 1 1 NullActivation
node 46 1 1 1 NullActivation
node 47 1 1 1 NullActivation
node 48 1 1 1 NullActivation
node 49 1 1 1 NullActivation
node 50 1 1 1 NullActivation
node 51 1 1 1 NullActivation
node 52 1 1 1 NullActivation
node 53 1 1 1 NullActivation
node 54 1 1 1 NullActivation
node 55 1 1 1 NullActivation
node 56 1 0 2 SigmoidSteepenedActivation
node 294 1 0 0 SigmoidSteepenedActivation
node 329 1 0 0 SigmoidSteepenedActivation
gene 1 1 56 -2.7071455777914135 false 1 -2.7071455777914135 true
gene 14 51 56 -9.571383943179676 false 118 -9.571383943179676 true
gene 3 31 56 1.5831171090896927 false 285 1.5831171090896927 true
gene 7 38 56 2.4103883308356315 false 361 2.4103883308356315 true
gene 2 8 56 10.236453346497164 false 427 10.236453346497164 true
gene 3 55 56 9.611264800361532 false 750 9.611264800361532 true
gene 12 18 56 5.484190698582232 false 814 5.484190698582232 true
gene 11 50 56 3.2914432235746105 false 876 3.2914432235746105 true
gene 2 10 56 0.1011871865353251 false 988 0.1011871865353251 true
gene 11 37 56 0.5648519538530883 false 1088 0.5648519538530883 true
gene 15 2 56 -4.821927354148501 false 1296 -4.821927354148501 false
gene 14 52 56 8.575832907527348 false 1358 8.575832907527348 true
gene 13 45 56 0.6985864547389076 false 1597 0.890449021628403 true
gene 10 54 56 4.835338047736689 false 1635 4.835338047736689 true
gene 3 9 56 2.2726541761262986 false 1716 1.340709817469529 true
gene 2 4 56 1.734444525782508 false 1837 1.734444525782508 true
gene 8 14 56 3.649393976462754 false 1926 3.649393976462754 true
gene 9 20 56 7.9720334463464955 false 2182 7.9720334463464955 true
gene 4 12 56 0.7204001135726115 false 2320 0.7204001135726115 true
gene 10 11 56 0.2007540353972102 false 2446 0.2007540353972102 true
gene 14 39 56 4.91337763812405 false 3269 4.91337763812405 true
gene 3 36 56 0.8371333458051258 false 3381 0.8371333458051258 true
gene 6 16 56 6.9269272484410855 false 3756 6.9269272484410855 true
gene 3 42 56 -8.54226057287234 false 4028 -8.54226057287234 true
gene 14 28 56 1.5471813940967079 false 4422 1.5471813940967079 true
gene 12 53 56 7.990976900139017 false 4988 7.990976900139017 true
gene 12 22 56 -4.772316995903075 false 5773 -4.772316995903075 true
gene 15 21 56 -8.932374008521894 false 6008 -8.932374008521894 true
gene 13 24 56 0.7978084892659425 false 6191 0 true
gene 14 26 56 0.428980777927124 false 6630 0.428980777927124 true
gene 12 26 294 7.3067157917796655 false 6631 7.3067157917796655 true
gene 5 25 56 1.4772332419166756 false 7488 1.4772332419166756 true
gene 12 25 294 -4.683628240940948 false 7489 -4.683628240940948 true
gene 15 2 329 1 false 7671 0 true
gene 15 329 56 -4.821927354148501 false 7672 0 true
genomeend 8
/* Organism #0 Fitness: 20.000 Error: 0.000 */
genomestart 0
trait 1 0.09319894282089079 0.00010388934918559783 0.020683321930074557 0.00018017169475865205 8.72667420649362e-05 0.04019281736201405 0.0024491925734935116 0.01312843584084682
trait 2 0.19980275670914127 0.00014382720035320575 0 0.00033803234207800844 0 0 0 0.0002074801565100068
trait 3 0.28813722199547975 0.02449356784289007 0.0011453728984921626 0 0 0 0 0
trait 4 0.40457465137635573 0 0 0 0 0.004270498715840294 0.0033195056709149832 0.026563617809324043
trait 5 0.49677513001471285 0.015217309770485271 0.003701030006440745 0.025020687989594857 0.026723066040632307 0 0.004118728314631613 0.07312182410940073
trait 6 0.6 0.051709323886018496 0 0.09523875477100643 0 0 0 0
trait 7 0.7 0 0.08554437525332984 0.007492819769346285 0 0.08160881812858953 0 0.039917970913562015
trait 8 0.7999688953049002 0.002074915283143342 0 0 0.0020742006168389853 0.02070210095293686 0.006822788898394107 0
trait 9 0.9116980412883673 0 0 0.013242644243636897 0.03560895191154823 0 0 0
trait 10 1 0 0 0 0 0 0 0
trait 11 1.1 5.060907033945757e-05 0.00033376303666155394 0.00018530854946248023 0.00032640227557092816 0 0 4.756313265002167e-05
trait 12 1.2 0 0 0.02667162198298667 0.014820979384566816 0.016144573431687875 0 0
trait 13 1.2870834586172553 0 0.04184234532933953 0.038098557868191524 0.010831774345166337 0.032266894584845975 0 0
trait 14 1.4 0 0 0 0 0 0 0
trait 15 1.5021492214932852 0.0007114706283590744 0.0002828655930737782 7.71645976360236e-05 0 0 0 0
node 1 1 1 3 NullActivation
node 2 1 1 1 NullActivation
node 3 1 1 1 NullActivation
node 4 1 1 1 NullActivation
node 5 1 1 1 NullActivation
node 6 1 1 1 NullActivation
node 7 1 1 1 NullActivation
node 8 1 1 1 NullActivation
node 9 1 1 1 NullActivation
node 10 1 1 1 NullActivation
node 11 1 1 1 NullActivation
node 12 1 1 1 NullActivation
node 13 1 1 1 NullActivation
node 14 1 1 1 NullActivation
node 15 1 1 1 NullActivation
node 16 1 1 1 NullActivation
node 17 1 1 1 NullActivation
node 18 1 1 1 NullActivation
node 19 1 1 1 NullActivation
node 20 1 1 1 NullActivation
node 21 1 1 1 NullActivation
node 22 1 1 1 NullActivation
node 23 1 1 1 NullActivation
node 24 1 1 1 NullActivation
node 25 1 1 1 NullActivation
node 26 1 1 1 NullActivation
node 27 1 1 1 NullActivation
node 28 1 1 1 NullActivation
node 29 1 1 1 NullActivation
node 30 1 1 1 NullActivation
node 31 1 1 1 NullActivation
node 32 1 1 1 NullActivation
node 33 1 1 1 NullActivation
node 34 1 1 1 NullActivation
node 35 1 1 1 NullActivation
node 36 1 1 1 NullActivation
node 37 1 1 1 NullActivation
node 38 1 1 1 NullActivation
node 39 1 1 1 NullActivation
node 40 1 1 1 NullActivation
node 41 1 1 1 NullActivation
node 42 1 1 1 NullActivation
node 43 1 1 1 NullActivation
node 44 1 1 1 NullActivation
node 45 1 1 1 NullActivation
node 46 1 1 1 NullActivation
node 47 1 1 1 NullActivation
node 48 1 1 1 NullActivation
node 49 1 1 1 NullActivation
node 50 1 1 1 NullActivation
node 51 1 1 1 NullActivation
node 52 1 1 1 NullActivation
node 53 1 1 1 NullActivation
node 54 1 1 1 NullActivation
node 55 1 1 1 NullActivation
node 56 1 0 2 SigmoidSteepenedActivation
node 294 1 0 0 SigmoidSteepenedActivation
gene 1 1 56 -2.7071455777914135 false 1 -2.7071455777914135 true
gene 14 51 56 -9.571383943179676 false 118 -9.571383943179676 true
gene 3 31 56 1.5831171090896927 false 285 1.5831171090896927 true
gene 7 38 56 2.4103883308356315 false 361 2.4103883308356315 true
gene 2 8 56 10.236453346497164 false 427 10.236453346497164 true
gene 3 55 56 9.611264800361532 false 750 9.611264800361532 true
gene 12 18 56 5.484190698582232 false 814 5.484190698582232 true
gene 11 50 56 3.0641562683167627 false 876 3.0641562683167627 true
gene 2 10 56 0.1011871865353251 false 988 0.1011871865353251 true
gene 11 37 56 0.5648519538530883 false 1088 0.5648519538530883 true
gene 15 2 56 -6.473522708039958 false 1296 -6.473522708039958 true
gene 14 52 56 8.575832907527348 false 1358 8.575832907527348 true
gene 13 45 56 0.6985864547389076 false 1597 0.890449021628403 true
gene 10 54 56 5.373816838875353 false 1635 5.373816838875353 true
gene 3 9 56 2.2726541761262986 false 1716 1.340709817469529 true
gene 2 4 56 1.734444525782508 false 1837 1.734444525782508 true
gene 8 14 56 3.649393976462754 false 1926 3.649393976462754 true
gene 9 20 56 7.9720334463464955 false 2182 7.9720334463464955 true
gene 4 12 56 0.4639786533825734 false 2320 0.4639786533825734 true
gene 10 11 56 0.14537419782268302 false 2446 0.14537419782268302 true
gene 14 39 56 5.460862989241193 false 3269 5.460862989241193 true
gene 3 36 56 0.8371333458051258 false 3381 0.8371333458051258 true
gene 6 16 56 6.9269272484410855 false 3756 6.9269272484410855 true
gene 3 42 56 -8.54226057287234 false 4028 -8.54226057287234 true
gene 14 28 56 1.5471813940967079 false 4422 1.5471813940967079 true
gene 12 53 56 7.990976900139017 false 4988 7.990976900139017 true
gene 12 22 56 -4.772316995903075 false 5773 -4.772316995903075 true
gene 15 21 56 -8.932374008521894 false 6008 -8.932374008521894 true
gene 13 24 56 0.7978084892659425 false 6191 0 true
gene 14 52 294 1 false 6379 0 true
gene 14 294 56 9.269556980612254 false 6380 0 true
gene 14 26 56 0.428980777927124 false 6630 0.428980777927124 true
gene 12 26 294 7.3067157917796655 false 6631 7.3067157917796655 true
gene 7 5 56 -7.535761332427273 false 7474 -7.535761332427273 true
gene 13 5 294 -7.724966498658895 false 7480 -7.724966498658895 true
genomeend 0
/* Organism #6 Fitness: 17.000 Error: 0.000 */
genomestart 6
trait 1 0.09319894282089079 0.00010388934918559783 0.020683321930074557 0.00018017169475865205 8.72667420649362e-05 0.04019281736201405 0.0024491925734935116 0.01312843584084682
trait 2 0.19980275670914127 0.00014382720035320575 0 0.00033803234207800844 0 0 0 0.0002074801565100068
trait 3 0.28813722199547975 0.02449356784289007 0.0011453728984921626 0 0 0 0 0
trait 4 0.40457465137635573 0 0 0 0 0.004270498715840294 0.0033195056709149832 0.026563617809324043
trait 5 0.49677513001471285 0.015217309770485271 0.003701030006440745 0.025020687989594857 0.026723066040632307 0 0.004118728314631613 0.07312182410940073
trait 6 0.6 0.051709323886018496 0 0.09523875477100643 0 0 0 0
trait 7 0.7 0 0.08554437525332984 0.007492819769346285 0 0.08160881812858953 0 0.039917970913562015
trait 8 0.7999688953049002 0.002074915283143342 0 0 0.0020742006168389853 0.02070210095293686 0.006822788898394107 0
trait 9 0.9116980412883673 0 0 0.013242644243636897 0.03560895191154823 0 0 0
trait 10 1 0 0 0 0 0 0 0
trait 11 1.1 5.060907033945757e-05 0.00033376303666155394 0.00018530854946248023 0.00032640227557092816 0 0 4.756313265002167e-05
trait 12 1.2 0 0 0.02667162198298667 0.014820979384566816 0.016144573431687875 0 0
trait 13 1.2870834586172553 0 0.04184234532933953 0.038098557868191524 0.010831774345166337 0.032266894584845975 0 0
trait 14 1.4 0 0 0 0 0 0 0
trait 15 1.5021492214932852 0.0007114706283590744 0.0002828655930737782 7.71645976360236e-05 0 0 0 0
node 1 1 1 3 NullActivation
node 2 1 1 1 NullActivation
node 3 1 1 1 NullActivation
node 4 1 1 1 NullActivation
node 5 1 1 1 NullActivation
node 6 1 1 1 NullActivation
node 7 1 1 1 NullActivation
node 8 1 1 1 NullActivation
node 9 1 1 1 NullActivation
node 10 1 1 1 NullActivation
node 11 1 1 1 NullActivation
node 12 1 1 1 NullActivation
node 13 1 1 1 NullActivation
node 14 1 1 1 NullActivation
node 15 1 1 1 NullActivation
node 16 1 1 1 NullActivation
node 17 1 1 1 NullActivation
node 18 1 1 1 NullActivation
node 19 1 1 1 NullActivation
node 20 1 1 1 NullActivation
node 21 1 1 1 NullActivation
node 22 1 1 1 NullActivation
node 23 1 1 1 NullActivation
node 24 1 1 1 NullActivation
node 25 1 1 1 NullActivation
node 26 1 1 1 NullActivation
node 27 1 1 1 NullActivation
node 28 1 1 1 NullActivation
node 29 1 1 1 NullActivation
node 30 1 1 1 NullActivation
node 31 1 1 1 NullActivation
node 32 1 1 1 NullActivation
node 33 1 1 1 NullActivation
node 34 1 1 1 NullActivation
node 35 1 1 1 NullActivation
node 36 1 1 1 NullActivation
node 37 1 1 1 NullActivation
node 38 1 1 1 NullActivation
node 39 1 1 1 NullActivation
node 40 1 1 1 NullActivation
node 41 1 1 1 NullActivation
node 42 1 1 1 NullActivation
node 43 1 1 1 NullActivation
node 44 1 1 1 NullActivation
node 45 1 1 1 NullActivation
node 46 1 1 1 NullActivation
node 47 1 1 1 NullActivation
node 48 1 1 1 NullActivation
node 49 1 1 1 NullActivation
node 50 1 1 1 NullActivation
node 51 1 1 1 NullActivation
node 52 1 1 1 NullActivation
node 53 1 1 1 NullActivation
node 54 1 1 1 NullActivation
node 55 1 1 1 NullActivation
node 56 1 0 2 SigmoidSteepenedActivation
node 294 1 0 0 SigmoidSteepenedActivation
gene 1 1 56 -0.053448834041511094 false 1 -0.053448834041511094 true
gene 14 51 56 -11.583299487766311 false 118 -11.583299487766311 true
gene 3 31 56 1.5831171090896927 false 285 1.5831171090896927 true
gene 7 38 56 0.3462623738887607 false 361 0.3462623738887607 true
gene 2 8 56 8.218278659635853 false 427 8.218278659635853 true
gene 3 55 56 7.357763022348056 false 750 7.357763022348056 true
gene 12 18 56 7.293917122818434 false 814 7.293917122818434 true
gene 13 50 56 1.022781299294321 false 876 1.022781299294321 true
gene 2 10 56 2.1609032994454322 false 988 2.1609032994454322 true
gene 11 37 56 -0.9752767701254572 false 1088 -0.9752767701254572 true
gene 15 2 56 -4.821927354148501 false 1296 -4.821927354148501 true
gene 14 52 56 9.506338336012853 false 1358 9.506338336012853 true
gene 13 45 56 3.1910264035723737 false 1597 3.1910264035723737 true
gene 10 54 56 2.7179325401971726 false 1635 2.7179325401971726 true
gene 3 9 56 1.857235082026123 false 1716 1.857235082026123 true
gene 2 4 56 -0.7541878946717371 false 1837 -0.7541878946717371 true
gene 8 14 56 3.8036818336886564 false 1926 3.8036818336886564 true
gene 9 20 56 1.907903748830293 false 2182 1.907903748830293 true
gene 4 12 56 -0.8728249273840877 false 2320 -0.8728249273840877 true
gene 10 11 56 2.6303599733645426 false 2446 2.6303599733645426 true
gene 14 39 56 -0.2869959480668504 false 3269 -0.2869959480668504 true
gene 3 36 56 -1.6326029432659188 false 3381 -1.6326029432659188 true
gene 6 16 56 9.37072694846323 false 3756 9.37072694846323 true
gene 3 42 56 -10.00550651905174 false 4028 -10.00550651905174 true
gene 14 28 56 0.43039299402258285 false 4422 0.43039299402258285 true
gene 12 53 56 7.990976900139017 false 4988 7.990976900139017 true
gene 12 22 56 0.7872872369743793 false 5773 0.7872872369743793 true
gene 15 21 56 -7.624089182247218 false 6008 -7.624089182247218 true
gene 13 24 56 -1.0530001358995584 false 6191 -1.0530001358995584 true
gene 14 26 56 2.6535175465752303 false 6630 2.6535175465752303 true
gene 12 26 294 6.600025307753784 false 6631 6.600025307753784 true
gene 5 25 56 3.896189509648882 false 7488 3.896189509648882 true
gene 12 25 294 -6.468244312392469 false 7489 -6.468244312392469 true
genomeend 6
/* Organism #7 Fitness: 17.000 Error: 0.000 */
genomestart 7
trait 1 0.09319894282089079 0.00010388934918559783 0.020683321930074557 0.00018017169475865205 8.72667420649362e-05 0.04019281736201405 0.0024491925734935116 0.01312843584084682
trait 2 0.19980275670914127 0.00014382720035320575 0 0.00033803234207800844 0 0 0 0.0002074801565100068
trait 3 0.28813722199547975 0.02449356784289007 0.0011453728984921626 0 0 0 0 0
trait 4 0.40457465137635573 0 0 0 0 0.004270498715840294 0.0033195056709149832 0.026563617809324043
trait 5 0.49677513001471285 0.015217309770485271 0.003701030006440745 0.025020687989594857 0.026723066040632307 0 0.004118728314631613 0.07312182410940073
trait 6 0.6 0.051709323886018496 0 0.09523875477100643 0 0 0 0
trait 7 0.7 0 0.08554437525332984 0.007492819769346285 0 0.08160881812858953 0 0.039917970913562015
trait 8 0.7999688953049002 0.002074915283143342 0 0 0.0020742006168389853 0.02070210095293686 0.006822788898394107 0
trait 9 0.9116980412883673 0 0 0.013242644243636897 0.03560895191154823 0 0 0
trait 10 1 0 0 0 0 0 0 0
trait 11 1.1 5.060907033945757e-05 0.00033376303666155394 0.00018530854946248023 0.00032640227557092816 0 0 4.756313265002167e-05
trait 12 1.2 0 0 0.02667162198298667 0.014820979384566816 0.016144573431687875 0 0
trait 13 1.2870834586172553 0 0.04184234532933953 0.038098557868191524 0.010831774345166337 0.032266894584845975 0 0
trait 14 1.4 0 0 0 0 0 0 0
trait 15 1.5021492214932852 0.0007114706283590744 0.0002828655930737782 7.71645976360236e-05 0 0 0 0
node 1 1 1 3 NullActivation
node 2 1 1 1 NullActivation
node 3 1 1 1 NullActivation
node 4 1 1 1 NullActivation
node 5 1 1 1 NullActivation
node 6 1 1 1 NullActivation
node 7 1 1 1 NullActivation
node 8 1 1 1 NullActivation
node 9 1 1 1 NullActivation
node 10 1 1 1 NullActivation
node 11 1 1 1 NullActivation
node 12 1 1 1 NullActivation
node 13 1 1 1 NullActivation
node 14 1 1 1 NullActivation
node 15 1 1 1 NullActivation
node 16 1 1 1 NullActivation
node 17 1 1 1 NullActivation
node 18 1 1 1 NullActivation
node 19 1 1 1 NullActivation
node 20 1 1 1 NullActivation
node 21 1 1 1 NullActivation
node 22 1 1 1 NullActivation
node 23 1 1 1 NullActivation
node 24 1 1 1 NullActivation
node 25 1 1 1 NullActivation
node 26 1 1 1 NullActivation
node 27 1 1 1 NullActivation
node 28 1 1 1 NullActivation
node 29 1 1 1 NullActivation
node 30 1 1 1 NullActivation
node 31 1 1 1 NullActivation
node 32 1 1 1 NullActivation
node 33 1 1 1 NullActivation
node 34 1 1 1 NullActivation
node 35 1 1 1 NullActivation
node 36 1 1 1 NullActivation
node 37 1 1 1 NullActivation
node 38 1 1 1 NullActivation
node 39 1 1 1 NullActivation
node 40 1 1 1 NullActivation
node 41 1 1 1 NullActivation
node 42 1 1 1 NullActivation
node 43 1 1 1 NullActivation
node 44 1 1 1 NullActivation
node 45 1 1 1 NullActivation
node 46 1 1 1 NullActivation
node 47 1 1 1 NullActivation
node 48 1 1 1 NullActivation
node 49 1 1 1 NullActivation
node 50 1 1 1 NullActivation
node 51 1 1 1 NullActivation
node 52 1 1 1 NullActivation
node 53 1 1 1 NullActivation
node 54 1 1 1 NullActivation
node 55 1 1 1 NullActivation
node 56 1 0 2 SigmoidSteepenedActivation
node 294 1 0 0 SigmoidSteepenedActivation
gene 1 1 56 -2.7071455777914135 false 1 -2.7071455777914135 true
gene 14 51 56 -9.571383943179676 false 118 -9.571383943179676 true
gene 3 31 56 1.5831171090896927 false 285 1.5831171090896927 true
gene 7 38 56 2.4103883308356315 false 361 2.4103883308356315 true
gene 2 8 56 10.236453346497164 false 427 10.236453346497164 true
gene 3 55 56 9.611264800361532 false 750 9.611264800361532 true
gene 12 18 56 5.484190698582232 false 814 5.484190698582232 true
gene 11 50 56 3.2914432235746105 false 876 3.2914432235746105 true
gene 2 10 56 0.1011871865353251 false 988 0.1011871865353251 true
gene 11 37 56 0.5648519538530883 false 1088 0.5648519538530883 true
gene 15 2 56 -4.821927354148501 false 1296 -4.821927354148501 true
gene 14 52 56 8.575832907527348 false 1358 8.575832907527348 true
gene 13 45 56 0.6985864547389076 false 1597 0.890449021628403 true
gene 10 54 56 4.835338047736689 false 1635 4.835338047736689 true
gene 3 9 56 2.2726541761262986 false 1716 1.340709817469529 true
gene 2 4 56 1.734444525782508 false 1837 1.734444525782508 true
gene 8 14 56 3.649393976462754 false 1926 3.649393976462754 true
gene 9 20 56 7.9720334463464955 false 2182 7.9720334463464955 true
gene 4 12 56 0.7204001135726115 false 2320 0.7204001135726115 true
gene 10 11 56 0.2007540353972102 false 2446 0.2007540353972102 true
gene 14 39 56 4.91337763812405 false 3269 4.91337763812405 true
gene 3 36 56 0.8371333458051258 false 3381 0.8371333458051258 true
gene 6 16 56 6.9269272484410855 false 3756 6.9269272484410855 true
gene 3 42 56 -8.54226057287234 false 4028 -8.54226057287234 true
gene 14 28 56 1.5471813940967079 false 4422 1.5471813940967079 true
gene 12 53 56 7.990976900139017 false 4988 7.990976900139017 true
gene 12 22 56 -4.772316995903075 false 5773 -4.772316995903075 true
gene 15 21 56 -8.932374008521894 false 6008 -8.932374008521894 true
gene 13 24 56 0.7978084892659425 false 6191 0 true
gene 14 26 56 0.428980777927124 false 6630 0.428980777927124 true
gene 12 26 294 7.3067157917796655 false 6631 7.3067157917796655 true
gene 5 25 56 1.4772332419166756 false 7488 1.4772332419166756 true
gene 12 25 294 -4.683628240940948 false 7489 -4.683628240940948 true
gene 11 23 56 -6.077467677238265 false 7669 -6.077467677238265 true
gene 8 23 294 -3.635566552946614 false 7670 -3.635566552946614 true
genomeend 7
/* Organism #3 Fitness: 16.000 Error: 0.000 */
genomestart 3
trait 1 0.09319894282089079 0.00010388934918559783 0.020683321930074557 0.00018017169475865205 8.72667420649362e-05 0.04019281736201405 0.0024491925734935116 0.01312843584084682
trait 2 0.19980275670914127 0.00014382720035320575 0 0.00033803234207800844 0 0 0 0.0002074801565100068
trait 3 0.28813722199547975 0.02449356784289007 0.0011453728984921626 0 0 0 0 0
trait 4 0.40457465137635573 0 0 0 0 0.004270498715840294 0.0033195056709149832 0.026563617809324043
trait 5 0.49677513001471285 0.015217309770485271 0.003701030006440745 0.025020687989594857 0.026723066040632307 0 0.004118728314631613 0.07312182410940073
trait 6 0.6 0.051709323886018496 0 0.09523875477100643 0 0 0 0
trait 7 0.7 0 0.08554437525332984 0.007492819769346285 0 0.08160881812858953 0 0.039917970913562015
trait 8 0.7999688953049002 0.002074915283143342 0 0 0.0020742006168389853 0.02070210095293686 0.006822788898394107 0
trait 9 0.9116980412883673 0 0 0.013242644243636897 0.03560895191154823 0 0 0
trait 10 1 0 0 0 0 0 0 0
trait 11 1.1 5.060907033945757e-05 0.00033376303666155394 0.00018530854946248023 0.00032640227557092816 0 0 4.756313265002167e-05
trait 12 1.2 0 0 0.02667162198298667 0.014820979384566816 0.016144573431687875 0 0
trait 13 1.2870834586172553 0 0.04184234532933953 0.038098557868191524 0.010831774345166337 0.032266894584845975 0 0
trait 14 1.4 0 0 0 0 0 0 0
trait 15 1.5021492214932852 0.0007114706283590744 0.0002828655930737782 7.71645976360236e-05 0 0 0 0
node 1 1 1 3 NullActivation
node 2 1 1 1 NullActivation
node 3 1 1 1 NullActivation
node 4 1 1 1 NullActivation
node 5 1 1 1 NullActivation
node 6 1 1 1 NullActivation
node 7 1 1 1 NullActivation
node 8 1 1 1 NullActivation
node 9 1 1 1 NullActivation
node 10 1 1 1 NullActivation
node 11 1 1 1 NullActivation
node 12 1 1 1 NullActivation
node 13 1 1 1 NullActivation
node 14 1 1 1 NullActivation
node 15 1 1 1 NullActivation
node 16 1 1 1 NullActivation
node 17 1 1 1 NullActivation
node 18 1 1 1 NullActivation
node 19 1 1 1 NullActivation
node 20 1 1 1 NullActivation
node 21 1 1 1 NullActivation
node 22 1 1 1 NullActivation
node 23 1 1 1 NullActivation
node 24 1 1 1 NullActivation
node 25 1 1 1 NullActivation
node 26 1 1 1 NullActivation
node 27 1 1 1 NullActivation
node 28 1 1 1 NullActivation
node 29 1 1 1 NullActivation
node 30 1 1 1 NullActivation
node 31 1 1 1 NullActivation
node 32 1 1 1 NullActivation
node 33 1 1 1 NullActivation
node 34 1 1 1 NullActivation
node 35 1 1 1 NullActivation
node 36 1 1 1 NullActivation
node 37 1 1 1 NullActivation
node 38 1 1 1 NullActivation
node 39 1 1 1 NullActivation
node 40 1 1 1 NullActivation
node 41 1 1 1 NullActivation
node 42 1 1 1 NullActivation
node 43 1 1 1 NullActivation
node 44 1 1 1 NullActivation
node 45 1 1 1 NullActivation
node 46 1 1 1 NullActivation
node 47 1 1 1 NullActivation
node 48 1 1 1 NullActivation
node 49 1 1 1 NullActivation
node 50 1 1 1 NullActivation
node 51 1 1 1 NullActivation
node 52 1 1 1 NullActivation
node 53 1 1 1 NullActivation
node 54 1 1 1 NullActivation
node 55 1 1 1 NullActivation
node 56 1 0 2 SigmoidSteepenedActivation
node 294 1 0 0 SigmoidSteepenedActivation
gene 1 1 56 -2.7071455777914135 false 1 -2.7071455777914135 true
gene 14 51 56 -9.571383943179676 false 118 -9.571383943179676 true
gene 3 31 56 1.5831171090896927 false 285 1.5831171090896927 true
gene 7 38 56 2.4103883308356315 false 361 2.4103883308356315 true
gene 2 8 56 10.236453346497164 false 427 10.236453346497164 true
gene 3 55 56 9.611264800361532 false 750 9.611264800361532 true
gene 12 18 56 5.484190698582232 false 814 5.484190698582232 true
gene 11 50 56 3.2914432235746105 false 876 3.2914432235746105 true
gene 2 10 56 0.1011871865353251 false 988 0.1011871865353251 true
gene 11 37 56 0.5648519538530883 false 1088 0.5648519538530883 true
gene 15 2 56 -6.473522708039958 false 1296 -6.473522708039958 true
gene 14 52 56 8.575832907527348 false 1358 8.575832907527348 true
gene 13 45 56 0.6985864547389076 false 1597 0.890449021628403 true
gene 10 54 56 4.835338047736689 false 1635 4.835338047736689 true
gene 3 9 56 2.2726541761262986 false 1716 1.340709817469529 true
gene 2 4 56 1.734444525782508 false 1837 1.734444525782508 true
gene 8 14 56 3.649393976462754 false 1926 3.649393976462754 true
gene 9 20 56 7.9720334463464955 false 2182 7.9720334463464955 true
gene 4 12 56 0.7204001135726115 false 2320 0.7204001135726115 true
gene 10 11 56 0.2007540353972102 false 2446 0.2007540353972102 true
gene 14 39 56 4.91337763812405 false 3269 4.91337763812405 true
gene 3 36 56 0.8371333458051258 false 3381 0.8371333458051258 true
gene 6 16 56 6.9269272484410855 false 3756 6.9269272484410855 true
gene 3 42 56 -8.54226057287234 false 4028 -8.54226057287234 true
gene 14 28 56 1.5471813940967079 false 4422 1.5471813940967079 true
gene 12 53 56 7.990976900139017 false 4988 7.990976900139017 true
gene 12 22 56 -4.772316995903075 false 5773 -4.772316995903075 true
gene 15 21 56 -8.932374008521894 false 6008 -8.932374008521894 true
gene 13 24 56 0.7978084892659425 false 6191 0 true
gene 14 52 294 1 false 6379 0 true
gene 14 294 56 9.269556980612254 false 6380 0 true
gene 14 26 56 0.428980777927124 false 6630 0.428980777927124 true
gene 12 26 294 7.3067157917796655 false 6631 7.3067157917796655 true
gene 7 5 56 -7.535761332427273 false 7474 -7.535761332427273 true
gene 13 5 294 -7.724966498658895 false 7480 -7.724966498658895 true
genomeend 3
/* Organism #2 Fitness: 14.000 Error: 0.000 */
genomestart 2
trait 1 0.09319894282089079 0.00010388934918559783 0.020683321930074557 0.00018017169475865205 8.72667420649362e-05 0.04019281736201405 0.0024491925734935116 0.01312843584084682
trait 2 0.19980275670914127 0.00014382720035320575 0 0.00033803234207800844 0 0 0 0.0002074801565100068
trait 3 0.28813722199547975 0.02449356784289007 0.0011453728984921626 0 0 0 0 0
trait 4 0.40457465137635573 0 0 0 0 0.004270498715840294 0.0033195056709149832 0.026563617809324043
trait 5 0.49677513001471285 0.015217309770485271 0.003701030006440745 0.025020687989594857 0.026723066040632307 0 0.004118728314631613 0.07312182410940073
trait 6 0.6 0.051709323886018496 0 0.09523875477100643 0 0 0 0
trait 7 0.7 0 0.08554437525332984 0.007492819769346285 0 0.08160881812858953 0 0.039917970913562015
trait 8 0.7999688953049002 0.002074915283143342 0 0 0.0020742006168389853 0.02070210095293686 0.006822788898394107 0
trait 9 0.9116980412883673 0 0 0.013242644243636897 0.03560895191154823 0 0 0
trait 10 1 0 0 0 0 0 0 0
trait 11 1.1 5.060907033945757e-05 0.00033376303666155394 0.00018530854946248023 0.00032640227557092816 0 0 4.756313265002167e-05
trait 12 1.2 0 0 0.02667162198298667 0.014820979384566816 0.016144573431687875 0 0
trait 13 1.2870834586172553 0 0.04184234532933953 0.038098557868191524 0.010831774345166337 0.032266894584845975 0 0
trait 14 1.4 0 0 0 0 0 0 0
trait 15 1.5021492214932852 0.0007114706283590744 0.0002828655930737782 7.71645976360236e-05 0 0 0 0
node 1 1 1 3 NullActivation
node 2 1 1 1 NullActivation
node 3 1 1 1 NullActivation
node 4 1 1 1 NullActivation
node 5 1 1 1 NullActivation
node 6 1 1 1 NullActivation
node 7 1 1 1 NullActivation
node 8 1 1 1 NullActivation
node 9 1 1 1 NullActivation
node 10 1 1 1 NullActivation
node 11 1 1 1 NullActivation
node 12 1 1 1 NullActivation
node 13 1 1 1 NullActivation
node 14 1 1 1 NullActivation
node 15 1 1 1 NullActivation
node 16 1 1 1 NullActivation
node 17 1 1 1 NullActivation
node 18 1 1 1 NullActivation
node 19 1 1 1 NullActivation
node 20 1 1 1 NullActivation
node 21 1 1 1 NullActivation
node 22 1 1 1 NullActivation
node 23 1 1 1 NullActivation
node 24 1 1 1 NullActivation
node 25 1 1 1 NullActivation
node 26 1 1 1 NullActivation
node 27 1 1 1 NullActivation
node 28 1 1 1 NullActivation
node 29 1 1 1 NullActivation
node 30 1 1 1 NullActivation
node 31 1 1 1 NullActivation
node 32 1 1 1 NullActivation
node 33 1 1 1 NullActivation
node 34 1 1 1 NullActivation
node 35 1 1 1 NullActivation
node 36 1 1 1 NullActivation
node 37 1 1 1 NullActivation
node 38 1 1 1 NullActivation
node 39 1 1 1 NullActivation
node 40 1 1 1 NullActivation
node 41 1 1 1 NullActivation
node 42 1 1 1 NullActivation
node 43 1 1 1 NullActivation
node 44 1 1 1 NullActivation
node 45 1 1 1 NullActivation
node 46 1 1 1 NullActivation
node 47 1 1 1 NullActivation
node 48 1 1 1 NullActivation
node 49 1 1 1 NullActivation
node 50 1 1 1 NullActivation
node 51 1 1 1 NullActivation
node 52 1 1 1 NullActivation
node 53 1 1 1 NullActivation
node 54 1 1 1 NullActivation
node 55 1 1 1 NullActivation
node 56 1 0 2 SigmoidSteepenedActivation
node 294 1 0 0 SigmoidSteepenedActivation
gene 1 1 56 -3.055094074284416 false 1 -3.055094074284416 true
gene 14 51 56 -10.639085115275888 false 118 -10.639085115275888 true
gene 3 31 56 3.3303927433503926 false 285 3.3303927433503926 true
gene 7 38 56 2.2156352988242687 false 361 2.2156352988242687 true
gene 2 8 56 12.142769278813702 false 427 12.142769278813702 true
gene 3 55 56 10.54198461735776 false 750 10.54198461735776 true
gene 12 18 56 4.230039015463992 false 814 4.230039015463992 true
gene 11 50 56 1.285292938435627 false 876 1.285292938435627 true
gene 2 10 56 -1.4078506734327836 false 988 -1.4078506734327836 true
gene 11 37 56 2.3945895577369827 false 1088 2.3945895577369827 true
gene 15 2 56 -4.931349977538055 false 1296 -4.931349977538055 true
gene 14 52 56 9.974922969972184 false 1358 9.974922969972184 true
gene 13 45 56 -0.47636319500453284 false 1597 -0.47636319500453284 true
gene 10 54 56 6.318933666163992 false 1635 6.318933666163992 true
gene 3 9 56 3.2376463839363394 false 1716 3.2376463839363394 true
gene 2 4 56 0.8699582516387729 false 1837 0.8699582516387729 true
gene 8 14 56 2.372494778125408 false 1926 2.372494778125408 true
gene 9 20 56 7.087617808836006 false 2182 7.087617808836006 true
gene 4 12 56 0.49604835791854673 false 2320 0.49604835791854673 true
gene 10 11 56 1.0647527085441149 false 2446 1.0647527085441149 true
gene 14 39 56 4.642940829002974 false 3269 4.642940829002974 true
gene 3 36 56 2.964374095538605 false 3381 2.964374095538605 true
gene 6 16 56 7.24527638066899 false 3756 7.24527638066899 true
gene 3 42 56 -7.091031528510623 false 4028 -7.091031528510623 true
gene 14 28 56 -0.9224605079481885 false 4422 -0.9224605079481885 true
gene 12 53 56 7.122760600242814 false 4988 7.122760600242814 true
gene 12 22 56 -4.597201804323697 false 5773 -4.597201804323697 true
gene 15 21 56 -8.445598341080244 false 6008 -8.445598341080244 true
gene 13 24 56 0.22183075052468104 false 6191 0.22183075052468104 true
gene 14 52 294 1.5196994354015851 false 6379 1.5196994354015851 true
gene 14 294 56 9.269556980612254 false 6380 9.269556980612254 true
gene 14 26 56 0.428980777927124 false 6630 0.428980777927124 true
gene 12 26 294 -2.4124160968127377 false 6631 -2.4124160968127377 true
gene 7 5 56 -7.535761332427273 false 7474 -7.535761332427273 true
gene 13 5 294 -6.072171745889365 false 7480 -6.072171745889365 true
genomeend 2
/* Organism #5 Fitness: 12.000 Error: 0.000 */
genomestart 5
trait 1 0.09319894282089079 0.00010388934918559783 0.020683321930074557 0.00018017169475865205 8.72667420649362e-05 0.04019281736201405 0.0024491925734935116 0.01312843584084682
trait 2 0.19980275670914127 0.00014382720035320575 0 0.00033803234207800844 0 0 0 0.0002074801565100068
trait 3 0.28813722199547975 0.02449356784289007 0.0011453728984921626 0 0 0 0 0
trait 4 0.40457465137635573 0 0 0 0 0.004270498715840294 0.0033195056709149832 0.026563617809324043
trait 5 0.49677513001471285 0.015217309770485271 0.003701030006440745 0.025020687989594857 0.026723066040632307 0 0.004118728314631613 0.07312182410940073
trait 6 0.6 0.051709323886018496 0 0.09523875477100643 0 0 0 0
trait 7 0.7 0 0.08554437525332984 0.007492819769346285 0 0.08160881812858953 0 0.039917970913562015
trait 8 0.7999688953049002 0.002074915283143342 0 0 0.0020742006168389853 0.02070210095293686 0.006822788898394107 0
trait 9 0.9116980412883673 0 0 0.013242644243636897 0.03560895191154823 0 0 0
trait 10 1 0 0 0 0 0 0 0
trait 11 1.1 5.060907033945757e-05 0.00033376303666155394 0.00018530854946248023 0.00032640227557092816 0 0 4.756313265002167e-05
trait 12 1.2 0 0 0.02667162198298667 0.014820979384566816 0.016144573431687875 0 0
trait 13 1.2870834586172553 0 0.04184234532933953 0.038098557868191524 0.010831774345166337 0.032266894584845975 0 0
trait 14 1.4 0 0 0 0 0 0 0
trait 15 1.5021492214932852 0.0007114706283590744 0.0002828655930737782 7.71645976360236e-05 0 0 0 0
node 1 1 1 3 NullActivation
node 2 1 1 1 NullActivation
node 3 1 1 1 NullActivation
node 4 1 1 1 NullActivation
node 5 1 1 1 NullActivation
node 6 1 1 1 NullActivation
node 7 1 1 1 NullActivation
node 8 1 1 1 NullActivation
node 9 1 1 1 NullActivation
node 10 1 1 1 NullActivation
node 11 1 1 1 NullActivation
node 12 1 1 1 NullActivation
node 13 1 1 1 NullActivation
node 14 1 1 1 NullActivation
node 15 1 1 1 NullActivation
node 16 1 1 1 NullActivation
node 17 1 1 1 NullActivation
node 18 1 1 1 NullActivation
node 19 1 1 1 NullActivation
node 20 1 1 1 NullActivation
node 21 1 1 1 NullActivation
node 22 1 1 1 NullActivation
node 23 1 1 1 NullActivation
node 24 1 1 1 NullActivation
node 25 1 1 1 NullActivation
node 26 1 1 1 NullActivation
node 27 1 1 1 NullActivation
node 28 1 1 1 NullActivation
node 29 1 1 1 NullActivation
node 30 1 1 1 NullActivation
node 31 1 1 1 NullActivation
node 32 1 1 1 NullActivation
node 33 1 1 1 NullActivation
node 34 1 1 1 NullActivation
node 35 1 1 1 NullActivation
node 36 1 1 1 NullActivation
node 37 1 1 1 NullActivation
node 38 1 1 1 NullActivation
node 39 1 1 1 NullActivation
node 40 1 1 1 NullActivation
node 41 1 1 1 NullActivation
node 42 1 1 1 NullActivation
node 43 1 1 1 NullActivation
node 44 1 1 1 NullActivation
node 45 1 1 1 NullActivation
node 46 1 1 1 NullActivation
node 47 1 1 1 NullActivation
node 48 1 1 1 NullActivation
node 49 1 1 1 NullActivation
node 50 1 1 1 NullActivation
node 51 1 1 1 NullActivation
node 52 1 1 1 NullActivation
node 53 1 1 1 NullActivation
node 54 1 1 1 NullActivation
node 55 1 1 1 NullActivation
node 56 1 0 2 SigmoidSteepenedActivation
node 294 1 0 0 SigmoidSteepenedActivation
gene 1 1 56 -0.9531685718531389 false 1 -0.9531685718531389 true
gene 14 51 56 -10.355001462529689 false 118 -10.355001462529689 true
gene 3 31 56 1.051691248610532 false 285 1.051691248610532 true
gene 7 38 56 4.7019140474815995 false 361 4.7019140474815995 true
gene 2 8 56 9.659451348306739 false 427 9.659451348306739 true
gene 3 55 56 10.129478044240708 false 750 10.129478044240708 true
gene 12 18 56 4.893704409963135 false 814 4.893704409963135 true
gene 11 50 56 5.493216242818238 false 876 5.493216242818238 true
gene 2 10 56 2.073956611997716 false 988 2.073956611997716 true
gene 11 37 56 -0.37759787743363793 false 1088 -0.37759787743363793 true
gene 15 2 56 -2.664972008880073 false 1296 -2.664972008880073 true
gene 14 52 56 6.5347418838764835 false 1358 6.5347418838764835 true
gene 13 45 56 1.4715721997233884 false 1597 1.4715721997233884 true
gene 10 54 56 4.585832949405348 false 1635 4.585832949405348 true
gene 3 9 56 4.3345823636259215 false 1716 4.3345823636259215 true
gene 2 4 56 2.8453548113488054 false 1837 2.8453548113488054 true
gene 8 14 56 5.037740186547199 false 1926 5.037740186547199 true
gene 9 20 56 7.222206585690979 false 2182 7.222206585690979 true
gene 4 12 56 0.6476427997658345 false 2320 0.6476427997658345 true
gene 10 11 56 1.1527703031636685 false 2446 1.1527703031636685 true
gene 14 39 56 6.061154836058087 false 3269 6.061154836058087 true
gene 3 36 56 -0.04692727119521056 false 3381 -0.04692727119521056 true
gene 6 16 56 7.033440274811966 false 3756 7.033440274811966 true
gene 3 42 56 -9.754328798515436 false 4028 -9.754328798515436 true
gene 14 28 56 3.2327099278942595 false 4422 3.2327099278942595 true
gene 12 53 56 8.369432007873348 false 4988 8.369432007873348 true
gene 12 22 56 -6.706083229000815 false 5773 -6.706083229000815 true
gene 15 21 56 -8.932374008521894 false 6008 -8.932374008521894 true
gene 13 24 56 2.7682242527527885 false 6191 2.7682242527527885 true
gene 14 26 56 0.11345590971962027 false 6630 0.11345590971962027 true
gene 12 26 294 7.3067157917796655 false 6631 7.3067157917796655 true
genomeend 5
/* Organism #1 Fitness: 10.000 Error: 0.000 */
genomestart 1
trait 1 0.09319894282089079 0.00010388934918559783 0.020683321930074557 0.00018017169475865205 8.72667420649362e-05 0.04019281736201405 0.0024491925734935116 0.01312843584084682
trait 2 0.19980275670914127 0.00014382720035320575 0 0.00033803234207800844 0 0 0 0.0002074801565100068
trait 3 0.28813722199547975 0.02449356784289007 0.0011453728984921626 0 0 0 0 0
trait 4 0.40457465137635573 0 0 0 0 0.004270498715840294 0.0033195056709149832 0.026563617809324043
trait 5 0.49677513001471285 0.015217309770485271 0.003701030006440745 0.025020687989594857 0.026723066040632307 0 0.004118728314631613 0.07312182410940073
trait 6 0.6 0.051709323886018496 0 0.09523875477100643 0 0 0 0
trait 7 0.7 0 0.08554437525332984 0.007492819769346285 0 0.08160881812858953 0 0.039917970913562015
trait 8 0.7999688953049002 0.002074915283143342 0 0 0.0020742006168389853 0.02070210095293686 0.006822788898394107 0
trait 9 0.9116980412883673 0 0 0.013242644243636897 0.03560895191154823 0 0 0
trait 10 1 0 0 0 0 0 0 0
trait 11 1.1 5.060907033945757e-05 0.00033376303666155394 0.00018530854946248023 0.00032640227557092816 0 0 4.756313265002167e-05
trait 12 1.2 0 0 0.02667162198298667 0.014820979384566816 0.016144573431687875 0 0
trait 13 1.2870834586172553 0 0.04184234532933953 0.038098557868191524 0.010831774345166337 0.032266894584845975 0 0
trait 14 1.4 0 0 0 0 0 0 0
trait 15 1.5021492214932852 0.0007114706283590744 0.0002828655930737782 7.71645976360236e-05 0 0 0 0
node 1 1 1 3 NullActivation
node 2 1 1 1 NullActivation
node 3 1 1 1 NullActivation
node 4 1 1 1 NullActivation
node 5 1 1 1 NullActivation
node 6 1 1 1 NullActivation
node 7 1 1 1 NullActivation
node 8 1 1 1 NullActivation
node 9 1 1 1 NullActivation
node 10 1 1 1 NullActivation
node 11 1 1 1 NullActivation
node 12 1 1 1 NullActivation
node 13 1 1 1 NullActivation
node 14 1 1 1 NullActivation
node 15 1 1 1 NullActivation
node 16 1 1 1 NullActivation
node 17 1 1 1 NullActivation
node 18 1 1 1 NullActivation
node 19 1 1 1 NullActivation
node 20 1 1 1 NullActivation
node 21 1 1 1 NullActivation
node 22 1 1 1 NullActivation
node 23 1 1 1 NullActivation
node 24 1 1 1 NullActivation
node 25 1 1 1 NullActivation
node 26 1 1 1 NullActivation
node 27 1 1 1 NullActivation
node 28 1 1 1 NullActivation
node 29 1 1 1 NullActivation
node 30 1 1 1 NullActivation
node 31 1 1 1 NullActivation
node 32 1 1 1 NullActivation
node 33 1 1 1 NullActivation
node 34 1 1 1 NullActivation
node 35 1 1 1 NullActivation
node 36 1 1 1 NullActivation
node 37 1 1 1 NullActivation
node 38 1 1 1 NullActivation
node 39 1 1 1 NullActivation
node 40 1 1 1 NullActivation
node 41 1 1 1 NullActivation
node 42 1 1 1 NullActivation
node 43 1 1 1 NullActivation
node 44 1 1 1 NullActivation
node 45 1 1 1 NullActivation
node 46 1 1 1 NullActivation
node 47 1 1 1 NullActivation
node 48 1 1 1 NullActivation
node 49 1 1 1 NullActivation
node 50 1 1 1 NullActivation
node 51 1 1 1 NullActivation
node 52 1 1 1 NullActivation
node 53 1 1 1 NullActivation
node 54 1 1 1 NullActivation
node 55 1 1 1 NullActivation
node 56 1 0 2 SigmoidSteepenedActivation
node 294 1 0 0 SigmoidSteepenedActivation
gene 1 1 56 -0.2758213963429377 false 1 -0.2758213963429377 true
gene 14 51 56 -11.425288507557246 false 118 -11.425288507557246 true
gene 3 31 56 0.5009917396180785 false 285 0.5009917396180785 true
gene 7 38 56 2.764889803568038 false 361 2.764889803568038 true
gene 2 8 56 9.191057945481628 false 427 9.191057945481628 true
gene 3 55 56 7.9667074046718085 false 750 7.9667074046718085 true
gene 12 18 56 7.653066673792309 false 814 7.653066673792309 true
gene 11 50 56 2.187485951525041 false 876 2.187485951525041 true
gene 2 10 56 1.6565158524887313 false 988 1.6565158524887313 true
gene 11 37 56 -1.8373830320902724 false 1088 -1.8373830320902724 true
gene 15 2 56 -7.007242083995713 false 1296 -7.007242083995713 true
gene 14 52 56 7.270280270036933 false 1358 7.270280270036933 true
gene 13 45 56 -1.579827627599511 false 1597 -1.579827627599511 true
gene 10 54 56 5.009844326697047 false 1635 5.009844326697047 true
gene 3 9 56 0.7498048261793233 false 1716 0.7498048261793233 true
gene 2 4 56 3.2126118593598596 false 1837 3.2126118593598596 true
gene 8 14 56 2.0503747263633674 false 1926 2.0503747263633674 true
gene 9 20 56 6.836041437317909 false 2182 6.836041437317909 true
gene 4 12 56 -0.5984681862074881 false 2320 -0.5984681862074881 true
gene 10 11 56 -1.185113081104531 false 2446 -1.185113081104531 true
gene 14 39 56 6.362744703047175 false 3269 6.362744703047175 true
gene 3 36 56 -0.4872549034220506 false 3381 -0.4872549034220506 true
gene 6 16 56 8.52170227822819 false 3756 8.52170227822819 true
gene 3 42 56 -8.306236335635118 false 4028 -8.306236335635118 true
gene 14 28 56 -0.6229991104104622 false 4422 -0.6229991104104622 true
gene 12 53 56 7.090859349093686 false 4988 7.090859349093686 true
gene 12 22 56 -4.679357422182361 false 5773 -4.679357422182361 true
gene 15 21 56 -8.668995618414245 false 6008 -8.668995618414245 true
gene 13 24 56 0.9608518214113382 false 6191 0.9608518214113382 true
gene 14 52 294 2.6239160021216885 false 6379 2.6239160021216885 true
gene 14 294 56 9.269556980612254 false 6380 9.269556980612254 true
gene 14 26 56 1.7345927092925861 false 6630 1.7345927092925861 true
gene 12 26 294 -2.4323510397337205 false 6631 -2.4323510397337205 true
gene 7 5 56 -7.535761332427273 false 7474 -7.535761332427273 true
gene 13 5 294 -9.588535212628106 false 7480 -9.588535212628106 true
genomeend 1
/* Species #2 : (Size 8) (AF 11.250) (Age 35)  */
/* Organism #9 Fitness: 19.000 Error: 0.000 */
genomestart 9
trait 1 0.09336090087890626 0.00010414770703016204 0.020028417096590884 0.0002608670283130974 8.748376188033385e-05 0.03909659053488686 0.0022577235158943486 0.012770368292674493
trait 2 0.19979095458984375 0.3085226038070512 0 0.26329490437232006 0.07458900766670552 0 0 0.28433339643171107
trait 3 0.28838092088699335 0.023990392673444036 0.0011218433250966319 0 0 0 0 0
trait 4 0.33602800764546953 0.11559137280316792 0 0 0 0.21125862898417205 0.002989236539088512 0.13698451398823586
trait 5 0.49590264121041694 0.01524677935154059 0.004726575822680374 0.025088432227065104 0.028343683758001878 0 0.005315775609702939 0.07326343057959853
trait 6 0.6 0.049935751540638874 0 0.091972171319972 0 0 0 0
trait 7 0.7 0 0 0.006920414657810611 0 0 0 0
trait 8 0.7999624794936288 0.0023123952360905916 0 0 0.00231159877419597 0.020516609028841767 0.006740378444313767 0
trait 9 0.9068950018818457 0 0 0.007805414148374261 0.020988453057079522 0 0 0
trait 10 1 0 0 0 0 0 0 0
trait 11 1.1 5.364721754972547e-05 0.00035379939045984254 0.00019643293188665778 0.0003459967505592933 0 0 5.0418427122000993e-05
trait 12 1.2 0 0 0.014812718978778418 0.027705573625438434 0.03017983199738452 0 0
trait 13 1.3 0 0.042741115413220315 0 0.025344722084364786 0.03295998478627546 0 0
trait 14 1.4 0 0 0 0 0 0 0
trait 15 1.5014095198308204 0.0004666024245762319 0.00018551120214453377 5.184129486814643e-05 0 0 0 0
node 1 1 1 3 NullActivation
node 2 1 1 1 NullActivation
node 3 1 1 1 NullActivation
node 4 1 1 1 NullActivation
node 5 1 1 1 NullActivation
node 6 1 1 1 NullActivation
node 7 1 1 1 NullActivation
node 8 1 1 1 NullActivation
node 9 1 1 1 NullActivation
node 10 1 1 1 NullActivation
node 11 1 1 1 NullActivation
node 12 1 1 1 NullActivation
node 13 1 1 1 NullActivation
node 14 1 1 1 NullActivation
node 15 1 1 1 NullActivation
node 16 1 1 1 NullActivation
node 17 1 1 1 NullActivation
node 18 1 1 1 NullActivation
node 19 1 1 1 NullActivation
node 20 1 1 1 NullActivation
node 21 1 1 1 NullActivation
node 22 1 1 1 NullActivation
node 23 1 1 1 NullActivation
node 24 1 1 1 NullActivation
node 25 1 1 1 NullActivation
node 26 1 1 1 NullActivation
node 27 1 1 1 NullActivation
node 28 1 1 1 NullActivation
node 29 1 1 1 NullActivation
node 30 1 1 1 NullActivation
node 31 1 1 1 NullActivation
node 32 1 1 1 NullActivation
node 33 1 1 1 NullActivation
node 34 1 1 1 NullActivation
node 35 1 1 1 NullActivation
node 36 1 1 1 NullActivation
node 37 1 1 1 NullActivation
node 38 1 1 1 NullActivation
node 39 1 1 1 NullActivation
node 40 1 1 1 NullActivation
node 41 1 1 1 NullActivation
node 42 1 1 1 NullActivation
node 43 1 1 1 NullActivation
node 44 1 1 1 NullActivation
node 45 1 1 1 NullActivation
node 46 1 1 1 NullActivation
node 47 1 1 1 NullActivation
node 48 1 1 1 NullActivation
node 49 1 1 1 NullActivation
node 50 1 1 1 NullActivation
node 51 1 1 1 NullActivation
node 52 1 1 1 NullActivation
node 53 1 1 1 NullActivation
node 54 1 1 1 NullActivation
node 55 1 1 1 NullActivation
node 56 1 0 2 SigmoidSteepenedActivation
node 114 1 0 0 SigmoidSteepenedActivation
gene 1 1 56 1.0971773724874017 false 1 1.0971773724874017 true
gene 14 51 56 -9.970426902747661 false 118 -9.970426902747661 true
gene 3 31 56 1.1900299886775616 false 285 1.1900299886775616 true
gene 7 38 56 1.4594315661313424 false 361 1.4594315661313424 true
gene 2 8 56 6.142135182569357 false 427 6.142135182569357 true
gene 3 55 56 8.6853950711415 false 750 8.6853950711415 true
gene 11 50 56 5.618201427000785 false 876 5.618201427000785 true
gene 2 10 56 3.6788585963132885 false 988 3.6788585963132885 true
gene 4 11 56 -2.572361522435977 false 1157 -2.572361522435977 true
gene 14 45 56 1.8733795951332881 false 1204 1.8733795951332881 true
gene 12 53 56 1.8579737770534392 false 1299 1.8579737770534392 true
gene 14 52 56 3.970225065887286 false 1358 3.970225065887286 true
gene 5 2 56 4.2795012339078875 false 1375 4.2795012339078875 true
gene 14 51 114 -3.489868375972388 false 1491 -3.489868375972388 true
gene 14 114 56 -10.092377853335773 false 1492 -10.092377853335773 true
gene 1 47 56 -5.88028335772483 false 1623 -5.88028335772483 true
gene 7 47 114 -0.7137613293293299 false 1631 -0.7137613293293299 true
gene 3 24 114 5.912399198966169 false 1690 5.912399198966169 true
gene 13 26 56 7.6609254988648265 false 1754 7.6609254988648265 true
gene 14 26 114 -5.446077619281589 false 1776 -5.446077619281589 true
gene 10 19 56 -8.86648806636152 false 1781 -8.86648806636152 true
gene 11 36 56 -3.6276960616474243 false 1955 -3.6276960616474243 true
gene 5 36 114 -0.738910061055866 false 1956 -0.738910061055866 true
gene 14 25 56 -2.09672346357378 false 2171 -2.09672346357378 true
gene 8 25 114 9.391509639385704 false 2172 9.391509639385704 true
gene 10 5 56 2.410884812500424 false 2419 2.410884812500424 true
gene 10 5 114 -0.17968682510446432 false 2420 -0.17968682510446432 true
gene 12 33 56 -0.9491168890607373 false 2476 -0.9491168890607373 true
gene 1 33 114 1.4815344907219514 false 2477 1.4815344907219514 true
gene 4 21 56 -1.2135544131059621 false 4438 -1.2135544131059621 true
gene 7 21 114 1.912741475123033 false 4439 1.912741475123033 true
gene 3 39 56 -4.535940602784307 false 4640 -4.535940602784307 true
gene 9 39 114 4.188655529549344 false 4641 4.188655529549344 true
gene 14 32 56 -0.1923805557592816 false 4841 -0.1923805557592816 true
gene 14 32 114 1.0718894653026243 false 4842 1.0718894653026243 true
gene 4 12 56 -5.469238397766488 false 5393 -5.469238397766488 true
gene 1 12 114 -0.2972348195155782 false 5394 -0.2972348195155782 true
gene 3 17 56 -9.37234029482048 false 5556 -9.37234029482048 true
gene 7 9 56 4.594365302494843 false 5964 0 true
gene 2 9 114 -5.364648514840348 false 6016 -5.364648514840348 true
gene 9 23 56 -1.3317797626259855 false 6641 -1.3317797626259855 true
gene 4 23 114 6.947132882284527 false 6642 6.947132882284527 true
gene 6 18 56 -5.2349924885556565 false 6852 -5.2349924885556565 true
gene 5 18 114 -1.105890013758661 false 6853 -1.105890013758661 true
gene 11 54 56 -2.1951479550749244 false 7045 0 true
gene 8 54 114 6.623949426056579 false 7047 6.623949426056579 true
genomeend 9
/* Organism #15 Fitness: 17.000 Error: 0.000 */
genomestart 15
trait 1 0.09336090087890626 0.00010414770703016204 0.020028417096590884 0.0002608670283130974 8.748376188033385e-05 0.03909659053488686 0.0022577235158943486 0.012770368292674493
trait 2 0.19979095458984375 0.3085226038070512 0 0.26329490437232006 0.07458900766670552 0 0 0.28433339643171107
trait 3 0.28838092088699335 0.023990392673444036 0.0011218433250966319 0 0 0 0 0
trait 4 0.33602800764546953 0.11559137280316792 0 0 0 0.21125862898417205 0.002989236539088512 0.13698451398823586
trait 5 0.49590264121041694 0.01524677935154059 0.004726575822680374 0.025088432227065104 0.028343683758001878 0 0.005315775609702939 0.07326343057959853
trait 6 0.6 0.049935751540638874 0 0.091972171319972 0 0 0 0
trait 7 0.7 0 0 0.006920414657810611 0 0 0 0
trait 8 0.7999624794936288 0.0023123952360905916 0 0 0.00231159877419597 0.020516609028841767 0.006740378444313767 0
trait 9 0.9068950018818457 0 0 0.007805414148374261 0.020988453057079522 0 0 0
trait 10 1 0 0 0 0 0 0 0
trait 11 1.1 5.364721754972547e-05 0.00035379939045984254 0.00019643293188665778 0.0003459967505592933 0 0 5.0418427122000993e-05
trait 12 1.2 0 0 0.014812718978778418 0.027705573625438434 0.03017983199738452 0 0
trait 13 1.3 0 0.042741115413220315 0 0.025344722084364786 0.03295998478627546 0 0
trait 14 1.4 0 0 0 0 0 0 0
trait 15 1.5014095198308204 0.0004666024245762319 0.00018551120214453377 5.184129486814643e-05 0 0 0 0
node 1 1 1 3 NullActivation
node 2 1 1 1 NullActivation
node 3 1 1 1 NullActivation
node 4 1 1 1 NullActivation
node 5 1 1 1 NullActivation
node 6 1 1 1 NullActivation
node 7 1 1 1 NullActivation
node 8 1 1 1 NullActivation
node 9 1 1 1 NullActivation
node 10 1 1 1 NullActivation
node 11 1 1 1 NullActivation
node 12 1 1 1 NullActivation
node 13 1 1 1 NullActivation
node 14 1 1 1 NullActivation
node 15 1 1 1 NullActivation
node 16 1 1 1 NullActivation
node 17 1 1 1 NullActivation
node 18 1 1 1 NullActivation
node 19 1 1 1 NullActivation
node 20 1 1 1 NullActivation
node 21 1 1 1 NullActivation
node 22 1 1 1 NullActivation
node 23 1 1 1 NullActivation
node 24 1 1 1 NullActivation
node 25 1 1 1 NullActivation
node 26 1 1 1 NullActivation
node 27 1 1 1 NullActivation
node 28 1 1 1 NullActivation
node 29 1 1 1 NullActivation
node 30 1 1 1 NullActivation
node 31 1 1 1 NullActivation
node 32 1 1 1 NullActivation
node 33 1 1 1 NullActivation
node 34 1 1 1 NullActivation
node 35 1 1 1 NullActivation
node 36 1 1 1 NullActivation
node 37 1 1 1 NullActivation
node 38 1 1 1 NullActivation
node 39 1 1 1 NullActivation
node 40 1 1 1 NullActivation
node 41 1 1 1 NullActivation
node 42 1 1 1 NullActivation
node 43 1 1 1 NullActivation
node 44 1 1 1 NullActivation
node 45 1 1 1 NullActivation
node 46 1 1 1 NullActivation
node 47 1 1 1 NullActivation
node 48 1 1 1 NullActivation
node 49 1 1 1 NullActivation
node 50 1 1 1 NullActivation
node 51 1 1 1 NullActivation
node 52 1 1 1 NullActivation
node 53 1 1 1 NullActivation
node 54 1 1 1 NullActivation
node 55 1 1 1 NullActivation
node 56 1 0 2 SigmoidSteepenedActivation
node 114 1 0 0 SigmoidSteepenedActivation
gene 1 1 56 1.1733090803371784 false 1 1.1733090803371784 true
gene 14 51 56 -12.085869934734099 false 118 -12.085869934734099 true
gene 3 31 56 1.16909475571693 false 285 1.16909475571693 true
gene 7 38 56 2.4586739940648306 false 361 2.4586739940648306 true
gene 2 8 56 5.7966047890472705 false 427 5.7966047890472705 true
gene 3 55 56 8.838277744402454 false 750 8.838277744402454 true
gene 11 50 56 3.911759776934585 false 876 3.911759776934585 true
gene 2 10 56 5.0157906597343205 false 988 5.0157906597343205 true
gene 4 11 56 -3.3128724551352176 false 1157 -3.3128724551352176 true
gene 14 45 56 3.079988016556033 false 1204 3.079988016556033 true
gene 12 53 56 2.5391281659210545 false 1299 2.5391281659210545 true
gene 14 52 56 4.255096505388219 false 1358 4.255096505388219 true
gene 5 2 56 4.2795012339078875 false 1375 4.2795012339078875 true
gene 14 51 114 -3.489868375972388 false 1491 -3.489868375972388 true
gene 14 114 56 -10.092377853335773 false 1492 -10.092377853335773 true
gene 1 47 56 -5.88028335772483 false 1623 -5.88028335772483 true
gene 7 47 114 -0.7137613293293299 false 1631 -0.7137613293293299 true
gene 3 24 114 5.912399198966169 false 1690 5.912399198966169 true
gene 13 26 56 7.6609254988648265 false 1754 7.6609254988648265 true
gene 14 26 114 -5.446077619281589 false 1776 -5.446077619281589 true
gene 10 19 56 -8.86648806636152 false 1781 -8.86648806636152 true
gene 11 36 56 -3.6276960616474243 false 1955 -3.6276960616474243 true
gene 5 36 114 -0.738910061055866 false 1956 -0.738910061055866 true
gene 14 25 56 -2.09672346357378 false 2171 -2.09672346357378 true
gene 8 25 114 9.391509639385704 false 2172 9.391509639385704 true
gene 10 5 56 2.410884812500424 false 2419 2.410884812500424 true
gene 10 5 114 -0.17968682510446432 false 2420 -0.17968682510446432 true
gene 12 33 56 -0.9491168890607373 false 2476 -0.9491168890607373 true
gene 1 33 114 1.4815344907219514 false 2477 1.4815344907219514 true
gene 4 21 56 -1.2135544131059621 false 4438 -1.2135544131059621 true
gene 7 21 114 1.912741475123033 false 4439 1.912741475123033 true
gene 3 39 56 -4.535940602784307 false 4640 -4.535940602784307 true
gene 9 39 114 4.188655529549344 false 4641 4.188655529549344 true
gene 14 32 56 -0.1923805557592816 false 4841 -0.1923805557592816 true
gene 14 32 114 1.0718894653026243 false 4842 1.0718894653026243 true
gene 4 12 56 -5.469238397766488 false 5393 -5.469238397766488 true
gene 1 12 114 -0.2972348195155782 false 5394 -0.2972348195155782 true
gene 3 17 56 -9.37234029482048 false 5556 -9.37234029482048 true
gene 7 9 56 4.594365302494843 false 5964 0 true
gene 2 9 114 -5.364648514840348 false 6016 -5.364648514840348 true
gene 9 23 56 -1.3317797626259855 false 6641 -1.3317797626259855 true
gene 4 23 114 6.947132882284527 false 6642 6.947132882284527 true
gene 6 18 56 -5.2349924885556565 false 6852 -5.2349924885556565 true
gene 5 18 114 -1.105890013758661 false 6853 -1.105890013758661 true
gene 11 54 56 -2.1951479550749244 false 7045 0 true
gene 8 54 114 6.623949426056579 false 7047 6.623949426056579 true
gene 2 15 56 -0.25480926344828536 false 7679 -0.25480926344828536 true
gene 10 15 114 -3.304445142666508 false 7680 -3.304445142666508 true
genomeend 15
/* Organism #11 Fitness: 15.000 Error: 0.000 */
genomestart 11
trait 1 0.09336090087890626 0.00010414770703016204 0.020028417096590884 0.0002608670283130974 8.748376188033385e-05 0.03909659053488686 0.0022577235158943486 0.012770368292674493
trait 2 0.19979095458984375 0.3085226038070512 0 0.26329490437232006 0.07458900766670552 0 0 0.28433339643171107
trait 3 0.28838092088699335 0.023990392673444036 0.0011218433250966319 0 0 0 0 0
trait 4 0.33602800764546953 0.11559137280316792 0 0 0 0.21125862898417205 0.002989236539088512 0.13698451398823586
trait 5 0.49590264121041694 0.01524677935154059 0.004726575822680374 0.025088432227065104 0.028343683758001878 0 0.005315775609702939 0.07326343057959853
trait 6 0.6 0.049935751540638874 0 0.091972171319972 0 0 0 0
trait 7 0.7 0 0 0.006920414657810611 0 0 0 0
trait 8 0.7999624794936288 0.0023123952360905916 0 0 0.00231159877419597 0.020516609028841767 0.006740378444313767 0
trait 9 0.9068950018818457 0 0 0.007805414148374261 0.020988453057079522 0 0 0
trait 10 1 0 0 0 0 0 0 0
trait 11 1.1 5.364721754972547e-05 0.00035379939045984254 0.00019643293188665778 0.0003459967505592933 0 0 5.0418427122000993e-05
trait 12 1.2 0 0 0.014812718978778418 0.027705573625438434 0.03017983199738452 0 0
trait 13 1.3 0 0.042741115413220315 0 0.025344722084364786 0.03295998478627546 0 0
trait 14 1.4 0 0 0 0 0 0 0
trait 15 1.5014095198308204 0.0004666024245762319 0.00018551120214453377 5.184129486814643e-05 0 0 0 0
node 1 1 1 3 NullActivation
node 2 1 1 1 NullActivation
node 3 1 1 1 NullActivation
node 4 1 1 1 NullActivation
node 5 1 1 1 NullActivation
node 6 1 1 1 NullActivation
node 7 1 1 1 NullActivation
node 8 1 1 1 NullActivation
node 9 1 1 1 NullActivation
node 10 1 1 1 NullActivation
node 11 1 1 1 NullActivation
node 12 1 1 1 NullActivation
node 13 1 1 1 NullActivation
node 14 1 1 1 NullActivation
node 15 1 1 1 NullActivation
node 16 1 1 1 NullActivation
node 17 1 1 1 NullActivation
node 18 1 1 1 NullActivation
node 19 1 1 1 NullActivation
node 20 1 1 1 NullActivation
node 21 1 1 1 NullActivation
node 22 1 1 1 NullActivation
node 23 1 1 1 NullActivation
node 24 1 1 1 NullActivation
node 25 1 1 1 NullActivation
node 26 1 1 1 NullActivation
node 27 1 1 1 NullActivation
node 28 1 1 1 NullActivation
node 29 1 1 1 NullActivation
node 30 1 1 1 NullActivation
node 31 1 1 1 NullActivation
node 32 1 1 1 NullActivation
node 33 1 1 1 NullActivation
node 34 1 1 1 NullActivation
node 35 1 1 1 NullActivation
node 36 1 1 1 NullActivation
node 37 1 1 1 NullActivation
node 38 1 1 1 NullActivation
node 39 1 1 1 NullActivation
node 40 1 1 1 NullActivation
node 41 1 1 1 NullActivation
node 42 1 1 1 NullActivation
node 43 1 1 1 NullActivation
node 44 1 1 1 NullActivation
node 45 1 1 1 NullActivation
node 46 1 1 1 NullActivation
node 47 1 1 1 NullActivation
node 48 1 1 1 NullActivation
node 49 1 1 1 NullActivation
node 50 1 1 1 NullActivation
node 51 1 1 1 NullActivation
node 52 1 1 1 NullActivation
node 53 1 1 1 NullActivation
node 54 1 1 1 NullActivation
node 55 1 1 1 NullActivation
node 56 1 0 2 SigmoidSteepenedActivation
node 114 1 0 0 SigmoidSteepenedActivation
gene 1 1 56 1.1733090803371784 false 1 1.1733090803371784 true
gene 14 51 56 -12.085869934734099 false 118 -12.085869934734099 true
gene 3 31 56 1.16909475571693 false 285 1.16909475571693 true
gene 7 38 56 2.4586739940648306 false 361 2.4586739940648306 true
gene 2 8 56 5.7966047890472705 false 427 5.7966047890472705 true
gene 3 55 56 8.838277744402454 false 750 8.838277744402454 true
gene 11 50 56 3.911759776934585 false 876 3.911759776934585 true
gene 2 10 56 5.0157906597343205 false 988 5.0157906597343205 true
gene 4 11 56 -3.3128724551352176 false 1157 -3.3128724551352176 true
gene 14 45 56 3.079988016556033 false 1204 3.079988016556033 true
gene 12 53 56 2.5391281659210545 false 1299 2.5391281659210545 true
gene 14 52 56 4.255096505388219 false 1358 4.255096505388219 true
gene 5 2 56 4.2795012339078875 false 1375 4.2795012339078875 true
gene 14 51 114 -3.489868375972388 false 1491 -3.489868375972388 true
gene 14 114 56 -10.092377853335773 false 1492 -10.092377853335773 true
gene 1 47 56 -5.88028335772483 false 1623 -5.88028335772483 true
gene 7 47 114 -0.7137613293293299 false 1631 -0.7137613293293299 true
gene 3 24 114 5.912399198966169 false 1690 5.912399198966169 true
gene 13 26 56 7.6609254988648265 false 1754 7.6609254988648265 true
gene 14 26 114 -5.446077619281589 false 1776 -5.446077619281589 true
gene 10 19 56 -8.86648806636152 false 1781 -8.86648806636152 true
gene 11 36 56 -3.6276960616474243 false 1955 -3.6276960616474243 true
gene 5 36 114 -0.738910061055866 false 1956 -0.738910061055866 true
gene 14 25 56 -2.09672346357378 false 2171 -2.09672346357378 true
gene 8 25 114 9.391509639385704 false 2172 9.391509639385704 true
gene 10 5 56 2.410884812500424 false 2419 2.410884812500424 true
gene 10 5 114 -0.17968682510446432 false 2420 -0.17968682510446432 true
gene 12 33 56 -0.9491168890607373 false 2476 -0.9491168890607373 true
gene 1 33 114 1.4815344907219514 false 2477 1.4815344907219514 true
gene 4 21 56 -1.2135544131059621 false 4438 -1.2135544131059621 true
gene 7 21 114 1.912741475123033 false 4439 1.912741475123033 true
gene 3 39 56 -4.535940602784307 false 4640 -4.535940602784307 true
gene 9 39 114 4.188655529549344 false 4641 4.188655529549344 true
gene 14 32 56 -0.1923805557592816 false 4841 -0.1923805557592816 true
gene 14 32 114 1.0718894653026243 false 4842 1.0718894653026243 true
gene 4 12 56 -5.469238397766488 false 5393 -5.469238397766488 true
gene 1 12 114 -0.2972348195155782 false 5394 -0.2972348195155782 true
gene 3 17 56 -9.37234029482048 false 5556 -9.37234029482048 true
gene 7 9 56 4.594365302494843 false 5964 0 true
gene 2 9 114 -5.364648514840348 false 6016 -5.364648514840348 true
gene 9 23 56 -1.3317797626259855 false 6641 -1.3317797626259855 true
gene 4 23 114 6.947132882284527 false 6642 6.947132882284527 true
gene 6 18 56 -5.2349924885556565 false 6852 -5.2349924885556565 true
gene 5 18 114 -1.105890013758661 false 6853 -1.105890013758661 true
gene 11 54 56 -2.1951479550749244 false 7045 0 true
gene 8 54 114 6.623949426056579 false 7047 6.623949426056579 true
gene 1 27 56 -9.309447966142217 false 7675 -9.309447966142217 true
gene 4 27 114 -1.7677299871335228 false 7676 -1.7677299871335228 true
genomeend 11
/* Organism #14 Fitness: 14.000 Error: 0.000 */
genomestart 14
trait 1 0.09336090087890626 0.00010414770703016204 0.020028417096590884 0.0002608670283130974 8.748376188033385e-05 0.03909659053488686 0.0022577235158943486 0.012770368292674493
trait 2 0.19979095458984375 0.3085226038070512 0 0.26329490437232006 0.07458900766670552 0 0 0.28433339643171107
trait 3 0.28838092088699335 0.023990392673444036 0.0011218433250966319 0 0 0 0 0
trait 4 0.33602800764546953 0.11559137280316792 0 0 0 0.21125862898417205 0.002989236539088512 0.13698451398823586
trait 5 0.49590264121041694 0.01524677935154059 0.004726575822680374 0.025088432227065104 0.028343683758001878 0 0.005315775609702939 0.07326343057959853
trait 6 0.6 0.049935751540638874 0 0.091972171319972 0 0 0 0
trait 7 0.7 0 0 0.006920414657810611 0 0 0 0
trait 8 0.7999624794936288 0.0023123952360905916 0 0 0.00231159877419597 0.020516609028841767 0.006740378444313767 0
trait 9 0.9068950018818457 0 0 0.007805414148374261 0.020988453057079522 0 0 0
trait 10 1 0 0 0 0 0 0 0
trait 11 1.1 5.364721754972547e-05 0.00035379939045984254 0.00019643293188665778 0.0003459967505592933 0 0 5.0418427122000993e-05
trait 12 1.2 0 0 0.014812718978778418 0.027705573625438434 0.03017983199738452 0 0
trait 13 1.3 0 0.042741115413220315 0 0.025344722084364786 0.03295998478627546 0 0
trait 14 1.4 0 0 0 0 0 0 0
trait 15 1.5014095198308204 0.0004666024245762319 0.00018551120214453377 5.184129486814643e-05 0 0 0 0
node 1 1 1 3 NullActivation
node 2 1 1 1 NullActivation
node 3 1 1 1 NullActivation
node 4 1 1 1 NullActivation
node 5 1 1 1 NullActivation
node 6 1 1 1 NullActivation
node 7 1 1 1 NullActivation
node 8 1 1 1 NullActivation
node 9 1 1 1 NullActivation
node 10 1 1 1 NullActivation
node 11 1 1 1 NullActivation
node 12 1 1 1 NullActivation
node 13 1 1 1 NullActivation
node 14 1 1 1 NullActivation
node 15 1 1 1 NullActivation
node 16 1 1 1 NullActivation
node 17 1 1 1 NullActivation
node 18 1 1 1 NullActivation
node 19 1 1 1 NullActivation
node 20 1 1 1 NullActivation
node 21 1 1 1 NullActivation
node 22 1 1 1 NullActivation
node 23 1 1 1 NullActivation
node 24 1 1 1 NullActivation
node 25 1 1 1 NullActivation
node 26 1 1 1 NullActivation
node 27 1 1 1 NullActivation
node 28 1 1 1 NullActivation
node 29 1 1 1 NullActivation
node 30 1 1 1 NullActivation
node 31 1 1 1 NullActivation
node 32 1 1 1 NullActivation
node 33 1 1 1 NullActivation
node 34 1 1 1 NullActivation
node 35 1 1 1 NullActivation
node 36 1 1 1 NullActivation
node 37 1 1 1 NullActivation
node 38 1 1 1 NullActivation
node 39 1 1 1 NullActivation
node 40 1 1 1 NullActivation
node 41 1 1 1 NullActivation
node 42 1 1 1 NullActivation
node 43 1 1 1 NullActivation
node 44 1 1 1 NullActivation
node 45 1 1 1 NullActivation
node 46 1 1 1 NullActivation
node 47 1 1 1 NullActivation
node 48 1 1 1 NullActivation
node 49 1 1 1 NullActivation
node 50 1 1 1 NullActivation
node 51 1 1 1 NullActivation
node 52 1 1 1 NullActivation
node 53 1 1 1 NullActivation
node 54 1 1 1 NullActivation
node 55 1 1 1 NullActivation
node 56 1 0 2 SigmoidSteepenedActivation
node 114 1 0 0 SigmoidSteepenedActivation
gene 1 1 56 0.37264953361964215 false 1 0.37264953361964215 true
gene 14 51 56 -12.397971757056771 false 118 -12.397971757056771 true
gene 3 31 56 1.1539963888553495 false 285 1.1539963888553495 true
gene 7 38 56 0.0005653870650510484 false 361 0.0005653870650510484 true
gene 2 8 56 4.406368498483165 false 427 4.406368498483165 true
gene 3 55 56 10.028342429357625 false 750 10.028342429357625 true
gene 11 50 56 3.3447190447044894 false 876 3.3447190447044894 true
gene 2 10 56 1.424738258977487 false 988 1.424738258977487 true
gene 4 11 56 -2.656184197974029 false 1157 -2.656184197974029 true
gene 14 45 56 3.079988016556033 false 1204 3.079988016556033 true
gene 12 53 56 2.934349962970658 false 1299 2.934349962970658 true
gene 14 52 56 4.829202032847301 false 1358 4.829202032847301 true
gene 5 2 56 3.8631433719706707 false 1375 3.8631433719706707 true
gene 14 51 114 -2.1586061341006793 false 1491 -2.1586061341006793 true
gene 14 114 56 -12.431570191037029 false 1492 -12.431570191037029 true
gene 1 47 56 -7.870868726648798 false 1623 -7.870868726648798 true
gene 7 47 114 -1.949326072045573 false 1631 -1.949326072045573 true
gene 3 24 114 4.822055720837522 false 1690 4.822055720837522 true
gene 13 26 56 9.796262717532205 false 1754 9.796262717532205 true
gene 14 26 114 -0.847570112737037 false 1776 -0.847570112737037 true
gene 10 19 56 -8.86648806636152 false 1781 -8.86648806636152 true
gene 11 36 56 -5.563155071964806 false 1955 -5.563155071964806 true
gene 5 36 114 -0.1545754743495943 false 1956 -0.1545754743495943 true
gene 14 25 56 -0.8686052170789194 false 2171 -0.8686052170789194 true
gene 8 25 114 8.170803602331835 false 2172 8.170803602331835 true
gene 10 5 56 1.1790965425905826 false 2419 1.1790965425905826 true
gene 10 5 114 -2.5614253879841016 false 2420 -2.5614253879841016 true
gene 12 33 56 -1.6690961306908272 false 2476 -1.6690961306908272 true
gene 1 33 114 1.3814182446891976 false 2477 1.3814182446891976 true
gene 4 21 56 -1.2135544131059621 false 4438 -1.2135544131059621 true
gene 7 21 114 2.0630616417875167 false 4439 2.0630616417875167 true
gene 3 39 56 -6.4164808507121975 false 4640 -6.4164808507121975 true
gene 9 39 114 5.745808037787846 false 4641 5.745808037787846 true
gene 14 32 56 2.2461324440863186 false 4841 2.2461324440863186 true
gene 14 32 114 0.026211801723952384 false 4842 0.026211801723952384 true
gene 4 12 56 0.21308744847066513 false 5393 0.21308744847066513 true
gene 1 12 114 1.3139271517904718 false 5394 1.3139271517904718 true
gene 3 17 56 1.9081449294702637 false 5556 1.9081449294702637 true
gene 7 9 56 4.727007130397801 false 5964 4.727007130397801 true
gene 2 9 114 -4.573332007498431 false 6016 -4.573332007498431 true
gene 9 23 56 -1.3317797626259855 false 6641 -1.3317797626259855 true
gene 4 23 114 5.131831612543032 false 6642 5.131831612543032 true
gene 6 18 56 -3.761555000043594 false 6852 -3.761555000043594 true
gene 5 18 114 2.0897573105210805 false 6853 2.0897573105210805 true
gene 11 54 56 -2.8433582668321833 false 7045 -2.8433582668321833 true
gene 8 54 114 -2.1549439995033817 false 7047 -2.1549439995033817 true
genomeend 14
/* Organism #10 Fitness: 10.000 Error: 0.000 */
genomestart 10
trait 1 0.09336090087890626 0.00010414770703016204 0.020028417096590884 0.0002608670283130974 8.748376188033385e-05 0.03909659053488686 0.0022577235158943486 0.012770368292674493
trait 2 0.19979095458984375 0.3085226038070512 0 0.26329490437232006 0.07458900766670552 0 0 0.28433339643171107
trait 3 0.28838092088699335 0.023990392673444036 0.0011218433250966319 0 0 0 0 0
trait 4 0.33602800764546953 0.11559137280316792 0 0 0 0.21125862898417205 0.002989236539088512 0.13698451398823586
trait 5 0.49590264121041694 0.01524677935154059 0.004726575822680374 0.025088432227065104 0.028343683758001878 0 0.005315775609702939 0.07326343057959853
trait 6 0.6 0.049935751540638874 0 0.091972171319972 0 0 0 0
trait 7 0.7 0 0 0.006920414657810611 0 0 0 0
trait 8 0.7999624794936288 0.0023123952360905916 0 0 0.00231159877419597 0.020516609028841767 0.006740378444313767 0
trait 9 0.9068950018818457 0 0 0.007805414148374261 0.020988453057079522 0 0 0
trait 10 1 0 0 0 0 0 0 0
trait 11 1.1 5.364721754972547e-05 0.00035379939045984254 0.00019643293188665778 0.0003459967505592933 0 0 5.0418427122000993e-05
trait 12 1.2 0 0 0.014812718978778418 0.027705573625438434 0.03017983199738452 0 0
trait 13 1.3 0 0.042741115413220315 0 0.025344722084364786 0.03295998478627546 0 0
trait 14 1.4 0 0 0 0 0 0 0
trait 15 1.5014095198308204 0.0004666024245762319 0.00018551120214453377 5.184129486814643e-05 0 0 0 0
node 1 1 1 3 NullActivation
node 2 1 1 1 NullActivation
node 3 1 1 1 NullActivation
node 4 1 1 1 NullActivation
node 5 1 1 1 NullActivation
node 6 1 1 1 NullActivation
node 7 1 1 1 NullActivation
node 8 1 1 1 NullActivation
node 9 1 1 1 NullActivation
node 10 1 1 1 NullActivation
node 11 1 1 1 NullActivation
node 12 1 1 1 NullActivation
node 13 1 1 1 NullActivation
node 14 1 1 1 NullActivation
node 15 1 1 1 NullActivation
node 16 1 1 1 NullActivation
node 17 1 1 1 NullActivation
node 18 1 1 1 NullActivation
node 19 1 1 1 NullActivation
node 20 1 1 1 NullActivation
node 21 1 1 1 NullActivation
node 22 1 1 1 NullActivation
node 23 1 1 1 NullActivation
node 24 1 1 1 NullActivation
node 25 1 1 1 NullActivation
node 26 1 1 1 NullActivation
node 27 1 1 1 NullActivation
node 28 1 1 1 NullActivation
node 29 1 1 1 NullActivation
node 30 1 1 1 NullActivation
node 31 1 1 1 NullActivation
node 32 1 1 1 NullActivation
node 33 1 1 1 NullActivation
node 34 1 1 1 NullActivation
node 35 1 1 1 NullActivation
node 36 1 1 1 NullActivation
node 37 1 1 1 NullActivation
node 38 1 1 1 NullActivation
node 39 1 1 1 NullActivation
node 40 1 1 1 NullActivation
node 41 1 1 1 NullActivation
node 42 1 1 1 NullActivation
node 43 1 1 1 NullActivation
node 44 1 1 1 NullActivation
node 45 1 1 1 NullActivation
node 46 1 1 1 NullActivation
node 47 1 1 1 NullActivation
node 48 1 1 1 NullActivation
node 49 1 1 1 NullActivation
node 50 1 1 1 NullActivation
node 51 1 1 1 NullActivation
node 52 1 1 1 NullActivation
node 53 1 1 1 NullActivation
node 54 1 1 1 NullActivation
node 55 1 1 1 NullActivation
node 56 1 0 2 SigmoidSteepenedActivation
node 114 1 0 0 SigmoidSteepenedActivation
gene 1 1 56 1.0971773724874017 false 1 1.0971773724874017 true
gene 14 51 56 -9.970426902747661 false 118 -9.970426902747661 true
gene 3 31 56 1.1900299886775616 false 285 1.1900299886775616 true
gene 7 38 56 1.4594315661313424 false 361 1.4594315661313424 true
gene 2 8 56 6.142135182569357 false 427 6.142135182569357 true
gene 3 55 56 8.6853950711415 false 750 8.6853950711415 true
gene 11 50 56 5.618201427000785 false 876 5.618201427000785 true
gene 2 10 56 3.6788585963132885 false 988 3.6788585963132885 true
gene 4 11 56 -2.572361522435977 false 1157 -2.572361522435977 true
gene 14 45 56 1.8733795951332881 false 1204 1.8733795951332881 true
gene 12 53 56 1.8579737770534392 false 1299 1.8579737770534392 true
gene 14 52 56 3.970225065887286 false 1358 3.970225065887286 true
gene 5 2 56 4.2795012339078875 false 1375 4.2795012339078875 true
gene 14 51 114 -3.489868375972388 false 1491 -3.489868375972388 true
gene 14 114 56 -10.092377853335773 false 1492 -10.092377853335773 true
gene 1 47 56 -5.88028335772483 false 1623 -5.88028335772483 true
gene 7 47 114 -0.7137613293293299 false 1631 -0.7137613293293299 true
gene 3 24 114 5.912399198966169 false 1690 5.912399198966169 true
gene 13 26 56 7.6609254988648265 false 1754 7.6609254988648265 true
gene 14 26 114 -5.446077619281589 false 1776 -5.446077619281589 true
gene 10 19 56 -8.86648806636152 false 1781 -8.86648806636152 true
gene 11 36 56 -3.6276960616474243 false 1955 -3.6276960616474243 true
gene 5 36 114 -0.738910061055866 false 1956 -0.738910061055866 true
gene 14 25 56 -2.09672346357378 false 2171 -2.09672346357378 true
gene 8 25 114 9.391509639385704 false 2172 9.391509639385704 true
gene 10 5 56 2.410884812500424 false 2419 2.410884812500424 true
gene 10 5 114 -0.17968682510446432 false 2420 -0.17968682510446432 true
gene 12 33 56 -0.9491168890607373 false 2476 -0.9491168890607373 true
gene 1 33 114 1.4815344907219514 false 2477 1.4815344907219514 true
gene 4 21 56 -1.2135544131059621 false 4438 -1.2135544131059621 true
gene 7 21 114 1.912741475123033 false 4439 1.912741475123033 true
gene 3 39 56 -4.535940602784307 false 4640 -4.535940602784307 true
gene 9 39 114 4.188655529549344 false 4641 4.188655529549344 true
gene 14 32 56 -0.1923805557592816 false 4841 -0.1923805557592816 true
gene 14 32 114 1.0718894653026243 false 4842 1.0718894653026243 true
gene 4 12 56 -5.469238397766488 false 5393 -5.469238397766488 true
gene 1 12 114 -0.2972348195155782 false 5394 -0.2972348195155782 true
gene 3 17 56 -9.37234029482048 false 5556 -9.37234029482048 true
gene 7 9 56 4.594365302494843 false 5964 0 true
gene 2 9 114 -5.364648514840348 false 6016 -5.364648514840348 true
gene 9 23 56 -1.3317797626259855 false 6641 -1.3317797626259855 true
gene 4 23 114 6.947132882284527 false 6642 6.947132882284527 true
gene 6 18 56 -5.2349924885556565 false 6852 -5.2349924885556565 true
gene 5 18 114 -1.105890013758661 false 6853 -1.105890013758661 true
gene 11 54 56 -2.1951479550749244 false 7045 0 true
gene 8 54 114 6.623949426056579 false 7047 6.623949426056579 true
gene 3 35 56 2.1942305675954525 false 7673 2.1942305675954525 true
gene 2 35 114 3.2375982225742215 false 7674 3.2375982225742215 true
genomeend 10
/* Organism #13 Fitness: 8.000 Error: 0.000 */
genomestart 13
trait 1 0.09336090087890626 0.00010414770703016204 0.020028417096590884 0.0002608670283130974 8.748376188033385e-05 0.03909659053488686 0.0022577235158943486 0.012770368292674493
trait 2 0.19979095458984375 0.3085226038070512 0 0.26329490437232006 0.07458900766670552 0 0 0.28433339643171107
trait 3 0.28838092088699335 0.023990392673444036 0.0011218433250966319 0 0 0 0 0
trait 4 0.33602800764546953 0.11559137280316792 0 0 0 0.21125862898417205 0.002989236539088512 0.13698451398823586
trait 5 0.49590264121041694 0.01524677935154059 0.004726575822680374 0.025088432227065104 0.028343683758001878 0 0.005315775609702939 0.07326343057959853
trait 6 0.6 0.049935751540638874 0 0.091972171319972 0 0 0 0
trait 7 0.7 0 0 0.006920414657810611 0 0 0 0
trait 8 0.7999624794936288 0.0023123952360905916 0 0 0.00231159877419597 0.020516609028841767 0.006740378444313767 0
trait 9 0.9068950018818457 0 0 0.007805414148374261 0.020988453057079522 0 0 0
trait 10 1 0 0 0 0 0 0 0
trait 11 1.1 5.364721754972547e-05 0.00035379939045984254 0.00019643293188665778 0.0003459967505592933 0 0 5.0418427122000993e-05
trait 12 1.2 0 0 0.014812718978778418 0.027705573625438434 0.03017983199738452 0 0
trait 13 1.3 0 0.042741115413220315 0 0.025344722084364786 0.03295998478627546 0 0
trait 14 1.4 0 0 0 0 0 0 0
trait 15 1.5014095198308204 0.0004666024245762319 0.00018551120214453377 5.184129486814643e-05 0 0 0 0
node 1 1 1 3 NullActivation
node 2 1 1 1 NullActivation
node 3 1 1 1 NullActivation
node 4 1 1 1 NullActivation
node 5 1 1 1 NullActivation
node 6 1 1 1 NullActivation
node 7 1 1 1 NullActivation
node 8 1 1 1 NullActivation
node 9 1 1 1 NullActivation
node 10 1 1 1 NullActivation
node 11 1 1 1 NullActivation
node 12 1 1 1 NullActivation
node 13 1 1 1 NullActivation
node 14 1 1 1 NullActivation
node 15 1 1 1 NullActivation
node 16 1 1 1 NullActivation
node 17 1 1 1 NullActivation
node 18 1 1 1 NullActivation
node 19 1 1 1 NullActivation
node 20 1 1 1 NullActivation
node 21 1 1 1 NullActivation
node 22 1 1 1 NullActivation
node 23 1 1 1 NullActivation
node 24 1 1 1 NullActivation
node 25 1 1 1 NullActivation
node 26 1 1 1 NullActivation
node 27 1 1 1 NullActivation
node 28 1 1 1 NullActivation
node 29 1 1 1 NullActivation
node 30 1 1 1 NullActivation
node 31 1 1 1 NullActivation
node 32 1 1 1 NullActivation
node 33 1 1 1 NullActivation
node 34 1 1 1 NullActivation
node 35 1 1 1 NullActivation
node 36 1 1 1 NullActivation
node 37 1 1 1 NullActivation
node 38 1 1 1 NullActivation
node 39 1 1 1 NullActivation
node 40 1 1 1 NullActivation
node 41 1 1 1 NullActivation
node 42 1 1 1 NullActivation
node 43 1 1 1 NullActivation
node 44 1 1 1 NullActivation
node 45 1 1 1 NullActivation
node 46 1 1 1 NullActivation
node 47 1 1 1 NullActivation
node 48 1 1 1 NullActivation
node 49 1 1 1 NullActivation
node 50 1 1 1 NullActivation
node 51 1 1 1 NullActivation
node 52 1 1 1 NullActivation
node 53 1 1 1 NullActivation
node 54 1 1 1 NullActivation
node 55 1 1 1 NullActivation
node 56 1 0 2 SigmoidSteepenedActivation
node 114 1 0 0 SigmoidSteepenedActivation
gene 1 1 56 1.1733090803371784 false 1 1.1733090803371784 true
gene 14 51 56 -12.085869934734099 false 118 -12.085869934734099 true
gene 3 31 56 1.16909475571693 false 285 1.16909475571693 true
gene 7 38 56 2.4586739940648306 false 361 2.4586739940648306 true
gene 2 8 56 5.7966047890472705 false 427 5.7966047890472705 true
gene 3 55 56 8.838277744402454 false 750 8.838277744402454 true
gene 11 50 56 3.911759776934585 false 876 3.911759776934585 true
gene 2 10 56 5.0157906597343205 false 988 5.0157906597343205 true
gene 4 11 56 -3.3128724551352176 false 1157 -3.3128724551352176 true
gene 14 45 56 3.079988016556033 false 1204 3.079988016556033 true
gene 12 53 56 2.5391281659210545 false 1299 2.5391281659210545 true
gene 14 52 56 4.255096505388219 false 1358 4.255096505388219 true
gene 5 2 56 4.2795012339078875 false 1375 4.2795012339078875 true
gene 14 51 114 -3.489868375972388 false 1491 -3.489868375972388 true
gene 14 114 56 -10.092377853335773 false 1492 -10.092377853335773 true
gene 1 47 56 -5.88028335772483 false 1623 -5.88028335772483 true
gene 7 47 114 -0.7137613293293299 false 1631 -0.7137613293293299 true
gene 3 24 114 5.912399198966169 false 1690 5.912399198966169 true
gene 13 26 56 7.6609254988648265 false 1754 7.6609254988648265 true
gene 14 26 114 -5.446077619281589 false 1776 -5.446077619281589 true
gene 10 19 56 -8.86648806636152 false 1781 -8.86648806636152 true
gene 11 36 56 -3.6276960616474243 false 1955 -3.6276960616474243 true
gene 5 36 114 -0.738910061055866 false 1956 -0.738910061055866 true
gene 14 25 56 -2.09672346357378 false 2171 -2.09672346357378 true
gene 8 25 114 9.391509639385704 false 2172 9.391509639385704 true
gene 10 5 56 2.410884812500424 false 2419 2.410884812500424 true
gene 10 5 114 -0.17968682510446432 false 2420 -0.17968682510446432 true
gene 12 33 56 -0.9491168890607373 false 2476 -0.9491168890607373 true
gene 1 33 114 1.4815344907219514 false 2477 1.4815344907219514 true
gene 4 21 56 -1.2135544131059621 false 4438 -1.2135544131059621 true
gene 7 21 114 1.912741475123033 false 4439 1.912741475123033 true
gene 3 39 56 -4.535940602784307 false 4640 -4.535940602784307 true
gene 9 39 114 4.188655529549344 false 4641 4.188655529549344 true
gene 14 32 56 -0.1923805557592816 false 4841 -0.1923805557592816 true
gene 14 32 114 1.0718894653026243 false 4842 1.0718894653026243 true
gene 4 12 56 -5.469238397766488 false 5393 -5.469238397766488 true
gene 1 12 114 -0.2972348195155782 false 5394 -0.2972348195155782 true
gene 3 17 56 -9.37234029482048 false 5556 -9.37234029482048 true
gene 7 9 56 4.594365302494843 false 5964 0 true
gene 2 9 114 -5.364648514840348 false 6016 -5.364648514840348 true
gene 9 23 56 -1.3317797626259855 false 6641 -1.3317797626259855 true
gene 4 23 114 6.947132882284527 false 6642 6.947132882284527 true
gene 6 18 56 -5.2349924885556565 false 6852 -5.2349924885556565 true
gene 5 18 114 -1.105890013758661 false 6853 -1.105890013758661 true
gene 11 54 56 -2.1951479550749244 false 7045 0 true
gene 8 54 114 6.623949426056579 false 7047 6.623949426056579 true
gene 9 34 56 -9.970461148121126 false 7677 -9.970461148121126 true
gene 15 34 114 -3.265722274472514 false 7678 -3.265722274472514 true
genomeend 13
/* Organism #16 Fitness: 6.000 Error: 0.000 */
genomestart 16
trait 1 0.09336090087890626 0.00010414770703016204 0.020028417096590884 0.0002608670283130974 8.748376188033385e-05 0.03909659053488686 0.0022577235158943486 0.012770368292674493
trait 2 0.19979095458984375 0.3085226038070512 0 0.26329490437232006 0.07458900766670552 0 0 0.28433339643171107
trait 3 0.28838092088699335 0.023990392673444036 0.0011218433250966319 0 0 0 0 0
trait 4 0.33602800764546953 0.11559137280316792 0 0 0 0.21125862898417205 0.002989236539088512 0.13698451398823586
trait 5 0.49590264121041694 0.01524677935154059 0.004726575822680374 0.025088432227065104 0.028343683758001878 0 0.005315775609702939 0.07326343057959853
trait 6 0.6 0.049935751540638874 0 0.091972171319972 0 0 0 0
trait 7 0.7 0 0 0.006920414657810611 0 0 0 0
trait 8 0.7999624794936288 0.0023123952360905916 0 0 0.00231159877419597 0.020516609028841767 0.006740378444313767 0
trait 9 0.9068950018818457 0 0 0.007805414148374261 0.020988453057079522 0 0 0
trait 10 1 0 0 0 0 0 0 0
trait 11 1.1 5.364721754972547e-05 0.00035379939045984254 0.00019643293188665778 0.0003459967505592933 0 0 5.0418427122000993e-05
trait 12 1.2 0 0 0.014812718978778418 0.027705573625438434 0.03017983199738452 0 0
trait 13 1.3 0 0.042741115413220315 0 0.025344722084364786 0.03295998478627546 0 0
trait 14 1.4 0 0 0 0 0 0 0
trait 15 1.5014095198308204 0.0004666024245762319 0.00018551120214453377 5.184129486814643e-05 0 0 0 0
node 1 1 1 3 NullActivation
node 2 1 1 1 NullActivation
node 3 1 1 1 NullActivation
node 4 1 1 1 NullActivation
node 5 1 1 1 NullActivation
node 6 1 1 1 NullActivation
node 7 1 1 1 NullActivation
node 8 1 1 1 NullActivation
node 9 1 1 1 NullActivation
node 10 1 1 1 NullActivation
node 11 1 1 1 NullActivation
node 12 1 1 1 NullActivation
node 13 1 1 1 NullActivation
node 14 1 1 1 NullActivation
node 15 1 1 1 NullActivation
node 16 1 1 1 NullActivation
node 17 1 1 1 NullActivation
node 18 1 1 1 NullActivation
node 19 1 1 1 NullActivation
node 20 1 1 1 NullActivation
node 21 1 1 1 NullActivation
node 22 1 1 1 NullActivation
node 23 1 1 1 NullActivation
node 24 1 1 1 NullActivation
node 25 1 1 1 NullActivation
node 26 1 1 1 NullActivation
node 27 1 1 1 NullActivation
node 28 1 1 1 NullActivation
node 29 1 1 1 NullActivation
node 30 1 1 1 NullActivation
node 31 1 1 1 NullActivation
node 32 1 1 1 NullActivation
node 33 1 1 1 NullActivation
node 34 1 1 1 NullActivation
node 35 1 1 1 NullActivation
node 36 1 1 1 NullActivation
node 37 1 1 1 NullActivation
node 38 1 1 1 NullActivation
node 39 1 1 1 NullActivation
node 40 1 1 1 NullActivation
node 41 1 1 1 NullActivation
node 42 1 1 1 NullActivation
node 43 1 1 1 NullActivation
node 44 1 1 1 NullActivation
node 45 1 1 1 NullActivation
node 46 1 1 1 NullActivation
node 47 1 1 1 NullActivation
node 48 1 1 1 NullActivation
node 49 1 1 1 NullActivation
node 50 1 1 1 NullActivation
node 51 1 1 1 NullActivation
node 52 1 1 1 NullActivation
node 53 1 1 1 NullActivation
node 54 1 1 1 NullActivation
node 55 1 1 1 NullActivation
node 56 1 0 2 SigmoidSteepenedActivation
node 114 1 0 0 SigmoidSteepenedActivation
gene 1 1 56 2.6343105273451606 false 1 2.6343105273451606 true
gene 14 51 56 -10.103540430639917 false 118 -10.103540430639917 true
gene 3 31 56 0.42872373246963 false 285 0.42872373246963 true
gene 7 38 56 -0.34013984263301555 false 361 -0.34013984263301555 true
gene 2 8 56 4.141516165292359 false 427 4.141516165292359 true
gene 3 55 56 8.946687529157904 false 750 8.946687529157904 true
gene 11 50 56 -2.2608988168659754 false 876 -2.2608988168659754 true
gene 2 10 56 1.2609381149792775 false 988 1.2609381149792775 true
gene 4 11 56 -4.356616406612854 false 1157 -4.356616406612854 true
gene 14 45 56 3.1236104873112653 false 1204 3.1236104873112653 true
gene 12 53 56 -0.9116600409826943 false 1299 -0.9116600409826943 true
gene 14 52 56 -0.47529343596198625 false 1358 -0.47529343596198625 true
gene 5 2 56 5.916431774463355 false 1375 5.916431774463355 true
gene 14 51 114 -1.177180624391796 false 1491 -1.177180624391796 true
gene 14 114 56 -8.735323192620479 false 1492 -8.735323192620479 true
gene 1 47 56 -8.113144281646145 false 1623 -8.113144281646145 true
gene 7 47 114 1.4210462171290597 false 1631 1.4210462171290597 true
gene 3 24 114 5.526512282077296 false 1690 5.526512282077296 true
gene 13 26 56 5.59802411673275 false 1754 5.59802411673275 true
gene 14 26 114 -6.0938895788837275 false 1776 -6.0938895788837275 true
gene 10 19 56 -6.872718931188809 false 1781 -6.872718931188809 true
gene 11 36 56 -2.2320486327602174 false 1955 -2.2320486327602174 true
gene 5 36 114 -0.33511506724571216 false 1956 -0.33511506724571216 true
gene 14 25 56 -1.5303260292038792 false 2171 -1.5303260292038792 true
gene 8 25 114 -0.7293459433627605 false 2172 -0.7293459433627605 true
gene 10 5 56 1.8864589910488547 false 2419 1.8864589910488547 true
gene 10 5 114 -0.17968682510446432 false 2420 -0.17968682510446432 true
gene 12 33 56 -3.1701133686108856 false 2476 -3.1701133686108856 true
gene 1 33 114 -0.8673070635036382 false 2477 -0.8673070635036382 true
gene 4 21 56 1.1006201173924768 false 4438 1.1006201173924768 true
gene 7 21 114 1.8622663380276763 false 4439 1.8622663380276763 true
gene 3 39 56 -3.981056149013642 false 4640 -3.981056149013642 true
gene 9 39 114 2.1196244633129906 false 4641 2.1196244633129906 true
gene 14 32 56 -1.884466047118435 false 4841 -1.884466047118435 true
gene 14 32 114 2.351728165469542 false 4842 2.351728165469542 true
gene 4 12 56 -6.694890042330262 false 5393 -6.694890042330262 true
gene 1 12 114 0.8167568434436717 false 5394 0.8167568434436717 true
gene 3 17 56 -7.585377255352648 false 5556 -7.585377255352648 true
gene 7 9 56 2.1859045243706263 false 5964 2.1859045243706263 true
gene 2 9 114 -5.042555326022509 false 6016 -5.042555326022509 true
gene 9 23 56 -0.1759720079910858 false 6641 -0.1759720079910858 true
gene 4 23 114 -0.5615863152086282 false 6642 -0.5615863152086282 true
gene 6 18 56 -5.2349924885556565 false 6852 -5.2349924885556565 true
gene 5 18 114 -1.105890013758661 false 6853 -1.105890013758661 true
gene 11 54 56 1.7922234298625885 false 7045 1.7922234298625885 true
gene 8 54 114 6.91826670179785 false 7047 6.91826670179785 true
genomeend 16
/* Organism #12 Fitness: 1.000 Error: 0.000 */
genomestart 12
trait 1 0.09336090087890626 0.00010414770703016204 0.020028417096590884 0.0002608670283130974 8.748376188033385e-05 0.03909659053488686 0.0022577235158943486 0.012770368292674493
trait 2 0.19979095458984375 0.3085226038070512 0 0.26329490437232006 0.07458900766670552 0 0 0.28433339643171107
trait 3 0.28838092088699335 0.023990392673444036 0.0011218433250966319 0 0 0 0 0
trait 4 0.33602800764546953 0.11559137280316792 0 0 0 0.21125862898417205 0.002989236539088512 0.13698451398823586
trait 5 0.49590264121041694 0.01524677935154059 0.004726575822680374 0.025088432227065104 0.028343683758001878 0 0.005315775609702939 0.07326343057959853
trait 6 0.6 0.049935751540638874 0 0.091972171319972 0 0 0 0
trait 7 0.7 0 0 0.006920414657810611 0 0 0 0
trait 8 0.7999624794936288 0.0023123952360905916 0 0 0.00231159877419597 0.020516609028841767 0.006740378444313767 0
trait 9 0.9068950018818457 0 0 0.007805414148374261 0.020988453057079522 0 0 0
trait 10 1 0 0 0 0 0 0 0
trait 11 1.1 5.364721754972547e-05 0.00035379939045984254 0.00019643293188665778 0.0003459967505592933 0 0 5.0418427122000993e-05
trait 12 1.2 0 0 0.014812718978778418 0.027705573625438434 0.03017983199738452 0 0
trait 13 1.3 0 0.042741115413220315 0 0.025344722084364786 0.03295998478627546 0 0
trait 14 1.4 0 0 0 0 0 0 0
trait 15 1.5014095198308204 0.0004666024245762319 0.00018551120214453377 5.184129486814643e-05 0 0 0 0
node 1 1 1 3 NullActivation
node 2 1 1 1 NullActivation
node 3 1 1 1 NullActivation
node 4 1 1 1 NullActivation
node 5 8 1 1 NullActivation
node 6 1 1 1 NullActivation
node 7 1 1 1 NullActivation
node 8 1 1 1 NullActivation
node 9 1 1 1 NullActivation
node 10 1 1 1 NullActivation
node 11 1 1 1 NullActivation
node 12 1 1 1 NullActivation
node 13 1 1 1 NullActivation
node 14 1 1 1 NullActivation
node 15 1 1 1 NullActivation
node 16 1 1 1 NullActivation
node 17 1 1 1 NullActivation
node 18 1 1 1 NullActivation
node 19 1 1 1 NullActivation
node 20 1 1 1 NullActivation
node 21 1 1 1 NullActivation
node 22 1 1 1 NullActivation
node 23 1 1 1 NullActivation
node 24 1 1 1 NullActivation
node 25 1 1 1 NullActivation
node 26 1 1 1 NullActivation
node 27 1 1 1 NullActivation
node 28 1 1 1 NullActivation
node 29 1 1 1 NullActivation
node 30 1 1 1 NullActivation
node 31 1 1 1 NullActivation
node 32 1 1 1 NullActivation
node 33 1 1 1 NullActivation
node 34 1 1 1 NullActivation
node 35 1 1 1 NullActivation
node 36 1 1 1 NullActivation
node 37 1 1 1 NullActivation
node 38 1 1 1 NullActivation
node 39 1 1 1 NullActivation
node 40 1 1 1 NullActivation
node 41 1 1 1 NullActivation
node 42 1 1 1 NullActivation
node 43 1 1 1 NullActivation
node 44 1 1 1 NullActivation
node 45 1 1 1 NullActivation
node 46 1 1 1 NullActivation
node 47 1 1 1 NullActivation
node 48 1 1 1 NullActivation
node 49 1 1 1 NullActivation
node 50 1 1 1 NullActivation
node 51 1 1 1 NullActivation
node 52 1 1 1 NullActivation
node 53 1 1 1 NullActivation
node 54 1 1 1 NullActivation
node 55 1 1 1 NullActivation
node 56 1 0 2 SigmoidSteepenedActivation
node 114 1 0 0 SigmoidSteepenedActivation
gene 1 1 56 -0.652577788744694 false 1 -0.652577788744694 true
gene 5 51 56 0.18678606224791083 false 118 0.18678606224791083 true
gene 3 31 56 1.16909475571693 false 285 1.16909475571693 true
gene 7 38 56 -1.9131342862621654 false 361 -1.9131342862621654 true
gene 2 8 56 7.676492800566004 false 427 7.676492800566004 true
gene 3 55 56 0.20091542534592027 false 750 0.20091542534592027 true
gene 11 50 56 5.7620586275471 false 876 5.7620586275471 true
gene 2 10 56 5.0157906597343205 false 988 5.0157906597343205 true
gene 4 11 56 0.7037463086274738 false 1157 0.7037463086274738 true
gene 14 45 56 5.559395498044443 false 1204 5.559395498044443 true
gene 12 53 56 4.29717124837398 false 1299 4.29717124837398 true
gene 14 52 56 -1.0371434437073124 false 1358 -1.0371434437073124 true
gene 5 2 56 6.079999303584532 false 1375 6.079999303584532 true
gene 14 51 114 -2.4227198694806655 false 1491 -2.4227198694806655 true
gene 14 114 56 -11.596666565988283 false 1492 -11.596666565988283 true
gene 1 47 56 -1.521371244238675 false 1623 -1.521371244238675 true
gene 7 47 114 -0.8768667062757161 false 1631 -0.8768667062757161 true
gene 3 24 114 5.494839544786349 false 1690 5.494839544786349 true
gene 13 26 56 6.9995554409185 false 1754 6.9995554409185 true
gene 14 26 114 -4.649948012913798 false 1776 -4.649948012913798 true
gene 10 19 56 -10.281179136736336 false 1781 -10.281179136736336 true
gene 11 36 56 -0.9928679600987566 false 1955 -0.9928679600987566 true
gene 5 36 114 -0.8573651755626183 false 1956 -0.8573651755626183 true
gene 14 25 56 -0.3942167967756336 false 2171 -0.3942167967756336 true
gene 8 25 114 8.98845831397789 false 2172 8.98845831397789 true
gene 10 5 56 2.410884812500424 false 2419 2.410884812500424 true
gene 10 5 114 -2.5829214828005975 false 2420 -2.5829214828005975 true
gene 12 33 56 -0.9491168890607373 false 2476 -0.9491168890607373 true
gene 1 33 114 2.805840992855365 false 2477 2.805840992855365 true
gene 4 21 56 1.2021414534653356 false 4438 1.2021414534653356 true
gene 7 21 114 2.9539853952946453 false 4439 2.9539853952946453 true
gene 3 39 56 -4.535940602784307 false 4640 -4.535940602784307 true
gene 9 39 114 5.020510731963311 false 4641 5.020510731963311 true
gene 14 32 56 -0.5784900563810748 false 4841 -0.5784900563810748 true
gene 14 32 114 1.3386731254436304 false 4842 1.3386731254436304 true
gene 4 12 56 -5.317412975529048 false 5393 -5.317412975529048 true
gene 1 12 114 -2.5422735821305134 false 5394 -2.5422735821305134 true
gene 3 17 56 -8.755385865700447 false 5556 -8.755385865700447 true
gene 7 9 56 5.070932005944285 false 5964 5.070932005944285 true
gene 2 9 114 -5.558714788551608 false 6016 -5.558714788551608 true
gene 9 23 56 -0.8218213753121076 false 6641 -0.8218213753121076 true
gene 4 23 114 5.282313222008749 false 6642 5.282313222008749 true
gene 6 18 56 -1.3343792683278393 false 6852 -1.3343792683278393 true
gene 5 18 114 -2.466015509516713 false 6853 -2.466015509516713 true
gene 11 54 56 0.004192689086011245 false 7045 0.004192689086011245 true
gene 8 54 114 7.468232025094046 false 7047 7.468232025094046 true
genomeend 12
/* Species #3 : (Size 10) (AF 13.200) (Age 33)  */
/* Organism #22 Fitness: 18.000 Error: 0.000 */
genomestart 22
trait 1 0.09358010292053223 0.00010397661901297435 0.020641293302323185 0.00013719801821519947 8.734004845847339e-05 0.037994046697486315 0.0038113195102691473 0.012410237379216461
