genomestart 94
trait 1 0.08559089583068272 9.476665390417437e-05 0.02057074200685626 0.00013719801821519947 7.988357306899037e-05 0.03475038380575603 0.0045538468853586166 0.06431467171079074
trait 2 0.20468101792980906 0.00014505007048215408 0 0.0003409064135521838 0 0 0.0023072768091157722 0.021275295680988435
trait 3 0.2880951745435595 0.024580384954011714 0.0011494326568271646 0 0 0 0 0
trait 4 0.49813448243023206 0 0 0 0 0.004159444162020215 0.08599612826271338 0.022563498415765174
trait 5 0.502041218925655 0.01522695790913145 0.0037649718555155835 0.025012982872856106 0.027221392753168972 0.003041150822535946 0.0040618032679664365 0.0731681850961789
trait 6 0 0.4790034609744274 0 0 0.08667668223599115 0 0 0.08758245112324069
trait 7 0.7 0 0 0.005791522016755255 0 0 0.0038701489917619346 0.0009747752249315101
trait 8 0.799973383890793 0.0020912414190715155 0 0 0.002090521129530719 0.020765179179625125 0.006815109294806977 0
trait 9 0.9175808240313429 0 0.0007799244411585953 0.018893882955150997 0.048495551891667835 0 0 0
trait 10 1 0 0 0 0 0 0 0
trait 11 1.0650457785132172 5.103936669661382e-05 0.00025245060673436683 0.00018688410880883418 0.0002468830980553291 0 0.13683296704251574 3.5975648519344455e-05
trait 12 1.2 0 0 0.03261015829551121 0.01620408388945003 0.01765119668939495 0 0
trait 13 1.3 0 0.04158713008206831 0.002268414607440766 0.03372276471797403 0.032070084310103275 0 0
trait 14 1.3924518809310444 0 0.008325975397625389 0 0 0.0012056563688640383 0 0
trait 15 1.5024674462663412 0.0008168146238256917 0.0003247481256291308 7.905835664674382e-05 0 0.07796649824072481 0.09155977136361473 0
node 1 1 1 3 NullActivation
node 2 1 1 1 NullActivation
node 3 7 1 1 NullActivation
node 4 8 1 1 NullActivation
node 5 1 1 1 NullActivation
node 6 1 1 1 NullActivation
node 7 1 1 1 NullActivation
node 8 1 1 1 NullActivation
node 9 1 1 1 NullActivation
node 10 1 1 1 NullActivation
node 11 1 1 1 NullActivation
node 12 1 1 1 NullActivation
node 13 1 1 1 NullActivation
node 14 1 1 1 NullActivation
node 15 1 1 1 NullActivation
node 16 1 1 1 NullActivation
node 17 1 1 1 NullActivation
node 18 1 1 1 NullActivation
node 19 1 1 1 NullActivation
node 20 1 1 1 NullActivation
node 21 13 1 1 NullActivation
node 22 1 1 1 NullActivation
node 23 1 1 1 NullActivation
node 24 1 1 1 NullActivation
node 25 1 1 1 NullActivation
node 26 1 1 1 NullActivation
node 27 1 1 1 NullActivation
node 28 1 1 1 NullActivation
node 29 1 1 1 NullActivation
node 30 1 1 1 NullActivation
node 31 1 1 1 NullActivation
node 32 1 1 1 NullActivation
node 33 1 1 1 NullActivation
node 34 1 1 1 NullActivation
node 35 1 1 1 NullActivation
node 36 1 1 1 NullActivation
node 37 1 1 1 NullActivation
node 38 1 1 1 NullActivation
node 39 1 1 1 NullActivation
node 40 1 1 1 NullActivation
node 41 1 1 1 NullActivation
node 42 1 1 1 NullActivation
node 43 1 1 1 NullActivation
node 44 1 1 1 NullActivation
node 45 1 1 1 NullActivation
node 46 1 1 1 NullActivation
node 47 1 1 1 NullActivation
node 48 1 1 1 NullActivation
node 49 1 1 1 NullActivation
node 50 1 1 1 NullActivation
node 51 11 1 1 NullActivation
node 52 1 1 1 NullActivation
node 53 1 1 1 NullActivation
node 54 1 1 1 NullActivation
node 55 1 1 1 NullActivation
node 56 1 0 2 SigmoidSteepenedActivation
node 130 1 0 0 SigmoidSteepenedActivation
node 186 1 0 0 SigmoidSteepenedActivation
node 285 1 0 0 SigmoidSteepenedActivation
node 427 1 0 0 SigmoidSteepenedActivation
node 456 1 0 0 SigmoidSteepenedActivation
node 573 1 0 0 SigmoidSteepenedActivation
node 604 1 0 0 SigmoidSteepenedActivation
node 724 1 0 0 SigmoidSteepenedActivation
node 743 1 0 0 SigmoidSteepenedActivation
node 1143 1 0 0 SigmoidSteepenedActivation
node 1204 1 0 0 SigmoidSteepenedActivation
gene 1 1 56 -5.751444014311247 false 1 -5.751444014311247 true
gene 14 51 56 -25.070472153846687 false 118 -25.070472153846687 true
gene 3 31 56 3.4286642705274075 false 285 3.4286642705274075 true
gene 7 38 56 3.2006476440177156 false 361 3.2006476440177156 true
gene 2 8 56 -0.6360739525427579 false 427 -0.6360739525427579 true
gene 3 55 56 7.257948084481965 false 750 7.257948084481965 true
gene 11 50 56 2.0444510959990403 false 876 2.0444510959990403 true
gene 2 10 56 -0.9055265063746322 false 988 -0.9055265063746322 true
gene 5 52 56 15.87607525110907 false 1199 15.87607525110907 true
gene 6 19 56 -0.1353653707487643 false 1344 -0.1353653707487643 true
gene 7 25 56 -0.9905895629229529 false 1512 -0.9905895629229529 true
gene 14 51 130 -7.28114058051533 false 1798 -7.28114058051533 true
gene 14 130 56 -1.0729128642650976 false 1799 -1.0729128642650976 true
gene 15 39 56 6.690401991114554 false 2048 6.690401991114554 true
gene 4 39 130 0.7271801744321791 false 2131 0.7271801744321791 true
gene 8 26 56 7.513913950745721 false 2485 7.513913950745721 true
gene 1 26 130 3.1927724328818354 false 2487 3.1927724328818354 true
gene 5 15 130 -2.6109114201753942 false 2696 -2.6109114201753942 true
gene 13 6 56 -6.867689620757339 false 2756 -6.867689620757339 true
gene 9 6 130 -7.689259788472113 false 2812 -7.689259788472113 true
gene 5 15 186 -0.8209878290764548 false 3115 -0.8209878290764548 true
gene 5 186 130 2.6675550615541166 false 3116 2.6675550615541166 true
gene 10 22 56 -4.807972776163064 false 3419 -4.807972776163064 true
gene 10 22 130 -2.9978609983415603 false 3452 -2.9978609983415603 true
gene 2 22 186 9.812338656387688 false 3493 9.812338656387688 true
gene 2 9 56 -1.7980263799745897 false 3721 -1.7980263799745897 true
gene 14 49 56 1.7587685638389354 false 4107 1.7587685638389354 true
gene 1 49 130 -0.5857287784569252 false 4109 -0.5857287784569252 true
gene 11 49 186 6.768945310553912 false 4110 6.768945310553912 true
gene 7 24 56 4.313405175168253 false 4242 4.313405175168253 true
gene 2 24 130 3.5040800159969674 false 4305 3.5040800159969674 true
gene 7 24 186 -1.150378168398628 false 4306 -1.150378168398628 true
gene 3 45 56 4.000001437305894 false 4454 4.000001437305894 true
gene 9 45 130 -8.264917854423857 false 4456 -8.264917854423857 true
gene 11 45 186 -3.8766981992938083 false 4457 -3.8766981992938083 true
gene 6 13 56 -7.744788111116384 false 4622 -7.744788111116384 true
gene 4 13 130 10.77340842310168 false 4624 10.77340842310168 true
gene 10 13 186 -3.673275710086273 false 4644 -3.673275710086273 true
gene 9 53 56 1.952960054024222 false 4788 1.952960054024222 true
gene 2 53 130 4.848731457279277 false 4873 4.848731457279277 true
gene 1 53 186 3.498249447569764 false 4874 3.498249447569764 true
gene 9 47 56 -7.0021119399248075 false 5258 -7.0021119399248075 true
gene 3 47 130 3.346356087005043 false 5271 3.346356087005043 true
gene 14 47 186 1.2972267534178035 false 5272 1.2972267534178035 true
gene 13 7 56 1.2184701969740477 false 5399 1.2184701969740477 true
gene 4 7 130 -2.100509048743501 false 5407 -2.100509048743501 true
gene 13 7 186 -1.6134149514869622 false 5408 -1.6134149514869622 true
gene 10 42 56 -2.763706084575994 false 5569 -2.763706084575994 true
gene 15 42 130 1.2221389753735437 false 5571 1.2221389753735437 true
gene 2 42 186 -1.8149620304610692 false 5572 -1.8149620304610692 true
gene 3 36 56 0.9039474213130936 false 5746 0.9039474213130936 true
gene 2 36 130 -1.670277115016561 false 5748 -1.670277115016561 true
gene 6 36 186 -15.773820707532558 false 5749 -15.773820707532558 true
gene 5 15 285 -1.2090619465017722 false 6153 -1.2090619465017722 true
gene 5 285 186 1.203243339216935 false 6154 1.203243339216935 true
gene 11 11 56 -14.581132106910076 false 6737 -14.581132106910076 true
gene 10 11 130 3.1676955481488704 false 6739 3.1676955481488704 true
gene 14 11 186 -1.6501734656847034 false 6740 -1.6501734656847034 true
gene 2 11 285 -1.8944414973006038 false 6741 -1.8944414973006038 true
gene 12 18 56 -0.48315631373282386 false 7093 -0.48315631373282386 true
gene 11 18 130 -5.516399122737585 false 7219 -5.516399122737585 true
gene 14 18 186 -3.577887758355069 false 7220 -3.577887758355069 true
gene 6 18 285 -2.0542876333143973 false 7221 -2.0542876333143973 true
gene 9 33 56 -1.6416442911314868 false 7245 -1.6416442911314868 true
gene 12 33 130 4.242073389466773 false 7372 4.242073389466773 true
gene 14 33 186 0.25532183468052727 false 7373 0.25532183468052727 true
gene 9 33 285 1.8550919660647014 false 7374 1.8550919660647014 true
gene 9 12 285 -0.6798431778185601 false 7667 -0.6798431778185601 true
gene 15 16 56 -1.6634189890301103 false 7874 -1.6634189890301103 true
gene 4 16 130 1.387965971870626 false 7876 1.387965971870626 true
gene 4 16 186 3.9092165680991 false 7877 3.9092165680991 true
gene 14 16 285 1.5780875769037572 false 7878 1.5780875769037572 true
gene 2 17 56 1.2503393201026307 false 8493 1.2503393201026307 true
gene 10 17 130 -1.068402031326802 false 8495 -1.068402031326802 true
gene 11 17 186 -2.890934793578627 false 8546 -2.890934793578627 true
gene 12 17 285 1.1074272125140041 false 8547 1.1074272125140041 true
gene 12 34 56 2.5254612939800714 false 9791 2.5254612939800714 true
gene 5 34 130 3.0079028513901953 false 9793 3.0079028513901953 true
gene 14 34 186 -0.8151690476092271 false 9794 -0.8151690476092271 true
gene 14 34 285 2.342281406619342 false 9928 2.342281406619342 true
gene 13 43 130 -2.5717711438229762 false 10134 -2.5717711438229762 true
gene 11 19 186 3.014625558503596 false 10367 3.014625558503596 true
gene 2 35 285 3.2159714938554256 false 10712 3.2159714938554256 true
gene 11 19 427 -7.432784736191888 false 11450 -7.432784736191888 true
gene 11 427 186 -4.60515539772171 false 11451 -4.60515539772171 true
gene 14 3 56 5.792023611525169 false 11609 5.792023611525169 true
gene 3 3 130 -9.625543499308108 false 11758 -9.625543499308108 true
gene 2 3 186 2.7919349520340306 false 11759 2.7919349520340306 true
gene 5 3 285 -6.839003635798363 false 11760 -6.839003635798363 true
gene 5 2 56 -4.106698233163148 false 12287 -4.106698233163148 true
gene 14 2 130 -5.739121725622978 false 12289 -5.739121725622978 true
gene 4 2 186 1.1500389952273948 false 12290 1.1500389952273948 true
gene 15 2 285 0.3891264376561221 false 12291 0.3891264376561221 true
gene 15 2 427 4.476755759128828 false 12292 4.476755759128828 true
gene 3 21 56 -1.1816919085785005 false 12808 -1.1816919085785005 true
gene 6 21 130 -0.9053005413798898 false 12810 -0.9053005413798898 true
gene 15 21 186 -0.2597104088869633 false 12811 -0.2597104088869633 true
gene 1 21 285 2.069503439215856 false 12812 2.069503439215856 true
gene 9 21 427 -3.3385538187324326 false 12813 -3.3385538187324326 true
gene 3 18 456 0.9284296829444063 false 12958 0.9284296829444063 true
gene 2 27 56 -0.93476751117534 false 13592 -0.93476751117534 true
gene 7 27 130 7.8956367281857505 false 13594 7.8956367281857505 true
gene 9 27 186 -1.4239038926656646 false 13595 -1.4239038926656646 true
gene 8 27 285 -8.388991429275233 false 13691 -8.388991429275233 true
gene 3 27 427 0.6723148174789053 false 13692 0.6723148174789053 true
gene 10 27 456 1.4812704769980911 false 13693 1.4812704769980911 true
gene 14 44 56 2.761271485326231 false 14456 2.761271485326231 true
gene 8 44 130 2.2980237703652215 false 14458 2.2980237703652215 true
gene 1 44 186 6.307087109225813 false 14459 6.307087109225813 true
gene 12 44 285 -9.487184027907691 false 14656 -9.487184027907691 true
gene 13 44 427 4.743051854279505 false 14657 4.743051854279505 true
gene 5 44 456 -0.5387743049568783 false 14658 -0.5387743049568783 true
gene 3 5 56 1.7455054382380433 false 15006 1.7455054382380433 true
gene 14 5 130 -1.1815321844350835 false 15114 -1.1815321844350835 true
gene 9 5 186 -1.2878149388485518 false 15115 -1.2878149388485518 true
gene 11 5 285 -2.6990149195230266 false 15209 -2.6990149195230266 true
gene 10 5 427 -1.6132820720755014 false 15210 -1.6132820720755014 true
gene 15 5 456 -0.28921265015643055 false 15211 -0.28921265015643055 true
gene 7 14 56 0.7459797309944413 false 17425 0.7459797309944413 true
gene 13 14 130 -0.17711188393205457 false 17461 -0.17711188393205457 true
gene 7 14 186 0.9219095342753314 false 17462 0.9219095342753314 true
gene 13 14 285 -1.188824794741973 false 17463 -1.188824794741973 true
gene 8 14 427 3.0027854250553396 false 17464 3.0027854250553396 true
gene 13 14 456 -1.327416389902778 false 17465 -1.327416389902778 true
gene 6 4 56 1.8611312200435446 false 19009 1.8611312200435446 true
gene 8 4 130 9.766827308504963 false 19011 9.766827308504963 true
gene 8 4 186 -0.4087565947959586 false 19012 -0.4087565947959586 true
gene 6 4 285 -1.9910671966943718 false 19013 -1.9910671966943718 true
gene 6 4 427 -0.8701070091543531 false 19014 -0.8701070091543531 true
gene 8 4 456 -0.2247913102738458 false 19015 -0.2247913102738458 true
gene 15 46 56 0.41191997853735507 false 19150 0.41191997853735507 true
gene 9 46 130 -2.4284611958575533 false 19209 -2.4284611958575533 true
gene 9 46 186 -4.988242130489762 false 19210 -4.988242130489762 true
gene 7 46 285 -0.03702051493069755 false 19211 -0.03702051493069755 true
gene 12 46 427 -0.9646145048842412 false 19212 -0.9646145048842412 true
gene 13 46 456 1.3634491357445442 false 19213 1.3634491357445442 true
gene 6 36 573 -4.849261478159715 false 19658 -4.849261478159715 true
gene 6 573 186 -3.322440100769665 false 19659 -3.322440100769665 true
gene 7 30 56 -2.8570396099290707 false 20400 -2.8570396099290707 true
gene 5 30 130 -6.215708904410513 false 20402 -6.215708904410513 true
gene 15 30 186 1.8072579406401665 false 20403 1.8072579406401665 true
gene 15 30 285 0.132042910802746 false 20628 0.132042910802746 true
gene 7 30 427 1.6452777974487878 false 20629 1.6452777974487878 true
gene 6 30 456 -4.7026595092737145 false 20630 -4.7026595092737145 true
gene 10 30 573 -7.639865957944455 false 20631 -7.639865957944455 true
gene 1 37 56 2.16433172080552 false 20805 2.16433172080552 true
gene 13 37 130 0.11209454513637107 false 20807 0.11209454513637107 true
gene 2 37 186 4.573150913789323 false 20808 4.573150913789323 true
gene 14 37 285 -0.7410878826376672 false 20809 -0.7410878826376672 true
gene 1 37 427 2.179881556588557 false 20810 2.179881556588557 true
gene 15 37 456 -2.0501609076336074 false 20811 -2.0501609076336074 true
gene 11 37 573 2.832830723444914 false 21051 2.832830723444914 true
gene 6 4 604 1.195605553812865 false 21126 1.195605553812865 true
gene 6 604 285 0.767572309631751 false 21127 0.767572309631751 true
gene 5 427 56 -0.16017014458129974 false 23495 -0.16017014458129974 true
gene 14 18 604 0.11740179295436748 false 23790 0.11740179295436748 true
gene 2 48 56 -4.491001909706958 false 24103 -4.491001909706958 true
gene 10 48 130 8.339516385659913 false 24105 8.339516385659913 true
gene 2 48 186 3.5484121681886815 false 24106 3.5484121681886815 true
gene 1 48 285 1.5959991123783939 false 24107 1.5959991123783939 true
gene 9 48 427 2.4048823025388812 false 24108 2.4048823025388812 true
gene 6 48 456 3.650332114295648 false 24109 3.650332114295648 true
gene 13 48 573 3.2062676124768696 false 24110 3.2062676124768696 true
gene 11 48 604 1.4225371471730628 false 24111 1.4225371471730628 true
gene 4 20 56 2.2224632008725322 false 24983 2.2224632008725322 true
gene 13 20 130 -0.8137577167253418 false 24985 -0.8137577167253418 true
gene 5 20 186 1.9044364948440649 false 24986 1.9044364948440649 true
gene 14 20 285 0.5162593164569586 false 24987 0.5162593164569586 true
gene 7 20 427 -0.13348162722792534 false 24988 -0.13348162722792534 true
gene 3 20 456 2.723988319084769 false 24989 2.723988319084769 true
gene 6 20 573 0.853611661177954 false 24990 0.853611661177954 true
gene 11 20 604 0.002477708899031983 false 24991 0.002477708899031983 true
gene 2 17 724 -0.34405456950539204 false 26010 -0.34405456950539204 true
gene 2 724 56 -2.2951380748615264 false 26011 -2.2951380748615264 true
gene 12 47 456 -0.017899730902278525 false 26675 -0.017899730902278525 true
gene 10 3 743 -1.887269011138148 false 26860 -1.887269011138148 true
gene 5 743 285 1.2805854322549521 false 26861 1.2805854322549521 true
gene 14 40 56 0.05188800505176089 false 26887 0.05188800505176089 true
gene 11 40 130 4.439908812448118 false 26889 4.439908812448118 true
gene 10 40 186 0.8260667468057392 false 26890 0.8260667468057392 true
gene 10 40 285 -1.7494802159199514 false 26891 -1.7494802159199514 true
gene 4 40 427 4.626475418593921 false 26892 4.626475418593921 true
gene 2 40 456 0.7001478961409855 false 26893 0.7001478961409855 true
gene 3 40 573 -1.893601712911697 false 26894 -1.893601712911697 true
gene 7 40 604 -0.923211468094876 false 26895 -0.923211468094876 true
gene 11 40 724 -0.9645354258248953 false 26896 -0.9645354258248953 true
gene 10 40 743 0.7160648540494733 false 26913 0.7160648540494733 true
gene 13 32 56 0.07088259440113578 false 27096 0.07088259440113578 true
gene 4 32 130 -0.05184077483094529 false 27098 -0.05184077483094529 true
gene 9 32 186 -0.8235656161355883 false 27099 -0.8235656161355883 true
gene 13 32 285 -0.21632018914529655 false 27100 -0.21632018914529655 true
gene 15 32 427 3.762115286589732 false 27101 3.762115286589732 true
gene 14 32 456 -1.4096375705317694 false 27102 -1.4096375705317694 true
gene 6 32 573 -0.4296282554918981 false 27103 -0.4296282554918981 true
gene 4 32 604 1.9737866115319593 false 27104 1.9737866115319593 true
gene 8 32 724 1.4718602592458319 false 27105 1.4718602592458319 true
gene 5 32 743 1.8729260184206717 false 27106 1.8729260184206717 true
gene 7 28 56 1.2391591336329912 false 27367 1.2391591336329912 true
gene 14 28 130 1.6398368159714893 false 27369 1.6398368159714893 true
gene 2 28 186 -0.041075347771816484 false 27370 -0.041075347771816484 true
gene 15 28 285 0.8566036392392636 false 27371 0.8566036392392636 true
gene 7 28 427 -1.0599618731634237 false 27372 -1.0599618731634237 true
gene 4 28 456 1.0622432211658923 false 27373 1.0622432211658923 true
gene 15 28 573 0.4331246358665048 false 27374 0.4331246358665048 true
gene 1 28 604 -3.412508201942412 false 27375 -3.412508201942412 true
gene 13 28 724 0.19763799416491312 false 27376 0.19763799416491312 true
gene 5 28 743 0.31917787241132545 false 27377 0.31917787241132545 true
gene 13 33 427 -2.2668547805100054 false 29360 -2.2668547805100054 true
gene 7 130 724 -0.5507350780050501 false 29723 -0.5507350780050501 true
gene 12 17 1143 0.15823916037479246 false 30242 0.15823916037479246 true
gene 12 1143 285 -0.5974679482480159 false 30243 -0.5974679482480159 true
gene 11 31 427 8.555786777210995 false 30269 8.555786777210995 true
gene 15 30 604 0.07292506345616429 false 30506 0.07292506345616429 true
gene 5 2 1204 -0.6562264794852686 false 30531 -0.6562264794852686 true
gene 5 1204 56 -1.0469639363327348 false 30532 -1.0469639363327348 true
genomeend 94
