genomestart 255
trait 1 0.6588623512097567 0.1554455243962326 0.38820006474150426 0.5368826302529138 0.43588654596692744 0.5132542413340706 0.43944885066774064 0.4931709519556984
trait 2 0.44440800862473223 0.49172938053377435 0.188217148167044 0.3786137808276254 0.33516459998610765 0.3653897813814181 0.2769736352468112 0.48247722429554485
trait 3 0.5738337066447303 0.16849132156405255 0.44114034047972633 0.5817488759457901 0.3738729137196508 1.0487987821198401 0.567043921508166 0.33251704640527113
trait 4 0.5071672972765017 0.6065940631962737 1.000388305110071 0.6183256876736042 0.2872211909534852 0.5083003058581521 0.19901957790461738 0.48324538283219537
trait 5 0.6533363548573448 0.3471177522714938 0.37738798203434804 0.35179654818949135 0.32702983444113476 0.26706635941141654 0.37758870315021686 0.3692080033688656
trait 6 0.5781736919145803 0.10836068917231165 0.23806761130494175 0.7873120101980083 0.26818225951367725 0.2339515811092972 0.6135402083449698 0.41360195670971267
trait 7 1.3643737015489568 0.253284422387801 0.3564144483264872 0.34911792553359833 0.4184476932856671 0.39946544022990077 0.1398542091474474 0.4125058308613474
trait 8 2.051080219742059 0.5903683447312145 0.42444920518158635 0.4593766734405028 0.40700492627319695 1.2416393145613482 0.4861578516890168 0.3333386850717055
trait 9 0.865122915393792 0.24377265836190304 0.0599946664015466 0.40073971833491195 0.2352904399835974 0.27184938425769467 0.4950578807041156 0.23520580895500914
trait 10 0.43850914780860994 0.3835293672450386 0.6734316274282306 1.2064577458212629 0.30550675990966014 0.7282977514338578 0.17051394460180064 1.0913991725951135
trait 11 1.1646495243334902 0.20645043548520814 0.3058844045404519 0.22602876891510554 0.4619349879442073 0.3696534231678408 0.36216747976174307 0.09577612260225038
trait 12 1.8895028297987082 0.5029340333271088 0.30987821803853266 0.22077231307049192 0.44984596952611544 0.7089580458092619 0.44260486010261296 0.45144204315745545
trait 13 1.088127621789858 0.3471720484140741 0.32987770800200233 0.3811334599249211 0.39932051515297545 0.19150667673197358 0.29285326366297776 0.45215034487822386
trait 14 1.340410873878877 0.31222860210087483 0.6914966366339772 0.3557459496537375 0.41025137204685874 0.4273039905308652 0.6151461410274068 0.42889337975702535
trait 15 1.8151618150154847 0.5808767486797145 0.24660055769874153 0.5821124937933678 0.11236670711767735 0.5124241175172518 0.3364446519218318 0.3793732109088443
node 1 1 1 3 NullActivation
node 2 1 1 1 NullActivation
node 3 1 1 1 NullActivation
node 4 1 1 1 NullActivation
node 5 1 1 1 NullActivation
node 6 15 1 1 NullActivation
node 7 1 1 1 NullActivation
node 8 10 1 1 NullActivation
node 9 9 1 1 NullActivation
node 10 8 1 1 NullActivation
node 11 7 1 1 NullActivation
node 12 1 1 1 NullActivation
node 13 1 1 1 NullActivation
node 14 8 1 1 NullActivation
node 15 1 1 1 NullActivation
node 16 1 1 1 NullActivation
node 17 11 1 1 NullActivation
node 18 14 1 1 NullActivation
node 19 1 1 1 NullActivation
node 20 8 1 1 NullActivation
node 21 1 1 1 NullActivation
node 22 1 1 1 NullActivation
node 23 6 1 1 NullActivation
node 24 12 1 1 NullActivation
node 25 12 1 1 NullActivation
node 26 1 1 1 NullActivation
node 27 6 1 1 NullActivation
node 28 1 1 1 NullActivation
node 29 13 1 1 NullActivation
node 30 5 1 1 NullActivation
node 31 7 1 1 NullActivation
node 32 6 1 1 NullActivation
node 33 1 1 1 NullActivation
node 34 14 1 1 NullActivation
node 35 4 1 1 NullActivation
node 36 1 1 1 NullActivation
node 37 1 1 1 NullActivation
node 38 7 1 1 NullActivation
node 39 1 1 1 NullActivation
node 40 4 1 1 NullActivation
node 41 6 1 1 NullActivation
node 42 10 1 1 NullActivation
node 43 6 1 1 NullActivation
node 44 1 1 1 NullActivation
node 45 3 1 1 NullActivation
node 46 1 1 1 NullActivation
node 47 15 1 1 NullActivation
node 48 2 1 1 NullActivation
node 49 1 1 1 NullActivation
node 50 1 1 1 NullActivation
node 51 1 1 1 NullActivation
node 52 3 1 1 NullActivation
node 53 1 1 1 NullActivation
node 54 1 1 1 NullActivation
node 55 1 1 1 NullActivation
node 56 1 0 2 SigmoidSteepenedActivation
node 98 4 0 0 SigmoidSteepenedActivation
node 99 1 0 0 SigmoidSteepenedActivation
node 115 15 0 0 SigmoidSteepenedActivation
node 134 15 0 0 SigmoidSteepenedActivation
node 135 1 0 0 SigmoidSteepenedActivation
node 160 12 0 0 SigmoidSteepenedActivation
node 164 15 0 0 SigmoidSteepenedActivation
node 285 1 0 0 SigmoidSteepenedActivation
node 424 9 0 0 SigmoidSteepenedActivation
node 551 12 0 0 SigmoidSteepenedActivation
node 612 9 0 0 SigmoidSteepenedActivation
node 833 1 0 0 SigmoidSteepenedActivation
node 2212 1 0 0 SigmoidSteepenedActivation
node 2240 11 0 0 SigmoidSteepenedActivation
node 2258 2 0 0 SigmoidSteepenedActivation
node 2285 1 0 0 SigmoidSteepenedActivation
node 2487 1 0 0 SigmoidSteepenedActivation
node 2505 1 0 0 SigmoidSteepenedActivation
node 2519 12 0 0 SigmoidSteepenedActivation
node 2784 1 0 0 SigmoidSteepenedActivation
node 3450 1 0 0 SigmoidSteepenedActivation
node 4586 1 0 0 SigmoidSteepenedActivation
node 4627 8 0 0 SigmoidSteepenedActivation
node 4846 3 0 0 SigmoidSteepenedActivation
node 5243 1 0 0 SigmoidSteepenedActivation
node 5270 1 0 0 SigmoidSteepenedActivation
node 5282 1 0 0 SigmoidSteepenedActivation
node 6323 1 0 0 SigmoidSteepenedActivation
node 6504 1 0 0 SigmoidSteepenedActivation
node 6523 1 0 0 SigmoidSteepenedActivation
node 6539 8 0 0 SigmoidSteepenedActivation
node 6590 1 0 0 SigmoidSteepenedActivation
node 6652 1 0 0 SigmoidSteepenedActivation
node 7207 1 0 0 SigmoidSteepenedActivation
node 8017 1 0 0 SigmoidSteepenedActivation
node 8901 6 0 0 SigmoidSteepenedActivation
node 8921 1 0 0 SigmoidSteepenedActivation
node 9002 1 0 0 SigmoidSteepenedActivation
node 9008 1 0 0 SigmoidSteepenedActivation
node 9018 1 0 0 SigmoidSteepenedActivation
node 9388 1 0 0 SigmoidSteepenedActivation
gene 1 1 56 0.36166024343284453 false 1 0.36166024343284453 true
gene 10 55 56 8.626894038519602 false 28 8.626894038519602 true
gene 5 52 56 -0.8373635859965107 false 63 -0.8373635859965107 true
gene 7 42 56 -4.667336120504677 false 119 -4.667336120504677 true
gene 4 48 56 5.546203440509414 false 191 5.546203440509414 true
gene 9 45 56 5.113156563539354 false 509 5.113156563539354 true
gene 12 39 56 -1.9440129935709056 false 712 -1.9440129935709056 true
gene 15 44 56 -0.9227364293551114 false 749 -0.9227364293551114 true
gene 2 54 56 1.6326224622756846 false 818 1.6326224622756846 true
gene 3 26 56 -2.0471293939228508 false 853 -2.0471293939228508 true
gene 10 55 98 -0.05127651650281684 false 898 -0.05127651650281684 true
gene 10 98 56 -1.1794320287604942 false 899 -1.1794320287604942 true
gene 6 36 56 -0.9916946376179152 false 1017 -0.9916946376179152 true
gene 11 36 98 -2.217467847656174 false 1029 -2.217467847656174 true
gene 4 36 99 -3.3839355454642073 false 1030 -3.3839355454642073 true
gene 11 22 56 4.771244346782394 false 1054 4.771244346782394 true
gene 6 22 98 -1.4316724410645683 false 1055 -1.4316724410645683 true
gene 14 22 99 5.19341136379381 false 1056 5.19341136379381 true
gene 15 32 99 -4.156205049310123 false 3094 -4.156205049310123 true
gene 1 14 56 -1.5218645130738897 false 3572 -1.5218645130738897 true
gene 12 14 98 3.6748473252332166 false 3573 3.6748473252332166 true
gene 13 14 99 4.534170263941313 false 3574 4.534170263941313 true
gene 3 14 134 2.3212837950296583 false 3575 2.3212837950296583 true
gene 4 14 160 5.406431743443042 false 3576 5.406431743443042 true
gene 6 14 164 -5.299060403522113 false 3577 -5.299060403522113 true
gene 2 40 98 3.492621361925181 false 4617 3.492621361925181 true
gene 13 50 56 1.7936016554116945 false 5152 1.7936016554116945 true
gene 5 50 98 -3.12340725111986 false 5153 -3.12340725111986 true
gene 15 50 99 -5.0336891763135325 false 5154 -5.0336891763135325 true
gene 13 50 134 -2.1171483059857263 false 5282 -2.1171483059857263 true
gene 2 50 160 -1.6505151498335302 false 5283 -1.6505151498335302 true
gene 12 50 164 -1.6609061228131066 false 5284 -1.6609061228131066 true
gene 13 53 56 -0.2607777977866912 false 5637 -0.2607777977866912 true
gene 8 53 98 4.13520654097001 false 5638 4.13520654097001 true
gene 5 40 115 -3.786380206797875 false 6342 -3.786380206797875 true
gene 9 55 99 -2.717445986442545 false 6815 -2.717445986442545 true
gene 10 16 285 1.7221551506355168 false 7114 1.7221551506355168 true
gene 10 285 98 0.07068343491759643 false 7115 0.07068343491759643 true
gene 9 10 285 -0.06875157024903156 false 7387 -0.06875157024903156 true
gene 4 36 115 -0.2464615258456292 false 7896 -0.2464615258456292 true
gene 14 36 135 5.776049891593219 false 7897 5.776049891593219 true
gene 10 36 285 -2.8150047828553237 false 7898 -2.8150047828553237 true
gene 5 11 56 -0.6681686120483759 false 9839 -0.6681686120483759 true
gene 7 11 98 1.267486025259952 false 9840 1.267486025259952 true
gene 4 11 99 -1.514808827208143 false 9841 -1.514808827208143 true
gene 15 11 115 -8.989606743467784 false 9873 -8.989606743467784 true
gene 12 11 134 1.3326815115423125 false 9874 1.3326815115423125 true
gene 14 11 135 0.8631355773686115 false 9875 0.8631355773686115 true
gene 8 11 160 -0.7517307014870186 false 9876 -0.7517307014870186 true
gene 8 11 164 -0.6714502088886778 false 9877 -0.6714502088886778 true
gene 4 11 285 -0.4878107277931871 false 9878 -0.4878107277931871 true
gene 6 30 285 -0.5781946408997739 false 10352 -0.5781946408997739 true
gene 5 13 56 -1.5333760849392741 false 10863 -1.5333760849392741 true
gene 11 13 98 2.122111212114914 false 10864 2.122111212114914 true
gene 3 13 99 1.0630943041808427 false 10865 1.0630943041808427 true
gene 7 13 115 1.5897288823504299 false 11226 1.5897288823504299 true
gene 14 13 134 -0.6858001224093275 false 11227 -0.6858001224093275 true
gene 2 13 135 -2.943771058267265 false 11228 -2.943771058267265 true
gene 2 13 160 -0.09908204120071151 false 11229 -0.09908204120071151 true
gene 6 13 164 -0.09298193461358467 false 11230 -0.09298193461358467 true
gene 3 13 285 0.5401358087373388 false 11231 0.5401358087373388 true
gene 14 27 56 6.979908733478739 false 12114 6.979908733478739 true
gene 11 24 56 0.05187749292244315 false 12341 0.05187749292244315 true
gene 15 24 98 0.10590457222806782 false 12342 0.10590457222806782 true
gene 15 24 99 7.294937754471075 false 12343 7.294937754471075 true
gene 8 24 115 4.548097417321953 false 12393 4.548097417321953 true
gene 15 24 134 -3.891633976914156 false 12394 -3.891633976914156 true
gene 7 24 135 2.3357190470017493 false 12395 2.3357190470017493 true
gene 13 24 160 -4.38634648471288 false 12396 -4.38634648471288 true
gene 3 24 164 2.923967890933586 false 12397 2.923967890933586 true
gene 1 24 285 1.7327633417974422 false 12398 1.7327633417974422 true
gene 6 18 56 -1.9530248753196569 false 12655 -1.9530248753196569 true
gene 12 18 98 1.8116811958388375 false 12656 1.8116811958388375 true
gene 1 18 99 2.1382199910892496 false 12657 2.1382199910892496 true
gene 10 18 115 2.5797722952597812 false 12777 2.5797722952597812 true
gene 8 18 134 3.8986288134128344 false 12778 3.8986288134128344 true
gene 8 18 135 0.4852710461854146 false 12779 0.4852710461854146 true
gene 4 18 160 1.485582876951753 false 12780 1.485582876951753 true
gene 5 18 164 5.4390192562021396 false 12781 5.4390192562021396 true
gene 11 18 285 -0.17931553656737248 false 12782 -0.17931553656737248 true
gene 3 2 56 5.822920844174186 false 13436 5.822920844174186 true
gene 14 2 98 -1.6215500727418206 false 13437 -1.6215500727418206 true
gene 9 2 99 0.3153806778185106 false 13438 0.3153806778185106 true
gene 14 2 115 -1.5575755407648333 false 13439 -1.5575755407648333 true
gene 15 2 134 0.9112432028888429 false 13440 0.9112432028888429 true
gene 13 2 135 2.979256793113292 false 13441 2.979256793113292 true
gene 5 2 160 2.640422380757405 false 13442 2.640422380757405 true
gene 4 2 164 -5.3936854778561045 false 13443 -5.3936854778561045 true
gene 1 2 285 2.1723847439817483 false 13444 2.1723847439817483 true
gene 2 20 56 -2.4621065970678435 false 13954 -2.4621065970678435 true
gene 2 20 98 1.773688214259294 false 13955 1.773688214259294 true
gene 14 20 99 0.8987632424745546 false 13956 0.8987632424745546 true
gene 14 20 115 -7.741267698353326 false 13957 -7.741267698353326 true
gene 5 20 134 -2.3485297656315707 false 13958 -2.3485297656315707 true
gene 10 20 135 -0.5328990513954073 false 13959 -0.5328990513954073 true
gene 1 20 160 2.975518135933364 false 13960 2.975518135933364 true
gene 14 20 164 2.482231564221341 false 13961 2.482231564221341 true
gene 15 20 285 0.1705321770361726 false 13962 0.1705321770361726 true
gene 10 24 424 -0.8794264270490069 false 14316 -0.8794264270490069 true
gene 8 424 115 1.4546660686789328 false 14317 1.4546660686789328 true
gene 12 29 56 0.5810893051336405 false 16073 0.5810893051336405 true
gene 4 29 98 1.4757287446515746 false 16074 1.4757287446515746 true
gene 5 29 99 -3.094210116736648 false 16075 -3.094210116736648 true
gene 14 29 115 3.5267399693922696 false 16076 3.5267399693922696 true
gene 10 29 134 3.0212208599139534 false 16077 3.0212208599139534 true
gene 5 29 135 -4.541037525409608 false 16078 -4.541037525409608 true
gene 12 29 160 3.0067666582743557 false 16079 3.0067666582743557 true
gene 4 29 164 -3.2956801232052797 false 16080 -3.2956801232052797 true
gene 13 29 285 1.8383395921158212 false 16081 1.8383395921158212 true
gene 2 29 424 -4.997646152910829 false 16082 -4.997646152910829 true
gene 3 33 56 -1.2820277191369014 false 17654 -1.2820277191369014 true
gene 2 33 98 2.7705031558089317 false 17655 2.7705031558089317 true
gene 12 33 99 -3.2788453924918777 false 17656 -3.2788453924918777 true
gene 1 33 115 2.9219134994015192 false 18128 2.9219134994015192 true
gene 9 33 134 -2.346334590734783 false 18129 -2.346334590734783 true
gene 5 33 135 1.394208282879314 false 18130 1.394208282879314 true
gene 8 33 160 -6.655543290017506 false 18131 -6.655543290017506 true
gene 4 33 164 -4.235729539790087 false 18132 -4.235729539790087 true
gene 2 33 285 -1.1479563238646775 false 18133 -1.1479563238646775 true
gene 14 33 424 1.7330690323597642 false 18134 1.7330690323597642 true
gene 5 23 56 3.543750946542089 false 19127 3.543750946542089 true
gene 7 23 98 -3.6532466049709154 false 19129 -3.6532466049709154 true
gene 8 23 99 5.907308141791338 false 19131 5.907308141791338 true
gene 4 23 115 7.074351667628083 false 19133 7.074351667628083 true
gene 15 23 134 -5.1398500914625815 false 19134 -5.1398500914625815 true
gene 9 23 135 -2.8192550725891836 false 19135 -2.8192550725891836 true
gene 4 23 160 2.0238302412779268 false 19136 2.0238302412779268 true
gene 2 23 164 0.7005135252823866 false 19137 0.7005135252823866 true
gene 2 23 285 1.349047503327271 false 19138 1.349047503327271 true
gene 3 23 424 -0.8674838660247395 false 19139 -0.8674838660247395 true
gene 10 5 56 -5.781235702058673 false 19492 -5.781235702058673 true
gene 12 5 98 1.616107838089178 false 19493 1.616107838089178 true
gene 8 5 99 -1.5265265236256476 false 19494 -1.5265265236256476 true
gene 5 5 115 2.079663231070656 false 19715 2.079663231070656 true
gene 10 5 134 -2.958375602602528 false 19716 -2.958375602602528 true
gene 14 5 135 -0.48702019902794813 false 19717 -0.48702019902794813 true
gene 11 5 160 1.2996675982962973 false 19718 1.2996675982962973 true
gene 13 5 164 2.1531580364404355 false 19719 2.1531580364404355 true
gene 7 5 285 1.7041026623078364 false 19720 1.7041026623078364 true
gene 9 5 424 1.306780270173793 false 19721 1.306780270173793 true
gene 8 4 56 -2.568163131994691 false 20542 -2.568163131994691 true
gene 13 4 98 4.67927530886514 false 20543 4.67927530886514 true
gene 14 4 99 -5.8170447599883905 false 20544 -5.8170447599883905 true
gene 7 4 115 5.046324580237187 false 20545 5.046324580237187 true
gene 3 4 134 3.222697853039427 false 20546 3.222697853039427 true
gene 3 4 135 3.3943332671625894 false 20547 3.3943332671625894 true
gene 7 4 160 -4.323428661009565 false 20548 -4.323428661009565 true
gene 11 4 164 1.1460247432649866 false 20549 1.1460247432649866 true
gene 14 4 285 2.9247788603018345 false 20550 2.9247788603018345 true
gene 4 4 424 3.5998354677731115 false 20551 3.5998354677731115 true
gene 7 19 56 4.315258819470622 false 20824 4.315258819470622 true
gene 1 19 98 -0.1987375216602716 false 20950 -0.1987375216602716 true
gene 3 19 99 -3.8735363215380554 false 20951 -3.8735363215380554 true
gene 11 19 115 -4.074895576615262 false 20952 -4.074895576615262 true
gene 12 19 134 -1.961706371958003 false 20953 -1.961706371958003 true
gene 12 19 135 2.1875932841152324 false 20954 2.1875932841152324 true
gene 2 19 160 0.31550979562051995 false 20955 0.31550979562051995 true
gene 1 19 164 0.8249662302480689 false 20956 0.8249662302480689 true
gene 9 19 285 6.271031695240049 false 20957 6.271031695240049 true
gene 2 19 424 2.0860159996251877 false 20958 2.0860159996251877 true
gene 2 19 551 4.31008867168627 false 22422 4.31008867168627 true
gene 2 551 424 3.6194619966748522 false 22423 3.6194619966748522 true
gene 2 6 99 5.837658518756979 false 23015 5.837658518756979 true
gene 6 9 56 -2.0157988386758916 false 23513 -2.0157988386758916 true
gene 9 9 98 1.0347198902666803 false 23514 1.0347198902666803 true
gene 2 9 99 0.13066213680677063 false 23515 0.13066213680677063 true
gene 7 9 115 0.4161942168841649 false 23516 0.4161942168841649 true
gene 12 9 134 -4.951241120058492 false 23517 -4.951241120058492 true
gene 15 9 135 -1.610143168763272 false 23518 -1.610143168763272 true
gene 1 9 160 -1.240822536238463 false 23519 -1.240822536238463 true
gene 10 9 164 1.734161881085556 false 23520 1.734161881085556 true
gene 8 9 285 -2.009617533398584 false 23521 -2.009617533398584 true
gene 12 9 424 2.587276608507447 false 23522 2.587276608507447 true
gene 14 9 551 -4.46427700582898 false 23576 -4.46427700582898 true
gene 13 3 56 1.5697644972459301 false 24002 1.5697644972459301 true
gene 3 3 98 -2.6526707667678893 false 24078 -2.6526707667678893 true
gene 11 3 99 -3.2918931748319706 false 24079 -3.2918931748319706 true
gene 7 3 115 -0.5969659978249477 false 24080 -0.5969659978249477 true
gene 6 3 134 -2.0394830095119767 false 24081 -2.0394830095119767 true
gene 1 3 135 -4.717011982967479 false 24082 -4.717011982967479 true
gene 8 3 160 3.568619225909505 false 24083 3.568619225909505 true
gene 15 3 164 0.6209037178618996 false 24084 0.6209037178618996 true
gene 6 3 285 -3.8383945612860804 false 24085 -3.8383945612860804 true
gene 1 3 424 5.66700843513973 false 24086 5.66700843513973 true
gene 10 3 551 -1.7496493801497728 false 24237 -1.7496493801497728 true
gene 8 424 612 -1.8613738907818702 false 24707 -1.8613738907818702 true
gene 4 612 115 -2.400601981096985 false 24708 -2.400601981096985 true
gene 11 47 56 0.5221251265734661 false 25125 0.5221251265734661 true
gene 9 47 98 7.475277747462478 false 25126 7.475277747462478 true
gene 9 47 99 -0.5536067784565354 false 25127 -0.5536067784565354 true
gene 8 47 115 2.682229846771882 false 25128 2.682229846771882 true
gene 15 47 134 -0.9600809132238205 false 25129 -0.9600809132238205 true
gene 15 47 135 -4.236368712230885 false 25130 -4.236368712230885 true
gene 15 47 160 -1.826155428361457 false 25131 -1.826155428361457 true
gene 14 47 164 5.917252021890888 false 25132 5.917252021890888 true
gene 11 47 285 0.23603995623785023 false 25133 0.23603995623785023 true
gene 7 47 424 -0.7944248245486987 false 25134 -0.7944248245486987 true
gene 15 47 551 2.7833249349118905 false 25135 2.7833249349118905 true
gene 11 47 612 1.9978772232354045 false 25136 1.9978772232354045 true
gene 7 51 56 -86.8230865811917 false 25767 -86.8230865811917 true
gene 10 51 98 -0.15759688200313704 false 25768 -0.15759688200313704 true
gene 10 51 99 -1.3953931101225236 false 25769 -1.3953931101225236 true
gene 14 51 115 -2.515634522344029 false 25770 -2.515634522344029 true
gene 11 51 134 -0.21012340220213427 false 25771 -0.21012340220213427 true
gene 4 51 135 3.8822845825836776 false 25772 3.8822845825836776 true
gene 12 51 160 2.248022722018792 false 25773 2.248022722018792 true
gene 5 51 164 5.908795061535441 false 25774 5.908795061535441 true
gene 12 51 285 -0.42710648342992874 false 25775 -0.42710648342992874 true
gene 7 51 424 -0.5529045383331341 false 25776 -0.5529045383331341 true
gene 4 51 551 4.867604417089279 false 25844 4.867604417089279 true
gene 14 51 612 -0.05636871797462151 false 25845 -0.05636871797462151 true
gene 3 15 56 -4.160682959664223 false 26783 -4.160682959664223 true
gene 5 15 98 -4.153352206978516 false 26784 -4.153352206978516 true
gene 7 15 99 -0.23340080532148838 false 26785 -0.23340080532148838 true
gene 6 15 115 0.27138332573766016 false 26786 0.27138332573766016 true
gene 13 15 134 0.6063625947502698 false 26787 0.6063625947502698 true
gene 6 15 135 0.45337973714395247 false 26788 0.45337973714395247 true
gene 13 15 160 0.9962796935544961 false 26789 0.9962796935544961 true
gene 13 15 164 -0.613407679917292 false 26790 -0.613407679917292 true
gene 3 15 285 1.68954260192683 false 26791 1.68954260192683 true
gene 12 15 424 4.366482457695779 false 26792 4.366482457695779 true
gene 10 15 551 -2.681382177783061 false 26804 -2.681382177783061 true
gene 15 15 612 2.48579245500067 false 26805 2.48579245500067 true
gene 11 21 56 2.249174201134569 false 27507 2.249174201134569 true
gene 9 21 98 -2.5996802344294854 false 27508 -2.5996802344294854 true
gene 6 21 99 3.460912497108497 false 27509 3.460912497108497 true
gene 11 21 115 2.701171026755468 false 27510 2.701171026755468 true
gene 10 21 134 -4.924398017621693 false 27511 -4.924398017621693 true
gene 5 21 135 -3.071459249312097 false 27512 -3.071459249312097 true
gene 3 21 160 2.3885401254922183 false 27513 2.3885401254922183 true
gene 9 21 164 -0.40988002285194247 false 27514 -0.40988002285194247 true
gene 8 21 285 -5.079998076649071 false 27515 -5.079998076649071 true
gene 14 21 424 -5.700963347797371 false 27516 -5.700963347797371 true
gene 12 21 551 0.19969959188721553 false 27517 0.19969959188721553 true
gene 12 21 612 3.059687843222725 false 27518 3.059687843222725 true
gene 10 25 424 1.8112347744299986 false 27665 1.8112347744299986 true
gene 14 25 56 -2.1187060328437166 false 27756 -2.1187060328437166 true
gene 6 25 98 -3.42794045122804 false 27757 -3.42794045122804 true
gene 2 25 99 0.9015219506178693 false 27758 0.9015219506178693 true
gene 12 25 115 1.4752182268959388 false 27759 1.4752182268959388 true
gene 10 25 134 -2.4969966932734153 false 27760 -2.4969966932734153 true
gene 4 25 135 2.3272509313827845 false 27761 2.3272509313827845 true
gene 1 25 160 -0.4306322247552796 false 27762 -0.4306322247552796 true
gene 1 25 164 4.700982737860848 false 27763 4.700982737860848 true
gene 2 25 285 2.359715915310999 false 27764 2.359715915310999 true
gene 8 25 551 0.5944022197478007 false 27979 0.5944022197478007 true
gene 9 25 612 -1.7607884330548775 false 27980 -1.7607884330548775 true
gene 14 41 56 0.13502457074723695 false 28394 0.13502457074723695 true
gene 7 41 98 -3.4655913290095373 false 28395 -3.4655913290095373 true
gene 7 41 99 -0.6321461158193651 false 28396 -0.6321461158193651 true
gene 2 41 115 -3.9337917658523307 false 28397 -3.9337917658523307 true
gene 14 41 134 -2.6823017510485845 false 28398 -2.6823017510485845 true
gene 1 41 135 2.5387224714076053 false 28399 2.5387224714076053 true
gene 1 41 160 2.454340762972427 false 28400 2.454340762972427 true
gene 15 41 164 1.6906328181202444 false 28401 1.6906328181202444 true
gene 10 41 285 1.5038333951617797 false 28402 1.5038333951617797 true
gene 12 41 424 -2.387913349791748 false 28403 -2.387913349791748 true
gene 9 41 551 2.6878378842053854 false 28555 2.6878378842053854 true
gene 6 41 612 4.3827658020593265 false 28556 4.3827658020593265 true
gene 12 50 135 -4.186905583466654 false 29051 -4.186905583466654 true
gene 6 7 56 6.896177611493 false 29819 6.896177611493 true
gene 8 7 98 6.336930548540702 false 29820 6.336930548540702 true
gene 5 7 99 -1.4354110782650635 false 29821 -1.4354110782650635 true
gene 12 7 115 0.4466156182373473 false 29822 0.4466156182373473 true
gene 2 7 134 -1.2461891084343533 false 29823 -1.2461891084343533 true
gene 2 7 135 -3.8086393892068844 false 29824 -3.8086393892068844 true
gene 13 7 160 -1.1151713615150989 false 29825 -1.1151713615150989 true
gene 12 7 164 2.8175789299919582 false 29826 2.8175789299919582 true
gene 2 7 285 -0.686054852643726 false 29827 -0.686054852643726 true
gene 4 7 424 -6.381120601199903 false 29828 -6.381120601199903 true
gene 2 7 551 -2.0033382894681253 false 30067 -2.0033382894681253 true
gene 2 7 612 1.792040501780975 false 30068 1.792040501780975 true
gene 11 49 56 2.2820097175944056 false 30291 2.2820097175944056 true
gene 14 49 98 5.920717905742184 false 30292 5.920717905742184 true
gene 2 49 99 3.6356757118978003 false 30293 3.6356757118978003 true
gene 5 49 115 -0.46460720987479176 false 30294 -0.46460720987479176 true
gene 10 49 134 -0.4412502454171878 false 30295 -0.4412502454171878 true
gene 3 49 135 -2.493259482557354 false 30296 -2.493259482557354 true
gene 11 49 160 3.471611971550283 false 30297 3.471611971550283 true
gene 2 49 164 1.3696222037191839 false 30298 1.3696222037191839 true
gene 8 49 285 -1.373456481010518 false 30299 -1.373456481010518 true
gene 7 49 424 -1.1348863079795097 false 30300 -1.1348863079795097 true
gene 2 49 551 -1.9749940282948106 false 30498 -1.9749940282948106 true
gene 3 49 612 2.5311641149588677 false 30499 2.5311641149588677 true
gene 3 38 56 8.40473368010553 false 31562 8.40473368010553 true
gene 9 38 98 0.7851056744101655 false 31563 0.7851056744101655 true
gene 5 38 99 -3.681877488845789 false 31564 -3.681877488845789 true
gene 3 38 115 -0.44632723306151556 false 31565 -0.44632723306151556 true
gene 7 38 134 -3.2102573244876 false 31566 -3.2102573244876 true
gene 3 38 135 -0.9034080984736521 false 31567 -0.9034080984736521 true
gene 10 38 160 -2.3297730543346433 false 31568 -2.3297730543346433 true
gene 6 38 164 0.5705918345806242 false 31569 0.5705918345806242 true
gene 1 38 285 4.30619854422952 false 31570 4.30619854422952 true
gene 4 38 424 -1.1838605133595546 false 31571 -1.1838605133595546 true
gene 12 38 551 1.1364181189682139 false 31689 1.1364181189682139 true
gene 5 38 612 4.780414959786026 false 31690 4.780414959786026 true
gene 7 12 56 -2.902932493412285 false 31774 -2.902932493412285 true
gene 10 12 98 -0.6261126735846946 false 31889 -0.6261126735846946 true
gene 5 12 99 0.14282869101407136 false 31890 0.14282869101407136 true
gene 1 12 115 -5.138816480720093 false 31891 -5.138816480720093 true
gene 3 12 134 2.771607443948943 false 31892 2.771607443948943 true
gene 2 12 135 6.763370893456843 false 31893 6.763370893456843 true
gene 5 12 160 -2.79085886728051 false 31894 -2.79085886728051 true
gene 2 12 164 -2.780303772886248 false 31895 -2.780303772886248 true
gene 5 12 285 3.7068960899013312 false 31896 3.7068960899013312 true
gene 3 12 424 -3.969417143354393 false 31897 -3.969417143354393 true
gene 4 12 551 3.8422386638980868 false 31898 3.8422386638980868 true
gene 7 12 612 -5.652936265444598 false 31899 -5.652936265444598 true
gene 8 31 56 4.347410779690419 false 33350 4.347410779690419 true
gene 12 31 98 1.635853617336033 false 33351 1.635853617336033 true
gene 1 31 99 -0.1641694780557047 false 33352 -0.1641694780557047 true
gene 10 31 115 -4.773613760523064 false 33353 -4.773613760523064 true
gene 12 31 134 3.264674969431334 false 33354 3.264674969431334 true
gene 12 31 135 -1.8868700508537366 false 33355 -1.8868700508537366 true
gene 4 31 160 -4.474064083353021 false 33356 -4.474064083353021 true
gene 2 31 164 -0.8979325251865193 false 33357 -0.8979325251865193 true
gene 3 31 285 -1.1003308316773097 false 33358 -1.1003308316773097 true
gene 2 31 424 -3.5502820297139057 false 33359 -3.5502820297139057 true
gene 2 31 551 2.038606004282797 false 33360 2.038606004282797 true
gene 15 31 612 -5.606667405991049 false 33361 -5.606667405991049 true
gene 8 37 56 -0.29832928402096703 false 35608 -0.29832928402096703 true
gene 5 37 98 0.9463500993820364 false 35609 0.9463500993820364 true
gene 10 37 99 1.8875843093161833 false 35610 1.8875843093161833 true
gene 15 37 115 -0.3355900936872047 false 35611 -0.3355900936872047 true
gene 13 37 134 6.123449864463076 false 35612 6.123449864463076 true
gene 9 37 135 -0.754180319012685 false 35613 -0.754180319012685 true
gene 10 37 160 -2.9930472121195804 false 35614 -2.9930472121195804 true
gene 14 37 164 1.9695653484469566 false 35615 1.9695653484469566 true
gene 15 37 285 -2.055244720508126 false 35616 -2.055244720508126 true
gene 14 37 424 -1.1565469765707421 false 35617 -1.1565469765707421 true
gene 7 37 551 0.6907185840958143 false 35618 0.6907185840958143 true
gene 13 37 612 5.407699806664163 false 35619 5.407699806664163 true
gene 8 23 833 -4.49926666943464 false 35820 -4.49926666943464 true
gene 8 833 99 -1.6944900821779756 false 35821 -1.6944900821779756 true
gene 6 17 56 -3.8888006731916946 false 36153 -3.8888006731916946 true
gene 5 17 98 0.42560760833975353 false 36154 0.42560760833975353 true
gene 9 17 99 -3.6613092550415725 false 36155 -3.6613092550415725 true
gene 11 17 115 3.5405697173047455 false 36156 3.5405697173047455 true
gene 15 17 134 1.4645312103168246 false 36157 1.4645312103168246 true
gene 4 17 135 0.5893310916119094 false 36158 0.5893310916119094 true
gene 8 17 160 -3.7124043264319133 false 36159 -3.7124043264319133 true
gene 13 17 164 -0.01236345818047857 false 36160 -0.01236345818047857 true
gene 14 17 285 1.0605247598289773 false 36161 1.0605247598289773 true
gene 6 17 424 3.691583474214986 false 36162 3.691583474214986 true
gene 13 17 551 -2.1439892313531312 false 36428 -2.1439892313531312 true
gene 3 17 612 -1.544357160641955 false 36429 -1.544357160641955 true
gene 3 17 833 -3.248043468802419 false 36430 -3.248043468802419 true
gene 13 8 56 -2.4674343463631714 false 36518 -2.4674343463631714 true
gene 5 8 98 -4.204041578350023 false 36519 -4.204041578350023 true
gene 4 8 99 2.839255262791734 false 36520 2.839255262791734 true
gene 13 8 115 -3.8000494667729217 false 36521 -3.8000494667729217 true
gene 10 8 134 1.2519487254855006 false 36522 1.2519487254855006 true
gene 8 8 135 -3.906390848791789 false 36523 -3.906390848791789 true
gene 6 8 160 0.5105774902160398 false 36524 0.5105774902160398 true
gene 15 8 164 0.3643902856067689 false 36525 0.3643902856067689 true
gene 1 8 285 -6.349575007907058 false 36526 -6.349575007907058 true
gene 7 8 424 -0.3304588585070867 false 36527 -0.3304588585070867 true
gene 13 8 551 6.149283909307464 false 36733 6.149283909307464 true
gene 1 8 612 -0.9567791568744621 false 36734 -0.9567791568744621 true
gene 9 8 833 -2.1174808249687707 false 36735 -2.1174808249687707 true
gene 11 27 164 -1.780089027268833 false 37155 -1.780089027268833 true
gene 8 46 56 0.725327105431018 false 37386 0.725327105431018 true
gene 1 46 98 -2.694401561620333 false 37387 -2.694401561620333 true
gene 15 46 99 -3.853461736465125 false 37388 -3.853461736465125 true
gene 3 46 115 -2.033995763054064 false 37389 -2.033995763054064 true
gene 3 46 134 6.54765306915154 false 37390 6.54765306915154 true
gene 5 46 135 7.8661255911966865 false 37391 7.8661255911966865 true
gene 7 46 160 -2.1078395347123298 false 37392 -2.1078395347123298 true
gene 2 46 164 0.9698961453139949 false 37393 0.9698961453139949 true
gene 4 46 285 2.7827490861266746 false 37394 2.7827490861266746 true
gene 15 46 424 -4.055195723279009 false 37395 -4.055195723279009 true
gene 3 46 551 1.6781283696409452 false 37396 1.6781283696409452 true
gene 11 46 612 -1.3161288374496063 false 37397 -1.3161288374496063 true
gene 5 46 833 0.1471154195653318 false 37398 0.1471154195653318 true
gene 6 40 833 2.254027144673334 false 37581 2.254027144673334 true
gene 5 43 56 2.3511213594812643 false 38201 2.3511213594812643 true
gene 15 43 98 2.501565463134126 false 38202 2.501565463134126 true
gene 11 43 99 1.643137869470491 false 38203 1.643137869470491 true
gene 15 43 115 -0.9884881132471085 false 38204 -0.9884881132471085 true
gene 4 43 134 -1.873525793093188 false 38205 -1.873525793093188 true
gene 10 43 135 -1.0917021869685324 false 38206 -1.0917021869685324 true
gene 3 43 160 2.1183486174141275 false 38207 2.1183486174141275 true
gene 7 43 164 0.5643402146536268 false 38208 0.5643402146536268 true
gene 7 43 285 -3.8458000129223278 false 38209 -3.8458000129223278 true
gene 1 43 424 0.8227764038285694 false 38210 0.8227764038285694 true
gene 4 43 551 -2.403081085928446 false 38211 -2.403081085928446 true
gene 8 43 612 -4.989785478017465 false 38212 -4.989785478017465 true
gene 1 43 833 1.7507300479229506 false 38213 1.7507300479229506 true
gene 3 42 134 -1.6834566193096199 false 38635 -1.6834566193096199 true
gene 15 35 134 -2.3829060905435164 false 38799 -2.3829060905435164 true
gene 8 34 56 2.830897674761654 false 39007 2.830897674761654 true
gene 12 34 98 -2.2478934325982713 false 39008 -2.2478934325982713 true
gene 14 34 99 2.4523769754487037 false 39009 2.4523769754487037 true
gene 2 34 115 2.912316271049775 false 39010 2.912316271049775 true
gene 14 34 134 -2.059517716290566 false 39011 -2.059517716290566 true
gene 11 34 135 -0.4056819664658944 false 39012 -0.4056819664658944 true
gene 10 34 160 -0.21200998420229977 false 39013 -0.21200998420229977 true
gene 8 34 164 -1.338211236661924 false 39014 -1.338211236661924 true
gene 2 34 285 -1.353834986152762 false 39015 -1.353834986152762 true
gene 4 34 424 -5.455107178540053 false 39016 -5.455107178540053 true
gene 1 34 551 1.2065330917649495 false 39017 1.2065330917649495 true
gene 11 34 612 2.8809542684563776 false 39018 2.8809542684563776 true
gene 4 34 833 0.26357094086186716 false 39019 0.26357094086186716 true
gene 6 28 56 2.1773989892096215 false 39254 2.1773989892096215 true
gene 3 28 98 0.1860134744422317 false 39255 0.1860134744422317 true
gene 9 28 99 -2.7559982093504756 false 39256 -2.7559982093504756 true
gene 1 28 115 -0.6131691909597499 false 39257 -0.6131691909597499 true
gene 13 28 134 0.987598842361217 false 39258 0.987598842361217 true
gene 8 28 135 -2.8867451654067433 false 39259 -2.8867451654067433 true
gene 2 28 160 -0.5966638768412319 false 39260 -0.5966638768412319 true
gene 4 28 164 -2.928250008020867 false 39261 -2.928250008020867 true
gene 1 28 285 1.8282722136416167 false 39262 1.8282722136416167 true
gene 11 28 424 -8.15027798660291 false 39263 -8.15027798660291 true
gene 9 28 551 -8.315393063360718 false 39264 -8.315393063360718 true
gene 3 28 612 -0.06433733485693938 false 39265 -0.06433733485693938 true
gene 8 28 833 -1.168500940777017 false 39266 -1.168500940777017 true
gene 10 6 135 2.919245635635975 false 40518 2.919245635635975 true
gene 13 11 833 2.0900084350642207 false 41065 2.0900084350642207 true
gene 9 115 134 0.13663557156210038 false 41144 0.13663557156210038 true
gene 5 39 99 -2.3866679549576424 false 43511 -2.3866679549576424 true
gene 7 48 134 0.9088541532552069 false 45571 0.9088541532552069 true
gene 13 8 2212 -0.4011994210318228 false 45640 -0.4011994210318228 true
gene 13 2212 551 -0.8784481390099708 false 45641 -0.8784481390099708 true
gene 14 34 2240 2.6113064637435985 false 45780 2.6113064637435985 true
gene 10 2240 134 -0.3248192087514301 false 45781 -0.3248192087514301 true
gene 3 45 285 0.07787381824284567 false 45839 0.07787381824284567 true
gene 11 3 2258 -0.35721453019336624 false 45843 -0.35721453019336624 true
gene 11 2258 99 -0.8214310486284898 false 45844 -0.8214310486284898 true
gene 13 11 2285 -0.06414752347974151 false 45972 -0.06414752347974151 true
gene 13 2285 833 0.0979387835721579 false 45973 0.0979387835721579 true
gene 13 11 2487 0.22229912519585682 false 46866 0.22229912519585682 true
gene 13 2487 833 1.9940826068408934 false 46867 1.9940826068408934 true
gene 9 38 2505 -1.8716145980651175 false 46936 -1.8716145980651175 true
gene 6 2505 98 1.9331205523513844 false 46937 1.9331205523513844 true
gene 2 551 2519 -7.103187495013785 false 46995 -7.103187495013785 true
gene 2 2519 424 -1.4793055248807359 false 46996 -1.4793055248807359 true
gene 11 56 612 0.8646150698581176 false 48102 0.8646150698581176 true
gene 2 22 612 0.759812107001455 false 48201 0.759812107001455 true
gene 8 8 2784 -0.9453872202131807 false 48330 -0.9453872202131807 true
gene 8 2784 135 2.0213078763479055 false 48331 2.0213078763479055 true
gene 7 21 2784 -3.205150655157283 false 49744 -3.205150655157283 true
gene 11 10 2784 -0.6231831127151597 false 49802 -0.6231831127151597 true
gene 13 164 2487 6.545003618782994 false 49926 6.545003618782994 true
gene 15 2240 2212 1.9685487507704453 false 50118 1.9685487507704453 true
gene 9 2 2519 2.5136415505754415 false 50258 2.5136415505754415 true
gene 11 3 3450 0.6411493221197087 false 51614 0.6411493221197087 true
gene 11 3450 2258 3.3381905674468326 false 51615 3.3381905674468326 true
gene 8 2505 833 -0.7602325859830438 false 51717 -0.7602325859830438 true
gene 4 42 99 0.04532092123879519 false 53381 0.04532092123879519 true
gene 15 35 135 1.6598739821385713 false 53575 1.6598739821385713 true
gene 2 15 2240 0.36579771209881873 false 55148 0.36579771209881873 true
gene 2 160 2212 2.4599795233552038 false 55226 2.4599795233552038 true
gene 15 2258 160 1.0733039910509583 false 58029 1.0733039910509583 true
gene 3 46 4846 -1.548728168495054 false 58061 -1.548728168495054 true
gene 3 4846 551 -0.7688453388051741 false 58062 -0.7688453388051741 true
gene 9 56 2258 -2.0346940673931244 false 58135 -2.0346940673931244 true
gene 8 27 160 -0.5563765256491328 false 59765 -0.5563765256491328 true
gene 3 51 2258 1.525564239904387 false 59841 1.525564239904387 true
gene 15 37 5243 2.4206424474335844 false 59906 2.4206424474335844 true
gene 13 5243 115 -1.3235527437954682 false 59907 -1.3235527437954682 true
gene 7 44 5270 -5.597653283191647 false 60042 -5.597653283191647 true
gene 15 5270 56 2.3965862850900796 false 60043 2.3965862850900796 true
gene 6 14 5282 1.508149730840603 false 60082 1.508149730840603 true
gene 6 5282 164 -4.573393108677106 false 60083 -4.573393108677106 true
gene 7 4627 2505 -0.3904062776847146 false 61594 -0.3904062776847146 true
gene 12 2 424 1.283123921350157 false 63065 1.283123921350157 true
gene 13 2240 160 -1.6962781324004337 false 63100 -1.6962781324004337 true
gene 11 424 99 -0.4848501610633361 false 64928 -0.4848501610633361 true
gene 4 36 6323 -0.4813198361794133 false 65000 -0.4813198361794133 true
gene 4 6323 99 -2.336206431371947 false 65001 -2.336206431371947 true
gene 6 32 6323 2.7852491618590025 false 65867 2.7852491618590025 true
gene 7 36 2240 -0.441346267362998 false 65902 -0.441346267362998 true
gene 3 46 6504 -2.975384614927317 false 65941 -2.975384614927317 true
gene 3 6504 551 -1.4680057205350043 false 65942 -1.4680057205350043 true
gene 6 17 6523 -0.6348341289017917 false 66020 -0.6348341289017917 true
gene 6 6523 56 -1.2327880492720367 false 66021 -1.2327880492720367 true
gene 8 31 4586 -1.7175587796634653 false 66085 -1.7175587796634653 true
gene 2 49 6539 1.1806466650599945 false 66109 1.1806466650599945 true
gene 2 6539 164 0.7882174651386842 false 66110 0.7882174651386842 true
gene 11 2240 2784 -2.376073331973548 false 66288 -2.376073331973548 true
gene 2 20 6590 0.18144061245821375 false 66362 0.18144061245821375 true
gene 2 6590 98 3.2284436980723497 false 66363 3.2284436980723497 true
gene 8 833 2784 1.8930634289889479 false 66602 1.8930634289889479 true
gene 8 424 6652 -3.243333269290205 false 66638 -3.243333269290205 true
gene 8 6652 115 0.36336443961996767 false 66639 0.36336443961996767 true
gene 6 5243 164 0.6540338593451995 false 68075 0.6540338593451995 true
gene 7 4627 3450 3.453122449695088 false 69031 3.453122449695088 true
gene 9 19 7207 -1.3857792424038637 false 69397 -1.3857792424038637 true
gene 9 7207 285 -2.2006562450874227 false 69398 -2.2006562450874227 true
gene 13 52 7207 0.5238353617709997 false 69651 0.5238353617709997 true
gene 1 47 2519 -2.683987889291326 false 69997 -2.683987889291326 true
gene 11 52 2240 -5.000903014937771 false 70026 -5.000903014937771 true
gene 2 98 6539 2.2640551917750025 false 70962 2.2640551917750025 true
gene 3 51 7207 1.2421140219005937 false 72958 1.2421140219005937 true
gene 2 16 833 -0.8790662468641145 false 73039 -0.8790662468641145 true
gene 10 34 8017 2.6779514186713875 false 73194 2.6779514186713875 true
gene 10 8017 160 -2.458736302238332 false 73195 -2.458736302238332 true
gene 3 12 833 1.5130594385652514 false 74162 1.5130594385652514 true
gene 4 38 4627 0.08078054240468635 false 74691 0.08078054240468635 true
gene 12 46 5282 0.9448635232999534 false 76434 0.9448635232999534 true
gene 8 20 612 -3.4241416046031574 false 76444 -3.4241416046031574 true
gene 14 2285 2212 -0.224022865655912 false 77415 -0.224022865655912 true
gene 13 37 8901 -2.0807544857235687 false 77424 -2.0807544857235687 true
gene 13 8901 134 0.0031678147259988076 false 77425 0.0031678147259988076 true
gene 2 7 8921 1.774407059386375 false 77517 1.774407059386375 true
gene 2 8921 134 -0.6231180531271188 false 77518 -0.6231180531271188 true
gene 3 38 9002 -3.7425168583363035 false 77945 -3.7425168583363035 true
gene 3 9002 115 3.4251801879624098 false 77946 3.4251801879624098 true
gene 3 24 9008 -1.6105531332151248 false 77964 -1.6105531332151248 true
gene 3 9008 164 -0.4566584946261085 false 77965 -0.4566584946261085 true
gene 10 8017 9018 -0.4465454180178222 false 77997 -0.4465454180178222 true
gene 10 9018 160 -1.17783110302421 false 77998 -1.17783110302421 true
gene 12 46 9388 -1.2286534318643172 false 79709 -1.2286534318643172 true
gene 12 9388 5282 0.9460374033524411 false 79710 0.9460374033524411 true
gene 7 39 9388 -0.32047622474128745 false 80920 -0.32047622474128745 true
gene 5 8901 2212 -0.9414627615551316 false 80964 -0.9414627615551316 true
gene 4 55 6539 0.737847243424232 false 81160 0.737847243424232 true
gene 4 5270 424 -1.921495103452923 false 81229 -1.921495103452923 true
gene 6 9018 98 -0.4851587858597809 false 81361 -0.4851587858597809 true
gene 11 48 6323 -3.8114775393522526 false 81973 -3.8114775393522526 true
gene 11 6 6323 -8.91641266482213 false 82253 -8.91641266482213 true
genomeend 255
