/* Species #10 : (Size 1) (AF 2.000) (Age 21)  */
/* Organism #0 Fitness: 2.000 Error: 0.000 */
genomestart 0
trait 1 0.1 0 0 0 0 0 0 0
trait 2 0.2 0 0 0 0 0 0 0
trait 3 0.3 0 0 0 0 0 0 0
trait 4 0.4 0 0 0 0 0 0 0
trait 5 0.5 0 0 0 0 0 0 0
trait 6 0.6 0 0 0 0 0 0 0
trait 7 0.7 0 0 0 0 0 0 0
trait 8 0.8 0 0 0 0 0 0 0
trait 9 0.9 0 0 0 0 0 0 0
trait 10 1 0 0 0 0 0 0 0
trait 11 1.1 0 0 0 0 0 0 0
trait 12 1.2 0 0 0 0 0 0 0
trait 13 1.3 0 0 0 0 0 0 0
trait 14 1.4 0 0 0 0 0 0 0
trait 15 1.5 0 0 0 0 0 0 0
node 1 1 1 3 NullActivation
node 2 1 1 1 NullActivation
node 3 1 1 1 NullActivation
node 4 1 1 1 NullActivation
node 5 1 1 1 NullActivation
node 6 1 1 1 NullActivation
node 7 1 1 1 NullActivation
node 8 1 1 1 NullActivation
node 9 1 1 1 NullActivation
node 10 1 1 1 NullActivation
node 11 1 1 1 NullActivation
node 12 1 1 1 NullActivation
node 13 1 1 1 NullActivation
node 14 1 1 1 NullActivation
node 15 1 1 1 NullActivation
node 16 1 1 1 NullActivation
node 17 1 1 1 NullActivation
node 18 1 1 1 NullActivation
node 19 1 1 1 NullActivation
node 20 1 1 1 NullActivation
node 21 1 1 1 NullActivation
node 22 1 1 1 NullActivation
node 23 1 1 1 NullActivation
node 24 1 1 1 NullActivation
node 25 1 1 1 NullActivation
node 26 1 1 1 NullActivation
node 27 1 1 1 NullActivation
node 28 1 1 1 NullActivation
node 29 1 1 1 NullActivation
node 30 1 1 1 NullActivation
node 31 1 1 1 NullActivation
node 32 1 1 1 NullActivation
node 33 1 1 1 NullActivation
node 34 1 1 1 NullActivation
node 35 1 1 1 NullActivation
node 36 1 1 1 NullActivation
node 37 8 1 1 NullActivation
node 38 1 1 1 NullActivation
node 39 1 1 1 NullActivation
node 40 1 1 1 NullActivation
node 41 1 1 1 NullActivation
node 42 1 1 1 NullActivation
node 43 1 1 1 NullActivation
node 44 1 1 1 NullActivation
node 45 1 1 1 NullActivation
node 46 1 1 1 NullActivation
node 47 1 1 1 NullActivation
node 48 1 1 1 NullActivation
node 49 1 1 1 NullActivation
node 50 1 1 1 NullActivation
node 51 1 1 1 NullActivation
node 52 1 1 1 NullActivation
node 53 1 1 1 NullActivation
node 54 1 1 1 NullActivation
node 55 1 1 1 NullActivation
node 56 1 0 2 SigmoidBipolarActivation
gene 1 1 56 3.893652939257771 false 1 3.893652939257771 true
gene 12 52 56 3.050507149233613 false 17 3.050507149233613 true
gene 8 7 56 -6.828078702944761 false 112 -6.828078702944761 true
gene 14 4 56 0.13882718186467544 false 206 0.13882718186467544 true
gene 5 18 56 -1.1744888477680429 false 259 -1.1744888477680429 true
gene 2 17 56 -1.245730595987067 false 1115 -1.245730595987067 true
gene 1 55 56 5.815849090569884 false 1239 5.815849090569884 true
gene 5 49 56 7.05670757087422 false 2454 7.05670757087422 true
gene 13 38 56 9.584651250365598 false 2886 0 true
genomeend 0
/* Species #47 : (Size 1) (AF 2.000) (Age 16)  */
/* Organism #1 Fitness: 2.000 Error: 0.000 */
genomestart 1
trait 1 0.1 0 0 0 0 0 0 0
trait 2 0.2 0 0 0 0 0 0 0
trait 3 0.3 0 0 0 0 0 0 0
trait 4 0.4 0 0 0 0 0 0 0
trait 5 0.5 0 0 0 0 0 0 0
trait 6 0.6 0 0 0 0 0 0 0
trait 7 0.7 0 0 0 0 0 0 0
trait 8 0.8 0 0 0 0 0 0 0
trait 9 0.9 0 0 0 0 0 0 0
trait 10 1 0 0 0 0 0 0 0
trait 11 1.1 0 0 0 0 0 0 0
trait 12 1.2 0 0 0 0 0 0 0
trait 13 1.3 0 0 0 0 0 0 0
trait 14 1.4 0 0 0 0 0 0 0
trait 15 1.5 0 0 0 0 0 0 0
node 1 1 1 3 NullActivation
node 2 1 1 1 NullActivation
node 3 1 1 1 NullActivation
node 4 1 1 1 NullActivation
node 5 1 1 1 NullActivation
node 6 1 1 1 NullActivation
node 7 1 1 1 NullActivation
node 8 1 1 1 NullActivation
node 9 1 1 1 NullActivation
node 10 1 1 1 NullActivation
node 11 1 1 1 NullActivation
node 12 1 1 1 NullActivation
node 13 1 1 1 NullActivation
node 14 1 1 1 NullActivation
node 15 1 1 1 NullActivation
node 16 1 1 1 NullActivation
node 17 1 1 1 NullActivation
node 18 1 1 1 NullActivation
node 19 1 1 1 NullActivation
node 20 1 1 1 NullActivation
node 21 1 1 1 NullActivation
node 22 1 1 1 NullActivation
node 23 1 1 1 NullActivation
node 24 1 1 1 NullActivation
node 25 1 1 1 NullActivation
node 26 1 1 1 NullActivation
node 27 1 1 1 NullActivation
node 28 1 1 1 NullActivation
node 29 1 1 1 NullActivation
node 30 1 1 1 NullActivation
node 31 1 1 1 NullActivation
node 32 1 1 1 NullActivation
node 33 1 1 1 NullActivation
node 34 1 1 1 NullActivation
node 35 1 1 1 NullActivation
node 36 1 1 1 NullActivation
node 37 2 1 1 NullActivation
node 38 1 1 1 NullActivation
node 39 1 1 1 NullActivation
node 40 1 1 1 NullActivation
node 41 1 1 1 NullActivation
node 42 1 1 1 NullActivation
node 43 1 1 1 NullActivation
node 44 1 1 1 NullActivation
node 45 1 1 1 NullActivation
node 46 1 1 1 NullActivation
node 47 1 1 1 NullActivation
node 48 1 1 1 NullActivation
node 49 1 1 1 NullActivation
node 50 1 1 1 NullActivation
node 51 1 1 1 NullActivation
node 52 1 1 1 NullActivation
node 53 1 1 1 NullActivation
node 54 1 1 1 NullActivation
node 55 1 1 1 NullActivation
node 56 1 0 2 SigmoidBipolarActivation
node 66 1 0 0 SigmoidSteepenedActivation
node 183 1 0 0 SigmoidSteepenedActivation
gene 1 1 56 1.1542926091016217 false 1 1.1542926091016217 true
gene 5 49 56 0.8001246514602596 false 24 0.8001246514602596 true
gene 3 14 56 5.4629386871231675 false 78 5.4629386871231675 true
gene 9 55 56 2.44930457126971 false 127 2.44930457126971 true
gene 4 34 56 -0.24697984609729703 false 177 -0.24697984609729703 true
gene 10 45 56 0.731269774569379 false 254 0.731269774569379 true
gene 5 49 66 2.4833230746176755 false 311 2.4833230746176755 true
gene 5 66 56 9.856977694884103 false 312 9.856977694884103 true
gene 2 17 56 0.670382370743393 false 485 0.670382370743393 true
gene 3 17 66 2.9093080237713114 false 504 2.9093080237713114 true
gene 4 42 66 -2.036953342240439 false 882 -2.036953342240439 true
gene 11 51 56 -0.7121371116883602 false 1110 -0.7121371116883602 true
gene 2 51 66 -0.16537252842785147 false 1111 -0.16537252842785147 true
gene 9 44 56 -9.337695013239216 false 1499 -9.337695013239216 true
gene 3 44 66 7.57142682517541 false 1532 7.57142682517541 true
gene 6 40 56 0.38894345680735054 false 1925 0.38894345680735054 true
gene 6 40 66 1.3678214612195674 false 1926 1.3678214612195674 true
gene 11 13 56 -1.6653578756698817 false 2452 -1.6653578756698817 true
gene 5 13 66 8.943678346655997 false 2453 8.943678346655997 true
gene 2 17 183 1 false 2771 0 true
gene 2 183 56 0.670382370743393 false 2772 0 true
genomeend 1
/* Species #48 : (Size 2) (AF 0.500) (Age 16)  */
/* Organism #2 Fitness: 1.000 Error: 0.000 */
genomestart 2
trait 1 0.14478706879669845 0 0 0.07456358408379538 0.12374894767034632 0 0.07671908217045106 0
trait 2 0.2 0 0 0 0 0 0 0
trait 3 0.3 0 0.1794881434670551 0 0 0 0.18413149786202138 0.23681852123169822
trait 4 0.4 0 0 0 0 0 0 0
trait 5 0.5 0 0 0 0 0 0 0
trait 6 0.6 0 0 0 0 0 0 0
trait 7 0.7 0 0 0 0 0 0 0
trait 8 0.8 0 0 0 0 0 0 0
trait 9 0.9 0 0 0 0.7287553295818339 0.5262359366713916 0 0
trait 10 1 0 0 0 0 0 0 0
trait 11 1.1 0 0.6311850480601983 0 0 0 0.9479687350548777 0.020844078231022252
trait 12 1.2 0 0 0 0 0 0 0
trait 13 1.3 0.26657618885122913 0 0.4786800655997715 0.4732112292655233 0 0.07884667038061048 0
trait 14 1.4 0 0 0 0 0 0 0
trait 15 1.5 0 0 0 0 0 0 0
node 1 1 1 3 NullActivation
node 2 1 1 1 NullActivation
node 3 1 1 1 NullActivation
node 4 1 1 1 NullActivation
node 5 1 1 1 NullActivation
node 6 1 1 1 NullActivation
node 7 1 1 1 NullActivation
node 8 1 1 1 NullActivation
node 9 1 1 1 NullActivation
node 10 1 1 1 NullActivation
node 11 1 1 1 NullActivation
node 12 1 1 1 NullActivation
node 13 1 1 1 NullActivation
node 14 1 1 1 NullActivation
node 15 1 1 1 NullActivation
node 16 1 1 1 NullActivation
node 17 1 1 1 NullActivation
node 18 1 1 1 NullActivation
node 19 1 1 1 NullActivation
node 20 1 1 1 NullActivation
node 21 1 1 1 NullActivation
node 22 1 1 1 NullActivation
node 23 1 1 1 NullActivation
node 24 1 1 1 NullActivation
node 25 1 1 1 NullActivation
node 26 1 1 1 NullActivation
node 27 1 1 1 NullActivation
node 28 1 1 1 NullActivation
node 29 1 1 1 NullActivation
node 30 1 1 1 NullActivation
node 31 1 1 1 NullActivation
node 32 1 1 1 NullActivation
node 33 1 1 1 NullActivation
node 34 1 1 1 NullActivation
node 35 1 1 1 NullActivation
node 36 1 1 1 NullActivation
node 37 1 1 1 NullActivation
node 38 1 1 1 NullActivation
node 39 1 1 1 NullActivation
node 40 1 1 1 NullActivation
node 41 1 1 1 NullActivation
node 42 8 1 1 NullActivation
node 43 1 1 1 NullActivation
node 44 1 1 1 NullActivation
node 45 1 1 1 NullActivation
node 46 1 1 1 NullActivation
node 47 1 1 1 NullActivation
node 48 1 1 1 NullActivation
node 49 1 1 1 NullActivation
node 50 1 1 1 NullActivation
node 51 1 1 1 NullActivation
node 52 1 1 1 NullActivation
node 53 1 1 1 NullActivation
node 54 1 1 1 NullActivation
node 55 1 1 1 NullActivation
node 56 1 0 2 SigmoidBipolarActivation
gene 1 1 56 1.104453387705219 false 1 1.104453387705219 true
gene 14 34 56 -0.3849674059171393 false 42 -0.3849674059171393 true
gene 1 7 56 0.48850950337953397 false 166 0.48850950337953397 true
gene 14 33 56 -2.779864330907925 false 436 -2.779864330907925 true
gene 7 9 56 17.398814024443002 false 499 17.398814024443002 true
gene 10 51 56 1.1057306525721327 false 535 1.1057306525721327 true
gene 15 24 56 6.468705935627066 false 1207 6.468705935627066 true
gene 6 42 56 12.578418881477866 false 1405 12.578418881477866 true
gene 2 13 56 5.318315988537335 false 2286 5.318315988537335 true
genomeend 2
/* Organism #3 Fitness: 0.000 Error: 0.000 */
genomestart 3
trait 1 0.14478706879669845 0 0 0.07456358408379538 0.12374894767034632 0 0.07671908217045106 0
trait 2 0.2 0 0 0 0 0 0 0
trait 3 0.3 0 0.1794881434670551 0 0 0 0.18413149786202138 0.23681852123169822
trait 4 0.4 0 0 0 0 0 0 0
trait 5 0.5 0 0 0 0 0 0 0
trait 6 0.6 0 0 0 0 0 0 0
trait 7 0.7 0 0 0 0 0 0 0
trait 8 0.8 0 0 0 0 0 0 0
trait 9 0.9 0 0 0 0 0 0 0
trait 10 1 0 0 0 0 0 0 0
trait 11 1.1 0 0.6311850480601983 0 0 0 0.9479687350548777 0.020844078231022252
trait 12 1.2 0 0 0 0 0 0 0
trait 13 1.3 0.26657618885122913 0 0.4786800655997715 0.4732112292655233 0 0.07884667038061048 0
trait 14 1.4 0 0 0 0 0 0 0
trait 15 1.5 0 0 0 0 0 0 0
node 1 1 1 3 NullActivation
node 2 1 1 1 NullActivation
node 3 1 1 1 NullActivation
node 4 1 1 1 NullActivation
node 5 1 1 1 NullActivation
node 6 1 1 1 NullActivation
node 7 1 1 1 NullActivation
node 8 1 1 1 NullActivation
node 9 1 1 1 NullActivation
node 10 1 1 1 NullActivation
node 11 1 1 1 NullActivation
node 12 1 1 1 NullActivation
node 13 1 1 1 NullActivation
node 14 1 1 1 NullActivation
node 15 1 1 1 NullActivation
node 16 1 1 1 NullActivation
node 17 1 1 1 NullActivation
node 18 1 1 1 NullActivation
node 19 1 1 1 NullActivation
node 20 1 1 1 NullActivation
node 21 1 1 1 NullActivation
node 22 1 1 1 NullActivation
node 23 1 1 1 NullActivation
node 24 1 1 1 NullActivation
node 25 1 1 1 NullActivation
node 26 1 1 1 NullActivation
node 27 1 1 1 NullActivation
node 28 1 1 1 NullActivation
node 29 1 1 1 NullActivation
node 30 1 1 1 NullActivation
node 31 1 1 1 NullActivation
node 32 1 1 1 NullActivation
node 33 1 1 1 NullActivation
node 34 1 1 1 NullActivation
node 35 1 1 1 NullActivation
node 36 1 1 1 NullActivation
node 37 1 1 1 NullActivation
node 38 1 1 1 NullActivation
node 39 1 1 1 NullActivation
node 40 1 1 1 NullActivation
node 41 1 1 1 NullActivation
node 42 8 1 1 NullActivation
node 43 1 1 1 NullActivation
node 44 1 1 1 NullActivation
node 45 1 1 1 NullActivation
node 46 1 1 1 NullActivation
node 47 1 1 1 NullActivation
node 48 1 1 1 NullActivation
node 49 1 1 1 NullActivation
node 50 1 1 1 NullActivation
node 51 1 1 1 NullActivation
node 52 1 1 1 NullActivation
node 53 1 1 1 NullActivation
node 54 1 1 1 NullActivation
node 55 1 1 1 NullActivation
node 56 1 0 2 SigmoidBipolarActivation
node 189 1 0 0 SigmoidSteepenedActivation
gene 1 1 56 1.082905992836222 false 1 1.082905992836222 true
gene 14 34 56 1.9735565574366956 false 42 1.9735565574366956 false
gene 1 7 56 -0.5809784594062238 false 166 -0.5809784594062238 true
gene 14 33 56 -2.241669497917894 false 436 -2.241669497917894 true
gene 7 9 56 15.24274838064457 false 499 15.24274838064457 true
gene 10 51 56 -0.37715800852067405 false 535 -0.37715800852067405 true
gene 15 24 56 7.210124024935397 false 1207 7.210124024935397 true
gene 6 42 56 12.578418881477866 false 1405 12.578418881477866 true
gene 2 13 56 4.924005821905629 false 2286 4.924005821905629 true
gene 14 34 189 1 false 2937 0 true
gene 14 189 56 1.9735565574366956 false 2938 0 true
genomeend 3
/* Species #50 : (Size 1) (AF 1.000) (Age 16)  */
/* Organism #4 Fitness: 1.000 Error: 0.000 */
genomestart 4
trait 1 0.1 0 0 0 0 0 0 0
trait 2 0.2 0 0 0 0 0 0 0
trait 3 0.3 0 0 0 0 0 0 0
trait 4 0.4 0 0 0 0 0 0 0
trait 5 0.5 0 0 0 0 0 0 0
trait 6 0.6 0 0 0 0 0 0 0
trait 7 0.7 0 0 0 0 0 0 0
trait 8 0.8 0 0 0 0 0 0 0
trait 9 0.9 0 0 0 0 0 0 0
trait 10 1 0 0 0 0 0 0 0
trait 11 1.1 0 0 0 0 0 0 0
trait 12 1.2 0 0 0 0 0 0 0
trait 13 1.3 0 0 0 0 0 0 0
trait 14 1.4 0 0 0 0 0 0 0
trait 15 1.5 0 0 0 0 0 0 0
node 1 1 1 3 NullActivation
node 2 1 1 1 NullActivation
node 3 1 1 1 NullActivation
node 4 1 1 1 NullActivation
node 5 1 1 1 NullActivation
node 6 1 1 1 NullActivation
node 7 1 1 1 NullActivation
node 8 1 1 1 NullActivation
node 9 1 1 1 NullActivation
node 10 1 1 1 NullActivation
node 11 1 1 1 NullActivation
node 12 1 1 1 NullActivation
node 13 1 1 1 NullActivation
node 14 1 1 1 NullActivation
node 15 1 1 1 NullActivation
node 16 1 1 1 NullActivation
node 17 1 1 1 NullActivation
node 18 1 1 1 NullActivation
node 19 1 1 1 NullActivation
node 20 1 1 1 NullActivation
node 21 1 1 1 NullActivation
node 22 1 1 1 NullActivation
node 23 1 1 1 NullActivation
node 24 1 1 1 NullActivation
node 25 1 1 1 NullActivation
node 26 1 1 1 NullActivation
node 27 1 1 1 NullActivation
node 28 1 1 1 NullActivation
node 29 1 1 1 NullActivation
node 30 1 1 1 NullActivation
node 31 1 1 1 NullActivation
node 32 1 1 1 NullActivation
node 33 1 1 1 NullActivation
node 34 1 1 1 NullActivation
node 35 1 1 1 NullActivation
node 36 1 1 1 NullActivation
node 37 1 1 1 NullActivation
node 38 1 1 1 NullActivation
node 39 1 1 1 NullActivation
node 40 1 1 1 NullActivation
node 41 1 1 1 NullActivation
node 42 1 1 1 NullActivation
node 43 1 1 1 NullActivation
node 44 1 1 1 NullActivation
node 45 1 1 1 NullActivation
node 46 1 1 1 NullActivation
node 47 1 1 1 NullActivation
node 48 1 1 1 NullActivation
node 49 1 1 1 NullActivation
node 50 1 1 1 NullActivation
node 51 1 1 1 NullActivation
node 52 1 1 1 NullActivation
node 53 1 1 1 NullActivation
node 54 1 1 1 NullActivation
node 55 1 1 1 NullActivation
node 56 1 0 2 SigmoidBipolarActivation
gene 1 1 56 -1.796016875408466 false 1 -1.796016875408466 true
gene 12 52 56 4.050005859281505 false 17 4.050005859281505 true
gene 14 7 56 -12.08408206321646 false 112 -12.08408206321646 true
gene 14 4 56 7.775803011717116 false 206 7.775803011717116 true
gene 9 18 56 2.0458357574503494 false 259 2.0458357574503494 true
gene 6 40 56 -0.8792730671316134 false 450 -0.8792730671316134 true
gene 11 41 56 0.0580454177684363 false 583 0.0580454177684363 true
gene 7 14 56 -4.411707564740631 false 831 -4.411707564740631 true
gene 2 47 56 7.228916957493287 false 1065 7.228916957493287 true
gene 1 55 56 4.178634502041265 false 1239 4.178634502041265 true
gene 13 3 56 0.4158537173374486 false 1363 0.4158537173374486 true
gene 10 19 56 -8.45054901511047 false 2151 0 true
gene 12 20 56 7.9004166722798885 false 2287 7.9004166722798885 true
gene 8 22 56 1.255228715228876 false 2492 1.255228715228876 true
gene 15 10 56 7.446386262519638 false 2945 7.446386262519638 true
genomeend 4
/* Species #62 : (Size 1) (AF 1.000) (Age 14)  */
/* Organism #5 Fitness: 1.000 Error: 0.000 */
genomestart 5
trait 1 0.14478706879669845 0 0 0.07456358408379538 0.12374894767034632 0 0.07671908217045106 0
trait 2 0.2 0 0 0 0 0 0 0
trait 3 0.3 0 0.1794881434670551 0 0 0 0.18413149786202138 0.23681852123169822
trait 4 0.4 0 0 0 0 0 0 0
trait 5 0.5 0 0 0 0 0 0 0
trait 6 0.6 0 0 0 0 0 0 0
trait 7 0.7 0 0 0 0 0 0 0
trait 8 0.8 0 0 0 0 0 0 0
trait 9 0.9 0 0 0 0 0 0 0
trait 10 1 0 0 0 0 0 0 0
trait 11 1.1 0 0 0 0 0 0 0
trait 12 1.2 0 0 0 0 0 0 0
trait 13 1.3 0 0 0 0 0 0 0
trait 14 1.4 0 0 0 0 0 0 0
trait 15 1.5 0 0 0 0 0 0 0
node 1 1 1 3 NullActivation
node 2 1 1 1 NullActivation
node 3 1 1 1 NullActivation
node 4 1 1 1 NullActivation
node 5 1 1 1 NullActivation
node 6 1 1 1 NullActivation
node 7 1 1 1 NullActivation
node 8 1 1 1 NullActivation
node 9 1 1 1 NullActivation
node 10 1 1 1 NullActivation
node 11 1 1 1 NullActivation
node 12 1 1 1 NullActivation
node 13 1 1 1 NullActivation
node 14 1 1 1 NullActivation
node 15 1 1 1 NullActivation
node 16 1 1 1 NullActivation
node 17 1 1 1 NullActivation
node 18 1 1 1 NullActivation
node 19 1 1 1 NullActivation
node 20 1 1 1 NullActivation
node 21 1 1 1 NullActivation
node 22 1 1 1 NullActivation
node 23 1 1 1 NullActivation
node 24 1 1 1 NullActivation
node 25 1 1 1 NullActivation
node 26 1 1 1 NullActivation
node 27 1 1 1 NullActivation
node 28 1 1 1 NullActivation
node 29 1 1 1 NullActivation
node 30 1 1 1 NullActivation
node 31 1 1 1 NullActivation
node 32 1 1 1 NullActivation
node 33 1 1 1 NullActivation
node 34 1 1 1 NullActivation
node 35 1 1 1 NullActivation
node 36 1 1 1 NullActivation
node 37 1 1 1 NullActivation
node 38 1 1 1 NullActivation
node 39 1 1 1 NullActivation
node 40 1 1 1 NullActivation
node 41 1 1 1 NullActivation
node 42 1 1 1 NullActivation
node 43 1 1 1 NullActivation
node 44 1 1 1 NullActivation
node 45 1 1 1 NullActivation
node 46 1 1 1 NullActivation
node 47 1 1 1 NullActivation
node 48 1 1 1 NullActivation
node 49 1 1 1 NullActivation
node 50 1 1 1 NullActivation
node 51 1 1 1 NullActivation
node 52 1 1 1 NullActivation
node 53 1 1 1 NullActivation
node 54 1 1 1 NullActivation
node 55 1 1 1 NullActivation
node 56 1 0 2 SigmoidBipolarActivation
node 153 1 0 0 SigmoidSteepenedActivation
gene 1 1 56 -1.133663580132231 false 1 -1.133663580132231 true
gene 14 34 56 -3.041801528209244 false 42 -3.041801528209244 true
gene 1 7 56 -1.157454848925534 false 166 -1.157454848925534 true
gene 3 36 56 6.430381302406842 false 644 6.430381302406842 true
gene 13 16 56 0.4556809515692817 false 825 0.4556809515692817 true
gene 7 25 56 2.51049306385877 false 974 2.51049306385877 true
gene 4 3 56 6.527183694178278 false 1127 6.527183694178278 true
gene 1 37 56 4.690744866144456 false 1206 4.690744866144456 true
gene 7 18 56 -10.456363206159168 false 1622 -10.456363206159168 true
gene 14 34 153 -0.1423027185495922 false 2201 -0.1423027185495922 true
gene 14 153 56 -2.3295733826124914 false 2202 -2.3295733826124914 true
gene 11 14 56 -0.09831912389651865 false 2268 -0.09831912389651865 true
gene 2 14 153 -7.438235602043211 false 2300 -7.438235602043211 true
gene 1 29 56 -1.2008788920362254 false 2517 -1.2008788920362254 true
gene 5 29 153 7.59841247762811 false 2519 7.59841247762811 true
gene 15 4 153 -1.177842595912393 false 2675 -1.177842595912393 true
genomeend 5
/* Species #241 : (Size 2) (AF 0.000) (Age 8)  */
/* Organism #7 Fitness: 0.000 Error: 0.000 */
genomestart 7
trait 1 0.1 0 0 0 0 0 0 0
trait 2 0.2 0 0 0 0 0 0 0
trait 3 0.3 0.7413566578040801 0 0 0 0 0.5766985440074247 0
trait 4 0.4 0 0 0 0 0 0 0
trait 5 0.5 0 0 0 0 0 0 0
trait 6 0.6 0 0 0 0 0 0 0
trait 7 0.7 0 0 0 0 0 0 0
trait 8 0.8 0 0 0 0 0 0 0
trait 9 0.9 0 0 0 0 0 0 0
trait 10 1 0 0 0 0 0 0 0
trait 11 1.1 0 0 0 0 0 0 0
trait 12 1.2 0 0 0 0 0 0 0
trait 13 1.3 0 0 0 0 0 0 0
trait 14 1.4 0 0 0 0 0 0 0
trait 15 1.5 0 0 0 0 0 0 0
node 1 1 1 3 NullActivation
node 2 1 1 1 NullActivation
node 3 1 1 1 NullActivation
node 4 1 1 1 NullActivation
node 5 1 1 1 NullActivation
node 6 1 1 1 NullActivation
node 7 1 1 1 NullActivation
node 8 1 1 1 NullActivation
node 9 1 1 1 NullActivation
node 10 1 1 1 NullActivation
node 11 1 1 1 NullActivation
node 12 1 1 1 NullActivation
node 13 1 1 1 NullActivation
node 14 1 1 1 NullActivation
node 15 1 1 1 NullActivation
node 16 1 1 1 NullActivation
node 17 1 1 1 NullActivation
node 18 1 1 1 NullActivation
node 19 1 1 1 NullActivation
node 20 1 1 1 NullActivation
node 21 1 1 1 NullActivation
node 22 1 1 1 NullActivation
node 23 1 1 1 NullActivation
node 24 1 1 1 NullActivation
node 25 1 1 1 NullActivation
node 26 1 1 1 NullActivation
node 27 1 1 1 NullActivation
node 28 1 1 1 NullActivation
node 29 1 1 1 NullActivation
node 30 1 1 1 NullActivation
node 31 1 1 1 NullActivation
node 32 1 1 1 NullActivation
node 33 1 1 1 NullActivation
node 34 1 1 1 NullActivation
node 35 1 1 1 NullActivation
node 36 1 1 1 NullActivation
node 37 1 1 1 NullActivation
node 38 14 1 1 NullActivation
node 39 1 1 1 NullActivation
node 40 1 1 1 NullActivation
node 41 1 1 1 NullActivation
node 42 1 1 1 NullActivation
node 43 1 1 1 NullActivation
node 44 1 1 1 NullActivation
node 45 1 1 1 NullActivation
node 46 1 1 1 NullActivation
node 47 1 1 1 NullActivation
node 48 1 1 1 NullActivation
node 49 1 1 1 NullActivation
node 50 1 1 1 NullActivation
node 51 1 1 1 NullActivation
node 52 1 1 1 NullActivation
node 53 1 1 1 NullActivation
node 54 1 1 1 NullActivation
node 55 1 1 1 NullActivation
node 56 1 0 2 SigmoidBipolarActivation
node 66 1 0 0 SigmoidSteepenedActivation
node 90 1 0 0 SigmoidSteepenedActivation
gene 1 1 56 0.6464351197003033 false 1 0.6464351197003033 true
gene 5 49 56 0.9662754684050107 false 24 0.9662754684050107 true
gene 3 14 56 -1.4923602035048869 false 78 -1.4923602035048869 true
gene 9 55 56 -2.3571639039789534 false 127 -2.3571639039789534 true
gene 1 34 56 -5.3694115288545134 false 177 -5.3694115288545134 true
gene 10 45 56 -0.86680927287129 false 254 -0.86680927287129 true
gene 5 49 66 -4.218555753742222 false 311 -4.218555753742222 true
gene 5 66 56 3.139854310714411 false 312 3.139854310714411 true
gene 11 8 56 -0.7753011123862528 false 375 -0.7753011123862528 true
gene 3 8 66 1.0732928641188137 false 423 1.0732928641188137 true
gene 9 23 56 0.27653310796595365 false 466 0.27653310796595365 true
gene 1 23 66 -5.29075976702539 false 508 -5.29075976702539 true
gene 6 19 56 -1.857819536222143 false 650 -1.857819536222143 true
gene 3 19 66 -2.139593100264734 false 651 -2.139593100264734 true
gene 5 49 90 -2.9608612550168596 false 719 -2.9608612550168596 true
gene 5 90 56 2.9007335888931483 false 720 2.9007335888931483 true
gene 13 16 56 -0.628110207883955 false 825 -0.628110207883955 true
gene 10 16 66 1.2968680158970414 false 901 1.2968680158970414 true
gene 2 16 90 1.3027525459398723 false 902 1.3027525459398723 true
gene 5 31 56 13.420741192301318 false 1052 13.420741192301318 true
gene 1 31 66 -16.458875449692215 false 1053 -16.458875449692215 true
gene 15 31 90 1.2616408575270512 false 1054 1.2616408575270512 true
gene 8 40 56 -1.8456790842514692 false 1073 -1.8456790842514692 true
gene 5 40 66 -0.09246859348988812 false 1163 -0.09246859348988812 true
gene 12 40 90 -1.9826320337322088 false 1164 -1.9826320337322088 true
gene 1 33 56 -3.596885513258347 false 1581 -3.596885513258347 true
gene 3 33 66 -0.9804718572411522 false 1582 -0.9804718572411522 true
gene 4 33 90 0.11963910875394768 false 1583 0.11963910875394768 true
gene 5 23 90 0.18480441868307537 false 1758 0.18480441868307537 true
gene 14 44 90 -4.593181576856426 false 2339 -4.593181576856426 true
genomeend 7
/* Organism #6 Fitness: 0.000 Error: 0.000 */
genomestart 6
trait 1 0.1 0 0 0 0 0 0 0
trait 2 0.2 0 0 0 0 0 0 0
trait 3 0.3 0.7413566578040801 0 0 0 0 0.5766985440074247 0
trait 4 0.4 0 0 0 0 0 0 0
trait 5 0.5 0 0 0 0 0 0 0
trait 6 0.6 0 0 0 0 0 0 0
trait 7 0.7 0 0 0 0 0 0 0
trait 8 0.8 0 0 0 0 0 0 0
trait 9 0.9 0 0 0 0 0 0 0
trait 10 1 0 0 0 0 0 0 0
trait 11 1.1 0 0 0 0 0 0 0
trait 12 1.2 0 0 0 0 0 0 0
trait 13 1.3 0 0 0 0 0 0 0
trait 14 1.4 0 0 0 0 0 0 0
trait 15 1.5 0 0 0 0 0 0 0
node 1 1 1 3 NullActivation
node 2 1 1 1 NullActivation
node 3 1 1 1 NullActivation
node 4 1 1 1 NullActivation
node 5 1 1 1 NullActivation
node 6 1 1 1 NullActivation
node 7 1 1 1 NullActivation
node 8 1 1 1 NullActivation
node 9 1 1 1 NullActivation
node 10 1 1 1 NullActivation
node 11 1 1 1 NullActivation
node 12 1 1 1 NullActivation
node 13 1 1 1 NullActivation
node 14 1 1 1 NullActivation
node 15 1 1 1 NullActivation
node 16 1 1 1 NullActivation
node 17 1 1 1 NullActivation
node 18 1 1 1 NullActivation
node 19 1 1 1 NullActivation
node 20 1 1 1 NullActivation
node 21 1 1 1 NullActivation
node 22 1 1 1 NullActivation
node 23 1 1 1 NullActivation
node 24 1 1 1 NullActivation
node 25 1 1 1 NullActivation
node 26 1 1 1 NullActivation
node 27 1 1 1 NullActivation
node 28 1 1 1 NullActivation
node 29 1 1 1 NullActivation
node 30 1 1 1 NullActivation
node 31 1 1 1 NullActivation
node 32 1 1 1 NullActivation
node 33 1 1 1 NullActivation
node 34 1 1 1 NullActivation
node 35 1 1 1 NullActivation
node 36 1 1 1 NullActivation
node 37 1 1 1 NullActivation
node 38 14 1 1 NullActivation
node 39 1 1 1 NullActivation
node 40 1 1 1 NullActivation
node 41 1 1 1 NullActivation
node 42 1 1 1 NullActivation
node 43 1 1 1 NullActivation
node 44 1 1 1 NullActivation
node 45 1 1 1 NullActivation
node 46 1 1 1 NullActivation
node 47 1 1 1 NullActivation
node 48 1 1 1 NullActivation
node 49 1 1 1 NullActivation
node 50 1 1 1 NullActivation
node 51 1 1 1 NullActivation
node 52 1 1 1 NullActivation
node 53 1 1 1 NullActivation
node 54 1 1 1 NullActivation
node 55 1 1 1 NullActivation
node 56 1 0 2 SigmoidBipolarActivation
node 66 1 0 0 SigmoidSteepenedActivation
node 90 1 0 0 SigmoidSteepenedActivation
gene 1 1 56 2.864355660904409 false 1 2.864355660904409 true
gene 5 49 56 -0.32365284070041744 false 24 -0.32365284070041744 true
gene 3 14 56 3.5449784760259413 false 78 3.5449784760259413 true
gene 9 55 56 1.523550539010358 false 127 1.523550539010358 true
gene 1 34 56 -9.31233262685972 false 177 -9.31233262685972 true
gene 10 45 56 2.099567627171418 false 254 2.099567627171418 true
gene 5 49 66 -4.653244147941056 false 311 -4.653244147941056 true
gene 5 66 56 -0.4683956465023069 false 312 -0.4683956465023069 true
gene 11 8 56 -0.7933859315481302 false 375 -0.7933859315481302 true
gene 3 8 66 2.627357810211275 false 423 2.627357810211275 true
gene 9 23 56 0.5480724802032682 false 466 0.5480724802032682 true
gene 1 23 66 -6.3871830473265945 false 508 -6.3871830473265945 true
gene 6 19 56 -1.9037962628103346 false 650 -1.9037962628103346 true
gene 3 19 66 -2.4989744342541553 false 651 -2.4989744342541553 true
gene 5 49 90 -0.8026071679288505 false 719 -0.8026071679288505 true
gene 5 90 56 2.5033792586534607 false 720 2.5033792586534607 true
gene 13 16 56 1.6638342595147146 false 825 1.6638342595147146 true
gene 10 16 66 3.4739233861410166 false 901 3.4739233861410166 true
gene 2 16 90 1.6786874841726758 false 902 1.6786874841726758 true
gene 5 31 56 11.231429043059478 false 1052 11.231429043059478 true
gene 1 31 66 -16.17041801192544 false 1053 -16.17041801192544 true
gene 15 31 90 0.573526076048027 false 1054 0.573526076048027 true
gene 8 40 56 -2.3700069345001777 false 1073 -2.3700069345001777 true
gene 5 40 66 1.2405965502129237 false 1163 1.2405965502129237 true
gene 12 40 90 -2.1871070066738616 false 1164 -2.1871070066738616 true
gene 1 33 56 -0.17788009443699582 false 1581 -0.17788009443699582 true
gene 3 33 66 -1.839471883405828 false 1582 -1.839471883405828 true
gene 4 33 90 -0.8616627360387674 false 1583 -0.8616627360387674 true
gene 5 23 90 3.9003895500045633 false 1758 3.9003895500045633 true
gene 14 44 90 -6.184278688156028 false 2339 -6.184278688156028 true
genomeend 6
/* Species #315 : (Size 1) (AF 0.000) (Age 7)  */
/* Organism #8 Fitness: 0.000 Error: 0.000 */
genomestart 8
trait 1 0.1 0 0 0 0 0 0 0
trait 2 0.2 0 0 0 0 0 0 0
trait 3 0.3 0 0 0 0 0 0 0
trait 4 0.4 0 0 0 0 0 0 0
trait 5 0.5 0 0 0 0 0 0 0
trait 6 0.6 0 0 0 0 0 0 0
trait 7 0.7 0 0 0 0 0 0 0
trait 8 0.8 0 0 0 0 0 0 0
trait 9 0.9 0 0 0 0 0 0 0
trait 10 1 0 0 0 0 0 0 0
trait 11 1.1 0 0 0 0 0 0 0
trait 12 1.2 0 0 0 0 0 0 0
trait 13 1.3 0 0 0 0 0 0 0
trait 14 1.4 0 0 0 0 0 0 0
trait 15 1.5 0 0 0 0 0 0 0
node 1 1 1 3 NullActivation
node 2 1 1 1 NullActivation
node 3 1 1 1 NullActivation
node 4 1 1 1 NullActivation
node 5 1 1 1 NullActivation
node 6 1 1 1 NullActivation
node 7 1 1 1 NullActivation
node 8 1 1 1 NullActivation
node 9 1 1 1 NullActivation
node 10 1 1 1 NullActivation
node 11 1 1 1 NullActivation
node 12 1 1 1 NullActivation
node 13 1 1 1 NullActivation
node 14 1 1 1 NullActivation
node 15 1 1 1 NullActivation
node 16 1 1 1 NullActivation
node 17 1 1 1 NullActivation
node 18 1 1 1 NullActivation
node 19 1 1 1 NullActivation
node 20 1 1 1 NullActivation
node 21 1 1 1 NullActivation
node 22 1 1 1 NullActivation
node 23 1 1 1 NullActivation
node 24 1 1 1 NullActivation
node 25 1 1 1 NullActivation
node 26 1 1 1 NullActivation
node 27 1 1 1 NullActivation
node 28 1 1 1 NullActivation
node 29 1 1 1 NullActivation
node 30 1 1 1 NullActivation
node 31 1 1 1 NullActivation
node 32 1 1 1 NullActivation
node 33 1 1 1 NullActivation
node 34 1 1 1 NullActivation
node 35 1 1 1 NullActivation
node 36 1 1 1 NullActivation
node 37 1 1 1 NullActivation
node 38 1 1 1 NullActivation
node 39 1 1 1 NullActivation
node 40 1 1 1 NullActivation
node 41 1 1 1 NullActivation
node 42 1 1 1 NullActivation
node 43 1 1 1 NullActivation
node 44 1 1 1 NullActivation
node 45 1 1 1 NullActivation
node 46 1 1 1 NullActivation
node 47 1 1 1 NullActivation
node 48 1 1 1 NullActivation
node 49 1 1 1 NullActivation
node 50 1 1 1 NullActivation
node 51 1 1 1 NullActivation
node 52 1 1 1 NullActivation
node 53 1 1 1 NullActivation
node 54 1 1 1 NullActivation
node 55 1 1 1 NullActivation
node 56 1 0 2 SigmoidBipolarActivation
node 66 1 0 0 SigmoidSteepenedActivation
node 90 1 0 0 SigmoidSteepenedActivation
node 181 1 0 0 SigmoidSteepenedActivation
gene 1 1 56 -5.970826829920076 false 1 -5.970826829920076 true
gene 5 49 56 10.581232632567493 false 24 10.581232632567493 true
gene 3 14 56 -0.9915044273471976 false 78 -0.9915044273471976 true
gene 9 55 56 6.914925670424751 false 127 6.914925670424751 true
gene 1 34 56 -4.169814776989458 false 177 -4.169814776989458 true
gene 10 45 56 1.4092161971140387 false 254 1.4092161971140387 true
gene 5 49 66 3.375135283170869 false 311 3.375135283170869 true
gene 5 66 56 10.959401235734804 false 312 10.959401235734804 true
gene 11 8 56 -2.237929686430497 false 375 -2.237929686430497 true
gene 3 8 66 4.076178822773976 false 423 4.076178822773976 true
gene 11 23 56 2.165020108737136 false 466 2.165020108737136 true
gene 1 23 66 2.1132865288432 false 508 2.1132865288432 true
gene 6 19 56 1.344144377334069 false 650 1.344144377334069 true
gene 3 19 66 -8.662401306777165 false 651 -8.662401306777165 true
gene 5 49 90 -1.8543626950551524 false 719 -1.8543626950551524 true
gene 5 90 56 0.7685762665378562 false 720 0.7685762665378562 true
gene 13 16 56 -0.6448964870309604 false 825 -0.6448964870309604 true
gene 10 16 66 -2.6868803082505384 false 901 -2.6868803082505384 true
gene 2 16 90 -5.001433451638938 false 902 -5.001433451638938 true
gene 12 25 56 -6.214589837074212 false 1217 -6.214589837074212 true
gene 1 25 66 1.3847313847759497 false 1272 1.3847313847759497 true
gene 6 25 90 9.411271335435831 false 1273 9.411271335435831 true
gene 6 4 56 1.019060329912521 false 1523 1.019060329912521 true
gene 15 4 66 6.998751362995918 false 1524 6.998751362995918 true
gene 9 4 90 -3.845911093693944 false 1525 -3.845911093693944 true
gene 15 52 56 -2.6680660218411205 false 1755 -2.6680660218411205 true
gene 13 52 66 -8.168300126040617 false 1787 -8.168300126040617 true
gene 7 52 90 -3.077654523589887 false 1788 -3.077654523589887 true
gene 13 29 66 5.721446778253114 false 2644 5.721446778253114 true
gene 10 45 181 0.23998963263547024 false 2754 0.23998963263547024 true
gene 10 181 56 -0.6982951150689196 false 2755 -0.6982951150689196 true
genomeend 8
/* Species #335 : (Size 1) (AF 2.000) (Age 7)  */
/* Organism #9 Fitness: 2.000 Error: 0.000 */
genomestart 9
trait 1 0.1 0 0 0 0 0 0 0
trait 2 0.2 0 0 0 0 0 0 0
trait 3 0.3 0 0 0 0 0 0 0
trait 4 0.4 0 0 0 0 0 0 0
trait 5 0.5 0 0 0 0 0 0 0
trait 6 0.6 0 0 0 0 0 0 0
trait 7 0.7 0 0 0 0 0 0 0
trait 8 0.8 0 0 0 0 0 0 0
trait 9 0.9 0 0 0 0 0 0 0
trait 10 1 0 0 0 0 0 0 0
trait 11 1.1 0 0 0 0 0 0 0
trait 12 1.2 0 0 0 0 0 0 0
trait 13 1.3 0 0 0 0 0 0 0
trait 14 1.4 0 0 0 0 0 0 0
trait 15 1.5 0 0 0 0 0 0 0
node 1 1 1 3 NullActivation
node 2 1 1 1 NullActivation
node 3 1 1 1 NullActivation
node 4 1 1 1 NullActivation
node 5 1 1 1 NullActivation
node 6 1 1 1 NullActivation
node 7 1 1 1 NullActivation
node 8 1 1 1 NullActivation
node 9 1 1 1 NullActivation
node 10 1 1 1 NullActivation
node 11 1 1 1 NullActivation
node 12 1 1 1 NullActivation
node 13 1 1 1 NullActivation
node 14 1 1 1 NullActivation
node 15 1 1 1 NullActivation
node 16 1 1 1 NullActivation
node 17 1 1 1 NullActivation
node 18 1 1 1 NullActivation
node 19 9 1 1 NullActivation
node 20 1 1 1 NullActivation
node 21 1 1 1 NullActivation
node 22 1 1 1 NullActivation
node 23 1 1 1 NullActivation
node 24 1 1 1 NullActivation
node 25 1 1 1 NullActivation
node 26 1 1 1 NullActivation
node 27 1 1 1 NullActivation
node 28 1 1 1 NullActivation
node 29 1 1 1 NullActivation
node 30 1 1 1 NullActivation
node 31 1 1 1 NullActivation
node 32 1 1 1 NullActivation
node 33 1 1 1 NullActivation
node 34 1 1 1 NullActivation
node 35 1 1 1 NullActivation
node 36 1 1 1 NullActivation
node 37 1 1 1 NullActivation
node 38 1 1 1 NullActivation
node 39 1 1 1 NullActivation
node 40 1 1 1 NullActivation
node 41 1 1 1 NullActivation
node 42 1 1 1 NullActivation
node 43 1 1 1 NullActivation
node 44 1 1 1 NullActivation
node 45 1 1 1 NullActivation
node 46 1 1 1 NullActivation
node 47 1 1 1 NullActivation
node 48 1 1 1 NullActivation
node 49 1 1 1 NullActivation
node 50 1 1 1 NullActivation
node 51 1 1 1 NullActivation
node 52 1 1 1 NullActivation
node 53 1 1 1 NullActivation
node 54 1 1 1 NullActivation
node 55 1 1 1 NullActivation
node 56 1 0 2 SigmoidBipolarActivation
node 66 1 0 0 SigmoidSteepenedActivation
node 126 1 0 0 SigmoidSteepenedActivation
node 176 1 0 0 SigmoidSteepenedActivation
gene 1 1 56 1.6162553805228084 false 1 1.6162553805228084 true
gene 5 49 56 9.164689696213916 false 24 9.164689696213916 true
gene 3 14 56 -0.8980628418894808 false 78 -0.8980628418894808 true
gene 2 55 56 8.900872863290482 false 127 8.900872863290482 true
gene 4 34 56 -11.182757121933596 false 177 -11.182757121933596 true
gene 10 45 56 -0.35685772593627374 false 254 -0.35685772593627374 true
gene 5 49 66 4.879833321544216 false 311 4.879833321544216 true
gene 5 66 56 15.001541247199082 false 312 15.001541247199082 true
gene 14 33 56 -1.3909170171806975 false 1003 -1.3909170171806975 true
gene 10 33 66 0.7472961079359307 false 1004 0.7472961079359307 true
gene 4 24 56 0.546672022019524 false 1067 0.546672022019524 true
gene 5 49 126 -0.8587818448295983 false 1331 -0.8587818448295983 true
gene 5 126 56 11.167254408222837 false 1332 11.167254408222837 true
gene 3 21 56 -2.1033938358577626 false 1396 -2.1033938358577626 true
gene 14 21 66 1.847352837795126 false 1397 1.847352837795126 true
gene 4 21 126 0.4450855469690953 false 1455 0.4450855469690953 true
gene 8 7 56 -2.3883139549166605 false 1596 -2.3883139549166605 true
gene 7 7 66 1.8460569548059316 false 1597 1.8460569548059316 true
gene 14 7 126 4.969820599371996 false 1607 4.969820599371996 true
gene 7 11 56 0.6600428376064054 false 1783 0.6600428376064054 true
gene 4 11 66 -1.6967679749019025 false 1808 -1.6967679749019025 true
gene 8 11 126 -2.386248816494793 false 1809 -2.386248816494793 true
gene 4 24 176 0.4238837923198251 false 2654 0.4238837923198251 true
gene 4 176 56 0.546672022019524 false 2655 0.546672022019524 true
genomeend 9
/* Species #349 : (Size 1) (AF 0.000) (Age 7)  */
/* Organism #10 Fitness: 0.000 Error: 0.000 */
genomestart 10
trait 1 0.1 0 0 0 0 0 0 0
trait 2 0.2 0 0 0 0 0 0 0
trait 3 0.3 0 0 0 0 0 0 0
trait 4 0.4 0 0 0 0 0 0 0
trait 5 1.2695376922543669 0 0 0 0 0.5786325691076052 0 0.637919079016697
trait 6 0.6 0 0 0 0 0 0 0
trait 7 0.7 0 0 0 0 0 0 0
trait 8 0.8 0 0 0 0 0 0 0
trait 9 0.9 0 0 0 0 0 0 0
trait 10 1 0 0 0 0 0 0 0
trait 11 1.1 0 0 0 0 0 0 0
trait 12 1.2 0 0 0 0 0 0 0
trait 13 1.3 0 0 0 0 0 0 0
trait 14 1.4 0 0 0 0 0 0 0
trait 15 1.5 0 0 0 0 0 0 0
node 1 1 1 3 NullActivation
node 2 1 1 1 NullActivation
node 3 1 1 1 NullActivation
node 4 1 1 1 NullActivation
node 5 1 1 1 NullActivation
node 6 1 1 1 NullActivation
node 7 1 1 1 NullActivation
node 8 1 1 1 NullActivation
node 9 1 1 1 NullActivation
node 10 1 1 1 NullActivation
node 11 1 1 1 NullActivation
node 12 1 1 1 NullActivation
node 13 1 1 1 NullActivation
node 14 1 1 1 NullActivation
node 15 1 1 1 NullActivation
node 16 1 1 1 NullActivation
node 17 1 1 1 NullActivation
node 18 1 1 1 NullActivation
node 19 1 1 1 NullActivation
node 20 1 1 1 NullActivation
node 21 1 1 1 NullActivation
node 22 1 1 1 NullActivation
node 23 1 1 1 NullActivation
node 24 1 1 1 NullActivation
node 25 1 1 1 NullActivation
node 26 1 1 1 NullActivation
node 27 1 1 1 NullActivation
node 28 1 1 1 NullActivation
node 29 1 1 1 NullActivation
node 30 1 1 1 NullActivation
node 31 1 1 1 NullActivation
node 32 1 1 1 NullActivation
node 33 1 1 1 NullActivation
node 34 1 1 1 NullActivation
node 35 1 1 1 NullActivation
node 36 1 1 1 NullActivation
node 37 1 1 1 NullActivation
node 38 9 1 1 NullActivation
node 39 1 1 1 NullActivation
node 40 1 1 1 NullActivation
node 41 1 1 1 NullActivation
node 42 1 1 1 NullActivation
node 43 1 1 1 NullActivation
node 44 1 1 1 NullActivation
node 45 1 1 1 NullActivation
node 46 1 1 1 NullActivation
node 47 1 1 1 NullActivation
node 48 1 1 1 NullActivation
node 49 1 1 1 NullActivation
node 50 1 1 1 NullActivation
node 51 1 1 1 NullActivation
node 52 1 1 1 NullActivation
node 53 1 1 1 NullActivation
node 54 1 1 1 NullActivation
node 55 1 1 1 NullActivation
node 56 1 0 2 SigmoidBipolarActivation
node 62 1 0 0 SigmoidSteepenedActivation
node 86 1 0 0 SigmoidSteepenedActivation
node 178 1 0 0 SigmoidSteepenedActivation
gene 1 1 56 4.352245900692333 false 1 4.352245900692333 true
gene 3 23 56 -7.306936509483432 false 12 -7.306936509483432 true
gene 6 47 56 -3.2112629566192927 false 68 -3.2112629566192927 true
gene 11 48 56 -1.3441332790453333 false 146 -1.3441332790453333 true
gene 11 48 62 1.1567439258128092 false 236 1.1567439258128092 true
gene 11 62 56 2.6874749981417785 false 237 2.6874749981417785 true
gene 5 38 62 -5.819288917558302 false 391 -5.819288917558302 true
gene 6 47 86 -0.18932071460782218 false 692 -0.18932071460782218 true
gene 6 86 56 -3.933531987199615 false 693 -3.933531987199615 true
gene 8 7 56 0.02797671111641592 false 785 0.02797671111641592 true
gene 5 7 62 -9.042536759358978 false 786 -9.042536759358978 true
gene 4 7 86 -11.913127047584414 false 787 -11.913127047584414 true
gene 9 34 56 -2.3229646497869703 false 935 -2.3229646497869703 true
gene 11 34 62 1.2864149923397266 false 936 1.2864149923397266 true
gene 4 34 86 3.997583305009921 false 937 3.997583305009921 true
gene 13 12 56 -1.888835510667604 false 944 -1.888835510667604 true
gene 14 12 62 -3.714361308946585 false 945 -3.714361308946585 true
gene 14 12 86 9.730145135731263 false 946 9.730145135731263 true
gene 11 51 56 -4.045592425292102 false 1110 -4.045592425292102 true
gene 7 51 62 -0.13773804118988248 false 1189 -0.13773804118988248 true
gene 11 51 86 10.507336973053684 false 1190 10.507336973053684 true
gene 1 37 56 8.10648595068351 false 1206 8.10648595068351 true
gene 2 37 62 4.707511816062149 false 1287 4.707511816062149 true
gene 2 37 86 7.105011315023748 false 1288 7.105011315023748 true
gene 9 22 56 3.7801509327482155 false 1345 3.7801509327482155 true
gene 8 22 62 9.898029015354389 false 1424 9.898029015354389 true
gene 15 22 86 -13.642568216817798 false 1425 -13.642568216817798 true
gene 7 29 56 -4.063745393323126 false 1535 -4.063745393323126 true
gene 7 29 62 0.6040788960902808 false 1536 0.6040788960902808 true
gene 13 29 86 0.1297660300029837 false 1537 0.1297660300029837 true
gene 4 4 56 -2.35938686875512 false 1735 -2.35938686875512 true
gene 6 4 62 -0.5639690985459582 false 1841 -0.5639690985459582 true
gene 6 4 86 -0.2777711385528052 false 1842 -0.2777711385528052 true
gene 11 48 178 0.3488678968057892 false 2687 0.3488678968057892 true
gene 11 178 56 1.3663944641063954 false 2688 1.3663944641063954 true
genomeend 10
/* Species #350 : (Size 1) (AF 2.000) (Age 7)  */
/* Organism #11 Fitness: 2.000 Error: 0.000 */
genomestart 11
trait 1 0.1 0 0 0 0 0 0 0
trait 2 0.2 0 0 0 0 0 0 0
trait 3 0.3 0 0 0 0 0 0 0
trait 4 0.4 0 0 0 0 0 0 0
trait 5 1.2695376922543669 0 0 0 0 0.5786325691076052 0 0.637919079016697
trait 6 0.6 0 0 0 0 0 0 0
trait 7 0.7 0 0 0 0 0 0 0
trait 8 0.8 0 0 0 0 0 0 0
trait 9 0.9 0 0 0 0 0 0 0
trait 10 1 0 0 0 0 0 0 0
trait 11 1.1 0 0 0 0 0 0 0
trait 12 1.2 0 0 0 0 0 0 0
trait 13 1.3 0 0 0 0 0 0 0
trait 14 1.4 0 0 0 0 0 0 0
trait 15 1.5 0 0 0 0 0 0 0
node 1 1 1 3 NullActivation
node 2 1 1 1 NullActivation
node 3 1 1 1 NullActivation
node 4 1 1 1 NullActivation
node 5 1 1 1 NullActivation
node 6 1 1 1 NullActivation
node 7 1 1 1 NullActivation
node 8 1 1 1 NullActivation
node 9 1 1 1 NullActivation
node 10 1 1 1 NullActivation
node 11 1 1 1 NullActivation
node 12 1 1 1 NullActivation
node 13 1 1 1 NullActivation
node 14 1 1 1 NullActivation
node 15 1 1 1 NullActivation
node 16 1 1 1 NullActivation
node 17 1 1 1 NullActivation
node 18 1 1 1 NullActivation
node 19 1 1 1 NullActivation
node 20 1 1 1 NullActivation
node 21 1 1 1 NullActivation
node 22 1 1 1 NullActivation
node 23 1 1 1 NullActivation
node 24 1 1 1 NullActivation
node 25 1 1 1 NullActivation
node 26 1 1 1 NullActivation
node 27 1 1 1 NullActivation
node 28 1 1 1 NullActivation
node 29 1 1 1 NullActivation
node 30 1 1 1 NullActivation
node 31 1 1 1 NullActivation
node 32 1 1 1 NullActivation
node 33 1 1 1 NullActivation
node 34 1 1 1 NullActivation
node 35 1 1 1 NullActivation
node 36 1 1 1 NullActivation
node 37 1 1 1 NullActivation
node 38 1 1 1 NullActivation
node 39 1 1 1 NullActivation
node 40 1 1 1 NullActivation
node 41 1 1 1 NullActivation
node 42 1 1 1 NullActivation
node 43 1 1 1 NullActivation
node 44 1 1 1 NullActivation
node 45 1 1 1 NullActivation
node 46 14 1 1 NullActivation
node 47 1 1 1 NullActivation
node 48 1 1 1 NullActivation
node 49 1 1 1 NullActivation
node 50 1 1 1 NullActivation
node 51 1 1 1 NullActivation
node 52 1 1 1 NullActivation
node 53 1 1 1 NullActivation
node 54 1 1 1 NullActivation
node 55 1 1 1 NullActivation
node 56 1 0 2 SigmoidBipolarActivation
node 62 1 0 0 SigmoidSteepenedActivation
node 86 1 0 0 SigmoidSteepenedActivation
gene 1 1 56 -0.7329594662123851 false 1 -0.7329594662123851 true
gene 3 23 56 -0.561212899099559 false 12 -0.561212899099559 true
gene 6 47 56 3.1278104841511953 false 68 3.1278104841511953 true
gene 11 48 56 -0.8930439168418945 false 146 -0.8930439168418945 true
gene 11 48 62 -0.42404549958967774 false 236 -0.42404549958967774 true
gene 11 62 56 -2.3234609529958377 false 237 -2.3234609529958377 true
gene 5 38 62 -0.9568104271409255 false 391 -0.9568104271409255 true
gene 6 47 86 -0.7513491936175414 false 692 -0.7513491936175414 true
gene 6 86 56 0.08516844209015262 false 693 0.08516844209015262 true
gene 8 7 56 0.49910719141817633 false 785 0.49910719141817633 true
gene 5 7 62 2.6372199403720433 false 786 2.6372199403720433 true
gene 4 7 86 -8.097492667198855 false 787 -8.097492667198855 true
gene 9 34 56 3.7189681829585295 false 935 3.7189681829585295 true
gene 11 34 62 -0.6660258689111658 false 936 -0.6660258689111658 true
gene 4 34 86 -1.4893662743863976 false 937 -1.4893662743863976 true
gene 13 12 56 -2.458564832891315 false 944 -2.458564832891315 true
gene 14 12 62 -0.7918606877214132 false 945 -0.7918606877214132 true
gene 14 12 86 1.7818307438400796 false 946 1.7818307438400796 true
gene 11 51 56 0.6551454715001624 false 1110 0.6551454715001624 true
gene 7 51 62 -7.006363501997054 false 1189 -7.006363501997054 true
gene 11 51 86 1.1922475064327722 false 1190 1.1922475064327722 true
gene 1 37 56 2.7274852643686316 false 1206 2.7274852643686316 true
gene 2 37 62 -1.4478964280763638 false 1287 -1.4478964280763638 true
gene 2 37 86 1.9655805311482992 false 1288 1.9655805311482992 true
gene 9 22 56 -1.2488159812892419 false 1345 -1.2488159812892419 true
gene 8 22 62 3.835467108910602 false 1424 3.835467108910602 true
gene 15 22 86 -9.03578556151798 false 1425 -9.03578556151798 true
gene 7 29 56 0.38967612552585884 false 1535 0.38967612552585884 true
gene 1 29 62 -0.9916119481745201 false 1536 -0.9916119481745201 true
gene 13 29 86 -5.627018742370102 false 1537 -5.627018742370102 true
gene 15 52 56 0.9135115021224138 false 1755 0.9135115021224138 true
gene 12 52 62 4.347207791191804 false 1756 4.347207791191804 true
gene 2 52 86 0.9180325462132964 false 1757 0.9180325462132964 true
gene 7 24 86 2.4884133996448945 false 2731 2.4884133996448945 true
genomeend 11
/* Species #362 : (Size 2) (AF 1.500) (Age 7)  */
/* Organism #13 Fitness: 2.000 Error: 0.000 */
genomestart 13
trait 1 0.1 0 0 0 0 0 0 0
trait 2 0.2 0 0 0 0 0 0 0
trait 3 0.3 0 0 0 0 0 0 0
trait 4 0.4 0 0 0 0 0 0 0
trait 5 0.5 0 0 0 0 0 0 0
trait 6 0.6 0 0 0 0 0 0 0
trait 7 0.7 0 0 0 0 0 0 0
trait 8 0.8 0 0 0 0 0 0 0
trait 9 0.9 0 0 0 0 0 0 0
trait 10 1 0 0 0 0 0 0 0
trait 11 1.1 0 0 0 0 0 0 0
trait 12 1.2 0 0 0 0 0 0 0
trait 13 2.196289212706267 0 0.30660379912574004 0 0 0 0 0.696894357477172
trait 14 1.4 0 0 0 0 0 0 0
trait 15 1.5 0 0 0 0 0 0 0
node 1 1 1 3 NullActivation
node 2 1 1 1 NullActivation
node 3 1 1 1 NullActivation
node 4 1 1 1 NullActivation
node 5 1 1 1 NullActivation
node 6 1 1 1 NullActivation
node 7 1 1 1 NullActivation
node 8 1 1 1 NullActivation
node 9 1 1 1 NullActivation
node 10 1 1 1 NullActivation
node 11 1 1 1 NullActivation
node 12 1 1 1 NullActivation
node 13 1 1 1 NullActivation
node 14 1 1 1 NullActivation
node 15 1 1 1 NullActivation
node 16 1 1 1 NullActivation
node 17 1 1 1 NullActivation
node 18 1 1 1 NullActivation
node 19 1 1 1 NullActivation
node 20 1 1 1 NullActivation
node 21 1 1 1 NullActivation
node 22 1 1 1 NullActivation
node 23 1 1 1 NullActivation
node 24 1 1 1 NullActivation
node 25 1 1 1 NullActivation
node 26 1 1 1 NullActivation
node 27 1 1 1 NullActivation
node 28 1 1 1 NullActivation
node 29 1 1 1 NullActivation
node 30 1 1 1 NullActivation
node 31 1 1 1 NullActivation
node 32 1 1 1 NullActivation
node 33 1 1 1 NullActivation
node 34 1 1 1 NullActivation
node 35 1 1 1 NullActivation
node 36 1 1 1 NullActivation
node 37 1 1 1 NullActivation
node 38 1 1 1 NullActivation
node 39 1 1 1 NullActivation
node 40 1 1 1 NullActivation
node 41 1 1 1 NullActivation
node 42 1 1 1 NullActivation
node 43 1 1 1 NullActivation
node 44 1 1 1 NullActivation
node 45 1 1 1 NullActivation
node 46 1 1 1 NullActivation
node 47 1 1 1 NullActivation
node 48 1 1 1 NullActivation
node 49 1 1 1 NullActivation
node 50 1 1 1 NullActivation
node 51 1 1 1 NullActivation
node 52 1 1 1 NullActivation
node 53 1 1 1 NullActivation
node 54 1 1 1 NullActivation
node 55 1 1 1 NullActivation
node 56 1 0 2 SigmoidBipolarActivation
node 66 1 0 0 SigmoidSteepenedActivation
node 135 1 0 0 SigmoidSteepenedActivation
gene 1 1 56 -1.2162469467241288 false 1 -1.2162469467241288 true
gene 5 49 56 12.376979191868843 false 24 12.376979191868843 true
gene 3 14 56 7.990074495431687 false 78 7.990074495431687 true
gene 9 55 56 15.918070971474533 false 127 15.918070971474533 true
gene 1 34 56 -7.414044690777943 false 177 -7.414044690777943 true
gene 10 45 56 -3.1561256207251858 false 254 -3.1561256207251858 true
gene 5 49 66 -2.55090307617278 false 311 -2.55090307617278 true
gene 5 66 56 0.2138119688827387 false 312 0.2138119688827387 true
gene 2 17 56 0.07459624916656254 false 485 0.07459624916656254 true
gene 3 17 66 4.15213501778052 false 504 4.15213501778052 true
gene 11 47 56 -4.219840113503878 false 640 -4.219840113503878 true
gene 8 7 56 -2.8351305452222846 false 785 -2.8351305452222846 true
gene 10 7 66 2.884696008299556 false 812 2.884696008299556 true
gene 12 20 56 5.836217763116608 false 1172 5.836217763116608 true
gene 3 20 66 0.16945726745660106 false 1173 0.16945726745660106 true
gene 15 24 56 11.764383647670035 false 1207 11.764383647670035 true
gene 3 20 135 0.2077611019723341 false 1643 0.2077611019723341 true
gene 3 135 66 -2.695437467839487 false 1644 -2.695437467839487 true
gene 9 25 56 1.1021637401298094 false 1872 1.1021637401298094 true
gene 7 25 66 1.2075753389983066 false 1873 1.2075753389983066 true
gene 4 25 135 -2.3769423722402427 false 1874 -2.3769423722402427 true
gene 13 16 135 0.04624008421702179 false 2192 0.04624008421702179 true
genomeend 13
/* Organism #12 Fitness: 1.000 Error: 0.000 */
genomestart 12
trait 1 0.1 0 0 0 0 0 0 0
trait 2 0.2 0 0 0 0 0 0 0
trait 3 0.3 0 0 0 0 0 0 0
trait 4 0.4 0 0 0 0 0 0 0
trait 5 0.5 0 0 0 0 0 0 0
trait 6 0.6 0 0 0 0 0 0 0
trait 7 0.7 0 0 0 0 0 0 0
trait 8 0.8 0 0 0 0 0 0 0
trait 9 0.9 0 0 0 0 0 0 0
trait 10 1 0 0 0 0 0 0 0
trait 11 1.1 0 0 0 0 0 0 0
trait 12 1.2 0 0 0 0 0 0 0
trait 13 2.196289212706267 0 0.30660379912574004 0 0 0 0 0.696894357477172
trait 14 1.4 0 0 0 0 0 0 0
trait 15 1.5 0 0 0 0 0 0 0
node 1 1 1 3 NullActivation
node 2 1 1 1 NullActivation
node 3 1 1 1 NullActivation
node 4 1 1 1 NullActivation
node 5 1 1 1 NullActivation
node 6 1 1 1 NullActivation
node 7 1 1 1 NullActivation
node 8 1 1 1 NullActivation
node 9 1 1 1 NullActivation
node 10 1 1 1 NullActivation
node 11 1 1 1 NullActivation
node 12 1 1 1 NullActivation
node 13 1 1 1 NullActivation
node 14 1 1 1 NullActivation
node 15 1 1 1 NullActivation
node 16 1 1 1 NullActivation
node 17 1 1 1 NullActivation
node 18 1 1 1 NullActivation
node 19 1 1 1 NullActivation
node 20 1 1 1 NullActivation
node 21 1 1 1 NullActivation
node 22 1 1 1 NullActivation
node 23 1 1 1 NullActivation
node 24 1 1 1 NullActivation
node 25 1 1 1 NullActivation
node 26 1 1 1 NullActivation
node 27 1 1 1 NullActivation
node 28 1 1 1 NullActivation
node 29 1 1 1 NullActivation
node 30 1 1 1 NullActivation
node 31 1 1 1 NullActivation
node 32 1 1 1 NullActivation
node 33 1 1 1 NullActivation
node 34 1 1 1 NullActivation
node 35 1 1 1 NullActivation
node 36 1 1 1 NullActivation
node 37 1 1 1 NullActivation
node 38 1 1 1 NullActivation
node 39 1 1 1 NullActivation
node 40 1 1 1 NullActivation
node 41 1 1 1 NullActivation
node 42 1 1 1 NullActivation
node 43 1 1 1 NullActivation
node 44 1 1 1 NullActivation
node 45 1 1 1 NullActivation
node 46 1 1 1 NullActivation
node 47 1 1 1 NullActivation
node 48 1 1 1 NullActivation
node 49 1 1 1 NullActivation
node 50 1 1 1 NullActivation
node 51 1 1 1 NullActivation
node 52 1 1 1 NullActivation
node 53 1 1 1 NullActivation
node 54 1 1 1 NullActivation
node 55 1 1 1 NullActivation
node 56 1 0 2 SigmoidBipolarActivation
node 66 1 0 0 SigmoidSteepenedActivation
node 135 1 0 0 SigmoidSteepenedActivation
gene 1 1 56 -0.6880368951639299 false 1 -0.6880368951639299 true
gene 5 49 56 10.29201550776646 false 24 10.29201550776646 true
gene 3 14 56 6.056751396074966 false 78 6.056751396074966 true
gene 9 55 56 15.00484381974318 false 127 15.00484381974318 true
gene 1 34 56 -8.054158494018084 false 177 -8.054158494018084 true
gene 10 45 56 -4.0465174080181825 false 254 -4.0465174080181825 true
gene 5 49 66 -0.155515361122617 false 311 -0.155515361122617 true
gene 5 66 56 1.1675978531696056 false 312 1.1675978531696056 true
gene 2 17 56 -0.3333187716317538 false 485 -0.3333187716317538 true
gene 3 17 66 2.8559686669727897 false 504 2.8559686669727897 true
gene 11 47 56 -3.376343113370459 false 640 -3.376343113370459 true
gene 8 7 56 -3.4518140243581654 false 785 -3.4518140243581654 true
gene 10 7 66 3.7574528668145777 false 812 3.7574528668145777 true
gene 12 20 56 8.247572386443604 false 1172 8.247572386443604 true
gene 3 20 66 -1.5943081274568005 false 1173 -1.5943081274568005 true
gene 15 24 56 13.774646289465466 false 1207 13.774646289465466 true
gene 3 20 135 -1.751738671304849 false 1643 -1.751738671304849 true
gene 3 135 66 -3.433340915387508 false 1644 -3.433340915387508 true
gene 9 25 56 1.1021637401298094 false 1872 1.1021637401298094 true
gene 7 25 66 0.709669935738438 false 1873 0.709669935738438 true
gene 4 25 135 -4.800327541742872 false 1874 -4.800327541742872 true
gene 13 16 135 2.420083126368147 false 2192 2.420083126368147 true
genomeend 12
/* Species #407 : (Size 2) (AF 2.000) (Age 6)  */
/* Organism #15 Fitness: 2.000 Error: 0.000 */
genomestart 15
trait 1 0.1 0 0 0 0 0 0 0
trait 2 0.2 0 0 0 0 0 0 0
trait 3 0.3 0 0 0 0 0 0 0
trait 4 0.4 0 0 0 0 0 0 0
trait 5 1.2695376922543669 0 0 0 0 0.5786325691076052 0 0.637919079016697
trait 6 0.6 0 0 0 0 0 0 0
trait 7 0.7 0 0 0 0 0 0 0
trait 8 0.8 0 0 0 0 0 0 0
trait 9 0.9 0 0 0 0 0 0 0
trait 10 1 0 0 0 0 0 0 0
trait 11 1.1 0 0 0 0 0 0 0
trait 12 1.2 0 0 0 0 0 0 0
trait 13 1.3 0 0 0 0 0 0 0
trait 14 1.4 0 0 0 0 0 0 0
trait 15 1.5 0 0 0 0 0 0 0
node 1 1 1 3 NullActivation
node 2 1 1 1 NullActivation
node 3 1 1 1 NullActivation
node 4 1 1 1 NullActivation
node 5 1 1 1 NullActivation
node 6 1 1 1 NullActivation
node 7 1 1 1 NullActivation
node 8 1 1 1 NullActivation
node 9 1 1 1 NullActivation
node 10 1 1 1 NullActivation
node 11 1 1 1 NullActivation
node 12 1 1 1 NullActivation
node 13 1 1 1 NullActivation
node 14 1 1 1 NullActivation
node 15 1 1 1 NullActivation
node 16 1 1 1 NullActivation
node 17 1 1 1 NullActivation
node 18 1 1 1 NullActivation
node 19 1 1 1 NullActivation
node 20 1 1 1 NullActivation
node 21 1 1 1 NullActivation
node 22 1 1 1 NullActivation
node 23 1 1 1 NullActivation
node 24 1 1 1 NullActivation
node 25 1 1 1 NullActivation
node 26 1 1 1 NullActivation
node 27 1 1 1 NullActivation
node 28 1 1 1 NullActivation
node 29 1 1 1 NullActivation
node 30 1 1 1 NullActivation
node 31 1 1 1 NullActivation
node 32 1 1 1 NullActivation
node 33 1 1 1 NullActivation
node 34 1 1 1 NullActivation
node 35 1 1 1 NullActivation
node 36 1 1 1 NullActivation
node 37 1 1 1 NullActivation
node 38 1 1 1 NullActivation
node 39 1 1 1 NullActivation
node 40 1 1 1 NullActivation
node 41 1 1 1 NullActivation
node 42 1 1 1 NullActivation
node 43 1 1 1 NullActivation
node 44 1 1 1 NullActivation
node 45 1 1 1 NullActivation
node 46 1 1 1 NullActivation
node 47 1 1 1 NullActivation
node 48 1 1 1 NullActivation
node 49 1 1 1 NullActivation
node 50 1 1 1 NullActivation
node 51 1 1 1 NullActivation
node 52 1 1 1 NullActivation
node 53 1 1 1 NullActivation
node 54 1 1 1 NullActivation
node 55 1 1 1 NullActivation
node 56 1 0 2 SigmoidBipolarActivation
node 62 1 0 0 SigmoidSteepenedActivation
node 86 1 0 0 SigmoidSteepenedActivation
node 177 1 0 0 SigmoidSteepenedActivation
gene 1 1 56 1.4189853728610449 false 1 1.4189853728610449 true
gene 3 23 56 -2.176516665490563 false 12 -2.176516665490563 true
gene 6 47 56 2.1706511764327496 false 68 2.1706511764327496 true
gene 11 48 56 -2.5061157042966347 false 146 -2.5061157042966347 true
gene 11 48 62 0.19270441702932717 false 236 0.19270441702932717 true
gene 11 62 56 4.1683122058466475 false 237 4.1683122058466475 true
gene 5 38 62 -8.219422925843096 false 391 -8.219422925843096 true
gene 6 47 86 2.080255919063179 false 692 2.080255919063179 true
gene 6 86 56 -4.189009773541397 false 693 -4.189009773541397 true
gene 8 7 56 -9.227170678853664 false 785 -9.227170678853664 true
gene 5 7 62 1.036225569209529 false 786 1.036225569209529 true
gene 4 7 86 -4.429455219632087 false 787 -4.429455219632087 true
gene 9 34 56 12.714525648314563 false 935 12.714525648314563 true
gene 11 34 62 4.142285162420747 false 936 4.142285162420747 true
gene 4 34 86 -0.8043446102819454 false 937 -0.8043446102819454 true
gene 13 12 56 -0.2492364619058779 false 944 -0.2492364619058779 true
gene 14 12 62 -4.374569134628966 false 945 -4.374569134628966 true
gene 14 12 86 11.325019787549596 false 946 11.325019787549596 true
gene 11 51 56 -2.1949127323719435 false 1110 -2.1949127323719435 true
gene 7 51 62 -6.138324763042069 false 1189 -6.138324763042069 true
gene 11 51 86 10.717174282988658 false 1190 10.717174282988658 true
gene 4 45 56 12.045090655466344 false 1214 12.045090655466344 true
gene 11 45 62 -1.3453447859152876 false 1215 -1.3453447859152876 true
gene 4 45 86 -8.715135577400867 false 1216 -8.715135577400867 true
gene 7 50 56 -3.586343682516132 false 1365 -3.586343682516132 true
gene 8 50 62 6.308896237304678 false 1464 6.308896237304678 true
gene 6 50 86 -0.8043305028311208 false 1465 -0.8043305028311208 true
gene 3 49 86 9.09763401893457 false 1648 9.09763401893457 true
gene 11 2 56 -1.658184459528986 false 1699 -1.658184459528986 true
gene 10 2 62 -0.183749361433589 false 1700 -0.183749361433589 true
gene 5 2 86 2.808780615197956 false 1701 2.808780615197956 true
gene 5 26 56 3.0798379736175368 false 1986 3.0798379736175368 true
gene 7 26 62 3.031517542273132 false 1987 3.031517542273132 true
gene 13 26 86 2.146347998411379 false 1988 2.146347998411379 true
gene 6 86 177 1.792303808204445 false 2657 1.792303808204445 true
gene 6 177 56 -3.543314053999092 false 2658 -3.543314053999092 true
genomeend 15
/* Organism #14 Fitness: 2.000 Error: 0.000 */
genomestart 14
trait 1 0.1 0 0 0 0 0 0 0
trait 2 0.2 0 0 0 0 0 0 0
trait 3 0.3 0 0 0 0 0 0 0
trait 4 0.4 0 0 0 0 0 0 0
trait 5 1.2695376922543669 0 0 0 0 0.5786325691076052 0 0.637919079016697
trait 6 0.6 0 0 0 0 0 0 0
trait 7 0.7 0 0 0 0 0 0 0
trait 8 0.8 0 0 0 0 0 0 0
trait 9 0.9 0 0 0 0 0 0 0
trait 10 1 0 0 0 0 0 0 0
trait 11 1.1 0 0 0 0 0 0 0
trait 12 1.2 0 0 0 0 0 0 0
trait 13 1.3 0 0 0 0 0 0 0
trait 14 1.4 0 0 0 0 0 0 0
trait 15 1.5 0 0 0 0 0 0 0
node 1 1 1 3 NullActivation
node 2 1 1 1 NullActivation
node 3 1 1 1 NullActivation
node 4 1 1 1 NullActivation
node 5 1 1 1 NullActivation
node 6 1 1 1 NullActivation
node 7 1 1 1 NullActivation
node 8 1 1 1 NullActivation
node 9 1 1 1 NullActivation
node 10 1 1 1 NullActivation
node 11 1 1 1 NullActivation
node 12 1 1 1 NullActivation
node 13 1 1 1 NullActivation
node 14 1 1 1 NullActivation
node 15 1 1 1 NullActivation
node 16 1 1 1 NullActivation
node 17 1 1 1 NullActivation
node 18 1 1 1 NullActivation
node 19 1 1 1 NullActivation
node 20 1 1 1 NullActivation
node 21 1 1 1 NullActivation
node 22 1 1 1 NullActivation
node 23 1 1 1 NullActivation
node 24 1 1 1 NullActivation
node 25 1 1 1 NullActivation
node 26 1 1 1 NullActivation
node 27 1 1 1 NullActivation
node 28 1 1 1 NullActivation
node 29 1 1 1 NullActivation
node 30 1 1 1 NullActivation
node 31 1 1 1 NullActivation
node 32 1 1 1 NullActivation
node 33 1 1 1 NullActivation
node 34 1 1 1 NullActivation
node 35 1 1 1 NullActivation
node 36 1 1 1 NullActivation
node 37 1 1 1 NullActivation
node 38 1 1 1 NullActivation
node 39 1 1 1 NullActivation
node 40 1 1 1 NullActivation
node 41 1 1 1 NullActivation
node 42 1 1 1 NullActivation
node 43 1 1 1 NullActivation
node 44 1 1 1 NullActivation
node 45 1 1 1 NullActivation
node 46 1 1 1 NullActivation
node 47 1 1 1 NullActivation
node 48 1 1 1 NullActivation
node 49 1 1 1 NullActivation
node 50 1 1 1 NullActivation
node 51 1 1 1 NullActivation
node 52 1 1 1 NullActivation
node 53 1 1 1 NullActivation
node 54 1 1 1 NullActivation
node 55 1 1 1 NullActivation
node 56 1 0 2 SigmoidBipolarActivation
node 62 1 0 0 SigmoidSteepenedActivation
node 86 1 0 0 SigmoidSteepenedActivation
node 177 1 0 0 SigmoidSteepenedActivation
gene 1 1 56 1.0879816411536294 false 1 1.0879816411536294 true
gene 3 23 56 -3.015975413080283 false 12 -3.015975413080283 true
gene 6 47 56 4.550047264481592 false 68 4.550047264481592 true
gene 11 48 56 2.0962816356273737 false 146 2.0962816356273737 true
gene 11 48 62 1.0989132794632877 false 236 1.0989132794632877 true
gene 11 62 56 3.731191138842147 false 237 3.731191138842147 true
gene 5 38 62 -8.369431468905448 false 391 -8.369431468905448 true
gene 6 47 86 1.7136802276724559 false 692 1.7136802276724559 true
gene 6 86 56 -3.5104250205785994 false 693 -3.5104250205785994 true
gene 8 7 56 -7.295136516283701 false 785 -7.295136516283701 true
gene 5 7 62 2.1474625820161117 false 786 2.1474625820161117 true
gene 4 7 86 -2.1748685930611242 false 787 -2.1748685930611242 true
gene 9 34 56 8.623342158372994 false 935 8.623342158372994 true
gene 11 34 62 5.546104268107543 false 936 5.546104268107543 true
gene 4 34 86 -1.6326958501284927 false 937 -1.6326958501284927 true
gene 13 12 56 -0.20838068053141223 false 944 -0.20838068053141223 true
gene 14 12 62 -6.382286556436284 false 945 -6.382286556436284 true
gene 14 12 86 11.230779785034894 false 946 11.230779785034894 true
gene 11 51 56 0.44600554292450656 false 1110 0.44600554292450656 true
gene 7 51 62 -7.284087894655462 false 1189 -7.284087894655462 true
gene 11 51 86 8.413811918801997 false 1190 8.413811918801997 true
gene 4 45 56 10.940641856611395 false 1214 10.940641856611395 true
gene 11 45 62 -7.649470816334017 false 1215 -7.649470816334017 true
gene 4 45 86 -5.287079573853392 false 1216 -5.287079573853392 true
gene 7 50 56 -2.8420144799530354 false 1365 -2.8420144799530354 true
gene 8 50 62 2.8456224015599454 false 1464 2.8456224015599454 true
gene 6 50 86 -0.5651477646302832 false 1465 -0.5651477646302832 true
gene 3 49 86 9.186946850258279 false 1648 9.186946850258279 true
gene 11 2 56 0.20732845031150282 false 1699 0.20732845031150282 true
gene 10 2 62 -2.0900566261323186 false 1700 -2.0900566261323186 true
gene 5 2 86 3.259283185182516 false 1701 3.259283185182516 true
gene 2 26 56 3.992174418780356 false 1986 3.992174418780356 true
gene 7 26 62 1.7927043434578258 false 1987 1.7927043434578258 true
gene 13 26 86 2.843625817975262 false 1988 2.843625817975262 true
gene 6 86 177 1.792303808204445 false 2657 1.792303808204445 true
gene 6 177 56 -1.8489464353990575 false 2658 -1.8489464353990575 true
genomeend 14
/* Species #414 : (Size 2) (AF 1.500) (Age 6)  */
/* Organism #17 Fitness: 3.000 Error: 0.000 */
genomestart 17
trait 1 0.1 0 0 0 0 0 0 0
trait 2 0.2 0 0 0 0 0 0 0
trait 3 0.3 0 0 0 0 0 0 0
trait 4 0.4 0 0 0 0 0 0 0
trait 5 1.2695376922543669 0 0 0 0 0.5786325691076052 0 0.637919079016697
trait 6 0.6 0 0 0 0 0 0 0
trait 7 0.7 0 0 0 0 0 0 0
trait 8 0.8 0 0 0 0 0 0 0
trait 9 0.9 0 0 0 0 0 0 0
trait 10 1 0 0 0 0 0 0 0
trait 11 1.1 0 0 0 0 0 0 0
trait 12 1.2 0 0 0 0 0 0 0
trait 13 1.3 0 0 0 0 0 0 0
trait 14 1.4 0 0 0 0 0 0 0
trait 15 1.5 0 0 0 0 0 0 0
node 1 1 1 3 NullActivation
node 2 1 1 1 NullActivation
node 3 1 1 1 NullActivation
node 4 1 1 1 NullActivation
node 5 1 1 1 NullActivation
node 6 1 1 1 NullActivation
node 7 1 1 1 NullActivation
node 8 1 1 1 NullActivation
node 9 1 1 1 NullActivation
node 10 1 1 1 NullActivation
node 11 1 1 1 NullActivation
node 12 1 1 1 NullActivation
node 13 1 1 1 NullActivation
node 14 1 1 1 NullActivation
node 15 1 1 1 NullActivation
node 16 1 1 1 NullActivation
node 17 1 1 1 NullActivation
node 18 1 1 1 NullActivation
node 19 1 1 1 NullActivation
node 20 11 1 1 NullActivation
node 21 1 1 1 NullActivation
node 22 1 1 1 NullActivation
node 23 1 1 1 NullActivation
node 24 1 1 1 NullActivation
node 25 1 1 1 NullActivation
node 26 1 1 1 NullActivation
node 27 1 1 1 NullActivation
node 28 1 1 1 NullActivation
node 29 1 1 1 NullActivation
node 30 1 1 1 NullActivation
node 31 1 1 1 NullActivation
node 32 1 1 1 NullActivation
node 33 1 1 1 NullActivation
node 34 1 1 1 NullActivation
node 35 1 1 1 NullActivation
node 36 1 1 1 NullActivation
node 37 1 1 1 NullActivation
node 38 1 1 1 NullActivation
node 39 1 1 1 NullActivation
node 40 1 1 1 NullActivation
node 41 1 1 1 NullActivation
node 42 1 1 1 NullActivation
node 43 1 1 1 NullActivation
node 44 1 1 1 NullActivation
node 45 1 1 1 NullActivation
node 46 1 1 1 NullActivation
node 47 1 1 1 NullActivation
node 48 1 1 1 NullActivation
node 49 1 1 1 NullActivation
node 50 1 1 1 NullActivation
node 51 1 1 1 NullActivation
node 52 1 1 1 NullActivation
node 53 1 1 1 NullActivation
node 54 1 1 1 NullActivation
node 55 1 1 1 NullActivation
node 56 1 0 2 SigmoidBipolarActivation
node 62 1 0 0 SigmoidSteepenedActivation
node 86 1 0 0 SigmoidSteepenedActivation
gene 1 1 56 1.3145580186636918 false 1 1.3145580186636918 true
gene 3 23 56 -6.231211975468317 false 12 -6.231211975468317 true
gene 6 47 56 -0.8298829768103784 false 68 -0.8298829768103784 true
gene 11 48 56 -1.4511340958135535 false 146 -1.4511340958135535 true
gene 11 48 62 -0.056056905635009965 false 236 -0.056056905635009965 true
gene 11 62 56 3.2760046985135567 false 237 3.2760046985135567 true
gene 5 38 62 0.4985450732944944 false 391 0.4985450732944944 true
gene 6 47 86 0.48512147368303027 false 692 0.48512147368303027 true
gene 6 86 56 -2.7871154760182746 false 693 -2.7871154760182746 true
gene 8 7 56 0.9081053564988089 false 785 0.9081053564988089 true
gene 5 7 62 -0.9060360558865765 false 786 -0.9060360558865765 true
gene 4 7 86 1.9101066614173527 false 787 1.9101066614173527 true
gene 9 34 56 9.037331700350846 false 935 9.037331700350846 true
gene 11 34 62 -1.1517728446100177 false 936 -1.1517728446100177 true
gene 4 34 86 4.234248913607381 false 937 4.234248913607381 true
gene 14 52 56 -0.11120959891409396 false 975 -0.11120959891409396 true
gene 4 52 62 1.4781608695005828 false 976 1.4781608695005828 true
gene 12 52 86 0.28642429104648714 false 977 0.28642429104648714 true
gene 9 18 56 -5.981525570978329 false 1126 -5.981525570978329 true
gene 14 18 62 -5.505250325406161 false 1159 -5.505250325406161 true
gene 2 18 86 0.09135992044574436 false 1160 0.09135992044574436 true
gene 3 29 56 -7.05099328615218 false 1245 -7.05099328615218 true
gene 1 29 62 0.21220930853870845 false 1320 0.21220930853870845 true
gene 1 29 86 -4.822246211449951 false 1321 -4.822246211449951 true
gene 13 31 56 -9.950723329010698 false 1705 -9.950723329010698 true
gene 13 41 56 0.5521136186607305 false 2018 0.5521136186607305 true
gene 8 41 62 3.7352849836977557 false 2019 3.7352849836977557 true
gene 12 41 86 -2.4351107621630836 false 2020 -2.4351107621630836 true
gene 4 27 62 -1.5550180360403294 false 2218 -1.5550180360403294 true
gene 14 24 56 -2.627524542466928 false 2956 -2.627524542466928 true
genomeend 17
/* Organism #16 Fitness: 0.000 Error: 0.000 */
genomestart 16
trait 1 0.1 0 0 0 0 0 0 0
trait 2 0.2 0 0 0 0 0 0 0
trait 3 0.3 0 0 0 0 0 0 0
trait 4 0.4 0 0 0 0 0 0 0
trait 5 1.2695376922543669 0 0 0 0 0.5786325691076052 0 0.637919079016697
trait 6 0.6 0 0 0 0 0 0 0
trait 7 0.7 0 0 0 0 0 0 0
trait 8 0.8 0 0 0 0 0 0 0
trait 9 0.9 0 0 0 0 0 0 0
trait 10 0.07966043265743483 0 0 0 0 0 0.5506968113054314 0
trait 11 1.1 0 0 0 0 0 0 0
trait 12 1.2 0 0 0 0 0 0 0
trait 13 1.3 0 0 0 0 0 0 0
trait 14 1.4 0 0 0 0 0 0 0
trait 15 1.5 0 0 0 0 0 0 0
node 1 1 1 3 NullActivation
node 2 1 1 1 NullActivation
node 3 1 1 1 NullActivation
node 4 1 1 1 NullActivation
node 5 1 1 1 NullActivation
node 6 1 1 1 NullActivation
node 7 1 1 1 NullActivation
node 8 1 1 1 NullActivation
node 9 1 1 1 NullActivation
node 10 1 1 1 NullActivation
node 11 1 1 1 NullActivation
node 12 1 1 1 NullActivation
node 13 1 1 1 NullActivation
node 14 1 1 1 NullActivation
node 15 1 1 1 NullActivation
node 16 1 1 1 NullActivation
node 17 1 1 1 NullActivation
node 18 1 1 1 NullActivation
node 19 1 1 1 NullActivation
node 20 11 1 1 NullActivation
node 21 1 1 1 NullActivation
node 22 1 1 1 NullActivation
node 23 1 1 1 NullActivation
node 24 1 1 1 NullActivation
node 25 1 1 1 NullActivation
node 26 1 1 1 NullActivation
node 27 1 1 1 NullActivation
node 28 1 1 1 NullActivation
node 29 1 1 1 NullActivation
node 30 1 1 1 NullActivation
node 31 1 1 1 NullActivation
node 32 1 1 1 NullActivation
node 33 1 1 1 NullActivation
node 34 1 1 1 NullActivation
node 35 1 1 1 NullActivation
node 36 1 1 1 NullActivation
node 37 1 1 1 NullActivation
node 38 1 1 1 NullActivation
node 39 1 1 1 NullActivation
node 40 1 1 1 NullActivation
node 41 1 1 1 NullActivation
node 42 1 1 1 NullActivation
node 43 1 1 1 NullActivation
node 44 1 1 1 NullActivation
node 45 1 1 1 NullActivation
node 46 1 1 1 NullActivation
node 47 1 1 1 NullActivation
node 48 1 1 1 NullActivation
node 49 1 1 1 NullActivation
node 50 1 1 1 NullActivation
node 51 1 1 1 NullActivation
node 52 1 1 1 NullActivation
node 53 1 1 1 NullActivation
node 54 1 1 1 NullActivation
node 55 1 1 1 NullActivation
node 56 1 0 2 SigmoidBipolarActivation
node 62 1 0 0 SigmoidSteepenedActivation
node 86 1 0 0 SigmoidSteepenedActivation
gene 1 1 56 3.471657589386008 false 1 3.471657589386008 true
gene 3 23 56 -8.410758445147657 false 12 -8.410758445147657 true
gene 6 47 56 -0.2842218638440741 false 68 -0.2842218638440741 true
gene 11 48 56 -2.4276510742492565 false 146 -2.4276510742492565 true
gene 11 48 62 -1.7227598544267793 false 236 -1.7227598544267793 true
gene 11 62 56 1.549981160827724 false 237 1.549981160827724 true
gene 5 38 62 1.5277322871737409 false 391 1.5277322871737409 true
gene 6 47 86 -1.5889162914294899 false 692 -1.5889162914294899 true
gene 6 86 56 -2.7871154760182746 false 693 -2.7871154760182746 true
gene 8 7 56 -0.3948691338040451 false 785 -0.3948691338040451 true
gene 5 7 62 -1.4759931250987144 false 786 -1.4759931250987144 true
gene 4 7 86 -1.0099416357662947 false 787 -1.0099416357662947 true
gene 9 34 56 -1.0203783550396792 false 935 -1.0203783550396792 true
gene 11 34 62 -1.1517728446100177 false 936 -1.1517728446100177 true
gene 4 34 86 6.721048592515746 false 937 6.721048592515746 true
gene 14 52 56 2.095125523708713 false 975 2.095125523708713 true
gene 4 52 62 1.0988508992431691 false 976 1.0988508992431691 true
gene 12 52 86 -1.8113729894094277 false 977 -1.8113729894094277 true
gene 9 18 56 0.07070480511213734 false 1126 0.07070480511213734 true
gene 14 18 62 -3.3378058520139366 false 1159 -3.3378058520139366 true
gene 2 18 86 0.3581122997146239 false 1160 0.3581122997146239 true
gene 3 29 56 -7.684489165493684 false 1245 -7.684489165493684 true
gene 1 29 62 2.4887846745739006 false 1320 2.4887846745739006 true
gene 1 29 86 2.231351877593059 false 1321 2.231351877593059 true
gene 13 31 56 -8.969519509332686 false 1705 -8.969519509332686 true
gene 13 41 56 0.6306827401025262 false 2018 0.6306827401025262 true
gene 8 41 62 2.2581520100687924 false 2019 2.2581520100687924 true
gene 12 41 86 -2.3404707115344046 false 2020 -2.3404707115344046 true
gene 4 27 62 -0.8300134404520904 false 2218 -0.8300134404520904 true
genomeend 16
/* Species #443 : (Size 1) (AF 1.000) (Age 6)  */
/* Organism #18 Fitness: 1.000 Error: 0.000 */
genomestart 18
trait 1 0.1 0 0 0 0 0 0 0
trait 2 0.2 0 0 0 0 0 0 0
trait 3 0.3 0 0 0 0 0 0 0
trait 4 0.4 0 0 0 0 0 0 0
trait 5 1.2695376922543669 0 0 0 0 0.5786325691076052 0 0.637919079016697
trait 6 0.6 0 0 0 0 0 0 0
trait 7 0.7 0 0 0 0 0 0 0
trait 8 0.8 0 0 0 0 0 0 0
trait 9 0.9 0 0 0 0 0 0 0
trait 10 1 0 0 0 0 0 0 0
trait 11 1.1 0 0 0 0 0 0 0
trait 12 1.2 0 0 0 0 0 0 0
trait 13 1.3 0 0 0 0 0 0 0
trait 14 1.4 0 0 0 0 0 0 0
trait 15 1.5 0 0 0 0 0 0 0
node 1 1 1 3 NullActivation
node 2 1 1 1 NullActivation
node 3 1 1 1 NullActivation
node 4 1 1 1 NullActivation
node 5 1 1 1 NullActivation
node 6 1 1 1 NullActivation
node 7 1 1 1 NullActivation
node 8 1 1 1 NullActivation
node 9 1 1 1 NullActivation
node 10 1 1 1 NullActivation
node 11 1 1 1 NullActivation
node 12 1 1 1 NullActivation
node 13 1 1 1 NullActivation
node 14 1 1 1 NullActivation
node 15 1 1 1 NullActivation
node 16 1 1 1 NullActivation
node 17 1 1 1 NullActivation
node 18 1 1 1 NullActivation
node 19 1 1 1 NullActivation
node 20 1 1 1 NullActivation
node 21 1 1 1 NullActivation
node 22 1 1 1 NullActivation
node 23 4 1 1 NullActivation
node 24 1 1 1 NullActivation
node 25 1 1 1 NullActivation
node 26 1 1 1 NullActivation
node 27 1 1 1 NullActivation
node 28 1 1 1 NullActivation
node 29 1 1 1 NullActivation
node 30 1 1 1 NullActivation
node 31 1 1 1 NullActivation
node 32 1 1 1 NullActivation
node 33 1 1 1 NullActivation
node 34 1 1 1 NullActivation
node 35 1 1 1 NullActivation
node 36 1 1 1 NullActivation
node 37 1 1 1 NullActivation
node 38 1 1 1 NullActivation
node 39 1 1 1 NullActivation
node 40 1 1 1 NullActivation
node 41 1 1 1 NullActivation
node 42 1 1 1 NullActivation
node 43 1 1 1 NullActivation
node 44 1 1 1 NullActivation
node 45 1 1 1 NullActivation
node 46 1 1 1 NullActivation
node 47 1 1 1 NullActivation
node 48 1 1 1 NullActivation
node 49 1 1 1 NullActivation
node 50 1 1 1 NullActivation
node 51 1 1 1 NullActivation
node 52 1 1 1 NullActivation
node 53 1 1 1 NullActivation
node 54 1 1 1 NullActivation
node 55 1 1 1 NullActivation
node 56 1 0 2 SigmoidBipolarActivation
node 62 1 0 0 SigmoidSteepenedActivation
node 86 1 0 0 SigmoidSteepenedActivation
node 192 1 0 0 SigmoidSteepenedActivation
gene 1 1 56 -0.34695219708372166 false 1 -0.34695219708372166 true
gene 3 23 56 -3.3425689504203397 false 12 -3.3425689504203397 true
gene 6 47 56 -0.7426828989263554 false 68 -0.7426828989263554 true
gene 11 48 56 -0.25388458110130635 false 146 -0.25388458110130635 false
gene 11 48 62 -3.643239938945048 false 236 -3.643239938945048 true
gene 11 62 56 1.2810751518970305 false 237 1.2810751518970305 true
gene 5 38 62 -7.8847379558043045 false 391 -7.8847379558043045 true
gene 12 47 86 1.5330604244135704 false 692 1.5330604244135704 true
gene 6 86 56 1.78689704578459 false 693 1.78689704578459 true
gene 8 7 56 2.3413926647056 false 785 2.3413926647056 true
gene 5 7 62 5.090445587697674 false 786 5.090445587697674 true
gene 4 7 86 0.17643964038102983 false 787 0.17643964038102983 true
gene 9 34 56 9.478982128137659 false 935 9.478982128137659 true
gene 11 34 62 1.4415633280590627 false 936 1.4415633280590627 true
gene 4 34 86 -2.2818510109282117 false 937 -2.2818510109282117 true
gene 15 4 56 9.849094340399896 false 1209 9.849094340399896 true
gene 8 4 62 -2.8779628224161393 false 1212 -2.8779628224161393 true
gene 3 4 86 2.46458261686369 false 1213 2.46458261686369 true
gene 4 29 56 -4.528901556323781 false 1419 -4.528901556323781 true
gene 7 29 62 0.6147422187241205 false 1420 0.6147422187241205 true
gene 12 29 86 -7.600469565927004 false 1421 -7.600469565927004 true
gene 1 33 56 -8.795551997300752 false 1581 -8.795551997300752 true
gene 4 33 62 10.174133877884143 false 1652 10.174133877884143 true
gene 9 33 86 -12.547511138529103 false 1653 -12.547511138529103 true
gene 2 8 56 -0.13060423104853394 false 1749 -0.13060423104853394 true
gene 2 8 62 0.49281151144927016 false 1750 0.49281151144927016 true
gene 6 8 86 -1.2406866447319387 false 1751 -1.2406866447319387 true
gene 10 18 56 1.0836972207847904 false 1976 1.0836972207847904 true
gene 12 18 62 0.8796019564615599 false 1977 0.8796019564615599 true
gene 14 18 86 0.5067898802995732 false 1978 0.5067898802995732 true
gene 4 35 62 -2.4880167511615574 false 2157 -2.4880167511615574 true
gene 11 48 192 1 false 2964 0 true
gene 11 192 56 -0.25388458110130635 false 2965 0 true
genomeend 18
/* Species #468 : (Size 1) (AF 1.000) (Age 5)  */
/* Organism #19 Fitness: 1.000 Error: 0.000 */
genomestart 19
trait 1 0.1 0 0 0 0 0 0 0
trait 2 0.2 0 0 0 0 0 0 0
trait 3 0.3 0 0 0 0 0 0 0
trait 4 0.4 0 0 0 0 0 0 0
trait 5 1.2695376922543669 0 0 0 0 0.5786325691076052 0 0.637919079016697
trait 6 0.6 0 0 0 0 0 0 0
trait 7 0.7 0 0 0 0 0 0 0
trait 8 0.8 0 0 0 0 0 0 0
trait 9 0.9 0 0 0 0 0 0 0
trait 10 1 0 0 0 0 0 0 0
trait 11 1.1 0 0 0 0 0 0 0
trait 12 1.2 0 0 0 0 0 0 0
trait 13 1.3 0 0 0 0 0 0 0
trait 14 1.4 0 0 0 0 0 0 0
trait 15 1.5 0 0 0 0 0 0 0
node 1 1 1 3 NullActivation
node 2 1 1 1 NullActivation
node 3 1 1 1 NullActivation
node 4 1 1 1 NullActivation
node 5 1 1 1 NullActivation
node 6 1 1 1 NullActivation
node 7 1 1 1 NullActivation
node 8 1 1 1 NullActivation
node 9 1 1 1 NullActivation
node 10 1 1 1 NullActivation
node 11 1 1 1 NullActivation
node 12 1 1 1 NullActivation
node 13 1 1 1 NullActivation
node 14 1 1 1 NullActivation
node 15 1 1 1 NullActivation
node 16 1 1 1 NullActivation
node 17 1 1 1 NullActivation
node 18 1 1 1 NullActivation
node 19 1 1 1 NullActivation
node 20 1 1 1 NullActivation
node 21 1 1 1 NullActivation
node 22 1 1 1 NullActivation
node 23 1 1 1 NullActivation
node 24 1 1 1 NullActivation
node 25 1 1 1 NullActivation
node 26 1 1 1 NullActivation
node 27 1 1 1 NullActivation
node 28 1 1 1 NullActivation
node 29 1 1 1 NullActivation
node 30 1 1 1 NullActivation
node 31 1 1 1 NullActivation
node 32 1 1 1 NullActivation
node 33 1 1 1 NullActivation
node 34 1 1 1 NullActivation
node 35 1 1 1 NullActivation
node 36 1 1 1 NullActivation
node 37 1 1 1 NullActivation
node 38 1 1 1 NullActivation
node 39 1 1 1 NullActivation
node 40 1 1 1 NullActivation
node 41 1 1 1 NullActivation
node 42 1 1 1 NullActivation
node 43 1 1 1 NullActivation
node 44 1 1 1 NullActivation
node 45 1 1 1 NullActivation
node 46 1 1 1 NullActivation
node 47 1 1 1 NullActivation
node 48 1 1 1 NullActivation
node 49 1 1 1 NullActivation
node 50 1 1 1 NullActivation
node 51 1 1 1 NullActivation
node 52 1 1 1 NullActivation
node 53 1 1 1 NullActivation
node 54 1 1 1 NullActivation
node 55 1 1 1 NullActivation
node 56 1 0 2 SigmoidBipolarActivation
node 62 1 0 0 SigmoidSteepenedActivation
node 86 1 0 0 SigmoidSteepenedActivation
gene 1 1 56 -4.212111950750131 false 1 -4.212111950750131 true
gene 3 23 56 -4.789015923015001 false 12 -4.789015923015001 true
gene 6 47 56 -1.1975906576516397 false 68 -1.1975906576516397 true
gene 11 48 56 -2.0919046987532566 false 146 -2.0919046987532566 true
gene 11 48 62 4.326032929538876 false 236 4.326032929538876 true
gene 11 62 56 -0.11656359502081304 false 237 -0.11656359502081304 true
gene 5 38 62 -1.2047934601558379 false 391 -1.2047934601558379 true
gene 6 47 86 -0.6147840987458191 false 692 -0.6147840987458191 true
gene 6 86 56 0.2219972228618856 false 693 0.2219972228618856 true
gene 8 7 56 -5.817538344183412 false 785 -5.817538344183412 true
gene 5 7 62 -1.6896075195560147 false 786 -1.6896075195560147 true
gene 4 7 86 -2.63591420785618 false 787 -2.63591420785618 true
gene 9 34 56 7.356537191436651 false 935 7.356537191436651 true
gene 11 34 62 2.1206869716509837 false 936 2.1206869716509837 true
gene 4 34 86 6.3921449917580135 false 937 6.3921449917580135 true
gene 14 52 56 5.200491263009871 false 975 5.200491263009871 true
gene 4 52 62 -6.797886490066474 false 976 -6.797886490066474 true
gene 12 52 86 -2.172819309017144 false 977 -2.172819309017144 true
gene 2 6 56 10.168200967883271 false 1082 10.168200967883271 true
gene 8 6 62 -6.366308715515528 false 1147 -6.366308715515528 true
gene 7 6 86 2.2566138039891674 false 1148 2.2566138039891674 true
gene 2 24 62 2.844926524771913 false 1317 2.844926524771913 true
gene 9 17 56 2.972585832699311 false 1466 2.972585832699311 true
gene 13 17 62 -3.277467674438121 false 1467 -3.277467674438121 true
gene 4 17 86 2.7728268731260375 false 1468 2.7728268731260375 true
gene 6 54 56 5.476923316353047 false 1508 5.476923316353047 true
gene 11 54 62 -4.691983029297303 false 1587 -4.691983029297303 true
gene 5 54 86 2.6284613414006106 false 1588 2.6284613414006106 true
gene 2 45 62 -8.947502784480992 false 1982 -8.947502784480992 true
gene 10 39 56 -0.6902629305415448 false 2083 -0.6902629305415448 true
gene 7 39 62 10.884742401719127 false 2084 10.884742401719127 true
gene 5 39 86 1.5124018190638258 false 2086 1.5124018190638258 true
gene 3 28 86 -7.704561234675759 false 2906 0 true
genomeend 19
/* Species #473 : (Size 1) (AF 1.000) (Age 5)  */
/* Organism #20 Fitness: 1.000 Error: 0.000 */
genomestart 20
trait 1 0.1 0 0 0 0 0 0 0
trait 2 0.2 0 0 0 0 0 0 0
trait 3 0.3 0 0 0 0 0 0 0
trait 4 0.4 0 0 0 0 0 0 0
trait 5 0.5 0 0 0 0 0 0 0
trait 6 0.6 0 0 0 0 0 0 0
trait 7 0.7 0 0 0 0 0 0 0
trait 8 0.8 0 0 0 0 0 0 0
trait 9 0.9 0 0 0 0 0 0 0
trait 10 1 0 0 0 0 0 0 0
trait 11 1.1 0 0 0 0 0 0 0
trait 12 1.2 0 0 0 0 0 0 0
trait 13 1.3 0 0 0 0 0 0 0
trait 14 1.4 0 0 0 0 0 0 0
trait 15 1.5 0 0 0 0 0 0 0
node 1 1 1 3 NullActivation
node 2 1 1 1 NullActivation
node 3 1 1 1 NullActivation
node 4 1 1 1 NullActivation
node 5 1 1 1 NullActivation
node 6 1 1 1 NullActivation
node 7 1 1 1 NullActivation
node 8 1 1 1 NullActivation
node 9 1 1 1 NullActivation
node 10 1 1 1 NullActivation
node 11 1 1 1 NullActivation
node 12 1 1 1 NullActivation
node 13 1 1 1 NullActivation
node 14 1 1 1 NullActivation
node 15 1 1 1 NullActivation
node 16 1 1 1 NullActivation
node 17 12 1 1 NullActivation
node 18 1 1 1 NullActivation
node 19 9 1 1 NullActivation
node 20 1 1 1 NullActivation
node 21 1 1 1 NullActivation
node 22 1 1 1 NullActivation
node 23 1 1 1 NullActivation
node 24 1 1 1 NullActivation
node 25 1 1 1 NullActivation
node 26 1 1 1 NullActivation
node 27 1 1 1 NullActivation
node 28 1 1 1 NullActivation
node 29 1 1 1 NullActivation
node 30 1 1 1 NullActivation
node 31 1 1 1 NullActivation
node 32 1 1 1 NullActivation
node 33 1 1 1 NullActivation
node 34 1 1 1 NullActivation
node 35 1 1 1 NullActivation
node 36 1 1 1 NullActivation
node 37 1 1 1 NullActivation
node 38 1 1 1 NullActivation
node 39 1 1 1 NullActivation
node 40 1 1 1 NullActivation
node 41 1 1 1 NullActivation
node 42 1 1 1 NullActivation
node 43 1 1 1 NullActivation
node 44 1 1 1 NullActivation
node 45 1 1 1 NullActivation
node 46 1 1 1 NullActivation
node 47 1 1 1 NullActivation
node 48 1 1 1 NullActivation
node 49 1 1 1 NullActivation
node 50 1 1 1 NullActivation
node 51 11 1 1 NullActivation
node 52 1 1 1 NullActivation
node 53 1 1 1 NullActivation
node 54 1 1 1 NullActivation
node 55 1 1 1 NullActivation
node 56 1 0 2 SigmoidBipolarActivation
node 66 1 0 0 SigmoidSteepenedActivation
node 126 1 0 0 SigmoidSteepenedActivation
node 172 1 0 0 SigmoidSteepenedActivation
gene 1 1 56 -1.0766709710663767 false 1 -1.0766709710663767 true
gene 5 49 56 9.042067971578676 false 24 9.042067971578676 true
gene 3 14 56 3.459630246181078 false 78 3.459630246181078 true
gene 9 55 56 10.28935110204343 false 127 10.28935110204343 true
gene 4 34 56 -3.201791288871219 false 177 -3.201791288871219 true
gene 10 45 56 2.307710554660666 false 254 2.307710554660666 true
gene 5 49 66 1.6902588527978413 false 311 1.6902588527978413 true
gene 5 66 56 15.511628377228991 false 312 15.511628377228991 true
gene 14 33 56 1.5404937805147525 false 1003 1.5404937805147525 true
gene 10 33 66 6.591316243436347 false 1004 6.591316243436347 true
gene 4 24 56 -3.4896395953828825 false 1067 -3.4896395953828825 true
gene 5 49 126 2.7537092401851586 false 1331 2.7537092401851586 true
gene 5 126 56 5.347575809791 false 1332 5.347575809791 true
gene 3 21 56 11.527366522347219 false 1396 11.527366522347219 true
gene 14 21 66 3.662582533540908 false 1397 3.662582533540908 true
gene 4 21 126 -3.2638387102979434 false 1455 -3.2638387102979434 true
gene 3 29 126 -0.4383289458833476 false 1606 -0.4383289458833476 true
gene 11 44 56 -7.29815308935851 false 1792 -7.29815308935851 true
gene 2 44 66 0.3653589588738242 false 1848 0.3653589588738242 true
gene 9 44 126 -1.1520520767955382 false 1849 -1.1520520767955382 true
gene 4 39 126 -2.557175300045183 false 2027 -2.557175300045183 true
gene 8 2 56 -7.2019836131989035 false 2102 -7.2019836131989035 true
gene 2 2 66 -7.8051677721905675 false 2103 -7.8051677721905675 true
gene 13 2 126 -4.62525942028837 false 2104 -4.62525942028837 true
gene 13 2 172 1.3240964068777936 false 2638 1.3240964068777936 true
gene 8 172 56 -9.395966978140256 false 2639 -9.395966978140256 true
genomeend 20
/* Species #494 : (Size 1) (AF 4.000) (Age 5)  */
/* Organism #21 Fitness: 4.000 Error: 0.000 */
genomestart 21
trait 1 0.1 0 0 0 0 0 0 0
trait 2 0.2 0 0 0 0 0 0 0
trait 3 0.3 0 0 0 0 0 0 0
trait 4 0.4 0 0 0 0 0 0 0
trait 5 1.2695376922543669 0 0 0 0 0.5786325691076052 0 0.637919079016697
trait 6 0.6 0 0 0 0 0 0 0
trait 7 0.7 0 0 0 0 0 0 0
trait 8 0.8 0 0 0 0 0 0 0
trait 9 0.9 0 0 0 0 0 0 0
trait 10 1 0 0 0 0 0 0 0
trait 11 1.1 0 0 0 0 0 0 0
trait 12 1.2 0 0 0 0 0 0 0
trait 13 1.3 0 0 0 0 0 0 0
trait 14 1.0601982055455905 0.042275112167392104 0.3732077956746535 0.8089555550422888 0.5431205897258841 0 0 0
trait 15 1.5 0 0 0 0 0 0 0
node 1 1 1 3 NullActivation
node 2 1 1 1 NullActivation
node 3 1 1 1 NullActivation
node 4 1 1 1 NullActivation
node 5 1 1 1 NullActivation
node 6 1 1 1 NullActivation
node 7 1 1 1 NullActivation
node 8 1 1 1 NullActivation
node 9 1 1 1 NullActivation
node 10 1 1 1 NullActivation
node 11 1 1 1 NullActivation
node 12 1 1 1 NullActivation
node 13 1 1 1 NullActivation
node 14 1 1 1 NullActivation
node 15 1 1 1 NullActivation
node 16 1 1 1 NullActivation
node 17 1 1 1 NullActivation
node 18 1 1 1 NullActivation
node 19 1 1 1 NullActivation
node 20 1 1 1 NullActivation
node 21 1 1 1 NullActivation
node 22 1 1 1 NullActivation
node 23 1 1 1 NullActivation
node 24 1 1 1 NullActivation
node 25 1 1 1 NullActivation
node 26 1 1 1 NullActivation
node 27 1 1 1 NullActivation
node 28 1 1 1 NullActivation
node 29 1 1 1 NullActivation
node 30 1 1 1 NullActivation
node 31 1 1 1 NullActivation
node 32 1 1 1 NullActivation
node 33 1 1 1 NullActivation
node 34 1 1 1 NullActivation
node 35 1 1 1 NullActivation
node 36 1 1 1 NullActivation
node 37 1 1 1 NullActivation
node 38 1 1 1 NullActivation
node 39 1 1 1 NullActivation
node 40 1 1 1 NullActivation
node 41 1 1 1 NullActivation
node 42 1 1 1 NullActivation
node 43 1 1 1 NullActivation
node 44 1 1 1 NullActivation
node 45 1 1 1 NullActivation
node 46 1 1 1 NullActivation
node 47 1 1 1 NullActivation
node 48 1 1 1 NullActivation
node 49 1 1 1 NullActivation
node 50 1 1 1 NullActivation
node 51 1 1 1 NullActivation
node 52 1 1 1 NullActivation
node 53 1 1 1 NullActivation
node 54 1 1 1 NullActivation
node 55 1 1 1 NullActivation
node 56 1 0 2 SigmoidBipolarActivation
node 62 1 0 0 SigmoidSteepenedActivation
node 86 1 0 0 SigmoidSteepenedActivation
gene 1 1 56 -0.8626351960510474 false 1 -0.8626351960510474 true
gene 3 23 56 0.8978460058992941 false 12 0.8978460058992941 true
gene 6 47 56 -2.9988531045213973 false 68 -2.9988531045213973 true
gene 11 48 56 -1.9913062048792776 false 146 -1.9913062048792776 true
gene 11 48 62 -2.140383944350282 false 236 -2.140383944350282 true
gene 11 62 56 -2.0577494930600535 false 237 -2.0577494930600535 true
gene 5 38 62 1.4708363156621806 false 391 1.4708363156621806 true
gene 6 47 86 -0.29275051202973756 false 692 -0.29275051202973756 true
gene 6 86 56 1.9985999055922252 false 693 1.9985999055922252 true
gene 8 7 56 -2.185266142725549 false 785 -2.185266142725549 true
gene 5 7 62 -1.5264886216788451 false 786 -1.5264886216788451 true
gene 4 7 86 -11.431382692441604 false 787 -11.431382692441604 true
gene 9 34 56 12.160253188357714 false 935 12.160253188357714 true
gene 11 34 62 6.651304755368285 false 936 6.651304755368285 true
gene 4 34 86 -2.13134999102609 false 937 -2.13134999102609 true
gene 14 52 56 -2.3420978436961746 false 975 -2.3420978436961746 true
gene 4 52 62 -2.8831129228007466 false 976 -2.8831129228007466 true
gene 12 52 86 3.389181037565698 false 977 3.389181037565698 true
gene 9 18 56 -3.4510047013266596 false 1126 -3.4510047013266596 true
gene 14 18 62 -2.2586679446801594 false 1159 -2.2586679446801594 true
gene 2 18 86 -0.8957440494356534 false 1160 -0.8957440494356534 true
gene 1 55 56 1.228705462901159 false 1239 1.228705462901159 true
gene 3 55 62 0.6029845872660495 false 1329 0.6029845872660495 true
gene 10 55 86 -0.8447412081314161 false 1330 -0.8447412081314161 true
gene 9 22 56 1.4397259858429436 false 1578 1.4397259858429436 true
gene 7 22 62 -4.771679714875171 false 1654 -4.771679714875171 true
gene 13 22 86 7.886482598397963 false 1655 7.886482598397963 true
gene 10 45 56 2.0577522777308457 false 1889 2.0577522777308457 true
gene 13 45 62 -0.8917204011647188 false 1890 -0.8917204011647188 true
gene 15 45 86 1.7766247325494615 false 1891 1.7766247325494615 true
gene 4 43 56 7.391503666997698 false 2143 7.391503666997698 true
gene 12 43 62 -1.5681036052492066 false 2144 -1.5681036052492066 true
gene 4 43 86 -0.5140122720716727 false 2145 -0.5140122720716727 true
genomeend 21
/* Species #513 : (Size 1) (AF 3.000) (Age 5)  */
/* Organism #22 Fitness: 3.000 Error: 0.000 */
genomestart 22
trait 1 0.1 0 0 0 0 0 0 0
trait 2 0.2 0 0 0 0 0 0 0
trait 3 0.3 0 0 0 0 0 0 0
trait 4 0.4 0 0 0 0 0 0 0
trait 5 1.2695376922543669 0 0 0 0 0.5786325691076052 0 0.637919079016697
trait 6 0.6 0 0 0 0 0 0 0
trait 7 0.858092578377364 0.27095630920220604 0 0.15942651017341888 0 0 0 0
trait 8 0.8 0 0 0 0 0 0 0
trait 9 0.9 0 0 0 0 0 0 0
trait 10 1 0 0 0 0 0 0 0
trait 11 1.1 0 0 0 0 0 0 0
trait 12 1.2 0 0 0 0 0 0 0
trait 13 1.3 0 0 0 0 0 0 0
trait 14 1.4 0 0 0 0 0 0 0
trait 15 1.5 0 0 0 0 0 0 0
node 1 1 1 3 NullActivation
node 2 1 1 1 NullActivation
node 3 1 1 1 NullActivation
node 4 7 1 1 NullActivation
node 5 1 1 1 NullActivation
node 6 1 1 1 NullActivation
node 7 1 1 1 NullActivation
node 8 1 1 1 NullActivation
node 9 1 1 1 NullActivation
node 10 1 1 1 NullActivation
node 11 1 1 1 NullActivation
node 12 1 1 1 NullActivation
node 13 1 1 1 NullActivation
node 14 1 1 1 NullActivation
node 15 1 1 1 NullActivation
node 16 1 1 1 NullActivation
node 17 1 1 1 NullActivation
node 18 1 1 1 NullActivation
node 19 1 1 1 NullActivation
node 20 1 1 1 NullActivation
node 21 1 1 1 NullActivation
node 22 1 1 1 NullActivation
node 23 1 1 1 NullActivation
node 24 1 1 1 NullActivation
node 25 1 1 1 NullActivation
node 26 1 1 1 NullActivation
node 27 1 1 1 NullActivation
node 28 1 1 1 NullActivation
node 29 1 1 1 NullActivation
node 30 1 1 1 NullActivation
node 31 1 1 1 NullActivation
node 32 1 1 1 NullActivation
node 33 1 1 1 NullActivation
node 34 1 1 1 NullActivation
node 35 1 1 1 NullActivation
node 36 1 1 1 NullActivation
node 37 1 1 1 NullActivation
node 38 1 1 1 NullActivation
node 39 1 1 1 NullActivation
node 40 1 1 1 NullActivation
node 41 1 1 1 NullActivation
node 42 1 1 1 NullActivation
node 43 1 1 1 NullActivation
node 44 1 1 1 NullActivation
node 45 1 1 1 NullActivation
node 46 1 1 1 NullActivation
node 47 1 1 1 NullActivation
node 48 1 1 1 NullActivation
node 49 1 1 1 NullActivation
node 50 1 1 1 NullActivation
node 51 1 1 1 NullActivation
node 52 1 1 1 NullActivation
node 53 1 1 1 NullActivation
node 54 1 1 1 NullActivation
node 55 1 1 1 NullActivation
node 56 1 0 2 SigmoidBipolarActivation
node 62 1 0 0 SigmoidSteepenedActivation
node 86 1 0 0 SigmoidSteepenedActivation
gene 1 1 56 -0.36147620889744225 false 1 -0.36147620889744225 true
gene 3 23 56 -0.23801690220530936 false 12 -0.23801690220530936 true
gene 6 47 56 2.3630345486045687 false 68 2.3630345486045687 true
gene 11 48 56 -0.4351927840790676 false 146 -0.4351927840790676 true
gene 11 48 62 -2.7381828151689076 false 236 -2.7381828151689076 true
gene 11 62 56 1.5493344642709697 false 237 1.5493344642709697 true
gene 5 38 62 0.8383623790071848 false 391 0.8383623790071848 true
gene 6 47 86 1.468067192882121 false 692 1.468067192882121 true
gene 6 86 56 1.3707610000096682 false 693 1.3707610000096682 true
gene 15 15 56 3.028218587527266 false 1300 3.028218587527266 true
gene 3 15 62 -6.417902449981442 false 1301 -6.417902449981442 true
gene 10 15 86 -0.03769663044094429 false 1302 -0.03769663044094429 true
gene 6 31 56 9.820012739980058 false 1386 9.820012739980058 true
gene 8 31 62 -1.3139564048422416 false 1497 -1.3139564048422416 true
gene 11 31 86 -0.48441079446159657 false 1498 -0.48441079446159657 true
gene 6 54 56 -1.2080179756512452 false 1508 -1.2080179756512452 true
gene 11 54 62 -5.778258387050732 false 1587 -5.778258387050732 true
gene 5 54 86 -1.1197141440932066 false 1588 -1.1197141440932066 true
gene 4 7 56 6.130195362582121 false 1961 6.130195362582121 true
gene 14 7 62 -8.053789802188653 false 1962 -8.053789802188653 true
gene 1 7 86 -3.8051001057317286 false 1963 -3.8051001057317286 true
gene 2 18 56 -1.4355485111351234 false 2172 -1.4355485111351234 true
gene 4 18 62 -2.8992583422148748 false 2173 -2.8992583422148748 true
gene 6 18 86 -1.5921782597232916 false 2174 -1.5921782597232916 true
gene 15 42 86 3.41064167682548 false 2608 3.41064167682548 true
genomeend 22
/* Species #521 : (Size 2) (AF 1.500) (Age 5)  */
/* Organism #23 Fitness: 3.000 Error: 0.000 */
genomestart 23
trait 1 0.1 0 0 0 0 0 0 0
trait 2 0.2 0 0 0 0 0 0 0
trait 3 0.3 0 0 0 0 0 0 0
trait 4 0.4 0 0 0 0 0 0 0
trait 5 1.2695376922543669 0 0 0 0 0.5786325691076052 0 0.637919079016697
trait 6 0.6 0 0 0 0 0 0 0
trait 7 0.7 0 0 0 0 0 0 0
trait 8 0.8 0 0 0 0 0 0 0
trait 9 0.9 0 0 0 0 0 0 0
trait 10 1 0 0 0 0 0 0 0
trait 11 1.1 0 0 0 0 0 0 0
trait 12 1.2 0 0 0 0 0 0 0
trait 13 1.3 0 0 0 0 0 0 0
trait 14 1.4 0 0 0 0 0 0 0
trait 15 1.5 0 0 0 0 0 0 0
node 1 1 1 3 NullActivation
node 2 1 1 1 NullActivation
node 3 1 1 1 NullActivation
node 4 1 1 1 NullActivation
node 5 1 1 1 NullActivation
node 6 1 1 1 NullActivation
node 7 1 1 1 NullActivation
node 8 1 1 1 NullActivation
node 9 1 1 1 NullActivation
node 10 1 1 1 NullActivation
node 11 1 1 1 NullActivation
node 12 1 1 1 NullActivation
node 13 1 1 1 NullActivation
node 14 1 1 1 NullActivation
node 15 1 1 1 NullActivation
node 16 1 1 1 NullActivation
node 17 1 1 1 NullActivation
node 18 1 1 1 NullActivation
node 19 1 1 1 NullActivation
node 20 1 1 1 NullActivation
node 21 1 1 1 NullActivation
node 22 1 1 1 NullActivation
node 23 1 1 1 NullActivation
node 24 1 1 1 NullActivation
node 25 1 1 1 NullActivation
node 26 1 1 1 NullActivation
node 27 1 1 1 NullActivation
node 28 1 1 1 NullActivation
node 29 1 1 1 NullActivation
node 30 1 1 1 NullActivation
node 31 1 1 1 NullActivation
node 32 1 1 1 NullActivation
node 33 1 1 1 NullActivation
node 34 1 1 1 NullActivation
node 35 1 1 1 NullActivation
node 36 1 1 1 NullActivation
node 37 1 1 1 NullActivation
node 38 1 1 1 NullActivation
node 39 1 1 1 NullActivation
node 40 1 1 1 NullActivation
node 41 1 1 1 NullActivation
node 42 1 1 1 NullActivation
node 43 1 1 1 NullActivation
node 44 1 1 1 NullActivation
node 45 1 1 1 NullActivation
node 46 1 1 1 NullActivation
node 47 1 1 1 NullActivation
node 48 1 1 1 NullActivation
node 49 1 1 1 NullActivation
node 50 1 1 1 NullActivation
node 51 1 1 1 NullActivation
node 52 1 1 1 NullActivation
node 53 1 1 1 NullActivation
node 54 1 1 1 NullActivation
node 55 1 1 1 NullActivation
node 56 1 0 2 SigmoidBipolarActivation
node 62 1 0 0 SigmoidSteepenedActivation
node 86 1 0 0 SigmoidSteepenedActivation
gene 1 1 56 1.8062514192892474 false 1 1.8062514192892474 true
gene 3 23 56 -0.21013076760448435 false 12 -0.21013076760448435 true
gene 6 47 56 -2.3625349394621677 false 68 -2.3625349394621677 true
gene 11 48 56 -1.6715708582455153 false 146 -1.6715708582455153 true
gene 11 48 62 2.1390043367827865 false 236 2.1390043367827865 true
gene 11 62 56 0.4653850698592572 false 237 0.4653850698592572 true
gene 5 38 62 1.2990933153176827 false 391 1.2990933153176827 true
gene 6 47 86 -1.6615676000936561 false 692 -1.6615676000936561 true
gene 6 86 56 -2.5625204402686115 false 693 -2.5625204402686115 true
gene 8 7 56 0.7511445383406143 false 785 0.7511445383406143 true
gene 5 7 62 -0.7857550300187495 false 786 -0.7857550300187495 true
gene 4 7 86 -8.975622894903623 false 787 -8.975622894903623 true
gene 9 34 56 16.60398192149757 false 935 16.60398192149757 true
gene 11 34 62 3.342481543195241 false 936 3.342481543195241 true
gene 4 34 86 -0.564335800318809 false 937 -0.564335800318809 true
gene 13 12 56 -2.315555265087172 false 944 -2.315555265087172 true
gene 14 12 62 -7.65066657057668 false 945 -7.65066657057668 true
gene 14 12 86 5.787566795871248 false 946 5.787566795871248 true
gene 11 51 56 -4.4293180541330255 false 1110 -4.4293180541330255 true
gene 7 51 62 5.284772911870894 false 1189 5.284772911870894 true
gene 11 51 86 1.6506008813954 false 1190 1.6506008813954 true
gene 1 37 56 1.2813923717791775 false 1206 1.2813923717791775 true
gene 2 37 62 0.4978376271078889 false 1287 0.4978376271078889 true
gene 2 37 86 6.517126484348739 false 1288 6.517126484348739 true
gene 15 21 56 0.66976195027649 false 1709 0.66976195027649 true
gene 12 21 62 -2.337822514107568 false 1824 -2.337822514107568 true
gene 2 21 86 -4.228459364004275 false 1825 -4.228459364004275 true
gene 7 11 56 1.0972761191574971 false 2062 1.0972761191574971 true
gene 4 11 62 4.907453012486286 false 2063 4.907453012486286 true
gene 13 11 86 5.172777311686286 false 2064 5.172777311686286 true
gene 3 52 56 10.845950081924256 false 2181 10.845950081924256 true
gene 2 52 62 -1.2818351080462276 false 2182 -1.2818351080462276 true
gene 14 52 86 8.62174150067241 false 2183 8.62174150067241 true
genomeend 23
/* Organism #24 Fitness: 0.000 Error: 0.000 */
genomestart 24
trait 1 0.1 0 0 0 0 0 0 0
trait 2 0.2 0 0 0 0 0 0 0
trait 3 0.3 0 0 0 0 0 0 0
trait 4 0.4 0 0 0 0 0 0 0
trait 5 1.2695376922543669 0 0 0 0 0.5786325691076052 0 0.637919079016697
trait 6 0.6 0 0 0 0 0 0 0
trait 7 0.7 0 0 0 0 0 0 0
trait 8 0.8 0 0 0 0 0 0 0
trait 9 0.9 0 0 0 0 0 0 0
trait 10 1 0 0 0 0 0 0 0
trait 11 1.1 0 0 0 0 0 0 0
trait 12 1.2 0 0 0 0 0 0 0
trait 13 1.3 0 0 0 0 0 0 0
trait 14 1.4 0 0 0 0 0 0 0
trait 15 1.5 0 0 0 0 0 0 0
node 1 1 1 3 NullActivation
node 2 1 1 1 NullActivation
node 3 1 1 1 NullActivation
node 4 1 1 1 NullActivation
node 5 1 1 1 NullActivation
node 6 1 1 1 NullActivation
node 7 1 1 1 NullActivation
node 8 1 1 1 NullActivation
node 9 1 1 1 NullActivation
node 10 1 1 1 NullActivation
node 11 1 1 1 NullActivation
node 12 1 1 1 NullActivation
node 13 1 1 1 NullActivation
node 14 1 1 1 NullActivation
node 15 1 1 1 NullActivation
node 16 1 1 1 NullActivation
node 17 1 1 1 NullActivation
node 18 1 1 1 NullActivation
node 19 1 1 1 NullActivation
node 20 1 1 1 NullActivation
node 21 1 1 1 NullActivation
node 22 1 1 1 NullActivation
node 23 1 1 1 NullActivation
node 24 1 1 1 NullActivation
node 25 1 1 1 NullActivation
node 26 1 1 1 NullActivation
node 27 1 1 1 NullActivation
node 28 1 1 1 NullActivation
node 29 1 1 1 NullActivation
node 30 1 1 1 NullActivation
node 31 1 1 1 NullActivation
node 32 1 1 1 NullActivation
node 33 1 1 1 NullActivation
node 34 1 1 1 NullActivation
node 35 1 1 1 NullActivation
node 36 1 1 1 NullActivation
node 37 1 1 1 NullActivation
node 38 1 1 1 NullActivation
node 39 1 1 1 NullActivation
node 40 1 1 1 NullActivation
node 41 1 1 1 NullActivation
node 42 1 1 1 NullActivation
node 43 1 1 1 NullActivation
node 44 1 1 1 NullActivation
node 45 1 1 1 NullActivation
node 46 1 1 1 NullActivation
node 47 1 1 1 NullActivation
node 48 1 1 1 NullActivation
node 49 1 1 1 NullActivation
node 50 1 1 1 NullActivation
node 51 1 1 1 NullActivation
node 52 1 1 1 NullActivation
node 53 1 1 1 NullActivation
node 54 1 1 1 NullActivation
node 55 1 1 1 NullActivation
node 56 1 0 2 SigmoidBipolarActivation
node 62 1 0 0 SigmoidSteepenedActivation
node 86 1 0 0 SigmoidSteepenedActivation
gene 1 1 56 2.3910375895243092 false 1 2.3910375895243092 true
gene 3 23 56 0.3880251564231908 false 12 0.3880251564231908 true
gene 6 47 56 -0.29421603566766447 false 68 -0.29421603566766447 true
gene 11 48 56 -1.6715708582455153 false 146 -1.6715708582455153 true
gene 11 48 62 2.1390043367827865 false 236 2.1390043367827865 true
gene 11 62 56 0.4653850698592572 false 237 0.4653850698592572 true
gene 5 38 62 3.794945722707113 false 391 3.794945722707113 true
gene 6 47 86 -3.7908957018292897 false 692 -3.7908957018292897 true
gene 6 86 56 -0.7085169616123517 false 693 -0.7085169616123517 true
gene 8 7 56 0.32246733856460436 false 785 0.32246733856460436 true
gene 5 7 62 -2.591436790219019 false 786 -2.591436790219019 true
gene 4 7 86 -10.021683411042808 false 787 -10.021683411042808 true
gene 9 34 56 -0.7617600453110827 false 935 -0.7617600453110827 true
gene 11 34 62 5.166475198485307 false 936 5.166475198485307 true
gene 4 34 86 1.2930831562600373 false 937 1.2930831562600373 true
gene 13 12 56 -2.1401016795039385 false 944 -2.1401016795039385 true
gene 14 12 62 -0.8175575188922508 false 945 -0.8175575188922508 true
gene 14 12 86 6.241267470152675 false 946 6.241267470152675 true
gene 11 51 56 -3.4946277795430283 false 1110 -3.4946277795430283 true
gene 7 51 62 3.729114821909474 false 1189 3.729114821909474 true
gene 11 51 86 1.135126034297048 false 1190 1.135126034297048 true
gene 1 37 56 1.2813923717791775 false 1206 1.2813923717791775 true
gene 2 37 62 0.4978376271078889 false 1287 0.4978376271078889 true
gene 2 37 86 7.097145900227328 false 1288 7.097145900227328 true
gene 15 21 56 1.24178830755069 false 1709 1.24178830755069 true
gene 12 21 62 -3.8395905048206354 false 1824 -3.8395905048206354 true
