genomestart 161
trait 1 0.1 0 0 0 0 0 0 0
trait 2 0.2 0 0 0 0 0 0 0
trait 3 0.3 0 0 0 0 0 0 0
trait 4 0.4 0 0 0 0 0 0 0
trait 5 1.2695376922543669 0 0 0 0 0.5786325691076052 0 0.637919079016697
trait 6 0.6 0 0 0 0 0 0 0
trait 7 0.7 0 0 0 0 0 0 0
trait 8 0.8 0 0 0 0 0 0 0
trait 9 0.9 0 0 0.21227035652401424 0 0 0.2018189455440028 0.5877653878439025
trait 10 1 0 0 0 0 0 0 0
trait 11 1.1 0 0 0 0 0 0 0
trait 12 1.2 0 0 0 0 0 0 0
trait 13 1.3 0 0 0 0 0 0 0
trait 14 1.0601982055455905 0.042275112167392104 0.3732077956746535 0.8089555550422888 0.5431205897258841 0 0 0
trait 15 1.5 0 0 0 0 0 0 0
node 1 1 1 3 NullActivation
node 2 1 1 1 NullActivation
node 3 1 1 1 NullActivation
node 4 1 1 1 NullActivation
node 5 1 1 1 NullActivation
node 6 1 1 1 NullActivation
node 7 1 1 1 NullActivation
node 8 1 1 1 NullActivation
node 9 1 1 1 NullActivation
node 10 1 1 1 NullActivation
node 11 1 1 1 NullActivation
node 12 1 1 1 NullActivation
node 13 1 1 1 NullActivation
node 14 1 1 1 NullActivation
node 15 1 1 1 NullActivation
node 16 1 1 1 NullActivation
node 17 1 1 1 NullActivation
node 18 1 1 1 NullActivation
node 19 1 1 1 NullActivation
node 20 1 1 1 NullActivation
node 21 1 1 1 NullActivation
node 22 1 1 1 NullActivation
node 23 1 1 1 NullActivation
node 24 1 1 1 NullActivation
node 25 1 1 1 NullActivation
node 26 1 1 1 NullActivation
node 27 1 1 1 NullActivation
node 28 1 1 1 NullActivation
node 29 1 1 1 NullActivation
node 30 1 1 1 NullActivation
node 31 1 1 1 NullActivation
node 32 1 1 1 NullActivation
node 33 1 1 1 NullActivation
node 34 1 1 1 NullActivation
node 35 1 1 1 NullActivation
node 36 1 1 1 NullActivation
node 37 1 1 1 NullActivation
node 38 1 1 1 NullActivation
node 39 1 1 1 NullActivation
node 40 1 1 1 NullActivation
node 41 1 1 1 NullActivation
node 42 1 1 1 NullActivation
node 43 1 1 1 NullActivation
node 44 1 1 1 NullActivation
node 45 1 1 1 NullActivation
node 46 1 1 1 NullActivation
node 47 1 1 1 NullActivation
node 48 1 1 1 NullActivation
node 49 1 1 1 NullActivation
node 50 1 1 1 NullActivation
node 51 1 1 1 NullActivation
node 52 1 1 1 NullActivation
node 53 1 1 1 NullActivation
node 54 1 1 1 NullActivation
node 55 1 1 1 NullActivation
node 56 1 0 2 SigmoidBipolarActivation
node 62 1 0 0 SigmoidSteepenedActivation
node 86 1 0 0 SigmoidSteepenedActivation
gene 1 1 56 -0.509687721554901 false 1 -0.509687721554901 true
gene 3 23 56 -1.2830997750817592 false 12 -1.2830997750817592 true
gene 6 47 56 -2.485182994226018 false 68 -2.485182994226018 true
gene 11 48 56 1.7242696433084126 false 146 1.7242696433084126 true
gene 11 48 62 4.114119969828467 false 236 4.114119969828467 true
gene 11 62 56 -2.2014215184978174 false 237 -2.2014215184978174 true
gene 5 38 62 -0.5772676434028527 false 391 -0.5772676434028527 true
gene 6 47 86 -0.72741910427636 false 692 -0.72741910427636 true
gene 6 86 56 -1.0561063301853217 false 693 -1.0561063301853217 true
gene 8 7 56 -0.13061337384344007 false 785 -0.13061337384344007 true
gene 5 7 62 0.29377975293283864 false 786 0.29377975293283864 true
gene 4 7 86 -7.505695577098093 false 787 -7.505695577098093 true
gene 9 34 56 1.3088430999554608 false 935 1.3088430999554608 true
gene 11 34 62 7.178817190580178 false 936 7.178817190580178 true
gene 4 34 86 1.0793933273293204 false 937 1.0793933273293204 true
gene 14 52 56 7.397153240341601 false 975 7.397153240341601 true
gene 4 52 62 -6.688847396692076 false 976 -6.688847396692076 true
gene 12 52 86 -2.9144989721145436 false 977 -2.9144989721145436 true
gene 9 18 56 -1.81025432144552 false 1126 -1.81025432144552 true
gene 14 18 62 1.195517214890325 false 1159 1.195517214890325 true
gene 2 18 86 0.6834296143205543 false 1160 0.6834296143205543 true
gene 1 55 56 1.9841691065469456 false 1239 1.9841691065469456 true
gene 3 55 62 7.383168321479612 false 1329 7.383168321479612 true
gene 10 55 86 0.8802424303311813 false 1330 0.8802424303311813 true
gene 9 22 56 -1.2817746655766917 false 1578 -1.2817746655766917 true
gene 7 22 62 -9.923134292862647 false 1654 -9.923134292862647 true
gene 13 22 86 10.266065149442166 false 1655 10.266065149442166 true
gene 10 45 56 0.5706962331146255 false 1889 0.5706962331146255 true
gene 13 45 62 0.9086324871045581 false 1890 0.9086324871045581 true
gene 15 45 86 -2.9628968685106187 false 1891 -2.9628968685106187 true
gene 3 15 56 -4.297128024848456 false 2108 -4.297128024848456 true
gene 6 15 62 -7.922867519138815 false 2109 -7.922867519138815 true
gene 15 15 86 -1.2855199155346941 false 2110 -1.2855199155346941 true
gene 9 50 56 8.599013555256382 false 2676 8.599013555256382 true
gene 2 50 62 -4.647495464816665 false 2677 -4.647495464816665 true
gene 2 50 86 -9.743261760871867 false 2678 -9.743261760871867 true
gene 3 51 56 -2.6184228113786485 false 2929 -2.6184228113786485 true
gene 13 51 62 2.1939232621931386 false 2930 2.1939232621931386 true
gene 13 51 86 8.199258364777615 false 2931 8.199258364777615 true
genomeend 161
